svm_type c_svc
kernel_type rbf
gamma 5.0000000000000002e-05
nr_class 2
total_sv 192
rho -0.10982602834701538
label 100 200
probA -0.47394867801483748
probB 0.031099922415779701
nr_sv 96 96
SV
50 1:0.85779823 2:-0.67185657 3:-0.38318979 4:-0.022112435 5:-0.096480192 6:0.21626009 
50 1:-1.0429894 2:0.044322359 3:-0.99307129 4:-1.100814 5:0.14871976 6:-0.064730703 
50 1:1.8081921 2:0.053332025 3:-0.47247692 4:0.027435218 5:-0.3302755 6:0.61650063 
50 1:0.85779823 2:0.038057359 3:-1.1674927 4:-1.2785804 5:0.18407417 6:-0.085291005 
50 1:-0.092595598 2:0.18728368 3:-0.9414568 4:-0.37008069 5:0.13617465 6:0.66310398 
50 1:0.85779823 2:1.6063955 3:0.74461636 4:1.0928989 5:0.83984149 6:0.93038791 
50 1:-1.0429894 2:0.032269693 3:-1.1476181 4:-1.2925748 5:0.17837185 6:-0.22235968 
50 1:-1.0429894 2:0.026840027 3:-1.1431686 4:-1.2543739 5:0.17609092 6:-0.18260977 
50 1:-0.092595598 2:-0.072146963 3:-0.79907202 4:1.7033562 5:-0.20710529 6:0.50273363 
50 1:-1.0429894 2:0.40464932 3:0.072144886 4:0.33455502 5:0.42243134 6:0.62335407 
50 1:0.85779823 2:0.18573234 3:-0.51252264 4:0.20179757 5:0.092836981 6:0.46024234 
50 1:0.85779823 2:0.18668701 3:-0.72194693 4:0.15262814 5:0.057482569 6:1.1908184 
50 1:0.85779823 2:-0.77704889 3:-0.21203141 4:1.0773916 5:-0.2002625 6:-2.6388805 
50 1:-1.0429894 2:0.019859028 3:-0.80619126 4:-0.98129449 5:0.24679974 6:-0.19631664 
50 1:-0.092595598 2:-1.1709085 3:-0.031677353 4:3.1682269 5:0.040375595 6:-0.30185952 
50 1:-1.0429894 2:0.18089935 3:-0.76377246 4:-0.22068128 5:0.56955131 6:0.46024234 
50 1:-1.0429894 2:-1.7191855 3:0.067991996 4:0.86709774 5:-0.10104205 6:0.25326863 
50 1:1.8081921 2:0.23573301 3:-0.97052703 4:0.54976582 5:-0.052002061 6:0.39033731 
50 1:-0.092595598 2:2.7416731 3:0.50493531 4:1.1360167 5:0.2319737 6:1.6225847 
50 1:-1.0429894 2:0.053630358 3:-1.1280402 4:-1.1019487 5:0.26618764 6:0.01065707 
50 1:0.85779823 2:-0.0050219696 3:-0.55761115 4:-0.67644404 5:-0.17403181 6:-0.48827292 
50 1:0.85779823 2:0.056375024 3:-1.0515084 4:-0.9915066 5:0.30724438 6:-0.15382534 
50 1:-0.092595598 2:0.058642357 3:-0.85810238 4:-1.0210083 5:0.014144903 6:-0.24840273 
50 1:-0.092595598 2:0.021470028 3:-1.0254045 4:-1.0346244 5:0.21828812 6:-0.19357526 
50 1:1.8081921 2:0.28597233 3:-0.065790375 4:0.1533846 5:-0.3302755 6:1.5088177 
50 1:-1.0429894 2:-0.84882789 3:0.90687569 4:0.22562583 5:-0.92673864 6:-2.3839328 
50 1:-1.0429894 2:0.085790688 3:-0.85424612 4:-0.71199732 5:0.34259879 6:-0.35257493 
50 1:-0.092595598 2:-0.10007096 3:-0.01832878 4:-0.63256978 5:-0.44888384 6:-0.22921312 
50 1:-0.092595598 2:0.24545867 3:-0.89429184 4:-0.33187983 5:0.15670301 6:0.75494 
50 1:1.8081921 2:1.8628428 3:0.67579705 4:2.3357507 5:0.61631037 6:1.5800934 
50 1:-1.0429894 2:0.022723028 3:-1.1327864 4:-1.1768375 5:0.19091696 6:-0.18809251 
50 1:-0.092595598 2:-1.6745548 3:2.1634214 4:0.51232141 5:-1.531185 6:1.4060162 
50 1:0.85779823 2:-5.3043761 3:4.769063 4:-0.80314987 5:-1.8927124 6:0.31357885 
50 1:-1.0429894 2:0.092354021 3:-0.082401933 4:3.1005244 5:-0.35194433 6:1.0112584 
50 1:-0.092595598 2:0.010670362 3:-0.89013895 4:-0.19571834 5:0.083713261 6:0.022993251 
50 1:0.85779823 2:-1.7573721 3:0.18723925 4:3.1341866 5:-0.61881311 6:-0.086661692 
50 1:-0.092595598 2:0.03394036 3:-0.96489097 4:-1.129181 5:0.18293371 6:-0.22647174 
50 1:0.85779823 2:0.45250198 3:-1.0390497 4:0.034999746 5:0.27645183 6:0.90845692 
50 1:1.8081921 2:0.056852358 3:0.1172334 4:-0.073172994 5:0.80676801 6:-0.96938399 
50 1:-1.0429894 2:0.11186502 3:2.6825326 4:1.407205 5:-0.23789784 6:3.3140122 
50 1:-1.0429894 2:0.082986355 3:-0.21114151 4:-0.050857639 5:1.7100162 6:0.35881152 
50 1:1.8081921 2:0.020634695 3:-0.9337443 4:-1.1212382 5:0.11108442 6:-0.27170441 
50 1:-0.092595598 2:0.35972033 3:0.93001322 4:2.2884724 5:0.072308612 6:1.7665069 
50 1:-0.092595598 2:0.025587027 3:-1.1182512 4:-0.95406219 5:0.11336535 6:-0.27170441 
50 1:1.8081921 2:0.21705734 3:-0.76139938 4:0.55695213 5:0.20118115 6:-0.39095416 
50 1:-1.0429894 2:0.014966362 3:-0.93404093 4:-1.1080003 5:0.081432332 6:-0.29637677 
50 1:0.85779823 2:-0.029723967 3:-0.46031488 4:-0.4706889 5:0.23539509 6:-0.0044204844 
50 1:-0.092595598 2:0.85477461 3:0.4183179 4:0.62238529 5:1.3450674 6:-0.32104913 
50 1:-0.092595598 2:0.5922413 3:-0.43391437 4:1.6901183 5:0.50910667 6:-0.40054897 
50 1:-1.0429894 2:-0.057468964 3:1.3654734 4:0.032730387 5:-0.61653218 6:0.25601001 
50 1:-1.0429894 2:0.0031523629 3:-0.9533222 4:-0.91623955 5:0.3779532 6:-0.16204947 
50 1:-1.0429894 2:-0.0046639696 3:-0.49739426 4:-0.85988383 5:0.12705093 6:-0.64041916 
50 1:-0.092595598 2:0.050587358 3:-1.0170987 4:-0.825087 5:0.3813746 6:-0.046911775 
50 1:-0.092595598 2:-0.0035303031 3:-0.70385219 4:-0.93250329 5:0.057482569 6:-0.28678196 
50 1:-0.092595598 2:-0.23139728 3:0.014597702 4:-0.76457078 5:-0.69180287 6:-0.96938399 
50 1:-0.092595598 2:0.24283334 3:1.141514 4:1.2941153 5:-1.2209786 6:0.27931168 
50 1:0.85779823 2:-0.3288926 3:0.24389653 4:1.4476752 5:0.19547882 6:0.7234142 
50 1:0.85779823 2:0.28251167 3:-0.97290011 4:-0.25056116 5:0.2707495 6:1.1017238 
50 1:-1.0429894 2:0.02857036 3:-1.0604074 4:-1.0709341 5:0.18749557 6:-0.0057911712 
50 1:1.8081921 2:0.13972935 3:-0.01536243 4:0.42192531 5:-0.32913503 6:0.92353447 
50 1:-1.0429894 2:0.34623566 3:-0.7886898 4:-0.017951945 5:-0.06568764 6:-0.18672183 
50 1:-0.092595598 2:0.36210699 3:-0.50303032 4:0.051263479 5:0.96073077 6:0.42049242 
50 1:1.8081921 2:0.9392626 3:-0.50392022 4:0.65529098 5:0.49998295 6:2.1009544 
50 1:-1.0429894 2:0.12159068 3:-0.33602483 4:1.0320044 5:0.32777275 6:-0.10585131 
50 1:-1.0429894 2:0.65107263 3:-0.83911774 4:0.21125323 5:0.66763129 6:1.1990425 
50 1:-0.092595598 2:0.047126692 3:-0.47522079 4:-0.72703182 5:0.13959604 6:-1.2181636 
50 1:-0.092595598 2:-0.38110093 3:2.0664218 4:1.1390425 5:-0.63477962 6:0.55070767 
50 1:-1.0429894 2:0.054406024 3:-1.0809494 4:-1.0385012 5:0.14016627 6:-0.047254447 
50 1:1.8081921 2:0.50632131 3:-0.52498131 4:1.4938188 5:0.033532806 6:-0.31556639 
50 1:-1.0429894 2:0.22224834 3:-0.01773551 4:0.61482076 5:1.3382246 6:1.2086373 
50 1:0.85779823 2:0.099036687 3:1.9824741 4:0.94652528 5:1.0428442 6:-0.26348029 
50 1:-0.092595598 2:0.029763694 3:-0.81449704 4:-0.8882508 5:0.21258579 6:-0.24566136 
50 1:-1.0429894 2:-0.014150969 3:-0.415523 4:-0.31296851 5:-0.16946995 6:-0.00030842401 
50 1:-1.0429894 2:0.046410692 3:-1.1360493 4:-1.1651125 5:0.26846857 6:-0.10448062 
50 1:-0.092595598 2:0.082151022 3:-1.0473555 4:-0.50813331 5:0.11564628 6:0.49039745 
50 1:-1.0429894 2:2.9636927 3:0.77368659 4:0.85007756 5:1.3028702 6:-0.80764294 
50 1:-0.092595598 2:0.16842901 3:-1.0212516 4:-0.64580771 5:0.45436435 6:0.69188841 
50 1:-1.0429894 2:-1.1945962 3:1.2628377 4:0.88298325 5:-1.6440911 6:2.8575735 
50 1:-1.0429894 2:0.13066002 3:-0.67240889 4:-0.66396257 5:-0.099901587 6:0.4643544 
50 1:0.85779823 2:-0.29374894 3:0.14926998 4:0.14695475 5:-0.029192763 6:-0.73088448 
50 1:-1.0429894 2:1.0142636 3:1.6532093 4:0.13636441 5:0.19775975 6:0.021622565 
50 1:1.8081921 2:-0.11564396 3:-0.61248862 4:0.17418705 5:0.32777275 6:-0.75692753 
50 1:0.85779823 2:0.11108935 3:-0.02010859 4:0.25323636 5:0.52507318 6:0.4533889 
50 1:0.85779823 2:0.18704501 3:-0.74093157 4:-0.57886164 5:0.76913266 6:0.24504451 
50 1:-1.0429894 2:1.1139666 3:1.08456 4:1.475664 5:-0.43976013 6:0.73300901 
50 1:-0.092595598 2:0.024632361 3:-1.1016397 4:-1.0796333 5:0.25592346 6:-0.1277823 
50 1:-0.092595598 2:0.45029432 3:-0.4027677 4:0.70937735 5:1.3884051 6:-0.090773752 
50 1:-1.0429894 2:-0.79984156 3:-0.16308664 4:-0.53271802 5:-1.352132 6:0.20392391 
50 1:-1.0429894 2:-0.010153302 3:-0.74775417 4:-0.95368396 5:0.070027683 6:-0.59792787 
50 1:-0.092595598 2:0.068905023 3:-0.47811298 4:-0.40714687 5:0.99950657 6:-0.10859268 
50 1:-1.0429894 2:-0.14124096 3:-0.1915636 4:1.5263463 5:0.4691904 6:-0.10996337 
50 1:-1.0429894 2:-0.11301863 3:-0.99010494 4:0.1104559 5:0.12990209 6:0.46229837 
50 1:-0.092595598 2:-0.37065927 3:2.3630568 4:1.2320862 5:-0.28123551 6:-0.40603171 
50 1:-1.0429894 2:0.027377027 3:-1.0325237 4:-1.1019487 5:0.085994191 6:-0.18398045 
50 1:-1.0429894 2:0.43513899 3:-0.86729806 4:2.1572279 5:0.19661929 6:0.3711477 
50 1:-0.092595598 2:-0.015702302 3:-0.28203727 4:-0.047453601 5:-0.087356473 6:-0.85013424 
-50 1:0.85779823 2:0.041756692 3:-0.39802154 4:-0.54028255 5:0.12248907 6:-0.12915298 
-50 1:-0.092595598 2:-0.053113298 3:-0.8260658 4:-1.1541439 5:-0.18657692 6:-0.12229955 
-50 1:-1.0429894 2:-0.14816229 3:-0.50184378 4:-0.88446854 5:-0.48081686 6:0.13264819 
-50 1:-1.0429894 2:-0.25848594 3:0.10833435 4:-1.2169295 5:-1.2905469 6:-0.41425584 
-50 1:-1.0429894 2:-0.73993623 3:0.030912625 4:-1.0811462 5:-1.6429506 6:-0.23332518 
-50 1:-0.092595598 2:0.20768968 3:-0.18978379 4:-0.80201519 5:0.062044428 6:0.072337976 
-50 1:-1.0429894 2:-2.3161504 3:1.5556164 4:0.23129923 5:-2.3819718 6:-1.8973389 
-50 1:1.8081921 2:-1.3583215 3:2.2556749 4:0.94917286 5:-3.9478301 6:-0.13600642 
-50 1:1.8081921 2:0.0041666962 3:-0.27669784 4:0.30959208 5:0.078010937 6:-0.75418616 
-50 1:-1.0429894 2:-0.21707728 3:-0.57303617 4:0.014197296 5:0.34145833 6:-1.3463229 
-50 1:0.85779823 2:-0.54703392 3:-0.34878014 4:-0.43210981 5:-0.60398707 6:-1.6711756 
-50 1:-1.0429894 2:-0.0029933031 3:-0.73618541 4:-0.57734873 5:0.12248907 6:0.3807425 
-50 1:1.8081921 2:-0.85616688 3:2.0593025 4:0.64356596 5:-0.43177687 6:-0.54035902 
-50 1:-0.092595598 2:0.018248028 3:-0.76807366 4:-1.1651125 5:-0.24673644 6:-0.17061626 
-50 1:0.85779823 2:0.085432688 3:0.0030289379 4:-0.46539373 5:-0.14894158 6:0.049036301 
-50 1:1.8081921 2:-0.6542549 3:-0.034643703 4:0.68781845 5:1.1295196 6:-1.3449522 
-50 1:-1.0429894 2:-0.52597158 3:2.5959152 4:2.647031 5:0.48971876 6:0.090156904 
-50 1:1.8081921 2:-0.15198095 3:-0.55256836 4:-1.2358408 5:-0.68610054 6:-0.12915298 
-50 1:-1.0429894 2:-1.0639859 3:-0.15448423 4:-0.32734111 5:-0.92559817 6:-0.31830776 
-50 1:-0.092595598 2:0.078869355 3:0.42247078 4:-0.3874791 5:-0.31773038 6:-0.41699721 
-50 1:0.85779823 2:0.09539702 3:-0.58134195 4:-0.48960022 5:0.53191597 6:-0.07021345 
-50 1:-1.0429894 2:0.086208355 3:-0.67092571 4:-0.36932424 5:0.37111042 6:-0.32379051 
-50 1:-1.0429894 2:0.69450996 3:-0.64393193 4:-0.067877825 5:0.34145833 6:1.5540504 
-50 1:-1.0429894 2:-0.06504663 3:-0.44844949 4:-0.3014326 5:-0.72116984 6:0.82792907 
-50 1:-0.092595598 2:0.63221797 3:1.7688969 4:1.0365432 5:-2.4401356 6:-0.34709218 
-50 1:-1.0429894 2:0.056196024 3:-0.82873552 4:-1.0841721 5:0.11336535 6:-0.32104913 
-50 1:-1.0429894 2:-0.47119759 3:-0.46862066 4:2.4189605 5:0.15328162 6:0.22859627 
-50 1:-1.0429894 2:-1.4301005 3:0.60193494 4:0.15451928 5:-1.3087944 6:-0.65138465 
-50 1:0.85779823 2:0.044322359 3:-0.68813054 4:-0.90186695 5:-0.048580667 6:-0.46908331 
-50 1:-0.092595598 2:-0.84536722 3:-0.1491448 4:-0.51342848 5:-0.64732474 6:-0.79804814 
-50 1:0.85779823 2:-0.24828295 3:0.2249119 4:0.96581482 5:0.91625264 6:0.56167316 
-50 1:-1.0429894 2:-2.3767121 3:4.385514 4:0.66550309 5:0.010723508 6:-1.4669433 
-50 1:-0.092595598 2:0.082509022 3:-0.90319089 4:-1.1344762 5:0.2285523 6:-0.26348029 
-50 1:0.85779823 2:0.6640203 3:-0.06074758 4:0.37615992 5:0.04379699 6:1.3607836 
-50 1:-1.0429894 2:0.021052361 3:-0.99692754 4:-0.91283552 5:0.15442208 6:-0.16753221 
-50 1:1.8081921 2:-0.42376259 3:-0.024261479 4:-0.66055853 5:-0.15350344 6:-0.61711748 
-50 1:-0.092595598 2:0.19933634 3:-1.0112402 4:0.32538304 5:0.25193183 6:0.69600047 
-50 1:-0.092595598 2:4.2848319 3:-0.56710347 4:2.0513245 5:0.88089822 6:4.7875005 
-50 1:-1.0429894 2:-1.2439405 3:1.7128329 4:0.19952821 5:-3.9786227 6:-0.52665215 
-50 1:1.8081921 2:0.20971834 3:-0.4985808 4:-0.33490564 5:0.47489272 6:-0.007161858 
-50 1:-0.092595598 2:-0.17632495 3:0.19287532 4:0.37426879 5:1.3017298 6:-2.3880448 
-50 1:-1.0429894 2:0.014787362 3:-0.94798277 4:-1.1424189 5:0.14073651 6:-0.16204947 
-50 1:-0.092595598 2:-0.83110689 3:0.55803297 4:-0.67379646 5:-1.1171963 6:-0.64864328 
-50 1:-1.0429894 2:0.88830727 3:0.79534094 4:-0.16697313 5:0.91055031 6:-0.27444578 
-50 1:-1.0429894 2:0.014250362 3:-0.99069821 4:-1.0191171 5:0.16582673 6:-0.24977342 
-50 1:-1.0429894 2:-0.27292528 3:0.90539251 4:0.86898887 5:1.181981 6:-0.75829822 
-50 1:-1.0429894 2:0.13692502 3:-0.32415943 4:-0.14579246 5:1.27778 6:-1.0776682 
-50 1:-0.092595598 2:0.287464 3:-0.24762761 4:-0.31977658 5:0.073449077 6:-0.00030842401 
-50 1:-0.092595598 2:-0.0068716361 3:0.097062223 4:0.0501288 5:0.49085923 6:-0.74459135 
-50 1:-0.092595598 2:0.38919566 3:1.9682356 4:-0.06106975 5:-1.4274027 6:-0.35394562 
-50 1:-1.0429894 2:-0.0063943028 3:-0.9898083 4:-0.94536298 5:-0.037176018 6:-0.079808258 
-50 1:0.85779823 2:-1.0379712 3:0.1468969 4:-1.0663954 5:-1.7455924 6:-0.28129922 
-50 1:1.8081921 2:0.46634465 3:0.27444993 4:0.0917337 5:1.5492107 6:-0.54447108 
-50 1:-0.092595598 2:0.19456301 3:0.86949968 4:0.76800244 5:0.60034386 6:-0.90222033 
-50 1:-1.0429894 2:-0.41349993 3:-0.037906688 4:-0.26947248 5:-0.088496938 6:-0.18535114 
-50 1:-1.0429894 2:-2.547657 3:0.70308747 4:-0.59626005 5:-2.7628871 6:-1.2092542 
-50 1:-1.0429894 2:0.041160026 3:-0.60151313 4:-0.68325212 5:0.37453181 6:-0.2100235 
-50 1:-1.0429894 2:-0.29649361 3:0.21363977 4:-1.0645043 5:-2.0945747 6:-0.16479084 
-50 1:0.85779823 2:0.035074026 3:-0.9218789 4:-1.1696512 5:0.36996995 6:-0.059247956 
-50 1:-0.092595598 2:0.018904361 3:-1.0049367 4:-1.1023269 5:0.11336535 6:-0.13189436 
-50 1:-0.092595598 2:0.12743802 3:0.53726852 4:-0.73204332 5:0.071168148 6:-0.21687694 
-50 1:-1.0429894 2:0.13483668 3:-0.82146796 4:-0.67228355 5:0.25193183 6:0.095639651 
-50 1:0.85779823 2:0.025885361 3:-0.46357787 4:-1.1185907 5:-0.52073313 6:-0.12915298 
-50 1:-1.0429894 2:0.72362729 3:1.2738131 4:2.2487586 5:0.79764429 6:0.062743168 
-50 1:1.8081921 2:0.83204161 3:0.42810685 4:-0.35759922 5:0.062044428 6:-0.44029888 
-50 1:1.8081921 2:-0.021609301 3:-0.71008153 4:-0.8595056 5:0.044937455 6:-0.2936354 
-50 1:1.8081921 2:0.262046 3:-0.01773551 4:-0.22635467 5:0.65850757 6:-0.16204947 
-50 1:-0.092595598 2:-0.040821966 3:-0.75665322 4:-0.601177 5:-0.14780111 6:-1.0982285 
-50 1:-0.092595598 2:-0.53253492 3:0.014597702 4:0.10383694 5:-1.1320223 6:0.46846646 
-50 1:-0.092595598 2:-0.12184929 3:-0.81004751 4:-0.84853704 5:-0.40098432 6:-0.41151446 
-50 1:0.85779823 2:0.19557734 3:2.3538611 4:0.017601333 5:-0.33483736 6:-1.5930465 
-50 1:0.85779823 2:0.016100028 3:-0.31110749 4:0.32547759 5:0.38365553 6:0.48354401 
-50 1:0.85779823 2:-0.012420636 3:-0.25830647 4:-0.47182358 5:0.27759229 6:-0.40054897 
-50 1:0.85779823 2:0.014310028 3:-0.9337443 4:-1.180998 5:0.19319789 6:-0.21961831 
-50 1:-1.0429894 2:0.02785436 3:-0.19927611 4:-0.71577958 5:-0.72715728 6:0.050406987 
-50 1:0.85779823 2:0.017114362 3:-0.78335037 4:-1.1450665 5:0.042656525 6:-0.23058381 
-50 1:0.85779823 2:0.026541694 3:-0.78453691 4:-1.048997 5:0.068887218 6:-0.19768732 
-50 1:-0.092595598 2:-1.1156572 3:0.62981863 4:-0.32280239 5:-1.7205022 6:-1.2654523 
-50 1:-0.092595598 2:-0.0066329694 3:-0.2084718 4:-1.0580744 5:0.022128157 6:0.0010622628 
-50 1:-1.0429894 2:0.0068516959 3:-0.69999594 4:-0.92607344 5:0.26276625 6:-0.33064394 
-50 1:-1.0429894 2:-0.13939129 3:0.052270343 4:-0.6242488 5:-0.70320752 6:-0.041429028 
-50 1:0.85779823 2:-0.039986633 3:-0.92039572 4:-1.3349361 5:-0.14095832 6:-0.17301496 
-50 1:-0.092595598 2:0.10237802 3:0.92793677 4:0.19045078 5:-0.32001131 6:0.28479443 
-50 1:1.8081921 2:-0.11027396 3:-0.7590263 4:2.6402229 5:0.42243134 6:1.319663 
-50 1:-0.092595598 2:0.021649028 3:-0.026041289 4:-0.28006281 5:0.45664528 6:-0.65138465 
-50 1:-1.0429894 2:0.14790368 3:-0.40603068 4:-0.64580771 5:-0.24588109 6:-0.47593674 
-50 1:0.85779823 2:0.010789696 3:-0.007353286 4:-1.1095132 5:-0.59942521 6:-0.15656672 
-50 1:-1.0429894 2:-0.73271656 3:0.07896749 4:-0.86328786 5:-1.5209208 6:-0.57462619 
-50 1:-1.0429894 2:-0.11015463 3:0.20147773 4:0.59704412 5:0.10424163 6:-0.73225517 
-50 1:-1.0429894 2:-0.15269695 3:-0.74241474 4:0.062988496 5:0.43155505 6:0.25052726 
-50 1:-1.0429894 2:-0.077934629 3:0.31775864 4:0.71278139 5:0.059763499 6:-1.8055029 
-50 1:-1.0429894 2:-1.8399508 3:0.58028059 4:0.59893525 5:-0.79102331 6:-1.4107451 
-50 1:-0.092595598 2:0.11341635 3:1.0193003 4:-0.47144535 5:-0.13069414 6:-0.35668699 
-50 1:1.8081921 2:-0.23318728 3:-0.32000654 4:-0.40601219 5:0.35742484 6:-0.27444578 
-50 1:-0.092595598 2:-0.040583299 3:-0.57548341 4:-1.0294238 5:-0.5235843 6:-0.20317007 
-50 1:0.85779823 2:0.49647631 3:1.1587188 4:-0.37083714 5:1.0154731 6:-0.007161858 
