svm_type c_svc
kernel_type rbf
gamma 8.9999999999999995e-09
nr_class 2
total_sv 77
rho -90.985908737546808
label 100 200
probA -0.47662524191014283
probB -0.0013375039627045622
nr_sv 39 38
SV
30000 1:22 2:93 3:69 4:-117 5:10 
30000 1:22 2:188 3:48 4:-174 5:-30 
30000 1:27 2:166 3:59 4:259 5:61 
30000 1:27 2:57 3:31 4:-28 5:-26 
2668.1992947871554 1:22 2:45 3:64 4:118 5:138 
30000 1:22 2:13 3:11 4:-10 5:-6 
30000 1:27 2:45 3:38 4:18 5:-15 
30000 1:22 2:29 3:40 4:-7 5:14 
30000 1:22 2:30 3:31 4:2 5:-3 
30000 1:22 2:40 3:43 4:-5 5:5 
30000 1:22 2:245 3:236 4:-129 5:-96 
30000 1:32 2:91 3:30 4:-122 5:-68 
30000 1:27 2:27 3:98 4:2 5:46 
26471.021568949946 1:37 2:112 3:142 4:167 5:93 
30000 1:32 2:55 3:85 4:-46 5:156 
30000 1:37 2:155 3:154 4:-78 5:-16 
30000 1:37 2:197 3:102 4:-385 5:-187 
30000 1:27 2:35 3:41 4:-26 5:49 
30000 1:27 2:131 3:76 4:-22 5:-33 
30000 1:27 2:21 3:35 4:-12 5:7 
30000 1:22 2:81 3:86 4:-8 5:-142 
30000 1:32 2:244 3:164 4:15 5:-22 
30000 1:32 2:273 3:234 4:-244 5:-12 
30000 1:37 2:215 3:207 4:40 5:-122 
30000 1:27 2:46 3:102 4:-14 5:32 
30000 1:22 2:34 3:15 4:5 5:9 
21799.690812610694 1:32 2:228 3:253 4:2 5:96 
3908.6262640670966 1:37 2:236 3:154 4:329 5:273 
30000 1:22 2:36 3:52 4:-5 5:-49 
29102.224404196146 1:22 2:200 3:344 4:-41 5:-327 
30000 1:37 2:147 3:124 4:194 5:7 
30000 1:37 2:209 3:75 4:-501 5:30 
30000 1:27 2:184 3:243 4:-314 5:30 
30000 1:27 2:58 3:85 4:-5 5:0 
30000 1:37 2:78 3:77 4:-55 5:-47 
30000 1:32 2:97 3:20 4:-301 5:2 
30000 1:27 2:72 3:70 4:63 5:-12 
30000 1:22 2:94 3:96 4:20 5:34 
30000 1:22 2:39 3:40 4:-32 5:-24 
-30000 1:27 2:22 3:11 4:-17 5:0 
-30000 1:27 2:99 3:37 4:-221 5:-1 
-30000 1:37 2:190 3:233 4:62 5:-56 
-30000 1:37 2:75 3:98 4:-106 5:135 
-30000 1:37 2:134 3:90 4:-333 5:47 
-30000 1:22 2:68 3:59 4:-1 5:1 
-30000 1:32 2:71 3:37 4:6 5:-33 
-30000 1:22 2:123 3:67 4:-148 5:-34 
-30000 1:22 2:14 3:8 4:3 5:-3 
-30000 1:22 2:75 3:35 4:-71 5:-25 
-30000 1:37 2:156 3:76 4:139 5:9 
-30000 1:37 2:89 3:103 4:-30 5:-60 
-30000 1:22 2:74 3:31 4:-8 5:6 
-13873.743996999592 1:27 2:201 3:118 4:89 5:-138 
-10076.018347611413 1:32 2:260 3:221 4:-561 5:-174 
-30000 1:37 2:110 3:125 4:-215 5:-62 
-30000 1:32 2:180 3:99 4:33 5:-28 
-30000 1:27 2:73 3:50 4:29 5:-5 
-30000 1:22 2:176 3:183 4:-30 5:-132 
-30000 1:27 2:138 3:81 4:45 5:28 
-30000 1:22 2:12 3:14 4:5 5:1 
-30000 1:37 2:122 3:343 4:-259 5:-222 
-30000 1:37 2:91 3:87 4:39 5:-32 
-30000 1:22 2:109 3:84 4:-183 5:-90 
-30000 1:27 2:78 3:94 4:-95 5:50 
-30000 1:27 2:271 3:242 4:-391 5:-77 
-30000 1:27 2:49 3:65 4:-14 5:20 
-30000 1:22 2:149 3:100 4:-92 5:-79 
-30000 1:37 2:217 3:193 4:27 5:108 
-30000 1:37 2:116 3:58 4:-16 5:-15 
-30000 1:32 2:74 3:115 4:45 5:12 
-30000 1:22 2:12 3:20 4:6 5:46 
-30000 1:22 2:114 3:40 4:-67 5:-30 
-30000 1:22 2:81 3:135 4:92 5:208 
-30000 1:22 2:193 3:144 4:-91 5:-189 
-30000 1:32 2:64 3:56 4:85 5:10 
-30000 1:32 2:95 3:140 4:8 5:47 
-30000 1:22 2:142 3:82 4:49 5:25 
