svm_type c_svc
kernel_type rbf
gamma 0.10000000000000001
nr_class 2
total_sv 160
rho 0.19467963945691946
label 200 100
probA -1.2567879776141844
probB 0.017304655488655073
nr_sv 79 81
SV
1 1:-1.0848183 2:-0.043731426 3:-0.81260125 4:-0.40398153 5:0.21635391 6:-0.77025216 
1 1:0.73464375 2:-0.26937293 3:-0.32209196 4:-0.60292039 5:-0.10001586 6:-0.54071088 
1 1:-1.0848183 2:-0.2395667 3:-0.29510807 4:-0.54839305 5:-0.25071566 6:-0.26277662 
1 1:-0.17508729 2:-0.23813026 3:-0.47880419 4:-0.79920673 5:-0.47127629 6:-0.16492578 
1 1:0.73464375 2:-0.07030565 3:-0.2525509 4:-0.59122519 5:-0.48524846 6:-0.27756665 
1 1:1.6443748 2:-0.82635431 3:3.6958139 4:0.70874984 5:-0.056103337 6:0.79110181 
0.11743894121972878 1:1.6443748 2:-2.0637316 3:0.84756899 4:0.31448919 5:-2.8535307 6:-2.3547969 
1 1:-0.17508729 2:-0.017995127 3:-0.81456016 4:-0.66609855 5:0.32214318 6:-0.27803994 
0.83884416992033062 1:-0.17508729 2:-0.23741204 3:-0.6078959 4:0.049177089 5:-0.096522819 6:-1.2560751 
1 1:0.73464375 2:-0.040738833 3:-0.65569313 4:-0.41410932 5:0.085863857 6:-0.51456211 
1 1:-1.0848183 2:-0.013326683 3:-0.61744555 4:-0.7936907 5:0.4162058 6:-0.23094848 
1 1:-1.0848183 2:-0.019551276 3:-0.61612329 4:-0.8335689 5:0.26326047 6:-0.30075742 
0.42762786474807207 1:0.73464375 2:-0.36034775 3:-0.052938692 4:-0.59206918 5:0.33312131 6:-0.79060324 
1 1:1.6443748 2:0.26079482 3:0.086535197 4:-0.49820621 5:0.48631614 6:-0.44013867 
1 1:-1.0848183 2:-0.012847868 3:-0.68350955 4:-0.7794937 5:0.35407956 6:-0.29555133 
1 1:-1.0848183 2:-0.016558683 3:-0.6769962 4:-0.83715583 5:0.1814235 6:-0.2690476 
1 1:-1.0848183 2:-0.015122238 3:-0.79007387 4:-0.7479649 5:0.18741157 6:-0.35139849 
1 1:-0.17508729 2:-0.041217648 3:-0.50025418 4:-0.665134 5:0.1814235 6:-0.30383375 
1 1:-1.0848183 2:-0.11471573 3:-0.35524639 4:-0.74606594 5:0.30492747 6:-0.1825555 
1 1:0.73464375 2:0.18657852 3:-0.33991797 4:-0.11063713 5:0.57464019 6:-0.73664921 
1 1:-0.17508729 2:0.66551308 3:-0.054701705 4:0.49461929 5:1.9049901 6:0.85120849 
0.12543568846210357 1:-0.17508729 2:0.22835512 3:0.10377354 4:-0.25881644 5:-1.0032166 6:0.029592705 
1 1:-0.17508729 2:-0.3811762 3:0.34961586 4:0.062741102 5:0.24130421 6:-0.081155046 
1 1:-1.0848183 2:-0.019551276 3:-0.64550683 4:-0.88951292 5:0.25527638 6:-0.23639121 
1 1:1.6443748 2:-1.586832 3:1.1098661 4:0.94422112 5:-0.30361029 6:-0.45362718 
1 1:-0.17508729 2:-0.052589501 3:-0.35382618 4:-0.69599966 5:0.2403062 6:-0.30454367 
0.94512893796748998 1:0.73464375 2:-0.12776343 3:-0.079628745 4:-0.74534253 5:-0.64892241 6:-0.1481243 
1 1:1.6443748 2:0.29957883 3:-0.50250692 4:3.574434 5:0.31914914 6:-2.3585831 
1 1:-1.0848183 2:-0.029726091 3:0.16900501 4:-0.47547895 5:0.56366206 6:-0.15735328 
1 1:-0.17508729 2:-0.029486684 3:-0.10489859 4:-0.66166764 5:0.3243887 6:-0.29815438 
1 1:0.73464375 2:2.1930522 3:-0.68096297 4:1.3189496 5:0.44689467 6:2.634058 
1 1:-1.0848183 2:-0.017276905 3:-0.57900208 4:-0.58320736 5:0.40722369 6:-0.26608959 
1 1:-1.0848183 2:-0.0049474226 3:-0.50069493 4:-0.66498329 5:0.11006565 6:-0.42736009 
1 1:0.73464375 2:-0.013685794 3:-0.5189617 4:-0.63456975 5:0.391006 6:-0.11144503 
1 1:1.6443748 2:-0.58658777 3:-0.1698852 4:-0.58857268 5:-0.79463215 6:-0.5899321 
1 1:-1.0848183 2:0.0031924299 3:-0.16714273 4:0.0080027728 5:0.54569785 6:-0.096300037 
1 1:-1.0848183 2:-0.037387129 3:-0.57410482 4:1.0376018 5:0.45038771 6:1.1742228 
1 1:1.6443748 2:-0.29846093 3:3.9481206 4:0.58504604 5:-0.98126038 6:-0.86680148 
1 1:-1.0848183 2:0.24954267 3:0.063616032 4:0.60385481 5:-0.10799996 6:-0.93069441 
1 1:-0.17508729 2:-0.056180612 3:-0.69741776 4:-0.24193678 5:0.37902986 6:-0.84455727 
1 1:-1.0848183 2:-0.028768462 3:-0.78850675 4:-0.91615867 5:0.31291157 6:-0.29708949 
1 1:-0.17508729 2:0.30867631 3:-0.71974925 4:0.31292179 5:0.42693443 6:0.39449234 
1 1:1.6443748 2:-3.3708962 3:1.329655 4:-0.22963874 5:-3.629984 6:-0.45031421 
0.30383106690929895 1:1.6443748 2:-0.5554648 3:2.0875545 4:0.47605166 5:-0.86249696 6:-0.62779458 
1 1:-1.0848183 2:-0.16355484 3:-0.50231103 4:-0.81174591 5:-0.41239359 6:-0.37269613 
1 1:-0.17508729 2:-0.059532316 3:-0.30749813 4:-0.37130733 5:-0.09826934 6:-0.55928716 
1 1:-1.0848183 2:0.045208434 3:-0.54991237 4:-0.6857513 5:0.33511733 6:-0.48912325 
1 1:-1.0848183 2:-5.2866344 3:2.4961817 4:-0.86129977 5:-0.99623056 6:-0.35518474 
1 1:-1.0848183 2:-0.46688406 3:2.7040213 4:0.19982806 5:-1.5730814 6:-0.40913877 
1 1:1.6443748 2:0.14695659 3:-0.75598896 4:0.70778529 5:-0.12197212 6:-0.42097079 
1 1:-1.0848183 2:-0.021466535 3:-0.74932869 4:-0.76797936 5:0.23731216 6:-0.18149061 
1 1:-0.17508729 2:-0.037865944 3:-0.36890974 4:-0.82754045 5:0.32314119 6:-0.22077294 
1 1:-0.17508729 2:-0.041816167 3:-0.79203277 4:-0.54130963 5:0.24429825 6:-0.18338374 
1 1:0.73464375 2:0.15294178 3:-0.37341521 4:-0.38300252 5:0.021741592 6:0.14081374 
1 1:-1.0848183 2:-0.02613498 3:-0.67978763 4:-0.8592501 5:-0.052111289 6:-0.27567353 
1 1:-0.17508729 2:0.22165171 3:-0.61925753 4:0.26312679 5:0.039705807 6:1.0476201 
1 1:-1.0848183 2:-0.040140315 3:-0.62910102 4:-0.8065313 5:0.10981614 6:-0.33140237 
1 1:-0.17508729 2:-0.0090173489 3:-0.86416937 4:-0.6373127 5:0.2482903 6:-0.153922 
1 1:0.73464375 2:-0.22735692 3:-0.44731483 4:-0.60554276 5:-0.35326138 6:-0.065181812 
1 1:0.73464375 2:-0.023740906 3:-0.60162741 4:-0.78702926 5:0.37703383 6:-0.27945978 
1 1:-1.0848183 2:-0.015241942 3:-0.72753589 4:-0.84981557 5:0.28147419 6:-0.22444086 
1 1:-0.17508729 2:0.26031601 3:-0.64922875 4:1.8844182 5:0.27723264 6:1.2343295 
1 1:0.73464375 2:0.03060458 3:-0.6662712 4:-0.323562 5:0.052679961 6:0.25724086 
1 1:-1.0848183 2:-0.057018538 3:-0.83140672 4:-0.82621419 5:-0.04712123 6:-0.41623798 
1 1:-1.0848183 2:-0.012488757 3:-0.63811197 4:-0.84722334 5:0.37379029 6:-0.28620403 
1 1:-1.0848183 2:0.12924044 3:-0.45666859 4:-0.2577916 5:0.14399805 6:-0.78232082 
1 1:-1.0848183 2:-0.070066243 3:-0.53203738 4:-0.75366179 5:0.041951333 6:-0.31140624 
1 1:0.73464375 2:-0.048878686 3:-0.2580848 4:-0.66281304 5:-0.11773057 6:-0.6343022 
1 1:-0.17508729 2:-0.025895573 3:-0.63238218 4:-0.61835322 5:0.2572724 6:-0.27945978 
1 1:-0.17508729 2:-0.034394536 3:-0.70956296 4:-0.89373283 5:-0.080055623 6:-0.29176508 
1 1:1.6443748 2:-6.7032081 3:4.493675 4:-0.43267695 5:-11.780747 6:-1.2515789 
1 1:-0.17508729 2:-0.083473059 3:1.8740341 4:0.47171118 5:1.8251491 6:-0.86348851 
1 1:1.6443748 2:-0.24375633 3:1.6080151 4:0.28338239 5:-0.14293037 6:-0.59040538 
1 1:-0.17508729 2:1.2432032 3:0.9236234 4:1.6202214 5:0.94140957 6:-0.84467559 
1 1:-1.0848183 2:-0.018354239 3:-0.71739857 4:-0.80716429 5:0.17443741 6:-0.25058964 
1 1:0.73464375 2:1.5847179 3:0.70182661 4:0.76035338 5:0.41795232 6:1.5526109 
1 1:-1.0848183 2:-0.24878389 3:-0.63571232 4:-0.1333041 5:-0.39243335 6:-0.42239064 
1 1:-1.0848183 2:-0.029247277 3:-0.63032533 4:-0.82573191 5:0.27673364 6:-0.23899425 
1 1:-0.17508729 2:-0.00051838521 3:-0.99575868 4:-0.7655077 5:0.40373065 6:-0.14705942 
-1 1:0.73464375 2:-0.018952757 3:-0.79026976 4:-0.72590078 5:0.18441753 6:-0.26573463 
-0.90300275453964773 1:1.6443748 2:1.3807428 3:-0.030803089 4:1.5532152 5:-0.40041745 6:0.64627783 
-1 1:1.6443748 2:-0.11100491 3:1.8775602 4:0.77216914 5:-0.10700194 6:-0.57242071 
-1 1:-0.17508729 2:0.011332282 3:-0.76147389 4:-0.72023403 5:0.23930819 6:-0.031460542 
-1 1:-1.0848183 2:0.0051076893 3:-0.76950539 4:-0.75314937 5:0.27723264 6:-0.085414575 
-0.79892027986217828 1:1.6443748 2:0.61739219 3:1.0908647 4:1.8881559 5:-0.094027789 6:3.4376891 
-1 1:-1.0848183 2:-0.073896762 3:-0.7430602 4:-0.6273959 5:0.27423861 6:-0.58709242 
-1 1:-1.0848183 2:-0.044210241 3:-0.67200099 4:-0.30490394 5:0.1477406 6:-0.065181812 
-1 1:0.73464375 2:-0.58179962 3:2.8671979 4:0.50498822 5:-0.63794428 6:-0.56437493 
-1 1:-0.17508729 2:-0.020030091 3:-0.80261085 4:-0.71058851 5:0.34509745 6:-0.14410142 
-1 1:-0.17508729 2:-0.029965499 3:-0.61671096 4:-0.62172915 5:-0.33454866 6:-0.0073232121 
-0.40466219801204589 1:0.73464375 2:-0.095084319 3:0.29084877 4:0.88887994 5:-0.10799996 6:2.2970819 
-1 1:-1.0848183 2:-0.010812905 3:-0.84727383 4:-0.40120844 5:0.20936783 6:-0.28419259 
-1 1:0.73464375 2:-0.025536461 3:-0.75814375 4:-0.5281676 5:0.25128433 6:-0.2813529 
-0.7662473385318207 1:-0.17508729 2:7.2962609 3:-0.47214392 4:6.4185363 5:-0.14293037 6:8.0573848 
-1 1:-1.0848183 2:0.30496549 3:-0.77048484 4:0.065152482 5:0.2572724 6:0.11667641 
-0.43328452641294857 1:-1.0848183 2:0.64576197 3:-0.73150267 4:1.9270997 5:0.23531614 6:-0.13652892 
-1 1:-0.17508729 2:0.039342952 3:-0.79281633 4:-0.45763473 5:0.17643344 6:0.33959175 
-1 1:-0.17508729 2:-0.090176467 3:-0.27547007 4:0.70091286 5:-0.024166956 6:0.19287464 
-1 1:-1.0848183 2:-0.084550392 3:-0.67959174 4:-0.74917059 5:0.078628271 6:-0.25484917 
-1 1:0.73464375 2:2.6569041 3:0.52670069 4:0.34125551 5:2.4938171 6:1.6075115 
-1 1:0.73464375 2:-0.034753647 3:-0.59633837 4:-0.12112663 5:0.25527638 6:0.07550096 
-0.2969531797232543 1:-1.0848183 2:0.10087066 3:-0.79849715 4:1.015598 5:0.34210342 6:-0.24207058 
-1 1:-1.0848183 2:-0.0084188303 3:-0.81123002 4:-0.83381004 5:0.16545531 6:-0.15640672 
-1 1:-0.17508729 2:-0.025057647 3:-0.8075081 4:-0.72397167 5:0.32513721 6:-0.15546016 
-1 1:-0.17508729 2:-0.010214386 3:-0.80398208 4:-0.6771909 5:0.25427837 6:-0.099139723 
-1 1:-0.17508729 2:0.024739098 3:-0.81867385 4:-0.58278536 5:0.21735193 6:0.1119436 
-1 1:1.6443748 2:-0.057976168 3:-0.75907423 4:-0.65973853 5:0.27798115 6:-0.3941121 
-1 1:-0.17508729 2:-0.024459128 3:-0.77342319 4:-0.56602627 5:0.25328036 6:-0.061750525 
-1 1:0.73464375 2:0.25612638 3:-0.036288017 4:0.53416592 5:0.45088671 6:-0.041399443 
-1 1:-1.0848183 2:-0.013446386 3:-0.77205196 4:-0.72119859 5:0.34409944 6:-0.14646782 
-1 1:-1.0848183 2:-0.0053065338 3:-0.81181769 4:-0.67309155 5:0.29220282 6:-0.12280377 
-1 1:-1.0848183 2:0.03994147 3:-0.78909442 4:-0.42616622 5:0.307173 6:0.32633988 
-1 1:-1.0848183 2:-0.028768462 3:-0.7450191 4:-0.45474108 5:0.23531614 6:-0.31684898 
-1 1:-1.0848183 2:-0.015361646 3:-0.77812456 4:-0.85249823 5:0.18541555 6:-0.21320044 
-1 1:-1.0848183 2:-0.019910387 3:-0.74756567 4:-0.85756213 5:0.26226246 6:-0.24869651 
-0.69168051980147616 1:1.6443748 2:2.2276465 3:3.1210717 4:3.7393724 5:3.6245646 6:2.1134489 
-1 1:1.6443748 2:-0.51632169 3:0.095644096 4:1.3297405 5:-0.11947709 6:-0.51846668 
-1 1:-1.0848183 2:-0.015840461 3:-0.48732542 4:-0.74265987 5:0.30068592 6:-0.18054405 
-0.31398387899930286 1:-0.17508729 2:0.55203396 3:0.0052407249 4:1.381766 5:0.0057734016 6:1.4229319 
-1 1:0.73464375 2:-0.032359573 3:-0.7328739 4:-0.4663157 5:0.22932807 6:0.016814118 
-1 1:-0.17508729 2:0.040300581 3:-0.74208075 4:-0.57928886 5:0.39200401 6:-0.07831536 
-1 1:0.73464375 2:-0.041217648 3:-0.50025418 4:-0.665134 5:0.1814235 6:-0.30383375 
-0.1032131460305754 1:0.73464375 2:0.36026861 3:-0.075270186 4:0.86295761 5:0.40597618 6:0.57670552 
-1 1:-1.0848183 2:-0.018234535 3:-0.82298344 4:-0.73253207 5:0.26326047 6:-0.22313934 
-1 1:1.6443748 2:-0.0061444598 3:1.0683374 4:0.3117161 5:0.37304178 6:-0.13842204 
-1 1:0.73464375 2:-0.024339424 3:-0.80261085 4:-0.6172681 5:0.26326047 6:-0.078788641 
-1 1:1.6443748 2:-0.28026596 3:0.094762589 4:-0.20480153 5:0.19639368 6:-0.58851226 
-1 1:-0.17508729 2:-0.11208225 3:2.7533857 4:0.60807472 5:-0.64393235 6:-0.080208484 
-1 1:-1.0848183 2:0.017915987 3:-0.73346157 4:0.75878598 5:0.33012727 6:-0.21556685 
-0.46093420514316535 1:-0.17508729 2:4.151764 3:-0.65079587 4:3.2605929 5:0.46585689 6:5.815926 
-1 1:0.73464375 2:-0.059891427 3:-0.43139874 4:-0.57157245 5:-0.10899797 6:-0.29791774 
-1 1:0.73464375 2:-3.9570356e-05 3:-0.93052721 4:-0.75604303 5:0.30617499 6:-0.24680339 
-1 1:-0.17508729 2:-0.012369053 3:-0.74051362 4:-0.86190262 5:0.25328036 6:-0.20468138 
-1 1:-1.0848183 2:-0.0396615 3:-0.78693962 4:-0.65295653 5:0.2822227 6:-0.42191735 
-0.77599497275076135 1:1.6443748 2:0.028569617 3:-0.81064235 4:-0.29763966 5:0.4997893 6:-0.19379592 
-0.87067892895521415 1:1.6443748 2:0.39510239 3:0.26636249 4:3.6531656 5:1.0217495 6:-0.3684366 
-1 1:-1.0848183 2:-0.015241942 3:-0.77479443 4:-0.7067303 5:0.22334 6:-0.050865063 
-1 1:-1.0848183 2:-0.0037503855 3:-0.78478483 4:-0.66971562 5:0.24130421 6:0.01302787 
-1 1:-1.0848183 2:0.038265618 3:-0.74129719 4:-0.61986033 5:0.15123364 6:-0.12268545 
-1 1:-0.17508729 2:-0.05869439 3:-0.61103014 4:-0.52828817 5:0.1315229 6:-0.23781105 
-1 1:-1.0848183 2:-0.015481349 3:-0.75226704 4:-0.77702204 5:0.35108552 6:-0.16871203 
-0.93875074046463258 1:-1.0848183 2:3.3407714 3:-0.72092459 4:1.4539869 5:0.20836982 6:3.745795 
-1 1:-1.0848183 2:-0.13733973 3:1.1631483 4:-0.097736247 5:0.17643344 6:-0.75037436 
-1 1:1.6443748 2:-4.3390598 3:0.86892103 4:-0.37697407 5:-3.3385645 6:-0.4133983 
-1 1:-1.0848183 2:-0.059891427 3:-0.086044152 4:-0.48440105 5:0.3490895 6:-0.5501765 
-1 1:0.73464375 2:-0.039541796 3:-0.58047125 4:-0.59646995 5:0.15547519 6:-0.34193287 
-1 1:0.73464375 2:-0.021107424 3:-0.68311777 4:-0.90856282 5:0.17044537 6:-0.25248276 
-1 1:-1.0848183 2:-0.18893203 3:-0.70192324 4:0.51342805 5:0.40996823 6:-0.33672678 
-1 1:-1.0848183 2:-0.057497353 3:-0.65961093 4:-0.44364873 5:0.11056465 6:-0.37127629 
-1 1:-1.0848183 2:-0.020389202 3:-0.84355192 4:-0.68249593 5:0.24729228 6:-0.1819639 
-1 1:-1.0848183 2:-0.0018351261 3:-0.76382457 4:-0.7771426 5:0.33711336 6:-0.16823875 
-1 1:-1.0848183 2:-0.00087749635 3:-0.77479443 4:-0.74290101 5:0.33910938 6:-0.13936861 
-1 1:-0.17508729 2:-1.3025357 3:0.36827441 4:3.2299382 5:0.94764714 6:-3.053123 
-1 1:-0.17508729 2:0.095843105 3:1.8848081 4:0.36404305 5:0.68342349 6:-0.14930751 
-1 1:1.6443748 2:-0.17576462 3:-0.29133718 4:-0.38649902 5:-0.018178884 6:-0.42901657 
-1 1:-1.0848183 2:-0.32347901 3:-0.28604814 4:0.39442644 5:0.023737616 6:-0.56437493 
-1 1:-0.17508729 2:-0.00051838521 3:-0.7814547 4:-0.76725595 5:0.2572724 6:-0.075002393 
-1 1:-1.0848183 2:-0.033915721 3:-0.80045605 4:-0.56433831 5:0.2403062 6:0.067455183 
-1 1:-0.17508729 2:-0.23358152 3:1.3680495 4:0.0098113079 5:-1.2427395 6:-0.37553582 
-1 1:-1.0848183 2:0.023542061 3:-0.77303141 4:0.023073899 5:0.46386087 6:0.082600175 
