svm_type c_svc
kernel_type rbf
gamma 0.0050000000000000001
nr_class 2
total_sv 178
rho 0.41545423997246161
label 100 200
probA -0.65257764129402851
probB -0.10263151809065807
nr_sv 88 90
SV
10 1:1.7353927 2:-1.1000683 3:-0.099530123 4:-0.31253431 5:-1.3101188 6:-0.45559134 
10 1:-1.0598389 2:0.09766273 3:-1.036274 4:-1.1897241 5:0.3050104 6:-0.18670277 
10 1:-1.0598389 2:-0.019372225 3:-0.48933199 4:-0.65364493 5:-0.42179773 6:-0.056908439 
10 1:-0.12809505 2:0.62170324 3:-0.77076816 4:0.12690436 5:0.5568746 6:1.4124766 
10 1:1.7353927 2:0.053139387 3:-0.55929769 4:-0.045957269 5:-0.24169484 6:0.94909873 
10 1:-1.0598389 2:0.016049242 3:-1.00933 4:-0.27203305 5:0.28741988 6:0.086229236 
10 1:0.80364883 2:-2.695703 3:2.326013 4:2.3063222 5:-0.24989042 6:-1.2189923 
10 1:-0.12809505 2:0.48138265 3:-0.28145077 4:0.84962685 5:0.31540479 6:-0.11917737 
10 1:-0.12809505 2:0.24018294 3:-0.43465746 4:1.2598146 5:0.27542635 6:-0.44022628 
10 1:-1.0598389 2:-0.74372985 3:1.0030074 4:0.1860812 5:-1.2469528 6:-0.47095641 
10 1:1.7353927 2:-0.12298191 3:0.43305488 4:-0.16087959 5:0.25623669 6:-0.36259229 
10 1:0.80364883 2:0.15189474 3:-0.65969822 4:-0.57461122 5:0.57906264 6:-0.40727227 
10 1:0.80364883 2:-1.2957586 3:0.27080132 4:-0.76007324 5:-1.5555864 6:-0.33994904 
10 1:-1.0598389 2:0.094401224 3:-1.082295 4:-1.1844364 5:0.32739833 6:-0.21783724 
10 1:-1.0598389 2:0.17267736 3:-0.13650427 4:0.18653122 5:-0.16433655 6:1.9809839 
10 1:0.80364883 2:-0.028625799 3:-0.49523212 4:-0.85570122 5:-0.060392589 6:-0.12645556 
10 1:-0.12809505 2:0.099786501 3:0.87753128 4:-0.69639626 5:0.26423238 6:-0.095725436 
10 1:-1.0598389 2:0.089243495 3:-1.1287093 4:-0.61651877 5:0.35618281 6:-0.014856693 
10 1:-0.12809505 2:-1.3843502 3:0.804173 4:1.9940125 5:0.43933797 6:-0.46044347 
10 1:-1.0598389 2:0.28227911 3:0.19586968 4:-0.270233 5:0.39536168 6:0.27465341 
10 1:1.7353927 2:0.97242886 3:2.2386911 4:1.9233603 5:-0.26748093 6:0.75501374 
10 1:1.7353927 2:1.1980037 3:0.90722859 4:0.46081475 5:-0.18432577 6:-0.73216245 
10 1:-0.12809505 2:-0.33497977 3:0.1632223 4:0.1730308 5:-0.40500678 6:0.2366451 
10 1:-1.0598389 2:0.11328762 3:-1.0189669 4:-1.0535949 5:0.34578841 6:-0.018091443 
10 1:1.7353927 2:-7.001042 3:1.2301623 4:-0.76817349 5:-4.1637802 6:-0.99660324 
10 1:0.80364883 2:0.091215568 3:-0.67734944 4:0.32648557 5:0.67920864 6:0.74611818 
10 1:0.80364883 2:1.0747491 3:1.9200841 4:0.42841374 5:0.70719355 6:0.30214878 
10 1:-1.0598389 2:0.037438651 3:-0.72676303 4:-0.8888335 5:0.10092044 6:-0.23744791 
6.6728072205467548 1:-0.12809505 2:-0.076638194 3:-0.36877269 4:1.91436 5:0.45053194 6:-0.58983346 
10 1:-1.0598389 2:0.15386681 3:-0.82327931 4:-0.33233493 5:0.39616125 6:0.078142362 
10 1:-0.12809505 2:0.085981989 3:-0.86281017 4:-0.43381309 5:0.34498884 6:-0.14505537 
10 1:-1.0598389 2:0.088485005 3:-1.0968486 4:-0.83072544 5:0.28901902 6:0.20591498 
10 1:-0.12809505 2:0.22440635 3:-0.88405064 4:-0.25605756 5:0.41375177 6:0.31023566 
10 1:0.80364883 2:0.49928301 3:0.36815345 4:-0.28913359 5:0.49530779 6:-0.02213488 
10 1:0.80364883 2:0.30298588 3:-0.8152158 4:-0.27270807 5:0.2226548 6:0.84396936 
10 1:-1.0598389 2:0.099028011 3:-0.6356552 4:-1.0685578 5:0.0195643 6:0.20187154 
10 1:1.7353927 2:0.035694125 3:-0.89526088 4:-0.97360488 5:0.052346625 6:-0.0091958808 
10 1:1.7353927 2:0.21469768 3:0.22379696 4:-0.2607827 5:0.60644787 6:0.1274723 
10 1:-0.12809505 2:0.037893745 3:-0.81226573 4:-0.060526472 5:0.31860307 6:-0.50168653 
10 1:-1.0598389 2:0.24018294 3:-0.43465746 4:1.2598146 5:0.27542635 6:-0.44022628 
10 1:-1.0598389 2:0.11389441 3:-0.90691364 4:-0.87105794 5:0.12190912 6:0.0065735242 
10 1:-1.0598389 2:0.02719904 3:-0.8973751 4:-0.68992731 5:0.22465372 6:-0.60257028 
10 1:1.7353927 2:-1.2083048 3:-0.089499903 4:-0.38881169 5:-1.4188601 6:-0.68687595 
10 1:0.80364883 2:-0.057448406 3:-0.12804741 4:0.14580495 5:0.28662031 6:-0.90683893 
10 1:-0.12809505 2:0.077714452 3:-0.083206432 4:-0.96572964 5:0.037154816 6:-0.090064624 
10 1:0.80364883 2:-2.185467 3:1.0124476 4:1.4456704 5:-1.6763213 6:-1.804482 
10 1:-1.0598389 2:3.7313591 3:0.40001415 4:2.6202069 5:0.78795001 6:0.16871535 
10 1:1.7353927 2:0.36905033 3:0.29459851 4:0.51954158 5:0.31620436 6:0.74450081 
10 1:-1.0598389 2:0.13998645 3:-0.60300782 4:-0.85975134 5:-0.111565 6:-0.5550599 
10 1:0.80364883 2:3.5033572 3:1.3884825 4:2.493303 5:3.0403356 6:1.765873 
9.1307955116414181 1:-1.0598389 2:0.35554921 3:-1.0257029 4:0.030207601 5:0.34978625 6:1.1237752 
10 1:-1.0598389 2:0.30579229 3:-0.027351875 4:-0.93827878 5:0.12510739 6:0.042560115 
10 1:-1.0598389 2:0.16046567 3:-0.43151073 4:-0.34043518 5:-0.091575776 6:-0.64967633 
10 1:1.7353927 2:-1.5358965 3:1.2923104 4:1.4778464 5:-1.7426855 6:-1.6330402 
10 1:0.80364883 2:0.22569578 3:-0.45963468 4:-0.8874272 5:0.22825178 6:-0.081169062 
10 1:-1.0598389 2:0.42358574 3:-0.51666926 4:-0.44821354 5:0.64242847 6:-0.13939456 
10 1:-1.0598389 2:0.14188268 3:-0.68875636 4:-0.58434277 5:0.6392302 6:-0.104621 
10 1:-0.12809505 2:0.15667323 3:0.46983235 4:0.28980943 5:-0.27787533 6:0.23341035 
10 1:-0.12809505 2:0.11017781 3:-0.96537409 4:-0.87617685 5:0.27182829 6:-0.27121061 
10 1:-1.0598389 2:0.075590681 3:-0.9601623 4:-0.77199861 5:0.28662031 6:-0.058525814 
10 1:-0.12809505 2:0.24617501 3:-0.16285818 4:-0.28193336 5:0.50330348 6:-0.069038751 
10 1:-1.0598389 2:0.11541139 3:-1.1015687 4:-0.92117825 5:0.32819789 6:-0.26069767 
10 1:-1.0598389 2:0.081431051 3:-0.95229547 4:-0.84670094 5:0.30181212 6:-0.42162647 
10 1:-1.0598389 2:0.1069163 3:-0.99792313 4:-1.105009 5:0.27542635 6:-0.11513393 
10 1:-1.0598389 2:0.53842107 3:1.7125962 4:-0.065026612 5:0.97105129 6:-0.20247218 
10 1:-1.0598389 2:0.12231364 3:-0.68049618 4:-0.9740549 5:0.59925175 6:-0.35369673 
10 1:-1.0598389 2:0.16289284 3:-0.86890697 4:-0.76164829 5:0.48331426 6:-0.16527256 
10 1:0.80364883 2:-2.7597954 3:2.7730461 4:0.82600111 5:-3.8735367 6:-0.45559134 
10 1:0.80364883 2:0.32498208 3:-0.94855872 4:0.78437482 5:0.28821945 6:-0.2332023 
10 1:1.7353927 2:-1.3941347 3:0.67181344 4:0.33593586 5:-0.073985261 6:-0.43456547 
10 1:-1.0598389 2:0.068081633 3:-0.65846903 4:-0.89215235 5:0.68080778 6:-0.091681999 
10 1:-1.0598389 2:0.46530267 3:-0.59573099 4:-0.70067139 5:0.12510739 6:-0.70871051 
10 1:0.80364883 2:0.090457078 3:0.83288697 4:0.10530369 5:0.49530779 6:-0.9537428 
10 1:0.80364883 2:0.61866928 3:-0.28676089 4:-0.2639328 5:0.90948448 6:0.36118296 
10 1:-1.0598389 2:-0.51618295 3:1.1420537 4:-0.71912197 5:0.0043724912 6:-0.78472713 
10 1:-1.0598389 2:-0.59567267 3:0.85373409 4:-0.011249939 5:-2.8013148 6:-0.74914488 
10 1:0.80364883 2:0.20809882 3:-0.74131668 4:-0.19749948 5:0.73078083 6:-0.47034989 
10 1:1.7353927 2:0.27848666 3:0.2532976 4:1.6684273 5:0.21785739 6:-0.61005064 
10 1:-0.12809505 2:0.44876759 3:-0.89801428 4:-0.15412938 5:0.42894358 6:1.0137937 
10 1:-1.0598389 2:0.012484341 3:-0.83704628 4:0.097428443 5:0.11071515 6:0.94748135 
10 1:-1.0598389 2:0.097207636 3:-1.0925219 4:-1.2172875 5:0.25063971 6:-0.18468105 
10 1:-1.0598389 2:-0.045615967 3:-0.31232812 4:1.1644116 5:0.31940264 6:0.59570232 
10 1:-0.12809505 2:0.082189541 3:-1.0744281 4:-0.13939143 5:0.35318442 6:0.090474845 
10 1:-1.0598389 2:0.144234 3:0.087897316 4:0.97518076 5:-1.6243494 6:0.73722262 
10 1:-1.0598389 2:0.091670662 3:-0.99566142 4:-1.1494479 5:0.22985092 6:-0.12726425 
10 1:-0.12809505 2:0.19967959 3:-0.98926961 4:0.6423954 5:0.27062893 6:0.16143717 
10 1:-0.12809505 2:-0.2338731 3:-0.1776085 4:0.15975538 5:0.053945763 6:0.89006454 
10 1:0.80364883 2:0.1807932 3:-0.79338532 4:-0.86065137 5:0.64722588 6:0.045794865 
-10 1:-0.12809505 2:2.7504803 3:1.9466347 4:2.4123005 5:-1.38208 6:2.6707943 
-10 1:-1.0598389 2:-0.48334035 3:0.79414278 4:0.070427603 5:-0.30905852 6:-0.93271693 
-10 1:-0.12809505 2:0.013470377 3:0.12074137 4:-0.043875954 5:0.062741021 6:-0.39493979 
-2.2596471262759827 1:1.7353927 2:-1.6326039 3:3.0243916 4:0.94795491 5:0.093124639 6:1.5588491 
-10 1:0.80364883 2:0.026213004 3:1.9356211 4:2.1350918 5:2.4262667 6:1.1965571 
-10 1:-1.0598389 2:-0.16538148 3:-0.024598481 4:-0.5949181 5:-0.21870723 6:-0.59145083 
-10 1:-0.12809505 2:0.044189209 3:-0.0076847777 4:-0.5949181 5:0.061941452 6:-0.19600268 
-10 1:-0.12809505 2:0.70627483 3:-0.45589793 4:1.1734119 5:1.1061784 6:2.0448702 
-10 1:1.7353927 2:0.17427019 3:0.67024007 4:0.26663371 5:0.59045649 6:-0.97881211 
-10 1:-1.0598389 2:0.13202231 3:-0.38883313 4:-0.034650667 5:-0.054795607 6:0.19580638 
-10 1:-1.0598389 2:0.092580849 3:-1.0297838 4:-1.2490135 5:0.021163438 6:-0.0067698185 
-10 1:0.80364883 2:-2.0223159 3:0.018669133 4:0.61741962 5:0.088327225 6:-1.5311456 
-10 1:-0.12809505 2:-0.1932939 3:-0.094220006 4:-0.37801135 5:-0.111565 6:-0.37310523 
-0.80550345167732995 1:0.80364883 2:-4.3662765 3:1.6799489 4:-0.54609158 5:-5.0944784 6:-0.95293412 
-10 1:0.80364883 2:0.11761101 3:-0.11644383 4:-0.96887974 5:0.032357403 6:-0.29264083 
-10 1:0.80364883 2:0.0086918926 3:0.20707993 4:-0.19035551 5:0.35618281 6:-0.91088237 
-10 1:0.80364883 2:0.01331868 3:-0.38529305 4:-0.96077948 5:0.21865696 6:-0.046395503 
-10 1:-1.0598389 2:0.21507693 3:-0.4879553 4:-0.75647313 5:0.48011599 6:-0.14748143 
-10 1:-1.0598389 2:1.5728493 3:0.62697246 4:1.1725119 5:1.9241374 6:0.33611365 
-10 1:-1.0598389 2:0.14939172 3:-0.7725382 4:-0.97315487 5:0.60644787 6:0.21319316 
-10 1:-1.0598389 2:-0.62199226 3:0.13450834 4:-0.59649315 5:-1.4876231 6:0.33853972 
-10 1:0.80364883 2:0.08446501 3:-0.76054127 4:-0.97743 5:0.25463756 6:-0.22349805 
-10 1:-0.12809505 2:0.090684625 3:-0.54621907 4:-0.78769285 5:0.26243335 6:-0.62743742 
-10 1:0.80364883 2:0.22561994 3:-0.52984621 4:-0.87505182 5:0.51689615 6:-0.50006915 
-10 1:0.80364883 2:-0.28954624 3:0.057413315 4:-0.75399805 5:-0.64167918 6:-0.35046198 
-10 1:1.7353927 2:-3.2399952 3:1.1219933 4:0.10395365 5:-2.218429 6:-0.72569295 
-10 1:-1.0598389 2:-0.14141321 3:-0.56170691 4:-1.010056 5:-0.14274819 6:0.04417749 
-10 1:-1.0598389 2:0.82763318 3:1.3410848 4:1.2663398 5:1.6810685 6:-1.3330172 
-10 1:1.7353927 2:0.30230324 3:-0.97727268 4:-0.85997635 5:0.49130995 6:0.3716959 
-10 1:0.80364883 2:0.45301514 3:-1.0651846 4:2.4780025 5:0.28102333 6:0.38382621 
-10 1:0.80364883 2:0.075590681 3:-0.70390003 4:-0.95087918 5:0.31700393 6:-0.34480117 
-10 1:0.80364883 2:0.076804264 3:-0.73989081 4:-1.073508 5:0.17068282 6:-0.25341949 
-10 1:0.80364883 2:1.9086326 3:2.3413533 4:2.4800276 5:-0.38181929 6:2.9279569 
-10 1:-1.0598389 2:0.11025366 3:-1.0655779 4:-0.74724784 5:0.32499962 6:-0.13454243 
-10 1:-0.12809505 2:0.10790234 3:-0.32432505 4:-0.36226086 5:0.46892202 6:0.44366908 
-10 1:0.80364883 2:0.084616708 3:-0.72907391 4:-1.1322348 5:0.29781428 6:-0.15880306 
-10 1:-0.12809505 2:-0.25033233 3:0.17561257 4:0.13635465 5:-0.36422877 6:-0.71841476 
-10 1:-1.0598389 2:-0.56662252 3:0.85471744 4:0.3498863 5:-0.40900463 6:-1.0920284 
-10 1:-0.12809505 2:0.058903908 3:-0.64116198 4:0.0060756004 5:0.36098022 6:-0.062569251 
-10 1:1.7353927 2:-5.0222183 3:1.27638 4:0.032626427 5:-4.097416 6:-1.9888627 
-10 1:0.80364883 2:0.062013716 3:-0.76722808 4:-1.0116311 5:0.14829489 6:-0.097342811 
-10 1:-1.0598389 2:0.11351516 3:-0.824656 4:-1.1776862 5:0.47771728 6:-0.19842874 
-10 1:1.7353927 2:0.80548528 3:2.3730174 4:2.9172162 5:1.1037797 6:-1.1874535 
-3.5289107539602518 1:1.7353927 2:-0.73379364 3:-0.31719572 4:-0.67136423 5:-0.91293293 6:-1.4520964 
-10 1:0.80364883 2:-0.60416775 3:0.29774524 4:-0.62529405 5:0.10112033 6:-0.33347954 
-10 1:-0.12809505 2:0.062848054 3:-0.98041942 4:-1.1025339 5:0.14349748 6:-0.31973186 
-10 1:-1.0598389 2:0.16114831 3:0.80751641 4:-0.2895836 5:-0.23389904 6:0.2625231 
-10 1:-1.0598389 2:0.099938199 3:-0.83527624 4:-1.0588825 5:0.22665264 6:-0.17416812 
-10 1:-1.0598389 2:0.39590086 3:0.53276706 4:1.3450923 5:1.2277129 6:-0.66989351 
-10 1:-1.0598389 2:0.125651 3:-0.80557892 4:-0.26843294 5:0.29541557 6:0.13636786 
-10 1:-1.0598389 2:-0.10781212 3:-0.19550556 4:-1.1617107 5:0.31620436 6:-0.16446387 
-9.2095414002746097 1:-1.0598389 2:0.8446992 3:0.98432362 4:-0.39781197 5:0.58166124 6:0.038516678 
-10 1:-1.0598389 2:0.072632571 3:-0.94049521 4:-1.1941117 5:0.21385954 6:-0.15799437 
-10 1:-1.0598389 2:-0.17015997 3:-0.57414635 4:-0.87825817 5:-0.22130583 6:-0.41677435 
-10 1:-1.0598389 2:-0.10743287 3:0.30934883 4:-0.62101891 5:-0.69924814 6:0.17235445 
-10 1:-1.0598389 2:0.095008016 3:-1.1322494 4:-1.2118873 5:0.29701471 6:-0.17821155 
-10 1:-1.0598389 2:0.084540859 3:-1.0592845 4:-0.70584655 5:0.27862462 6:-0.11675131 
-10 1:-1.0598389 2:0.019007352 3:0.38467382 4:-0.44438842 5:0.17947808 6:-0.90603024 
-10 1:-1.0598389 2:0.023330743 3:1.3424615 4:3.5562361 5:-0.44658437 6:0.61187607 
-10 1:0.80364883 2:-0.044857477 3:-0.69234561 4:-1.049376 5:-0.11556284 6:-0.014654521 
-10 1:-1.0598389 2:0.094552922 3:-1.0183769 4:-1.0505573 5:0.13710093 6:-0.096534124 
-10 1:1.7353927 2:-1.0552416 3:0.099500903 4:-0.41153739 5:-1.4076662 6:-1.0184378 
-10 1:-1.0598389 2:0.089167646 3:-1.0878018 4:-1.1196344 5:0.34658798 6:-0.32781873 
-10 1:0.80364883 2:-0.05934463 3:-0.43819754 4:0.89125314 5:0.35138539 6:-0.65291108 
-10 1:0.80364883 2:-0.32739488 3:-0.26984719 4:-1.010056 5:-1.2029765 6:-0.39898322 
-10 1:-0.12809505 2:0.084692557 3:-1.0695114 4:-1.169361 5:0.2690298 6:-0.36097491 
-10 1:1.7353927 2:0.19930034 3:1.092886 4:0.6327201 5:1.4619866 6:-0.10704706 
-10 1:1.7353927 2:0.20036223 3:0.92709236 4:-0.0038247076 5:-2.554248 6:1.1731051 
-10 1:-1.0598389 2:0.13877287 3:-0.51942265 4:-0.99048041 5:0.42734444 6:-0.23481967 
-10 1:-1.0598389 2:0.19801091 3:-0.99457973 4:-0.88787722 5:0.27622592 6:0.37007853 
-10 1:-0.12809505 2:-0.4140144 3:0.3915573 4:0.85862713 5:-1.2117718 6:-0.31973186 
-10 1:-0.12809505 2:0.099255558 3:-0.98631954 4:-0.94862911 5:0.30580997 6:-0.26474111 
-10 1:-1.0598389 2:0.5950044 3:-0.88523066 4:0.24300797 5:0.33219574 6:0.99681129 
-10 1:-1.0598389 2:0.20483732 3:-0.67420271 4:1.0676586 5:0.14829489 6:0.44852121 
-10 1:-1.0598389 2:-0.42334382 3:-0.23405307 4:0.083478009 5:0.1379005 6:-1.0418897 
-10 1:-1.0598389 2:0.049574485 3:-0.4106636 4:-0.34628536 5:0.18507506 6:-1.2497224 
-10 1:-1.0598389 2:0.10850913 3:-1.0710847 4:-0.86830161 5:0.26583152 6:0.17114142 
-10 1:1.7353927 2:0.88345802 3:-0.8185592 4:0.7386984 5:0.13550179 6:2.764602 
-10 1:-1.0598389 2:0.12527175 3:-1.0732481 4:-0.9387288 5:0.28022376 6:0.19297598 
-10 1:0.80364883 2:0.50747469 3:-0.42698729 4:0.23535773 5:0.47931642 6:0.69193612 
-10 1:-1.0598389 2:0.46226871 3:1.6012805 4:2.7340605 5:-1.8762136 6:1.1795746 
-10 1:1.7353927 2:-0.90210249 3:1.6429747 4:1.1720619 5:-1.0702481 6:-1.0054988 
-10 1:-1.0598389 2:0.087726515 3:-0.97717434 4:-1.1962493 5:0.11451311 6:-0.23259578 
-10 1:0.80364883 2:0.16569925 3:0.23658057 4:-0.31770947 5:0.161088 6:-0.1814463 
-10 1:0.80364883 2:0.3127704 3:0.79374944 4:1.1365108 5:0.71438967 6:-0.69172807 
-10 1:-1.0598389 2:-0.69791708 3:-0.062555979 4:-0.32738478 5:-1.2301619 6:0.2301756 
-10 1:0.80364883 2:0.11601818 3:-0.00080129358 4:-0.13252871 5:0.28342204 6:-0.64401552 
-10 1:0.80364883 2:0.11298422 3:-0.71609363 4:-0.73442244 5:0.2586354 6:-0.22754149 
-10 1:-1.0598389 2:0.09910386 3:-0.99890649 4:-1.29784 5:0.095523346 6:-0.15637699 
-10 1:0.80364883 2:0.054277121 3:0.045023043 4:-0.085952263 5:0.11151472 6:-0.04396944 
