svm_type c_svc
kernel_type rbf
gamma 5.0000000000000003e-10
nr_class 2
total_sv 73
rho -3143.1293332625282
label 100 200
probA -0.34158339828878509
probB -0.051927362147181029
nr_sv 36 37
SV
9000000 1:32 2:100 3:134 4:29 5:-58 
9000000 1:37 2:239 3:275 4:-411 5:334 
9000000 1:27 2:42 3:98 4:44 5:233 
9000000 1:27 2:98 3:165 4:-66 5:-165 
9000000 1:32 2:263 3:232 4:-411 5:-286 
9000000 1:27 2:27 3:60 4:-49 5:23 
9000000 1:22 2:17 3:39 4:0 5:5 
9000000 1:27 2:257 3:207 4:-500 5:174 
9000000 1:22 2:23 3:35 4:38 5:3 
9000000 1:22 2:61 3:44 4:-74 5:-42 
9000000 1:27 2:104 3:179 4:-17 5:-84 
9000000 1:22 2:94 3:123 4:27 5:-95 
9000000 1:22 2:71 3:151 4:-103 5:-251 
6165669.2000444168 1:22 2:90 3:36 4:-13 5:-29 
9000000 1:22 2:156 3:129 4:-477 5:-383 
9000000 1:32 2:286 3:112 4:71 5:220 
4951.0230188300629 1:37 2:351 3:479 4:-377 5:73 
9000000 1:22 2:42 3:77 4:5 5:95 
9000000 1:22 2:54 3:66 4:-9 5:35 
9000000 1:32 2:32 3:124 4:-26 5:279 
9000000 1:27 2:110 3:234 4:-100 5:-270 
9000000 1:27 2:98 3:172 4:-62 5:145 
8780498.996938834 1:22 2:56 3:193 4:-11 5:-82 
9000000 1:22 2:21 3:16 4:-2 5:-2 
9000000 1:27 2:100 3:134 4:29 5:-58 
9000000 1:37 2:129 3:208 4:110 5:-226 
9000000 1:22 2:176 3:223 4:71 5:-39 
9000000 1:22 2:18 3:62 4:-9 5:94 
9000000 1:22 2:594 3:207 4:561 5:-56 
9000000 1:37 2:127 3:79 4:-261 5:-128 
9000000 1:32 2:90 3:180 4:-94 5:-248 
9000000 1:27 2:164 3:189 4:-54 5:35 
9000000 1:22 2:158 3:197 4:-91 5:-167 
9000000 1:22 2:93 3:96 4:-36 5:-78 
5864976.5538618099 1:37 2:124 3:160 4:75 5:129 
9000000 1:37 2:188 3:196 4:-496 5:-375 
-9000000 1:27 2:175 3:235 4:-131 5:-69 
-9000000 1:37 2:200 3:110 4:39 5:34 
-9000000 1:27 2:130 3:75 4:-8 5:-25 
-9000000 1:22 2:116 3:85 4:-263 5:-59 
-9000000 1:22 2:98 3:105 4:81 5:58 
-9000000 1:27 2:60 3:91 4:5 5:-45 
-9000000 1:27 2:40 3:37 4:-13 5:12 
-9000000 1:32 2:107 3:39 4:-187 5:-34 
-1244531.9757728702 1:27 2:416 3:289 4:-1228 5:-886 
-9000000 1:32 2:148 3:167 4:155 5:-137 
-9000000 1:22 2:220 3:331 4:-582 5:-609 
-9000000 1:22 2:234 3:164 4:-111 5:18 
-9000000 1:22 2:156 3:337 4:-53 5:75 
-9000000 1:32 2:116 3:217 4:32 5:-250 
-9000000 1:27 2:30 3:50 4:-37 5:-51 
-9000000 1:22 2:44 3:39 4:56 5:-14 
-9000000 1:32 2:96 3:83 4:-100 5:69 
-9000000 1:27 2:143 3:262 4:-319 5:118 
-9000000 1:22 2:73 3:107 4:-57 5:-239 
-9000000 1:32 2:46 3:26 4:-44 5:-39 
-9000000 1:22 2:38 3:47 4:-23 5:0 
-9000000 1:22 2:37 3:47 4:-41 5:-15 
-9000000 1:27 2:91 3:126 4:-44 5:-94 
-9000000 1:37 2:264 3:396 4:-444 5:331 
-9000000 1:22 2:170 3:90 4:-28 5:-47 
-9000000 1:22 2:171 3:306 4:131 5:23 
-9000000 1:22 2:115 3:137 4:-57 5:-61 
-9000000 1:37 2:152 3:145 4:52 5:4 
-754417.85971991671 1:32 2:237 3:266 4:-527 5:-600 
-9000000 1:27 2:47 3:21 4:20 5:-4 
-9000000 1:27 2:99 3:146 4:-5 5:-122 
-9000000 1:22 2:23 3:36 4:2 5:-9 
-9000000 1:27 2:189 3:125 4:-79 5:-30 
-9000000 1:32 2:77 3:71 4:-76 5:43 
-9000000 1:27 2:72 3:94 4:-18 5:33 
-817145.93837111618 1:22 2:466 3:471 4:102 5:71 
-9000000 1:27 2:334 3:307 4:17 5:-51 
