svm_type c_svc
kernel_type rbf
gamma 5.0000000000000002e-05
nr_class 2
total_sv 148
rho -11.645125485142652
label 100 200
probA -0.61233931121175456
probB -0.0023011051420750773
nr_sv 74 74
SV
5000 1:-1.1676787 2:-0.081082594 3:-0.69731319 4:-0.79044202 5:0.26920424 6:-0.26918284 
5000 1:0.61459295 2:-0.074488934 3:-0.93594861 4:-0.28821298 5:0.25474736 6:-0.24820695 
5000 1:-1.1676787 2:-0.081202479 3:-0.85750102 4:-0.62337873 5:0.21348209 6:-0.24820695 
4719.2360971591397 1:1.5057288 2:1.0236551 3:-0.14988127 4:0.20470118 5:0.61069538 6:0.73103196 
5000 1:-1.1676787 2:-0.079883747 3:-0.68466389 4:-0.82450842 5:0.22288608 6:-0.27984159 
5000 1:-1.1676787 2:-0.18082669 3:2.0127369 4:0.7050219 5:0.54893784 6:-1.0164572 
5000 1:-1.1676787 2:-0.027614007 3:-0.81247392 4:-0.35676145 5:0.21600854 6:-0.39196349 
5000 1:-1.1676787 2:-0.50415579 3:1.7560192 4:0.80969625 5:-0.52002909 6:-1.0962612 
5000 1:0.61459295 2:-0.098705649 3:2.6588662 4:1.0321954 5:1.2131121 6:-0.32527795 
5000 1:0.61459295 2:-0.092591528 3:-0.80940077 4:-0.2229899 5:0.36759523 6:0.04367894 
159.32948916755177 1:-0.27654287 2:-0.090673372 3:0.75735591 4:0.42160759 5:2.8513713 6:-0.01098134 
5000 1:-1.1676787 2:-0.023657811 3:-0.81881229 4:-0.60285954 5:0.30766234 6:0.14295567 
5000 1:-1.1676787 2:-0.0017189063 3:-0.50164695 4:-0.29860484 5:0.19748127 6:0.034250042 
5000 1:-1.1676787 2:-0.051710837 3:2.0260172 4:0.83705517 5:1.0491739 6:-0.18808065 
5000 1:-0.27654287 2:-1.0805615 3:0.6304788 4:-0.43634419 5:-1.5154484 6:-0.2766303 
5000 1:-1.1676787 2:-0.062860116 3:-0.64158494 4:-0.75316359 5:0.24464158 6:-0.26597154 
5000 1:-0.27654287 2:-0.072211125 3:-0.83662008 4:-0.68688243 5:0.25081733 6:-0.17660199 
5000 1:1.5057288 2:-0.30910334 3:-0.25469756 4:-0.45002365 5:-0.32689641 6:0.1926282 
5000 1:1.5057288 2:-0.3212117 3:1.4501313 4:1.0892561 5:0.56521937 6:-0.87789338 
5000 1:-1.1676787 2:-0.045117177 3:-0.81949826 4:-0.77621462 5:0.23004434 6:-0.0014157908 
5000 1:0.61459295 2:0.25495429 3:-0.17501523 4:0.016136195 5:0.17783115 6:0.59465456 
5000 1:0.61459295 2:-0.24208778 3:0.96962263 4:0.010921372 5:-2.3222265 6:0.64548862 
5000 1:0.61459295 2:-0.19785032 3:0.92067177 4:0.56293686 5:-1.1617461 6:1.3238227 
5000 1:-0.27654287 2:-0.073050318 3:-0.74234029 4:-0.51267711 5:0.21320137 6:-0.10308391 
5000 1:-0.27654287 2:-0.081202479 3:2.131053 4:1.0912211 5:0.22948291 6:-0.16566993 
5000 1:0.61459295 2:-0.094629568 3:-0.81357147 4:-0.57200517 5:0.30134623 6:-0.37556541 
5000 1:-0.27654287 2:-0.05255003 3:-0.78141317 4:-0.50466593 5:0.24183442 6:-0.22360983 
5000 1:0.61459295 2:-0.074249165 3:-0.51254017 4:-0.57459369 5:0.35005048 6:-0.33860139 
5000 1:1.5057288 2:0.00079867292 3:-0.76418159 4:-0.58258597 5:0.06217611 6:0.24100255 
5000 1:0.61459295 2:-0.12807741 3:0.57274752 4:-0.22865819 5:-0.50206326 6:-0.44826358 
5000 1:-1.1676787 2:-0.036485477 3:-0.56760988 4:-0.29456146 5:0.17670828 6:-0.1591107 
5000 1:-0.27654287 2:-0.1406653 3:-0.777901 4:-0.39689292 5:0.20309559 6:-0.28182303 
5000 1:0.61459295 2:0.11744651 3:-0.3775686 4:-0.57064478 5:0.10723104 6:-0.23720657 
5000 1:0.61459295 2:-0.74260651 3:0.66867364 4:-0.24422708 5:-1.7787601 6:-0.10335721 
5000 1:-1.1676787 2:-0.076766744 3:-0.80940077 4:-0.68053395 5:0.26990603 6:-0.33948962 
5000 1:-1.1676787 2:-0.040441672 3:-0.59924684 4:-0.26824172 5:0.24141334 6:-0.25531279 
5000 1:0.61459295 2:-0.09822611 3:-0.78130342 4:-0.75308801 5:-0.15172956 6:-0.3545212 
5000 1:-1.1676787 2:-0.066936197 3:0.43566317 4:-0.10992649 5:0.37377099 6:0.036846405 
5000 1:0.61459295 2:-0.092231874 3:-0.81027881 4:-0.46891794 5:0.37770101 6:0.0076031554 
5000 1:-0.27654287 2:-0.071611701 3:-0.78240097 4:-0.60268949 5:0.22330715 6:-0.16867625 
5000 1:-1.1676787 2:0.026454004 3:-0.72434043 4:-0.31254882 5:0.23397437 6:0.16420486 
5000 1:1.5057288 2:0.71423267 3:0.62880504 4:0.68074274 5:1.6510293 6:0.33939105 
5000 1:-1.1676787 2:-0.089714294 3:-0.83618106 4:-0.63412958 5:0.24632588 6:-0.26515164 
5000 1:1.5057288 2:-0.13275291 3:0.17740899 4:0.20953812 5:-0.15453672 6:-0.69040862 
5000 1:-0.27654287 2:-0.069333891 3:-0.82103483 4:-0.48871915 5:0.48886459 6:-0.2186904 
5000 1:0.61459295 2:-0.042239943 3:-0.83124207 4:-0.52386253 5:0.25250163 6:-0.34085613 
5000 1:-1.1676787 2:-0.077246283 3:-0.76407184 4:-0.81800878 5:0.14246092 6:-0.34058283 
5000 1:1.5057288 2:-0.11105378 3:-0.41683356 4:0.018838078 5:0.46317907 6:-0.072884107 
5000 1:0.61459295 2:-0.16979729 3:3.3265076 4:1.7984721 5:-0.15341386 6:-0.6868557 
5000 1:-0.27654287 2:-0.064778272 3:-0.80808371 4:-0.6119099 5:0.29292475 6:-0.22716275 
5000 1:-0.27654287 2:3.2518326 3:1.4297168 4:0.49174319 5:1.9227625 6:-1.0793165 
5000 1:-1.1676787 2:0.078004436 3:2.1470773 4:1.4146913 5:0.30415339 6:0.26505307 
5000 1:-1.1676787 2:-0.041520635 3:-0.60188097 4:-0.55551046 5:0.28239789 6:-0.34878187 
5000 1:-1.1676787 2:-0.082281441 3:-0.80501056 4:-0.86645374 5:0.21151708 6:-0.30887986 
5000 1:-0.27654287 2:-0.082641096 3:-0.8203763 4:-0.68794051 5:0.23846582 6:-0.29357499 
5000 1:-1.1676787 2:-0.08276098 3:-0.81236416 4:-0.58991695 5:0.21207851 6:-0.24246762 
5000 1:-1.1676787 2:-0.045596716 3:-0.80918126 4:-0.55492473 5:0.22779861 6:-0.21240447 
5000 1:-0.27654287 2:-0.057105649 3:-0.82608357 4:-0.35630799 5:0.24801017 6:-0.26597154 
5000 1:-1.1676787 2:-0.094749453 3:-0.73860861 4:-0.67486567 5:0.058246084 6:-0.23208217 
5000 1:-0.27654287 2:-0.094869338 3:-0.077223269 4:-0.79760295 5:0.18063831 6:-0.26105212 
5000 1:1.5057288 2:-0.61456962 3:-0.1058694 4:0.14185878 5:-1.3216139 6:-0.16136543 
5000 1:-0.27654287 2:-0.080003632 3:-0.77175471 4:-0.73940855 5:0.25250163 6:-0.28373614 
5000 1:1.5057288 2:-1.378595 3:0.98696397 4:-0.39840446 5:-2.9167832 6:-0.23918801 
5000 1:1.5057288 2:0.1277566 3:-0.33163602 4:0.025129876 5:0.55904362 6:-0.57644193 
5000 1:-1.1676787 2:-0.10206242 3:-0.83332742 4:-0.51320615 5:0.24632588 6:-0.24110112 
5000 1:-1.1676787 2:-0.064778272 3:-0.62081375 4:-0.6625277 5:0.14035555 6:-0.19395663 
5000 1:1.5057288 2:-0.17351372 3:1.6560322 4:0.55885569 5:-0.089410587 6:-0.63356193 
5000 1:-0.27654287 2:-0.092471643 3:-0.78679118 4:-0.34829681 5:0.34794511 6:-0.5310739 
5000 1:0.61459295 2:0.2972736 3:-0.32098976 4:-0.57200517 5:0.20927135 6:-0.1787884 
5000 1:-1.1676787 2:-0.029532162 3:-0.68482852 4:-0.85972737 5:-0.093902045 6:-0.27799681 
5000 1:-1.1676787 2:-0.149297 3:1.860177 4:0.95004301 5:0.4175627 6:-0.56250356 
5000 1:-1.1676787 2:-0.11417078 3:-0.48628121 4:-0.95593708 5:0.072843322 6:-0.34686876 
5000 1:-1.1676787 2:-0.08503879 3:-0.85001023 4:-0.75308801 5:0.23341293 6:-0.25339968 
5000 1:-1.1676787 2:-0.074728704 3:-1.0453746 4:-0.99508604 5:0.41643984 6:-0.14954515 
-5000 1:-1.1676787 2:-0.083839943 3:0.5379551 4:-0.59724794 5:0.20646419 6:-0.2960347 
-5000 1:0.61459295 2:-0.028573085 3:-0.79447405 4:0.19056825 5:0.23004434 6:-0.17140926 
-5000 1:-1.1676787 2:-0.0035171772 3:-0.64581052 4:-0.50220967 5:0.25474736 6:0.13564486 
-5000 1:1.5057288 2:-0.011789223 3:-0.10581452 4:-0.33884967 5:0.41349232 6:-0.48153802 
-5000 1:-0.27654287 2:-0.10709758 3:-0.30880692 4:-0.35834857 5:0.32997927 6:-0.32008522 
-5000 1:-0.27654287 2:-0.10589873 3:0.48266587 4:0.31056587 5:0.5099183 6:-0.46479831 
-5000 1:-1.1676787 2:-0.080363286 3:-0.63601486 4:-0.81700739 5:0.26709887 6:-0.3100414 
-5000 1:-1.1676787 2:-0.083120634 3:-0.67920356 4:-0.79607252 5:0.23958869 6:-0.3459122 
-5000 1:-0.27654287 2:-0.052430145 3:0.5224796 4:0.10282318 5:0.50009323 6:-0.55512442 
-5000 1:1.5057288 2:-0.47058807 3:-0.12825948 4:0.065412496 5:-0.21910143 6:-1.2799197 
-5000 1:-1.1676787 2:-0.08527856 3:-0.7198679 4:-0.82052172 5:0.23397437 6:-0.26269193 
-5000 1:-1.1676787 2:0.11756639 3:0.8899403 4:0.17205185 5:1.1288973 6:-0.35151488 
-5000 1:0.61459295 2:-0.083600173 3:-0.34974564 4:-0.91149772 5:0.18176117 6:-0.34577555 
-5000 1:0.61459295 2:0.8003099 3:-0.066467252 4:0.96379805 5:0.3670338 6:-0.16566993 
-5000 1:-1.1676787 2:-0.35094311 3:0.10255589 4:-0.86188132 5:-0.020494783 6:-0.28544427 
-5000 1:-0.27654287 2:-0.0011194827 3:-0.75265729 4:-0.86108776 5:0.14414521 6:-0.38212464 
-5000 1:1.5057288 2:-0.090313718 3:-0.63993861 4:-0.826549 5:0.12898654 6:-0.3359367 
-5000 1:-1.1676787 2:-0.12232294 3:-0.32691654 4:-0.85587294 5:0.22836004 6:-0.32691776 
-5000 1:-0.27654287 2:-0.25539498 3:-0.25135003 4:-0.66235765 5:-0.49560679 6:-0.44402741 
-5000 1:-1.1676787 2:-0.35118288 3:-0.22983799 4:-0.79027197 5:-0.81899175 6:-0.50401706 
-5000 1:-0.27654287 2:-0.64717826 3:0.35576133 4:0.12073497 5:-0.32015923 6:0.55885208 
-5000 1:0.61459295 2:-0.020301039 3:-0.51822 4:-0.69330649 5:0.32829498 6:-0.37638531 
-5000 1:0.61459295 2:-0.12867683 3:0.079397521 4:-0.092203646 5:-0.25236629 6:-0.90310543 
-5000 1:0.61459295 2:-4.0520155e-05 3:1.0206588 4:0.46385522 5:-1.0640569 6:0.19782093 
-5000 1:-0.27654287 2:-0.17303418 3:0.054236122 4:-0.3642247 5:0.52718234 6:-0.38431105 
-5000 1:-1.1676787 2:-0.26222841 3:-0.5230218 4:-0.32794766 5:0.13249549 6:-0.58716901 
-5000 1:0.61459295 2:-0.10529931 3:-0.37334303 4:-0.74772204 5:0.10091493 6:-0.28892886 
-5000 1:-0.27654287 2:-0.11153331 3:-0.31418493 4:-0.58651598 5:-0.42233989 6:-0.2566793 
-5000 1:-1.1676787 2:-0.098945418 3:-0.46051616 4:-0.58763074 5:0.29797764 6:-0.26843126 
-5000 1:0.61459295 2:-0.076646859 3:-0.42635483 4:-0.75490187 5:0.0043485921 6:-0.30368714 
-5000 1:-1.1676787 2:-0.10553908 3:-0.53635706 4:-0.64722332 5:0.26415135 6:-0.3116812 
-5000 1:-1.1676787 2:-0.042479713 3:-0.62759114 4:-0.51747626 5:0.27664321 6:-0.092425157 
-5000 1:1.5057288 2:-0.28440709 3:1.1465481 4:0.42387491 5:-2.7584593 6:1.1404375 
-5000 1:-1.1676787 2:-0.082401326 3:-0.76039504 4:-0.82511304 5:0.22499145 6:-0.33825976 
-5000 1:-1.1676787 2:-0.11261228 3:0.082580424 4:-0.26977215 5:0.20309559 6:-0.11401597 
-5000 1:-1.1676787 2:-0.0042364855 3:2.1218336 4:0.6891507 5:0.22555288 6:-0.26214533 
-5000 1:-1.1676787 2:-0.084559251 3:-0.81093734 4:-0.88519687 5:0.25755452 6:-0.3159857 
-5000 1:-1.1676787 2:-0.08276098 3:-0.51942731 4:-0.68658012 5:0.13740803 6:-0.33183718 
-5000 1:1.5057288 2:0.23469377 3:0.70807579 4:0.51025959 5:0.64606561 6:0.13058878 
-3574.7445675237127 1:-1.1676787 2:-0.21978922 3:-0.048604579 4:-0.7564323 5:-0.80228914 6:-0.38772732 
-5000 1:-1.1676787 2:-0.084559251 3:-0.81609584 4:-0.84495204 5:0.30274981 6:-0.31092962 
-4326.2535083071552 1:1.5057288 2:-0.53280824 3:2.5105868 4:0.99962162 5:0.77014213 6:-0.16211701 
-5000 1:-0.27654287 2:-0.034207667 3:-0.1845365 4:-0.17112508 5:0.29587227 6:-0.62748097 
-5000 1:1.5057288 2:-0.072810548 3:-0.51646392 4:-0.80984645 5:0.54276208 6:-0.23016906 
-4331.206002291543 1:1.5057288 2:-1.3482641 3:0.45739472 4:0.73619747 5:-0.92524279 6:-1.8474984 
-5000 1:-1.1676787 2:-0.075208243 3:-0.086223203 4:-0.49332936 5:-0.10063923 6:-0.53954624 
-5000 1:-1.1676787 2:-0.17878864 3:1.9815664 4:1.0345383 5:0.10933642 6:-0.46274855 
-5000 1:1.5057288 2:0.5429174 3:0.18662843 4:1.0553976 5:0.28787186 6:1.6192615 
-5000 1:0.61459295 2:-0.097626686 3:0.14733604 4:-0.50844479 5:-0.27019176 6:-0.20447873 
-5000 1:1.5057288 2:2.3620482 3:-0.036394304 4:0.88172127 5:1.5774816 6:2.2087726 
-5000 1:-1.1676787 2:-0.12819729 3:-0.6313777 4:-0.58439982 5:0.1177579 6:-0.63274202 
-5000 1:1.5057288 2:0.1441808 3:-0.35479438 4:0.40520735 5:0.0099629142 6:-0.17359567 
-5000 1:-0.27654287 2:-0.23105838 3:-0.31067276 4:-0.58077212 5:-0.59919104 6:-0.36627316 
-5000 1:0.61459295 2:-0.014786341 3:-0.39373007 4:-0.1207907 5:0.23116721 6:-0.21110629 
-5000 1:-0.27654287 2:-0.13083475 3:-0.54878685 4:-0.35566558 5:0.45110827 6:-0.16491835 
-5000 1:1.5057288 2:-0.083600173 3:-0.41675124 4:-0.6416873 5:0.83133824 6:-0.34112943 
-5000 1:-0.27654287 2:-0.26738346 3:-0.30013625 4:-0.63080419 5:-0.49476464 6:-0.71172613 
-5000 1:-0.27654287 2:0.025375042 3:-0.56760988 4:-0.12368153 5:0.34836618 6:-0.25456121 
-5000 1:-0.27654287 2:0.19165515 3:0.24367374 4:-0.070456322 5:0.33306715 6:-0.56858452 
-5000 1:0.61459295 2:0.11804593 3:0.67229557 4:0.36167491 5:0.40633406 6:-0.0025089964 
-5000 1:-1.1676787 2:-0.075567897 3:-0.61724671 4:-0.78768345 5:0.14596987 6:-0.25825078 
-5000 1:-1.1676787 2:0.19800905 3:-0.087622583 4:-0.69702867 5:0.25853703 6:-0.42257325 
-5000 1:-1.1676787 2:-0.08935464 3:-0.5680489 4:-0.74364087 5:-0.058531816 6:-0.36490665 
-5000 1:-1.1676787 2:-0.57428835 3:0.064031781 4:-0.28889317 5:-1.5760831 6:-0.46739468 
-5000 1:-1.1676787 2:0.41140386 3:-0.69481625 4:0.064203261 5:0.29573191 6:1.1915448 
-5000 1:0.61459295 2:-0.25587452 3:-0.43123894 4:-0.72485995 5:-0.39749651 6:-0.35062665 
-5000 1:-0.27654287 2:0.19177504 3:-0.346892 4:-0.28877981 5:0.78740617 6:-0.11449424 
-5000 1:-1.1676787 2:-0.07640709 3:-0.41011105 4:-0.69035898 5:0.47482879 6:-0.24028121 
-5000 1:1.5057288 2:0.17439175 3:1.9203229 4:1.3128133 5:0.6005896 6:0.19481461 
-2646.361508204282 1:-1.1676787 2:-0.11069412 3:2.86795 4:1.3474277 5:-0.64971993 6:-0.10882324 
-5000 1:-1.1676787 2:-0.063579424 3:-0.46926914 4:-0.73653662 5:0.29404761 6:-0.27526379 
-5000 1:-0.27654287 2:-0.12436098 3:-0.23738367 4:-0.60131021 5:-0.15537887 6:-0.58819389 
-5000 1:0.61459295 2:-0.074728704 3:-0.4283853 4:-0.38192864 5:0.35538408 6:-0.30812829 
-5000 1:-1.1676787 2:0.059182534 3:-0.66405734 4:-0.46353307 5:0.2703271 6:0.085972332 
