svm_type c_svc
kernel_type rbf
gamma 1.0000000000000001e-09
nr_class 2
total_sv 89
rho -2.7367913053457067
label 200 100
probA -0.31195929474459189
probB -0.0023227252786430495
nr_sv 45 44
SV
9000 1:22 2:36 3:28 4:-10 5:-3 
9000 1:22 2:75 3:37 4:-76 5:-29 
9000 1:22 2:252 3:197 4:-28 5:63 
9000 1:37 2:240 3:177 4:-78 5:170 
9000 1:37 2:162 3:162 4:-180 5:57 
9000 1:27 2:60 3:23 4:-30 5:-1 
9000 1:32 2:32 3:33 4:-13 5:-12 
9000 1:32 2:72 3:28 4:-155 5:10 
9000 1:27 2:54 3:38 4:-18 5:-1 
9000 1:37 2:114 3:37 4:145 5:20 
9000 1:37 2:51 3:48 4:-22 5:52 
9000 1:27 2:48 3:9 4:-65 5:-17 
9000 1:27 2:70 3:41 4:-172 5:-108 
9000 1:22 2:32 3:31 4:-5 5:0 
9000 1:27 2:62 3:67 4:-6 5:-8 
9000 1:22 2:63 3:24 4:-155 5:-15 
9000 1:22 2:32 3:14 4:17 5:0 
139.33800315601016 1:32 2:91 3:62 4:-193 5:-96 
9000 1:27 2:36 3:108 4:0 5:-62 
9000 1:32 2:134 3:99 4:9 5:15 
9000 1:37 2:75 3:35 4:-97 5:8 
9000 1:37 2:50 3:55 4:0 5:21 
9000 1:22 2:16 3:12 4:0 5:0 
9000 1:27 2:95 3:100 4:22 5:-74 
9000 1:22 2:79 3:34 4:62 5:-14 
9000 1:37 2:145 3:131 4:-26 5:-109 
9000 1:27 2:30 3:16 4:-53 5:-20 
9000 1:37 2:41 3:24 4:-1 5:-11 
9000 1:22 2:11 3:10 4:0 5:-2 
9000 1:32 2:74 3:19 4:-58 5:3 
9000 1:22 2:45 3:54 4:9 5:9 
9000 1:37 2:311 3:305 4:276 5:344 
2502.0604192903334 1:27 2:213 3:186 4:-296 5:-41 
9000 1:37 2:44 3:57 4:3 5:1 
6677.3807357678406 1:27 2:237 3:114 4:55 5:-35 
9000 1:37 2:117 3:36 4:-64 5:-26 
9000 1:22 2:112 3:71 4:124 5:37 
9000 1:37 2:172 3:113 4:42 5:-47 
9000 1:37 2:32 3:47 4:-7 5:-56 
9000 1:22 2:31 3:31 4:-2 5:-2 
9000 1:37 2:99 3:42 4:-110 5:0 
9000 1:37 2:42 3:44 4:19 5:6 
9000 1:22 2:55 3:35 4:14 5:2 
9000 1:27 2:42 3:34 4:0 5:1 
9000 1:27 2:135 3:69 4:-34 5:-34 
-9000 1:22 2:20 3:16 4:-19 5:2 
-9000 1:27 2:58 3:38 4:-118 5:-65 
-9000 1:32 2:51 3:59 4:8 5:-3 
-9000 1:32 2:17 3:24 4:-2 5:-2 
-9000 1:37 2:71 3:90 4:-44 5:-6 
-9000 1:37 2:21 3:67 4:-3 5:60 
-9000 1:37 2:224 3:218 4:9 5:-10 
-9000 1:32 2:62 3:75 4:3 5:-4 
-9000 1:32 2:47 3:60 4:9 5:10 
-9000 1:27 2:103 3:103 4:-8 5:80 
-9000 1:32 2:103 3:159 4:-78 5:126 
-4262.2308180746741 1:22 2:37 3:99 4:-4 5:129 
-9000 1:32 2:172 3:146 4:-8 5:325 
-9000 1:32 2:74 3:45 4:-7 5:27 
-9000 1:32 2:44 3:88 4:4 5:-61 
-9000 1:37 2:119 3:117 4:70 5:8 
-9000 1:32 2:159 3:58 4:-186 5:-32 
-9000 1:22 2:201 3:189 4:1 5:36 
-9000 1:22 2:23 3:41 4:-6 5:14 
-9000 1:27 2:73 3:82 4:3 5:14 
-9000 1:22 2:36 3:80 4:-17 5:44 
-9000 1:22 2:32 3:30 4:-15 5:-4 
-9000 1:27 2:13 3:12 4:-8 5:5 
-9000 1:22 2:182 3:8 4:-6 5:3 
-5056.5483401395095 1:32 2:30 3:151 4:15 5:-91 
-9000 1:37 2:29 3:15 4:-1 5:-2 
-9000 1:37 2:69 3:100 4:-80 5:-95 
-9000 1:27 2:30 3:59 4:7 5:-40 
-9000 1:32 2:33 3:90 4:7 5:115 
-9000 1:27 2:133 3:123 4:-23 5:-1 
-9000 1:27 2:37 3:46 4:5 5:1 
-9000 1:37 2:46 3:42 4:-51 5:2 
-9000 1:32 2:192 3:219 4:-2 5:-100 
-9000 1:22 2:25 3:39 4:-31 5:-25 
-9000 1:32 2:75 3:96 4:-24 5:-125 
-9000 1:32 2:37 3:38 4:19 5:15 
-9000 1:32 2:71 3:79 4:17 5:-4 
-9000 1:27 2:17 3:21 4:-9 5:-9 
-9000 1:32 2:75 3:105 4:-81 5:-58 
-9000 1:27 2:21 3:52 4:14 5:20 
-9000 1:37 2:103 3:103 4:-39 5:35 
-9000 1:27 2:179 3:7 4:2 5:0 
-9000 1:27 2:81 3:80 4:60 5:-7 
-9000 1:32 2:13 3:12 4:-1 5:-10 
