svm_type c_svc
kernel_type rbf
gamma 0.0050000000000000001
nr_class 2
total_sv 134
rho 3.5001920931052379
label 200 100
probA -0.77554770116369731
probB -0.035165790171462007
nr_sv 67 67
SV
14.998632430079093 1:1.3660458 2:0.018528323 3:-0.57162086 4:-0.89949632 5:-0.21632781 6:-0.21532808 
48.039743932268806 1:1.3660458 2:-1.5703242 3:1.0471596 4:-0.033542643 5:-1.1920641 6:0.08934748 
50 1:-1.3038747 2:0.020775928 3:-0.70684164 4:-0.90375635 5:0.062210872 6:-0.31035832 
50 1:1.3660458 2:0.0090270826 3:-0.54898542 4:-0.30261955 5:-0.066815759 6:-0.59420887 
50 1:1.3660458 2:-0.60436481 3:0.086135033 4:-0.56765926 5:-0.47488533 6:0.041289769 
50 1:-1.3038747 2:0.010968196 3:-0.88014423 4:-0.9401305 5:0.17749651 6:-0.27775143 
50 1:0.47607232 2:-0.0068083176 3:-0.89255908 4:-0.90924852 5:0.21960193 6:-0.28188542 
50 1:-1.3038747 2:0.22111928 3:-0.47352914 4:-0.84505963 5:0.36388232 6:-0.30741285 
50 1:1.3660458 2:-0.068719624 3:0.1983306 4:0.4214553 5:-0.80277811 6:-0.36683905 
50 1:0.47607232 2:0.011581179 3:-0.53068074 4:-0.52403651 5:-0.36155368 6:-0.35050977 
50 1:-1.3038747 2:0.023636516 3:-0.98627674 4:-0.67734533 5:0.24304986 6:-0.24674645 
50 1:-1.3038747 2:-0.37337229 3:-0.44468627 4:-0.48760993 5:-0.22924938 6:-0.62536887 
50 1:0.47607232 2:-0.98788798 3:1.5836542 4:0.45265186 5:-0.74983118 6:-0.32363879 
50 1:0.47607232 2:0.013011474 3:-0.67117061 4:-0.84643595 5:0.23750304 6:-0.29573431 
50 1:-1.3038747 2:0.069405931 3:-0.06740486 4:-0.28468808 5:-0.075388119 6:-0.49168575 
50 1:-1.3038747 2:0.064808557 3:-0.70834297 4:-0.84453531 5:0.21203808 6:-0.41040104 
50 1:-0.41390119 2:0.031707462 3:-0.23156955 4:-0.85340929 5:0.34843946 6:-0.35133657 
50 1:1.3660458 2:0.044682274 3:0.95061256 4:1.1355682 5:-0.090263686 6:0.10092267 
50 1:0.47607232 2:0.20181031 3:1.5014853 4:1.5180014 5:0.75789574 6:0.20923338 
50 1:-0.41390119 2:0.15736903 3:-0.9027508 4:-0.97955876 5:0.66845324 6:0.074826817 
21.214659840850317 1:0.47607232 2:-6.2756857 3:3.3247932 4:-0.37791075 5:0.64746356 6:-0.8091767 
50 1:0.47607232 2:-0.010588381 3:-0.50307936 4:-0.85854755 5:-0.2349853 6:-0.23269086 
50 1:-1.3038747 2:0.0084140993 3:-0.82572101 4:-0.98695156 5:0.25263073 6:-0.24085551 
50 1:-0.41390119 2:0.89376622 3:0.29354959 4:0.8636076 5:0.5995592 6:-0.60888456 
50 1:0.47607232 2:0.37456942 3:0.13758447 4:-0.34542963 5:0.8789173 6:-0.47359952 
50 1:-0.41390119 2:-0.036640168 3:-0.46413139 4:-0.68185441 5:0.051873613 6:-0.27067196 
50 1:-0.41390119 2:-0.025402142 3:-0.45015747 4:-0.30573921 5:0.024517699 6:-0.22829849 
50 1:-1.3038747 2:0.018528323 3:-0.605242 4:-0.6623369 5:0.22136683 6:-0.17197279 
50 1:-1.3038747 2:0.070223242 3:-0.34201838 4:-0.34557381 5:0.41405584 6:0.10572844 
50 1:1.3660458 2:-0.0010871408 3:-0.58547929 4:-0.82242246 5:-0.0050443383 6:-0.39371003 
50 1:0.47607232 2:-0.13257204 3:-0.12418113 4:-0.55768423 5:-0.057108821 6:-0.079577959 
50 1:-1.3038747 2:-0.26119636 3:0.20075583 4:-0.35903552 5:-0.97599022 6:-0.10867096 
50 1:-1.3038747 2:0.01740452 3:-0.67138714 4:-0.70210596 5:0.21771097 6:-0.25677139 
50 1:1.3660458 2:-0.19438119 3:-0.25831922 4:-0.55726478 5:-0.26498856 6:-0.25403262 
50 1:1.3660458 2:-0.024176176 3:-0.29098759 4:0.082120581 5:-0.78588552 6:-0.19858539 
50 1:1.3660458 2:0.11415371 3:1.5853865 4:1.7824119 5:-1.0261637 6:-0.47122247 
50 1:0.47607232 2:1.2478662 3:1.0222722 4:0.3599535 5:-0.36987391 6:0.40415133 
50 1:-1.3038747 2:0.014748259 3:-0.82147687 4:-0.98805261 5:0.33482454 6:-0.24219905 
50 1:-1.3038747 2:0.44148675 3:-0.48636262 4:0.77520859 5:0.30904443 6:1.5736073 
50 1:0.47607232 2:0.092903622 3:-0.14651342 4:-0.1627069 5:0.2918997 6:-0.46838035 
50 1:-0.41390119 2:-0.00037199367 3:-0.3903641 4:0.017682638 5:-0.46013582 6:-0.52145053 
50 1:-1.3038747 2:0.023227861 3:-0.83325653 4:-0.85529682 5:0.31591492 6:-0.22710997 
50 1:0.47607232 2:-0.094873576 3:-0.016879322 4:-0.32264827 5:-0.47135553 6:0.14815358 
50 1:0.47607232 2:-0.15913465 3:0.55905407 4:0.27281285 5:-0.047401884 6:-0.58201358 
50 1:-0.41390119 2:0.017506684 3:-0.74167539 4:-0.5078877 5:0.14824964 6:-0.26286904 
50 1:1.3660458 2:0.11292774 3:0.64260888 4:0.35853786 5:0.59199535 6:-0.20478638 
24.080378720237231 1:1.3660458 2:2.5003953 3:1.8424605 4:0.8226064 5:1.3861993 6:0.021136535 
50 1:-1.3038747 2:0.020162945 3:-0.85978966 4:-0.9945803 5:0.18896835 6:-0.20158254 
50 1:-1.3038747 2:0.018630487 3:-0.79312482 4:-0.90180329 5:0.16968054 6:-0.24157895 
50 1:0.47607232 2:-0.019067982 3:-0.52909279 4:-0.64150861 5:0.1613603 6:-0.3135105 
50 1:-1.3038747 2:0.011479016 3:-0.66118099 4:-0.88109297 5:0.17598374 6:-0.29924821 
50 1:-1.3038747 2:2.54075 3:1.1660535 4:1.495823 5:1.3609865 6:1.4849848 
50 1:0.47607232 2:0.27404017 3:1.1296318 4:0.6700185 5:0.16526829 6:-0.97515667 
50 1:-1.3038747 2:-0.19438119 3:-0.25831922 4:-0.55726478 5:-0.26498856 6:-0.25403262 
50 1:1.3660458 2:0.12600472 3:0.022097522 4:0.36241777 5:0.98657606 6:-0.077252586 
50 1:-0.41390119 2:0.15328247 3:-0.64381464 4:-0.49738835 5:0.84002651 6:0.11766536 
50 1:0.47607232 2:0.018834814 3:-0.766072 4:-0.98910124 5:0.39716325 6:-0.25589292 
50 1:1.3660458 2:0.14562018 3:0.038323437 4:0.070952736 5:0.28212973 6:0.38761534 
50 1:-1.3038747 2:0.04458011 3:-0.81420119 4:-0.84218902 5:0.38323316 6:-0.34141497 
50 1:1.3660458 2:0.21519378 3:-0.28018956 4:0.53308132 5:-0.024458213 6:1.3086698 
50 1:-1.3038747 2:-0.083533386 3:0.37052163 4:0.10235902 5:-0.24380979 6:-0.71326798 
50 1:1.3660458 2:0.073288158 3:-0.41630536 4:-0.52216209 5:0.31534763 6:-0.243956 
50 1:-1.3038747 2:0.0094357381 3:-0.74052052 4:-0.89472508 5:0.11648148 6:-0.25997524 
50 1:-1.3038747 2:0.025884122 3:-0.92010272 4:-1.0005312 5:0.29549253 6:-0.27072363 
18.298632604944324 1:-0.41390119 2:-4.5537136 3:1.099533 4:-0.96991142 5:-3.7077998 6:-0.25336085 
50 1:0.47607232 2:-0.14013217 3:0.97353672 4:0.69299648 5:-0.031265676 6:-0.6866037 
50 1:0.47607232 2:0.023023533 3:-0.58754362 4:-0.58971969 5:0.27330525 6:-0.28911992 
-50 1:0.47607232 2:-0.028058403 3:-0.86619918 4:-0.63652764 5:0.26189644 6:-0.023045555 
-41.870869256520976 1:0.47607232 2:2.9525726 3:0.31575195 4:1.3104787 5:-0.66480093 6:1.6600078 
-50 1:1.3660458 2:-0.013755461 3:-0.54956285 4:-0.28867285 5:-0.32852488 6:-0.24881345 
-50 1:-0.41390119 2:0.038654606 3:-0.70905032 4:-0.61070528 5:0.26347224 6:0.049247713 
-50 1:1.3660458 2:-0.34772916 3:1.1218797 4:-0.079052923 5:-1.2470281 6:-1.0156698 
-50 1:-0.41390119 2:0.027007924 3:-0.77568629 4:-0.77418575 5:0.31137661 6:-0.20912708 
-50 1:1.3660458 2:0.10168971 3:-0.69750163 4:-0.31394469 5:0.52946755 6:0.52403723 
-50 1:-1.3038747 2:-1.2668975 3:0.37447706 4:-0.49955114 5:-1.6769698 6:-0.19212602 
-50 1:0.47607232 2:-1.010364 3:1.1691139 4:0.18425656 5:-2.7088677 6:-1.6704949 
-44.413786702396742 1:0.47607232 2:0.063786918 3:-0.96468068 4:-0.34440722 5:0.31868833 6:0.22907657 
-50 1:-1.3038747 2:0.019141306 3:-0.99018886 4:-0.63656697 5:0.31541066 6:-0.24431773 
-50 1:1.3660458 2:0.30989969 3:0.019499065 4:0.26882808 5:0.63561354 6:0.063510001 
-50 1:-1.3038747 2:-0.001700124 3:1.8373791 4:1.4841833 5:0.16564648 6:-0.61115826 
-50 1:0.47607232 2:-0.0011893046 3:-0.78278874 4:-0.32584657 5:0.31339364 6:-0.10350347 
-50 1:-0.41390119 2:0.018426159 3:-0.81853195 4:-0.34362075 5:0.32045323 6:-0.45944058 
-50 1:0.47607232 2:0.0038167251 3:1.5174802 4:0.77636208 5:0.32776495 6:0.036432323 
-50 1:-1.3038747 2:0.12457442 3:-0.6337384 4:-0.40998554 5:0.25691691 6:0.075033517 
-50 1:-1.3038747 2:0.021491075 3:-0.82182333 4:-0.82310406 5:0.30835107 6:-0.27423753 
-50 1:0.47607232 2:0.012296326 3:-0.90764456 4:-0.74321202 5:0.30185877 6:-0.22540469 
-50 1:1.3660458 2:-0.25986823 3:-0.42108363 4:-0.12985875 5:0.57434637 6:-0.94663209 
-50 1:-0.41390119 2:0.53792945 3:0.57477473 4:0.45832754 5:-0.35272919 6:0.0087862199 
-50 1:-1.3038747 2:0.019958617 3:-0.63668332 4:-0.66286121 5:0.3135197 6:-0.25609962 
-50 1:-0.41390119 2:0.072675175 3:-0.59959757 4:-0.42376184 5:0.2854074 6:0.065680349 
-50 1:0.47607232 2:0.23736334 3:-0.81131401 4:0.0074061233 5:0.2095168 6:-0.015862735 
-50 1:-0.41390119 2:0.11027148 3:-0.14226927 4:-0.18063837 5:0.27998664 6:-0.64464363 
-50 1:1.3660458 2:0.10414165 3:-0.82361337 4:-0.1401877 5:0.31944472 6:0.3088627 
-50 1:-0.41390119 2:0.018630487 3:-0.80143988 4:-0.2285867 5:0.23876368 6:-0.13016774 
-50 1:-1.3038747 2:0.023432189 3:-0.90266419 4:-0.95292371 5:0.27595259 6:-0.24798665 
-31.025796443020759 1:-1.3038747 2:0.017915339 3:-0.80444254 4:-0.40160966 5:0.29498828 6:0.15859193 
-50 1:-0.41390119 2:0.0080054439 3:-0.44477289 4:-0.47969282 5:0.16766351 6:-0.33035653 
-50 1:-1.3038747 2:0.041208702 3:-0.85427516 4:-0.49970843 5:0.30431702 6:-0.049348109 
-50 1:1.3660458 2:0.013522293 3:-0.90526264 4:-0.86908622 5:0.19590187 6:-0.31888469 
-50 1:-0.41390119 2:0.0056556748 3:-0.15119064 4:-0.77717433 5:-0.15178298 6:-0.23351766 
-50 1:-0.41390119 2:0.027518743 3:2.271148 4:-0.77927158 5:0.79092454 6:-0.12830745 
-50 1:-1.3038747 2:0.049177484 3:0.79990209 4:0.37279915 5:0.38953637 6:0.11456486 
-50 1:0.47607232 2:0.012704982 3:1.7870845 4:-0.65495721 5:0.29397976 6:-0.27775143 
-50 1:1.3660458 2:0.10945417 3:1.8469645 4:1.8296 5:0.38323316 6:-0.25542784 
-50 1:-0.41390119 2:0.043149816 3:-0.75691966 4:-0.36328245 5:0.28515527 6:-0.11135806 
-50 1:0.47607232 2:0.086773789 3:-0.48200299 4:-0.53499463 5:0.14043366 6:-0.3050358 
-50 1:1.3660458 2:1.0628474 3:-0.094602036 4:0.51231857 5:0.30356064 6:0.79047332 
-50 1:1.3660458 2:-3.7155612 3:1.0189808 4:-0.96608394 5:-3.6240932 6:-0.25439434 
-4.4503402985509783 1:0.47607232 2:-0.41955036 3:1.1339481 4:1.7969878 5:-2.3402562 6:0.1926974 
-39.802028919437291 1:1.3660458 2:-0.18906867 3:0.96236335 4:1.66861 5:-0.11119033 6:-0.3754171 
-50 1:-1.3038747 2:0.011785507 3:-0.83192843 4:-0.59728289 5:0.27481802 6:-0.306276 
-50 1:-1.3038747 2:0.033852904 3:-0.82419081 4:-0.71378501 5:0.29120635 6:0.010388144 
-50 1:-1.3038747 2:0.016791537 3:-0.7472765 4:-0.57935142 5:0.097823986 6:-0.24261245 
-43.590663556381529 1:-0.41390119 2:0.19384153 3:2.2377723 4:1.8826604 5:0.32978197 6:-0.48775846 
-50 1:1.3660458 2:-0.0013936324 3:-0.61117514 4:-0.54794513 5:0.20233114 6:-0.53591952 
-50 1:-1.3038747 2:0.027212252 3:-0.79936112 4:-0.28940689 5:0.16690713 6:-0.16220622 
-50 1:-1.3038747 2:-0.1230708 3:-0.99073742 4:-0.72638161 5:0.40132336 6:-0.35748589 
-50 1:-1.3038747 2:0.063684754 3:-0.80871556 4:-0.53593839 5:0.2907021 6:-0.025577628 
-50 1:-0.41390119 2:0.014441768 3:-0.77054712 4:-0.74760314 5:0.17623587 6:-0.28787972 
-50 1:1.3660458 2:0.19149176 3:-0.81997554 4:-0.35961227 5:0.30179574 6:0.21894828 
-50 1:-0.41390119 2:-0.13859971 3:-0.43315201 4:-0.48109535 5:-0.46870818 6:-0.35526386 
-50 1:0.47607232 2:0.027212252 3:-0.82476824 4:-0.62213528 5:0.2791042 6:-0.34926957 
-50 1:0.47607232 2:-0.61008598 3:0.45361449 4:0.10461357 5:-0.81614091 6:0.051521411 
-50 1:-0.41390119 2:0.048973157 3:0.81046915 4:0.27889487 5:0.51257495 6:-0.22256257 
-50 1:-1.3038747 2:0.024555991 3:-0.79566553 4:-0.4890649 5:0.22161896 6:-0.14587693 
-50 1:-1.3038747 2:0.043047652 3:-0.933658 4:-0.79414893 5:0.27097306 6:-0.074203764 
-50 1:-1.3038747 2:0.039267589 3:2.5704902 4:-0.61673486 5:0.49795151 6:-0.20354619 
-21.478562352071496 1:1.3660458 2:0.12845665 3:3.1309483 4:2.8088051 5:0.096815473 6:-0.33686758 
-50 1:0.47607232 2:0.19281989 3:-0.77457473 4:-0.16777962 5:0.28591166 6:-0.48341776 
-50 1:-0.41390119 2:0.063480427 3:-0.84832758 4:-0.80449099 5:0.28080606 6:-0.020255107 
-50 1:-0.41390119 2:0.051220762 3:-0.99822963 4:-0.47239177 5:0.31894046 6:0.088727381 
-50 1:0.47607232 2:0.028233891 3:-0.82066846 4:-0.44696264 5:0.31818407 6:-0.20127249 
-50 1:-1.3038747 2:0.020060781 3:-0.70412769 4:-0.72255413 5:0.31345667 6:-0.21625822 
-50 1:1.3660458 2:0.077987696 3:-0.36003434 4:-0.09718101 5:0.65988088 6:0.41939544 
