svm_type c_svc
kernel_type rbf
gamma 4.0000000000000001e-10
nr_class 2
total_sv 77
rho -302.04511273115367
label 100 200
probA -0.10857466452761143
probB 0.0037717865093423023
nr_sv 37 40
SV
8000000 1:27 2:22 3:101 4:-1 5:239 
8000000 1:37 2:161 3:276 4:101 5:-127 
8000000 1:37 2:53 3:60 4:8 5:10 
8000000 1:37 2:74 3:106 4:13 5:35 
8000000 1:27 2:22 3:51 4:5 5:14 
8000000 1:37 2:239 3:304 4:142 5:236 
8000000 1:27 2:38 3:36 4:-8 5:6 
8000000 1:22 2:109 3:301 4:-93 5:-434 
8000000 1:32 2:65 3:97 4:-54 5:-89 
8000000 1:32 2:96 3:98 4:78 5:50 
8000000 1:22 2:29 3:34 4:-1 5:11 
5859147.8828678932 1:27 2:23 3:40 4:-9 5:22 
8000000 1:27 2:9 3:21 4:-3 5:-2 
8000000 1:22 2:21 3:42 4:7 5:-20 
8000000 1:27 2:26 3:70 4:1 5:-13 
8000000 1:22 2:24 3:27 4:-7 5:15 
8000000 1:32 2:25 3:84 4:-22 5:37 
8000000 1:22 2:35 3:40 4:-2 5:5 
8000000 1:22 2:35 3:81 4:35 5:65 
8000000 1:27 2:185 3:142 4:90 5:-28 
8000000 1:27 2:55 3:56 4:-69 5:-52 
8000000 1:37 2:80 3:69 4:-106 5:-71 
8000000 1:22 2:20 3:28 4:2 5:11 
8000000 1:37 2:91 3:169 4:77 5:35 
8000000 1:22 2:108 3:119 4:8 5:104 
8000000 1:27 2:17 3:46 4:-1 5:-4 
8000000 1:32 2:31 3:94 4:15 5:119 
8000000 1:22 2:40 3:84 4:12 5:-30 
8000000 1:22 2:23 3:70 4:-2 5:82 
8000000 1:27 2:51 3:70 4:-56 5:-7 
8000000 1:32 2:84 3:93 4:-75 5:-38 
8000000 1:37 2:168 3:103 4:-496 5:211 
8000000 1:37 2:226 3:152 4:203 5:152 
8000000 1:27 2:21 3:66 4:-2 5:9 
8000000 1:32 2:18 3:61 4:3 5:1 
8000000 1:22 2:45 3:31 4:-13 5:-21 
8000000 1:27 2:54 3:103 4:17 5:-81 
-8000000 1:37 2:78 3:117 4:30 5:-23 
-8000000 1:22 2:26 3:30 4:1 5:7 
-8000000 1:22 2:55 3:88 4:-25 5:-56 
-8000000 1:22 2:24 3:17 4:-27 5:2 
-8000000 1:37 2:23 3:36 4:-28 5:-16 
-8000000 1:32 2:78 3:51 4:12 5:13 
-3435856.0823812871 1:27 2:274 3:107 4:5 5:-151 
-1499746.8258330389 1:32 2:60 3:110 4:-71 5:-147 
-8000000 1:27 2:66 3:291 4:0 5:47 
-8000000 1:37 2:140 3:104 4:86 5:-45 
-8000000 1:32 2:13 3:11 4:-35 5:-37 
-8000000 1:27 2:32 3:35 4:-14 5:-25 
-8000000 1:27 2:79 3:84 4:-27 5:-92 
-8000000 1:27 2:53 3:34 4:-2 5:17 
-4065525.8767213202 1:22 2:40 3:29 4:-76 5:-58 
-2136102.3111169753 1:37 2:276 3:306 4:-299 5:71 
-8000000 1:37 2:62 3:149 4:8 5:17 
-8000000 1:27 2:32 3:33 4:-39 5:-45 
-8000000 1:22 2:56 3:290 4:14 5:-135 
-8000000 1:37 2:57 3:98 4:-154 5:-83 
-8000000 1:22 2:28 3:36 4:-2 5:12 
-8000000 1:32 2:51 3:80 4:30 5:-17 
-8000000 1:27 2:124 3:111 4:49 5:12 
-8000000 1:32 2:159 3:352 4:-26 5:135 
-8000000 1:27 2:29 3:49 4:61 5:55 
-8000000 1:22 2:21 3:29 4:-1 5:-7 
-8000000 1:22 2:34 3:34 4:3 5:-11 
-8000000 1:27 2:100 3:186 4:168 5:-141 
-8000000 1:22 2:29 3:20 4:-35 5:-5 
-8000000 1:27 2:53 3:14 4:-100 5:2 
-8000000 1:27 2:60 3:28 4:-11 5:-3 
-4317676.2479301505 1:27 2:127 3:51 4:-340 5:-24 
-8000000 1:27 2:51 3:74 4:36 5:69 
-8000000 1:22 2:104 3:94 4:44 5:49 
-8000000 1:37 2:55 3:56 4:48 5:38 
-6404240.5388850765 1:32 2:142 3:124 4:59 5:17 
-8000000 1:27 2:48 3:158 4:117 5:188 
-8000000 1:32 2:23 3:45 4:-3 5:46 
-8000000 1:37 2:123 3:236 4:-111 5:577 
-8000000 1:27 2:48 3:53 4:-2 5:3 
