svm_type c_svc
kernel_type rbf
gamma 0.0001
nr_class 2
total_sv 140
rho -8.4894407464991097
label 100 200
probA -0.60339431652220743
probB -0.01874019735967801
nr_sv 71 69
SV
5000 1:1.5939697 2:0.53072968 3:1.3001034 4:1.405586 5:0.53349587 6:-0.54388556 
5000 1:-0.22898409 2:0.012650434 3:-0.33600213 4:-0.23538381 5:0.27753193 6:-0.41730992 
5000 1:-0.22898409 2:-0.12086962 3:0.82661061 4:0.34074236 5:0.59023014 6:-1.2714423 
5000 1:1.5939697 2:-0.1674179 3:0.82069723 4:0.31889018 5:0.16142457 6:0.91629102 
5000 1:-1.140461 2:1.0667239 3:0.14805026 4:0.03224106 5:1.5032562 6:1.0474234 
5000 1:-0.22898409 2:-0.0059535646 3:-0.81488031 4:-0.6900376 5:0.11920372 6:-0.40212085 
5000 1:1.5939697 2:0.15964499 3:-0.48330865 4:-0.021103956 5:0.52645906 6:0.0029212004 
5000 1:0.68249278 2:0.028115486 3:0.43094213 4:0.1758227 5:0.91392337 6:0.46163132 
5000 1:-0.22898409 2:0.16331985 3:0.19504051 4:0.60669618 5:0.46400737 6:0.011022041 
5000 1:1.5939697 2:0.043427419 3:-0.9497265 4:-0.96344687 5:0.35097862 6:-0.17377839 
5000 1:-1.140461 2:-0.014834486 3:-0.73684482 4:-0.95007848 5:0.18957181 6:-0.38288135 
5000 1:-0.22898409 2:0.11845589 3:-0.71667597 4:-0.49362511 5:0.12448132 6:0.14468592 
5000 1:1.5939697 2:-0.0067957209 3:-0.72290613 4:-0.93696718 5:0.33822441 6:-0.29680992 
5000 1:0.68249278 2:0.071218577 3:-0.73058825 4:-0.74669258 5:0.76626033 6:0.26240126 
5000 1:0.68249278 2:0.094416156 3:0.21436459 4:0.43869152 5:0.25158369 6:0.14924264 
5000 1:-0.22898409 2:-0.12722407 3:-0.0087599065 4:0.13494628 5:0.25026429 6:-0.015811994 
5000 1:-1.140461 2:-0.0071785192 3:-1.0630311 4:-1.1077998 5:0.065108244 6:-0.21883932 
5000 1:0.68249278 2:-1.2746238 3:0.50274746 4:-0.40493099 5:-1.9848023 6:-2.0896273 
5000 1:1.5939697 2:-1.5013169 3:2.3632446 4:0.51658809 5:-3.6208605 6:-1.5240873 
5000 1:-1.140461 2:-0.022413893 3:-0.70252609 4:-0.80006973 5:-0.14643584 6:-0.38743807 
5000 1:-0.22898409 2:0.0041523111 3:-1.031669 4:-0.53591549 5:0.21947825 6:-0.17934772 
1681.6820846663431 1:0.68249278 2:-3.1281332 3:0.3646278 4:1.1344905 5:-1.0299952 6:-2.0597554 
5000 1:-0.22898409 2:0.021148557 3:-0.40231646 4:-0.41302914 5:0.24058868 6:-0.083150235 
5000 1:-1.140461 2:-0.84144919 3:1.026504 4:-0.80135515 5:-2.2653951 6:-0.6097049 
5000 1:-1.140461 2:-3.2121958 3:4.1256431 4:1.7565062 5:-1.7613836 6:-0.015305692 
5000 1:-0.22898409 2:0.10674226 3:-0.24687905 4:0.0013909302 5:-0.065512529 6:0.28138761 
5000 1:-1.140461 2:-0.49968684 3:-0.075285431 4:-0.97437296 5:-1.1733702 6:-0.31807462 
5000 1:-0.22898409 2:0.0077506154 3:-1.1715838 4:-1.230429 5:0.19880762 6:-0.25630571 
5000 1:1.5939697 2:-0.010394025 3:-0.9818277 4:-0.58990322 5:0.23047326 6:0.45099897 
5000 1:-1.140461 2:0.70643412 3:0.023869279 4:-0.069564368 5:1.2292604 6:0.15784978 
5000 1:-1.140461 2:0.10046437 3:-0.796401 4:-0.72435837 5:0.31931298 6:0.032793051 
5000 1:-1.140461 2:0.009434928 3:-1.0809824 4:-0.67692629 5:0.22343645 6:-0.0077111534 
5000 1:-0.22898409 2:0.10835001 3:0.93674731 4:-0.34914367 5:0.14515195 6:-0.14694436 
5000 1:-1.140461 2:-0.032672888 3:-0.82533432 4:-0.71793126 5:-0.040004095 6:-0.21580151 
5000 1:-1.140461 2:0.028574844 3:-1.0380048 4:-0.92616963 5:0.20804343 6:-0.25833092 
5000 1:1.5939697 2:-1.0149334 3:0.33073146 4:1.000678 5:0.1095281 6:-1.7630621 
5000 1:-0.22898409 2:-0.035199357 3:-1.0180472 4:-0.53578695 5:0.35009902 6:0.19075945 
217.64877834796397 1:-1.140461 2:1.2947186 3:0.61974791 4:0.55219429 5:1.5401994 6:1.470186 
5000 1:-0.22898409 2:0.010277084 3:-0.98700191 4:-0.47537211 5:0.24058868 6:-0.30035403 
5000 1:-0.22898409 2:-0.11642916 3:0.45829152 4:0.56954748 5:0.42354572 6:0.14266071 
5000 1:-1.140461 2:0.00055400688 3:-1.0215582 4:-1.0885506 5:0.19990712 6:-0.17187976 
5000 1:0.68249278 2:0.0055303851 3:-1.1663568 4:-1.237049 5:0.23707027 6:-0.25959668 
5000 1:-1.140461 2:0.012497315 3:-1.0456605 4:-1.1198827 5:0.27401352 6:-0.19580255 
5000 1:1.5939697 2:-0.20638677 3:1.6587077 4:-0.71150415 5:-1.5454415 6:0.1613939 
5000 1:-1.140461 2:0.0075209364 3:-0.94497467 4:-1.0252757 5:0.14867036 6:-0.2340284 
5000 1:-0.22898409 2:-0.2173348 3:-0.34307707 4:0.42622292 5:0.34130301 6:-1.0977806 
5000 1:-0.22898409 2:0.40723895 3:0.27265362 4:-0.36546853 5:0.17153999 6:0.17050735 
5000 1:-0.22898409 2:0.69586888 3:-0.60147065 4:-0.46701687 5:0.95042682 6:0.26721114 
5000 1:-1.140461 2:0.058509673 3:-0.80157521 4:-0.98748427 5:0.48028 6:-0.22187714 
5000 1:-1.140461 2:0.081171334 3:-0.13441923 4:-0.29798387 5:0.066427646 6:-0.40870278 
2920.5364036224332 1:1.5939697 2:-0.31632645 3:1.7829942 4:1.8540698 5:0.71381411 6:0.6347868 
5000 1:-1.140461 2:0.21254772 3:0.044354917 4:0.1024251 5:0.25334289 6:0.31733509 
5000 1:-0.22898409 2:-0.024251324 3:-0.86303212 4:-1.0137069 5:0.24542648 6:-0.31250529 
5000 1:-0.22898409 2:0.0059131834 3:-1.0408559 4:-0.94969286 5:0.19309021 6:-0.16112083 
5000 1:-0.22898409 2:-0.03673055 3:0.23326629 4:0.41208328 5:0.051914227 6:-0.65679104 
5000 1:-0.22898409 2:-0.36432935 3:0.7436121 4:0.53124191 5:0.0044157638 6:-1.0658835 
5000 1:1.5939697 2:0.0030039162 3:-0.70062536 4:-0.58746092 5:0.34921942 6:0.074816164 
1537.2868911983981 1:-0.22898409 2:0.40639679 3:0.55522871 4:0.97779753 5:0.24410708 6:0.50416073 
5000 1:-0.22898409 2:0.88244478 3:2.6594416 4:2.1268363 5:1.5261258 6:-1.2947323 
5000 1:0.68249278 2:-0.91448711 3:0.46325453 4:0.41234036 5:-0.30476405 6:-0.51705153 
5000 1:0.68249278 2:0.16477449 3:0.19303419 4:0.29395299 5:-0.056716517 6:-0.26035613 
5000 1:0.68249278 2:0.12205419 3:-0.32385858 4:0.11900705 5:0.66983405 6:-0.2542805 
5000 1:0.68249278 2:0.49551224 3:0.59187055 4:-0.38590674 5:1.7341515 6:0.21151786 
5000 1:1.5939697 2:-0.028691785 3:-1.044763 4:-0.57499232 5:0.19353001 6:0.06418381 
5000 1:1.5939697 2:-0.072866712 3:1.1241803 4:1.6001989 5:-0.10201598 6:-0.82893391 
5000 1:-0.22898409 2:-0.42894571 3:0.22880485 4:-0.85447522 5:-1.9124551 6:-0.34693387 
5000 1:-0.22898409 2:-1.4186325 3:0.44319128 4:-0.08717465 5:-0.84220036 6:0.3588519 
5000 1:0.68249278 2:1.2509265 3:0.093985071 4:-0.057995569 5:1.6066093 6:1.470186 
5000 1:1.5939697 2:0.0097411666 3:0.28701469 4:-1.20742 5:0.23970908 6:-0.23200319 
5000 1:0.68249278 2:0.18161761 3:-0.79925209 4:-0.78875801 5:0.39979649 6:0.098106082 
5000 1:1.5939697 2:0.20091065 3:0.082052715 4:0.070161011 5:0.84311548 6:0.24240231 
-5000 1:0.68249278 2:0.021837594 3:-0.80952131 4:-1.0255006 5:0.2215673 6:-0.25984983 
-5000 1:-1.140461 2:0.01356915 3:-0.94170119 4:-0.94930723 5:0.38748207 6:-0.30896118 
-4912.3945667275175 1:1.5939697 2:-0.15134037 3:-0.48256948 4:-0.98041444 5:-0.76567506 6:-0.3535158 
-5000 1:0.68249278 2:0.13223663 3:1.0143604 4:0.69269092 5:0.60474356 6:0.1021565 
-5000 1:-1.140461 2:0.12802585 3:0.13727946 4:0.11065181 5:0.1807758 6:-0.63805784 
-5000 1:-0.22898409 2:0.21897873 3:-0.29249655 4:-0.55982434 5:0.50051082 6:-0.16669016 
-5000 1:-1.140461 2:0.0030039162 3:-1.1568004 4:-1.2826172 5:0.20320563 6:-0.26187504 
-5000 1:-1.140461 2:-0.0059535646 3:-0.97887101 4:-1.1711711 5:0.3355856 6:-0.30997378 
-5000 1:-0.22898409 2:-0.074704143 3:-0.58235776 4:-0.89859733 5:0.5585645 6:-0.20187819 
-5000 1:0.68249278 2:0.23275947 3:3.1238531 4:1.775659 5:1.2886335 6:1.1127364 
-5000 1:1.5939697 2:-0.42863947 3:0.96251275 4:0.901572 5:0.48819641 6:0.92388556 
-5000 1:-0.22898409 2:0.020842318 3:-0.39819822 4:-1.1867247 5:0.27841153 6:-0.23706621 
-5000 1:-1.140461 2:0.053839533 3:-0.48383663 4:-0.17496898 5:0.26697671 6:-0.45376371 
-5000 1:0.68249278 2:0.026890532 3:-1.011289 4:-1.0527837 5:0.31711398 6:-0.22187714 
-5000 1:0.68249278 2:-1.433332 3:0.42080491 4:-0.35711328 5:-1.7547866 6:0.68794856 
-5000 1:0.68249278 2:-0.30185667 3:-0.63198792 4:-0.96151874 5:-0.48640169 6:-0.63957675 
-5000 1:-1.140461 2:0.011578599 3:-0.99935665 4:-1.1688573 5:0.29358465 6:-0.23225634 
-5000 1:-1.140461 2:0.012267636 3:-0.06778811 4:-0.29579865 5:-0.55325138 6:-0.9463961 
-5000 1:-1.140461 2:0.12251355 3:-0.034366954 4:-0.77076211 5:0.22728471 6:0.27619801 
-5000 1:1.5939697 2:-0.84076015 3:1.4300922 4:3.0392289 5:-1.9069576 6:-2.3812576 
-5000 1:-0.22898409 2:0.46174943 3:-0.60590569 4:0.14407278 5:0.77802499 6:1.5653709 
-5000 1:0.68249278 2:-0.37818665 3:-0.41871025 4:-0.52347904 5:0.096993787 6:-0.56451739 
-5000 1:0.68249278 2:-0.045305232 3:-0.97010654 4:-1.2059417 5:-0.099047324 6:-0.19238501 
-5000 1:-0.22898409 2:-0.022337333 3:-0.92037079 4:-1.1228392 5:-0.05143891 6:-0.26845697 
-5000 1:-0.22898409 2:-0.59722385 3:1.002956 4:0.79218259 5:0.20100662 6:-1.0866419 
-5000 1:-0.22898409 2:0.17679435 3:-0.35500942 4:-0.72950006 5:-0.0439623 6:-0.37427421 
-5000 1:-0.22898409 2:0.066548438 3:-0.022804184 4:-0.38217901 5:0.37208905 6:0.11481407 
-5000 1:0.68249278 2:-0.11229494 3:-0.65215677 4:-0.0052932646 5:-0.13104282 6:0.67680991 
-4671.1390159873326 1:0.68249278 2:0.90510644 3:0.79588215 4:0.42288083 5:0.14075394 6:-0.78387298 
-5000 1:0.68249278 2:0.74065629 3:0.50612654 4:-0.36122663 5:1.7790111 6:0.011528344 
-5000 1:0.68249278 2:0.10942185 3:-0.7346273 4:-0.92809777 5:0.19089121 6:-0.14086873 
-5000 1:-0.22898409 2:-0.13962674 3:1.2208007 4:0.68767777 5:-0.098497573 6:2.3445705 
-5000 1:0.68249278 2:-0.12416169 3:-0.32945517 4:-0.49581033 5:-0.10685378 6:-0.75248222 
-5000 1:0.68249278 2:-1.4542327 3:1.3756046 4:0.57893106 5:-0.76963326 6:0.52441284 
-5000 1:0.68249278 2:0.28436068 3:-0.41984541 4:-0.6315509 5:0.79649662 6:-0.42034774 
-5000 1:-0.22898409 2:-0.20102759 3:-0.4765505 4:-0.44529324 5:0.23882948 6:0.13759768 
-5000 1:-1.140461 2:-0.010240906 3:-0.24371116 4:0.40398512 5:0.3307478 6:-0.045177543 
-5000 1:-0.22898409 2:-0.36524807 3:0.17518845 4:-0.2843584 5:-1.5423629 6:0.57959982 
-5000 1:0.68249278 2:-0.030835456 3:3.4938618 4:3.6690857 5:0.040919212 6:-1.7823016 
-5000 1:-0.22898409 2:-0.046989545 3:-0.54180887 4:-0.89596221 5:-0.91344806 6:0.032793051 
-5000 1:1.5939697 2:0.6183905 3:0.97888015 4:0.36028077 5:0.70325889 6:-0.43654942 
-5000 1:1.5939697 2:0.2262519 3:-0.83093092 4:-0.548127 5:0.80881103 6:0.77958933 
-5000 1:-0.22898409 2:-0.00243182 3:-0.893127 4:-0.96730314 5:0.30128116 6:-0.54186035 
-5000 1:-1.140461 2:-0.57823706 3:0.99820423 4:1.2409234 5:-0.63725329 6:0.50871746 
-5000 1:-0.22898409 2:0.32838249 3:0.46842874 4:-0.29245655 5:-0.39096496 6:0.43226577 
-5000 1:-0.22898409 2:0.052538019 3:-0.62618013 4:-1.0356876 5:0.097653488 6:-0.15960192 
-5000 1:1.5939697 2:-0.15922601 3:-0.19751288 4:-0.55628943 5:0.21101209 6:-0.66653736 
-5000 1:-1.140461 2:-0.58979757 3:-0.089752093 4:-0.53283048 5:-0.43274602 6:-0.42692967 
-5000 1:0.68249278 2:-0.0032739764 3:-0.8555348 4:-1.1871103 5:-0.21636413 6:-0.34794647 
-3101.0694272310739 1:0.68249278 2:1.2547544 3:2.0792968 4:1.6458314 5:2.8965444 6:-2.2703773 
-5000 1:-0.22898409 2:0.12764305 3:-0.07317351 4:-0.22857108 5:0.4859974 6:-0.36870488 
-5000 1:-1.140461 2:-0.95912139 3:0.43136452 4:0.031598349 5:-0.33423069 6:-1.3661209 
-5000 1:0.68249278 2:-0.0434678 3:-0.61583172 4:-1.0775924 5:-0.023291673 6:-0.5904654 
-5000 1:-0.22898409 2:0.085305556 3:0.19736362 4:0.55450805 5:0.30963737 6:-0.46135825 
-5000 1:-1.140461 2:0.007367817 3:-0.97295763 4:-1.1536893 5:0.39363928 6:-0.16922167 
-5000 1:1.5939697 2:-0.20983195 3:-0.29883231 4:-0.57576358 5:-0.071669737 6:-1.0623394 
-5000 1:1.5939697 2:-1.9413053 3:0.85216486 4:-0.10857693 5:-0.20943727 6:0.062538327 
-5000 1:-1.140461 2:0.0047647884 3:-1.0322498 4:-1.1503472 5:0.23003346 6:-0.29858197 
-5000 1:-0.22898409 2:0.0033867145 3:-1.0367377 4:-1.2770899 5:0.19484942 6:-0.22592756 
-5000 1:-0.22898409 2:0.4587636 3:0.64202868 4:0.32197519 5:1.3194195 6:-0.25681201 
-5000 1:0.68249278 2:-0.085422497 3:-0.16514769 4:-0.61021289 5:-0.00086184323 6:-0.64362717 
-5000 1:-1.140461 2:0.033321543 3:-0.94822175 4:-0.14363681 5:0.22728471 6:0.10646007 
-5000 1:-0.22898409 2:0.36375306 3:2.0693708 4:1.3964595 5:0.60738236 6:0.98666707 
-5000 1:-1.140461 2:0.1015362 3:-0.99238731 4:-0.65983018 5:0.20892304 6:0.3988498 
-5000 1:-0.22898409 2:-0.14544527 3:-0.55748989 4:-1.0626815 5:-0.2665014 6:-0.36921118 
-3672.5511478892154 1:-0.22898409 2:-0.34786903 3:0.30031979 4:-0.55185473 5:-0.031647884 6:-0.30237924 
-5000 1:-0.22898409 2:0.042432143 3:-0.24487272 4:-0.09822928 5:0.19396982 6:-0.1752973 
-5000 1:1.5939697 2:-0.26908913 3:0.14403761 4:0.7392232 5:-1.1887632 6:-0.99449484 
-5000 1:0.68249278 2:-0.12615224 3:-0.1943978 4:-0.70906185 5:0.6315714 6:-0.54034145 
