svm_type c_svc
kernel_type rbf
gamma 6e-10
nr_class 2
total_sv 63
rho -10.640566399648971
label 100 200
probA -0.81378356947761188
probB 0.038168420893388337
nr_sv 32 31
SV
60000 1:32 2:13 3:82 4:-7 5:94 
60000 1:22 2:46 3:73 4:-30 5:34 
60000 1:22 2:52 3:54 4:26 5:23 
18533.978447768426 1:27 2:139 3:145 4:259 5:36 
60000 1:27 2:37 3:76 4:57 5:115 
60000 1:27 2:110 3:60 4:40 5:8 
60000 1:32 2:91 3:18 4:-122 5:-36 
60000 1:27 2:54 3:61 4:-75 5:-27 
60000 1:22 2:415 3:443 4:-883 5:64 
60000 1:27 2:48 3:38 4:-35 5:0 
60000 1:22 2:120 3:186 4:92 5:-209 
60000 1:32 2:52 3:63 4:-45 5:-1 
60000 1:27 2:159 3:165 4:-399 5:-102 
60000 1:22 2:18 3:46 4:-9 5:56 
60000 1:37 2:158 3:152 4:34 5:15 
60000 1:22 2:148 3:55 4:-44 5:33 
60000 1:27 2:43 3:60 4:-37 5:56 
60000 1:22 2:23 3:32 4:-28 5:16 
60000 1:32 2:141 3:100 4:-242 5:88 
60000 1:32 2:110 3:106 4:-84 5:-59 
60000 1:37 2:203 3:133 4:438 5:-43 
60000 1:32 2:258 3:187 4:-236 5:-115 
31334.410645454711 1:27 2:250 3:231 4:370 5:-41 
60000 1:27 2:335 3:446 4:-166 5:-389 
60000 1:22 2:70 3:71 4:94 5:14 
60000 1:22 2:189 3:199 4:2 5:-66 
60000 1:27 2:195 3:95 4:-494 5:124 
60000 1:27 2:176 3:101 4:-99 5:-104 
60000 1:32 2:240 3:188 4:-191 5:-13 
60000 1:22 2:50 3:69 4:14 5:39 
60000 1:22 2:241 3:264 4:-74 5:3 
60000 1:27 2:120 3:70 4:-40 5:-15 
-60000 1:37 2:181 3:188 4:-110 5:-121 
-60000 1:22 2:211 3:308 4:-525 5:159 
-60000 1:22 2:38 3:44 4:3 5:81 
-60000 1:27 2:37 3:34 4:-6 5:-10 
-60000 1:22 2:32 3:28 4:-34 5:-32 
-60000 1:22 2:122 3:24 4:-81 5:-17 
-60000 1:22 2:241 3:92 4:-37 5:-4 
-60000 1:37 2:224 3:130 4:-54 5:-151 
-60000 1:27 2:147 3:122 4:-136 5:-191 
-60000 1:22 2:81 3:161 4:23 5:70 
-60000 1:22 2:384 3:316 4:154 5:-382 
-50562.798306043238 1:32 2:126 3:66 4:-192 5:-107 
-60000 1:32 2:143 3:135 4:-9 5:-115 
-59305.590787179892 1:22 2:412 3:298 4:-765 5:247 
-60000 1:22 2:56 3:43 4:-22 5:-30 
-60000 1:22 2:31 3:46 4:-12 5:45 
-60000 1:22 2:26 3:25 4:22 5:-5 
-60000 1:22 2:37 3:24 4:-30 5:-4 
-60000 1:22 2:39 3:34 4:21 5:18 
-60000 1:27 2:54 3:59 4:32 5:-51 
-60000 1:22 2:38 3:93 4:-17 5:25 
-60000 1:32 2:162 3:54 4:101 5:-7 
-60000 1:32 2:333 3:301 4:-304 5:97 
-60000 1:22 2:74 3:78 4:-23 5:-163 
-60000 1:32 2:462 3:375 4:-228 5:-114 
-60000 1:22 2:121 3:83 4:-95 5:-68 
-60000 1:22 2:134 3:178 4:-16 5:206 
-60000 1:22 2:24 3:27 4:-2 5:-3 
-60000 1:32 2:97 3:205 4:-21 5:86 
-60000 1:22 2:20 3:27 4:-22 5:-35 
-60000 1:32 2:127 3:142 4:48 5:114 
