svm_type c_svc
kernel_type rbf
gamma 2.9999999999999999e-07
nr_class 2
total_sv 82
rho 4.7254325113986635
label 200 100
probA -0.48738224867982932
probB -0.055323708899747741
nr_sv 41 41
SV
100 1:27 2:28 3:93 4:-11 5:-47 
100 1:22 2:56 3:153 4:-45 5:264 
100 1:37 2:159 3:131 4:18 5:136 
100 1:22 2:27 3:79 4:-40 5:17 
100 1:37 2:22 3:130 4:12 5:16 
100 1:27 2:33 3:43 4:-70 5:-38 
100 1:37 2:50 3:187 4:-74 5:131 
24.522011463923523 1:37 2:92 3:75 4:-112 5:-103 
100 1:22 2:141 3:135 4:54 5:-28 
100 1:37 2:130 3:127 4:-31 5:63 
100 1:22 2:108 3:85 4:50 5:9 
100 1:32 2:37 3:259 4:-4 5:-27 
33.227928341837561 1:37 2:248 3:413 4:-222 5:-598 
100 1:22 2:55 3:50 4:-77 5:-16 
100 1:22 2:29 3:28 4:10 5:-1 
100 1:27 2:28 3:52 4:-18 5:-74 
100 1:32 2:38 3:122 4:-27 5:-90 
100 1:22 2:49 3:95 4:-35 5:-32 
100 1:27 2:22 3:49 4:12 5:4 
100 1:22 2:17 3:24 4:-1 5:-4 
100 1:22 2:94 3:109 4:-66 5:-36 
100 1:32 2:153 3:129 4:105 5:174 
100 1:22 2:43 3:43 4:-46 5:-31 
100 1:22 2:31 3:123 4:1 5:0 
100 1:32 2:46 3:226 4:-87 5:221 
100 1:32 2:44 3:128 4:30 5:50 
100 1:37 2:55 3:284 4:29 5:-128 
100 1:22 2:11 3:22 4:-11 5:34 
100 1:32 2:19 3:85 4:-2 5:61 
100 1:22 2:86 3:81 4:-16 5:-59 
100 1:22 2:70 3:84 4:19 5:-117 
100 1:32 2:80 3:95 4:-25 5:-2 
100 1:27 2:89 3:124 4:-104 5:-118 
100 1:32 2:46 3:15 4:5 5:-9 
100 1:32 2:35 3:61 4:-4 5:-20 
100 1:22 2:26 3:150 4:-14 5:103 
100 1:27 2:53 3:39 4:-53 5:-16 
100 1:32 2:35 3:41 4:-12 5:0 
100 1:27 2:26 3:74 4:2 5:-43 
0.93103989577418222 1:37 2:131 3:227 4:-329 5:8 
100 1:22 2:19 3:36 4:-49 5:-20 
-100 1:32 2:21 3:69 4:-10 5:12 
-100 1:37 2:209 3:227 4:-62 5:-27 
-100 1:22 2:17 3:29 4:-4 5:26 
-100 1:37 2:109 3:72 4:77 5:-1 
-100 1:27 2:15 3:39 4:-1 5:40 
-100 1:37 2:91 3:68 4:-70 5:-47 
-100 1:32 2:39 3:219 4:11 5:-233 
-100 1:37 2:134 3:150 4:72 5:78 
-100 1:22 2:32 3:51 4:-9 5:-44 
-100 1:37 2:116 3:367 4:-8 5:28 
-100 1:27 2:147 3:185 4:-33 5:-341 
-100 1:22 2:19 3:73 4:-11 5:127 
-100 1:22 2:19 3:58 4:-2 5:-38 
-12.74436038659935 1:32 2:392 3:324 4:666 5:24 
-100 1:32 2:17 3:35 4:3 5:22 
-100 1:27 2:17 3:162 4:-14 5:-43 
-100 1:32 2:54 3:71 4:-69 5:62 
-100 1:27 2:49 3:51 4:-20 5:-34 
-48.44462547993983 1:27 2:18 3:216 4:-15 5:-8 
-100 1:32 2:17 3:117 4:0 5:65 
-100 1:32 2:81 3:77 4:-105 5:-135 
-72.682077187819729 1:27 2:17 3:104 4:9 5:171 
-100 1:32 2:22 3:55 4:-15 5:27 
-100 1:27 2:18 3:38 4:-4 5:34 
-24.809916647176298 1:37 2:90 3:268 4:-81 5:283 
-100 1:27 2:21 3:41 4:2 5:19 
-100 1:32 2:62 3:227 4:3 5:-38 
-100 1:32 2:96 3:167 4:-128 5:270 
-100 1:22 2:16 3:65 4:-6 5:88 
-100 1:32 2:22 3:45 4:-13 5:34 
-100 1:27 2:23 3:137 4:4 5:62 
-100 1:27 2:17 3:81 4:0 5:158 
-100 1:27 2:14 3:42 4:0 5:20 
-100 1:27 2:72 3:158 4:-14 5:-84 
-100 1:32 2:42 3:62 4:-20 5:-100 
-100 1:27 2:90 3:130 4:-22 5:-154 
-100 1:37 2:92 3:101 4:-173 5:-46 
-100 1:37 2:33 3:109 4:-10 5:34 
-100 1:27 2:29 3:80 4:-13 5:122 
-100 1:22 2:20 3:44 4:-2 5:-10 
-100 1:32 2:18 3:35 4:0 5:4 
