svm_type c_svc
kernel_type rbf
gamma 4.45e-08
nr_class 2
total_sv 2300
rho 39.00563932389055
label 1 0
probA -0.7429866430805707
probB -0.10395998917694933
nr_sv 1110 1190
SV
-63200.0 1:16.0 2:37.0 3:3984.0 4:139.0 5:13.0 6:16.0 7:269.0 8:133.0 9:3.0 10:24.0 11:9.0 12:10.0 
-63200.0 1:16.0 2:37.0 3:3821.0 4:885.0 5:42.0 6:50.0 7:2907.0 8:1238.0 9:121.0 10:116.0 11:17.0 12:64.0 
-63200.0 1:16.0 2:32.0 3:4309.0 4:261.0 5:12.0 6:20.0 7:603.0 8:575.0 9:25.0 10:21.0 11:12.0 12:10.0 
-63200.0 1:16.0 2:37.0 3:4372.0 4:179.0 5:17.0 6:19.0 7:187.0 8:427.0 9:4.0 10:23.0 11:15.0 12:22.0 
-63200.0 1:16.0 2:22.0 3:1990.0 4:11.0 5:2.0 6:3.0 7:28.0 8:39.0 9:1.0 10:4.0 11:2.0 12:9.0 
-63200.0 1:16.0 2:37.0 3:4639.0 4:234.0 5:14.0 6:31.0 7:374.0 8:154.0 9:12.0 10:14.0 11:22.0 12:8.0 
-63200.0 1:16.0 2:22.0 3:4091.0 4:296.0 5:8.0 6:19.0 7:225.0 8:72.0 9:9.0 10:25.0 11:7.0 12:0.0 
-63200.0 1:16.0 2:32.0 3:4313.0 4:135.0 5:12.0 6:15.0 7:160.0 8:107.0 9:7.0 10:15.0 11:2.0 12:2.0 
-63200.0 1:16.0 2:22.0 3:3356.0 4:29.0 5:5.0 6:8.0 7:2.0 8:14.0 9:1.0 10:4.0 11:0.0 12:2.0 
-63200.0 1:16.0 2:37.0 3:4131.0 4:88.0 5:14.0 6:21.0 7:203.0 8:172.0 9:15.0 10:31.0 11:5.0 12:24.0 
-63200.0 1:16.0 2:22.0 3:2852.0 4:19.0 5:5.0 6:5.0 7:36.0 8:59.0 9:4.0 10:7.0 11:4.0 12:8.0 
-63200.0 1:16.0 2:22.0 3:2810.0 4:13.0 5:5.0 6:6.0 7:10.0 8:12.0 9:1.0 10:4.0 11:3.0 12:0.0 
-63200.0 1:16.0 2:27.0 3:4831.0 4:320.0 5:40.0 6:39.0 7:393.0 8:135.0 9:28.0 10:40.0 11:5.0 12:11.0 
-63200.0 1:16.0 2:22.0 3:3952.0 4:98.0 5:11.0 6:7.0 7:108.0 8:40.0 9:5.0 10:11.0 11:6.0 12:1.0 
-63200.0 1:16.0 2:32.0 3:4319.0 4:149.0 5:9.0 6:19.0 7:130.0 8:133.0 9:8.0 10:12.0 11:3.0 12:3.0 
-9247.126017666775 1:16.0 2:27.0 3:1864.0 4:701.0 5:32.0 6:1.0 7:14.0 8:2775.0 9:0.0 10:0.0 11:124.0 12:0.0 
-63200.0 1:16.0 2:22.0 3:5342.0 4:2174.0 5:183.0 6:9.0 7:8.0 8:1018.0 9:21.0 10:0.0 11:9.0 12:2.0 
-9090.809227021266 1:16.0 2:27.0 3:3551.0 4:1312.0 5:56.0 6:51.0 7:3916.0 8:463.0 9:199.0 10:140.0 11:9.0 12:48.0 
-63200.0 1:16.0 2:37.0 3:4606.0 4:221.0 5:41.0 6:40.0 7:67.0 8:320.0 9:7.0 10:11.0 11:45.0 12:26.0 
-63200.0 1:16.0 2:37.0 3:4960.0 4:631.0 5:58.0 6:23.0 7:436.0 8:1755.0 9:55.0 10:11.0 11:148.0 12:13.0 
-63200.0 1:16.0 2:22.0 3:3637.0 4:44.0 5:12.0 6:7.0 7:77.0 8:23.0 9:2.0 10:4.0 11:2.0 12:2.0 
-63200.0 1:16.0 2:22.0 3:3386.0 4:29.0 5:7.0 6:4.0 7:13.0 8:7.0 9:0.0 10:2.0 11:2.0 12:1.0 
-63200.0 1:16.0 2:27.0 3:4955.0 4:988.0 5:38.0 6:11.0 7:358.0 8:1391.0 9:9.0 10:4.0 11:95.0 12:1.0 
-63200.0 1:16.0 2:22.0 3:3392.0 4:38.0 5:9.0 6:5.0 7:23.0 8:55.0 9:0.0 10:0.0 11:13.0 12:2.0 
-63200.0 1:16.0 2:22.0 3:5255.0 4:1141.0 5:47.0 6:33.0 7:3769.0 8:1803.0 9:81.0 10:0.0 11:64.0 12:1.0 
-63200.0 1:16.0 2:22.0 3:3842.0 4:72.0 5:11.0 6:13.0 7:137.0 8:46.0 9:7.0 10:7.0 11:9.0 12:4.0 
-7500.175807639647 1:16.0 2:32.0 3:5485.0 4:3738.0 5:76.0 6:56.0 7:3309.0 8:7379.0 9:28.0 10:29.0 11:7.0 12:64.0 
-63200.0 1:16.0 2:32.0 3:4529.0 4:202.0 5:37.0 6:29.0 7:115.0 8:28.0 9:33.0 10:3.0 11:9.0 12:15.0 
-63200.0 1:16.0 2:32.0 3:3974.0 4:331.0 5:20.0 6:9.0 7:167.0 8:326.0 9:1.0 10:0.0 11:26.0 12:10.0 
-63200.0 1:16.0 2:27.0 3:3519.0 4:40.0 5:8.0 6:17.0 7:37.0 8:69.0 9:1.0 10:17.0 11:2.0 12:14.0 
-63200.0 1:16.0 2:22.0 3:2661.0 4:11.0 5:5.0 6:6.0 7:1.0 8:0.0 9:0.0 10:1.0 11:1.0 12:0.0 
-63200.0 1:16.0 2:22.0 3:2812.0 4:14.0 5:6.0 6:5.0 7:22.0 8:6.0 9:5.0 10:1.0 11:3.0 12:0.0 
-63200.0 1:16.0 2:27.0 3:3540.0 4:40.0 5:10.0 6:12.0 7:28.0 8:34.0 9:2.0 10:12.0 11:2.0 12:2.0 
-63200.0 1:16.0 2:27.0 3:5321.0 4:753.0 5:65.0 6:48.0 7:25.0 8:748.0 9:43.0 10:75.0 11:7.0 12:11.0 
-63200.0 1:16.0 2:37.0 3:4815.0 4:1383.0 5:6.0 6:70.0 7:219.0 8:29.0 9:12.0 10:32.0 11:5.0 12:14.0 
-63200.0 1:16.0 2:32.0 3:4807.0 4:601.0 5:11.0 6:121.0 7:139.0 8:140.0 9:5.0 10:31.0 11:0.0 12:7.0 
-63200.0 1:16.0 2:22.0 3:2767.0 4:13.0 5:6.0 6:7.0 7:3.0 8:2.0 9:0.0 10:0.0 11:1.0 12:1.0 
-63200.0 1:16.0 2:32.0 3:3948.0 4:223.0 5:56.0 6:3.0 7:27.0 8:838.0 9:4.0 10:1.0 11:182.0 12:1.0 
-35243.492160736 1:16.0 2:32.0 3:2359.0 4:1399.0 5:50.0 6:2.0 7:280.0 8:4625.0 9:5.0 10:0.0 11:192.0 12:4.0 
-63200.0 1:16.0 2:37.0 3:5121.0 4:456.0 5:23.0 6:27.0 7:386.0 8:13.0 9:14.0 10:50.0 11:20.0 12:6.0 
-63200.0 1:16.0 2:37.0 3:4545.0 4:324.0 5:52.0 6:25.0 7:547.0 8:30.0 9:2.0 10:52.0 11:10.0 12:23.0 
-44382.70271734008 1:16.0 2:32.0 3:5123.0 4:1944.0 5:58.0 6:93.0 7:4695.0 8:833.0 9:90.0 10:222.0 11:11.0 12:17.0 
-63200.0 1:16.0 2:32.0 3:5193.0 4:1217.0 5:45.0 6:52.0 7:3157.0 8:2616.0 9:40.0 10:15.0 11:68.0 12:5.0 
-63200.0 1:16.0 2:22.0 3:4441.0 4:249.0 5:9.0 6:63.0 7:30.0 8:574.0 9:1.0 10:33.0 11:5.0 12:123.0 
-63200.0 1:16.0 2:27.0 3:5154.0 4:531.0 5:53.0 6:31.0 7:1127.0 8:135.0 9:53.0 10:22.0 11:35.0 12:4.0 
-63200.0 1:16.0 2:22.0 3:2868.0 4:14.0 5:7.0 6:7.0 7:1.0 8:5.0 9:0.0 10:0.0 11:0.0 12:0.0 
-63200.0 1:16.0 2:37.0 3:5499.0 4:877.0 5:79.0 6:45.0 7:596.0 8:228.0 9:45.0 10:15.0 11:11.0 12:32.0 
-63200.0 1:16.0 2:27.0 3:5019.0 4:392.0 5:43.0 6:35.0 7:436.0 8:57.0 9:18.0 10:0.0 11:5.0 12:4.0 
-63200.0 1:16.0 2:27.0 3:2120.0 4:85.0 5:3.0 6:7.0 7:324.0 8:320.0 9:3.0 10:5.0 11:3.0 12:1.0 
-63200.0 1:16.0 2:22.0 3:3641.0 4:123.0 5:12.0 6:4.0 7:2.0 8:96.0 9:0.0 10:1.0 11:22.0 12:0.0 
-63200.0 1:16.0 2:37.0 3:3348.0 4:106.0 5:8.0 6:11.0 7:247.0 8:370.0 9:13.0 10:9.0 11:17.0 12:22.0 
-63200.0 1:16.0 2:37.0 3:4934.0 4:562.0 5:65.0 6:22.0 7:967.0 8:584.0 9:134.0 10:36.0 11:24.0 12:16.0 
-12751.64309046249 1:16.0 2:27.0 3:29.0 4:202.0 5:0.0 6:32.0 7:697.0 8:50.0 9:0.0 10:126.0 11:0.0 12:0.0 
-63200.0 1:16.0 2:22.0 3:3434.0 4:35.0 5:7.0 6:4.0 7:19.0 8:3.0 9:1.0 10:1.0 11:0.0 12:0.0 
-63200.0 1:16.0 2:22.0 3:3223.0 4:24.0 5:8.0 6:8.0 7:5.0 8:5.0 9:0.0 10:0.0 11:2.0 12:1.0 
-63200.0 1:16.0 2:22.0 3:2624.0 4:10.0 5:4.0 6:4.0 7:1.0 8:0.0 9:0.0 10:0.0 11:0.0 12:3.0 
-63200.0 1:16.0 2:22.0 3:4799.0 4:672.0 5:36.0 6:24.0 7:389.0 8:295.0 9:3.0 10:0.0 11:16.0 12:63.0 
-63200.0 1:16.0 2:27.0 3:3856.0 4:270.0 5:14.0 6:13.0 7:687.0 8:693.0 9:23.0 10:26.0 11:30.0 12:26.0 
-63200.0 1:16.0 2:37.0 3:3017.0 4:40.0 5:11.0 6:8.0 7:92.0 8:120.0 9:14.0 10:13.0 11:18.0 12:14.0 
-63200.0 1:16.0 2:22.0 3:3708.0 4:48.0 5:14.0 6:9.0 7:36.0 8:109.0 9:0.0 10:4.0 11:22.0 12:10.0 
-63200.0 1:16.0 2:32.0 3:4377.0 4:778.0 5:12.0 6:38.0 7:1430.0 8:187.0 9:12.0 10:87.0 11:13.0 12:11.0 
-63200.0 1:16.0 2:22.0 3:4165.0 4:237.0 5:12.0 6:18.0 7:286.0 8:62.0 9:8.0 10:14.0 11:4.0 12:8.0 
-63200.0 1:16.0 2:22.0 3:3582.0 4:39.0 5:14.0 6:10.0 7:0.0 8:27.0 9:3.0 10:7.0 11:3.0 12:0.0 
-2287.6882078324056 1:16.0 2:37.0 3:3523.0 4:4005.0 5:119.0 6:134.0 7:11065.0 8:2849.0 9:404.0 10:351.0 11:100.0 12:228.0 
-63200.0 1:16.0 2:37.0 3:4901.0 4:378.0 5:56.0 6:48.0 7:338.0 8:214.0 9:23.0 10:29.0 11:37.0 12:29.0 
-63200.0 1:16.0 2:32.0 3:4630.0 4:831.0 5:2.0 6:34.0 7:150.0 8:388.0 9:7.0 10:17.0 11:4.0 12:9.0 
-63200.0 1:16.0 2:22.0 3:2961.0 4:16.0 5:12.0 6:6.0 7:8.0 8:1.0 9:0.0 10:4.0 11:1.0 12:0.0 
-63200.0 1:16.0 2:22.0 3:2702.0 4:12.0 5:5.0 6:7.0 7:28.0 8:2.0 9:9.0 10:16.0 11:0.0 12:2.0 
-63200.0 1:16.0 2:27.0 3:5106.0 4:541.0 5:56.0 6:51.0 7:320.0 8:556.0 9:38.0 10:6.0 11:2.0 12:27.0 
-63200.0 1:16.0 2:37.0 3:4189.0 4:94.0 5:10.0 6:32.0 7:116.0 8:130.0 9:2.0 10:33.0 11:8.0 12:38.0 
-63200.0 1:16.0 2:22.0 3:3462.0 4:58.0 5:19.0 6:7.0 7:108.0 8:17.0 9:38.0 10:3.0 11:13.0 12:5.0 
-63200.0 1:16.0 2:27.0 3:3739.0 4:50.0 5:9.0 6:17.0 7:16.0 8:18.0 9:2.0 10:7.0 11:1.0 12:4.0 
-63200.0 1:16.0 2:27.0 3:3432.0 4:32.0 5:9.0 6:13.0 7:25.0 8:16.0 9:2.0 10:1.0 11:0.0 12:10.0 
-63200.0 1:16.0 2:37.0 3:4966.0 4:386.0 5:42.0 6:45.0 7:321.0 8:439.0 9:1.0 10:15.0 11:0.0 12:24.0 
-32992.09392944012 1:16.0 2:27.0 3:4677.0 4:2125.0 5:12.0 6:57.0 7:5053.0 8:1392.0 9:32.0 10:197.0 11:0.0 12:7.0 
-63200.0 1:16.0 2:32.0 3:4814.0 4:302.0 5:42.0 6:38.0 7:168.0 8:139.0 9:12.0 10:9.0 11:10.0 12:9.0 
-63200.0 1:16.0 2:22.0 3:2988.0 4:17.0 5:9.0 6:6.0 7:13.0 8:26.0 9:7.0 10:4.0 11:6.0 12:3.0 
-63200.0 1:16.0 2:37.0 3:4280.0 4:329.0 5:25.0 6:7.0 7:350.0 8:745.0 9:8.0 10:1.0 11:54.0 12:5.0 
-63200.0 1:16.0 2:27.0 3:4123.0 4:92.0 5:24.0 6:23.0 7:55.0 8:77.0 9:2.0 10:13.0 11:19.0 12:3.0 
-63200.0 1:16.0 2:22.0 3:2619.0 4:12.0 5:5.0 6:4.0 7:4.0 8:14.0 9:0.0 10:2.0 11:2.0 12:5.0 
-63200.0 1:16.0 2:37.0 3:4726.0 4:425.0 5:21.0 6:34.0 7:537.0 8:281.0 9:4.0 10:28.0 11:13.0 12:22.0 
-63200.0 1:16.0 2:22.0 3:2746.0 4:11.0 5:6.0 6:7.0 7:1.0 8:5.0 9:1.0 10:1.0 11:2.0 12:1.0 
-63200.0 1:16.0 2:22.0 3:3120.0 4:30.0 5:6.0 6:5.0 7:40.0 8:46.0 9:2.0 10:5.0 11:7.0 12:6.0 
-63200.0 1:16.0 2:22.0 3:2923.0 4:15.0 5:6.0 6:6.0 7:0.0 8:9.0 9:1.0 10:0.0 11:2.0 12:2.0 
-63200.0 1:16.0 2:27.0 3:4708.0 4:228.0 5:32.0 6:20.0 7:180.0 8:113.0 9:16.0 10:11.0 11:22.0 12:6.0 
-63200.0 1:16.0 2:32.0 3:4217.0 4:505.0 5:35.0 6:7.0 7:148.0 8:1180.0 9:0.0 10:1.0 11:85.0 12:0.0 
-63200.0 1:16.0 2:27.0 3:4379.0 4:181.0 5:44.0 6:30.0 7:43.0 8:127.0 9:2.0 10:7.0 11:14.0 12:10.0 
-63200.0 1:16.0 2:22.0 3:2995.0 4:21.0 5:6.0 6:5.0 7:35.0 8:31.0 9:0.0 10:2.0 11:1.0 12:3.0 
-63200.0 1:16.0 2:27.0 3:3888.0 4:74.0 5:14.0 6:14.0 7:14.0 8:130.0 9:7.0 10:11.0 11:4.0 12:9.0 
-63200.0 1:16.0 2:22.0 3:3225.0 4:38.0 5:7.0 6:9.0 7:70.0 8:71.0 9:3.0 10:2.0 11:5.0 12:7.0 
-22565.336334175034 1:16.0 2:22.0 3:745.0 4:811.0 5:17.0 6:56.0 7:2340.0 8:16.0 9:71.0 10:42.0 11:10.0 12:2.0 
-63200.0 1:16.0 2:22.0 3:4867.0 4:381.0 5:50.0 6:41.0 7:407.0 8:127.0 9:39.0 10:22.0 11:11.0 12:14.0 
-63200.0 1:16.0 2:37.0 3:4912.0 4:446.0 5:44.0 6:15.0 7:690.0 8:229.0 9:1.0 10:1.0 11:35.0 12:8.0 
-63200.0 1:16.0 2:27.0 3:3021.0 4:19.0 5:9.0 6:9.0 7:11.0 8:22.0 9:1.0 10:8.0 11:16.0 12:2.0 
-63200.0 1:16.0 2:22.0 3:2785.0 4:12.0 5:7.0 6:5.0 7:1.0 8:2.0 9:4.0 10:0.0 11:0.0 12:0.0 
-63200.0 1:16.0 2:27.0 3:3876.0 4:80.0 5:11.0 6:12.0 7:136.0 8:91.0 9:3.0 10:22.0 11:0.0 12:3.0 
-63200.0 1:16.0 2:22.0 3:4231.0 4:143.0 5:26.0 6:11.0 7:129.0 8:89.0 9:2.0 10:3.0 11:30.0 12:9.0 
-63200.0 1:16.0 2:32.0 3:4210.0 4:2035.0 5:78.0 6:95.0 7:2709.0 8:532.0 9:142.0 10:105.0 11:25.0 12:43.0 
-63200.0 1:16.0 2:32.0 3:4716.0 4:237.0 5:38.0 6:37.0 7:56.0 8:128.0 9:4.0 10:19.0 11:4.0 12:19.0 
-63200.0 1:16.0 2:32.0 3:4661.0 4:242.0 5:29.0 6:13.0 7:312.0 8:244.0 9:8.0 10:3.0 11:14.0 12:8.0 
-63200.0 1:16.0 2:27.0 3:2806.0 4:13.0 5:7.0 6:8.0 7:12.0 8:1.0 9:7.0 10:4.0 11:4.0 12:1.0 
-24335.21490555131 1:16.0 2:32.0 3:4412.0 4:134.0 5:15.0 6:17.0 7:70.0 8:14.0 9:11.0 10:5.0 11:5.0 12:10.0 
-63200.0 1:16.0 2:22.0 3:3295.0 4:25.0 5:11.0 6:12.0 7:6.0 8:14.0 9:4.0 10:5.0 11:0.0 12:5.0 
-48811.293759978056 1:16.0 2:27.0 3:3282.0 4:25.0 5:9.0 6:11.0 7:1.0 8:2.0 9:1.0 10:6.0 11:2.0 12:4.0 
-63200.0 1:16.0 2:27.0 3:4322.0 4:130.0 5:34.0 6:20.0 7:90.0 8:55.0 9:20.0 10:26.0 11:5.0 12:4.0 
-63200.0 1:16.0 2:22.0 3:2325.0 4:6.0 5:5.0 6:6.0 7:1.0 8:7.0 9:2.0 10:2.0 11:3.0 12:3.0 
-63200.0 1:16.0 2:22.0 3:2014.0 4:4.0 5:4.0 6:4.0 7:2.0 8:3.0 9:4.0 10:0.0 11:1.0 12:1.0 
-63200.0 1:16.0 2:27.0 3:3627.0 4:96.0 5:5.0 6:10.0 7:186.0 8:204.0 9:13.0 10:18.0 11:4.0 12:13.0 
-63200.0 1:16.0 2:22.0 3:3936.0 4:65.0 5:22.0 6:18.0 7:13.0 8:8.0 9:4.0 10:0.0 11:7.0 12:3.0 
-63200.0 1:16.0 2:32.0 3:3358.0 4:154.0 5:17.0 6:6.0 7:373.0 8:471.0 9:23.0 10:7.0 11:43.0 12:1.0 
-63200.0 1:16.0 2:22.0 3:4277.0 4:129.0 5:2.0 6:14.0 7:6.0 8:6.0 9:0.0 10:1.0 11:0.0 12:0.0 
-63200.0 1:16.0 2:27.0 3:4282.0 4:612.0 5:20.0 6:29.0 7:1342.0 8:1254.0 9:31.0 10:9.0 11:32.0 12:27.0 
-63200.0 1:16.0 2:37.0 3:3500.0 4:372.0 5:17.0 6:17.0 7:1238.0 8:1183.0 9:33.0 10:35.0 11:35.0 12:36.0 
-63200.0 1:16.0 2:27.0 3:4264.0 4:123.0 5:11.0 6:16.0 7:112.0 8:119.0 9:11.0 10:3.0 11:3.0 12:6.0 
-63200.0 1:16.0 2:32.0 3:4937.0 4:367.0 5:45.0 6:33.0 7:572.0 8:593.0 9:39.0 10:6.0 11:54.0 12:5.0 
-63200.0 1:16.0 2:37.0 3:4927.0 4:1228.0 5:49.0 6:5.0 7:225.0 8:1477.0 9:10.0 10:4.0 11:73.0 12:3.0 
-63200.0 1:16.0 2:32.0 3:4057.0 4:465.0 5:69.0 6:4.0 7:9.0 8:1794.0 9:1.0 10:0.0 11:227.0 12:3.0 
-2117.235460474405 1:16.0 2:27.0 3:1882.0 4:4535.0 5:116.0 6:131.0 7:8343.0 8:1803.0 9:263.0 10:257.0 11:131.0 12:162.0 
-63200.0 1:16.0 2:37.0 3:3037.0 4:1250.0 5:20.0 6:33.0 7:3716.0 8:2840.0 9:68.0 10:117.0 11:27.0 12:47.0 
-642.368258402149 1:16.0 2:27.0 3:2148.0 4:2471.0 5:27.0 6:44.0 7:8803.0 8:7339.0 9:98.0 10:165.0 11:20.0 12:114.0 
-63200.0 1:16.0 2:22.0 3:3378.0 4:39.0 5:7.0 6:9.0 7:70.0 8:68.0 9:4.0 10:9.0 11:5.0 12:2.0 
-63200.0 1:16.0 2:37.0 3:4149.0 4:283.0 5:34.0 6:4.0 7:0.0 8:535.0 9:7.0 10:3.0 11:99.0 12:2.0 
-63200.0 1:16.0 2:37.0 3:4890.0 4:349.0 5:37.0 6:25.0 7:186.0 8:18.0 9:20.0 10:10.0 11:36.0 12:18.0 
-25505.436178465487 1:16.0 2:37.0 3:1236.0 4:1335.0 5:45.0 6:0.0 7:385.0 8:790.0 9:8.0 10:2.0 11:23.0 12:2.0 
-63200.0 1:16.0 2:22.0 3:3594.0 4:40.0 5:10.0 6:17.0 7:29.0 8:2.0 9:3.0 10:10.0 11:0.0 12:12.0 
-59535.59117259401 1:16.0 2:27.0 3:1807.0 4:329.0 5:10.0 6:13.0 7:1277.0 8:144.0 9:31.0 10:46.0 11:1.0 12:1.0 
-2543.984069197887 1:16.0 2:32.0 3:1499.0 4:3626.0 5:93.0 6:72.0 7:11961.0 8:3420.0 9:375.0 10:288.0 11:17.0 12:80.0 
-2675.0905653223576 1:16.0 2:27.0 3:2371.0 4:5407.0 5:147.0 6:147.0 7:6847.0 8:1443.0 9:292.0 10:173.0 11:16.0 12:46.0 
-63200.0 1:16.0 2:27.0 3:3641.0 4:61.0 5:6.0 6:12.0 7:81.0 8:21.0 9:0.0 10:17.0 11:0.0 12:0.0 
-63200.0 1:16.0 2:32.0 3:5048.0 4:494.0 5:54.0 6:47.0 7:253.0 8:794.0 9:38.0 10:8.0 11:48.0 12:41.0 
-63200.0 1:16.0 2:37.0 3:5000.0 4:468.0 5:64.0 6:26.0 7:40.0 8:1073.0 9:42.0 10:57.0 11:168.0 12:19.0 
-63200.0 1:16.0 2:22.0 3:2605.0 4:10.0 5:7.0 6:6.0 7:9.0 8:0.0 9:1.0 10:2.0 11:1.0 12:0.0 
-63200.0 1:16.0 2:22.0 3:4153.0 4:179.0 5:10.0 6:15.0 7:100.0 8:102.0 9:1.0 10:10.0 11:0.0 12:1.0 
-63200.0 1:16.0 2:22.0 3:2867.0 4:33.0 5:5.0 6:10.0 7:1.0 8:7.0 9:3.0 10:3.0 11:1.0 12:9.0 
-63200.0 1:16.0 2:27.0 3:4371.0 4:149.0 5:12.0 6:24.0 7:130.0 8:351.0 9:15.0 10:1.0 11:5.0 12:46.0 
-63200.0 1:16.0 2:27.0 3:5045.0 4:376.0 5:46.0 6:8.0 7:87.0 8:169.0 9:1.0 10:1.0 11:32.0 12:2.0 
-63200.0 1:16.0 2:27.0 3:3827.0 4:58.0 5:20.0 6:18.0 7:41.0 8:2.0 9:11.0 10:1.0 11:10.0 12:0.0 
-63200.0 1:16.0 2:22.0 3:5364.0 4:774.0 5:59.0 6:42.0 7:46.0 8:30.0 9:6.0 10:15.0 11:8.0 12:5.0 
-63200.0 1:16.0 2:27.0 3:3300.0 4:1861.0 5:20.0 6:52.0 7:3336.0 8:779.0 9:53.0 10:148.0 11:4.0 12:5.0 
-63200.0 1:16.0 2:27.0 3:3950.0 4:64.0 5:15.0 6:11.0 7:142.0 8:48.0 9:6.0 10:9.0 11:15.0 12:2.0 
-2540.806957891541 1:16.0 2:22.0 3:695.0 4:1625.0 5:66.0 6:54.0 7:5513.0 8:3339.0 9:214.0 10:145.0 11:116.0 12:115.0 
-63200.0 1:16.0 2:32.0 3:4230.0 4:215.0 5:17.0 6:17.0 7:211.0 8:34.0 9:0.0 10:7.0 11:6.0 12:12.0 
-63200.0 1:16.0 2:22.0 3:2282.0 4:5.0 5:5.0 6:5.0 7:1.0 8:6.0 9:1.0 10:0.0 11:3.0 12:2.0 
-18457.285191370873 1:16.0 2:32.0 3:3588.0 4:1188.0 5:48.0 6:6.0 7:2558.0 8:4620.0 9:65.0 10:6.0 11:158.0 12:14.0 
-63200.0 1:16.0 2:22.0 3:3501.0 4:71.0 5:2.0 6:10.0 7:20.0 8:45.0 9:3.0 10:3.0 11:0.0 12:1.0 
-63200.0 1:16.0 2:32.0 3:4962.0 4:386.0 5:5.0 6:53.0 7:79.0 8:181.0 9:1.0 10:29.0 11:2.0 12:7.0 
-63200.0 1:16.0 2:22.0 3:2896.0 4:74.0 5:9.0 6:7.0 7:204.0 8:207.0 9:13.0 10:8.0 11:19.0 12:13.0 
-63200.0 1:16.0 2:22.0 3:3189.0 4:22.0 5:8.0 6:8.0 7:1.0 8:0.0 9:4.0 10:1.0 11:3.0 12:0.0 
-93.12069031712188 1:16.0 2:32.0 3:1874.0 4:4674.0 5:124.0 6:125.0 7:9893.0 8:5020.0 9:340.0 10:236.0 11:207.0 12:30.0 
-63200.0 1:16.0 2:22.0 3:2664.0 4:9.0 5:7.0 6:7.0 7:2.0 8:0.0 9:1.0 10:0.0 11:0.0 12:0.0 
-63200.0 1:16.0 2:27.0 3:4441.0 4:181.0 5:36.0 6:20.0 7:110.0 8:252.0 9:8.0 10:0.0 11:52.0 12:9.0 
-63200.0 1:16.0 2:32.0 3:3183.0 4:607.0 5:30.0 6:11.0 7:1336.0 8:1977.0 9:29.0 10:13.0 11:110.0 12:37.0 
-20914.905867301197 1:16.0 2:22.0 3:899.0 4:1.0 5:1.0 6:2.0 7:0.0 8:1.0 9:0.0 10:1.0 11:0.0 12:1.0 
-63200.0 1:16.0 2:32.0 3:2786.0 4:112.0 5:8.0 6:10.0 7:405.0 8:390.0 9:16.0 10:20.0 11:13.0 12:20.0 
-63200.0 1:16.0 2:22.0 3:4868.0 4:656.0 5:39.0 6:41.0 7:774.0 8:334.0 9:8.0 10:68.0 11:25.0 12:14.0 
-63200.0 1:16.0 2:22.0 3:2453.0 4:9.0 5:3.0 6:4.0 7:21.0 8:10.0 9:3.0 10:4.0 11:0.0 12:4.0 
-63200.0 1:16.0 2:37.0 3:4620.0 4:262.0 5:37.0 6:17.0 7:63.0 8:435.0 9:10.0 10:11.0 11:32.0 12:14.0 
-63200.0 1:16.0 2:27.0 3:4847.0 4:323.0 5:48.0 6:49.0 7:52.0 8:270.0 9:2.0 10:11.0 11:30.0 12:24.0 
-63200.0 1:16.0 2:27.0 3:3087.0 4:50.0 5:13.0 6:14.0 7:111.0 8:143.0 9:7.0 10:12.0 11:23.0 12:21.0 
-63200.0 1:16.0 2:22.0 3:3093.0 4:21.0 5:11.0 6:5.0 7:15.0 8:22.0 9:0.0 10:2.0 11:10.0 12:1.0 
-17513.30434144761 1:16.0 2:32.0 3:5215.0 4:2813.0 5:8.0 6:94.0 7:4942.0 8:604.0 9:2.0 10:121.0 11:0.0 12:4.0 
-63200.0 1:16.0 2:37.0 3:4545.0 4:284.0 5:13.0 6:17.0 7:52.0 8:518.0 9:13.0 10:38.0 11:1.0 12:22.0 
-63200.0 1:16.0 2:22.0 3:2675.0 4:10.0 5:5.0 6:4.0 7:6.0 8:5.0 9:1.0 10:2.0 11:0.0 12:2.0 
-63200.0 1:16.0 2:22.0 3:4602.0 4:416.0 5:26.0 6:9.0 7:422.0 8:670.0 9:10.0 10:3.0 11:72.0 12:7.0 
-63200.0 1:16.0 2:22.0 3:3802.0 4:110.0 5:14.0 6:7.0 7:178.0 8:217.0 9:12.0 10:1.0 11:23.0 12:6.0 
-63200.0 1:16.0 2:22.0 3:2715.0 4:11.0 5:6.0 6:7.0 7:3.0 8:3.0 9:0.0 10:0.0 11:2.0 12:1.0 
-63200.0 1:16.0 2:37.0 3:3357.0 4:78.0 5:9.0 6:9.0 7:256.0 8:185.0 9:15.0 10:22.0 11:10.0 12:3.0 
-63200.0 1:16.0 2:27.0 3:2874.0 4:14.0 5:6.0 6:13.0 7:16.0 8:22.0 9:3.0 10:10.0 11:4.0 12:16.0 
-63200.0 1:16.0 2:22.0 3:2727.0 4:11.0 5:7.0 6:7.0 7:2.0 8:2.0 9:1.0 10:0.0 11:0.0 12:0.0 
-63200.0 1:16.0 2:22.0 3:2703.0 4:11.0 5:6.0 6:6.0 7:3.0 8:0.0 9:0.0 10:0.0 11:1.0 12:1.0 
-63200.0 1:16.0 2:22.0 3:2867.0 4:14.0 5:7.0 6:8.0 7:7.0 8:11.0 9:2.0 10:0.0 11:0.0 12:4.0 
-63200.0 1:16.0 2:27.0 3:4054.0 4:162.0 5:9.0 6:16.0 7:286.0 8:203.0 9:10.0 10:28.0 11:3.0 12:0.0 
-6673.194508779362 1:16.0 2:37.0 3:3145.0 4:1425.0 5:43.0 6:11.0 7:4331.0 8:5120.0 9:83.0 10:6.0 11:157.0 12:32.0 
-63200.0 1:16.0 2:37.0 3:2993.0 4:224.0 5:11.0 6:12.0 7:781.0 8:772.0 9:23.0 10:30.0 11:26.0 12:30.0 
-63200.0 1:16.0 2:37.0 3:4074.0 4:97.0 5:21.0 6:16.0 7:123.0 8:4.0 9:20.0 10:5.0 11:16.0 12:9.0 
-4625.709462886871 1:16.0 2:37.0 3:5826.0 4:3389.0 5:116.0 6:77.0 7:3458.0 8:6511.0 9:100.0 10:10.0 11:191.0 12:119.0 
-63200.0 1:16.0 2:32.0 3:5085.0 4:1236.0 5:135.0 6:15.0 7:347.0 8:212.0 9:19.0 10:0.0 11:10.0 12:11.0 
-17415.85453571817 1:16.0 2:22.0 3:1541.0 4:1309.0 5:0.0 6:48.0 7:4044.0 8:100.0 9:1.0 10:192.0 11:0.0 12:1.0 
-63200.0 1:16.0 2:22.0 3:2970.0 4:16.0 5:7.0 6:6.0 7:6.0 8:11.0 9:2.0 10:0.0 11:1.0 12:0.0 
-63200.0 1:16.0 2:37.0 3:4099.0 4:1226.0 5:11.0 6:39.0 7:428.0 8:334.0 9:12.0 10:20.0 11:8.0 12:7.0 
-63200.0 1:16.0 2:27.0 3:4841.0 4:576.0 5:21.0 6:18.0 7:1437.0 8:1067.0 9:40.0 10:14.0 11:23.0 12:34.0 
-63200.0 1:16.0 2:27.0 3:4374.0 4:133.0 5:19.0 6:19.0 7:70.0 8:34.0 9:0.0 10:9.0 11:7.0 12:1.0 
-63200.0 1:16.0 2:37.0 3:5331.0 4:946.0 5:37.0 6:49.0 7:697.0 8:1795.0 9:1.0 10:59.0 11:12.0 12:13.0 
-63200.0 1:16.0 2:27.0 3:3887.0 4:79.0 5:13.0 6:17.0 7:159.0 8:105.0 9:12.0 10:13.0 11:7.0 12:9.0 
-63200.0 1:16.0 2:37.0 3:2677.0 4:48.0 5:8.0 6:6.0 7:145.0 8:168.0 9:16.0 10:10.0 11:21.0 12:15.0 
-63200.0 1:16.0 2:22.0 3:4366.0 4:133.0 5:26.0 6:11.0 7:94.0 8:118.0 9:3.0 10:6.0 11:2.0 12:1.0 
-63200.0 1:16.0 2:22.0 3:4282.0 4:114.0 5:31.0 6:13.0 7:105.0 8:123.0 9:27.0 10:0.0 11:21.0 12:2.0 
-63200.0 1:16.0 2:27.0 3:3535.0 4:44.0 5:16.0 6:14.0 7:37.0 8:45.0 9:8.0 10:2.0 11:7.0 12:1.0 
-63200.0 1:16.0 2:27.0 3:5124.0 4:574.0 5:38.0 6:101.0 7:289.0 8:73.0 9:6.0 10:13.0 11:0.0 12:39.0 
-46317.40772011222 1:16.0 2:37.0 3:4921.0 4:362.0 5:21.0 6:16.0 7:292.0 8:272.0 9:5.0 10:2.0 11:8.0 12:3.0 
-27854.42182337912 1:16.0 2:37.0 3:3908.0 4:95.0 5:15.0 6:12.0 7:94.0 8:143.0 9:9.0 10:15.0 11:16.0 12:18.0 
-63200.0 1:16.0 2:27.0 3:4565.0 4:274.0 5:19.0 6:16.0 7:195.0 8:196.0 9:4.0 10:4.0 11:21.0 12:5.0 
-63200.0 1:16.0 2:37.0 3:4891.0 4:343.0 5:44.0 6:20.0 7:495.0 8:619.0 9:55.0 10:5.0 11:45.0 12:5.0 
-63200.0 1:16.0 2:37.0 3:4203.0 4:156.0 5:14.0 6:20.0 7:17.0 8:118.0 9:4.0 10:41.0 11:34.0 12:3.0 
-63200.0 1:16.0 2:37.0 3:4918.0 4:304.0 5:28.0 6:28.0 7:441.0 8:61.0 9:15.0 10:0.0 11:3.0 12:20.0 
-30735.39088991301 1:16.0 2:37.0 3:4386.0 4:860.0 5:32.0 6:7.0 7:266.0 8:101.0 9:2.0 10:1.0 11:14.0 12:2.0 
-63200.0 1:16.0 2:27.0 3:4300.0 4:128.0 5:27.0 6:9.0 7:157.0 8:375.0 9:8.0 10:2.0 11:43.0 12:2.0 
-63200.0 1:16.0 2:22.0 3:3919.0 4:64.0 5:22.0 6:14.0 7:35.0 8:78.0 9:4.0 10:4.0 11:11.0 12:1.0 
-63200.0 1:16.0 2:22.0 3:4661.0 4:287.0 5:21.0 6:7.0 7:62.0 8:72.0 9:2.0 10:0.0 11:9.0 12:4.0 
-63200.0 1:16.0 2:32.0 3:4483.0 4:326.0 5:42.0 6:7.0 7:48.0 8:349.0 9:8.0 10:1.0 11:24.0 12:1.0 
-63200.0 1:16.0 2:27.0 3:3435.0 4:30.0 5:11.0 6:10.0 7:12.0 8:17.0 9:3.0 10:1.0 11:2.0 12:4.0 
-63200.0 1:16.0 2:32.0 3:4000.0 4:579.0 5:9.0 6:25.0 7:547.0 8:399.0 9:15.0 10:42.0 11:2.0 12:2.0 
-63200.0 1:16.0 2:22.0 3:3366.0 4:29.0 5:8.0 6:8.0 7:30.0 8:22.0 9:2.0 10:3.0 11:8.0 12:2.0 
-63200.0 1:16.0 2:37.0 3:4279.0 4:792.0 5:32.0 6:15.0 7:105.0 8:926.0 9:5.0 10:6.0 11:65.0 12:17.0 
-63200.0 1:16.0 2:27.0 3:4434.0 4:382.0 5:22.0 6:20.0 7:830.0 8:639.0 9:19.0 10:32.0 11:15.0 12:18.0 
-63200.0 1:16.0 2:27.0 3:3150.0 4:21.0 5:9.0 6:10.0 7:1.0 8:22.0 9:1.0 10:5.0 11:3.0 12:3.0 
-63200.0 1:16.0 2:32.0 3:3506.0 4:1369.0 5:64.0 6:59.0 7:1115.0 8:768.0 9:83.0 10:40.0 11:39.0 12:43.0 
-63200.0 1:16.0 2:22.0 3:2623.0 4:10.0 5:4.0 6:3.0 7:11.0 8:0.0 9:2.0 10:4.0 11:0.0 12:0.0 
-63200.0 1:16.0 2:27.0 3:4417.0 4:187.0 5:9.0 6:20.0 7:155.0 8:159.0 9:6.0 10:30.0 11:2.0 12:1.0 
-63200.0 1:16.0 2:27.0 3:4668.0 4:321.0 5:46.0 6:34.0 7:469.0 8:352.0 9:13.0 10:13.0 11:24.0 12:4.0 
-14862.597124737062 1:16.0 2:32.0 3:4703.0 4:1438.0 5:61.0 6:34.0 7:4467.0 8:4456.0 9:68.0 10:39.0 11:78.0 12:48.0 
-63200.0 1:16.0 2:37.0 3:4319.0 4:175.0 5:23.0 6:17.0 7:359.0 8:201.0 9:3.0 10:29.0 11:5.0 12:10.0 
-63200.0 1:16.0 2:22.0 3:2767.0 4:75.0 5:36.0 6:0.0 7:3.0 8:26.0 9:1.0 10:0.0 11:16.0 12:0.0 
-63200.0 1:16.0 2:32.0 3:5088.0 4:472.0 5:54.0 6:54.0 7:19.0 8:112.0 9:11.0 10:7.0 11:11.0 12:9.0 
-63200.0 1:16.0 2:22.0 3:3523.0 4:44.0 5:5.0 6:8.0 7:41.0 8:59.0 9:2.0 10:5.0 11:0.0 12:3.0 
-63200.0 1:16.0 2:27.0 3:4277.0 4:928.0 5:8.0 6:33.0 7:1293.0 8:251.0 9:1.0 10:98.0 11:1.0 12:3.0 
-63200.0 1:16.0 2:27.0 3:4191.0 4:106.0 5:16.0 6:13.0 7:176.0 8:58.0 9:9.0 10:26.0 11:7.0 12:0.0 
-63200.0 1:16.0 2:37.0 3:3559.0 4:70.0 5:15.0 6:19.0 7:33.0 8:143.0 9:11.0 10:12.0 11:27.0 12:19.0 
-63200.0 1:16.0 2:22.0 3:3259.0 4:33.0 5:3.0 6:7.0 7:34.0 8:10.0 9:0.0 10:11.0 11:1.0 12:1.0 
-63200.0 1:16.0 2:27.0 3:4757.0 4:259.0 5:23.0 6:32.0 7:184.0 8:174.0 9:11.0 10:32.0 11:17.0 12:1.0 
-63200.0 1:16.0 2:22.0 3:3496.0 4:36.0 5:18.0 6:13.0 7:8.0 8:22.0 9:7.0 10:4.0 11:7.0 12:1.0 
-63200.0 1:16.0 2:22.0 3:3778.0 4:54.0 5:9.0 6:8.0 7:18.0 8:8.0 9:1.0 10:0.0 11:5.0 12:2.0 
-63200.0 1:16.0 2:32.0 3:4143.0 4:693.0 5:34.0 6:13.0 7:788.0 8:1879.0 9:9.0 10:1.0 11:108.0 12:30.0 
-63200.0 1:16.0 2:32.0 3:4388.0 4:151.0 5:9.0 6:13.0 7:134.0 8:245.0 9:3.0 10:33.0 11:5.0 12:13.0 
-63200.0 1:16.0 2:22.0 3:2907.0 4:16.0 5:10.0 6:9.0 7:14.0 8:8.0 9:8.0 10:5.0 11:5.0 12:1.0 
-63200.0 1:16.0 2:22.0 3:2769.0 4:12.0 5:5.0 6:3.0 7:1.0 8:9.0 9:2.0 10:0.0 11:3.0 12:1.0 
-63200.0 1:16.0 2:22.0 3:4784.0 4:407.0 5:31.0 6:32.0 7:235.0 8:404.0 9:15.0 10:22.0 11:2.0 12:20.0 
-32814.29608926317 1:16.0 2:27.0 3:192.0 4:566.0 5:11.0 6:38.0 7:1414.0 8:1810.0 9:44.0 10:32.0 11:44.0 12:60.0 
-63200.0 1:16.0 2:27.0 3:1405.0 4:666.0 5:0.0 6:83.0 7:241.0 8:0.0 9:0.0 10:47.0 11:0.0 12:0.0 
-63200.0 1:16.0 2:27.0 3:4333.0 4:164.0 5:10.0 6:52.0 7:224.0 8:3.0 9:11.0 10:46.0 11:5.0 12:8.0 
-63200.0 1:16.0 2:22.0 3:3409.0 4:37.0 5:5.0 6:15.0 7:40.0 8:7.0 9:1.0 10:31.0 11:0.0 12:2.0 
-13341.617968473021 1:16.0 2:22.0 3:1091.0 4:1697.0 5:0.0 6:124.0 7:2916.0 8:0.0 9:0.0 10:84.0 11:0.0 12:0.0 
-63200.0 1:16.0 2:22.0 3:4060.0 4:84.0 5:9.0 6:7.0 7:17.0 8:7.0 9:0.0 10:2.0 11:1.0 12:0.0 
-63200.0 1:16.0 2:32.0 3:2569.0 4:225.0 5:14.0 6:8.0 7:790.0 8:783.0 9:36.0 10:16.0 11:40.0 12:19.0 
-63200.0 1:16.0 2:27.0 3:4073.0 4:590.0 5:26.0 6:19.0 7:1464.0 8:1716.0 9:31.0 10:21.0 11:60.0 12:39.0 
-63200.0 1:16.0 2:32.0 3:2738.0 4:43.0 5:9.0 6:9.0 7:133.0 8:131.0 9:11.0 10:16.0 11:8.0 12:16.0 
-63200.0 1:16.0 2:32.0 3:3884.0 4:80.0 5:9.0 6:12.0 7:133.0 8:1.0 9:10.0 10:22.0 11:1.0 12:8.0 
-63200.0 1:16.0 2:22.0 3:3896.0 4:400.0 5:14.0 6:24.0 7:1181.0 8:785.0 9:32.0 10:59.0 11:13.0 12:24.0 
-63200.0 1:16.0 2:37.0 3:4483.0 4:197.0 5:5.0 6:42.0 7:533.0 8:43.0 9:0.0 10:73.0 11:2.0 12:6.0 
-8985.70713862991 1:16.0 2:32.0 3:3883.0 4:2624.0 5:93.0 6:53.0 7:6335.0 8:1737.0 9:195.0 10:45.0 11:38.0 12:30.0 
-63200.0 1:16.0 2:37.0 3:3643.0 4:128.0 5:11.0 6:18.0 7:388.0 8:268.0 9:15.0 10:32.0 11:4.0 12:23.0 
-63200.0 1:16.0 2:22.0 3:2224.0 4:5.0 5:4.0 6:5.0 7:0.0 8:3.0 9:1.0 10:0.0 11:2.0 12:0.0 
-37686.75987948493 1:16.0 2:32.0 3:4044.0 4:1518.0 5:83.0 6:87.0 7:1785.0 8:520.0 9:21.0 10:106.0 11:1.0 12:141.0 
-63200.0 1:16.0 2:22.0 3:2794.0 4:12.0 5:6.0 6:6.0 7:2.0 8:2.0 9:4.0 10:0.0 11:3.0 12:0.0 
-63200.0 1:16.0 2:22.0 3:2647.0 4:10.0 5:6.0 6:6.0 7:2.0 8:4.0 9:0.0 10:0.0 11:2.0 12:1.0 
-63200.0 1:16.0 2:37.0 3:4439.0 4:186.0 5:22.0 6:16.0 7:69.0 8:337.0 9:19.0 10:25.0 11:42.0 12:19.0 
-63200.0 1:16.0 2:22.0 3:2631.0 4:10.0 5:4.0 6:5.0 7:8.0 8:10.0 9:0.0 10:1.0 11:1.0 12:2.0 
-63200.0 1:16.0 2:27.0 3:3160.0 4:21.0 5:15.0 6:10.0 7:22.0 8:6.0 9:9.0 10:1.0 11:9.0 12:2.0 
-63200.0 1:16.0 2:27.0 3:1590.0 4:1123.0 5:38.0 6:34.0 7:2940.0 8:980.0 9:96.0 10:58.0 11:40.0 12:39.0 
-63200.0 1:16.0 2:27.0 3:3900.0 4:64.0 5:13.0 6:11.0 7:78.0 8:8.0 9:4.0 10:4.0 11:3.0 12:6.0 
-63200.0 1:16.0 2:32.0 3:4283.0 4:115.0 5:15.0 6:16.0 7:261.0 8:9.0 9:18.0 10:12.0 11:9.0 12:1.0 
-63200.0 1:16.0 2:22.0 3:3971.0 4:105.0 5:7.0 6:13.0 7:110.0 8:1.0 9:1.0 10:21.0 11:1.0 12:0.0 
-63200.0 1:16.0 2:32.0 3:4609.0 4:192.0 5:21.0 6:25.0 7:147.0 8:413.0 9:0.0 10:10.0 11:1.0 12:16.0 
-63200.0 1:16.0 2:27.0 3:4446.0 4:720.0 5:25.0 6:24.0 7:2008.0 8:1873.0 9:34.0 10:47.0 11:44.0 12:44.0 
-63200.0 1:16.0 2:22.0 3:3872.0 4:62.0 5:15.0 6:25.0 7:48.0 8:24.0 9:11.0 10:2.0 11:6.0 12:1.0 
-63200.0 1:16.0 2:22.0 3:3140.0 4:20.0 5:7.0 6:6.0 7:0.0 8:12.0 9:1.0 10:2.0 11:1.0 12:0.0 
-63200.0 1:16.0 2:27.0 3:4100.0 4:88.0 5:21.0 6:21.0 7:8.0 8:50.0 9:9.0 10:11.0 11:8.0 12:3.0 
-63200.0 1:16.0 2:22.0 3:2478.0 4:13.0 5:4.0 6:2.0 7:1.0 8:8.0 9:0.0 10:1.0 11:7.0 12:1.0 
-63200.0 1:16.0 2:22.0 3:4429.0 4:145.0 5:54.0 6:20.0 7:32.0 8:35.0 9:14.0 10:0.0 11:13.0 12:3.0 
-63200.0 1:16.0 2:32.0 3:2862.0 4:61.0 5:7.0 6:10.0 7:224.0 8:184.0 9:15.0 10:24.0 11:13.0 12:21.0 
-63200.0 1:16.0 2:22.0 3:3951.0 4:79.0 5:7.0 6:14.0 7:52.0 8:65.0 9:3.0 10:7.0 11:1.0 12:2.0 
-63200.0 1:16.0 2:27.0 3:3906.0 4:603.0 5:13.0 6:28.0 7:1574.0 8:1076.0 9:35.0 10:90.0 11:6.0 12:16.0 
-2084.4437018079407 1:16.0 2:37.0 3:4798.0 4:5893.0 5:129.0 6:9.0 7:186.0 8:201.0 9:9.0 10:7.0 11:105.0 12:7.0 
-63200.0 1:16.0 2:32.0 3:3339.0 4:1388.0 5:41.0 6:65.0 7:394.0 8:3395.0 9:7.0 10:29.0 11:63.0 12:133.0 
-63200.0 1:16.0 2:22.0 3:2516.0 4:9.0 5:5.0 6:6.0 7:4.0 8:1.0 9:2.0 10:1.0 11:1.0 12:1.0 
-63200.0 1:16.0 2:27.0 3:3585.0 4:43.0 5:9.0 6:12.0 7:12.0 8:36.0 9:6.0 10:3.0 11:0.0 12:9.0 
-285.82698466515086 1:16.0 2:37.0 3:3116.0 4:1447.0 5:43.0 6:58.0 7:3175.0 8:4775.0 9:96.0 10:96.0 11:77.0 12:174.0 
-56894.171767536674 1:16.0 2:32.0 3:4793.0 4:287.0 5:43.0 6:37.0 7:39.0 8:107.0 9:2.0 10:8.0 11:6.0 12:0.0 
-63200.0 1:16.0 2:37.0 3:5104.0 4:608.0 5:31.0 6:32.0 7:833.0 8:372.0 9:29.0 10:44.0 11:38.0 12:8.0 
-63200.0 1:16.0 2:22.0 3:4324.0 4:118.0 5:23.0 6:35.0 7:24.0 8:35.0 9:8.0 10:14.0 11:6.0 12:2.0 
-63200.0 1:16.0 2:27.0 3:3070.0 4:19.0 5:5.0 6:8.0 7:8.0 8:11.0 9:3.0 10:2.0 11:6.0 12:5.0 
-63200.0 1:16.0 2:22.0 3:2531.0 4:8.0 5:5.0 6:5.0 7:0.0 8:2.0 9:0.0 10:1.0 11:2.0 12:2.0 
-63200.0 1:16.0 2:27.0 3:3317.0 4:30.0 5:8.0 6:8.0 7:5.0 8:52.0 9:5.0 10:13.0 11:3.0 12:12.0 
-63200.0 1:16.0 2:37.0 3:4287.0 4:134.0 5:18.0 6:29.0 7:255.0 8:74.0 9:26.0 10:34.0 11:8.0 12:8.0 
-646.7572289574491 1:16.0 2:32.0 3:2090.0 4:6143.0 5:139.0 6:178.0 7:4449.0 8:1318.0 9:235.0 10:155.0 11:56.0 12:83.0 
-63200.0 1:16.0 2:32.0 3:4722.0 4:317.0 5:34.0 6:16.0 7:144.0 8:326.0 9:4.0 10:11.0 11:39.0 12:14.0 
-63200.0 1:16.0 2:22.0 3:4710.0 4:250.0 5:40.0 6:40.0 7:128.0 8:68.0 9:21.0 10:16.0 11:11.0 12:4.0 
-63200.0 1:16.0 2:32.0 3:3794.0 4:112.0 5:29.0 6:4.0 7:42.0 8:400.0 9:2.0 10:6.0 11:92.0 12:5.0 
-63200.0 1:16.0 2:32.0 3:4892.0 4:588.0 5:27.0 6:28.0 7:714.0 8:15.0 9:26.0 10:88.0 11:41.0 12:5.0 
-63200.0 1:16.0 2:22.0 3:2875.0 4:699.0 5:0.0 6:47.0 7:1090.0 8:0.0 9:0.0 10:35.0 11:0.0 12:0.0 
-63200.0 1:16.0 2:27.0 3:3325.0 4:32.0 5:7.0 6:8.0 7:0.0 8:20.0 9:4.0 10:5.0 11:1.0 12:7.0 
-63200.0 1:16.0 2:37.0 3:3654.0 4:221.0 5:11.0 6:26.0 7:113.0 8:49.0 9:10.0 10:38.0 11:6.0 12:14.0 
-63200.0 1:16.0 2:22.0 3:2315.0 4:6.0 5:4.0 6:5.0 7:3.0 8:0.0 9:1.0 10:2.0 11:2.0 12:0.0 
-63200.0 1:16.0 2:22.0 3:2725.0 4:11.0 5:6.0 6:6.0 7:7.0 8:1.0 9:4.0 10:1.0 11:1.0 12:1.0 
-16036.601193231882 1:16.0 2:32.0 3:2257.0 4:1168.0 5:1.0 6:90.0 7:4153.0 8:24.0 9:5.0 10:306.0 11:0.0 12:0.0 
-63200.0 1:16.0 2:32.0 3:5772.0 4:1925.0 5:117.0 6:95.0 7:1262.0 8:186.0 9:74.0 10:0.0 11:5.0 12:68.0 
-2586.3808650324877 1:16.0 2:27.0 3:3181.0 4:2329.0 5:111.0 6:64.0 7:264.0 8:851.0 9:204.0 10:42.0 11:84.0 12:53.0 
-10076.680087629215 1:16.0 2:32.0 3:331.0 4:90.0 5:0.0 6:22.0 7:357.0 8:0.0 9:0.0 10:45.0 11:0.0 12:0.0 
-63200.0 1:16.0 2:32.0 3:5645.0 4:1538.0 5:47.0 6:14.0 7:311.0 8:400.0 9:8.0 10:21.0 11:14.0 12:9.0 
-63200.0 1:16.0 2:32.0 3:5381.0 4:873.0 5:68.0 6:78.0 7:57.0 8:164.0 9:9.0 10:28.0 11:56.0 12:38.0 
-63200.0 1:16.0 2:27.0 3:4926.0 4:376.0 5:25.0 6:8.0 7:227.0 8:37.0 9:3.0 10:2.0 11:12.0 12:3.0 
-54807.51076643151 1:16.0 2:32.0 3:5203.0 4:584.0 5:56.0 6:64.0 7:160.0 8:9.0 9:14.0 10:2.0 11:5.0 12:1.0 
-63200.0 1:16.0 2:27.0 3:2793.0 4:47.0 5:2.0 6:13.0 7:157.0 8:5.0 9:0.0 10:41.0 11:1.0 12:2.0 
-63200.0 1:16.0 2:22.0 3:3273.0 4:24.0 5:12.0 6:10.0 7:9.0 8:7.0 9:0.0 10:4.0 11:0.0 12:5.0 
-63200.0 1:16.0 2:27.0 3:3930.0 4:99.0 5:11.0 6:10.0 7:129.0 8:79.0 9:8.0 10:7.0 11:9.0 12:6.0 
-63200.0 1:16.0 2:37.0 3:4300.0 4:291.0 5:21.0 6:12.0 7:47.0 8:364.0 9:3.0 10:5.0 11:34.0 12:24.0 
-63200.0 1:16.0 2:22.0 3:3423.0 4:76.0 5:36.0 6:1.0 7:4.0 8:20.0 9:0.0 10:0.0 11:2.0 12:0.0 
-63200.0 1:16.0 2:22.0 3:5273.0 4:724.0 5:55.0 6:69.0 7:1049.0 8:476.0 9:5.0 10:43.0 11:19.0 12:2.0 
-63200.0 1:16.0 2:22.0 3:3938.0 4:502.0 5:17.0 6:24.0 7:1498.0 8:1566.0 9:30.0 10:67.0 11:23.0 12:43.0 
-63200.0 1:16.0 2:22.0 3:2773.0 4:11.0 5:5.0 6:7.0 7:4.0 8:0.0 9:2.0 10:2.0 11:1.0 12:0.0 
-63200.0 1:16.0 2:27.0 3:662.0 4:89.0 5:0.0 6:8.0 7:332.0 8:0.0 9:0.0 10:34.0 11:0.0 12:0.0 
-63200.0 1:16.0 2:22.0 3:2738.0 4:11.0 5:7.0 6:7.0 7:5.0 8:0.0 9:0.0 10:1.0 11:2.0 12:1.0 
-63200.0 1:16.0 2:27.0 3:5031.0 4:561.0 5:14.0 6:38.0 7:994.0 8:514.0 9:13.0 10:67.0 11:5.0 12:33.0 
-63200.0 1:16.0 2:37.0 3:4858.0 4:1588.0 5:46.0 6:30.0 7:3728.0 8:4138.0 9:45.0 10:26.0 11:107.0 12:53.0 
-63200.0 1:16.0 2:22.0 3:5222.0 4:695.0 5:60.0 6:41.0 7:330.0 8:546.0 9:14.0 10:16.0 11:40.0 12:18.0 
-63200.0 1:16.0 2:37.0 3:2828.0 4:487.0 5:15.0 6:9.0 7:1873.0 8:1866.0 9:35.0 10:5.0 11:26.0 12:5.0 
-63200.0 1:16.0 2:27.0 3:5020.0 4:377.0 5:45.0 6:39.0 7:419.0 8:167.0 9:20.0 10:1.0 11:35.0 12:11.0 
-63200.0 1:16.0 2:22.0 3:2312.0 4:7.0 5:7.0 6:5.0 7:5.0 8:1.0 9:7.0 10:1.0 11:1.0 12:1.0 
-63200.0 1:16.0 2:22.0 3:2644.0 4:10.0 5:4.0 6:5.0 7:0.0 8:2.0 9:0.0 10:2.0 11:0.0 12:0.0 
-63200.0 1:16.0 2:32.0 3:4786.0 4:388.0 5:31.0 6:23.0 7:639.0 8:300.0 9:1.0 10:5.0 11:23.0 12:9.0 
-63200.0 1:16.0 2:37.0 3:5174.0 4:951.0 5:55.0 6:15.0 7:48.0 8:296.0 9:17.0 10:5.0 11:36.0 12:1.0 
-63200.0 1:16.0 2:27.0 3:1046.0 4:13.0 5:9.0 6:0.0 7:0.0 8:49.0 9:0.0 10:0.0 11:33.0 12:0.0 
-63200.0 1:16.0 2:32.0 3:4850.0 4:323.0 5:62.0 6:39.0 7:252.0 8:228.0 9:10.0 10:22.0 11:71.0 12:17.0 
-63200.0 1:16.0 2:22.0 3:3806.0 4:100.0 5:12.0 6:3.0 7:2.0 8:82.0 9:1.0 10:1.0 11:19.0 12:0.0 
-63200.0 1:16.0 2:37.0 3:3943.0 4:192.0 5:22.0 6:11.0 7:403.0 8:533.0 9:17.0 10:3.0 11:50.0 12:5.0 
-63200.0 1:16.0 2:22.0 3:3486.0 4:38.0 5:9.0 6:10.0 7:70.0 8:55.0 9:4.0 10:9.0 11:12.0 12:9.0 
-63200.0 1:16.0 2:27.0 3:2341.0 4:143.0 5:12.0 6:19.0 7:389.0 8:352.0 9:35.0 10:57.0 11:23.0 12:46.0 
-63200.0 1:16.0 2:22.0 3:3219.0 4:23.0 5:7.0 6:7.0 7:16.0 8:17.0 9:3.0 10:0.0 11:1.0 12:1.0 
-63200.0 1:16.0 2:22.0 3:4889.0 4:412.0 5:7.0 6:24.0 7:117.0 8:81.0 9:1.0 10:13.0 11:4.0 12:2.0 
-63200.0 1:16.0 2:27.0 3:3413.0 4:296.0 5:50.0 6:1.0 7:19.0 8:266.0 9:0.0 10:0.0 11:28.0 12:0.0 
-63200.0 1:16.0 2:27.0 3:3568.0 4:48.0 5:4.0 6:10.0 7:28.0 8:61.0 9:3.0 10:3.0 11:5.0 12:9.0 
-5785.630496860626 1:16.0 2:22.0 3:3117.0 4:1412.0 5:48.0 6:39.0 7:5079.0 8:2418.0 9:183.0 10:149.0 11:61.0 12:7.0 
-63200.0 1:16.0 2:22.0 3:4327.0 4:166.0 5:17.0 6:5.0 7:4.0 8:123.0 9:1.0 10:0.0 11:20.0 12:1.0 
-63200.0 1:16.0 2:22.0 3:3945.0 4:78.0 5:8.0 6:13.0 7:40.0 8:20.0 9:13.0 10:17.0 11:8.0 12:2.0 
-63200.0 1:16.0 2:37.0 3:5039.0 4:439.0 5:22.0 6:26.0 7:23.0 8:28.0 9:18.0 10:23.0 11:25.0 12:12.0 
-63200.0 1:16.0 2:37.0 3:4558.0 4:642.0 5:6.0 6:32.0 7:1216.0 8:37.0 9:4.0 10:96.0 11:1.0 12:2.0 
-63200.0 1:16.0 2:22.0 3:5046.0 4:454.0 5:47.0 6:66.0 7:111.0 8:223.0 9:23.0 10:23.0 11:7.0 12:32.0 
-63200.0 1:16.0 2:37.0 3:3842.0 4:112.0 5:12.0 6:11.0 7:219.0 8:372.0 9:10.0 10:16.0 11:17.0 12:16.0 
-63200.0 1:16.0 2:37.0 3:4019.0 4:224.0 5:16.0 6:13.0 7:508.0 8:697.0 9:38.0 10:3.0 11:21.0 12:17.0 
-1321.0694150750858 1:16.0 2:27.0 3:2686.0 4:1380.0 5:36.0 6:53.0 7:4658.0 8:3267.0 9:137.0 10:206.0 11:33.0 12:127.0 
-63200.0 1:16.0 2:22.0 3:3252.0 4:31.0 5:5.0 6:5.0 7:18.0 8:40.0 9:2.0 10:0.0 11:5.0 12:1.0 
-63200.0 1:16.0 2:32.0 3:3510.0 4:436.0 5:17.0 6:29.0 7:1539.0 8:1473.0 9:41.0 10:77.0 11:14.0 12:73.0 
-63200.0 1:16.0 2:37.0 3:4983.0 4:601.0 5:28.0 6:27.0 7:109.0 8:888.0 9:4.0 10:4.0 11:0.0 12:12.0 
-63200.0 1:16.0 2:27.0 3:4084.0 4:98.0 5:15.0 6:7.0 7:80.0 8:14.0 9:7.0 10:0.0 11:3.0 12:4.0 
-63200.0 1:16.0 2:22.0 3:3842.0 4:69.0 5:14.0 6:15.0 7:38.0 8:89.0 9:1.0 10:4.0 11:11.0 12:1.0 
-63200.0 1:16.0 2:27.0 3:5117.0 4:529.0 5:41.0 6:22.0 7:45.0 8:345.0 9:27.0 10:13.0 11:3.0 12:6.0 
-63200.0 1:16.0 2:32.0 3:3475.0 4:42.0 5:11.0 6:14.0 7:81.0 8:68.0 9:5.0 10:13.0 11:12.0 12:8.0 
-369.317318309206 1:16.0 2:32.0 3:1788.0 4:231.0 5:32.0 6:2.0 7:9.0 8:895.0 9:0.0 10:7.0 11:128.0 12:1.0 
-63200.0 1:16.0 2:37.0 3:4738.0 4:364.0 5:11.0 6:22.0 7:251.0 8:623.0 9:10.0 10:20.0 11:7.0 12:21.0 
-63200.0 1:16.0 2:22.0 3:2620.0 4:10.0 5:6.0 6:7.0 7:5.0 8:1.0 9:0.0 10:3.0 11:1.0 12:0.0 
-63200.0 1:16.0 2:27.0 3:4345.0 4:455.0 5:24.0 6:10.0 7:197.0 8:0.0 9:2.0 10:5.0 11:7.0 12:5.0 
-63200.0 1:16.0 2:27.0 3:1184.0 4:1322.0 5:13.0 6:75.0 7:3390.0 8:1150.0 9:55.0 10:44.0 11:14.0 12:35.0 
-387.3274142431681 1:16.0 2:32.0 3:1872.0 4:5894.0 5:129.0 6:114.0 7:15183.0 8:2460.0 9:491.0 10:319.0 11:55.0 12:60.0 
-63200.0 1:16.0 2:37.0 3:4745.0 4:248.0 5:25.0 6:35.0 7:304.0 8:7.0 9:16.0 10:15.0 11:13.0 12:5.0 
-63200.0 1:16.0 2:22.0 3:3482.0 4:48.0 5:8.0 6:12.0 7:107.0 8:59.0 9:0.0 10:16.0 11:8.0 12:7.0 
-63200.0 1:16.0 2:32.0 3:5209.0 4:543.0 5:57.0 6:41.0 7:155.0 8:197.0 9:18.0 10:30.0 11:27.0 12:25.0 
-63200.0 1:16.0 2:37.0 3:5553.0 4:1697.0 5:42.0 6:33.0 7:722.0 8:1067.0 9:14.0 10:49.0 11:12.0 12:46.0 
-63200.0 1:16.0 2:32.0 3:5016.0 4:439.0 5:45.0 6:53.0 7:380.0 8:112.0 9:25.0 10:17.0 11:15.0 12:31.0 
-63200.0 1:16.0 2:22.0 3:3354.0 4:31.0 5:9.0 6:7.0 7:47.0 8:54.0 9:2.0 10:5.0 11:1.0 12:3.0 
-63200.0 1:16.0 2:22.0 3:2033.0 4:4.0 5:3.0 6:3.0 7:4.0 8:4.0 9:4.0 10:4.0 11:2.0 12:2.0 
-63200.0 1:16.0 2:22.0 3:4054.0 4:89.0 5:23.0 6:18.0 7:24.0 8:84.0 9:2.0 10:3.0 11:10.0 12:9.0 
-258.70015811244645 1:16.0 2:27.0 3:1946.0 4:4385.0 5:116.0 6:130.0 7:3909.0 8:4983.0 9:185.0 10:137.0 11:11.0 12:154.0 
-63200.0 1:16.0 2:22.0 3:2685.0 4:10.0 5:6.0 6:7.0 7:1.0 8:2.0 9:0.0 10:0.0 11:1.0 12:1.0 
-63200.0 1:16.0 2:37.0 3:3940.0 4:116.0 5:19.0 6:14.0 7:234.0 8:200.0 9:31.0 10:19.0 11:21.0 12:13.0 
-63200.0 1:16.0 2:37.0 3:4221.0 4:214.0 5:16.0 6:11.0 7:694.0 8:466.0 9:26.0 10:8.0 11:32.0 12:15.0 
-63200.0 1:16.0 2:37.0 3:4542.0 4:184.0 5:16.0 6:20.0 7:269.0 8:88.0 9:11.0 10:10.0 11:26.0 12:11.0 
-63200.0 1:16.0 2:22.0 3:2113.0 4:9.0 5:5.0 6:3.0 7:19.0 8:28.0 9:5.0 10:5.0 11:2.0 12:4.0 
-63200.0 1:16.0 2:22.0 3:3570.0 4:2682.0 5:72.0 6:95.0 7:2006.0 8:3031.0 9:27.0 10:74.0 11:8.0 12:43.0 
-63200.0 1:16.0 2:22.0 3:4943.0 4:381.0 5:47.0 6:47.0 7:362.0 8:81.0 9:14.0 10:9.0 11:4.0 12:11.0 
-63200.0 1:16.0 2:27.0 3:4970.0 4:382.0 5:8.0 6:24.0 7:61.0 8:261.0 9:13.0 10:19.0 11:0.0 12:4.0 
-63200.0 1:16.0 2:32.0 3:4400.0 4:184.0 5:19.0 6:38.0 7:271.0 8:242.0 9:8.0 10:40.0 11:6.0 12:29.0 
-63200.0 1:16.0 2:27.0 3:4745.0 4:785.0 5:38.0 6:18.0 7:1369.0 8:2360.0 9:47.0 10:8.0 11:97.0 12:39.0 
-63200.0 1:16.0 2:22.0 3:3187.0 4:22.0 5:18.0 6:6.0 7:16.0 8:16.0 9:6.0 10:2.0 11:8.0 12:3.0 
-63200.0 1:16.0 2:22.0 3:4398.0 4:165.0 5:22.0 6:41.0 7:115.0 8:229.0 9:14.0 10:25.0 11:8.0 12:46.0 
-63200.0 1:16.0 2:27.0 3:5375.0 4:883.0 5:63.0 6:59.0 7:975.0 8:50.0 9:20.0 10:5.0 11:14.0 12:75.0 
-63200.0 1:16.0 2:32.0 3:3537.0 4:432.0 5:6.0 6:30.0 7:1507.0 8:408.0 9:2.0 10:81.0 11:1.0 12:13.0 
-63200.0 1:16.0 2:27.0 3:3358.0 4:31.0 5:8.0 6:10.0 7:13.0 8:31.0 9:3.0 10:4.0 11:3.0 12:7.0 
-63200.0 1:16.0 2:37.0 3:3971.0 4:111.0 5:23.0 6:14.0 7:140.0 8:228.0 9:20.0 10:7.0 11:43.0 12:28.0 
-63200.0 1:16.0 2:32.0 3:5001.0 4:1380.0 5:87.0 6:5.0 7:186.0 8:350.0 9:6.0 10:0.0 11:1.0 12:0.0 
-63200.0 1:16.0 2:32.0 3:4203.0 4:169.0 5:14.0 6:10.0 7:281.0 8:289.0 9:13.0 10:8.0 11:23.0 12:8.0 
-63200.0 1:16.0 2:37.0 3:5100.0 4:525.0 5:31.0 6:53.0 7:893.0 8:130.0 9:31.0 10:71.0 11:10.0 12:22.0 
-63200.0 1:16.0 2:32.0 3:4164.0 4:118.0 5:18.0 6:12.0 7:178.0 8:283.0 9:28.0 10:9.0 11:19.0 12:9.0 
-63200.0 1:16.0 2:32.0 3:3917.0 4:70.0 5:12.0 6:18.0 7:6.0 8:138.0 9:7.0 10:12.0 11:11.0 12:6.0 
-63200.0 1:16.0 2:32.0 3:4508.0 4:210.0 5:9.0 6:27.0 7:324.0 8:138.0 9:0.0 10:34.0 11:9.0 12:15.0 
-63200.0 1:16.0 2:37.0 3:4569.0 4:300.0 5:32.0 6:14.0 7:633.0 8:672.0 9:8.0 10:13.0 11:11.0 12:17.0 
-63200.0 1:16.0 2:22.0 3:4884.0 4:365.0 5:48.0 6:33.0 7:213.0 8:46.0 9:5.0 10:11.0 11:7.0 12:3.0 
-63200.0 1:16.0 2:22.0 3:4233.0 4:125.0 5:23.0 6:17.0 7:85.0 8:91.0 9:16.0 10:13.0 11:13.0 12:13.0 
-63200.0 1:16.0 2:32.0 3:4294.0 4:192.0 5:8.0 6:73.0 7:21.0 8:67.0 9:0.0 10:6.0 11:0.0 12:18.0 
-63200.0 1:16.0 2:22.0 3:4434.0 4:149.0 5:7.0 6:32.0 7:225.0 8:96.0 9:2.0 10:15.0 11:7.0 12:1.0 
-63200.0 1:16.0 2:22.0 3:2996.0 4:17.0 5:5.0 6:4.0 7:11.0 8:2.0 9:2.0 10:0.0 11:2.0 12:1.0 
-63200.0 1:16.0 2:27.0 3:3412.0 4:34.0 5:9.0 6:13.0 7:47.0 8:10.0 9:1.0 10:12.0 11:1.0 12:1.0 
-63200.0 1:16.0 2:27.0 3:3504.0 4:38.0 5:17.0 6:15.0 7:11.0 8:19.0 9:3.0 10:5.0 11:1.0 12:4.0 
-63200.0 1:16.0 2:22.0 3:2920.0 4:15.0 5:7.0 6:7.0 7:1.0 8:10.0 9:1.0 10:1.0 11:0.0 12:3.0 
-63200.0 1:16.0 2:27.0 3:2254.0 4:1188.0 5:2.0 6:47.0 7:1405.0 8:1756.0 9:11.0 10:2.0 11:2.0 12:31.0 
-63200.0 1:16.0 2:32.0 3:4231.0 4:149.0 5:17.0 6:13.0 7:259.0 8:100.0 9:7.0 10:6.0 11:4.0 12:1.0 
-63200.0 1:16.0 2:37.0 3:4073.0 4:590.0 5:26.0 6:19.0 7:1464.0 8:1716.0 9:31.0 10:21.0 11:60.0 12:39.0 
-63200.0 1:16.0 2:27.0 3:4576.0 4:223.0 5:18.0 6:9.0 7:44.0 8:114.0 9:2.0 10:0.0 11:19.0 12:9.0 
-63200.0 1:16.0 2:32.0 3:2797.0 4:679.0 5:23.0 6:24.0 7:2391.0 8:1261.0 9:83.0 10:89.0 11:5.0 12:35.0 
-63200.0 1:16.0 2:27.0 3:3488.0 4:52.0 5:9.0 6:9.0 7:101.0 8:85.0 9:8.0 10:0.0 11:12.0 12:2.0 
-63200.0 1:16.0 2:22.0 3:2663.0 4:10.0 5:5.0 6:5.0 7:22.0 8:0.0 9:3.0 10:1.0 11:1.0 12:0.0 
-63200.0 1:16.0 2:22.0 3:3219.0 4:22.0 5:13.0 6:10.0 7:16.0 8:5.0 9:8.0 10:4.0 11:5.0 12:5.0 
-63200.0 1:16.0 2:32.0 3:2912.0 4:145.0 5:9.0 6:13.0 7:357.0 8:279.0 9:15.0 10:37.0 11:1.0 12:9.0 
-63200.0 1:16.0 2:22.0 3:4352.0 4:153.0 5:9.0 6:18.0 7:31.0 8:112.0 9:1.0 10:9.0 11:2.0 12:1.0 
-63200.0 1:16.0 2:32.0 3:3918.0 4:177.0 5:13.0 6:13.0 7:410.0 8:492.0 9:20.0 10:5.0 11:22.0 12:15.0 
-2698.7597484131747 1:16.0 2:22.0 3:2146.0 4:1159.0 5:0.0 6:89.0 7:4179.0 8:6.0 9:0.0 10:310.0 11:0.0 12:0.0 
-63200.0 1:16.0 2:22.0 3:2374.0 4:6.0 5:6.0 6:6.0 7:2.0 8:0.0 9:4.0 10:0.0 11:0.0 12:1.0 
-63200.0 1:16.0 2:22.0 3:3287.0 4:33.0 5:6.0 6:8.0 7:51.0 8:35.0 9:4.0 10:1.0 11:2.0 12:2.0 
-63200.0 1:16.0 2:27.0 3:2884.0 4:16.0 5:7.0 6:10.0 7:2.0 8:12.0 9:0.0 10:3.0 11:11.0 12:3.0 
-63200.0 1:16.0 2:22.0 3:2678.0 4:10.0 5:6.0 6:6.0 7:2.0 8:4.0 9:2.0 10:2.0 11:1.0 12:3.0 
-63200.0 1:16.0 2:22.0 3:2572.0 4:8.0 5:4.0 6:6.0 7:8.0 8:0.0 9:1.0 10:2.0 11:1.0 12:0.0 
-63200.0 1:16.0 2:32.0 3:3911.0 4:100.0 5:25.0 6:11.0 7:164.0 8:152.0 9:36.0 10:14.0 11:12.0 12:10.0 
-63200.0 1:16.0 2:22.0 3:2671.0 4:10.0 5:5.0 6:7.0 7:1.0 8:0.0 9:0.0 10:2.0 11:0.0 12:0.0 
-63200.0 1:16.0 2:27.0 3:4869.0 4:429.0 5:38.0 6:30.0 7:107.0 8:892.0 9:18.0 10:24.0 11:30.0 12:8.0 
-63200.0 1:16.0 2:27.0 3:3863.0 4:76.0 5:6.0 6:11.0 7:78.0 8:78.0 9:0.0 10:13.0 11:1.0 12:7.0 
-63200.0 1:16.0 2:22.0 3:5121.0 4:522.0 5:66.0 6:39.0 7:232.0 8:285.0 9:5.0 10:25.0 11:40.0 12:0.0 
-63200.0 1:16.0 2:22.0 3:4130.0 4:169.0 5:19.0 6:18.0 7:536.0 8:419.0 9:36.0 10:20.0 11:24.0 12:14.0 
-63200.0 1:16.0 2:27.0 3:3561.0 4:44.0 5:29.0 6:10.0 7:4.0 8:21.0 9:4.0 10:0.0 11:7.0 12:1.0 
-63200.0 1:16.0 2:22.0 3:3150.0 4:20.0 5:6.0 6:5.0 7:27.0 8:1.0 9:6.0 10:3.0 11:1.0 12:2.0 
-63200.0 1:16.0 2:27.0 3:3190.0 4:36.0 5:6.0 6:11.0 7:61.0 8:35.0 9:3.0 10:26.0 11:8.0 12:4.0 
-63200.0 1:16.0 2:37.0 3:4448.0 4:180.0 5:25.0 6:15.0 7:318.0 8:480.0 9:20.0 10:3.0 11:33.0 12:6.0 
-63200.0 1:16.0 2:37.0 3:3471.0 4:324.0 5:21.0 6:25.0 7:1166.0 8:1157.0 9:32.0 10:60.0 11:39.0 12:65.0 
-63200.0 1:16.0 2:32.0 3:5518.0 4:1110.0 5:63.0 6:59.0 7:89.0 8:185.0 9:0.0 10:53.0 11:18.0 12:55.0 
-63200.0 1:16.0 2:22.0 3:2675.0 4:10.0 5:6.0 6:7.0 7:3.0 8:0.0 9:0.0 10:1.0 11:0.0 12:0.0 
-63200.0 1:16.0 2:22.0 3:3774.0 4:60.0 5:11.0 6:6.0 7:31.0 8:32.0 9:3.0 10:1.0 11:10.0 12:2.0 
-63200.0 1:16.0 2:32.0 3:3762.0 4:57.0 5:13.0 6:14.0 7:44.0 8:108.0 9:0.0 10:11.0 11:26.0 12:10.0 
-4965.434270945837 1:16.0 2:32.0 3:2064.0 4:2788.0 5:53.0 6:101.0 7:8248.0 8:4317.0 9:122.0 10:142.0 11:122.0 12:82.0 
-63200.0 1:16.0 2:22.0 3:2320.0 4:30.0 5:5.0 6:5.0 7:66.0 8:95.0 9:9.0 10:5.0 11:12.0 12:8.0 
-63200.0 1:16.0 2:37.0 3:5062.0 4:620.0 5:34.0 6:10.0 7:958.0 8:1.0 9:17.0 10:3.0 11:8.0 12:10.0 
-63200.0 1:16.0 2:22.0 3:3006.0 4:17.0 5:7.0 6:8.0 7:6.0 8:1.0 9:1.0 10:1.0 11:0.0 12:1.0 
-63200.0 1:16.0 2:27.0 3:5202.0 4:602.0 5:54.0 6:62.0 7:114.0 8:140.0 9:40.0 10:32.0 11:28.0 12:6.0 
-63200.0 1:16.0 2:22.0 3:4229.0 4:329.0 5:30.0 6:12.0 7:31.0 8:944.0 9:1.0 10:7.0 11:71.0 12:8.0 
-63200.0 1:16.0 2:27.0 3:5062.0 4:558.0 5:54.0 6:31.0 7:16.0 8:297.0 9:4.0 10:27.0 11:35.0 12:11.0 
-63200.0 1:16.0 2:22.0 3:4128.0 4:90.0 5:11.0 6:6.0 7:6.0 8:34.0 9:0.0 10:3.0 11:6.0 12:2.0 
-63200.0 1:16.0 2:27.0 3:2875.0 4:532.0 5:0.0 6:55.0 7:1846.0 8:0.0 9:0.0 10:170.0 11:0.0 12:0.0 
-63200.0 1:16.0 2:22.0 3:2952.0 4:18.0 5:6.0 6:7.0 7:12.0 8:14.0 9:3.0 10:2.0 11:5.0 12:6.0 
-63200.0 1:16.0 2:27.0 3:4106.0 4:340.0 5:13.0 6:18.0 7:531.0 8:480.0 9:21.0 10:27.0 11:5.0 12:14.0 
-63200.0 1:16.0 2:27.0 3:3884.0 4:62.0 5:19.0 6:19.0 7:1.0 8:11.0 9:1.0 10:2.0 11:6.0 12:6.0 
-63200.0 1:16.0 2:37.0 3:4277.0 4:368.0 5:13.0 6:20.0 7:350.0 8:56.0 9:11.0 10:27.0 11:2.0 12:2.0 
-63200.0 1:16.0 2:22.0 3:2334.0 4:25.0 5:5.0 6:4.0 7:67.0 8:76.0 9:5.0 10:5.0 11:11.0 12:8.0 
-63200.0 1:16.0 2:32.0 3:5024.0 4:388.0 5:56.0 6:39.0 7:44.0 8:51.0 9:32.0 10:4.0 11:37.0 12:20.0 
-63200.0 1:16.0 2:32.0 3:4644.0 4:980.0 5:38.0 6:17.0 7:1856.0 8:2389.0 9:28.0 10:3.0 11:130.0 12:31.0 
-63200.0 1:16.0 2:22.0 3:4283.0 4:215.0 5:30.0 6:29.0 7:86.0 8:113.0 9:21.0 10:25.0 11:2.0 12:5.0 
-8944.022599545284 1:16.0 2:32.0 3:3748.0 4:1915.0 5:79.0 6:47.0 7:4990.0 8:237.0 9:283.0 10:159.0 11:24.0 12:35.0 
-63200.0 1:16.0 2:32.0 3:3759.0 4:61.0 5:15.0 6:9.0 7:43.0 8:71.0 9:12.0 10:8.0 11:18.0 12:5.0 
-63200.0 1:16.0 2:27.0 3:4813.0 4:504.0 5:54.0 6:23.0 7:98.0 8:447.0 9:2.0 10:2.0 11:107.0 12:34.0 
-1137.066718614981 1:16.0 2:32.0 3:4576.0 4:6333.0 5:79.0 6:6.0 7:440.0 8:5685.0 9:0.0 10:0.0 11:202.0 12:2.0 
-63200.0 1:16.0 2:22.0 3:2734.0 4:11.0 5:5.0 6:5.0 7:4.0 8:0.0 9:0.0 10:2.0 11:4.0 12:0.0 
-63200.0 1:16.0 2:27.0 3:4346.0 4:256.0 5:28.0 6:21.0 7:629.0 8:566.0 9:17.0 10:14.0 11:6.0 12:22.0 
-63200.0 1:16.0 2:37.0 3:4881.0 4:397.0 5:18.0 6:77.0 7:485.0 8:379.0 9:0.0 10:42.0 11:27.0 12:23.0 
-63200.0 1:16.0 2:37.0 3:4477.0 4:229.0 5:45.0 6:24.0 7:359.0 8:439.0 9:39.0 10:5.0 11:39.0 12:5.0 
-1207.3884882634409 1:16.0 2:32.0 3:2125.0 4:360.0 5:0.0 6:54.0 7:1416.0 8:0.0 9:0.0 10:168.0 11:0.0 12:0.0 
-63200.0 1:16.0 2:32.0 3:4516.0 4:154.0 5:27.0 6:29.0 7:54.0 8:32.0 9:1.0 10:7.0 11:14.0 12:7.0 
-63200.0 1:16.0 2:37.0 3:5213.0 4:1094.0 5:39.0 6:16.0 7:277.0 8:1444.0 9:3.0 10:2.0 11:83.0 12:12.0 
-63200.0 1:16.0 2:27.0 3:3861.0 4:78.0 5:12.0 6:7.0 7:12.0 8:60.0 9:10.0 10:4.0 11:2.0 12:4.0 
-63200.0 1:16.0 2:27.0 3:4435.0 4:160.0 5:16.0 6:9.0 7:92.0 8:5.0 9:4.0 10:13.0 11:1.0 12:6.0 
-63200.0 1:16.0 2:27.0 3:4538.0 4:348.0 5:26.0 6:15.0 7:680.0 8:538.0 9:1.0 10:14.0 11:22.0 12:13.0 
-63200.0 1:16.0 2:22.0 3:3712.0 4:59.0 5:19.0 6:9.0 7:71.0 8:96.0 9:12.0 10:2.0 11:21.0 12:2.0 
-63200.0 1:16.0 2:22.0 3:3693.0 4:48.0 5:7.0 6:6.0 7:44.0 8:9.0 9:3.0 10:0.0 11:5.0 12:2.0 
-63200.0 1:16.0 2:27.0 3:4676.0 4:255.0 5:13.0 6:49.0 7:259.0 8:169.0 9:3.0 10:17.0 11:7.0 12:12.0 
-63200.0 1:16.0 2:32.0 3:3893.0 4:70.0 5:16.0 6:11.0 7:36.0 8:64.0 9:10.0 10:15.0 11:3.0 12:8.0 
-63200.0 1:16.0 2:27.0 3:5217.0 4:784.0 5:34.0 6:53.0 7:342.0 8:516.0 9:1.0 10:36.0 11:17.0 12:48.0 
-63200.0 1:16.0 2:37.0 3:3514.0 4:76.0 5:11.0 6:15.0 7:230.0 8:94.0 9:15.0 10:42.0 11:12.0 12:10.0 
-63200.0 1:16.0 2:22.0 3:2721.0 4:14.0 5:3.0 6:5.0 7:9.0 8:3.0 9:1.0 10:3.0 11:1.0 12:2.0 
-63200.0 1:16.0 2:32.0 3:5109.0 4:721.0 5:20.0 6:32.0 7:894.0 8:969.0 9:32.0 10:8.0 11:2.0 12:17.0 
-63200.0 1:16.0 2:32.0 3:3237.0 4:196.0 5:7.0 6:14.0 7:649.0 8:638.0 9:13.0 10:32.0 11:10.0 12:32.0 
-63200.0 1:16.0 2:22.0 3:3430.0 4:81.0 5:41.0 6:1.0 7:1.0 8:21.0 9:1.0 10:0.0 11:4.0 12:0.0 
-63200.0 1:16.0 2:37.0 3:4298.0 4:142.0 5:28.0 6:26.0 7:104.0 8:125.0 9:10.0 10:6.0 11:22.0 12:2.0 
-63200.0 1:16.0 2:27.0 3:3428.0 4:32.0 5:16.0 6:8.0 7:20.0 8:39.0 9:6.0 10:0.0 11:14.0 12:3.0 
-63200.0 1:16.0 2:37.0 3:4333.0 4:615.0 5:30.0 6:12.0 7:142.0 8:516.0 9:8.0 10:7.0 11:30.0 12:8.0 
-63200.0 1:16.0 2:27.0 3:3529.0 4:35.0 5:15.0 6:13.0 7:34.0 8:5.0 9:11.0 10:2.0 11:1.0 12:1.0 
-63200.0 1:16.0 2:22.0 3:2792.0 4:12.0 5:6.0 6:7.0 7:5.0 8:3.0 9:3.0 10:0.0 11:2.0 12:0.0 
-63200.0 1:16.0 2:22.0 3:4841.0 4:667.0 5:20.0 6:40.0 7:562.0 8:661.0 9:6.0 10:8.0 11:11.0 12:16.0 
-63200.0 1:16.0 2:37.0 3:3630.0 4:215.0 5:5.0 6:16.0 7:334.0 8:41.0 9:5.0 10:45.0 11:3.0 12:0.0 
-63200.0 1:16.0 2:22.0 3:2488.0 4:8.0 5:7.0 6:5.0 7:0.0 8:1.0 9:0.0 10:2.0 11:0.0 12:1.0 
-63200.0 1:16.0 2:22.0 3:4530.0 4:205.0 5:22.0 6:53.0 7:69.0 8:2.0 9:5.0 10:3.0 11:5.0 12:14.0 
-63200.0 1:16.0 2:22.0 3:3211.0 4:49.0 5:9.0 6:4.0 7:11.0 8:79.0 9:2.0 10:2.0 11:19.0 12:7.0 
-63200.0 1:16.0 2:32.0 3:4261.0 4:159.0 5:42.0 6:19.0 7:79.0 8:190.0 9:4.0 10:7.0 11:1.0 12:9.0 
-63200.0 1:16.0 2:32.0 3:4258.0 4:130.0 5:14.0 6:21.0 7:116.0 8:142.0 9:14.0 10:24.0 11:7.0 12:3.0 
-63200.0 1:16.0 2:22.0 3:3556.0 4:40.0 5:8.0 6:10.0 7:16.0 8:8.0 9:3.0 10:1.0 11:4.0 12:1.0 
-63200.0 1:16.0 2:22.0 3:4079.0 4:110.0 5:13.0 6:6.0 7:73.0 8:110.0 9:4.0 10:2.0 11:24.0 12:1.0 
-63200.0 1:16.0 2:32.0 3:4961.0 4:340.0 5:37.0 6:25.0 7:61.0 8:423.0 9:3.0 10:9.0 11:12.0 12:4.0 
-63200.0 1:16.0 2:27.0 3:1360.0 4:20.0 5:4.0 6:5.0 7:70.0 8:69.0 9:5.0 10:11.0 11:4.0 12:7.0 
-63200.0 1:16.0 2:37.0 3:4061.0 4:189.0 5:20.0 6:14.0 7:247.0 8:534.0 9:6.0 10:16.0 11:30.0 12:13.0 
-63200.0 1:16.0 2:37.0 3:5160.0 4:486.0 5:57.0 6:51.0 7:91.0 8:312.0 9:7.0 10:10.0 11:28.0 12:33.0 
-63200.0 1:16.0 2:32.0 3:4904.0 4:931.0 5:48.0 6:10.0 7:482.0 8:1157.0 9:4.0 10:7.0 11:57.0 12:8.0 
-63200.0 1:16.0 2:27.0 3:2608.0 4:41.0 5:5.0 6:5.0 7:120.0 8:122.0 9:3.0 10:9.0 11:11.0 12:11.0 
-63200.0 1:16.0 2:37.0 3:5003.0 4:385.0 5:24.0 6:16.0 7:391.0 8:151.0 9:8.0 10:21.0 11:12.0 12:3.0 
-63200.0 1:16.0 2:22.0 3:3226.0 4:41.0 5:8.0 6:5.0 7:64.0 8:84.0 9:5.0 10:2.0 11:14.0 12:3.0 
-63200.0 1:16.0 2:32.0 3:2851.0 4:79.0 5:9.0 6:7.0 7:297.0 8:257.0 9:11.0 10:13.0 11:15.0 12:9.0 
-63200.0 1:16.0 2:27.0 3:4510.0 4:180.0 5:20.0 6:26.0 7:224.0 8:180.0 9:18.0 10:16.0 11:0.0 12:21.0 
-63200.0 1:16.0 2:32.0 3:4475.0 4:177.0 5:16.0 6:40.0 7:109.0 8:143.0 9:3.0 10:23.0 11:16.0 12:8.0 
-63200.0 1:16.0 2:27.0 3:2743.0 4:44.0 5:5.0 6:7.0 7:77.0 8:76.0 9:8.0 10:10.0 11:0.0 12:2.0 
-63200.0 1:16.0 2:37.0 3:4832.0 4:341.0 5:31.0 6:16.0 7:328.0 8:162.0 9:10.0 10:2.0 11:10.0 12:4.0 
-63200.0 1:16.0 2:37.0 3:4102.0 4:245.0 5:17.0 6:19.0 7:740.0 8:742.0 9:30.0 10:27.0 11:26.0 12:31.0 
-63200.0 1:16.0 2:27.0 3:5415.0 4:898.0 5:53.0 6:83.0 7:101.0 8:175.0 9:12.0 10:14.0 11:6.0 12:12.0 
-63200.0 1:16.0 2:32.0 3:4932.0 4:358.0 5:56.0 6:37.0 7:128.0 8:215.0 9:8.0 10:10.0 11:8.0 12:13.0 
-63200.0 1:16.0 2:37.0 3:4237.0 4:237.0 5:21.0 6:10.0 7:533.0 8:534.0 9:25.0 10:8.0 11:33.0 12:19.0 
-63200.0 1:16.0 2:22.0 3:3381.0 4:31.0 5:12.0 6:9.0 7:16.0 8:64.0 9:6.0 10:5.0 11:12.0 12:1.0 
-63200.0 1:16.0 2:32.0 3:3991.0 4:78.0 5:13.0 6:15.0 7:74.0 8:29.0 9:14.0 10:5.0 11:4.0 12:7.0 
-63200.0 1:16.0 2:27.0 3:4293.0 4:144.0 5:14.0 6:12.0 7:103.0 8:66.0 9:12.0 10:23.0 11:12.0 12:9.0 
-63200.0 1:16.0 2:22.0 3:4300.0 4:657.0 5:20.0 6:26.0 7:1330.0 8:1034.0 9:31.0 10:50.0 11:9.0 12:16.0 
-63200.0 1:16.0 2:27.0 3:2313.0 4:10.0 5:4.0 6:6.0 7:26.0 8:28.0 9:8.0 10:8.0 11:12.0 12:11.0 
-63200.0 1:16.0 2:37.0 3:4188.0 4:143.0 5:15.0 6:19.0 7:261.0 8:182.0 9:19.0 10:29.0 11:10.0 12:26.0 
-63200.0 1:16.0 2:22.0 3:4067.0 4:153.0 5:13.0 6:6.0 7:230.0 8:73.0 9:8.0 10:2.0 11:8.0 12:6.0 
-63200.0 1:16.0 2:22.0 3:4409.0 4:759.0 5:28.0 6:20.0 7:1006.0 8:1187.0 9:11.0 10:7.0 11:48.0 12:27.0 
-63200.0 1:16.0 2:27.0 3:4877.0 4:433.0 5:22.0 6:38.0 7:900.0 8:520.0 9:54.0 10:51.0 11:1.0 12:53.0 
-63200.0 1:16.0 2:22.0 3:3302.0 4:548.0 5:13.0 6:27.0 7:2004.0 8:523.0 9:39.0 10:96.0 11:9.0 12:9.0 
-63200.0 1:16.0 2:22.0 3:3504.0 4:37.0 5:10.0 6:16.0 7:47.0 8:26.0 9:6.0 10:14.0 11:5.0 12:1.0 
-63200.0 1:16.0 2:22.0 3:3703.0 4:47.0 5:14.0 6:11.0 7:31.0 8:98.0 9:10.0 10:3.0 11:24.0 12:11.0 
-63200.0 1:16.0 2:32.0 3:5340.0 4:924.0 5:37.0 6:19.0 7:1041.0 8:703.0 9:8.0 10:32.0 11:66.0 12:1.0 
-63200.0 1:16.0 2:32.0 3:4343.0 4:221.0 5:7.0 6:66.0 7:138.0 8:85.0 9:0.0 10:19.0 11:8.0 12:29.0 
-16321.453732830869 1:16.0 2:37.0 3:3907.0 4:82.0 5:17.0 6:14.0 7:152.0 8:108.0 9:28.0 10:8.0 11:11.0 12:0.0 
-57581.98402661315 1:16.0 2:37.0 3:2488.0 4:1025.0 5:34.0 6:58.0 7:3583.0 8:3613.0 9:103.0 10:156.0 11:100.0 12:215.0 
-63200.0 1:16.0 2:37.0 3:4136.0 4:160.0 5:22.0 6:18.0 7:62.0 8:477.0 9:20.0 10:1.0 11:46.0 12:37.0 
-63200.0 1:16.0 2:32.0 3:4734.0 4:376.0 5:6.0 6:58.0 7:548.0 8:17.0 9:1.0 10:67.0 11:0.0 12:1.0 
-63200.0 1:16.0 2:32.0 3:4469.0 4:168.0 5:25.0 6:9.0 7:42.0 8:78.0 9:3.0 10:7.0 11:29.0 12:6.0 
-63200.0 1:16.0 2:27.0 3:5283.0 4:659.0 5:104.0 6:18.0 7:3.0 8:1159.0 9:51.0 10:12.0 11:130.0 12:2.0 
-63200.0 1:16.0 2:32.0 3:4275.0 4:270.0 5:27.0 6:11.0 7:724.0 8:925.0 9:29.0 10:2.0 11:68.0 12:13.0 
-63200.0 1:16.0 2:27.0 3:4812.0 4:287.0 5:44.0 6:42.0 7:58.0 8:133.0 9:8.0 10:10.0 11:24.0 12:5.0 
-63200.0 1:16.0 2:27.0 3:4772.0 4:496.0 5:26.0 6:7.0 7:22.0 8:70.0 9:2.0 10:0.0 11:8.0 12:0.0 
-63200.0 1:16.0 2:22.0 3:2421.0 4:8.0 5:4.0 6:4.0 7:10.0 8:8.0 9:1.0 10:1.0 11:3.0 12:1.0 
-63200.0 1:16.0 2:22.0 3:5133.0 4:444.0 5:56.0 6:37.0 7:349.0 8:77.0 9:32.0 10:19.0 11:33.0 12:16.0 
-63200.0 1:16.0 2:27.0 3:3660.0 4:58.0 5:9.0 6:7.0 7:63.0 8:167.0 9:2.0 10:5.0 11:9.0 12:12.0 
-63200.0 1:16.0 2:22.0 3:2899.0 4:16.0 5:8.0 6:5.0 7:4.0 8:22.0 9:1.0 10:1.0 11:1.0 12:1.0 
-63200.0 1:16.0 2:27.0 3:5027.0 4:760.0 5:50.0 6:39.0 7:581.0 8:1312.0 9:2.0 10:2.0 11:65.0 12:57.0 
-63200.0 1:16.0 2:32.0 3:4321.0 4:775.0 5:7.0 6:29.0 7:485.0 8:106.0 9:3.0 10:50.0 11:1.0 12:0.0 
-63200.0 1:16.0 2:32.0 3:2871.0 4:32.0 5:10.0 6:17.0 7:54.0 8:9.0 9:10.0 10:22.0 11:3.0 12:8.0 
-63200.0 1:16.0 2:37.0 3:4616.0 4:383.0 5:21.0 6:22.0 7:481.0 8:806.0 9:32.0 10:4.0 11:38.0 12:48.0 
-63200.0 1:16.0 2:22.0 3:4075.0 4:88.0 5:6.0 6:12.0 7:39.0 8:60.0 9:1.0 10:8.0 11:2.0 12:3.0 
-63200.0 1:16.0 2:22.0 3:2645.0 4:10.0 5:7.0 6:4.0 7:3.0 8:1.0 9:0.0 10:3.0 11:3.0 12:1.0 
-63200.0 1:16.0 2:32.0 3:5064.0 4:510.0 5:24.0 6:34.0 7:505.0 8:146.0 9:6.0 10:49.0 11:27.0 12:27.0 
-63200.0 1:16.0 2:22.0 3:2677.0 4:11.0 5:5.0 6:7.0 7:5.0 8:2.0 9:0.0 10:2.0 11:3.0 12:0.0 
-63200.0 1:16.0 2:27.0 3:4034.0 4:112.0 5:20.0 6:8.0 7:25.0 8:187.0 9:4.0 10:4.0 11:26.0 12:6.0 
-63200.0 1:16.0 2:32.0 3:3351.0 4:434.0 5:12.0 6:29.0 7:1619.0 8:563.0 9:34.0 10:82.0 11:16.0 12:21.0 
-63200.0 1:16.0 2:22.0 3:2287.0 4:25.0 5:5.0 6:4.0 7:66.0 8:87.0 9:12.0 10:8.0 11:14.0 12:10.0 
-63200.0 1:16.0 2:37.0 3:4133.0 4:294.0 5:11.0 6:20.0 7:179.0 8:52.0 9:7.0 10:5.0 11:12.0 12:6.0 
-63200.0 1:16.0 2:22.0 3:2447.0 4:40.0 5:25.0 6:0.0 7:7.0 8:3.0 9:0.0 10:0.0 11:21.0 12:0.0 
-63200.0 1:16.0 2:22.0 3:3024.0 4:17.0 5:8.0 6:6.0 7:1.0 8:4.0 9:0.0 10:1.0 11:3.0 12:4.0 
-63200.0 1:16.0 2:27.0 3:2884.0 4:15.0 5:7.0 6:8.0 7:4.0 8:12.0 9:2.0 10:0.0 11:13.0 12:1.0 
-63200.0 1:16.0 2:37.0 3:3932.0 4:1107.0 5:19.0 6:48.0 7:3369.0 8:1521.0 9:40.0 10:150.0 11:0.0 12:10.0 
-3989.942839793007 1:16.0 2:27.0 3:2445.0 4:5647.0 5:159.0 6:175.0 7:1507.0 8:372.0 9:42.0 10:48.0 11:212.0 12:27.0 
-63200.0 1:16.0 2:37.0 3:3643.0 4:133.0 5:13.0 6:16.0 7:87.0 8:306.0 9:4.0 10:15.0 11:20.0 12:28.0 
-63200.0 1:16.0 2:32.0 3:2551.0 4:267.0 5:16.0 6:16.0 7:924.0 8:1014.0 9:55.0 10:59.0 11:50.0 12:58.0 
-63200.0 1:16.0 2:37.0 3:4834.0 4:303.0 5:44.0 6:38.0 7:384.0 8:248.0 9:26.0 10:12.0 11:22.0 12:8.0 
-63200.0 1:16.0 2:22.0 3:2533.0 4:231.0 5:0.0 6:19.0 7:888.0 8:3.0 9:0.0 10:46.0 11:0.0 12:0.0 
-63200.0 1:16.0 2:22.0 3:4953.0 4:354.0 5:34.0 6:35.0 7:262.0 8:270.0 9:2.0 10:1.0 11:4.0 12:13.0 
-63200.0 1:16.0 2:22.0 3:662.0 4:89.0 5:0.0 6:8.0 7:332.0 8:0.0 9:0.0 10:34.0 11:0.0 12:0.0 
-63200.0 1:32.0 2:22.0 3:3542.0 4:71.0 5:35.0 6:2.0 7:9.0 8:11.0 9:0.0 10:0.0 11:11.0 12:1.0 
-63200.0 1:32.0 2:27.0 3:4006.0 4:71.0 5:14.0 6:9.0 7:12.0 8:33.0 9:0.0 10:1.0 11:0.0 12:0.0 
-63200.0 1:32.0 2:22.0 3:2643.0 4:9.0 5:4.0 6:4.0 7:2.0 8:6.0 9:4.0 10:0.0 11:0.0 12:0.0 
-63200.0 1:32.0 2:32.0 3:3947.0 4:61.0 5:25.0 6:18.0 7:17.0 8:5.0 9:2.0 10:0.0 11:0.0 12:6.0 
-63200.0 1:32.0 2:27.0 3:4809.0 4:1087.0 5:69.0 6:53.0 7:2484.0 8:260.0 9:75.0 10:94.0 11:0.0 12:5.0 
-63200.0 1:32.0 2:27.0 3:3580.0 4:39.0 5:10.0 6:5.0 7:22.0 8:17.0 9:2.0 10:1.0 11:0.0 12:1.0 
-16672.6913116721 1:32.0 2:27.0 3:662.0 4:3810.0 5:65.0 6:72.0 7:1778.0 8:889.0 9:60.0 10:46.0 11:17.0 12:41.0 
-63200.0 1:32.0 2:27.0 3:3520.0 4:34.0 5:28.0 6:11.0 7:52.0 8:6.0 9:30.0 10:5.0 11:5.0 12:0.0 
-63200.0 1:32.0 2:37.0 3:5021.0 4:453.0 5:27.0 6:24.0 7:36.0 8:425.0 9:3.0 10:4.0 11:6.0 12:10.0 
-63200.0 1:32.0 2:27.0 3:3858.0 4:56.0 5:11.0 6:7.0 7:6.0 8:36.0 9:1.0 10:0.0 11:1.0 12:0.0 
-2986.991292772219 1:32.0 2:37.0 3:3888.0 4:3930.0 5:48.0 6:6.0 7:624.0 8:10902.0 9:13.0 10:0.0 11:134.0 12:5.0 
-63200.0 1:32.0 2:32.0 3:3567.0 4:35.0 5:18.0 6:15.0 7:6.0 8:8.0 9:9.0 10:5.0 11:1.0 12:3.0 
-63200.0 1:32.0 2:37.0 3:4108.0 4:95.0 5:24.0 6:14.0 7:152.0 8:163.0 9:0.0 10:16.0 11:13.0 12:6.0 
-51909.701110472626 1:32.0 2:37.0 3:2743.0 4:5519.0 5:189.0 6:128.0 7:526.0 8:1277.0 9:46.0 10:21.0 11:50.0 12:80.0 
-63200.0 1:32.0 2:22.0 3:1872.0 4:3.0 5:4.0 6:3.0 7:0.0 8:0.0 9:1.0 10:0.0 11:2.0 12:1.0 
-63200.0 1:32.0 2:27.0 3:4039.0 4:131.0 5:9.0 6:12.0 7:259.0 8:60.0 9:0.0 10:15.0 11:1.0 12:0.0 
-63200.0 1:32.0 2:32.0 3:6217.0 4:2249.0 5:3.0 6:34.0 7:828.0 8:831.0 9:6.0 10:24.0 11:0.0 12:5.0 
-1445.8692930181887 1:32.0 2:22.0 3:1291.0 4:3658.0 5:101.0 6:90.0 7:11650.0 8:687.0 9:337.0 10:260.0 11:54.0 12:43.0 
-63200.0 1:32.0 2:37.0 3:5179.0 4:570.0 5:21.0 6:15.0 7:464.0 8:650.0 9:0.0 10:6.0 11:17.0 12:11.0 
-63200.0 1:32.0 2:32.0 3:6007.0 4:1267.0 5:39.0 6:135.0 7:1622.0 8:313.0 9:0.0 10:130.0 11:2.0 12:44.0 
-63200.0 1:32.0 2:37.0 3:4010.0 4:604.0 5:7.0 6:19.0 7:660.0 8:132.0 9:3.0 10:37.0 11:1.0 12:1.0 
-63200.0 1:32.0 2:32.0 3:2695.0 4:430.0 5:11.0 6:12.0 7:1619.0 8:1610.0 9:38.0 10:42.0 11:38.0 12:42.0 
-63200.0 1:32.0 2:27.0 3:3243.0 4:57.0 5:36.0 6:1.0 7:10.0 8:18.0 9:6.0 10:0.0 11:10.0 12:0.0 
-63200.0 1:32.0 2:32.0 3:4386.0 4:294.0 5:8.0 6:16.0 7:531.0 8:82.0 9:3.0 10:24.0 11:1.0 12:0.0 
-63200.0 1:32.0 2:27.0 3:4299.0 4:116.0 5:9.0 6:10.0 7:19.0 8:89.0 9:3.0 10:2.0 11:6.0 12:3.0 
-63200.0 1:32.0 2:27.0 3:3731.0 4:57.0 5:5.0 6:4.0 7:10.0 8:58.0 9:4.0 10:6.0 11:5.0 12:6.0 
-63200.0 1:32.0 2:37.0 3:5410.0 4:936.0 5:56.0 6:10.0 7:421.0 8:402.0 9:11.0 10:2.0 11:36.0 12:0.0 
-63200.0 1:32.0 2:27.0 3:3774.0 4:45.0 5:13.0 6:13.0 7:27.0 8:4.0 9:2.0 10:1.0 11:2.0 12:2.0 
-63200.0 1:32.0 2:37.0 3:4395.0 4:192.0 5:26.0 6:13.0 7:444.0 8:468.0 9:3.0 10:12.0 11:5.0 12:14.0 
-63200.0 1:32.0 2:27.0 3:5045.0 4:485.0 5:11.0 6:15.0 7:78.0 8:318.0 9:0.0 10:3.0 11:0.0 12:3.0 
-63200.0 1:32.0 2:22.0 3:3591.0 4:82.0 5:47.0 6:2.0 7:3.0 8:11.0 9:3.0 10:0.0 11:0.0 12:0.0 
-25364.755456019684 1:32.0 2:37.0 3:1479.0 4:3875.0 5:92.0 6:105.0 7:3354.0 8:51.0 9:61.0 10:95.0 11:37.0 12:1.0 
-63200.0 1:32.0 2:27.0 3:4694.0 4:347.0 5:6.0 6:100.0 7:37.0 8:156.0 9:0.0 10:5.0 11:1.0 12:21.0 
-63200.0 1:32.0 2:32.0 3:2962.0 4:701.0 5:27.0 6:16.0 7:2678.0 8:2677.0 9:85.0 10:30.0 11:96.0 12:32.0 
-63200.0 1:32.0 2:22.0 3:2706.0 4:11.0 5:14.0 6:3.0 7:2.0 8:8.0 9:2.0 10:0.0 11:10.0 12:0.0 
-63200.0 1:32.0 2:37.0 3:4798.0 4:218.0 5:10.0 6:18.0 7:65.0 8:177.0 9:9.0 10:18.0 11:5.0 12:5.0 
-63200.0 1:32.0 2:37.0 3:4402.0 4:118.0 5:15.0 6:16.0 7:222.0 8:94.0 9:9.0 10:18.0 11:3.0 12:9.0 
-63200.0 1:32.0 2:22.0 3:3905.0 4:94.0 5:11.0 6:7.0 7:94.0 8:234.0 9:1.0 10:2.0 11:14.0 12:3.0 
-63200.0 1:32.0 2:32.0 3:3771.0 4:711.0 5:16.0 6:4.0 7:61.0 8:268.0 9:0.0 10:0.0 11:29.0 12:6.0 
-63200.0 1:32.0 2:22.0 3:3193.0 4:56.0 5:42.0 6:1.0 7:12.0 8:7.0 9:6.0 10:0.0 11:5.0 12:0.0 
-14635.941509845854 1:32.0 2:37.0 3:3123.0 4:1416.0 5:33.0 6:2.0 7:90.0 8:5017.0 9:1.0 10:1.0 11:119.0 12:0.0 
-63200.0 1:32.0 2:32.0 3:4869.0 4:249.0 5:13.0 6:15.0 7:236.0 8:64.0 9:4.0 10:12.0 11:11.0 12:14.0 
-63200.0 1:32.0 2:32.0 3:3821.0 4:148.0 5:15.0 6:14.0 7:427.0 8:425.0 9:11.0 10:7.0 11:12.0 12:8.0 
-63200.0 1:32.0 2:22.0 3:5490.0 4:579.0 5:104.0 6:47.0 7:194.0 8:48.0 9:3.0 10:19.0 11:0.0 12:3.0 
-21505.92297822252 1:32.0 2:32.0 3:1759.0 4:3929.0 5:125.0 6:101.0 7:2367.0 8:2814.0 9:68.0 10:87.0 11:88.0 12:54.0 
-63200.0 1:32.0 2:37.0 3:4926.0 4:672.0 5:21.0 6:10.0 7:62.0 8:499.0 9:10.0 10:3.0 11:17.0 12:1.0 
-63200.0 1:32.0 2:32.0 3:4322.0 4:114.0 5:23.0 6:20.0 7:97.0 8:92.0 9:6.0 10:11.0 11:2.0 12:18.0 
-63200.0 1:32.0 2:27.0 3:3055.0 4:193.0 5:12.0 6:4.0 7:135.0 8:583.0 9:1.0 10:1.0 11:37.0 12:2.0 
-63200.0 1:32.0 2:22.0 3:1161.0 4:4.0 5:2.0 6:3.0 7:13.0 8:11.0 9:0.0 10:4.0 11:0.0 12:2.0 
-63200.0 1:32.0 2:27.0 3:4052.0 4:67.0 5:27.0 6:21.0 7:34.0 8:1.0 9:12.0 10:5.0 11:4.0 12:0.0 
-63200.0 1:32.0 2:32.0 3:4496.0 4:362.0 5:18.0 6:7.0 7:148.0 8:751.0 9:1.0 10:0.0 11:39.0 12:0.0 
-63200.0 1:32.0 2:27.0 3:3405.0 4:39.0 5:7.0 6:7.0 7:45.0 8:19.0 9:1.0 10:2.0 11:4.0 12:1.0 
-63200.0 1:32.0 2:32.0 3:3883.0 4:65.0 5:8.0 6:12.0 7:9.0 8:146.0 9:0.0 10:8.0 11:13.0 12:6.0 
-63200.0 1:32.0 2:37.0 3:4592.0 4:256.0 5:10.0 6:18.0 7:575.0 8:631.0 9:12.0 10:15.0 11:14.0 12:8.0 
-63200.0 1:32.0 2:27.0 3:3974.0 4:62.0 5:24.0 6:21.0 7:5.0 8:44.0 9:6.0 10:4.0 11:8.0 12:11.0 
-63200.0 1:32.0 2:27.0 3:3376.0 4:27.0 5:6.0 6:8.0 7:17.0 8:34.0 9:1.0 10:8.0 11:0.0 12:1.0 
-63200.0 1:32.0 2:27.0 3:4244.0 4:104.0 5:9.0 6:8.0 7:95.0 8:45.0 9:2.0 10:0.0 11:5.0 12:2.0 
-63200.0 1:32.0 2:32.0 3:3649.0 4:39.0 5:19.0 6:15.0 7:7.0 8:10.0 9:7.0 10:1.0 11:4.0 12:0.0 
-63200.0 1:32.0 2:37.0 3:4864.0 4:252.0 5:22.0 6:78.0 7:47.0 8:616.0 9:0.0 10:15.0 11:13.0 12:132.0 
-63200.0 1:32.0 2:27.0 3:3487.0 4:74.0 5:38.0 6:2.0 7:7.0 8:27.0 9:2.0 10:0.0 11:10.0 12:0.0 
-63200.0 1:32.0 2:37.0 3:3958.0 4:583.0 5:10.0 6:19.0 7:1288.0 8:444.0 9:9.0 10:42.0 11:0.0 12:0.0 
-63200.0 1:32.0 2:27.0 3:3583.0 4:35.0 5:12.0 6:12.0 7:22.0 8:16.0 9:1.0 10:1.0 11:1.0 12:3.0 
-63200.0 1:32.0 2:27.0 3:3801.0 4:77.0 5:7.0 6:9.0 7:116.0 8:92.0 9:0.0 10:5.0 11:0.0 12:1.0 
-63200.0 1:32.0 2:32.0 3:4150.0 4:81.0 5:7.0 6:15.0 7:2.0 8:164.0 9:0.0 10:18.0 11:0.0 12:10.0 
-63200.0 1:32.0 2:37.0 3:3980.0 4:76.0 5:38.0 6:8.0 7:31.0 8:45.0 9:18.0 10:8.0 11:28.0 12:2.0 
-63200.0 1:32.0 2:32.0 3:5493.0 4:604.0 5:74.0 6:45.0 7:171.0 8:177.0 9:28.0 10:15.0 11:11.0 12:19.0 
-20682.50793381998 1:32.0 2:27.0 3:1090.0 4:3205.0 5:88.0 6:87.0 7:10496.0 8:1888.0 9:288.0 10:260.0 11:61.0 12:8.0 
-63200.0 1:32.0 2:32.0 3:4704.0 4:191.0 5:58.0 6:18.0 7:82.0 8:116.0 9:1.0 10:8.0 11:15.0 12:4.0 
-63200.0 1:32.0 2:37.0 3:4942.0 4:280.0 5:47.0 6:45.0 7:12.0 8:106.0 9:3.0 10:4.0 11:5.0 12:15.0 
-196.5630374243895 1:32.0 2:27.0 3:260.0 4:1399.0 5:31.0 6:26.0 7:0.0 8:5368.0 9:3.0 10:8.0 11:124.0 12:106.0 
-63200.0 1:32.0 2:27.0 3:5404.0 4:502.0 5:51.0 6:39.0 7:288.0 8:155.0 9:14.0 10:12.0 11:18.0 12:2.0 
-63200.0 1:32.0 2:27.0 3:3547.0 4:34.0 5:9.0 6:10.0 7:28.0 8:17.0 9:1.0 10:1.0 11:3.0 12:1.0 
-63200.0 1:32.0 2:32.0 3:3362.0 4:882.0 5:1.0 6:37.0 7:2927.0 8:113.0 9:1.0 10:134.0 11:3.0 12:0.0 
-63200.0 1:32.0 2:37.0 3:3972.0 4:128.0 5:19.0 6:35.0 7:2.0 8:9.0 9:4.0 10:8.0 11:6.0 12:6.0 
-63200.0 1:32.0 2:32.0 3:5672.0 4:827.0 5:61.0 6:37.0 7:605.0 8:148.0 9:23.0 10:4.0 11:41.0 12:34.0 
-63200.0 1:32.0 2:27.0 3:3805.0 4:51.0 5:9.0 6:13.0 7:112.0 8:16.0 9:0.0 10:10.0 11:0.0 12:0.0 
-63200.0 1:32.0 2:37.0 3:5672.0 4:890.0 5:64.0 6:59.0 7:895.0 8:1079.0 9:17.0 10:39.0 11:1.0 12:57.0 
-63200.0 1:32.0 2:32.0 3:3491.0 4:1076.0 5:2.0 6:55.0 7:1599.0 8:68.0 9:1.0 10:120.0 11:1.0 12:0.0 
-63200.0 1:32.0 2:27.0 3:4568.0 4:187.0 5:8.0 6:18.0 7:262.0 8:64.0 9:1.0 10:13.0 11:0.0 12:2.0 
-63200.0 1:32.0 2:37.0 3:4464.0 4:139.0 5:29.0 6:28.0 7:117.0 8:37.0 9:7.0 10:15.0 11:14.0 12:3.0 
-63200.0 1:32.0 2:32.0 3:4063.0 4:749.0 5:29.0 6:29.0 7:2409.0 8:2376.0 9:67.0 10:70.0 11:67.0 12:66.0 
-63200.0 1:32.0 2:22.0 3:3488.0 4:33.0 5:6.0 6:12.0 7:21.0 8:28.0 9:1.0 10:0.0 11:2.0 12:2.0 
-846.2438028806478 1:32.0 2:32.0 3:501.0 4:2320.0 5:54.0 6:59.0 7:4154.0 8:3471.0 9:78.0 10:97.0 11:58.0 12:85.0 
-63200.0 1:32.0 2:37.0 3:3495.0 4:51.0 5:5.0 6:21.0 7:117.0 8:10.0 9:0.0 10:25.0 11:0.0 12:5.0 
-63200.0 1:32.0 2:37.0 3:3338.0 4:37.0 5:8.0 6:10.0 7:79.0 8:46.0 9:11.0 10:14.0 11:4.0 12:8.0 
-13450.596001424821 1:32.0 2:37.0 3:2541.0 4:3997.0 5:72.0 6:136.0 7:2475.0 8:1760.0 9:199.0 10:186.0 11:4.0 12:62.0 
-51160.18646148754 1:32.0 2:22.0 3:588.0 4:714.0 5:15.0 6:14.0 7:2799.0 8:2799.0 9:63.0 10:57.0 11:63.0 12:57.0 
-12376.358326914982 1:32.0 2:37.0 3:2158.0 4:4780.0 5:137.0 6:129.0 7:2919.0 8:816.0 9:138.0 10:141.0 11:0.0 12:31.0 
-63200.0 1:32.0 2:32.0 3:3983.0 4:62.0 5:24.0 6:19.0 7:6.0 8:35.0 9:0.0 10:2.0 11:7.0 12:2.0 
-63200.0 1:32.0 2:32.0 3:3876.0 4:54.0 5:22.0 6:20.0 7:18.0 8:14.0 9:4.0 10:2.0 11:2.0 12:1.0 
-63200.0 1:32.0 2:37.0 3:4113.0 4:105.0 5:11.0 6:9.0 7:260.0 8:165.0 9:13.0 10:0.0 11:20.0 12:5.0 
-3251.949753980452 1:32.0 2:32.0 3:2233.0 4:3627.0 5:88.0 6:141.0 7:7438.0 8:181.0 9:346.0 10:11.0 11:7.0 12:22.0 
-63200.0 1:32.0 2:37.0 3:4944.0 4:765.0 5:38.0 6:10.0 7:64.0 8:1651.0 9:0.0 10:0.0 11:50.0 12:3.0 
-63200.0 1:32.0 2:27.0 3:3441.0 4:29.0 5:5.0 6:13.0 7:12.0 8:34.0 9:0.0 10:0.0 11:0.0 12:3.0 
-63200.0 1:32.0 2:32.0 3:5777.0 4:859.0 5:88.0 6:55.0 7:1149.0 8:30.0 9:95.0 10:19.0 11:39.0 12:33.0 
-63200.0 1:32.0 2:37.0 3:3909.0 4:66.0 5:16.0 6:18.0 7:50.0 8:34.0 9:13.0 10:17.0 11:8.0 12:6.0 
-63200.0 1:32.0 2:27.0 3:3382.0 4:26.0 5:12.0 6:5.0 7:42.0 8:13.0 9:0.0 10:2.0 11:2.0 12:1.0 
-63200.0 1:32.0 2:22.0 3:2668.0 4:9.0 5:5.0 6:5.0 7:2.0 8:1.0 9:0.0 10:0.0 11:0.0 12:0.0 
-63200.0 1:32.0 2:32.0 3:3566.0 4:34.0 5:17.0 6:15.0 7:5.0 8:14.0 9:1.0 10:1.0 11:8.0 12:1.0 
-63200.0 1:32.0 2:32.0 3:4363.0 4:156.0 5:8.0 6:61.0 7:129.0 8:306.0 9:2.0 10:11.0 11:3.0 12:50.0 
-63200.0 1:32.0 2:27.0 3:4803.0 4:436.0 5:14.0 6:13.0 7:693.0 8:1009.0 9:16.0 10:10.0 11:5.0 12:13.0 
-63200.0 1:32.0 2:32.0 3:4774.0 4:212.0 5:16.0 6:20.0 7:118.0 8:2.0 9:18.0 10:10.0 11:5.0 12:6.0 
-63200.0 1:32.0 2:37.0 3:5114.0 4:578.0 5:26.0 6:22.0 7:1271.0 8:1285.0 9:22.0 10:11.0 11:27.0 12:12.0 
-63200.0 1:32.0 2:22.0 3:3706.0 4:49.0 5:15.0 6:6.0 7:0.0 8:95.0 9:2.0 10:0.0 11:7.0 12:2.0 
-63200.0 1:32.0 2:37.0 3:5069.0 4:391.0 5:24.0 6:18.0 7:6.0 8:337.0 9:5.0 10:7.0 11:14.0 12:22.0 
-63200.0 1:32.0 2:27.0 3:4774.0 4:212.0 5:16.0 6:20.0 7:118.0 8:2.0 9:18.0 10:10.0 11:5.0 12:6.0 
-63200.0 1:32.0 2:27.0 3:3344.0 4:25.0 5:20.0 6:12.0 7:8.0 8:4.0 9:3.0 10:1.0 11:4.0 12:2.0 
-15755.194133599392 1:32.0 2:37.0 3:2285.0 4:5375.0 5:173.0 6:150.0 7:875.0 8:797.0 9:138.0 10:88.0 11:28.0 12:12.0 
-63200.0 1:32.0 2:37.0 3:5048.0 4:410.0 5:54.0 6:64.0 7:21.0 8:189.0 9:11.0 10:18.0 11:0.0 12:7.0 
-201.85795007667184 1:32.0 2:37.0 3:4140.0 4:7344.0 5:7.0 6:95.0 7:14433.0 8:161.0 9:11.0 10:341.0 11:0.0 12:1.0 
-8157.9315459374075 1:32.0 2:27.0 3:1081.0 4:3293.0 5:102.0 6:73.0 7:2498.0 8:330.0 9:168.0 10:29.0 11:13.0 12:0.0 
-63200.0 1:32.0 2:32.0 3:3630.0 4:1110.0 5:26.0 6:36.0 7:1094.0 8:3835.0 9:30.0 10:41.0 11:94.0 12:133.0 
-63200.0 1:32.0 2:32.0 3:3526.0 4:1759.0 5:42.0 6:91.0 7:559.0 8:680.0 9:125.0 10:89.0 11:34.0 12:47.0 
-63200.0 1:32.0 2:32.0 3:3407.0 4:30.0 5:5.0 6:15.0 7:30.0 8:20.0 9:0.0 10:11.0 11:0.0 12:4.0 
-63200.0 1:32.0 2:37.0 3:5019.0 4:463.0 5:57.0 6:41.0 7:102.0 8:622.0 9:36.0 10:5.0 11:57.0 12:11.0 
-63200.0 1:32.0 2:27.0 3:1705.0 4:54.0 5:7.0 6:11.0 7:192.0 8:91.0 9:19.0 10:34.0 11:10.0 12:19.0 
-63200.0 1:32.0 2:27.0 3:3876.0 4:54.0 5:12.0 6:16.0 7:16.0 8:77.0 9:2.0 10:7.0 11:8.0 12:12.0 
-63200.0 1:32.0 2:27.0 3:3640.0 4:41.0 5:8.0 6:11.0 7:105.0 8:3.0 9:1.0 10:10.0 11:0.0 12:2.0 
-63200.0 1:32.0 2:22.0 3:3036.0 4:23.0 5:2.0 6:2.0 7:1.0 8:1.0 9:0.0 10:0.0 11:0.0 12:0.0 
-2727.5426582569667 1:32.0 2:27.0 3:940.0 4:2206.0 5:79.0 6:54.0 7:7848.0 8:1030.0 9:317.0 10:216.0 11:72.0 12:23.0 
-63200.0 1:32.0 2:27.0 3:3177.0 4:20.0 5:6.0 6:11.0 7:6.0 8:18.0 9:0.0 10:4.0 11:5.0 12:0.0 
-63200.0 1:32.0 2:32.0 3:3134.0 4:304.0 5:2.0 6:12.0 7:711.0 8:99.0 9:4.0 10:36.0 11:3.0 12:1.0 
-63200.0 1:32.0 2:37.0 3:4786.0 4:208.0 5:19.0 6:9.0 7:267.0 8:104.0 9:13.0 10:5.0 11:13.0 12:2.0 
-63200.0 1:32.0 2:22.0 3:3605.0 4:86.0 5:46.0 6:2.0 7:4.0 8:9.0 9:0.0 10:0.0 11:1.0 12:0.0 
-63200.0 1:32.0 2:27.0 3:2861.0 4:12.0 5:8.0 6:9.0 7:3.0 8:1.0 9:0.0 10:2.0 11:2.0 12:1.0 
-63200.0 1:32.0 2:27.0 3:3809.0 4:66.0 5:8.0 6:5.0 7:80.0 8:51.0 9:1.0 10:1.0 11:5.0 12:0.0 
-63200.0 1:32.0 2:37.0 3:4381.0 4:134.0 5:12.0 6:7.0 7:160.0 8:435.0 9:4.0 10:7.0 11:18.0 12:8.0 
-63200.0 1:32.0 2:37.0 3:3373.0 4:416.0 5:9.0 6:14.0 7:643.0 8:221.0 9:7.0 10:18.0 11:5.0 12:7.0 
-8449.704834038579 1:32.0 2:32.0 3:1981.0 4:314.0 5:0.0 6:32.0 7:1204.0 8:2.0 9:0.0 10:110.0 11:0.0 12:0.0 
-630.7643263644796 1:32.0 2:22.0 3:2679.0 4:10.0 5:3.0 6:2.0 7:2.0 8:6.0 9:0.0 10:1.0 11:0.0 12:0.0 
-63200.0 1:32.0 2:37.0 3:3931.0 4:59.0 5:6.0 6:23.0 7:94.0 8:29.0 9:1.0 10:23.0 11:0.0 12:2.0 
-1173.3191573488232 1:32.0 2:37.0 3:291.0 4:1821.0 5:51.0 6:30.0 7:6735.0 8:6734.0 9:204.0 10:120.0 11:197.0 12:117.0 
-63200.0 1:32.0 2:22.0 3:3378.0 4:26.0 5:9.0 6:9.0 7:4.0 8:18.0 9:5.0 10:4.0 11:0.0 12:3.0 
-31768.206918038035 1:32.0 2:22.0 3:1638.0 4:2.0 5:4.0 6:3.0 7:0.0 8:0.0 9:2.0 10:0.0 11:1.0 12:0.0 
-63200.0 1:32.0 2:27.0 3:3022.0 4:40.0 5:5.0 6:10.0 7:115.0 8:53.0 9:1.0 10:16.0 11:0.0 12:1.0 
-63200.0 1:32.0 2:32.0 3:4492.0 4:155.0 5:19.0 6:42.0 7:96.0 8:30.0 9:2.0 10:10.0 11:3.0 12:4.0 
-63200.0 1:32.0 2:32.0 3:6028.0 4:1434.0 5:51.0 6:65.0 7:45.0 8:1090.0 9:1.0 10:19.0 11:5.0 12:1.0 
-63200.0 1:32.0 2:32.0 3:4569.0 4:164.0 5:20.0 6:19.0 7:112.0 8:22.0 9:7.0 10:5.0 11:6.0 12:5.0 
-3544.2537203542565 1:32.0 2:32.0 3:2394.0 4:5149.0 5:161.0 6:154.0 7:422.0 8:1883.0 9:85.0 10:30.0 11:49.0 12:33.0 
-515.8537552207703 1:32.0 2:37.0 3:103.0 4:3043.0 5:0.0 6:55.0 7:0.0 8:0.0 9:0.0 10:0.0 11:0.0 12:0.0 
-63200.0 1:32.0 2:32.0 3:5739.0 4:912.0 5:52.0 6:58.0 7:613.0 8:140.0 9:38.0 10:33.0 11:6.0 12:8.0 
-41920.15463856999 1:32.0 2:27.0 3:1094.0 4:5786.0 5:62.0 6:0.0 7:123.0 8:14044.0 9:0.0 10:0.0 11:250.0 12:0.0 
-63200.0 1:32.0 2:32.0 3:2304.0 4:10.0 5:5.0 6:7.0 7:26.0 8:23.0 9:4.0 10:11.0 11:5.0 12:10.0 
-2264.5300521067084 1:32.0 2:22.0 3:3727.0 4:1971.0 5:57.0 6:64.0 7:228.0 8:6601.0 9:35.0 10:18.0 11:220.0 12:240.0 
-5632.043960605382 1:32.0 2:27.0 3:1.0 4:203.0 5:0.0 6:19.0 7:809.0 8:0.0 9:0.0 10:79.0 11:0.0 12:0.0 
-63200.0 1:32.0 2:22.0 3:1034.0 4:1.0 5:2.0 6:2.0 7:0.0 8:0.0 9:1.0 10:1.0 11:0.0 12:0.0 
-63200.0 1:32.0 2:27.0 3:4375.0 4:113.0 5:9.0 6:7.0 7:134.0 8:27.0 9:4.0 10:4.0 11:0.0 12:3.0 
-63200.0 1:32.0 2:32.0 3:3815.0 4:793.0 5:32.0 6:31.0 7:2792.0 8:270.0 9:119.0 10:117.0 11:24.0 12:11.0 
-3238.8702645322837 1:32.0 2:22.0 3:1033.0 4:3625.0 5:80.0 6:94.0 7:10591.0 8:854.0 9:247.0 10:223.0 11:7.0 12:3.0 
-63200.0 1:32.0 2:32.0 3:4669.0 4:378.0 5:7.0 6:28.0 7:656.0 8:83.0 9:0.0 10:31.0 11:3.0 12:5.0 
-63200.0 1:32.0 2:32.0 3:4178.0 4:164.0 5:9.0 6:6.0 7:147.0 8:284.0 9:3.0 10:7.0 11:22.0 12:9.0 
-63200.0 1:32.0 2:32.0 3:1736.0 4:49.0 5:8.0 6:5.0 7:160.0 8:143.0 9:1.0 10:5.0 11:16.0 12:2.0 
-3976.1244951755525 1:32.0 2:37.0 3:309.0 4:1029.0 5:0.0 6:67.0 7:3416.0 8:0.0 9:0.0 10:268.0 11:0.0 12:0.0 
-63200.0 1:32.0 2:27.0 3:3389.0 4:27.0 5:6.0 6:12.0 7:14.0 8:13.0 9:0.0 10:1.0 11:0.0 12:0.0 
-63200.0 1:32.0 2:32.0 3:3414.0 4:51.0 5:8.0 6:11.0 7:154.0 8:95.0 9:1.0 10:17.0 11:1.0 12:5.0 
-10211.042179291442 1:32.0 2:37.0 3:2402.0 4:4701.0 5:153.0 6:121.0 7:3839.0 8:2193.0 9:83.0 10:213.0 11:94.0 12:135.0 
-38536.6674192843 1:32.0 2:37.0 3:3972.0 4:1147.0 5:5.0 6:21.0 7:41.0 8:13.0 9:1.0 10:5.0 11:1.0 12:0.0 
-63200.0 1:32.0 2:32.0 3:4012.0 4:63.0 5:24.0 6:20.0 7:5.0 8:35.0 9:1.0 10:1.0 11:9.0 12:4.0 
-63200.0 1:32.0 2:37.0 3:2855.0 4:361.0 5:18.0 6:3.0 7:16.0 8:1212.0 9:1.0 10:0.0 11:56.0 12:1.0 
-63200.0 1:32.0 2:37.0 3:5882.0 4:1253.0 5:23.0 6:41.0 7:730.0 8:585.0 9:3.0 10:31.0 11:6.0 12:0.0 
-63200.0 1:32.0 2:37.0 3:3161.0 4:339.0 5:4.0 6:19.0 7:1184.0 8:127.0 9:2.0 10:57.0 11:0.0 12:3.0 
-63200.0 1:32.0 2:27.0 3:3772.0 4:1326.0 5:54.0 6:73.0 7:2651.0 8:519.0 9:159.0 10:163.0 11:17.0 12:20.0 
-63200.0 1:32.0 2:37.0 3:4680.0 4:493.0 5:19.0 6:10.0 7:121.0 8:792.0 9:1.0 10:4.0 11:40.0 12:10.0 
-63200.0 1:32.0 2:32.0 3:4500.0 4:167.0 5:25.0 6:10.0 7:80.0 8:22.0 9:3.0 10:6.0 11:19.0 12:0.0 
-63200.0 1:32.0 2:37.0 3:4479.0 4:879.0 5:11.0 6:20.0 7:1139.0 8:418.0 9:9.0 10:29.0 11:0.0 12:0.0 
-63200.0 1:32.0 2:32.0 3:4398.0 4:138.0 5:11.0 6:8.0 7:136.0 8:111.0 9:5.0 10:1.0 11:9.0 12:0.0 
-63200.0 1:32.0 2:37.0 3:4126.0 4:81.0 5:17.0 6:22.0 7:77.0 8:44.0 9:10.0 10:12.0 11:4.0 12:4.0 
-837.2828089822856 1:32.0 2:22.0 3:597.0 4:4790.0 5:108.0 6:89.0 7:2133.0 8:2986.0 9:61.0 10:3.0 11:39.0 12:29.0 
-63200.0 1:32.0 2:27.0 3:5165.0 4:408.0 5:25.0 6:16.0 7:88.0 8:76.0 9:0.0 10:6.0 11:11.0 12:6.0 
-63200.0 1:32.0 2:27.0 3:3764.0 4:105.0 5:10.0 6:4.0 7:90.0 8:254.0 9:2.0 10:0.0 11:21.0 12:3.0 
-63200.0 1:32.0 2:27.0 3:3472.0 4:30.0 5:10.0 6:12.0 7:0.0 8:1.0 9:2.0 10:1.0 11:0.0 12:0.0 
-63200.0 1:32.0 2:27.0 3:3247.0 4:23.0 5:7.0 6:7.0 7:1.0 8:32.0 9:1.0 10:0.0 11:3.0 12:1.0 
-63200.0 1:32.0 2:22.0 3:3486.0 4:32.0 5:18.0 6:7.0 7:0.0 8:3.0 9:6.0 10:1.0 11:1.0 12:0.0 
-604.3014230760616 1:32.0 2:37.0 3:3841.0 4:6038.0 5:4.0 6:80.0 7:11028.0 8:15.0 9:5.0 10:297.0 11:1.0 12:2.0 
-63200.0 1:32.0 2:37.0 3:5248.0 4:414.0 5:52.0 6:32.0 7:33.0 8:150.0 9:1.0 10:0.0 11:6.0 12:10.0 
-63200.0 1:32.0 2:27.0 3:3689.0 4:43.0 5:35.0 6:8.0 7:13.0 8:5.0 9:5.0 10:2.0 11:2.0 12:0.0 
-63200.0 1:32.0 2:32.0 3:4087.0 4:85.0 5:11.0 6:34.0 7:23.0 8:109.0 9:3.0 10:0.0 11:4.0 12:26.0 
-1730.4057229186226 1:32.0 2:37.0 3:4001.0 4:1852.0 5:87.0 6:78.0 7:4639.0 8:113.0 9:259.0 10:197.0 11:24.0 12:17.0 
-1274.5899553673255 1:32.0 2:32.0 3:2489.0 4:5517.0 5:163.0 6:149.0 7:529.0 8:1507.0 9:27.0 10:11.0 11:99.0 12:15.0 
-49547.282481008864 1:32.0 2:37.0 3:3009.0 4:2746.0 5:102.0 6:0.0 7:167.0 8:4718.0 9:1.0 10:0.0 11:61.0 12:3.0 
-10588.52939121352 1:32.0 2:32.0 3:652.0 4:1283.0 5:10.0 6:72.0 7:2218.0 8:1000.0 9:41.0 10:246.0 11:41.0 12:21.0 
-63200.0 1:32.0 2:22.0 3:3773.0 4:62.0 5:7.0 6:6.0 7:77.0 8:68.0 9:3.0 10:1.0 11:6.0 12:1.0 
-2960.6511784380314 1:32.0 2:27.0 3:1231.0 4:3221.0 5:108.0 6:68.0 7:6530.0 8:1336.0 9:242.0 10:111.0 11:82.0 12:19.0 
-63200.0 1:32.0 2:27.0 3:4781.0 4:521.0 5:17.0 6:130.0 7:49.0 8:181.0 9:3.0 10:2.0 11:11.0 12:21.0 
-63200.0 1:32.0 2:37.0 3:4685.0 4:177.0 5:23.0 6:45.0 7:84.0 8:2.0 9:15.0 10:18.0 11:10.0 12:5.0 
-63200.0 1:32.0 2:22.0 3:3851.0 4:63.0 5:17.0 6:11.0 7:7.0 8:153.0 9:6.0 10:0.0 11:30.0 12:10.0 
-63200.0 1:32.0 2:37.0 3:3431.0 4:182.0 5:10.0 6:7.0 7:589.0 8:564.0 9:15.0 10:13.0 11:23.0 12:9.0 
-53858.274079452036 1:32.0 2:37.0 3:4219.0 4:152.0 5:7.0 6:11.0 7:253.0 8:168.0 9:0.0 10:14.0 11:1.0 12:1.0 
-34310.21050451805 1:32.0 2:22.0 3:3243.0 4:1877.0 5:55.0 6:34.0 7:4702.0 8:4084.0 9:136.0 10:97.0 11:95.0 12:119.0 
-1207.1271452361784 1:32.0 2:22.0 3:1074.0 4:3056.0 5:75.0 6:80.0 7:9005.0 8:406.0 9:226.0 10:184.0 11:46.0 12:7.0 
-63200.0 1:32.0 2:37.0 3:4007.0 4:80.0 5:13.0 6:8.0 7:179.0 8:88.0 9:19.0 10:5.0 11:16.0 12:3.0 
-6535.442877649977 1:32.0 2:32.0 3:501.0 4:2320.0 5:54.0 6:59.0 7:4154.0 8:3471.0 9:78.0 10:97.0 11:58.0 12:85.0 
-63200.0 1:32.0 2:27.0 3:4854.0 4:345.0 5:20.0 6:91.0 7:46.0 8:133.0 9:3.0 10:0.0 11:20.0 12:21.0 
-63200.0 1:32.0 2:37.0 3:4906.0 4:264.0 5:19.0 6:82.0 7:64.0 8:100.0 9:13.0 10:6.0 11:10.0 12:35.0 
-63200.0 1:32.0 2:27.0 3:3470.0 4:35.0 5:14.0 6:7.0 7:16.0 8:4.0 9:1.0 10:0.0 11:0.0 12:0.0 
-63200.0 1:32.0 2:27.0 3:5217.0 4:442.0 5:46.0 6:34.0 7:24.0 8:555.0 9:2.0 10:15.0 11:21.0 12:4.0 
-63200.0 1:32.0 2:37.0 3:5231.0 4:1773.0 5:26.0 6:13.0 7:718.0 8:151.0 9:3.0 10:0.0 11:4.0 12:7.0 
-63200.0 1:32.0 2:27.0 3:3568.0 4:40.0 5:8.0 6:7.0 7:28.0 8:42.0 9:5.0 10:0.0 11:4.0 12:0.0 
-63200.0 1:32.0 2:22.0 3:2280.0 4:6.0 5:6.0 6:5.0 7:1.0 8:0.0 9:0.0 10:0.0 11:2.0 12:1.0 
-63200.0 1:32.0 2:32.0 3:4467.0 4:139.0 5:20.0 6:7.0 7:18.0 8:218.0 9:1.0 10:0.0 11:33.0 12:2.0 
-63200.0 1:32.0 2:37.0 3:5034.0 4:325.0 5:12.0 6:98.0 7:54.0 8:507.0 9:5.0 10:0.0 11:10.0 12:119.0 
-63200.0 1:32.0 2:32.0 3:3520.0 4:34.0 5:28.0 6:11.0 7:52.0 8:6.0 9:30.0 10:5.0 11:5.0 12:0.0 
-63200.0 1:32.0 2:22.0 3:2991.0 4:15.0 5:18.0 6:4.0 7:1.0 8:6.0 9:1.0 10:0.0 11:7.0 12:0.0 
-63200.0 1:32.0 2:22.0 3:2657.0 4:10.0 5:10.0 6:4.0 7:4.0 8:10.0 9:4.0 10:0.0 11:8.0 12:1.0 
-63200.0 1:32.0 2:22.0 3:3521.0 4:36.0 5:8.0 6:6.0 7:20.0 8:11.0 9:4.0 10:1.0 11:1.0 12:0.0 
-63200.0 1:32.0 2:32.0 3:5277.0 4:445.0 5:52.0 6:41.0 7:135.0 8:58.0 9:3.0 10:25.0 11:11.0 12:8.0 
-63200.0 1:32.0 2:22.0 3:5764.0 4:1005.0 5:60.0 6:51.0 7:853.0 8:458.0 9:22.0 10:4.0 11:43.0 12:1.0 
-63200.0 1:32.0 2:27.0 3:3389.0 4:28.0 5:8.0 6:8.0 7:2.0 8:9.0 9:1.0 10:1.0 11:0.0 12:1.0 
-1747.995638370251 1:32.0 2:22.0 3:862.0 4:3122.0 5:75.0 6:81.0 7:10844.0 8:636.0 9:293.0 10:316.0 11:17.0 12:53.0 
-63200.0 1:32.0 2:22.0 3:3957.0 4:61.0 5:28.0 6:18.0 7:43.0 8:3.0 9:7.0 10:8.0 11:3.0 12:4.0 
-2726.3822139421472 1:32.0 2:32.0 3:6146.0 4:2412.0 5:43.0 6:216.0 7:58.0 8:76.0 9:24.0 10:66.0 11:13.0 12:45.0 
-63200.0 1:32.0 2:27.0 3:3641.0 4:44.0 5:5.0 6:10.0 7:7.0 8:4.0 9:0.0 10:9.0 11:0.0 12:1.0 
-63200.0 1:32.0 2:37.0 3:4754.0 4:222.0 5:19.0 6:19.0 7:26.0 8:418.0 9:4.0 10:15.0 11:1.0 12:13.0 
-63200.0 1:32.0 2:32.0 3:4080.0 4:73.0 5:24.0 6:27.0 7:35.0 8:38.0 9:2.0 10:12.0 11:3.0 12:3.0 
-63200.0 1:32.0 2:22.0 3:4627.0 4:2491.0 5:82.0 6:97.0 7:2034.0 8:1175.0 9:38.0 10:57.0 11:46.0 12:53.0 
-21768.82353410975 1:32.0 2:27.0 3:1097.0 4:6061.0 5:62.0 6:0.0 7:204.0 8:14713.0 9:0.0 10:0.0 11:249.0 12:0.0 
-63200.0 1:32.0 2:22.0 3:3339.0 4:1090.0 5:38.0 6:41.0 7:4005.0 8:1111.0 9:145.0 10:157.0 11:54.0 12:33.0 
-63200.0 1:32.0 2:27.0 3:2963.0 4:1223.0 5:1.0 6:57.0 7:1861.0 8:65.0 9:0.0 10:114.0 11:1.0 12:1.0 
-63200.0 1:32.0 2:27.0 3:4230.0 4:105.0 5:9.0 6:8.0 7:1.0 8:98.0 9:0.0 10:3.0 11:7.0 12:0.0 
-63200.0 1:32.0 2:32.0 3:4464.0 4:147.0 5:19.0 6:12.0 7:219.0 8:295.0 9:6.0 10:3.0 11:21.0 12:1.0 
-63200.0 1:32.0 2:22.0 3:3554.0 4:159.0 5:15.0 6:13.0 7:561.0 8:6.0 9:51.0 10:44.0 11:2.0 12:8.0 
-63200.0 1:32.0 2:32.0 3:5071.0 4:445.0 5:14.0 6:62.0 7:164.0 8:100.0 9:1.0 10:10.0 11:11.0 12:86.0 
-63200.0 1:32.0 2:32.0 3:3453.0 4:55.0 5:7.0 6:6.0 7:118.0 8:140.0 9:5.0 10:3.0 11:9.0 12:2.0 
-1138.2251794202728 1:32.0 2:32.0 3:2462.0 4:4758.0 5:106.0 6:103.0 7:8009.0 8:4682.0 9:129.0 10:51.0 11:71.0 12:86.0 
-63200.0 1:32.0 2:32.0 3:4271.0 4:102.0 5:9.0 6:25.0 7:85.0 8:0.0 9:9.0 10:7.0 11:3.0 12:1.0 
-63200.0 1:32.0 2:27.0 3:4122.0 4:75.0 5:22.0 6:26.0 7:87.0 8:11.0 9:20.0 10:8.0 11:5.0 12:1.0 
-63200.0 1:32.0 2:32.0 3:4512.0 4:159.0 5:19.0 6:7.0 7:136.0 8:439.0 9:5.0 10:1.0 11:37.0 12:0.0 
-63200.0 1:32.0 2:37.0 3:3963.0 4:76.0 5:23.0 6:10.0 7:118.0 8:121.0 9:43.0 10:12.0 11:11.0 12:3.0 
-63200.0 1:32.0 2:32.0 3:3539.0 4:38.0 5:5.0 6:14.0 7:58.0 8:15.0 9:0.0 10:6.0 11:0.0 12:3.0 
-12865.093856009706 1:32.0 2:27.0 3:3423.0 4:63.0 5:38.0 6:0.0 7:5.0 8:0.0 9:2.0 10:0.0 11:5.0 12:0.0 
-63200.0 1:32.0 2:37.0 3:3891.0 4:71.0 5:6.0 6:18.0 7:167.0 8:15.0 9:2.0 10:23.0 11:0.0 12:0.0 
-63200.0 1:32.0 2:27.0 3:4025.0 4:85.0 5:7.0 6:15.0 7:122.0 8:3.0 9:1.0 10:16.0 11:2.0 12:2.0 
-63200.0 1:32.0 2:32.0 3:4593.0 4:233.0 5:16.0 6:7.0 7:173.0 8:400.0 9:4.0 10:0.0 11:17.0 12:1.0 
-63200.0 1:32.0 2:22.0 3:3530.0 4:1759.0 5:42.0 6:91.0 7:561.0 8:680.0 9:125.0 10:89.0 11:34.0 12:47.0 
-63200.0 1:32.0 2:27.0 3:3538.0 4:35.0 5:6.0 6:13.0 7:1.0 8:23.0 9:0.0 10:0.0 11:6.0 12:7.0 
-63200.0 1:32.0 2:22.0 3:4178.0 4:145.0 5:19.0 6:18.0 7:378.0 8:300.0 9:57.0 10:59.0 11:22.0 12:41.0 
-63200.0 1:32.0 2:22.0 3:4753.0 4:244.0 5:28.0 6:29.0 7:7.0 8:200.0 9:0.0 10:0.0 11:1.0 12:2.0 
-63200.0 1:32.0 2:27.0 3:3524.0 4:34.0 5:14.0 6:16.0 7:22.0 8:9.0 9:0.0 10:5.0 11:2.0 12:3.0 
-63200.0 1:32.0 2:37.0 3:3690.0 4:82.0 5:8.0 6:15.0 7:222.0 8:120.0 9:0.0 10:26.0 11:1.0 12:7.0 
-63200.0 1:32.0 2:37.0 3:3845.0 4:57.0 5:21.0 6:21.0 7:48.0 8:41.0 9:8.0 10:13.0 11:8.0 12:4.0 
-63200.0 1:32.0 2:27.0 3:2963.0 4:15.0 5:5.0 6:10.0 7:4.0 8:11.0 9:0.0 10:0.0 11:1.0 12:5.0 
-63200.0 1:32.0 2:32.0 3:4734.0 4:299.0 5:17.0 6:7.0 7:101.0 8:215.0 9:2.0 10:3.0 11:15.0 12:1.0 
-63200.0 1:32.0 2:27.0 3:5045.0 4:370.0 5:20.0 6:73.0 7:269.0 8:278.0 9:19.0 10:25.0 11:17.0 12:48.0 
-518.5527057265103 1:32.0 2:37.0 3:1893.0 4:4745.0 5:136.0 6:123.0 7:4878.0 8:4913.0 9:202.0 10:181.0 11:179.0 12:155.0 
-63200.0 1:32.0 2:27.0 3:1813.0 4:67.0 5:6.0 6:0.0 7:1.0 8:200.0 9:0.0 10:0.0 11:26.0 12:0.0 
-63200.0 1:32.0 2:22.0 3:2866.0 4:17.0 5:2.0 6:1.0 7:2.0 8:2.0 9:0.0 10:0.0 11:0.0 12:0.0 
-63200.0 1:32.0 2:27.0 3:3496.0 4:78.0 5:42.0 6:1.0 7:16.0 8:22.0 9:5.0 10:0.0 11:6.0 12:0.0 
-63200.0 1:32.0 2:27.0 3:4232.0 4:1099.0 5:21.0 6:11.0 7:232.0 8:956.0 9:0.0 10:1.0 11:25.0 12:11.0 
-63200.0 1:32.0 2:22.0 3:3126.0 4:53.0 5:44.0 6:0.0 7:3.0 8:13.0 9:0.0 10:0.0 11:8.0 12:1.0 
-2768.982864664388 1:32.0 2:37.0 3:514.0 4:1802.0 5:62.0 6:42.0 7:1544.0 8:6663.0 9:59.0 10:23.0 11:249.0 12:170.0 
-63200.0 1:32.0 2:22.0 3:3294.0 4:23.0 5:20.0 6:7.0 7:9.0 8:3.0 9:7.0 10:3.0 11:1.0 12:0.0 
-1114.3966188784284 1:32.0 2:22.0 3:1759.0 4:4213.0 5:117.0 6:105.0 7:4834.0 8:2965.0 9:105.0 10:141.0 11:65.0 12:81.0 
-63200.0 1:32.0 2:22.0 3:3022.0 4:17.0 5:7.0 6:6.0 7:16.0 8:20.0 9:1.0 10:1.0 11:0.0 12:0.0 
-33817.11651759671 1:32.0 2:22.0 3:2043.0 4:732.0 5:0.0 6:39.0 7:759.0 8:0.0 9:0.0 10:79.0 11:0.0 12:0.0 
-63200.0 1:32.0 2:27.0 3:3014.0 4:16.0 5:8.0 6:11.0 7:10.0 8:6.0 9:0.0 10:0.0 11:0.0 12:2.0 
-63200.0 1:32.0 2:22.0 3:5277.0 4:432.0 5:61.0 6:57.0 7:172.0 8:60.0 9:23.0 10:0.0 11:4.0 12:7.0 
-63200.0 1:32.0 2:32.0 3:4195.0 4:124.0 5:11.0 6:10.0 7:142.0 8:209.0 9:1.0 10:2.0 11:10.0 12:9.0 
-63200.0 1:32.0 2:37.0 3:3542.0 4:58.0 5:6.0 6:17.0 7:183.0 8:18.0 9:1.0 10:32.0 11:0.0 12:1.0 
-63200.0 1:32.0 2:32.0 3:3950.0 4:67.0 5:9.0 6:13.0 7:54.0 8:64.0 9:1.0 10:1.0 11:5.0 12:11.0 
-63200.0 1:32.0 2:37.0 3:4923.0 4:298.0 5:32.0 6:28.0 7:521.0 8:132.0 9:37.0 10:27.0 11:5.0 12:8.0 
-63200.0 1:32.0 2:27.0 3:5323.0 4:733.0 5:43.0 6:28.0 7:1257.0 8:1532.0 9:43.0 10:4.0 11:18.0 12:1.0 
-63200.0 1:32.0 2:37.0 3:5007.0 4:630.0 5:19.0 6:57.0 7:965.0 8:297.0 9:5.0 10:112.0 11:0.0 12:20.0 
-866.3187396013726 1:32.0 2:22.0 3:867.0 4:2373.0 5:0.0 6:80.0 7:8161.0 8:0.0 9:0.0 10:285.0 11:0.0 12:0.0 
-63200.0 1:32.0 2:37.0 3:5791.0 4:1768.0 5:209.0 6:17.0 7:247.0 8:644.0 9:30.0 10:14.0 11:45.0 12:3.0 
-11365.185600478802 1:32.0 2:37.0 3:1154.0 4:2185.0 5:67.0 6:79.0 7:3729.0 8:1851.0 9:166.0 10:74.0 11:92.0 12:121.0 
-63200.0 1:32.0 2:27.0 3:3487.0 4:33.0 5:21.0 6:6.0 7:12.0 8:15.0 9:11.0 10:3.0 11:0.0 12:1.0 
-63200.0 1:32.0 2:27.0 3:3222.0 4:21.0 5:7.0 6:8.0 7:9.0 8:18.0 9:0.0 10:2.0 11:1.0 12:1.0 
-63200.0 1:32.0 2:27.0 3:3309.0 4:75.0 5:46.0 6:0.0 7:13.0 8:18.0 9:7.0 10:0.0 11:11.0 12:0.0 
-63200.0 1:32.0 2:22.0 3:2889.0 4:13.0 5:5.0 6:4.0 7:7.0 8:12.0 9:1.0 10:0.0 11:2.0 12:0.0 
-63200.0 1:32.0 2:22.0 3:5303.0 4:495.0 5:51.0 6:43.0 7:12.0 8:321.0 9:31.0 10:27.0 11:0.0 12:37.0 
-26874.341050201685 1:32.0 2:32.0 3:1360.0 4:1127.0 5:0.0 6:43.0 7:4132.0 8:41.0 9:0.0 10:74.0 11:0.0 12:0.0 
-52912.45707174683 1:32.0 2:37.0 3:2762.0 4:2124.0 5:140.0 6:0.0 7:0.0 8:2084.0 9:0.0 10:0.0 11:76.0 12:0.0 
-63200.0 1:32.0 2:27.0 3:3471.0 4:30.0 5:17.0 6:12.0 7:39.0 8:9.0 9:14.0 10:9.0 11:3.0 12:2.0 
-63200.0 1:32.0 2:22.0 3:2832.0 4:16.0 5:2.0 6:1.0 7:4.0 8:4.0 9:0.0 10:0.0 11:0.0 12:0.0 
-63200.0 1:32.0 2:37.0 3:5114.0 4:1220.0 5:28.0 6:13.0 7:1629.0 8:1578.0 9:6.0 10:0.0 11:34.0 12:9.0 
-63200.0 1:32.0 2:22.0 3:3599.0 4:86.0 5:47.0 6:1.0 7:5.0 8:9.0 9:3.0 10:0.0 11:2.0 12:0.0 
-63200.0 1:32.0 2:22.0 3:3572.0 4:41.0 5:4.0 6:4.0 7:32.0 8:4.0 9:1.0 10:1.0 11:2.0 12:0.0 
-3476.612010432244 1:32.0 2:37.0 3:1731.0 4:2463.0 5:2.0 6:79.0 7:8000.0 8:123.0 9:9.0 10:283.0 11:1.0 12:0.0 
-63200.0 1:32.0 2:27.0 3:3900.0 4:967.0 5:35.0 6:34.0 7:3689.0 8:3017.0 9:118.0 10:108.0 11:101.0 12:106.0 
-63200.0 1:32.0 2:32.0 3:1728.0 4:167.0 5:5.0 6:7.0 7:563.0 8:543.0 9:12.0 10:23.0 11:9.0 12:16.0 
-63200.0 1:32.0 2:37.0 3:2823.0 4:86.0 5:8.0 6:10.0 7:305.0 8:299.0 9:6.0 10:12.0 11:1.0 12:10.0 
-63200.0 1:32.0 2:22.0 3:3355.0 4:29.0 5:17.0 6:6.0 7:38.0 8:29.0 9:3.0 10:5.0 11:3.0 12:0.0 
-63200.0 1:32.0 2:32.0 3:2510.0 4:58.0 5:6.0 6:4.0 7:208.0 8:204.0 9:12.0 10:3.0 11:13.0 12:4.0 
-63200.0 1:32.0 2:32.0 3:4821.0 4:229.0 5:40.0 6:40.0 7:91.0 8:170.0 9:0.0 10:7.0 11:16.0 12:10.0 
-63200.0 1:32.0 2:27.0 3:3552.0 4:38.0 5:8.0 6:7.0 7:50.0 8:40.0 9:0.0 10:0.0 11:3.0 12:2.0 
-63200.0 1:32.0 2:32.0 3:3068.0 4:17.0 5:15.0 6:9.0 7:17.0 8:15.0 9:11.0 10:3.0 11:7.0 12:1.0 
-63200.0 1:32.0 2:27.0 3:3043.0 4:17.0 5:7.0 6:7.0 7:2.0 8:15.0 9:0.0 10:1.0 11:0.0 12:2.0 
-63200.0 1:32.0 2:32.0 3:4350.0 4:448.0 5:21.0 6:11.0 7:123.0 8:11.0 9:1.0 10:2.0 11:7.0 12:1.0 
-63200.0 1:32.0 2:27.0 3:3680.0 4:40.0 5:12.0 6:14.0 7:32.0 8:13.0 9:1.0 10:3.0 11:0.0 12:9.0 
-63200.0 1:32.0 2:32.0 3:3368.0 4:27.0 5:15.0 6:7.0 7:3.0 8:7.0 9:13.0 10:0.0 11:13.0 12:3.0 
-63200.0 1:32.0 2:32.0 3:4594.0 4:176.0 5:24.0 6:19.0 7:111.0 8:66.0 9:3.0 10:4.0 11:16.0 12:15.0 
-63200.0 1:32.0 2:37.0 3:4733.0 4:250.0 5:5.0 6:16.0 7:196.0 8:63.0 9:0.0 10:6.0 11:1.0 12:9.0 
-12450.15445809951 1:32.0 2:37.0 3:2518.0 4:2389.0 5:0.0 6:40.0 7:6045.0 8:77.0 9:0.0 10:159.0 11:0.0 12:0.0 
-33531.00627635259 1:32.0 2:27.0 3:2601.0 4:4347.0 5:154.0 6:129.0 7:419.0 8:60.0 9:64.0 10:74.0 11:0.0 12:5.0 
-63200.0 1:32.0 2:37.0 3:4785.0 4:349.0 5:14.0 6:90.0 7:89.0 8:371.0 9:3.0 10:6.0 11:5.0 12:96.0 
-16931.122183028598 1:32.0 2:37.0 3:2549.0 4:119.0 5:4.0 6:4.0 7:428.0 8:429.0 9:8.0 10:12.0 11:7.0 12:11.0 
-63200.0 1:32.0 2:37.0 3:4682.0 4:281.0 5:7.0 6:13.0 7:171.0 8:310.0 9:1.0 10:6.0 11:2.0 12:1.0 
-63200.0 1:32.0 2:32.0 3:4091.0 4:201.0 5:8.0 6:15.0 7:534.0 8:206.0 9:1.0 10:30.0 11:0.0 12:0.0 
-63200.0 1:32.0 2:22.0 3:1401.0 4:16.0 5:2.0 6:3.0 7:59.0 8:60.0 9:4.0 10:5.0 11:5.0 12:6.0 
-2363.9584227969885 1:32.0 2:22.0 3:655.0 4:3921.0 5:86.0 6:73.0 7:885.0 8:3982.0 9:17.0 10:13.0 11:27.0 12:71.0 
-63200.0 1:32.0 2:27.0 3:3782.0 4:74.0 5:6.0 6:7.0 7:30.0 8:161.0 9:0.0 10:0.0 11:2.0 12:4.0 
-63200.0 1:32.0 2:22.0 3:4082.0 4:81.0 5:7.0 6:2.0 7:9.0 8:32.0 9:1.0 10:0.0 11:4.0 12:0.0 
-63200.0 1:32.0 2:32.0 3:5443.0 4:559.0 5:16.0 6:8.0 7:152.0 8:159.0 9:0.0 10:7.0 11:7.0 12:2.0 
-63200.0 1:32.0 2:22.0 3:1616.0 4:1142.0 5:44.0 6:60.0 7:1098.0 8:545.0 9:95.0 10:19.0 11:49.0 12:42.0 
-63200.0 1:32.0 2:32.0 3:3833.0 4:98.0 5:20.0 6:7.0 7:0.0 8:225.0 9:2.0 10:3.0 11:53.0 12:1.0 
-63200.0 1:32.0 2:27.0 3:2879.0 4:16.0 5:8.0 6:8.0 7:16.0 8:12.0 9:0.0 10:1.0 11:1.0 12:0.0 
-63200.0 1:32.0 2:27.0 3:3895.0 4:67.0 5:19.0 6:8.0 7:103.0 8:188.0 9:6.0 10:6.0 11:14.0 12:8.0 
-63200.0 1:32.0 2:37.0 3:4367.0 4:125.0 5:22.0 6:26.0 7:52.0 8:150.0 9:10.0 10:13.0 11:8.0 12:5.0 
-63200.0 1:32.0 2:32.0 3:2901.0 4:113.0 5:0.0 6:13.0 7:286.0 8:0.0 9:0.0 10:30.0 11:0.0 12:0.0 
-63200.0 1:32.0 2:37.0 3:5171.0 4:457.0 5:22.0 6:28.0 7:271.0 8:271.0 9:16.0 10:6.0 11:18.0 12:9.0 
-63200.0 1:32.0 2:27.0 3:3323.0 4:32.0 5:5.0 6:6.0 7:43.0 8:31.0 9:2.0 10:3.0 11:2.0 12:1.0 
-63200.0 1:32.0 2:32.0 3:4492.0 4:150.0 5:12.0 6:9.0 7:190.0 8:147.0 9:2.0 10:2.0 11:8.0 12:4.0 
-63200.0 1:32.0 2:27.0 3:3605.0 4:74.0 5:38.0 6:2.0 7:0.0 8:49.0 9:1.0 10:0.0 11:16.0 12:0.0 
-63200.0 1:32.0 2:22.0 3:2325.0 4:6.0 5:3.0 6:3.0 7:1.0 8:1.0 9:1.0 10:1.0 11:0.0 12:0.0 
-63200.0 1:32.0 2:22.0 3:4603.0 4:2250.0 5:83.0 6:92.0 7:1503.0 8:2451.0 9:95.0 10:65.0 11:113.0 12:166.0 
-63200.0 1:32.0 2:22.0 3:3553.0 4:35.0 5:19.0 6:7.0 7:11.0 8:12.0 9:9.0 10:1.0 11:1.0 12:1.0 
-63200.0 1:32.0 2:32.0 3:3977.0 4:68.0 5:13.0 6:12.0 7:53.0 8:24.0 9:3.0 10:1.0 11:7.0 12:2.0 
-63200.0 1:32.0 2:22.0 3:2721.0 4:14.0 5:2.0 6:1.0 7:1.0 8:1.0 9:0.0 10:0.0 11:0.0 12:0.0 
-63200.0 1:32.0 2:27.0 3:3696.0 4:46.0 5:6.0 6:19.0 7:43.0 8:3.0 9:0.0 10:14.0 11:0.0 12:3.0 
-63200.0 1:32.0 2:32.0 3:5065.0 4:365.0 5:19.0 6:78.0 7:278.0 8:33.0 9:2.0 10:47.0 11:13.0 12:27.0 
-63200.0 1:32.0 2:32.0 3:5344.0 4:458.0 5:41.0 6:45.0 7:772.0 8:143.0 9:34.0 10:35.0 11:12.0 12:0.0 
-63200.0 1:32.0 2:27.0 3:4036.0 4:72.0 5:7.0 6:14.0 7:61.0 8:51.0 9:0.0 10:3.0 11:7.0 12:3.0 
-5203.352788157637 1:32.0 2:27.0 3:980.0 4:3144.0 5:87.0 6:76.0 7:7163.0 8:1054.0 9:285.0 10:178.0 11:42.0 12:22.0 
-63200.0 1:32.0 2:32.0 3:3393.0 4:27.0 5:11.0 6:14.0 7:17.0 8:2.0 9:0.0 10:4.0 11:8.0 12:7.0 
-63200.0 1:32.0 2:37.0 3:4215.0 4:708.0 5:9.0 6:20.0 7:1166.0 8:99.0 9:1.0 10:44.0 11:1.0 12:2.0 
-63200.0 1:32.0 2:37.0 3:2862.0 4:103.0 5:7.0 6:4.0 7:361.0 8:337.0 9:16.0 10:6.0 11:19.0 12:6.0 
-63200.0 1:32.0 2:32.0 3:4184.0 4:272.0 5:8.0 6:22.0 7:917.0 8:119.0 9:3.0 10:40.0 11:0.0 12:4.0 
-63200.0 1:32.0 2:37.0 3:5017.0 4:298.0 5:19.0 6:71.0 7:188.0 8:234.0 9:2.0 10:54.0 11:1.0 12:8.0 
-14628.224923549373 1:32.0 2:27.0 3:924.0 4:2660.0 5:84.0 6:58.0 7:3436.0 8:1066.0 9:152.0 10:33.0 11:7.0 12:31.0 
-63200.0 1:32.0 2:32.0 3:4649.0 4:189.0 5:25.0 6:20.0 7:30.0 8:143.0 9:11.0 10:13.0 11:19.0 12:23.0 
-63200.0 1:32.0 2:22.0 3:2473.0 4:8.0 5:3.0 6:2.0 7:2.0 8:5.0 9:0.0 10:0.0 11:3.0 12:2.0 
-63200.0 1:32.0 2:32.0 3:3015.0 4:1207.0 5:1.0 6:58.0 7:1933.0 8:71.0 9:0.0 10:119.0 11:2.0 12:6.0 
-63200.0 1:64.0 2:32.0 3:3448.0 4:31.0 5:8.0 6:8.0 7:17.0 8:0.0 9:1.0 10:0.0 11:0.0 12:0.0 
-63200.0 1:64.0 2:27.0 3:3784.0 4:61.0 5:2.0 6:1.0 7:9.0 8:8.0 9:0.0 10:0.0 11:0.0 12:0.0 
-63200.0 1:64.0 2:37.0 3:4543.0 4:206.0 5:8.0 6:18.0 7:225.0 8:28.0 9:0.0 10:3.0 11:0.0 12:0.0 
-63200.0 1:64.0 2:27.0 3:2619.0 4:8.0 5:6.0 6:5.0 7:0.0 8:3.0 9:0.0 10:0.0 11:0.0 12:0.0 
-63200.0 1:64.0 2:22.0 3:2251.0 4:6.0 5:5.0 6:4.0 7:0.0 8:2.0 9:0.0 10:0.0 11:0.0 12:0.0 
-63200.0 1:64.0 2:27.0 3:2500.0 4:7.0 5:6.0 6:5.0 7:0.0 8:2.0 9:0.0 10:0.0 11:0.0 12:0.0 
-63200.0 1:64.0 2:27.0 3:2814.0 4:12.0 5:9.0 6:8.0 7:0.0 8:0.0 9:0.0 10:0.0 11:0.0 12:0.0 
-446.7260779365522 1:64.0 2:32.0 3:4037.0 4:3061.0 5:6.0 6:45.0 7:11950.0 8:90.0 9:6.0 10:152.0 11:0.0 12:0.0 
-425.026831487162 1:64.0 2:37.0 3:2235.0 4:6045.0 5:62.0 6:2.0 7:11.0 8:15122.0 9:1.0 10:0.0 11:125.0 12:11.0 
-63200.0 1:64.0 2:27.0 3:2556.0 4:8.0 5:6.0 6:7.0 7:1.0 8:2.0 9:0.0 10:0.0 11:0.0 12:0.0 
-63200.0 1:64.0 2:37.0 3:4802.0 4:256.0 5:17.0 6:20.0 7:428.0 8:45.0 9:12.0 10:0.0 11:1.0 12:2.0 
-63200.0 1:64.0 2:32.0 3:4267.0 4:148.0 5:15.0 6:7.0 7:29.0 8:416.0 9:0.0 10:1.0 11:15.0 12:0.0 
-63200.0 1:64.0 2:32.0 3:3986.0 4:61.0 5:13.0 6:12.0 7:23.0 8:60.0 9:0.0 10:2.0 11:2.0 12:0.0 
-63200.0 1:64.0 2:27.0 3:2781.0 4:11.0 5:7.0 6:8.0 7:1.0 8:3.0 9:0.0 10:0.0 11:0.0 12:1.0 
-63200.0 1:64.0 2:37.0 3:4535.0 4:160.0 5:21.0 6:41.0 7:68.0 8:23.0 9:0.0 10:5.0 11:0.0 12:5.0 
-63200.0 1:64.0 2:32.0 3:3467.0 4:30.0 5:6.0 6:5.0 7:14.0 8:12.0 9:2.0 10:1.0 11:0.0 12:0.0 
-63200.0 1:64.0 2:37.0 3:4281.0 4:99.0 5:9.0 6:11.0 7:10.0 8:42.0 9:1.0 10:3.0 11:5.0 12:7.0 
-63200.0 1:64.0 2:27.0 3:3067.0 4:17.0 5:6.0 6:5.0 7:3.0 8:8.0 9:1.0 10:0.0 11:1.0 12:0.0 
-63200.0 1:64.0 2:37.0 3:3651.0 4:39.0 5:6.0 6:16.0 7:22.0 8:32.0 9:0.0 10:2.0 11:0.0 12:5.0 
-63200.0 1:64.0 2:27.0 3:4107.0 4:73.0 5:18.0 6:19.0 7:47.0 8:56.0 9:4.0 10:5.0 11:3.0 12:5.0 
-63200.0 1:64.0 2:27.0 3:3548.0 4:69.0 5:49.0 6:0.0 7:6.0 8:17.0 9:4.0 10:0.0 11:1.0 12:0.0 
-63200.0 1:64.0 2:32.0 3:3955.0 4:112.0 5:6.0 6:14.0 7:301.0 8:8.0 9:0.0 10:15.0 11:0.0 12:0.0 
-63200.0 1:64.0 2:32.0 3:3805.0 4:51.0 5:6.0 6:8.0 7:51.0 8:21.0 9:0.0 10:7.0 11:0.0 12:1.0 
-4081.3338157093503 1:64.0 2:22.0 3:1000.0 4:0.0 5:0.0 6:0.0 7:0.0 8:0.0 9:0.0 10:0.0 11:0.0 12:0.0 
-63200.0 1:64.0 2:32.0 3:3395.0 4:29.0 5:9.0 6:5.0 7:10.0 8:51.0 9:0.0 10:0.0 11:7.0 12:0.0 
-63200.0 1:64.0 2:27.0 3:2784.0 4:11.0 5:8.0 6:8.0 7:0.0 8:1.0 9:0.0 10:1.0 11:0.0 12:0.0 
-63200.0 1:64.0 2:27.0 3:2724.0 4:17.0 5:5.0 6:5.0 7:20.0 8:21.0 9:0.0 10:0.0 11:1.0 12:2.0 
-63200.0 1:64.0 2:27.0 3:3452.0 4:66.0 5:45.0 6:0.0 7:2.0 8:20.0 9:0.0 10:0.0 11:8.0 12:0.0 
-63200.0 1:64.0 2:27.0 3:2875.0 4:12.0 5:8.0 6:8.0 7:4.0 8:1.0 9:1.0 10:2.0 11:0.0 12:0.0 
-63200.0 1:64.0 2:27.0 3:4858.0 4:266.0 5:26.0 6:24.0 7:58.0 8:184.0 9:1.0 10:0.0 11:19.0 12:30.0 
-71.70644126429457 1:64.0 2:32.0 3:2449.0 4:6937.0 5:54.0 6:3.0 7:273.0 8:7407.0 9:1.0 10:0.0 11:93.0 12:14.0 
-63200.0 1:64.0 2:27.0 3:4928.0 4:238.0 5:35.0 6:22.0 7:318.0 8:175.0 9:21.0 10:11.0 11:6.0 12:1.0 
-63200.0 1:64.0 2:37.0 3:4727.0 4:884.0 5:9.0 6:19.0 7:2303.0 8:626.0 9:3.0 10:38.0 11:0.0 12:6.0 
-63200.0 1:64.0 2:22.0 3:2055.0 4:4.0 5:5.0 6:3.0 7:0.0 8:0.0 9:0.0 10:0.0 11:0.0 12:0.0 
-63200.0 1:64.0 2:37.0 3:3851.0 4:91.0 5:8.0 6:11.0 7:159.0 8:5.0 9:1.0 10:13.0 11:0.0 12:0.0 
-63200.0 1:64.0 2:22.0 3:4033.0 4:70.0 5:8.0 6:15.0 7:15.0 8:56.0 9:1.0 10:3.0 11:1.0 12:7.0 
-63200.0 1:64.0 2:27.0 3:5729.0 4:771.0 5:62.0 6:59.0 7:51.0 8:270.0 9:7.0 10:3.0 11:15.0 12:0.0 
-63200.0 1:64.0 2:27.0 3:2850.0 4:12.0 5:6.0 6:7.0 7:0.0 8:2.0 9:0.0 10:0.0 11:0.0 12:1.0 
-63200.0 1:64.0 2:37.0 3:5663.0 4:661.0 5:63.0 6:43.0 7:205.0 8:445.0 9:1.0 10:2.0 11:19.0 12:20.0 
-63200.0 1:64.0 2:27.0 3:3000.0 4:15.0 5:8.0 6:8.0 7:13.0 8:3.0 9:0.0 10:0.0 11:0.0 12:0.0 
-63200.0 1:64.0 2:37.0 3:4024.0 4:119.0 5:15.0 6:5.0 7:171.0 8:127.0 9:15.0 10:1.0 11:6.0 12:1.0 
-63200.0 1:64.0 2:32.0 3:3181.0 4:20.0 5:9.0 6:9.0 7:23.0 8:22.0 9:0.0 10:3.0 11:1.0 12:2.0 
-63200.0 1:64.0 2:37.0 3:5797.0 4:897.0 5:68.0 6:55.0 7:319.0 8:95.0 9:32.0 10:3.0 11:0.0 12:6.0 
-63200.0 1:64.0 2:27.0 3:2782.0 4:11.0 5:8.0 6:8.0 7:0.0 8:0.0 9:1.0 10:1.0 11:0.0 12:0.0 
-63200.0 1:64.0 2:27.0 3:2784.0 4:11.0 5:8.0 6:8.0 7:0.0 8:0.0 9:0.0 10:0.0 11:0.0 12:0.0 
-63200.0 1:64.0 2:27.0 3:2794.0 4:11.0 5:8.0 6:8.0 7:1.0 8:1.0 9:0.0 10:1.0 11:0.0 12:0.0 
-63200.0 1:64.0 2:22.0 3:908.0 4:0.0 5:0.0 6:0.0 7:1.0 8:0.0 9:0.0 10:0.0 11:0.0 12:0.0 
-63200.0 1:64.0 2:27.0 3:2707.0 4:10.0 5:6.0 6:7.0 7:3.0 8:1.0 9:1.0 10:0.0 11:0.0 12:0.0 
-63200.0 1:64.0 2:37.0 3:4899.0 4:346.0 5:25.0 6:10.0 7:249.0 8:306.0 9:1.0 10:3.0 11:2.0 12:0.0 
-63200.0 1:64.0 2:27.0 3:2435.0 4:7.0 5:6.0 6:7.0 7:4.0 8:0.0 9:0.0 10:1.0 11:0.0 12:0.0 
-63200.0 1:64.0 2:37.0 3:3498.0 4:33.0 5:5.0 6:14.0 7:73.0 8:9.0 9:0.0 10:9.0 11:0.0 12:0.0 
-63200.0 1:64.0 2:32.0 3:2427.0 4:70.0 5:5.0 6:3.0 7:230.0 8:246.0 9:6.0 10:3.0 11:11.0 12:4.0 
-63200.0 1:64.0 2:22.0 3:1750.0 4:3.0 5:3.0 6:3.0 7:1.0 8:1.0 9:0.0 10:0.0 11:0.0 12:0.0 
-63200.0 1:64.0 2:32.0 3:3560.0 4:35.0 5:7.0 6:6.0 7:9.0 8:9.0 9:0.0 10:1.0 11:1.0 12:0.0 
-63200.0 1:64.0 2:32.0 3:5416.0 4:1354.0 5:38.0 6:24.0 7:415.0 8:2080.0 9:2.0 10:2.0 11:17.0 12:24.0 
-63200.0 1:64.0 2:32.0 3:3588.0 4:53.0 5:9.0 6:7.0 7:96.0 8:83.0 9:2.0 10:0.0 11:3.0 12:1.0 
-63200.0 1:64.0 2:27.0 3:2798.0 4:11.0 5:8.0 6:8.0 7:2.0 8:1.0 9:0.0 10:0.0 11:0.0 12:0.0 
-63200.0 1:64.0 2:32.0 3:3695.0 4:40.0 5:15.0 6:13.0 7:16.0 8:10.0 9:13.0 10:5.0 11:2.0 12:0.0 
-63200.0 1:64.0 2:32.0 3:3641.0 4:38.0 5:18.0 6:15.0 7:10.0 8:11.0 9:6.0 10:7.0 11:6.0 12:2.0 
-63200.0 1:64.0 2:27.0 3:2789.0 4:11.0 5:7.0 6:8.0 7:0.0 8:3.0 9:0.0 10:0.0 11:1.0 12:1.0 
-63200.0 1:64.0 2:22.0 3:2252.0 4:5.0 5:4.0 6:3.0 7:0.0 8:0.0 9:0.0 10:0.0 11:1.0 12:0.0 
-63200.0 1:64.0 2:32.0 3:4064.0 4:130.0 5:8.0 6:9.0 7:97.0 8:55.0 9:1.0 10:4.0 11:1.0 12:1.0 
-63200.0 1:64.0 2:27.0 3:3648.0 4:242.0 5:8.0 6:16.0 7:791.0 8:5.0 9:0.0 10:27.0 11:0.0 12:0.0 
-63200.0 1:64.0 2:27.0 3:3117.0 4:33.0 5:30.0 6:0.0 7:3.0 8:38.0 9:2.0 10:0.0 11:46.0 12:1.0 
-63200.0 1:64.0 2:32.0 3:1946.0 4:37.0 5:5.0 6:2.0 7:94.0 8:131.0 9:3.0 10:0.0 11:11.0 12:1.0 
-63200.0 1:64.0 2:32.0 3:4029.0 4:74.0 5:6.0 6:10.0 7:39.0 8:65.0 9:0.0 10:1.0 11:2.0 12:1.0 
-63200.0 1:64.0 2:27.0 3:3152.0 4:19.0 5:9.0 6:5.0 7:2.0 8:1.0 9:0.0 10:0.0 11:2.0 12:0.0 
-63200.0 1:64.0 2:32.0 3:3756.0 4:48.0 5:9.0 6:10.0 7:31.0 8:36.0 9:0.0 10:1.0 11:0.0 12:0.0 
-63200.0 1:64.0 2:27.0 3:4178.0 4:92.0 5:7.0 6:12.0 7:0.0 8:50.0 9:1.0 10:3.0 11:2.0 12:9.0 
-63200.0 1:64.0 2:37.0 3:5442.0 4:1413.0 5:8.0 6:23.0 7:1263.0 8:323.0 9:2.0 10:61.0 11:0.0 12:2.0 
-63200.0 1:64.0 2:27.0 3:3246.0 4:22.0 5:6.0 6:5.0 7:6.0 8:4.0 9:0.0 10:0.0 11:1.0 12:0.0 
-63200.0 1:64.0 2:27.0 3:3900.0 4:54.0 5:8.0 6:8.0 7:8.0 8:17.0 9:0.0 10:1.0 11:1.0 12:0.0 
-63200.0 1:64.0 2:37.0 3:3781.0 4:100.0 5:8.0 6:6.0 7:25.0 8:193.0 9:0.0 10:0.0 11:10.0 12:2.0 
-63200.0 1:64.0 2:32.0 3:4252.0 4:90.0 5:12.0 6:12.0 7:107.0 8:130.0 9:1.0 10:5.0 11:0.0 12:7.0 
-63200.0 1:64.0 2:32.0 3:3911.0 4:143.0 5:11.0 6:7.0 7:21.0 8:360.0 9:2.0 10:0.0 11:15.0 12:1.0 
-63200.0 1:64.0 2:27.0 3:1805.0 4:16.0 5:2.0 6:6.0 7:54.0 8:1.0 9:0.0 10:13.0 11:0.0 12:0.0 
-63200.0 1:64.0 2:32.0 3:5905.0 4:965.0 5:90.0 6:62.0 7:354.0 8:374.0 9:13.0 10:6.0 11:17.0 12:19.0 
-63200.0 1:64.0 2:22.0 3:1675.0 4:2.0 5:4.0 6:2.0 7:0.0 8:0.0 9:0.0 10:0.0 11:3.0 12:0.0 
-63200.0 1:64.0 2:32.0 3:4126.0 4:79.0 5:6.0 6:18.0 7:70.0 8:24.0 9:0.0 10:6.0 11:1.0 12:1.0 
-63200.0 1:64.0 2:27.0 3:3038.0 4:38.0 5:33.0 6:1.0 7:1.0 8:22.0 9:3.0 10:0.0 11:39.0 12:1.0 
-63200.0 1:64.0 2:32.0 3:3292.0 4:23.0 5:9.0 6:9.0 7:13.0 8:7.0 9:2.0 10:1.0 11:0.0 12:1.0 
-63200.0 1:64.0 2:32.0 3:3247.0 4:22.0 5:5.0 6:11.0 7:9.0 8:6.0 9:0.0 10:2.0 11:0.0 12:0.0 
-63200.0 1:64.0 2:27.0 3:4155.0 4:183.0 5:10.0 6:6.0 7:50.0 8:136.0 9:0.0 10:0.0 11:11.0 12:5.0 
-63200.0 1:64.0 2:37.0 3:3504.0 4:31.0 5:6.0 6:15.0 7:17.0 8:21.0 9:0.0 10:9.0 11:0.0 12:2.0 
-63200.0 1:64.0 2:27.0 3:2555.0 4:14.0 5:5.0 6:3.0 7:5.0 8:30.0 9:0.0 10:0.0 11:0.0 12:0.0 
-63200.0 1:64.0 2:27.0 3:2716.0 4:11.0 5:3.0 6:3.0 7:9.0 8:9.0 9:0.0 10:0.0 11:0.0 12:0.0 
-63200.0 1:64.0 2:37.0 3:3592.0 4:47.0 5:8.0 6:10.0 7:133.0 8:8.0 9:0.0 10:8.0 11:0.0 12:0.0 
-63200.0 1:64.0 2:22.0 3:1888.0 4:117.0 5:5.0 6:0.0 7:2.0 8:400.0 9:0.0 10:0.0 11:22.0 12:0.0 
-63200.0 1:64.0 2:27.0 3:3004.0 4:16.0 5:6.0 6:5.0 7:0.0 8:11.0 9:0.0 10:0.0 11:0.0 12:0.0 
-63200.0 1:64.0 2:32.0 3:3639.0 4:41.0 5:6.0 6:9.0 7:30.0 8:45.0 9:0.0 10:0.0 11:0.0 12:0.0 
-63200.0 1:64.0 2:27.0 3:2846.0 4:12.0 5:7.0 6:7.0 7:10.0 8:19.0 9:0.0 10:0.0 11:2.0 12:0.0 
-63200.0 1:64.0 2:32.0 3:4621.0 4:181.0 5:24.0 6:26.0 7:163.0 8:65.0 9:12.0 10:14.0 11:5.0 12:7.0 
-63200.0 1:64.0 2:37.0 3:4131.0 4:162.0 5:5.0 6:17.0 7:382.0 8:19.0 9:0.0 10:7.0 11:0.0 12:2.0 
-63200.0 1:64.0 2:22.0 3:1286.0 4:2.0 5:2.0 6:2.0 7:0.0 8:0.0 9:0.0 10:0.0 11:0.0 12:0.0 
-63200.0 1:64.0 2:32.0 3:3689.0 4:39.0 5:12.0 6:7.0 7:7.0 8:74.0 9:0.0 10:0.0 11:12.0 12:0.0 
-63200.0 1:64.0 2:27.0 3:2742.0 4:18.0 5:5.0 6:3.0 7:5.0 8:32.0 9:0.0 10:0.0 11:0.0 12:0.0 
-63200.0 1:64.0 2:32.0 3:4116.0 4:92.0 5:6.0 6:9.0 7:14.0 8:59.0 9:0.0 10:0.0 11:1.0 12:4.0 
-63200.0 1:64.0 2:32.0 3:3763.0 4:44.0 5:6.0 6:16.0 7:6.0 8:23.0 9:0.0 10:0.0 11:0.0 12:5.0 
-63200.0 1:64.0 2:37.0 3:3688.0 4:137.0 5:9.0 6:6.0 7:210.0 8:450.0 9:0.0 10:0.0 11:11.0 12:3.0 
-63200.0 1:64.0 2:32.0 3:3602.0 4:84.0 5:50.0 6:1.0 7:3.0 8:2.0 9:0.0 10:0.0 11:2.0 12:0.0 
-63200.0 1:64.0 2:37.0 3:4684.0 4:261.0 5:13.0 6:11.0 7:2.0 8:394.0 9:1.0 10:0.0 11:29.0 12:4.0 
-63200.0 1:64.0 2:32.0 3:3148.0 4:24.0 5:8.0 6:9.0 7:45.0 8:25.0 9:0.0 10:4.0 11:1.0 12:2.0 
-63200.0 1:64.0 2:37.0 3:4429.0 4:120.0 5:17.0 6:28.0 7:53.0 8:93.0 9:2.0 10:0.0 11:23.0 12:11.0 
-63200.0 1:64.0 2:37.0 3:3974.0 4:62.0 5:6.0 6:16.0 7:5.0 8:65.0 9:0.0 10:8.0 11:0.0 12:3.0 
-63200.0 1:64.0 2:27.0 3:1161.0 4:1332.0 5:1.0 6:12.0 7:3658.0 8:219.0 9:5.0 10:49.0 11:0.0 12:1.0 
-63200.0 1:64.0 2:22.0 3:2742.0 4:18.0 5:5.0 6:3.0 7:5.0 8:32.0 9:0.0 10:0.0 11:0.0 12:0.0 
-63200.0 1:64.0 2:37.0 3:4908.0 4:377.0 5:22.0 6:9.0 7:146.0 8:411.0 9:1.0 10:0.0 11:3.0 12:8.0 
-63200.0 1:64.0 2:32.0 3:3537.0 4:285.0 5:23.0 6:2.0 7:30.0 8:732.0 9:0.0 10:0.0 11:60.0 12:7.0 
-63200.0 1:64.0 2:27.0 3:3172.0 4:20.0 5:6.0 6:6.0 7:5.0 8:13.0 9:0.0 10:1.0 11:0.0 12:0.0 
-63200.0 1:64.0 2:22.0 3:1769.0 4:3.0 5:3.0 6:3.0 7:1.0 8:0.0 9:0.0 10:0.0 11:0.0 12:0.0 
-63200.0 1:64.0 2:37.0 3:4258.0 4:146.0 5:9.0 6:9.0 7:96.0 8:285.0 9:0.0 10:0.0 11:5.0 12:2.0 
-63200.0 1:64.0 2:37.0 3:4382.0 4:116.0 5:23.0 6:24.0 7:141.0 8:119.0 9:4.0 10:9.0 11:3.0 12:10.0 
-63200.0 1:64.0 2:27.0 3:3249.0 4:57.0 5:48.0 6:1.0 7:0.0 8:22.0 9:3.0 10:0.0 11:9.0 12:0.0 
-63200.0 1:64.0 2:27.0 3:2796.0 4:11.0 5:9.0 6:8.0 7:0.0 8:0.0 9:0.0 10:0.0 11:1.0 12:0.0 
-63200.0 1:64.0 2:32.0 3:5122.0 4:309.0 5:38.0 6:25.0 7:80.0 8:214.0 9:6.0 10:0.0 11:17.0 12:12.0 
-63200.0 1:64.0 2:37.0 3:4190.0 4:118.0 5:9.0 6:10.0 7:35.0 8:113.0 9:1.0 10:5.0 11:3.0 12:4.0 
-63200.0 1:64.0 2:22.0 3:2482.0 4:7.0 5:4.0 6:4.0 7:8.0 8:1.0 9:1.0 10:1.0 11:1.0 12:0.0 
-63200.0 1:64.0 2:27.0 3:3252.0 4:23.0 5:6.0 6:5.0 7:19.0 8:5.0 9:0.0 10:1.0 11:0.0 12:0.0 
-63200.0 1:64.0 2:37.0 3:3971.0 4:84.0 5:13.0 6:5.0 7:63.0 8:67.0 9:6.0 10:1.0 11:4.0 12:0.0 
-63200.0 1:64.0 2:32.0 3:3203.0 4:20.0 5:8.0 6:8.0 7:3.0 8:3.0 9:0.0 10:0.0 11:0.0 12:0.0 
-63200.0 1:64.0 2:32.0 3:3674.0 4:40.0 5:20.0 6:16.0 7:15.0 8:18.0 9:1.0 10:0.0 11:4.0 12:0.0 
-63200.0 1:64.0 2:22.0 3:3095.0 4:35.0 5:32.0 6:0.0 7:3.0 8:38.0 9:3.0 10:0.0 11:46.0 12:1.0 
-63200.0 1:64.0 2:22.0 3:2254.0 4:6.0 5:4.0 6:3.0 7:0.0 8:0.0 9:0.0 10:0.0 11:1.0 12:0.0 
-63200.0 1:64.0 2:37.0 3:3871.0 4:50.0 5:10.0 6:14.0 7:48.0 8:0.0 9:0.0 10:9.0 11:2.0 12:3.0 
-63200.0 1:64.0 2:22.0 3:1244.0 4:2.0 5:2.0 6:2.0 7:0.0 8:0.0 9:1.0 10:0.0 11:0.0 12:0.0 
-10915.113705451337 1:64.0 2:27.0 3:2862.0 4:8088.0 5:0.0 6:56.0 7:115.0 8:431.0 9:1.0 10:24.0 11:0.0 12:0.0 
-63200.0 1:64.0 2:27.0 3:1763.0 4:1103.0 5:10.0 6:2.0 7:85.0 8:17.0 9:0.0 10:0.0 11:11.0 12:10.0 
-63200.0 1:64.0 2:37.0 3:4267.0 4:148.0 5:15.0 6:7.0 7:29.0 8:416.0 9:0.0 10:1.0 11:15.0 12:0.0 
-34461.32174492726 1:64.0 2:32.0 3:3164.0 4:21.0 5:6.0 6:7.0 7:27.0 8:22.0 9:0.0 10:0.0 11:1.0 12:1.0 
-63200.0 1:64.0 2:32.0 3:3440.0 4:29.0 5:6.0 6:7.0 7:27.0 8:19.0 9:0.0 10:1.0 11:1.0 12:0.0 
-63200.0 1:64.0 2:37.0 3:2818.0 4:4793.0 5:40.0 6:0.0 7:396.0 8:13187.0 9:0.0 10:0.0 11:158.0 12:1.0 
-63200.0 1:64.0 2:32.0 3:1860.0 4:75.0 5:4.0 6:4.0 7:280.0 8:286.0 9:4.0 10:4.0 11:3.0 12:3.0 
-63200.0 1:64.0 2:27.0 3:2795.0 4:11.0 5:9.0 6:8.0 7:0.0 8:0.0 9:0.0 10:0.0 11:0.0 12:0.0 
-63200.0 1:64.0 2:27.0 3:3467.0 4:30.0 5:6.0 6:5.0 7:14.0 8:12.0 9:2.0 10:1.0 11:0.0 12:0.0 
-63200.0 1:64.0 2:37.0 3:3099.0 4:218.0 5:3.0 6:9.0 7:736.0 8:74.0 9:2.0 10:21.0 11:0.0 12:0.0 
-63200.0 1:64.0 2:32.0 3:3999.0 4:62.0 5:24.0 6:22.0 7:17.0 8:18.0 9:0.0 10:8.0 11:3.0 12:8.0 
-63200.0 1:64.0 2:32.0 3:4107.0 4:134.0 5:18.0 6:42.0 7:10.0 8:8.0 9:2.0 10:0.0 11:0.0 12:2.0 
-63200.0 1:64.0 2:22.0 3:2248.0 4:5.0 5:3.0 6:3.0 7:2.0 8:3.0 9:0.0 10:0.0 11:2.0 12:0.0 
-63200.0 1:64.0 2:32.0 3:3727.0 4:43.0 5:7.0 6:8.0 7:39.0 8:21.0 9:4.0 10:10.0 11:2.0 12:1.0 
-63200.0 1:64.0 2:32.0 3:3448.0 4:65.0 5:37.0 6:2.0 7:7.0 8:4.0 9:1.0 10:0.0 11:2.0 12:0.0 
-63200.0 1:64.0 2:37.0 3:3324.0 4:48.0 5:7.0 6:4.0 7:55.0 8:156.0 9:2.0 10:0.0 11:16.0 12:5.0 
-63200.0 1:64.0 2:27.0 3:3503.0 4:72.0 5:39.0 6:2.0 7:8.0 8:8.0 9:3.0 10:0.0 11:0.0 12:0.0 
-63200.0 1:64.0 2:27.0 3:4786.0 4:234.0 5:27.0 6:28.0 7:43.0 8:9.0 9:6.0 10:4.0 11:5.0 12:3.0 
