svm_type c_svc
kernel_type rbf
gamma 3e-10
nr_class 2
total_sv 52
rho 1397.4050643116627
label 1 0
probA -0.2784254228655681
probB 0.0013266378430738001
nr_sv 27 25
SV
20000000 1:27 2:108 3:40 4:720 5:39 6:7 7:8 8:76 
11904886.258581225 1:37 2:245 3:114 4:1628 5:86 6:20 7:386 8:219 
20000000 1:22 2:38 3:42 4:203 5:5 6:0 7:0 8:22 
5393543.5049593607 1:32 2:214 3:19 4:1608 5:19 6:18 7:674 8:1 
20000000 1:22 2:116 3:62 4:288 5:34 6:24 7:60 8:11 
20000000 1:22 2:116 3:52 4:428 5:8 6:21 7:58 8:65 
20000000 1:32 2:98 3:67 4:832 5:96 6:176 7:113 8:12 
18358050.165627882 1:37 2:107 3:191 4:1258 5:105 6:422 7:225 8:37 
20000000 1:32 2:50 3:58 4:308 5:23 6:14 7:32 8:49 
20000000 1:22 2:33 3:36 4:148 5:9 6:10 7:1 8:6 
5570354.5054961061 1:27 2:91 3:30 4:1220 5:138 6:0 7:260 8:68 
20000000 1:32 2:133 3:309 4:1344 5:185 6:270 7:112 8:139 
906080.9728224487 1:27 2:304 3:92 4:950 5:140 6:167 7:68 8:28 
20000000 1:27 2:27 3:19 4:136 5:1 6:4 7:33 8:11 
20000000 1:22 2:26 3:24 4:128 5:3 6:19 7:6 8:5 
2088432.0456156307 1:32 2:173 3:77 4:872 5:127 6:3 7:160 8:45 
20000000 1:27 2:16 3:45 4:196 5:17 6:31 7:5 8:0 
20000000 1:22 2:37 3:23 4:179 5:14 6:11 7:28 8:4 
20000000 1:37 2:189 3:115 4:1088 5:81 6:73 7:371 8:226 
20000000 1:32 2:60 3:78 4:366 5:47 6:2 7:48 8:2 
20000000 1:22 2:49 3:59 4:704 5:10 6:45 7:15 8:57 
20000000 1:22 2:36 3:35 4:196 5:36 6:4 7:22 8:44 
20000000 1:32 2:28 3:79 4:300 5:5 6:51 7:5 8:38 
20000000 1:22 2:61 3:22 4:371 5:3 6:6 7:78 8:1 
20000000 1:22 2:28 3:20 4:172 5:8 6:0 7:19 8:1 
8871582.9487762395 1:37 2:148 3:106 4:1768 5:316 6:37 7:188 8:79 
20000000 1:22 2:32 3:42 4:404 5:24 6:12 7:7 8:6 
-20000000 1:32 2:24 3:28 4:170 5:10 6:10 7:5 8:1 
-20000000 1:27 2:9 3:7 4:44 5:2 6:0 7:0 8:0 
-20000000 1:22 2:86 3:168 4:695 5:21 6:1 7:32 8:95 
-20000000 1:37 2:151 3:99 4:548 5:92 6:127 7:11 8:26 
-20000000 1:22 2:87 3:148 4:753 5:8 6:63 7:36 8:159 
-20000000 1:32 2:34 3:37 4:1104 5:11 6:15 7:26 8:16 
-20000000 1:22 2:74 3:78 4:337 5:21 6:9 7:9 8:35 
-20000000 1:27 2:42 3:34 4:182 5:16 6:1 7:16 8:1 
-20000000 1:32 2:47 3:103 4:352 5:33 6:140 7:23 8:15 
-20000000 1:32 2:42 3:32 4:336 5:48 6:46 7:45 8:57 
-20000000 1:22 2:24 3:28 4:117 5:24 6:4 7:9 8:3 
-20000000 1:27 2:35 3:32 4:228 5:3 6:0 7:12 8:2 
-20000000 1:32 2:102 3:41 4:673 5:104 6:17 7:115 8:26 
-98264.771574476734 1:27 2:151 3:61 4:574 5:103 6:25 7:416 8:144 
-5516200.6383197205 1:27 2:24 3:26 4:168 5:3 6:20 7:4 8:16 
-20000000 1:37 2:83 3:77 4:1072 5:63 6:25 7:121 8:32 
-20000000 1:37 2:242 3:81 4:1644 5:328 6:74 7:409 8:201 
-20000000 1:22 2:12 3:17 4:64 5:3 6:11 7:1 8:4 
-20000000 1:22 2:21 3:45 4:232 5:14 6:41 7:7 8:31 
-7478464.9919848694 1:22 2:85 3:64 4:342 5:6 6:0 7:29 8:15 
-20000000 1:32 2:255 3:284 4:1700 5:125 6:599 7:496 8:124 
-20000000 1:27 2:124 3:89 4:568 5:44 6:5 7:140 8:107 
-20000000 1:27 2:135 3:40 4:770 5:1 6:4 7:275 8:37 
-20000000 1:27 2:14 3:23 4:420 5:11 6:8 7:5 8:12 
-20000000 1:27 2:24 3:22 4:140 5:13 6:2 7:8 8:5 
