svm_type c_svc
kernel_type rbf
gamma 0.10000000000000001
nr_class 2
total_sv 303
rho 0.61723413829836116
label 1 0
probA -0.99676376380343512
probB -0.088591925163076457
nr_sv 166 137
SV
50 1:0.78790314 2:-0.44394109 3:-0.0653177 4:-0.47149541 5:-0.47693184 6:-0.44364994 7:-0.38647643 8:-0.434787 
38.438457094953577 1:-1.0761126 2:-0.25840276 3:1.643142 4:-0.28448712 5:-0.36195712 6:-0.3463561 7:-0.29185585 8:-0.040985808 
1.2367069107275175 1:-0.14410471 2:3.7140132 3:2.1322217 4:-0.306666 5:1.4439545 6:2.227673 7:-0.021627261 8:0.29374521 
50 1:-1.0761126 2:-0.49189764 3:-0.68681048 4:-0.73436555 5:-0.45007447 6:-0.39039657 7:-0.39986614 8:-0.97954532 
50 1:-1.0761126 2:-0.12710882 3:1.250329 4:-0.059925958 5:-0.16874568 6:-0.026137954 7:0.10658931 8:0.024647725 
50 1:-1.0761126 2:-0.4705002 3:-0.54997141 4:-0.46368239 5:-0.49130368 6:-0.45307222 7:-0.38980357 8:-0.67106772 
50 1:0.78790314 2:-0.46364926 3:-0.72295664 4:-0.29028387 5:-0.39698848 6:-0.3476822 7:-0.35361079 8:-0.55949071 
0.98433546118887572 1:1.719911 2:0.89884212 3:0.15303466 4:0.58300954 5:4.0665459 6:2.804945 7:4.0458405 8:2.8862697 
50 1:-1.0761126 2:-0.47040635 3:-0.81000252 4:-0.21517812 5:-0.38028121 6:-0.3093649 7:-0.36797429 8:-0.32977335 
16.210150008173901 1:0.78790314 2:1.8392971 3:1.8880507 4:-0.02690967 5:0.33849047 6:0.24040806 7:0.29152953 8:0.5890961 
50 1:0.78790314 2:-0.35947751 3:-0.39210856 4:-0.4336905 5:-0.072723825 6:-0.04547109 7:-0.11908808 8:0.4775191 
50 1:0.78790314 2:0.16926449 3:-0.066055377 4:0.76548124 5:0.035154804 6:-0.1047268 7:0.14472968 8:1.1863612 
50 1:-0.14410471 2:-0.34098937 3:-0.20805818 4:0.099862794 5:-0.3121048 6:-0.35410332 7:-0.19277203 8:-0.28382988 
50 1:-1.0761126 2:-0.027160254 3:1.7792434 4:-0.059421892 5:-0.35279507 6:-0.26874438 7:-0.3655398 8:0.11653467 
50 1:-1.0761126 2:-0.4823251 3:-0.68238442 4:-0.47174744 5:-0.37713737 6:-0.39695727 7:-0.26045091 8:-0.61856089 
50 1:-1.0761126 2:-0.48992682 3:-0.39007995 4:-0.59587356 5:-0.46866803 6:-0.44323117 7:-0.37203178 8:-0.84663742 
15.757265912557768 1:-0.14410471 2:-0.12354258 3:1.4089296 4:-0.51106455 5:0.087701847 6:0.39165321 7:-0.337462 8:1.2126147 
3.8503175502881595 1:1.719911 2:2.3956306 3:0.73506172 4:0.49227776 5:3.0650981 6:4.5165906 7:0.24624799 8:1.6589227 
50 1:-1.0761126 2:-0.53431712 3:-0.82549373 4:-0.71369886 5:-0.50792112 6:-0.4678687 7:-0.41431079 8:-0.88765837 
2.539104872626833 1:0.78790314 2:5.1942844 3:0.22790886 4:5.3970867 5:4.2934414 6:3.4879561 7:4.1923969 8:3.0897337 
50 1:-0.14410471 2:-0.51554744 3:-0.70267053 4:-0.69227608 5:-0.46121264 6:-0.41147457 7:-0.34143833 8:-0.63825095 
44.46090617434421 1:0.78790314 2:-0.41165724 3:0.01988398 4:-0.50753609 5:-0.24608415 6:-0.27579365 7:-0.16453193 8:0.38563215 
50 1:-0.14410471 2:-0.35891442 3:-0.58611758 4:-0.28914973 5:-0.42492374 6:-0.38886108 7:-0.35620758 8:-0.6661452 
12.159062402990362 1:-1.0761126 2:0.073351405 3:1.0736554 4:-0.36034897 5:-0.043081903 6:-0.017622999 7:-0.097908004 8:0.1263797 
50 1:-1.0761126 2:-0.5145151 3:-0.73549715 4:-0.53173123 5:-0.47666237 6:-0.44197486 7:-0.38793713 8:-0.71044784 
50 1:1.719911 2:-0.13358436 3:-0.13705678 4:-0.29217412 5:-0.41944448 6:-0.39891152 7:-0.32683138 8:-0.4905755 
50 1:-1.0761126 2:-0.4852344 3:-0.57053416 4:-0.28392005 5:-0.49633383 6:-0.46109861 7:-0.40124568 8:-0.64153263 
20.665352476346374 1:-0.14410471 2:1.1630254 3:0.2474573 4:-0.038503176 5:1.2956551 6:1.7096566 7:0.31270961 8:-0.08692928 
2.0125799787633087 1:1.719911 2:2.3849319 3:1.3956514 4:2.4568729 5:2.2737486 6:0.66685376 7:3.2924464 8:2.092104 
13.814512825517655 1:0.78790314 2:0.12421725 3:-0.4164519 4:0.35365975 5:1.2593662 6:0.89033644 7:1.1997573 8:1.6261059 
50 1:-0.14410471 2:-0.49452539 3:-0.63517309 4:-0.55138978 5:-0.38917379 6:-0.37532091 7:-0.30735545 8:-0.42822365 
3.2958914218044639 1:-1.0761126 2:0.14918093 3:2.3679095 4:0.10288719 5:-0.34740563 6:-0.2460611 7:-0.14911348 8:0.82537682 
9.6554160439706873 1:-1.0761126 2:0.088273304 3:0.065988785 4:-0.27642207 5:0.30911802 6:0.66434115 7:-0.25444583 8:-0.40197024 
50 1:-1.0761126 2:-0.51282583 3:-0.766664 4:-0.60519877 5:-0.42806758 6:-0.40854319 7:-0.33803004 8:-0.4987797 
9.8332934711089131 1:0.78790314 2:-0.15986192 3:0.95452059 4:-0.58566624 5:0.22782729 6:0.57291008 7:-0.29502069 8:1.6851761 
1.5521585290715803 1:0.78790314 2:2.2283927 3:-0.55919238 4:4.2488256 5:0.57059569 6:0.44441801 7:0.65370076 8:1.6786127 
21.743027269117707 1:0.78790314 2:-0.13048737 3:2.0389056 4:-0.16073905 5:-0.15230789 6:0.015738874 7:-0.33405371 8:0.51689922 
34.476381633403776 1:0.78790314 2:-0.3098317 3:0.97443787 4:-0.12142194 5:-0.39097027 6:-0.34949687 7:-0.34062684 8:-0.27726652 
50 1:-0.14410471 2:-0.38659971 3:-0.22271951 4:-0.52952594 5:-0.27563625 6:-0.28340127 7:-0.20908313 8:-0.6530185 
50 1:-0.14410471 2:-0.50118863 3:-0.7849215 4:-0.64665816 5:-0.37704755 6:-0.36966754 7:-0.29201815 8:-0.52011059 
6.7931290553902048 1:-0.14410471 2:0.54709824 3:1.1824628 4:0.3770988 5:0.6686835 6:0.80986313 7:0.2260417 8:0.38563215 
50 1:-0.14410471 2:-0.51808134 3:-0.74988185 4:-0.56323532 5:-0.50468746 6:-0.47191679 7:-0.40376132 8:-0.90734843 
38.092730081904428 1:-1.0761126 2:-0.29059277 3:0.22274512 4:0.0136676 5:-0.22264009 6:-0.33009393 7:-0.059037285 8:-0.1263094 
50 1:-1.0761126 2:-0.52108449 3:-0.66984391 4:-0.54836539 5:-0.50028608 6:-0.47142823 7:-0.3963767 8:-0.78264472 
50 1:-0.14410471 2:-0.13433515 3:1.2532797 4:-0.17434882 5:-0.12338456 6:-0.26748808 7:0.047512305 8:-0.10005599 
5.7113923255370311 1:-0.14410471 2:-0.049214633 3:2.0086609 4:0.065586342 5:0.027789236 6:0.24026847 7:-0.26970197 8:0.6875464 
50 1:-1.0761126 2:-0.52849852 3:-0.69271189 4:-0.71621919 5:-0.50154362 6:-0.46584465 7:-0.40514087 8:-0.84827826 
23.180969294843184 1:1.719911 2:-0.21269858 3:0.19102502 4:0.19361897 5:-0.01137403 6:0.020275531 7:-0.084680599 8:0.81225011 
50 1:-1.0761126 2:-0.46824783 3:-0.7675861 4:-0.43318643 5:-0.46004493 6:-0.40575141 7:-0.33478405 8:-0.80889814 
2.4769291544845 1:1.719911 2:0.70570207 3:1.2429523 4:1.2113271 5:0.70030155 6:0.39653884 7:0.76373979 8:2.2233711 
50 1:-1.0761126 2:-0.52774773 3:-0.69603144 4:-0.60456869 5:-0.49597453 6:-0.46849685 7:-0.39199461 8:-0.82202484 
3.0525190039600454 1:-0.14410471 2:-0.42770532 3:0.40790202 4:-0.44553604 5:-0.43848717 6:-0.38481299 7:-0.31043914 8:-0.45447706 
50 1:-1.0761126 2:-0.53000009 3:-0.92544895 4:-0.59146299 5:-0.50459764 6:-0.46354143 7:-0.41333699 8:-0.91391179 
3.8675777033166043 1:1.719911 2:1.3433082 3:1.3646689 4:1.5092298 5:0.90420204 6:1.4165188 7:-0.053762553 8:1.1207277 
50 1:-1.0761126 2:-0.047619209 3:1.948909 4:-0.075047922 5:-0.094551058 6:-0.014063469 7:-0.19504423 8:0.2806185 
32.105750686327596 1:1.719911 2:0.22745051 3:0.23602331 4:1.5349372 5:0.28747043 6:0.15972537 7:0.32269103 8:1.0419675 
1.5473935350674304 1:0.78790314 2:4.0234315 3:2.0248898 4:0.33727763 5:5.3944142 6:8.0949656 7:0.29445092 8:2.4859052 
50 1:0.78790314 2:-0.06244726 3:-0.57689662 4:0.88116426 5:0.015662995 6:0.025161161 7:-0.041508944 8:0.15591479 
1.2070648772789028 1:0.78790314 2:2.1243148 3:0.91394837 4:1.1609206 5:4.1212487 6:4.3777689 7:2.3159718 8:1.4620221 
12.242395646865932 1:0.78790314 2:0.24049544 3:1.960343 4:0.30879793 5:0.21956348 6:-0.16977548 7:0.553562 8:0.41188557 
50 1:1.719911 2:-0.33385689 3:0.13468495 4:-0.23943627 5:-0.20467529 6:-0.22924057 7:-0.14383875 8:-0.10333766 
50 1:-0.14410471 2:-0.025940224 3:2.474135 4:-0.080592642 5:-0.12554034 6:-0.28375024 7:0.062525005 8:0.66129299 
50 1:0.78790314 2:-0.46834168 3:-0.51234989 4:-0.50325153 5:-0.35531014 6:-0.3252083 7:-0.30443406 8:-0.69075778 
50 1:-1.0761126 2:-0.47406644 3:-0.6803558 4:-0.5091743 5:-0.38567065 6:-0.37106343 7:-0.29445264 8:-0.55620904 
50 1:-1.0761126 2:-0.5179875 3:-0.73439064 4:-0.63229229 5:-0.45986528 6:-0.42710859 7:-0.37487202 8:-0.85484161 
50 1:-0.14410471 2:-0.27782939 3:1.1171783 4:-0.22551146 5:-0.27698361 6:-0.27460714 7:-0.18230372 8:-0.073802574 
6.7485676683815337 1:-0.14410471 2:0.54071654 3:3.9653488 4:0.5719201 5:0.64200578 6:-0.44155609 7:1.6328534 8:0.97633394 
50 1:-0.14410471 2:-0.48955142 3:-0.60299194 4:-0.39242014 5:-0.48268058 6:-0.44225404 7:-0.37722536 8:-0.70552532 
50 1:0.78790314 2:-0.46974941 3:-0.5680445 4:-0.42965797 5:-0.46839856 6:-0.40875258 7:-0.33827349 8:-0.75310963 
50 1:-1.0761126 2:-0.50419178 3:-0.72664503 4:-0.45763361 5:-0.45977546 6:-0.39165287 7:-0.31839181 8:-0.71701119 
1.6167711505505609 1:1.719911 2:11.280073 3:-0.6573034 4:9.9624076 5:10.928022 6:1.0687317 7:18.462252 8:4.4811646 
50 1:-0.14410471 2:-0.28477417 3:-0.054990224 4:0.29367596 5:-0.27168399 6:-0.22679776 7:-0.26775438 8:-0.060675867 
0.64350525891691746 1:0.78790314 2:3.2909445 3:3.7477341 4:0.056765197 5:2.9671899 6:4.4023367 7:0.20218368 8:2.6959325 
50 1:-0.14410471 2:-0.45116742 3:-0.44227059 4:-0.34195058 5:-0.41719888 6:-0.39646871 7:-0.32399114 8:-0.50042053 
50 1:1.719911 2:0.32345745 3:-0.15015054 4:1.5906364 5:0.33858029 6:-0.053148509 7:0.63300758 8:0.66129299 
50 1:-1.0761126 2:-0.26187516 3:-0.64955779 4:0.011903371 5:-0.097874546 6:-0.030186048 7:0.10188262 8:0.018084372 
50 1:0.78790314 2:-0.49555772 3:-0.5392751 4:-0.4898938 5:-0.47109328 6:-0.42159481 7:-0.35320504 8:-0.7301379 
50 1:1.719911 2:-0.42761147 3:0.1707389 4:-0.51383691 5:-0.3929464 6:-0.36722472 7:-0.32358539 8:-0.25757646 
50 1:-1.0761126 2:-0.48270049 3:-0.65287734 4:-0.54420685 5:-0.49480682 6:-0.45446812 7:-0.40619581 8:-0.86468664 
50 1:-1.0761126 2:-0.51413971 3:-0.8136909 4:-0.45612141 5:-0.50504676 6:-0.46696137 7:-0.40595236 8:-0.75639131 
0.16208296209078127 1:1.719911 2:2.9834971 3:2.1779577 4:0.36626139 5:4.1707418 6:5.7803635 7:0.77461385 8:3.5360417 
50 1:-0.14410471 2:-0.51348277 3:-0.82844444 4:-0.44856043 5:-0.50450781 6:-0.46647281 7:-0.4097664 8:-0.75639131 
50 1:-0.14410471 2:-0.43145925 3:0.17276751 4:-0.68295087 5:-0.36815497 6:-0.29324233 7:-0.36480945 8:-0.71701119 
46.023544115126867 1:-0.14410471 2:0.18446794 3:-0.19625535 4:-0.033714554 5:0.31414816 6:0.47024205 7:-0.019679668 8:0.13622473 
50 1:-0.14410471 2:-0.30973785 3:-0.52046434 4:0.21655395 5:-0.42707952 6:-0.43450683 7:-0.30703085 8:-0.19850629 
50 1:-1.0761126 2:-0.47688189 3:-0.61783769 4:-0.33892619 5:-0.43435526 6:-0.42976079 7:-0.32569529 8:-0.40197024 
6.2103513734047837 1:1.719911 2:2.682056 3:1.2149205 4:3.6409227 5:1.8119634 6:1.2696707 7:1.7571747 8:2.0789773 
50 1:-1.0761126 2:-0.52737234 3:-0.65324618 4:-0.68773949 5:-0.49893872 6:-0.45907457 7:-0.40830571 8:-0.88765837 
50 1:-0.14410471 2:-0.51592283 3:-0.69013002 4:-0.51635723 5:-0.48887844 6:-0.45062941 7:-0.39994729 8:-0.67106772 
50 1:0.78790314 2:0.14880554 3:-0.17154317 4:0.53260299 5:-0.14790652 6:-0.13634381 7:-0.021546112 8:0.31999862 
50 1:-1.0761126 2:-0.33244917 3:-0.50644848 4:0.25687919 5:-0.17368601 6:-0.22344761 7:-0.094580865 8:-0.08692928 
50 1:1.719911 2:-0.29134356 3:-0.25490066 4:-0.58440607 5:-0.22749058 6:-0.29805816 7:-0.10504918 8:-0.14599946 
50 1:-1.0761126 2:-0.50813341 3:-0.52618133 4:-0.65333702 5:-0.47235082 6:-0.43820595 7:-0.38452884 8:-0.67106772 
20.114188382121174 1:-0.14410471 2:-0.14522157 3:1.4568786 4:-0.21618625 5:0.031831316 6:0.033187553 7:0.17556657 8:0.70067311 
2.1153975293540919 1:-1.0761126 2:3.6911142 3:-0.32719299 4:5.0651596 5:1.0856465 6:1.007452 7:0.74970089 8:2.6106089 
50 1:0.78790314 2:-0.058224081 3:-0.11732392 4:0.27426944 5:0.11617606 6:-0.091116833 7:0.27529959 8:0.6875464 
50 1:-1.0761126 2:-0.47115713 3:-0.68330651 4:-0.55113775 5:-0.43794822 6:-0.4070775 7:-0.35856092 8:-0.54964568 
50 1:-1.0761126 2:-0.52061525 3:-0.65140199 4:-0.68597526 5:-0.49103421 6:-0.45272325 7:-0.38939782 8:-0.8285882 
50 1:0.78790314 2:-0.29040508 3:-0.10441458 4:-0.69882893 5:-0.46678173 6:-0.41887281 7:-0.39694475 8:-0.82202484 
3.0603457807710677 1:-1.0761126 2:2.2084968 3:-0.53079182 4:3.3009305 5:2.0947294 6:0.47435994 7:3.1927945 8:1.8820767 
50 1:0.78790314 2:-0.49799778 3:-0.49796519 4:-0.42738968 5:-0.46534455 6:-0.42759715 7:-0.38420424 8:-0.54636401 
50 1:0.78790314 2:0.13228821 3:-0.40944397 4:1.4557989 5:0.075395958 6:-0.33770156 7:0.48831762 8:0.40532221 
1.667830346133288 1:0.78790314 2:4.005788 3:0.40089409 4:3.3241175 5:2.1797927 6:3.3036981 7:3.9781616 8:2.4005816 
50 1:-1.0761126 2:-0.25371034 3:1.3934383 4:-0.31498308 5:-0.18212946 6:-0.20341653 7:-0.13312699 8:0.070591197 
50 1:-0.14410471 2:-0.13161355 3:2.1960308 4:-0.17737321 5:-0.36141817 6:-0.30273441 7:-0.34160063 8:0.45126569 
7.9243504391891548 1:-0.14410471 2:0.34241483 3:1.455772 4:0.21453769 5:-0.27069593 6:-0.20481242 7:-0.10115399 8:0.60878616 
0.63006493349036263 1:-0.14410471 2:1.8925092 3:-0.37200687 4:3.0311295 5:1.0553758 6:0.34300629 7:1.4675514 8:1.8476191 
50 1:-1.0761126 2:-0.36097909 3:-0.73807902 4:-0.05916986 5:-0.21302892 6:-0.22896139 7:-0.1292318 8:0.011521018 
50 1:1.719911 2:0.086959427 3:-0.13097094 4:1.125384 5:-0.12958242 6:-0.014272853 7:0.12038476 8:0.70067311 
50 1:-1.0761126 2:-0.5416373 3:-0.92544895 4:-0.77645501 5:-0.51088532 6:-0.47394084 7:-0.41260664 8:-1.0386155 
9.1780210394117301 1:-1.0761126 2:1.3557901 3:0.57830538 4:-0.23987733 5:0.64829346 6:0.78201504 7:0.22157847 8:0.35937874 
50 1:-0.14410471 2:0.27756557 3:-0.17301853 4:-0.5723085 5:-0.32728505 6:-0.25576256 7:-0.33454061 8:-0.83515155 
50 1:0.78790314 2:-0.45923838 3:-0.50875372 4:-0.3751559 5:-0.49480682 6:-0.46193615 7:-0.39751279 8:-0.64645514 
50 1:-0.14410471 2:-0.41860202 3:-0.72775154 4:0.052732673 5:-0.48420759 6:-0.44309158 7:-0.37819916 8:-0.58574413 
22.931873250451815 1:-1.0761126 2:0.071755982 3:1.9916943 4:0.40986305 5:-0.011733326 6:-0.15791037 7:0.12184545 8:1.1338544 
13.97842857662121 1:1.719911 2:1.8017578 3:-0.45739297 4:3.6629755 5:0.65925198 6:0.064944148 7:1.0751113 8:1.6244651 
50 1:-0.14410471 2:-0.20612919 3:-0.43600034 4:-0.25550336 5:-0.1467388 6:-0.048611852 7:-0.24917109 8:-0.49385718 
50 1:-1.0761126 2:-0.51301353 3:-0.4874533 4:-0.62208497 5:-0.49444752 6:-0.4560036 7:-0.40376132 8:-0.74654628 
15.238602126119044 1:1.719911 2:1.0241298 3:0.19840179 4:1.0424652 5:1.6239618 6:1.4717962 7:1.1824724 8:1.6720494 
31.611060974250837 1:-1.0761126 2:0.14495775 3:-0.37071593 4:1.1495791 5:-0.1332652 6:-0.39486343 7:0.17775762 8:0.6875464 
50 1:-1.0761126 2:-0.50503641 3:-0.88976383 4:-0.58283087 5:-0.43031318 6:-0.39709686 7:-0.35636988 8:-0.63332844 
50 1:-0.14410471 2:-0.48673597 3:0.13680577 4:-0.69353624 5:-0.48366864 6:-0.44602296 7:-0.38160745 8:-0.60871586 
50 1:-1.0761126 2:-0.44853966 3:-0.75984049 4:-0.048332452 5:-0.50289098 6:-0.46563527 7:-0.40441052 8:-0.60543419 
50 1:-0.14410471 2:-0.4966839 3:-0.71779291 4:-0.35077173 5:-0.46561402 6:-0.43394847 7:-0.36756854 8:-0.69075778 
50 1:-1.0761126 2:-0.50419178 3:-0.45149155 4:-0.54080441 5:-0.50154362 6:-0.46835726 7:-0.40221948 8:-0.79577143 
50 1:0.78790314 2:0.21966109 3:-0.16711711 4:1.295254 5:0.1998022 6:0.21186202 7:0.074129416 8:0.97633394 
50 1:-1.0761126 2:-0.32925832 3:-0.23092616 4:-0.11587722 5:-0.43417562 6:-0.39758542 7:-0.32528954 8:-0.45447706 
1.823488849494447 1:0.78790314 2:3.3157205 3:1.6494122 4:1.680108 5:3.3962792 6:4.3037167 7:5.1408749 8:2.98472 
50 1:-1.0761126 2:-0.5385403 3:-0.75947165 4:-0.77897534 5:-0.51465792 6:-0.47596489 7:-0.41642068 8:-1.0189254 
50 1:-0.14410471 2:-0.4850467 3:-0.69197421 4:-0.49695071 5:-0.49094439 6:-0.45244407 7:-0.40157028 8:-0.79577143 
50 1:0.78790314 2:-0.48054198 3:-0.16269105 4:-0.5037556 5:-0.42995389 6:-0.43171504 7:-0.31547042 8:-0.45447706 
50 1:1.719911 2:0.90644384 3:-0.49464565 4:2.3815151 5:-0.094730706 6:0.031721864 7:0.17386243 8:1.2585581 
50 1:-1.0761126 2:-0.52878006 3:-0.66283598 4:-0.71054845 5:-0.50989725 6:-0.47331269 7:-0.4115517 8:-0.9401652 
50 1:-1.0761126 2:-0.058224081 3:-0.21506611 4:0.21705801 5:0.49029303 6:0.11945382 7:0.70644808 8:0.59565946 
50 1:-1.0761126 2:-0.51123041 3:-0.75172604 4:-0.4314222 5:-0.4921121 6:-0.44371973 7:-0.41382389 8:-0.75639131 
20.671552809103567 1:1.719911 2:-0.064981167 3:1.0270896 4:-0.48352997 5:-0.28201375 6:-0.22449453 7:-0.28909676 8:-0.068880059 
50 1:-1.0761126 2:-0.29828834 3:-0.43304963 4:-0.46469052 5:-0.41423469 6:-0.39716666 7:-0.32723713 8:-0.71701119 
50 1:-0.14410471 2:-0.53065703 3:-0.53890626 4:-0.67917038 5:-0.4943577 6:-0.45314202 7:-0.40692616 8:-0.7432646 
50 1:-1.0761126 2:-0.51001038 3:-0.75836513 4:-0.4475523 5:-0.47100346 6:-0.43045873 7:-0.36351106 8:-0.68419442 
0.92303912410541789 1:-1.0761126 2:0.0498893 3:-0.21027121 4:0.55150545 5:1.1443914 6:0.88070477 7:1.0032126 8:1.2913749 
1.8104773728695269 1:1.719911 2:2.4976438 3:3.7768724 4:-0.53173123 5:1.0708256 6:1.6210871 7:0.0094530839 8:3.2800709 
16.446912407184907 1:-1.0761126 2:-0.061039534 3:1.2495913 4:0.1376677 5:0.13324262 6:0.082043853 7:0.10480401 8:0.83850353 
20.635247106895505 1:-0.14410471 2:2.9454885 3:0.74944642 4:0.11952135 5:0.47771767 6:0.32011362 7:0.5091731 8:0.22154832 
50 1:-1.0761126 2:-0.53046934 3:-0.70488356 4:-0.63229229 5:-0.50944813 6:-0.46758952 7:-0.41739448 8:-0.90078508 
50 1:-1.0761126 2:-0.51404586 3:-0.44199396 4:-0.59165201 5:-0.49345946 6:-0.44902413 7:-0.410091 8:-0.79577143 
50 1:-0.14410471 2:-0.004073542 3:1.5889227 4:0.16992789 5:-0.29809225 6:-0.25255201 7:-0.15666041 8:0.64816628 
1.0703463116355412 1:1.719911 2:-0.16549283 3:1.1695534 4:-0.57029224 5:0.075845078 6:0.35263796 7:-0.31352283 8:1.6851761 
50 1:-1.0761126 2:-0.52887391 3:-0.90221213 4:-0.64766629 5:-0.50046573 6:-0.47066049 7:-0.39759394 8:-0.89422173 
2.3234578462254984 1:-1.0761126 2:2.4833789 3:1.7405153 4:1.795791 5:4.0067231 6:2.1973821 7:4.6441574 8:2.6959325 
50 1:1.719911 2:0.4925723 3:-0.1276514 4:2.0939458 5:-0.029249007 6:0.035002216 7:0.17767647 8:0.61534952 
11.75410529862399 1:-1.0761126 2:0.68665084 3:-0.62005072 4:2.3608484 5:0.79219151 6:0.84608659 7:0.40708674 8:1.0747842 
38.172651433590694 1:-1.0761126 2:-0.033541946 3:2.1226319 4:0.21857021 5:-0.37183776 6:-0.41049745 7:-0.23513219 8:0.76630664 
50 1:-0.14410471 2:-0.50766417 3:-0.64033683 4:-0.58818656 5:-0.45115235 6:-0.42494495 7:-0.36164461 8:-0.44135035 
32.416234554674546 1:0.78790314 2:-0.038140519 3:1.8057997 4:0.040887135 5:-0.15212824 6:-0.16314498 7:-0.052707606 8:0.31999862 
50 1:-0.14410471 2:-0.31330409 3:-0.57468359 4:0.064074146 5:-0.39878496 6:-0.31767048 7:-0.2323731 8:-0.19194293 
9.2255605081870566 1:0.78790314 2:0.16391513 3:0.098815407 4:0.54545666 5:-0.17386565 6:-0.30601476 7:0.0010946621 8:0.41188557 
10.66770316328209 1:0.78790314 2:-0.29040508 3:-0.050933001 4:-0.23332448 5:0.14608745 6:0.054335351 7:0.16022928 8:0.72692652 
10.272829898870906 1:-1.0761126 2:0.059367991 3:1.1669715 4:-0.60885325 5:0.13575769 6:0.49097108 7:-0.36610785 8:1.3241917 
50 1:1.719911 2:0.30600164 3:-0.010729611 4:1.6360023 5:0.14060818 6:0.23377756 7:-0.058306938 8:1.0288408 
50 1:-1.0761126 2:0.1448639 3:-0.44116407 4:1.6917015 5:-0.3884552 6:-0.37350625 7:-0.30816694 8:0.35937874 
50 1:0.78790314 2:-0.49874857 3:-0.68939235 4:-0.56172313 5:-0.47360835 6:-0.4441385 7:-0.3794164 8:-0.71701119 
50 1:-1.0761126 2:-0.5205214 3:-0.48247398 4:-0.69000779 5:-0.49166298 6:-0.45272325 7:-0.40254408 8:-0.78264472 
50 1:-0.14410471 2:-0.40996796 3:-0.65361502 4:-0.078072314 5:-0.41243821 6:-0.37853147 7:-0.34565812 8:-0.49385718 
2.0980243046824905 1:-1.0761126 2:2.7316079 3:3.8414191 4:3.6220202 5:1.6357287 6:2.290209 7:2.7997864 8:2.0855406 
50 1:-0.14410471 2:-0.40527554 3:-0.80225691 4:0.015935894 5:-0.39824602 6:-0.46493732 7:-0.21955144 8:-0.29039323 
12.299957358959455 1:-0.14410471 2:-0.17215606 3:1.2547551 4:-0.15317807 5:-0.23261055 6:-0.11414909 7:-0.32812978 8:0.037774431 
-50 1:0.78790314 2:-0.40865409 3:0.065712156 4:-0.42644456 5:-0.3233328 6:-0.30001241 7:-0.2759505 8:-0.19522461 
-50 1:-0.14410471 2:-0.49696545 3:-0.65361502 4:-0.54735726 5:-0.46651226 6:-0.43122648 7:-0.38209435 8:-0.75639131 
-50 1:-1.0761126 2:-0.15000784 3:1.054107 4:-0.0085112806 5:-0.19506412 6:-0.31020244 7:-0.032339025 8:0.2806185 
-50 1:0.78790314 2:-0.19205193 3:0.41896718 4:-0.63960124 5:0.091833751 6:0.32751186 7:-0.25541962 8:1.4882755 
-50 1:1.719911 2:-0.26178131 3:0.81104244 4:-0.35959288 5:-0.35270525 6:-0.34810097 7:-0.27311026 8:-0.034422454 
-50 1:-0.14410471 2:-0.46712165 3:-0.49953276 4:-0.58837559 5:-0.29737366 6:-0.2988957 7:-0.23034436 8:-0.24444976 
-50 1:-1.0761126 2:-0.51601668 3:-0.69344957 4:-0.57709712 5:-0.49974714 6:-0.45712032 7:-0.39451025 8:-0.8285882 
-50 1:-1.0761126 2:-0.53197091 3:-0.65130978 4:-0.72837977 5:-0.51061584 6:-0.47568571 7:-0.410091 8:-0.93688352 
-9.1001869987626858 1:1.719911 2:0.35667979 3:-0.10293922 4:1.94197 5:-0.36348413 6:-0.29435904 7:-0.35507149 8:0.54315263 
-3.4803600896865321 1:-0.14410471 2:2.2627412 3:1.1621766 4:2.9944587 5:3.3108566 6:4.4040117 7:5.257487 8:2.4202717 
-50 1:-1.0761126 2:-0.48410822 3:-0.69676911 4:-0.35304002 5:-0.44845763 6:-0.46619363 7:-0.30881614 8:-0.69732113 
-50 1:1.719911 2:0.51565901 3:-0.11474205 4:1.8764415 5:0.0062314749 6:-0.33002414 7:0.35442057 8:1.0419675 
-50 1:-1.0761126 2:-0.47453568 3:-0.77090564 4:-0.14561709 5:-0.50468746 6:-0.46758952 7:-0.40879261 8:-0.67763107 
-50 1:1.719911 2:0.1450516 3:-0.27850632 4:1.3895143 5:-0.0084996617 6:0.13236584 7:-0.20981348 8:0.61534952 
-50 1:0.78790314 2:0.034779704 3:1.426726 4:-0.71237569 5:-0.26782156 6:-0.15058193 7:-0.34939101 8:-0.10333766 
-26.76907341579977 1:1.719911 2:0.80086437 3:-0.28108819 4:1.887783 5:1.0772929 6:0.91636987 7:0.84050743 8:1.5670357 
-2.1327478289520441 1:0.78790314 2:5.0919896 3:-0.083390784 4:5.5659487 5:3.1210585 6:1.8181874 7:3.4847713 8:3.1159871 
-50 1:-1.0761126 2:-0.52896776 3:-0.5661081 4:-0.73946921 5:-0.50630429 6:-0.4652863 7:-0.40400477 8:-0.87453167 
-50 1:-1.0761126 2:-0.52784158 3:-0.7993062 4:-0.57835729 5:-0.50792112 6:-0.46961357 7:-0.40903605 8:-0.86796832 
-50 1:-0.14410471 2:-0.16858982 3:2.0525526 4:-0.14939758 5:-0.34480073 6:-0.32192795 7:-0.28925906 8:0.25436509 
-50 1:-1.0761126 2:-0.2474225 3:-0.72516967 4:0.51823713 5:-0.25129394 6:-0.36471211 7:-0.070560546 8:-0.021295748 
-50 1:-0.14410471 2:0.22050573 3:0.14713324 4:0.13237502 5:-0.1673085 6:-0.16049278 7:-0.049623917 8:0.70067311 
-0.096687437161919826 1:-0.14410471 2:0.032527342 3:-0.60308415 4:0.89704232 5:-0.26243212 6:-0.26218368 7:-0.20989463 8:-0.11974605 
-50 1:1.719911 2:-0.42695453 3:-0.20759713 4:-0.52246903 5:-0.45124218 6:-0.40686812 7:-0.38282469 8:-0.62184257 
-50 1:-0.14410471 2:-0.13058121 3:-0.35162854 4:-0.14794839 5:-0.074969425 6:-0.066130325 7:-0.09912525 8:-0.28711155 
-16.345471526377349 1:0.78790314 2:-0.45379518 3:-0.58556432 4:-0.22765374 5:-0.48429741 6:-0.45439832 7:-0.38728793 8:-0.6316876 
-50 1:-1.0761126 2:-0.532534 3:-0.61783769 4:-0.72970294 5:-0.50208256 6:-0.46996254 7:-0.40132683 8:-0.8843767 
-3.9794673812399641 1:-0.14410471 2:1.776231 3:-0.33530744 4:2.1133523 5:2.7504446 6:1.3361153 7:3.3756249 8:2.2430611 
-50 1:-1.0761126 2:-0.51291968 3:-0.74029205 4:-0.54559303 5:-0.50010644 6:-0.45886518 7:-0.41065905 8:-0.69075778 
-50 1:-0.14410471 2:-0.37815335 3:-0.43452498 4:0.031309891 5:-0.4019288 6:-0.35836079 7:-0.27968339 8:-0.2247597 
-50 1:-1.0761126 2:-0.23963308 3:-0.31133294 4:-0.0095194115 5:0.10934943 6:0.028650897 7:0.1237119 8:0.54971598 
-50 1:-1.0761126 2:-0.48804985 3:-0.62484562 4:-0.27024727 5:-0.49633383 6:-0.46458835 7:-0.39718819 8:-0.71701119 
-50 1:-1.0761126 2:-0.49602697 3:-0.86717248 4:-0.46595069 5:-0.41692941 6:-0.3979344 7:-0.33121347 8:-0.61856089 
-50 1:-0.14410471 2:-0.52549537 3:-0.5776343 4:-0.69404031 5:-0.50010644 6:-0.47268454 7:-0.3945914 8:-0.87453167 
-50 1:-1.0761126 2:-0.53412942 3:-0.72885806 4:-0.70613788 5:-0.51088532 6:-0.47149803 7:-0.41544688 8:-0.93360185 
-50 1:0.78790314 2:-0.45951993 3:-0.56361844 4:-0.47124338 5:-0.34524985 6:-0.3213696 7:-0.29071975 8:-0.42494197 
-50 1:-1.0761126 2:-0.48664212 3:-0.63996799 4:-0.75276394 5:-0.46525472 6:-0.41838425 7:-0.3947537 8:-0.98610867 
-50 1:1.719911 2:0.087897911 3:-0.014417995 4:0.71003404 5:-0.20296863 6:-0.37176138 7:0.024952682 8:0.58253275 
-15.995373491837569 1:1.719911 2:-0.45332593 3:-0.2217052 4:-0.43117017 5:-0.43615174 6:-0.41475492 7:-0.34638847 8:-0.61856089 
-50 1:-1.0761126 2:0.14552084 3:2.2347588 4:0.32946461 5:-0.13092978 6:-0.15902709 7:-0.047919773 8:0.63503958 
-35.74626828248843 1:0.78790314 2:-0.47153253 3:-0.70857194 4:-0.54206457 5:-0.48492618 6:-0.44323117 7:-0.37836146 8:-0.65794101 
-34.323512341050595 1:1.719911 2:0.44039258 3:-0.2773998 4:0.88318052 5:0.50556311 6:-0.087487508 7:0.97464793 8:0.60222281 
-50 1:-1.0761126 2:-0.5265277 3:-0.73549715 4:-0.64464189 5:-0.50980743 6:-0.46975316 7:-0.41552803 8:-0.90734843 
-50 1:-1.0761126 2:-0.51113656 3:-0.80004388 4:-0.45334905 5:-0.50881936 6:-0.47373146 7:-0.4091172 8:-0.7301379 
-50 1:-1.0761126 2:-0.51479665 3:-0.80115039 4:-0.62195895 5:-0.50648394 6:-0.47240536 7:-0.40643926 8:-0.88765837 
-50 1:-1.0761126 2:0.07306986 3:-0.46938021 4:1.3005467 5:-0.18042281 6:-0.096281642 7:0.025033831 8:0.34132952 
-50 1:0.78790314 2:-0.50766417 3:-0.64033683 4:-0.58818656 5:-0.45115235 6:-0.42494495 7:-0.36164461 8:-0.44135035 
-50 1:-0.14410471 2:-0.1074945 3:1.4528213 4:0.10162702 5:0.2589064 6:0.064455585 7:0.35231068 8:0.21498497 
-50 1:0.78790314 2:-0.45623524 3:-0.50866151 4:-0.31523511 5:-0.36411289 6:-0.32576666 7:-0.24178647 8:-0.21163299 
-50 1:-1.0761126 2:-0.43145925 3:-0.72553851 4:-0.21492609 5:-0.4359721 6:-0.41719774 7:-0.34322363 8:-0.55949071 
-50 1:1.719911 2:0.6619687 3:0.48277623 4:2.2998565 5:0.48616113 6:0.30755058 7:0.4802838 8:1.6326693 
-50 1:-0.14410471 2:-0.041143668 3:0.95765572 4:-0.30527982 5:0.013507219 6:-0.057894549 7:0.069666181 8:0.2806185 
-50 1:-0.14410471 2:-0.34887264 3:-0.70820311 4:0.24150519 5:-0.45187095 6:-0.43904348 7:-0.34655077 8:-0.35602676 
-50 1:-0.14410471 2:-0.30992555 3:-0.48800656 4:-0.019222672 5:-0.13649887 6:-0.26134614 7:0.01667541 8:0.052541976 
-50 1:-1.0761126 2:-0.21420016 3:0.32823292 4:-0.28221883 5:0.038568116 6:0.12273417 7:-0.1135699 8:-0.49385718 
-50 1:1.719911 2:-0.18698411 3:0.017302111 4:0.50689566 5:0.071802998 6:0.14695294 7:-0.081678059 8:0.29374521 
-3.338899277726918 1:-1.0761126 2:2.1706759 3:3.1144385 4:2.8651659 5:1.5879424 6:-0.3596171 7:3.2467591 8:2.0592872 
-1.2595480011822819 1:1.719911 2:2.3121993 3:1.4720009 4:0.32744835 5:6.0803103 6:6.4459957 7:3.451013 8:3.2603809 
-50 1:-1.0761126 2:-0.39354449 3:1.3801602 4:-0.41579617 5:-0.45223024 6:-0.39263 7:-0.31952791 8:-0.25757646 
-50 1:-0.14410471 2:-0.404994 3:-0.70746543 4:0.040887135 5:-0.45528426 6:-0.42473557 7:-0.35685678 8:-0.53980065 
-50 1:-1.0761126 2:-0.52990625 3:-0.65167861 4:-0.70683097 5:-0.5104362 6:-0.47010213 7:-0.4096041 8:-0.94508772 
-50 1:-1.0761126 2:-0.53168937 3:-0.66984391 4:-0.76813793 5:-0.50450781 6:-0.46402999 7:-0.41260664 8:-0.92047514 
-50 1:-1.0761126 2:-0.5298124 3:-0.57837197 4:-0.76561761 5:-0.50612464 6:-0.46696137 7:-0.41211974 8:-0.86140496 
-50 1:-0.14410471 2:-0.052780873 3:2.10419 4:0.13287908 5:-0.29997855 6:-0.25031858 7:-0.29153125 8:0.33312533 
-50 1:-0.14410471 2:-0.50137633 3:-0.60603486 4:-0.51887756 5:-0.47576413 6:-0.45537545 7:-0.37073338 8:-0.55292736 
-50 1:-1.0761126 2:-0.5117935 3:-0.66025411 4:-0.53122717 5:-0.49345946 6:-0.45188571 7:-0.38842402 8:-0.87453167 
-50 1:-0.14410471 2:-0.47866501 3:-0.52157085 4:-0.76460947 5:-0.40390493 6:-0.32171857 7:-0.39629555 8:-0.90734843 
-23.049119263487128 1:-1.0761126 2:-0.52502613 3:-0.73992321 4:-0.68043054 5:-0.50926848 6:-0.47010213 7:-0.41414849 8:-0.92703849 
-50 1:-0.14410471 2:-0.16690055 3:1.318933 4:0.12052948 5:-0.23970665 6:-0.2975696 7:-0.12768995 8:0.018084372 
-50 1:-0.14410471 2:-0.24563938 3:-0.61857536 4:0.57444043 5:-0.32611734 6:-0.37113323 7:-0.19829022 8:0.011521018 
-50 1:-0.14410471 2:-0.50879035 3:-0.62927168 4:-0.55592637 5:-0.47747079 6:-0.42997017 7:-0.40335557 8:-0.66450436 
-50 1:-0.14410471 2:-0.51789365 3:-0.80446994 4:-0.54105644 5:-0.48546512 6:-0.45823703 7:-0.38493459 8:-0.72357454 
-17.647325709486328 1:-0.14410471 2:-0.51291968 3:-0.73992321 4:-0.41680431 5:-0.51205303 6:-0.47470858 7:-0.41382389 8:-0.7301379 
-50 1:-1.0761126 2:-0.51423356 3:-0.67943371 4:-0.6138939 5:-0.473788 6:-0.44909392 7:-0.37446627 8:-0.84827826 
-50 1:-1.0761126 2:-0.30551467 3:0.53072522 4:-0.25575539 5:-0.24105401 6:-0.16886814 7:-0.27976454 8:-0.21819634 
-6.7327657468020146 1:1.719911 2:0.50064327 3:3.019647 4:-0.34547904 5:1.2184064 6:2.192636 7:-0.38842402 8:3.0241002 
-50 1:-1.0761126 2:0.065561987 3:1.3758263 4:-0.71313179 5:-0.2645879 6:-0.11701067 7:-0.38258124 8:0.12966138 
-50 1:0.78790314 2:0.42331217 3:-0.54296348 4:2.0062384 5:0.54023518 6:0.54171184 7:0.30573073 8:0.72692652 
-50 1:0.78790314 2:-0.42019744 3:-0.37846154 4:0.022236713 5:-0.48169251 6:-0.42941181 7:-0.41163285 8:-0.48729383 
-7.8816697488425147 1:0.78790314 2:2.0549608 3:0.1611491 4:2.0397587 5:1.916788 6:1.6749686 7:2.0844516 8:1.6195426 
-50 1:-1.0761126 2:-0.49555772 3:-0.74619347 4:-0.50325153 5:-0.45079306 6:-0.43499539 7:-0.34930986 8:-0.69732113 
-50 1:-0.14410471 2:-0.17440843 3:-0.41313235 4:-0.57608899 5:-0.2799478 6:-0.28354086 7:-0.2167112 8:-0.47416712 
-50 1:-1.0761126 2:-0.5329094 3:-0.6908677 4:-0.71193463 5:-0.51052602 6:-0.47219597 7:-0.41398619 8:-0.92703849 
-50 1:-0.14410471 2:-0.52127219 3:-0.72000594 4:-0.57860932 5:-0.48384829 6:-0.45565463 7:-0.38501574 8:-0.68419442 
-50 1:-1.0761126 2:-0.2501441 3:-0.58390455 4:0.14900918 5:-0.059789168 6:-0.20418427 7:0.088817516 8:-0.040985808 
-50 1:-1.0761126 2:-0.51620438 3:-0.79967504 4:-0.60885325 5:-0.47962656 6:-0.45090859 7:-0.38290584 8:-0.82202484 
-50 1:-1.0761126 2:-0.51442126 3:-0.65997748 4:-0.73354644 5:-0.50360957 6:-0.46493732 7:-0.40359902 8:-0.86468664 
-50 1:-0.14410471 2:-0.30748549 3:0.90767811 4:-0.090925984 5:-0.34668704 6:-0.30294379 7:-0.21525051 8:-0.060675867 
-50 1:0.78790314 2:0.70588976 3:-0.54130371 4:2.388194 5:-0.21132226 6:-0.26343998 7:-0.11608554 8:1.0386858 
-50 1:-0.14410471 2:-0.23503451 3:-0.68791699 4:0.031057858 5:-0.06410072 6:0.2095588 7:0.38063193 8:0.26749179 
-50 1:0.78790314 2:-0.18651487 3:-0.43268079 4:0.53814771 5:-0.11997125 6:-0.22728632 7:0.0069374424 8:0.062387006 
-50 1:-0.14410471 2:-0.4883314 3:-0.70857194 4:-0.47704013 5:-0.47935709 6:-0.4467209 7:-0.38241894 8:-0.62512425 
-50 1:-0.14410471 2:-0.50203326 3:-0.66799972 4:-0.64590206 5:-0.49040544 6:-0.45258366 7:-0.38923552 8:-0.86140496 
-50 1:-1.0761126 2:-0.53300324 3:-0.89225349 4:-0.64993458 5:-0.49705242 6:-0.46891562 7:-0.39345531 8:-0.86140496 
-50 1:-1.0761126 2:-0.53375403 3:-0.71410452 4:-0.70664195 5:-0.50890919 6:-0.47003234 7:-0.41358044 8:-0.79577143 
-50 1:0.78790314 2:-0.45839375 3:-0.060153962 4:-0.62271505 5:-0.46130247 6:-0.4401602 7:-0.36229381 8:-0.7301379 
-5.9895312109214958 1:1.719911 2:1.5797124 3:0.54031502 4:-0.4891377 5:3.1908517 6:4.6427097 7:0.32682966 8:0.63503958 
-50 1:0.78790314 2:-0.22564966 3:-0.68090906 4:0.032318022 5:0.3625633 6:0.17082273 7:0.41593206 8:0.59565946 
-50 1:-0.14410471 2:0.047918483 3:2.1890229 4:0.10565955 5:-0.20871737 6:-0.080438242 7:-0.32415344 8:0.09684461 
-50 1:-0.14410471 2:-0.032228068 3:1.8729283 4:0.11700102 5:-0.14350514 6:-0.28717019 7:0.034041451 8:0.91070041 
-50 1:-0.14410471 2:-0.49743469 3:-0.68275325 4:-0.43772302 5:-0.4606737 6:-0.46507691 7:-0.33218726 8:-0.65794101 
-6.7349835532825271 1:1.719911 2:0.82179256 3:-0.60898557 4:2.4520843 5:0.094977591 6:0.12057054 7:-0.0091302034 8:1.0157141 
-50 1:-1.0761126 2:-0.49799778 3:-0.77311867 4:-0.53425156 5:-0.49642365 6:-0.47031152 7:-0.39069622 8:-0.82202484 
-50 1:-1.0761126 2:-0.51151196 3:-0.66763088 4:-0.53576375 5:-0.4924714 6:-0.45495668 7:-0.39199461 8:-0.79577143 
-50 1:0.78790314 2:-0.51620438 3:-0.33309441 4:-0.65648743 5:-0.49705242 6:-0.46088923 7:-0.39889234 8:-0.83515155 
-50 1:0.78790314 2:-0.47134483 3:-0.54812722 4:-0.46670679 5:-0.47774026 6:-0.44686049 7:-0.38258124 8:-0.60543419 
-50 1:1.719911 2:-0.4703125 3:-0.066055377 4:-0.5460971 5:-0.41845642 6:-0.43604231 7:-0.28966481 8:-0.41509694 
-15.479261068880765 1:1.719911 2:0.61720301 3:2.5733525 4:0.93585536 5:-0.12284562 6:-0.24166403 7:0.018460703 8:0.72692652 
-50 1:0.78790314 2:-0.45501521 3:-0.35291948 4:-0.67898135 5:-0.46597331 6:-0.42668982 7:-0.38639528 8:-0.73341957 
-50 1:-0.14410471 2:-0.28805886 3:-0.33539965 4:-0.52045277 5:-0.22677199 6:-0.15721243 7:-0.26751093 8:-0.5890258 
-50 1:0.78790314 2:-0.43521319 3:-0.098697579 4:-0.71684927 5:-0.43004371 6:-0.39632912 7:-0.35677563 8:-0.46760377 
-4.0828848197477807 1:0.78790314 2:4.2794499 3:-0.47841676 4:5.4306071 5:1.3928446 6:0.68653587 7:1.6778915 8:2.7090592 
-50 1:-1.0761126 2:-0.22705739 3:1.1474231 4:-0.047576354 5:-0.14377461 6:-0.13892621 7:-0.13880747 8:0.62191287 
-50 1:-0.14410471 2:-0.50053169 3:-0.57505243 4:-0.55617841 5:-0.47783008 6:-0.43939246 7:-0.37389822 8:-0.68419442 
-50 1:-0.14410471 2:-0.38603662 3:0.27401367 4:-0.11864958 5:-0.46525472 6:-0.41929158 7:-0.3505271 8:-0.44135035 
-50 1:-1.0761126 2:0.037313612 3:-0.44420699 4:0.076990823 5:0.3756776 6:0.3018972 7:0.2872286 8:0.40532221 
-50 1:-0.14410471 2:-0.46890477 3:-0.76131584 4:-0.45511328 5:-0.44324784 6:-0.44693029 7:-0.3218001 8:-0.64481431 
-50 1:1.719911 2:0.18428024 3:0.091069799 4:0.89754639 5:0.043149141 6:-0.029976663 7:0.10212607 8:1.0813476 
-50 1:1.719911 2:-0.12194716 3:-0.37514199 4:0.59762744 5:-0.22165202 6:-0.15742181 7:-0.046053329 8:0.083717904 
-50 1:-1.0761126 2:-0.5148905 3:-0.58510328 4:-0.46576166 5:-0.50935831 6:-0.47170741 7:-0.41244434 8:-0.81874317 
-50 1:-1.0761126 2:-0.43352392 3:-0.50027043 4:-0.1441679 5:-0.49956749 6:-0.46584465 7:-0.40157028 8:-0.66286353 
-50 1:-1.0761126 2:-0.5148905 3:-0.57874081 4:-0.59599958 5:-0.48842932 6:-0.45390976 7:-0.39532175 8:-0.87453167 
-50 1:-1.0761126 2:-0.21269858 3:-0.41193363 4:-0.037432037 5:-0.24707222 6:-0.14136903 7:-0.3226116 8:-0.08692928 
-50 1:-0.14410471 2:-0.24892407 3:0.87964639 4:-0.19879599 5:-0.063022832 6:-0.035141472 7:-0.1135699 8:0.93695382 
-50 1:-1.0761126 2:0.080671582 3:2.4944211 4:0.07087903 5:-0.10290469 6:-0.3913039 7:0.2284762 8:0.72692652 
-4.991145513571448 1:1.719911 2:2.3363184 3:-0.42456634 4:3.6331097 5:0.3513353 6:0.4062403 7:0.60931186 8:2.7878194 
-50 1:-1.0761126 2:-0.34296019 3:-0.54259465 4:0.097090434 5:-0.36626867 6:-0.3147391 7:-0.33640705 8:-0.45447706 
-30.780445579937222 1:0.78790314 2:1.827003 3:0.27770205 4:0.011903371 5:0.51445569 6:0.40337872 7:0.41998955 8:-0.29695658 
-50 1:-1.0761126 2:-0.5327217 3:-0.74766882 4:-0.64186953 5:-0.50693306 6:-0.4731731 7:-0.40635811 8:-0.89422173 
-38.311841115725024 1:-0.14410471 2:1.8528113 3:1.0968922 4:0.36348903 5:0.90725606 6:1.0540748 7:0.37316616 8:0.018084372 
-50 1:-0.14410471 2:-0.44825812 3:-0.49317029 4:-0.30313754 5:-0.46471578 6:-0.44253322 7:-0.3657021 8:-0.48073047 
-50 1:-1.0761126 2:-0.42113593 3:-0.7052524 4:-0.43999132 5:-0.50738218 6:-0.47268454 7:-0.40773766 8:-0.7301379 
-50 1:-0.14410471 2:-0.5119812 3:-0.66615552 4:-0.48938973 5:-0.49579488 6:-0.46067985 7:-0.40075878 8:-0.75639131 
-50 1:-1.0761126 2:-0.48335743 3:-0.71816174 4:-0.42612952 5:-0.47926727 6:-0.44818659 7:-0.38412309 8:-0.8417149 
-50 1:-1.0761126 2:-0.27229233 3:-0.62705865 4:0.23142388 5:-0.30671536 6:-0.2420828 7:-0.31327938 8:-0.48729383 
-1.1807762537521673 1:0.78790314 2:1.9885161 3:6.2329675 4:2.550377 5:0.88884214 6:1.2646455 7:1.6073723 8:1.4751488 
-50 1:0.78790314 2:0.071568285 3:-0.48579353 4:1.1944409 5:-0.11655794 6:-0.36575903 7:0.17410588 8:0.42501227 
