svm_type c_svc
kernel_type rbf
gamma 9.0000000000000002e-06
nr_class 2
total_sv 44
rho -0.73875115273439229
label 1 0
probA -1.4988326494658075
probB -0.2405234860951348
nr_sv 31 13
SV
0.023587702395166058 1:27 2:171 3:213 4:2252 5:68 6:47 7:51 8:173 
0.085224137197005154 1:22 2:148 3:102 4:1940 5:36 6:165 7:36 8:116 
0.055901838100830666 1:37 2:159 3:83 4:2816 5:213 6:65 7:158 8:6 
0.096652040371559139 1:37 2:143 3:96 4:2996 5:110 6:14 7:100 8:90 
500 1:22 2:27 3:29 4:151 5:6 6:3 7:2 8:6 
500 1:27 2:30 3:29 4:181 5:4 6:2 7:15 8:15 
0.087996119580095289 1:22 2:269 3:273 4:2227 5:3 6:67 7:120 8:64 
500 1:22 2:41 3:36 4:220 5:2 6:0 7:0 8:1 
0.11043724484864829 1:27 2:128 3:124 4:1344 5:14 6:23 7:117 8:26 
0.51827521026573509 1:37 2:207 3:79 4:1342 5:68 6:0 7:191 8:87 
0.071007097233229594 1:32 2:187 3:114 4:2432 5:32 6:9 7:192 8:73 
109.10700087069547 1:22 2:30 3:37 4:264 5:2 6:2 7:3 8:3 
0.0094685107652473805 1:22 2:297 3:202 4:3040 5:231 6:164 7:114 8:125 
0.045144359387723515 1:37 2:228 3:227 4:2076 5:87 6:145 7:355 8:223 
0.18934926628119594 1:27 2:180 3:101 4:2588 5:529 6:106 7:350 8:174 
0.11464799273420069 1:27 2:213 3:102 4:2376 5:432 6:100 7:90 8:30 
146.77080385168577 1:22 2:45 3:44 4:404 5:4 6:15 7:20 8:22 
0.10894440558506009 1:32 2:125 3:203 4:1860 5:16 6:5 7:29 8:25 
0.21082733433207634 1:22 2:258 3:132 4:2112 5:24 6:8 7:644 8:332 
0.13110702804266408 1:37 2:240 3:163 4:2960 5:13 6:132 7:295 8:81 
0.15791135107405077 1:27 2:216 3:108 4:3312 5:208 6:196 7:193 8:128 
500 1:27 2:17 3:20 4:148 5:2 6:4 7:1 8:0 
0.23654925695970461 1:27 2:309 3:282 4:3304 5:437 6:462 7:435 8:366 
500 1:22 2:20 3:19 4:102 5:1 6:1 7:2 8:0 
0.11969091596343352 1:22 2:232 3:176 4:2444 5:42 6:44 7:405 8:287 
52.249522610291898 1:32 2:1 3:10 4:280 5:2 6:15 7:0 8:1 
0.20737447878516926 1:22 2:154 3:131 4:3052 5:521 6:400 7:118 8:17 
3.7880682285979841 1:32 2:133 3:142 4:1076 5:16 6:22 7:15 8:18 
0.16385131023624189 1:32 2:213 3:121 4:2004 5:418 6:92 7:178 8:23 
8.708415759405657 1:37 2:39 3:49 4:488 5:71 6:34 7:16 8:0 
0.2939818655004251 1:32 2:273 3:71 4:1399 5:50 6:5 7:283 8:22 
-9.229106523233547 1:32 2:172 3:51 4:560 5:25 6:13 7:25 8:7 
-442.92849613768374 1:32 2:32 3:31 4:200 5:4 6:1 7:0 8:4 
-13.304491316508031 1:32 2:25 3:52 4:248 5:2 6:48 7:1 8:0 
-321.19580731141207 1:32 2:38 3:49 4:321 5:2 6:11 7:9 8:5 
-500 1:27 2:26 3:25 4:156 5:0 6:0 7:12 8:9 
-500 1:27 2:34 3:32 4:161 5:1 6:3 7:0 8:3 
-18.231868707280309 1:22 2:20 3:15 4:116 5:1 6:0 7:5 8:1 
-44.779225815455661 1:32 2:30 3:31 4:161 5:19 6:14 7:11 8:8 
-82.871572400089747 1:37 2:38 3:47 4:344 5:5 6:14 7:23 8:29 
-382.69583426292735 1:22 2:18 3:13 4:112 5:3 6:0 7:5 8:1 
-4.9508935454850738 1:37 2:248 3:239 4:1109 5:32 6:12 7:63 8:0 
-3.4744447662409748 1:32 2:66 3:58 4:434 5:20 6:35 7:16 8:24 
-500 1:22 2:22 3:16 4:132 5:3 6:1 7:1 8:0 
