svm_type c_svc
kernel_type rbf
gamma 1.0000000000000001e-09
nr_class 2
total_sv 918
rho 261.425189609661
label 1 0
probA -1.3143591257923597
probB -0.034612778842859473
nr_sv 464 454
SV
100000 1:22 2:482 3:18 4:40 5:180 6:9 7:12 8:6 9:6 
100000 1:27 2:20723 3:503 4:95 5:1964 6:21 7:151 8:26 9:111 
100000 1:37 2:2158 3:81 4:109 5:556 6:9 7:60 8:32 9:91 
22638.712594864668 1:37 2:55016 3:289 4:434 5:2064 6:109 7:318 8:137 9:80 
100000 1:22 2:275 3:29 4:25 5:168 6:0 7:10 8:7 9:5 
100000 1:27 2:707 3:35 4:85 5:384 6:6 7:1 8:5 9:1 
100000 1:32 2:5163 3:96 4:146 5:844 6:47 7:309 8:91 9:122 
100000 1:27 2:3809 3:137 4:101 5:786 6:8 7:64 8:82 9:9 
100000 1:22 2:1805 3:46 4:110 5:531 6:35 7:11 8:33 9:151 
100000 1:37 2:3957 3:119 4:49 5:892 6:47 7:0 8:349 9:96 
100000 1:27 2:160 3:21 4:36 5:156 6:11 7:31 8:5 9:15 
100000 1:32 2:4381 3:157 4:136 5:692 6:59 7:0 8:169 9:149 
100000 1:37 2:1831 3:17 4:151 5:812 6:4 7:412 8:5 9:10 
100000 1:22 2:785 3:29 4:39 5:176 6:13 7:33 8:0 9:2 
21802.708206878968 1:32 2:23796 3:200 4:184 5:1316 6:151 7:13 8:321 9:236 
100000 1:22 2:6146 3:46 4:91 5:587 6:9 7:91 8:9 9:11 
100000 1:37 2:8841 3:223 4:184 5:1288 6:46 7:6 8:123 9:60 
100000 1:37 2:5434 3:149 4:93 5:1008 6:24 7:88 8:209 9:95 
100000 1:27 2:2266 3:77 4:48 5:428 6:23 7:9 8:113 9:57 
100000 1:27 2:1029 3:54 4:44 5:276 6:1 7:1 8:36 9:30 
100000 1:27 2:9156 3:108 4:103 5:812 6:68 7:20 8:244 9:52 
100000 1:37 2:20212 3:246 4:211 5:1009 6:125 7:41 8:64 9:377 
100000 1:27 2:345 3:52 4:41 5:272 6:20 7:31 8:81 9:15 
100000 1:22 2:286 3:31 4:40 5:264 6:15 7:7 8:4 9:29 
100000 1:22 2:7251 3:53 4:110 5:592 6:8 7:325 8:17 9:89 
100000 1:22 2:809 3:42 4:47 5:436 6:2 7:2 8:62 9:78 
100000 1:22 2:139 3:17 4:25 5:124 6:11 7:10 8:0 9:12 
100000 1:22 2:1814 3:130 4:59 5:792 6:6 7:25 8:224 9:11 
100000 1:27 2:585 3:68 4:45 5:264 6:12 7:33 8:49 9:17 
100000 1:32 2:3165 3:136 4:36 5:836 6:28 7:6 8:372 9:28 
100000 1:27 2:894 3:42 4:70 5:364 6:24 7:13 8:50 9:21 
100000 1:32 2:23098 3:75 4:236 5:1204 6:214 7:710 8:77 9:122 
100000 1:22 2:195 3:31 4:33 5:204 6:10 7:0 8:17 9:25 
100000 1:27 2:3557 3:118 4:104 5:676 6:110 7:28 8:39 9:20 
100000 1:32 2:1778 3:43 4:73 5:560 6:31 7:67 8:109 9:26 
100000 1:37 2:2595 3:55 4:75 5:1328 6:91 7:27 8:37 9:69 
100000 1:22 2:215 3:26 4:26 5:136 6:4 7:2 8:5 9:4 
100000 1:32 2:12237 3:84 4:117 5:1104 6:118 7:153 8:82 9:0 
100000 1:27 2:350 3:37 4:41 5:204 6:15 7:21 8:25 9:21 
100000 1:22 2:2320 3:80 4:123 5:656 6:55 7:65 8:26 9:103 
100000 1:27 2:15241 3:53 4:158 5:3216 6:86 7:412 8:135 9:271 
100000 1:22 2:4401 3:90 4:211 5:752 6:4 7:39 8:53 9:41 
100000 1:32 2:4254 3:152 4:180 5:936 6:25 7:78 8:8 9:0 
100000 1:32 2:1622 3:52 4:87 5:740 6:22 7:7 8:41 9:40 
100000 1:22 2:339 3:40 4:38 5:240 6:0 7:20 8:26 9:7 
100000 1:22 2:652 3:30 4:41 5:208 6:17 7:34 8:13 9:5 
100000 1:22 2:373 3:40 4:49 5:280 6:15 7:16 8:12 9:8 
100000 1:27 2:4436 3:153 4:36 5:668 6:51 7:14 8:176 9:35 
100000 1:32 2:45398 3:213 4:503 5:2280 6:286 7:967 8:40 9:67 
100000 1:27 2:265 3:33 4:31 5:252 6:32 7:21 8:33 9:20 
100000 1:27 2:4469 3:144 4:120 5:840 6:72 7:72 8:70 9:22 
100000 1:22 2:974 3:80 4:37 5:356 6:100 7:10 8:29 9:17 
100000 1:32 2:630 3:31 4:50 5:208 6:17 7:64 8:30 9:20 
100000 1:27 2:28329 3:355 4:381 5:2568 6:275 7:1051 8:349 9:135 
100000 1:32 2:1459 3:84 4:78 5:384 6:9 7:51 8:64 9:6 
100000 1:22 2:8875 3:136 4:114 5:528 6:37 7:75 8:44 9:28 
90873.491748164597 1:32 2:20031 3:285 4:168 5:1996 6:66 7:234 8:14 9:241 
100000 1:22 2:1473 3:52 4:43 5:332 6:12 7:3 8:10 9:5 
100000 1:27 2:11566 3:121 4:61 5:864 6:10 7:146 8:14 9:99 
100000 1:22 2:1494 3:43 4:45 5:276 6:9 7:48 8:11 9:58 
100000 1:22 2:398 3:25 4:20 5:219 6:20 7:7 8:20 9:14 
100000 1:22 2:3322 3:113 4:83 5:544 6:76 7:44 8:65 9:68 
100000 1:37 2:1517 3:35 4:147 5:572 6:19 7:4 8:9 9:58 
87015.289720520726 1:37 2:28587 3:222 4:59 5:1660 6:37 7:21 8:667 9:126 
100000 1:27 2:1505 3:66 4:46 5:346 6:77 7:72 8:55 9:4 
100000 1:27 2:32514 3:220 4:237 5:1944 6:17 7:696 8:517 9:2 
100000 1:32 2:8870 3:67 4:127 5:760 6:146 7:383 8:37 9:17 
100000 1:37 2:2711 3:91 4:69 5:692 6:143 7:152 8:52 9:155 
100000 1:22 2:834 3:31 4:26 5:433 6:53 7:7 8:57 9:12 
100000 1:37 2:20021 3:181 4:178 5:1484 6:271 7:304 8:15 9:262 
100000 1:22 2:459 3:24 4:31 5:137 6:7 7:8 8:0 9:30 
100000 1:32 2:1608 3:110 4:86 5:552 6:186 7:56 8:4 9:13 
100000 1:22 2:12082 3:114 4:98 5:432 6:40 7:47 8:62 9:18 
100000 1:22 2:1545 3:80 4:50 5:268 6:35 7:7 8:5 9:0 
100000 1:27 2:2709 3:86 4:53 5:408 6:19 7:8 8:68 9:8 
100000 1:22 2:4402 3:75 4:134 5:663 6:11 7:218 8:47 9:53 
100000 1:37 2:3722 3:105 4:40 5:880 6:9 7:103 8:370 9:14 
100000 1:22 2:1362 3:126 4:35 5:572 6:33 7:13 8:256 9:17 
100000 1:27 2:3503 3:43 4:101 5:440 6:18 7:105 8:19 9:40 
85627.44457299888 1:32 2:35480 3:293 4:83 5:1560 6:47 7:46 8:364 9:137 
100000 1:22 2:111 3:20 4:25 5:108 6:3 7:9 8:0 9:7 
100000 1:32 2:3952 3:76 4:148 5:1012 6:70 7:118 8:68 9:115 
100000 1:27 2:111 3:13 4:18 5:168 6:2 7:26 8:1 9:1 
100000 1:27 2:462 3:28 4:44 5:456 6:20 7:11 8:36 9:2 
100000 1:27 2:822 3:35 4:74 5:492 6:38 7:242 8:18 9:12 
100000 1:27 2:5331 3:38 4:110 5:558 6:39 7:3 8:50 9:19 
100000 1:32 2:1887 3:158 4:47 5:468 6:5 7:6 8:1 9:62 
100000 1:27 2:6136 3:130 4:58 5:796 6:10 7:121 8:218 9:44 
100000 1:37 2:5103 3:50 4:126 5:1008 6:1 7:278 8:9 9:62 
100000 1:27 2:14208 3:113 4:118 5:524 6:29 7:23 8:69 9:12 
100000 1:32 2:7114 3:133 4:171 5:968 6:64 7:113 8:64 9:37 
100000 1:22 2:46323 3:83 4:290 5:1588 6:22 7:626 8:67 9:122 
100000 1:22 2:183 3:30 4:28 5:148 6:8 7:14 8:0 9:2 
100000 1:37 2:2930 3:81 4:105 5:552 6:2 7:120 8:25 9:17 
100000 1:37 2:4483 3:145 4:43 5:1108 6:41 7:18 8:328 9:38 
100000 1:37 2:9337 3:147 4:49 5:900 6:23 7:35 8:269 9:33 
20493.575471013828 1:32 2:9238 3:259 4:147 5:1208 6:118 7:188 8:20 9:60 
100000 1:27 2:1242 3:82 4:39 5:608 6:51 7:27 8:55 9:3 
100000 1:22 2:374 3:37 4:40 5:210 6:0 7:1 8:3 9:1 
100000 1:22 2:287 3:33 4:38 5:192 6:11 7:17 8:57 9:36 
100000 1:32 2:18941 3:169 4:37 5:768 6:1 7:9 8:412 9:9 
53482.460691070184 1:32 2:25844 3:408 4:201 5:2648 6:96 7:410 8:280 9:369 
100000 1:27 2:1141 3:43 4:75 5:412 6:25 7:28 8:4 9:67 
100000 1:37 2:18758 3:123 4:110 5:892 6:206 7:27 8:254 9:237 
100000 1:32 2:2261 3:45 4:86 5:788 6:0 7:195 8:71 9:96 
100000 1:22 2:685 3:54 4:38 5:576 6:75 7:13 8:27 9:35 
100000 1:27 2:1102 3:20 4:44 5:676 6:5 7:88 8:16 9:75 
100000 1:27 2:5616 3:165 4:132 5:896 6:51 7:15 8:43 9:59 
62461.363426028569 1:37 2:44313 3:376 4:391 5:1904 6:9 7:140 8:44 9:19 
100000 1:22 2:2607 3:113 4:145 5:692 6:62 7:55 8:23 9:39 
100000 1:22 2:341 3:17 4:29 5:272 6:29 7:66 8:14 9:39 
100000 1:27 2:6699 3:112 4:49 5:732 6:125 7:25 8:263 9:63 
100000 1:27 2:9189 3:143 4:186 5:916 6:38 7:340 8:116 9:79 
100000 1:27 2:1730 3:104 4:74 5:460 6:38 7:87 8:2 9:6 
100000 1:32 2:2464 3:97 4:51 5:764 6:23 7:21 8:53 9:39 
100000 1:37 2:3497 3:20 4:180 5:884 6:1 7:224 8:3 9:19 
100000 1:22 2:224 3:23 4:9 5:108 6:2 7:0 8:22 9:26 
100000 1:22 2:20060 3:144 4:135 5:856 6:10 7:43 8:40 9:29 
100000 1:27 2:2320 3:86 4:103 5:612 6:18 7:63 8:11 9:18 
100000 1:27 2:6056 3:92 4:123 5:748 6:13 7:101 8:105 9:86 
100000 1:22 2:2420 3:150 4:98 5:652 6:96 7:32 8:83 9:2 
100000 1:32 2:1583 3:38 4:55 5:808 6:89 7:161 8:6 9:69 
84115.493952004239 1:22 2:16047 3:82 4:303 5:3196 6:143 7:555 8:73 9:109 
100000 1:22 2:159 3:18 4:20 5:112 6:1 7:13 8:2 9:3 
100000 1:32 2:6079 3:162 4:209 5:916 6:112 7:17 8:75 9:80 
100000 1:37 2:10839 3:94 4:146 5:996 6:37 7:290 8:59 9:14 
100000 1:22 2:251 3:18 4:41 5:204 6:26 7:49 8:3 9:12 
100000 1:22 2:582 3:122 4:1 5:288 6:9 7:0 8:21 9:0 
100000 1:22 2:4077 3:91 4:123 5:657 6:55 7:35 8:87 9:92 
22887.094398007637 1:32 2:63624 3:151 4:368 5:1552 6:96 7:88 8:133 9:30 
100000 1:22 2:3140 3:53 4:51 5:520 6:83 7:34 8:76 9:87 
100000 1:22 2:1730 3:87 4:51 5:880 6:8 7:48 8:17 9:21 
100000 1:37 2:1680 3:60 4:19 5:420 6:9 7:0 8:178 9:16 
100000 1:22 2:1004 3:37 4:21 5:386 6:51 7:15 8:103 9:49 
100000 1:22 2:312 3:35 4:25 5:175 6:22 7:7 8:35 9:0 
100000 1:22 2:203 3:29 4:25 5:138 6:3 7:9 8:0 9:2 
100000 1:22 2:572 3:46 4:49 5:460 6:2 7:60 8:7 9:16 
100000 1:37 2:2120 3:46 4:76 5:1076 6:32 7:96 8:4 9:13 
100000 1:22 2:172 3:25 4:25 5:132 6:4 7:0 8:3 9:1 
100000 1:32 2:2862 3:77 4:134 5:836 6:78 7:179 8:2 9:63 
100000 1:32 2:3324 3:125 4:91 5:748 6:155 7:53 8:134 9:81 
100000 1:37 2:3495 3:168 4:71 5:972 6:53 7:129 8:374 9:5 
100000 1:22 2:74 3:18 4:7 5:100 6:17 7:3 8:9 9:3 
100000 1:37 2:5508 3:97 4:149 5:948 6:6 7:128 8:67 9:66 
100000 1:27 2:22016 3:161 4:184 5:1468 6:244 7:488 8:31 9:242 
100000 1:22 2:3011 3:76 4:100 5:454 6:5 7:10 8:70 9:46 
100000 1:27 2:928 3:43 4:53 5:796 6:26 7:88 8:71 9:120 
100000 1:22 2:1188 3:118 4:46 5:480 6:1 7:18 8:4 9:15 
100000 1:27 2:3440 3:106 4:82 5:696 6:9 7:44 8:65 9:131 
100000 1:27 2:21764 3:450 4:274 5:1832 6:230 7:333 8:226 9:25 
100000 1:22 2:1145 3:81 4:63 5:388 6:20 7:50 8:27 9:6 
100000 1:27 2:2265 3:140 4:113 5:700 6:104 7:22 8:2 9:37 
100000 1:27 2:726 3:32 4:56 5:216 6:0 7:25 8:15 9:45 
100000 1:22 2:4672 3:136 4:73 5:600 6:89 7:109 8:23 9:9 
100000 1:27 2:2864 3:72 4:28 5:504 6:10 7:11 8:169 9:33 
100000 1:37 2:8609 3:134 4:65 5:2144 6:18 7:57 8:410 9:105 
100000 1:22 2:587 3:32 4:30 5:248 6:17 7:25 8:50 9:43 
100000 1:32 2:7589 3:184 4:180 5:932 6:57 7:164 8:29 9:133 
100000 1:32 2:4187 3:173 4:149 5:904 6:16 7:25 8:0 9:51 
11639.600163648476 1:27 2:77207 3:320 4:69 5:2552 6:2 7:15 8:1164 9:17 
100000 1:37 2:9840 3:66 4:255 5:1380 6:4 7:229 8:29 9:222 
100000 1:22 2:2436 3:48 4:66 5:473 6:65 7:106 8:22 9:43 
100000 1:22 2:564 3:25 4:28 5:128 6:3 7:20 8:0 9:21 
100000 1:22 2:2519 3:30 4:87 5:332 6:1 7:33 8:3 9:15 
100000 1:37 2:1427 3:68 4:33 5:712 6:97 7:2 8:31 9:11 
100000 1:32 2:1303 3:81 4:28 5:504 6:56 7:27 8:197 9:57 
100000 1:37 2:9278 3:195 4:108 5:1084 6:5 7:47 8:117 9:47 
100000 1:22 2:558 3:58 4:34 5:460 6:11 7:12 8:92 9:8 
100000 1:37 2:4601 3:166 4:143 5:780 6:57 7:13 8:50 9:51 
100000 1:27 2:2466 3:66 4:65 5:376 6:33 7:22 8:35 9:34 
100000 1:27 2:1186 3:43 4:19 5:204 6:7 7:0 8:80 9:1 
100000 1:22 2:167 3:22 4:30 5:240 6:30 7:75 8:9 9:27 
100000 1:22 2:1595 3:93 4:84 5:532 6:15 7:143 8:28 9:15 
100000 1:22 2:223 3:18 4:44 5:220 6:18 7:17 8:0 9:11 
100000 1:27 2:19292 3:352 4:114 5:1260 6:52 7:9 8:243 9:79 
100000 1:22 2:331 3:26 4:33 5:156 6:9 7:0 8:5 9:11 
100000 1:27 2:2802 3:65 4:78 5:584 6:83 7:117 8:34 9:137 
54670.834017106477 1:27 2:2252 3:23 4:32 5:1280 6:10 7:5 8:33 9:77 
100000 1:27 2:2643 3:91 4:36 5:564 6:0 7:3 8:77 9:12 
100000 1:27 2:24346 3:214 4:238 5:1372 6:123 7:44 8:5 9:41 
100000 1:32 2:2157 3:108 4:131 5:528 6:94 7:3 8:100 9:34 
100000 1:22 2:619 3:27 4:38 5:222 6:6 7:23 8:18 9:0 
100000 1:32 2:3798 3:122 4:91 5:556 6:13 7:6 8:43 9:45 
100000 1:32 2:3923 3:83 4:89 5:904 6:141 7:130 8:183 9:78 
100000 1:32 2:273 3:22 4:32 5:228 6:14 7:43 8:22 9:24 
100000 1:37 2:6392 3:146 4:180 5:1208 6:62 7:204 8:38 9:116 
100000 1:37 2:1062 3:36 4:60 5:376 6:42 7:44 8:4 9:2 
100000 1:32 2:6274 3:170 4:118 5:1084 6:23 7:94 8:77 9:69 
100000 1:32 2:8704 3:198 4:179 5:848 6:25 7:60 8:68 9:57 
100000 1:22 2:14574 3:131 4:121 5:652 6:84 7:11 8:40 9:7 
100000 1:22 2:276 3:22 4:48 5:236 6:27 7:41 8:1 9:5 
100000 1:37 2:10079 3:109 4:220 5:1052 6:20 7:127 8:76 9:100 
6973.1407561937294 1:27 2:53273 3:537 4:260 5:3352 6:9 7:162 8:1030 9:41 
100000 1:22 2:167 3:26 4:27 5:122 6:10 7:7 8:9 9:2 
100000 1:22 2:79 3:12 4:14 5:132 6:1 7:17 8:5 9:4 
100000 1:22 2:2047 3:45 4:128 5:508 6:1 7:49 8:38 9:51 
100000 1:22 2:317 3:50 4:13 5:272 6:3 7:5 8:156 9:6 
100000 1:32 2:5880 3:63 4:135 5:908 6:41 7:96 8:21 9:79 
100000 1:32 2:3187 3:91 4:43 5:480 6:20 7:27 8:116 9:27 
100000 1:27 2:1391 3:58 4:43 5:224 6:37 7:61 8:17 9:47 
100000 1:22 2:6466 3:125 4:145 5:696 6:10 7:81 8:37 9:35 
100000 1:22 2:346 3:37 4:38 5:212 6:0 7:7 8:22 9:2 
100000 1:22 2:1137 3:96 4:54 5:512 6:14 7:16 8:138 9:29 
100000 1:22 2:547 3:51 4:19 5:344 6:40 7:1 8:68 9:13 
100000 1:22 2:11066 3:143 4:79 5:520 6:135 7:114 8:125 9:14 
100000 1:27 2:2771 3:181 4:21 5:648 6:0 7:6 8:174 9:3 
100000 1:27 2:567 3:21 4:62 5:272 6:13 7:14 8:12 9:16 
100000 1:22 2:960 3:35 4:86 5:468 6:1 7:224 8:36 9:34 
100000 1:22 2:464 3:31 4:19 5:188 6:25 7:12 8:12 9:6 
100000 1:22 2:93 3:18 4:20 5:108 6:4 7:1 8:6 9:3 
100000 1:32 2:1247 3:31 4:45 5:520 6:76 7:124 8:51 9:72 
100000 1:22 2:1961 3:55 4:81 5:784 6:1 7:180 8:16 9:58 
100000 1:22 2:237 3:52 4:16 5:232 6:9 7:1 8:60 9:16 
100000 1:37 2:8017 3:175 4:214 5:1200 6:58 7:13 8:46 9:153 
100000 1:22 2:5481 3:84 4:88 5:414 6:114 7:26 8:11 9:168 
100000 1:27 2:35605 3:333 4:268 5:1384 6:89 7:227 8:80 9:59 
35870.440679883446 1:27 2:21054 3:508 4:109 5:2192 6:129 7:44 8:616 9:90 
100000 1:37 2:6808 3:202 4:94 5:1152 6:93 7:24 8:314 9:77 
100000 1:22 2:666 3:31 4:31 5:283 6:55 7:61 8:0 9:1 
100000 1:27 2:3876 3:154 4:39 5:760 6:57 7:3 8:168 9:29 
100000 1:27 2:2920 3:53 4:107 5:856 6:70 7:100 8:61 9:52 
100000 1:32 2:2183 3:102 4:97 5:856 6:77 7:11 8:58 9:18 
6512.0856514309171 1:32 2:60624 3:567 4:452 5:2468 6:178 7:10 8:617 9:262 
100000 1:32 2:1450 3:104 4:66 5:516 6:2 7:36 8:71 9:97 
100000 1:37 2:4371 3:75 4:111 5:508 6:20 7:48 8:72 9:146 
100000 1:37 2:22565 3:234 4:210 5:1176 6:219 7:111 8:85 9:80 
100000 1:22 2:259 3:26 4:36 5:232 6:7 7:0 8:8 9:72 
100000 1:37 2:5590 3:150 4:128 5:928 6:98 7:196 8:161 9:50 
38859.776360592477 1:32 2:30632 3:83 4:219 5:1896 6:95 7:486 8:29 9:18 
100000 1:22 2:4170 3:138 4:57 5:772 6:10 7:0 8:342 9:31 
100000 1:22 2:1019 3:94 4:26 5:513 6:43 7:25 8:67 9:26 
100000 1:37 2:9574 3:243 4:264 5:1220 6:36 7:126 8:135 9:102 
100000 1:37 2:2745 3:61 4:45 5:599 6:107 7:61 8:120 9:59 
100000 1:22 2:312 3:36 4:37 5:180 6:15 7:8 8:12 9:9 
100000 1:27 2:1430 3:53 4:50 5:303 6:45 7:3 8:34 9:0 
100000 1:22 2:4513 3:86 4:146 5:748 6:0 7:348 8:58 9:51 
100000 1:22 2:15788 3:128 4:69 5:840 6:12 7:36 8:30 9:43 
100000 1:37 2:11469 3:134 4:44 5:548 6:51 7:29 8:155 9:0 
17620.830848271205 1:32 2:9187 3:106 4:70 5:953 6:63 7:158 8:289 9:192 
100000 1:27 2:1138 3:99 4:35 5:440 6:18 7:23 8:114 9:16 
100000 1:32 2:2218 3:117 4:115 5:788 6:86 7:18 8:26 9:21 
100000 1:32 2:15403 3:290 4:136 5:1288 6:6 7:12 8:344 9:161 
100000 1:27 2:647 3:40 4:55 5:252 6:32 7:43 8:1 9:0 
100000 1:37 2:4875 3:37 4:209 5:932 6:29 7:502 8:2 9:45 
100000 1:27 2:30347 3:185 4:285 5:1188 6:124 7:94 8:111 9:21 
27096.792939787145 1:37 2:24641 3:286 4:69 5:1880 6:3 7:37 8:885 9:100 
100000 1:22 2:11649 3:25 4:118 5:721 6:21 7:302 8:13 9:11 
100000 1:27 2:14226 3:98 4:222 5:988 6:17 7:450 8:108 9:171 
100000 1:32 2:4828 3:111 4:53 5:744 6:167 7:59 8:61 9:75 
100000 1:27 2:5559 3:143 4:140 5:804 6:54 7:11 8:120 9:21 
100000 1:37 2:43847 3:104 4:305 5:1280 6:7 7:483 8:44 9:21 
100000 1:32 2:1465 3:90 4:103 5:504 6:25 7:42 8:25 9:58 
100000 1:27 2:7655 3:111 4:35 5:532 6:25 7:26 8:202 9:21 
100000 1:32 2:5019 3:162 4:182 5:1152 6:98 7:11 8:102 9:55 
100000 1:27 2:4840 3:93 4:68 5:632 6:31 7:21 8:60 9:48 
100000 1:32 2:8981 3:40 4:161 5:1077 6:37 7:500 8:48 9:21 
100000 1:27 2:513 3:61 4:17 5:428 6:17 7:11 8:54 9:13 
100000 1:22 2:155 3:19 4:7 5:124 6:7 7:4 8:0 9:4 
42094.514736475227 1:37 2:22328 3:169 4:381 5:2008 6:287 7:565 8:84 9:42 
100000 1:27 2:2163 3:39 4:125 5:608 6:14 7:345 8:48 9:8 
100000 1:27 2:8444 3:109 4:27 5:904 6:15 7:11 8:337 9:34 
100000 1:37 2:2718 3:106 4:103 5:936 6:22 7:25 8:8 9:29 
100000 1:27 2:469 3:54 4:36 5:364 6:33 7:62 8:78 9:15 
100000 1:32 2:644 3:24 4:53 5:352 6:20 7:56 8:11 9:12 
100000 1:37 2:15629 3:164 4:265 5:1080 6:82 7:134 8:27 9:34 
100000 1:32 2:4295 3:108 4:132 5:1108 6:74 7:36 8:21 9:37 
100000 1:27 2:1144 3:54 4:40 5:760 6:28 7:4 8:59 9:11 
100000 1:32 2:19539 3:26 4:155 5:1416 6:51 7:542 8:27 9:12 
100000 1:27 2:12514 3:110 4:92 5:552 6:67 7:11 8:73 9:88 
100000 1:27 2:1917 3:59 4:94 5:479 6:56 7:0 8:80 9:27 
61333.531759888087 1:22 2:17185 3:12 4:178 5:1472 6:14 7:670 8:1 9:1 
100000 1:27 2:1520 3:71 4:68 5:492 6:83 7:90 8:71 9:86 
100000 1:27 2:1607 3:144 4:23 5:512 6:43 7:5 8:226 9:8 
100000 1:22 2:2361 3:77 4:19 5:575 6:8 7:0 8:213 9:3 
100000 1:37 2:6673 3:176 4:113 5:896 6:100 7:1 8:9 9:21 
100000 1:32 2:5201 3:162 4:141 5:1068 6:42 7:97 8:168 9:113 
100000 1:22 2:3624 3:91 4:179 5:764 6:27 7:165 8:4 9:44 
100000 1:27 2:15 3:9 4:9 5:48 6:0 7:7 8:0 9:1 
100000 1:22 2:5758 3:83 4:106 5:564 6:78 7:88 8:85 9:21 
100000 1:37 2:4960 3:170 4:97 5:888 6:97 7:69 8:328 9:171 
47713.809330897573 1:32 2:10343 3:85 4:234 5:1060 6:80 7:60 8:26 9:12 
100000 1:27 2:2538 3:37 4:102 5:672 6:12 7:292 8:13 9:23 
100000 1:22 2:146 3:21 4:26 5:115 6:4 7:10 8:2 9:2 
100000 1:22 2:184 3:20 4:40 5:168 6:2 7:2 8:0 9:19 
36191.196791254442 1:27 2:58802 3:551 4:381 5:2816 6:242 7:189 8:1694 9:283 
100000 1:22 2:312 3:30 4:34 5:158 6:12 7:9 8:10 9:0 
100000 1:22 2:193 3:26 4:27 5:188 6:25 7:6 8:63 9:1 
100000 1:22 2:200 3:19 4:22 5:108 6:8 7:3 8:4 9:6 
100000 1:32 2:4271 3:79 4:61 5:636 6:105 7:119 8:189 9:157 
100000 1:22 2:28145 3:189 4:73 5:1208 6:44 7:59 8:78 9:0 
100000 1:27 2:4783 3:36 4:110 5:764 6:7 7:247 8:16 9:14 
100000 1:22 2:1100 3:69 4:47 5:300 6:3 7:23 8:27 9:53 
100000 1:22 2:1211 3:133 4:43 5:419 6:27 7:26 8:17 9:18 
100000 1:22 2:593 3:31 4:34 5:198 6:30 7:1 8:22 9:17 
100000 1:32 2:11650 3:123 4:163 5:852 6:122 7:128 8:47 9:50 
95526.496353310155 1:27 2:2781 3:33 4:135 5:960 6:17 7:370 8:5 9:2 
100000 1:32 2:10344 3:133 4:75 5:624 6:86 7:112 8:245 9:72 
100000 1:22 2:9624 3:63 4:109 5:699 6:121 7:251 8:15 9:9 
100000 1:37 2:4073 3:224 4:42 5:980 6:170 7:8 8:223 9:34 
100000 1:27 2:699 3:103 4:33 5:308 6:1 7:8 8:8 9:26 
100000 1:37 2:13814 3:249 4:229 5:1244 6:137 7:88 8:144 9:28 
100000 1:22 2:1365 3:71 4:69 5:768 6:12 7:6 8:77 9:46 
100000 1:22 2:3027 3:71 4:56 5:531 6:20 7:75 8:93 9:57 
100000 1:37 2:4454 3:35 4:104 5:668 6:35 7:228 8:13 9:63 
100000 1:37 2:21694 3:172 4:104 5:1432 6:46 7:6 8:161 9:116 
100000 1:22 2:4029 3:107 4:91 5:407 6:15 7:11 8:39 9:141 
100000 1:22 2:22146 3:96 4:227 5:1744 6:17 7:654 8:50 9:100 
100000 1:27 2:2928 3:78 4:62 5:644 6:128 7:25 8:19 9:62 
100000 1:27 2:3048 3:111 4:116 5:960 6:59 7:57 8:79 9:41 
100000 1:27 2:14362 3:129 4:186 5:704 6:2 7:49 8:93 9:78 
100000 1:27 2:5262 3:88 4:63 5:764 6:126 7:34 8:213 9:10 
100000 1:27 2:491 3:27 4:79 5:324 6:8 7:0 8:0 9:6 
100000 1:22 2:3732 3:118 4:83 5:648 6:79 7:47 8:100 9:79 
100000 1:27 2:3797 3:149 4:121 5:676 6:55 7:33 8:45 9:71 
100000 1:22 2:415 3:31 4:43 5:328 6:36 7:30 8:28 9:33 
100000 1:22 2:1086 3:46 4:57 5:320 6:11 7:58 8:15 9:31 
100000 1:37 2:5612 3:121 4:204 5:1220 6:9 7:138 8:75 9:411 
100000 1:37 2:9229 3:209 4:148 5:1020 6:60 7:63 8:116 9:113 
34449.401420537244 1:32 2:47464 3:272 4:284 5:1744 6:304 7:399 8:212 9:448 
42709.408899777067 1:32 2:2248 3:68 4:40 5:1936 6:142 7:42 8:133 9:27 
100000 1:22 2:20148 3:216 4:65 5:767 6:6 7:46 8:57 9:30 
100000 1:32 2:2796 3:31 4:122 5:688 6:41 7:286 8:10 9:100 
100000 1:22 2:4054 3:101 4:104 5:673 6:68 7:6 8:8 9:51 
100000 1:37 2:13166 3:139 4:47 5:644 6:5 7:3 8:31 9:17 
100000 1:32 2:2736 3:75 4:80 5:528 6:65 7:7 8:20 9:41 
100000 1:32 2:3369 3:82 4:66 5:684 6:25 7:141 8:17 9:79 
100000 1:27 2:6238 3:117 4:40 5:684 6:77 7:7 8:208 9:31 
100000 1:27 2:354 3:24 4:52 5:308 6:23 7:40 8:3 9:4 
100000 1:37 2:6602 3:126 4:176 5:1064 6:55 7:197 8:149 9:66 
100000 1:27 2:9210 3:89 4:124 5:776 6:136 7:144 8:126 9:77 
100000 1:22 2:479 3:23 4:38 5:224 6:5 7:69 8:1 9:8 
100000 1:27 2:5464 3:36 4:100 5:488 6:60 7:200 8:78 9:30 
100000 1:37 2:564 3:54 4:35 5:556 6:110 7:37 8:37 9:37 
100000 1:22 2:885 3:39 4:46 5:296 6:40 7:65 8:12 9:25 
33405.847639048363 1:32 2:22015 3:336 4:227 5:1884 6:25 7:129 8:214 9:118 
90362.396754408954 1:37 2:15694 3:175 4:116 5:1368 6:72 7:26 8:387 9:60 
100000 1:22 2:468 3:55 4:26 5:324 6:36 7:3 8:10 9:11 
100000 1:27 2:1914 3:62 4:33 5:540 6:80 7:38 8:86 9:49 
100000 1:22 2:1184 3:61 4:89 5:483 6:69 7:52 8:6 9:20 
100000 1:27 2:1376 3:38 4:49 5:224 6:15 7:55 8:61 9:5 
100000 1:27 2:33175 3:72 4:235 5:1808 6:210 7:765 8:30 9:99 
100000 1:27 2:680 3:25 4:30 5:176 6:1 7:22 8:0 9:31 
100000 1:22 2:5147 3:120 4:65 5:704 6:48 7:83 8:119 9:101 
100000 1:32 2:14670 3:167 4:228 5:912 6:98 7:68 8:70 9:97 
100000 1:32 2:2085 3:107 4:30 5:504 6:22 7:3 8:114 9:3 
100000 1:32 2:6872 3:166 4:201 5:1036 6:138 7:141 8:147 9:33 
100000 1:27 2:1854 3:72 4:47 5:404 6:29 7:38 8:64 9:32 
100000 1:27 2:1688 3:53 4:91 5:952 6:43 7:42 8:6 9:42 
100000 1:22 2:840 3:39 4:40 5:324 6:16 7:17 8:9 9:9 
100000 1:22 2:1081 3:41 4:54 5:224 6:78 7:43 8:4 9:4 
100000 1:27 2:341 3:34 4:22 5:240 6:3 7:21 8:42 9:7 
100000 1:22 2:1722 3:58 4:60 5:444 6:64 7:19 8:19 9:19 
100000 1:27 2:2748 3:128 4:127 5:852 6:1 7:26 8:11 9:58 
100000 1:27 2:1904 3:37 4:78 5:767 6:43 7:133 8:32 9:210 
18146.132203324592 1:22 2:50296 3:559 4:399 5:2536 6:804 7:115 8:246 9:191 
57543.167675154087 1:22 2:4988 3:97 4:210 5:805 6:17 7:1 8:154 9:113 
100000 1:37 2:2072 3:70 4:23 5:868 6:10 7:7 8:162 9:8 
100000 1:22 2:2133 3:71 4:65 5:394 6:63 7:35 8:11 9:25 
100000 1:32 2:1832 3:23 4:95 5:508 6:22 7:215 8:8 9:12 
100000 1:27 2:1981 3:78 4:65 5:888 6:23 7:17 8:15 9:93 
100000 1:32 2:3971 3:72 4:45 5:708 6:158 7:84 8:189 9:94 
100000 1:27 2:161 3:40 4:16 5:196 6:13 7:13 8:33 9:14 
100000 1:32 2:7657 3:169 4:154 5:1012 6:40 7:134 8:72 9:37 
100000 1:32 2:17654 3:427 4:90 5:1956 6:35 7:89 8:375 9:49 
100000 1:32 2:2709 3:19 4:74 5:480 6:0 7:205 8:14 9:8 
100000 1:32 2:4839 3:129 4:173 5:1128 6:18 7:44 8:56 9:171 
100000 1:22 2:254 3:40 4:31 5:196 6:10 7:10 8:16 9:9 
100000 1:37 2:6716 3:218 4:143 5:1244 6:97 7:284 8:114 9:4 
100000 1:32 2:1655 3:61 4:51 5:360 6:77 7:67 8:78 9:27 
100000 1:22 2:5026 3:48 4:94 5:686 6:44 7:228 8:12 9:1 
100000 1:32 2:4305 3:96 4:113 5:552 6:43 7:8 8:38 9:38 
100000 1:32 2:5823 3:210 4:146 5:900 6:64 7:78 8:117 9:12 
100000 1:22 2:1675 3:88 4:31 5:488 6:6 7:2 8:59 9:7 
100000 1:22 2:16613 3:99 4:149 5:696 6:74 7:47 8:187 9:140 
100000 1:37 2:3486 3:72 4:81 5:908 6:40 7:200 8:29 9:138 
100000 1:37 2:6091 3:114 4:60 5:864 6:56 7:2 8:298 9:123 
100000 1:37 2:2917 3:116 4:65 5:648 6:62 7:50 8:143 9:24 
100000 1:27 2:410 3:22 4:22 5:304 6:20 7:26 8:3 9:6 
100000 1:32 2:10719 3:112 4:33 5:655 6:1 7:23 8:198 9:44 
100000 1:22 2:186 3:27 4:23 5:127 6:4 7:1 8:7 9:5 
100000 1:32 2:1271 3:44 4:59 5:324 6:29 7:36 8:18 9:29 
100000 1:27 2:572 3:47 4:35 5:248 6:15 7:16 8:16 9:15 
100000 1:37 2:4726 3:82 4:101 5:936 6:76 7:113 8:46 9:205 
100000 1:22 2:102 3:23 4:21 5:108 6:0 7:0 8:4 9:14 
100000 1:22 2:819 3:32 4:112 5:416 6:8 7:16 8:12 9:35 
100000 1:22 2:608 3:64 4:36 5:316 6:22 7:14 8:39 9:13 
100000 1:32 2:9262 3:182 4:197 5:944 6:79 7:20 8:20 9:90 
100000 1:27 2:2675 3:120 4:61 5:824 6:13 7:21 8:32 9:37 
100000 1:32 2:4819 3:105 4:107 5:876 6:9 7:172 8:226 9:24 
100000 1:22 2:385 3:16 4:60 5:272 6:21 7:48 8:7 9:32 
100000 1:37 2:10097 3:179 4:125 5:953 6:266 7:153 8:37 9:73 
100000 1:27 2:4185 3:143 4:78 5:860 6:63 7:19 8:222 9:69 
100000 1:37 2:4908 3:94 4:196 5:1120 6:176 7:187 8:99 9:98 
100000 1:37 2:12090 3:127 4:250 5:1444 6:34 7:361 8:164 9:97 
100000 1:37 2:13578 3:89 4:187 5:1512 6:63 7:657 8:234 9:88 
100000 1:22 2:4350 3:97 4:42 5:324 6:34 7:34 8:1 9:78 
100000 1:22 2:10061 3:86 4:155 5:725 6:99 7:20 8:11 9:20 
100000 1:32 2:3104 3:64 4:69 5:449 6:40 7:13 8:99 9:146 
100000 1:37 2:13079 3:321 4:102 5:1120 6:122 7:75 8:21 9:237 
100000 1:22 2:4228 3:35 4:94 5:588 6:53 7:255 8:10 9:25 
100000 1:32 2:907 3:52 4:48 5:472 6:67 7:50 8:95 9:56 
100000 1:27 2:371 3:57 4:25 5:320 6:3 7:13 8:10 9:3 
100000 1:22 2:799 3:26 4:31 5:704 6:8 7:49 8:22 9:63 
100000 1:22 2:704 3:29 4:35 5:220 6:4 7:7 8:2 9:12 
100000 1:22 2:1752 3:91 4:49 5:424 6:70 7:66 8:61 9:35 
100000 1:37 2:4697 3:122 4:80 5:796 6:108 7:21 8:318 9:184 
100000 1:22 2:353 3:38 4:41 5:212 6:12 7:21 8:13 9:4 
100000 1:27 2:1617 3:110 4:93 5:672 6:62 7:37 8:32 9:38 
100000 1:22 2:941 3:80 4:33 5:420 6:14 7:6 8:28 9:4 
100000 1:22 2:3156 3:97 4:29 5:476 6:19 7:2 8:240 9:61 
100000 1:22 2:7442 3:60 4:111 5:736 6:40 7:82 8:8 9:46 
100000 1:27 2:1207 3:48 4:40 5:324 6:3 7:62 8:86 9:18 
100000 1:22 2:2071 3:116 4:59 5:572 6:111 7:48 8:63 9:13 
100000 1:32 2:12173 3:126 4:97 5:658 6:16 7:59 8:276 9:236 
100000 1:27 2:1560 3:91 4:70 5:360 6:22 7:68 8:50 9:29 
100000 1:22 2:368 3:28 4:39 5:200 6:27 7:27 8:16 9:25 
100000 1:37 2:5379 3:73 4:69 5:2180 6:71 7:5 8:133 9:122 
100000 1:27 2:2300 3:68 4:27 5:644 6:6 7:23 8:12 9:8 
100000 1:32 2:309 3:14 4:23 5:416 6:6 7:46 8:3 9:30 
100000 1:37 2:1705 3:42 4:120 5:508 6:24 7:23 8:5 9:13 
100000 1:22 2:321 3:32 4:38 5:199 6:8 7:11 8:33 9:47 
100000 1:37 2:5109 3:166 4:123 5:832 6:323 7:213 8:89 9:4 
100000 1:22 2:209 3:28 4:34 5:152 6:19 7:0 8:5 9:3 
100000 1:22 2:2483 3:70 4:30 5:408 6:22 7:29 8:185 9:14 
100000 1:37 2:990 3:31 4:33 5:748 6:55 7:44 8:25 9:26 
100000 1:22 2:302 3:34 4:36 5:196 6:8 7:26 8:4 9:14 
100000 1:27 2:981 3:26 4:71 5:296 6:8 7:2 8:16 9:47 
100000 1:22 2:178 3:27 4:30 5:139 6:1 7:2 8:2 9:5 
100000 1:37 2:21277 3:319 4:25 5:1440 6:16 7:21 8:788 9:50 
100000 1:37 2:2609 3:91 4:60 5:1224 6:55 7:26 8:15 9:12 
100000 1:37 2:1095 3:48 4:38 5:684 6:48 7:33 8:56 9:24 
100000 1:32 2:27344 3:390 4:302 5:1804 6:457 7:278 8:19 9:27 
100000 1:22 2:1286 3:50 4:47 5:308 6:56 7:1 8:60 9:16 
100000 1:32 2:503 3:21 4:43 5:348 6:37 7:23 8:31 9:57 
100000 1:37 2:13925 3:192 4:165 5:1428 6:24 7:79 8:49 9:15 
100000 1:22 2:541 3:26 4:45 5:206 6:0 7:16 8:9 9:5 
71575.210892159172 1:32 2:6500 3:142 4:141 5:916 6:161 7:6 8:207 9:157 
107.12019516528687 1:22 2:109630 3:333 4:39 5:2472 6:1 7:68 8:72 9:8 
100000 1:22 2:88 3:11 4:28 5:132 6:6 7:5 8:7 9:2 
100000 1:22 2:116 3:18 4:14 5:140 6:12 7:2 8:15 9:11 
100000 1:22 2:313 3:36 4:27 5:215 6:10 7:2 8:51 9:0 
100000 1:27 2:2839 3:37 4:97 5:784 6:3 7:245 8:10 9:23 
100000 1:22 2:1846 3:115 4:86 5:516 6:60 7:27 8:72 9:9 
100000 1:37 2:13292 3:258 4:92 5:1268 6:36 7:85 8:154 9:37 
100000 1:22 2:2568 3:117 4:105 5:712 6:1 7:40 8:72 9:94 
57075.949376446108 1:27 2:37272 3:710 4:96 5:2536 6:15 7:108 8:500 9:79 
100000 1:22 2:22135 3:104 4:174 5:1268 6:128 7:238 8:3 9:0 
100000 1:27 2:7201 3:149 4:82 5:776 6:9 7:24 8:168 9:46 
100000 1:22 2:1372 3:21 4:48 5:364 6:23 7:128 8:4 9:10 
100000 1:27 2:2777 3:61 4:155 5:472 6:39 7:106 8:54 9:14 
100000 1:27 2:456 3:61 4:29 5:348 6:39 7:19 8:51 9:7 
100000 1:22 2:252 3:24 4:20 5:244 6:25 7:13 8:32 9:2 
100000 1:37 2:23495 3:387 4:237 5:2432 6:140 7:77 8:66 9:170 
100000 1:27 2:690 3:38 4:40 5:476 6:90 7:105 8:19 9:21 
100000 1:22 2:4748 3:85 4:104 5:544 6:12 7:39 8:49 9:21 
100000 1:22 2:2989 3:103 4:88 5:604 6:98 7:107 8:11 9:5 
100000 1:32 2:14399 3:132 4:208 5:1032 6:225 7:102 8:97 9:26 
100000 1:32 2:6661 3:112 4:41 5:1020 6:112 7:23 8:311 9:41 
100000 1:37 2:753 3:119 4:41 5:380 6:33 7:6 8:29 9:2 
100000 1:22 2:351 3:44 4:37 5:276 6:6 7:26 8:27 9:15 
100000 1:22 2:175 3:29 4:29 5:181 6:1 7:14 8:5 9:29 
100000 1:32 2:759 3:55 4:41 5:280 6:11 7:18 8:13 9:40 
100000 1:32 2:31114 3:676 4:19 5:1980 6:43 7:7 8:93 9:4 
100000 1:37 2:13605 3:158 4:152 5:1280 6:183 7:148 8:6 9:61 
-100000 1:27 2:5632 3:34 4:96 5:496 6:38 7:241 8:0 9:28 
-100000 1:27 2:371 3:19 4:17 5:572 6:13 7:30 8:8 9:10 
-100000 1:27 2:3135 3:68 4:56 5:393 6:10 7:40 8:11 9:28 
-100000 1:27 2:520 3:32 4:58 5:388 6:9 7:45 8:10 9:18 
-100000 1:32 2:437 3:28 4:30 5:488 6:23 7:56 8:66 9:80 
-100000 1:32 2:4172 3:94 4:104 5:480 6:0 7:47 8:41 9:140 
-100000 1:27 2:4618 3:82 4:214 5:848 6:0 7:198 8:77 9:93 
-100000 1:37 2:9333 3:126 4:75 5:756 6:102 7:64 8:72 9:40 
-100000 1:27 2:1538 3:45 4:38 5:368 6:72 7:56 8:82 9:54 
-100000 1:22 2:154 3:27 4:13 5:136 6:25 7:2 8:9 9:2 
-100000 1:37 2:1214 3:58 4:72 5:520 6:116 7:141 8:7 9:66 
-100000 1:37 2:7680 3:174 4:124 5:740 6:96 7:68 8:3 9:148 
-100000 1:27 2:1645 3:134 4:14 5:560 6:17 7:2 8:139 9:0 
-100000 1:27 2:431 3:60 4:28 5:296 6:18 7:11 8:44 9:1 
-100000 1:22 2:254 3:27 4:23 5:272 6:14 7:7 8:27 9:0 
-100000 1:32 2:3709 3:133 4:36 5:881 6:11 7:10 8:329 9:56 
-100000 1:27 2:2381 3:40 4:58 5:284 6:59 7:103 8:47 9:64 
-100000 1:32 2:34932 3:219 4:31 5:1748 6:1 7:33 8:708 9:51 
-100000 1:22 2:166 3:51 4:13 5:184 6:19 7:1 8:40 9:5 
-100000 1:22 2:927 3:36 4:51 5:237 6:9 7:0 8:44 9:42 
-31716.083301654606 1:37 2:71472 3:314 4:8 5:2156 6:3 7:1 8:1227 9:9 
-100000 1:27 2:3940 3:93 4:89 5:424 6:85 7:82 8:36 9:33 
-100000 1:22 2:1153 3:53 4:44 5:297 6:59 7:34 8:11 9:3 
-100000 1:32 2:11310 3:219 4:178 5:1080 6:133 7:9 8:68 9:63 
-100000 1:22 2:4379 3:39 4:83 5:380 6:26 7:80 8:2 9:51 
-100000 1:32 2:7026 3:24 4:323 5:1372 6:5 7:614 8:6 9:20 
-100000 1:22 2:1876 3:70 4:30 5:427 6:7 7:10 8:94 9:17 
-100000 1:37 2:5906 3:25 4:336 5:1408 6:11 7:543 8:7 9:1 
-100000 1:27 2:5073 3:128 4:147 5:932 6:12 7:50 8:79 9:1 
-100000 1:22 2:29992 3:624 4:17 5:2072 6:21 7:4 8:580 9:2 
-100000 1:32 2:6188 3:148 4:125 5:744 6:1 7:112 8:30 9:61 
-100000 1:27 2:2865 3:41 4:50 5:604 6:85 7:151 8:24 9:119 
-100000 1:32 2:9581 3:169 4:30 5:1580 6:14 7:2 8:533 9:14 
-100000 1:22 2:272 3:26 4:34 5:144 6:5 7:18 8:8 9:8 
-100000 1:37 2:1525 3:62 4:61 5:640 6:19 7:1 8:48 9:51 
-100000 1:27 2:633 3:76 4:38 5:384 6:128 7:21 8:65 9:20 
-100000 1:22 2:539 3:60 4:35 5:228 6:12 7:3 8:19 9:0 
-100000 1:37 2:15956 3:88 4:93 5:1308 6:276 7:234 8:292 9:251 
-100000 1:32 2:1037 3:16 4:64 5:488 6:3 7:183 8:7 9:5 
-100000 1:22 2:4410 3:36 4:114 5:432 6:59 7:309 8:6 9:43 
-100000 1:27 2:966 3:38 4:107 5:428 6:2 7:44 8:3 9:16 
-12893.958983983784 1:32 2:26242 3:61 4:278 5:990 6:45 7:416 8:14 9:34 
-100000 1:22 2:897 3:78 4:67 5:380 6:10 7:26 8:10 9:23 
-100000 1:27 2:27306 3:297 4:189 5:1020 6:194 7:36 8:29 9:39 
-100000 1:37 2:4096 3:117 4:70 5:737 6:28 7:25 8:191 9:25 
-100000 1:37 2:1013 3:30 4:48 5:612 6:5 7:91 8:63 9:0 
-100000 1:27 2:676 3:28 4:55 5:280 6:7 7:97 8:34 9:3 
-100000 1:22 2:161 3:25 4:25 5:136 6:12 7:9 8:6 9:8 
-100000 1:27 2:409 3:77 4:50 5:248 6:40 7:10 8:0 9:31 
-100000 1:32 2:11120 3:129 4:264 5:1032 6:27 7:23 8:49 9:122 
-100000 1:32 2:3858 3:52 4:205 5:996 6:41 7:556 8:7 9:4 
-100000 1:37 2:3986 3:45 4:97 5:788 6:23 7:110 8:42 9:150 
-100000 1:37 2:4617 3:168 4:183 5:1020 6:2 7:80 8:85 9:89 
-100000 1:32 2:1945 3:114 4:97 5:648 6:50 7:107 8:77 9:72 
-100000 1:32 2:4112 3:34 4:59 5:1820 6:53 7:177 8:47 9:85 
-100000 1:32 2:5399 3:44 4:109 5:492 6:16 7:191 8:13 9:11 
-100000 1:32 2:14964 3:319 4:182 5:1620 6:9 7:19 8:455 9:138 
-100000 1:32 2:1417 3:84 4:42 5:514 6:11 7:61 8:75 9:54 
-100000 1:32 2:1725 3:56 4:56 5:796 6:18 7:59 8:20 9:47 
-41060.031364925817 1:22 2:427 3:23 4:29 5:128 6:25 7:29 8:11 9:17 
-100000 1:22 2:7695 3:26 4:104 5:424 6:7 7:249 8:12 9:2 
-100000 1:22 2:496 3:28 4:40 5:241 6:2 7:54 8:10 9:17 
-100000 1:37 2:21875 3:295 4:215 5:2020 6:178 7:323 8:376 9:55 
-100000 1:37 2:1000 3:88 4:47 5:500 6:75 7:26 8:13 9:16 
-100000 1:37 2:14868 3:71 4:133 5:888 6:191 7:364 8:16 9:67 
-100000 1:22 2:154 3:18 4:21 5:132 6:6 7:2 8:4 9:8 
-100000 1:22 2:1928 3:112 4:103 5:688 6:47 7:28 8:27 9:7 
-100000 1:32 2:11970 3:88 4:207 5:2136 6:26 7:487 8:51 9:22 
-100000 1:22 2:17709 3:307 4:57 5:808 6:20 7:5 8:223 9:65 
-100000 1:27 2:3108 3:177 4:14 5:920 6:13 7:2 8:619 9:11 
-100000 1:37 2:1119 3:62 4:69 5:480 6:40 7:109 8:22 9:38 
-100000 1:37 2:14156 3:314 4:92 5:1400 6:93 7:118 8:178 9:16 
-100000 1:32 2:1532 3:34 4:161 5:648 6:6 7:0 8:5 9:26 
-100000 1:22 2:1505 3:72 4:27 5:302 6:15 7:2 8:13 9:6 
-100000 1:37 2:26244 3:472 4:22 5:1960 6:113 7:6 8:335 9:16 
-100000 1:27 2:15378 3:96 4:283 5:1404 6:53 7:185 8:18 9:52 
-100000 1:37 2:15961 3:131 4:27 5:687 6:12 7:0 8:169 9:39 
-100000 1:32 2:2434 3:133 4:15 5:768 6:6 7:11 8:466 9:12 
-100000 1:22 2:1278 3:59 4:61 5:344 6:68 7:58 8:27 9:52 
-100000 1:27 2:1457 3:58 4:61 5:928 6:9 7:82 8:5 9:55 
-100000 1:32 2:869 3:40 4:22 5:824 6:21 7:19 8:23 9:19 
-100000 1:22 2:1856 3:53 4:44 5:240 6:46 7:14 8:111 9:35 
-100000 1:32 2:26159 3:658 4:123 5:2488 6:85 7:48 8:242 9:117 
-100000 1:37 2:2227 3:141 4:71 5:471 6:61 7:8 8:130 9:111 
-100000 1:32 2:2800 3:24 4:64 5:1328 6:33 7:184 8:19 9:59 
-100000 1:32 2:1763 3:82 4:75 5:442 6:69 7:86 8:9 9:50 
-100000 1:37 2:4441 3:25 4:156 5:960 6:6 7:298 8:8 9:22 
-100000 1:22 2:1735 3:68 4:92 5:446 6:41 7:105 8:48 9:26 
-100000 1:22 2:312 3:34 4:24 5:224 6:12 7:6 8:34 9:4 
-100000 1:22 2:5751 3:29 4:95 5:340 6:2 7:189 8:11 9:13 
-100000 1:27 2:37985 3:177 4:157 5:1200 6:353 7:253 8:447 9:356 
-100000 1:37 2:3663 3:136 4:141 5:740 6:157 7:64 8:6 9:109 
-100000 1:22 2:314 3:30 4:51 5:220 6:15 7:6 8:10 9:15 
-100000 1:22 2:350 3:41 4:36 5:244 6:7 7:29 8:5 9:2 
-100000 1:37 2:9746 3:125 4:41 5:2016 6:145 7:13 8:351 9:50 
-100000 1:27 2:868 3:136 4:40 5:400 6:7 7:11 8:33 9:9 
-100000 1:32 2:1154 3:97 4:66 5:524 6:28 7:50 8:8 9:24 
-100000 1:27 2:1285 3:113 4:47 5:496 6:21 7:26 8:14 9:23 
-100000 1:27 2:1412 3:44 4:52 5:602 6:92 7:127 8:17 9:19 
-29236.956467728953 1:37 2:2273 3:127 4:102 5:588 6:21 7:26 8:47 9:74 
-100000 1:22 2:104 3:26 4:25 5:204 6:12 7:5 8:19 9:21 
-100000 1:22 2:341 3:27 4:21 5:280 6:19 7:5 8:15 9:1 
-100000 1:22 2:746 3:23 4:68 5:456 6:19 7:1 8:3 9:27 
-100000 1:32 2:1981 3:99 4:65 5:496 6:31 7:8 8:30 9:44 
-100000 1:22 2:536 3:36 4:24 5:192 6:4 7:19 8:4 9:24 
-100000 1:22 2:311 3:27 4:27 5:168 6:28 7:6 8:1 9:8 
-100000 1:32 2:2793 3:78 4:53 5:499 6:162 7:82 8:24 9:50 
-100000 1:22 2:207 3:24 4:13 5:224 6:18 7:5 8:39 9:1 
-100000 1:37 2:705 3:52 4:41 5:564 6:98 7:23 8:16 9:8 
-100000 1:22 2:466 3:32 4:28 5:176 6:9 7:4 8:23 9:2 
-100000 1:37 2:3213 3:79 4:65 5:495 6:108 7:34 8:6 9:76 
-100000 1:37 2:3743 3:149 4:82 5:784 6:75 7:54 8:89 9:125 
-100000 1:37 2:6400 3:28 4:103 5:668 6:37 7:337 8:5 9:0 
-100000 1:27 2:588 3:61 4:41 5:348 6:25 7:59 8:22 9:32 
-100000 1:37 2:3624 3:113 4:110 5:920 6:42 7:71 8:0 9:134 
-100000 1:22 2:26612 3:206 4:174 5:944 6:32 7:189 8:227 9:272 
-100000 1:32 2:2597 3:115 4:52 5:720 6:42 7:37 8:36 9:8 
-100000 1:22 2:680 3:31 4:48 5:207 6:1 7:30 8:2 9:6 
-100000 1:32 2:1000 3:88 4:47 5:500 6:75 7:26 8:13 9:16 
-72433.026414304069 1:37 2:586 3:25 4:36 5:464 6:37 7:66 8:48 9:86 
-100000 1:22 2:170 3:26 4:29 5:162 6:7 7:0 8:4 9:14 
-100000 1:22 2:1444 3:47 4:28 5:228 6:3 7:6 8:36 9:7 
-100000 1:37 2:4941 3:164 4:172 5:1016 6:34 7:115 8:3 9:47 
-100000 1:27 2:913 3:52 4:56 5:409 6:5 7:19 8:11 9:14 
-100000 1:37 2:23051 3:89 4:189 5:2080 6:131 7:715 8:114 9:73 
-100000 1:32 2:1371 3:69 4:38 5:420 6:22 7:26 8:48 9:24 
-100000 1:37 2:2689 3:76 4:83 5:768 6:98 7:51 8:65 9:11 
-100000 1:37 2:22574 3:461 4:423 5:2044 6:98 7:100 8:65 9:132 
-100000 1:27 2:14998 3:274 4:192 5:1572 6:346 7:22 8:303 9:331 
-100000 1:22 2:216 3:19 4:44 5:204 6:14 7:7 8:4 9:8 
-100000 1:22 2:5789 3:108 4:104 5:737 6:31 7:77 8:245 9:27 
-100000 1:22 2:477 3:39 4:19 5:264 6:15 7:11 8:81 9:3 
-100000 1:27 2:2629 3:122 4:105 5:628 6:83 7:17 8:7 9:88 
-100000 1:27 2:2847 3:89 4:197 5:752 6:26 7:63 8:110 9:76 
-100000 1:32 2:1339 3:170 4:5 5:452 6:21 7:0 8:4 9:3 
-100000 1:32 2:958 3:97 4:26 5:380 6:52 7:0 8:54 9:1 
-100000 1:22 2:153 3:21 4:31 5:248 6:3 7:21 8:4 9:16 
-100000 1:27 2:22949 3:170 4:154 5:912 6:41 7:211 8:290 9:199 
-100000 1:32 2:5365 3:106 4:53 5:1008 6:143 7:82 8:35 9:61 
-100000 1:37 2:4370 3:161 4:167 5:824 6:30 7:34 8:2 9:96 
-100000 1:22 2:195 3:25 4:30 5:142 6:13 7:18 8:0 9:6 
-100000 1:32 2:17791 3:37 4:211 5:1836 6:6 7:406 8:1 9:11 
-100000 1:37 2:6177 3:82 4:138 5:744 6:29 7:145 8:37 9:123 
-100000 1:32 2:1581 3:43 4:36 5:720 6:38 7:54 8:35 9:55 
-100000 1:37 2:5755 3:223 4:193 5:1060 6:38 7:157 8:0 9:0 
-100000 1:37 2:16601 3:145 4:20 5:1180 6:4 7:15 8:149 9:11 
-100000 1:27 2:357 3:46 4:38 5:252 6:13 7:36 8:78 9:35 
-84049.672588862275 1:27 2:33734 3:19 4:424 5:1936 6:47 7:1438 8:2 9:43 
-100000 1:27 2:7942 3:145 4:121 5:739 6:74 7:78 8:30 9:70 
-100000 1:27 2:1760 3:45 4:101 5:704 6:15 7:230 8:21 9:16 
-100000 1:22 2:463 3:40 4:47 5:229 6:17 7:30 8:11 9:32 
-100000 1:27 2:1778 3:117 4:25 5:500 6:23 7:5 8:65 9:12 
-100000 1:22 2:2300 3:38 4:207 5:716 6:8 7:41 8:21 9:53 
-100000 1:37 2:16689 3:79 4:160 5:980 6:124 7:374 8:121 9:140 
-100000 1:27 2:4020 3:80 4:71 5:380 6:43 7:124 8:117 9:30 
-100000 1:37 2:4243 3:202 4:149 5:1120 6:35 7:48 8:103 9:55 
-100000 1:27 2:1296 3:47 4:34 5:520 6:75 7:1 8:88 9:19 
-100000 1:37 2:1263 3:66 4:37 5:920 6:67 7:22 8:193 9:70 
-100000 1:22 2:19484 3:237 4:244 5:1540 6:0 7:79 8:1 9:0 
-100000 1:27 2:3002 3:38 4:68 5:447 6:68 7:159 8:2 9:46 
-100000 1:37 2:2774 3:103 4:164 5:664 6:7 7:29 8:4 9:142 
-100000 1:22 2:534 3:62 4:58 5:288 6:29 7:7 8:19 9:18 
-100000 1:22 2:197 3:28 4:31 5:136 6:16 7:27 8:9 9:5 
-100000 1:37 2:5213 3:109 4:108 5:940 6:14 7:15 8:170 9:209 
-100000 1:22 2:253 3:23 4:35 5:224 6:0 7:2 8:8 9:4 
-100000 1:27 2:8825 3:128 4:29 5:601 6:9 7:20 8:382 9:33 
-100000 1:22 2:181 3:24 4:26 5:156 6:4 7:18 8:21 9:1 
-100000 1:32 2:4554 3:84 4:92 5:480 6:5 7:98 8:8 9:96 
-100000 1:37 2:16154 3:103 4:121 5:1172 6:284 7:340 8:292 9:275 
-100000 1:32 2:1809 3:59 4:32 5:395 6:22 7:30 8:144 9:69 
-100000 1:37 2:8334 3:126 4:24 5:642 6:9 7:1 8:383 9:8 
-100000 1:32 2:1859 3:59 4:12 5:588 6:29 7:3 8:178 9:0 
-100000 1:27 2:2443 3:117 4:107 5:500 6:22 7:19 8:22 9:7 
-100000 1:37 2:10490 3:183 4:180 5:1272 6:43 7:1 8:154 9:39 
-100000 1:27 2:6529 3:91 4:16 5:596 6:1 7:0 8:268 9:13 
-100000 1:37 2:3895 3:202 4:135 5:1180 6:84 7:52 8:84 9:0 
-100000 1:22 2:8314 3:41 4:110 5:280 6:34 7:70 8:33 9:72 
-100000 1:22 2:1239 3:145 4:6 5:432 6:21 7:1 8:26 9:0 
-100000 1:32 2:5639 3:43 4:89 5:545 6:53 7:160 8:0 9:11 
-100000 1:22 2:282 3:39 4:35 5:200 6:9 7:23 8:24 9:23 
-100000 1:22 2:166 3:29 4:26 5:145 6:8 7:0 8:3 9:7 
-100000 1:32 2:7276 3:225 4:148 5:1056 6:92 7:6 8:31 9:10 
-100000 1:37 2:11907 3:85 4:163 5:788 6:145 7:277 8:107 9:181 
-100000 1:37 2:1113 3:13 4:58 5:640 6:12 7:130 8:4 9:16 
-100000 1:22 2:2833 3:91 4:92 5:593 6:11 7:78 8:75 9:57 
-100000 1:37 2:2984 3:114 4:94 5:632 6:46 7:39 8:116 9:27 
-100000 1:37 2:1575 3:72 4:50 5:491 6:82 7:35 8:152 9:31 
-100000 1:32 2:15219 3:183 4:71 5:572 6:2 7:51 8:295 9:87 
-100000 1:27 2:381 3:52 4:37 5:312 6:8 7:27 8:3 9:12 
-100000 1:37 2:47554 3:278 4:674 5:2164 6:0 7:1001 8:31 9:94 
-100000 1:27 2:2135 3:50 4:90 5:558 6:26 7:113 8:28 9:99 
-100000 1:32 2:14816 3:155 4:139 5:1764 6:403 7:445 8:31 9:2 
-100000 1:22 2:665 3:34 4:32 5:187 6:36 7:15 8:31 9:14 
-100000 1:32 2:9132 3:104 4:74 5:408 6:120 7:62 8:14 9:34 
-100000 1:32 2:18343 3:177 4:93 5:749 6:23 7:68 8:170 9:121 
-100000 1:37 2:2867 3:152 4:127 5:844 6:3 7:44 8:56 9:50 
-100000 1:22 2:4053 3:76 4:63 5:396 6:13 7:107 8:27 9:77 
-100000 1:27 2:5136 3:199 4:50 5:1208 6:78 7:25 8:536 9:42 
-100000 1:32 2:2240 3:62 4:38 5:591 6:124 7:41 8:113 9:53 
-100000 1:22 2:573 3:34 4:20 5:175 6:8 7:6 8:71 9:6 
-100000 1:32 2:2266 3:60 4:80 5:487 6:21 7:14 8:22 9:66 
-100000 1:37 2:1699 3:21 4:80 5:620 6:5 7:147 8:4 9:13 
-100000 1:37 2:9968 3:291 4:13 5:2240 6:15 7:0 8:876 9:13 
-100000 1:27 2:1007 3:68 4:27 5:428 6:17 7:35 8:147 9:2 
-100000 1:32 2:1166 3:28 4:73 5:724 6:1 7:155 8:9 9:30 
-100000 1:22 2:3106 3:52 4:158 5:464 6:36 7:97 8:36 9:3 
-100000 1:32 2:1432 3:26 4:56 5:560 6:23 7:118 8:21 9:67 
-100000 1:27 2:737 3:45 4:24 5:357 6:1 7:0 8:94 9:8 
-100000 1:22 2:118 3:24 4:19 5:136 6:6 7:9 8:46 9:6 
-100000 1:32 2:5831 3:85 4:115 5:1828 6:175 7:280 8:161 9:293 
-100000 1:37 2:3820 3:61 4:136 5:940 6:20 7:285 8:47 9:41 
-100000 1:22 2:2610 3:100 4:70 5:572 6:0 7:22 8:99 9:47 
-100000 1:22 2:438 3:29 4:13 5:124 6:24 7:7 8:51 9:2 
-100000 1:32 2:3286 3:173 4:21 5:1196 6:5 7:9 8:351 9:17 
-100000 1:32 2:1101 3:89 4:83 5:453 6:84 7:75 8:86 9:80 
-100000 1:22 2:4294 3:62 4:134 5:588 6:56 7:101 8:52 9:44 
-100000 1:22 2:3650 3:187 4:128 5:1112 6:35 7:138 8:199 9:4 
-100000 1:27 2:242 3:14 4:29 5:268 6:9 7:41 8:18 9:39 
-100000 1:32 2:3898 3:65 4:146 5:824 6:36 7:19 8:13 9:1 
-100000 1:37 2:16525 3:136 4:151 5:1320 6:7 7:120 8:105 9:102 
-100000 1:22 2:11346 3:189 4:285 5:1160 6:25 7:113 8:42 9:118 
-100000 1:27 2:3610 3:79 4:126 5:572 6:44 7:23 8:48 9:73 
-100000 1:22 2:16335 3:59 4:154 5:776 6:52 7:269 8:22 9:37 
-100000 1:27 2:10459 3:90 4:134 5:668 6:94 7:237 8:36 9:110 
-100000 1:22 2:796 3:31 4:43 5:179 6:7 7:9 8:8 9:12 
-100000 1:37 2:15152 3:228 4:198 5:1504 6:203 7:207 8:44 9:110 
-100000 1:22 2:894 3:150 4:5 5:412 6:34 7:6 8:4 9:4 
-100000 1:37 2:2751 3:92 4:45 5:1064 6:30 7:35 8:158 9:81 
-100000 1:27 2:3220 3:154 4:22 5:756 6:0 7:3 8:450 9:14 
-100000 1:32 2:18195 3:45 4:195 5:1876 6:7 7:330 8:5 9:24 
-100000 1:22 2:634 3:38 4:29 5:164 6:54 7:8 8:8 9:2 
-100000 1:22 2:288 3:31 4:32 5:165 6:26 7:0 8:5 9:16 
-100000 1:22 2:185 3:28 4:27 5:153 6:11 7:29 8:15 9:13 
-100000 1:27 2:370 3:28 4:33 5:230 6:51 7:66 8:2 9:2 
-68879.583199555331 1:32 2:48990 3:238 4:138 5:784 6:78 7:39 8:255 9:181 
-4297.4088827907317 1:37 2:60001 3:248 4:143 5:1232 6:20 7:53 8:37 9:91 
-100000 1:27 2:14408 3:63 4:148 5:612 6:29 7:110 8:35 9:57 
-100000 1:37 2:3871 3:34 4:191 5:948 6:27 7:301 8:37 9:4 
-100000 1:22 2:198 3:25 4:29 5:169 6:3 7:7 8:0 9:17 
-100000 1:22 2:181 3:23 4:27 5:125 6:9 7:4 8:6 9:4 
-100000 1:32 2:1325 3:91 4:56 5:424 6:39 7:46 8:67 9:16 
-100000 1:22 2:234 3:30 4:31 5:179 6:7 7:4 8:11 9:5 
-100000 1:27 2:1219 3:86 4:91 5:484 6:66 7:21 8:48 9:12 
-100000 1:27 2:4387 3:37 4:341 5:948 6:4 7:30 8:38 9:79 
-100000 1:37 2:1943 3:29 4:36 5:592 6:53 7:109 8:62 9:108 
-100000 1:22 2:1946 3:89 4:47 5:476 6:9 7:34 8:149 9:16 
-100000 1:37 2:1593 3:78 4:83 5:536 6:64 7:80 8:38 9:5 
-100000 1:32 2:11994 3:134 4:52 5:696 6:53 7:43 8:277 9:88 
-100000 1:27 2:2848 3:171 4:126 5:744 6:77 7:101 8:18 9:66 
-100000 1:37 2:4915 3:53 4:70 5:1024 6:79 7:141 8:48 9:94 
-100000 1:37 2:1477 3:57 4:51 5:744 6:15 7:8 8:47 9:35 
-100000 1:37 2:2353 3:74 4:101 5:484 6:51 7:158 8:38 9:66 
-100000 1:32 2:2788 3:188 4:39 5:752 6:35 7:45 8:59 9:20 
-100000 1:22 2:2412 3:72 4:127 5:500 6:2 7:7 8:39 9:67 
-100000 1:37 2:7203 3:130 4:106 5:803 6:80 7:106 8:242 9:194 
-100000 1:32 2:3904 3:73 4:40 5:576 6:6 7:35 8:163 9:63 
-100000 1:32 2:1078 3:37 4:23 5:344 6:87 7:30 8:89 9:44 
-100000 1:27 2:1681 3:73 4:46 5:376 6:32 7:39 8:61 9:58 
-100000 1:32 2:3320 3:82 4:111 5:507 6:36 7:62 8:107 9:84 
-100000 1:32 2:4739 3:19 4:80 5:600 6:34 7:270 8:9 9:0 
-100000 1:22 2:589 3:32 4:47 5:160 6:4 7:16 8:21 9:15 
-100000 1:22 2:22454 3:206 4:143 5:1072 6:187 7:32 8:157 9:140 
-100000 1:22 2:591 3:63 4:46 5:320 6:14 7:12 8:38 9:44 
-100000 1:27 2:28533 3:57 4:183 5:976 6:126 7:226 8:19 9:145 
-100000 1:27 2:7973 3:246 4:152 5:1464 6:149 7:92 8:218 9:158 
-100000 1:22 2:146 3:26 4:24 5:128 6:7 7:14 8:13 9:8 
-100000 1:32 2:8236 3:196 4:184 5:1528 6:29 7:86 8:61 9:52 
-100000 1:32 2:4202 3:48 4:95 5:486 6:32 7:85 8:37 9:67 
-2203.9969069891908 1:32 2:807 3:33 4:70 5:348 6:26 7:129 8:2 9:14 
-100000 1:37 2:25995 3:107 4:255 5:2480 6:301 7:853 8:51 9:159 
-100000 1:22 2:4583 3:96 4:152 5:512 6:6 7:10 8:25 9:9 
-100000 1:37 2:40132 3:20 4:259 5:2010 6:60 7:992 8:4 9:19 
-100000 1:32 2:7395 3:132 4:40 5:1264 6:3 7:20 8:339 9:85 
-100000 1:32 2:19102 3:335 4:349 5:1920 6:164 7:289 8:29 9:298 
-100000 1:32 2:5357 3:107 4:80 5:604 6:115 7:107 8:96 9:11 
-100000 1:32 2:25338 3:18 4:166 5:1452 6:7 7:490 8:7 9:5 
-100000 1:37 2:7597 3:212 4:52 5:704 6:16 7:6 8:11 9:88 
-100000 1:37 2:10911 3:59 4:119 5:1084 6:131 7:112 8:49 9:106 
-100000 1:27 2:673 3:33 4:13 5:496 6:26 7:3 8:73 9:7 
-100000 1:37 2:5974 3:36 4:190 5:928 6:11 7:178 8:0 9:14 
-100000 1:32 2:3583 3:75 4:45 5:804 6:144 7:78 8:94 9:93 
-100000 1:22 2:204 3:21 4:27 5:132 6:18 7:12 8:9 9:28 
-100000 1:22 2:190 3:30 4:31 5:137 6:2 7:9 8:0 9:15 
-100000 1:37 2:4076 3:152 4:111 5:736 6:85 7:50 8:5 9:39 
-100000 1:32 2:2321 3:48 4:42 5:376 6:81 7:31 8:58 9:64 
-100000 1:27 2:11860 3:135 4:46 5:470 6:35 7:23 8:204 9:53 
-100000 1:32 2:30136 3:441 4:255 5:2096 6:115 7:118 8:130 9:60 
-100000 1:22 2:1175 3:114 4:68 5:424 6:9 7:32 8:11 9:19 
-100000 1:22 2:191 3:13 4:17 5:252 6:18 7:22 8:6 9:25 
-100000 1:27 2:1268 3:45 4:55 5:304 6:53 7:13 8:11 9:29 
-100000 1:32 2:1593 3:84 4:71 5:378 6:56 7:34 8:113 9:93 
-100000 1:27 2:1329 3:61 4:49 5:509 6:7 7:17 8:118 9:17 
-100000 1:22 2:162 3:29 4:27 5:143 6:13 7:8 8:22 9:5 
-100000 1:27 2:6946 3:119 4:80 5:412 6:75 7:8 8:61 9:38 
-100000 1:32 2:6506 3:48 4:103 5:484 6:53 7:125 8:9 9:52 
-100000 1:22 2:195 3:13 4:24 5:131 6:14 7:37 8:3 9:0 
-100000 1:22 2:1675 3:51 4:41 5:220 6:0 7:10 8:23 9:57 
-100000 1:37 2:7630 3:120 4:84 5:565 6:164 7:73 8:75 9:141 
-100000 1:37 2:2372 3:28 4:54 5:936 6:37 7:158 8:0 9:102 
-100000 1:22 2:1149 3:149 4:4 5:416 6:21 7:2 8:5 9:0 
-100000 1:37 2:2963 3:64 4:115 5:550 6:92 7:69 8:61 9:103 
-100000 1:37 2:3912 3:175 4:135 5:920 6:48 7:10 8:172 9:53 
-100000 1:27 2:579 3:19 4:29 5:603 6:15 7:41 8:5 9:41 
-100000 1:27 2:3579 3:144 4:71 5:704 6:28 7:36 8:53 9:76 
-100000 1:22 2:311 3:23 4:39 5:244 6:0 7:44 8:1 9:4 
-100000 1:37 2:17905 3:239 4:112 5:1020 6:6 7:88 8:230 9:35 
-100000 1:22 2:485 3:54 4:22 5:308 6:26 7:5 8:90 9:8 
-100000 1:27 2:4993 3:110 4:95 5:652 6:9 7:53 8:92 9:14 
-100000 1:27 2:2287 3:37 4:36 5:524 6:93 7:90 8:96 9:85 
-100000 1:32 2:52238 3:520 4:254 5:2480 6:191 7:137 8:550 9:166 
-100000 1:27 2:3106 3:52 4:158 5:464 6:36 7:97 8:36 9:3 
-100000 1:37 2:18173 3:310 4:202 5:1101 6:258 7:221 8:264 9:170 
-100000 1:37 2:9808 3:201 4:44 5:2468 6:134 7:73 8:745 9:116 
-100000 1:37 2:1007 3:102 4:37 5:528 6:72 7:1 8:112 9:49 
-100000 1:22 2:867 3:28 4:41 5:188 6:6 7:12 8:6 9:13 
-100000 1:27 2:2149 3:68 4:47 5:420 6:24 7:49 8:108 9:20 
-100000 1:22 2:21567 3:327 4:183 5:1560 6:187 7:203 8:57 9:31 
-100000 1:32 2:1588 3:65 4:31 5:516 6:55 7:4 8:126 9:15 
-100000 1:32 2:2351 3:117 4:45 5:546 6:12 7:35 8:86 9:51 
-100000 1:32 2:13358 3:127 4:101 5:532 6:116 7:60 8:159 9:19 
-100000 1:37 2:1902 3:47 4:103 5:788 6:76 7:331 8:0 9:29 
-100000 1:22 2:10816 3:91 4:120 5:613 6:58 7:125 8:49 9:144 
-100000 1:27 2:247 3:37 4:32 5:220 6:9 7:25 8:77 9:5 
-100000 1:27 2:308 3:28 4:47 5:300 6:4 7:39 8:0 9:42 
-100000 1:37 2:8463 3:139 4:111 5:880 6:156 7:85 8:191 9:87 
-100000 1:27 2:10015 3:240 4:151 5:1056 6:62 7:50 8:98 9:62 
-100000 1:27 2:185 3:24 4:15 5:296 6:20 7:5 8:17 9:7 
-100000 1:27 2:8246 3:52 4:130 5:390 6:56 7:172 8:16 9:47 
-100000 1:27 2:964 3:118 4:8 5:416 6:8 7:4 8:54 9:1 
-100000 1:22 2:154 3:46 4:18 5:240 6:22 7:14 8:43 9:12 
-100000 1:27 2:14939 3:327 4:141 5:1484 6:70 7:194 8:1 9:29 
-100000 1:32 2:2340 3:114 4:65 5:420 6:36 7:38 8:57 9:41 
-100000 1:27 2:844 3:15 4:16 5:976 6:1 7:34 8:22 9:39 
-100000 1:27 2:13779 3:215 4:186 5:1072 6:18 7:94 8:37 9:32 
-100000 1:22 2:806 3:29 4:39 5:180 6:5 7:40 8:3 9:10 
-100000 1:37 2:6244 3:38 4:109 5:678 6:41 7:293 8:7 9:6 
-100000 1:22 2:1513 3:108 4:76 5:564 6:78 7:9 8:45 9:17 
-100000 1:22 2:823 3:55 4:43 5:205 6:7 7:3 8:23 9:28 
-100000 1:37 2:7669 3:118 4:247 5:1480 6:94 7:36 8:112 9:320 
-100000 1:32 2:1006 3:41 4:30 5:372 6:39 7:43 8:91 9:45 
-100000 1:27 2:379 3:13 4:17 5:552 6:7 7:3 8:0 9:9 
-64336.111499781749 1:27 2:9532 3:109 4:65 5:344 6:23 7:27 8:30 9:64 
-100000 1:32 2:235 3:13 4:8 5:504 6:21 7:8 8:24 9:7 
-100000 1:22 2:13201 3:322 4:255 5:1532 6:236 7:19 8:110 9:82 
-100000 1:22 2:1062 3:41 4:35 5:260 6:12 7:0 8:60 9:42 
-100000 1:32 2:7599 3:239 4:146 5:1180 6:68 7:58 8:256 9:42 
-100000 1:32 2:5536 3:108 4:12 5:1564 6:81 7:2 8:377 9:10 
-100000 1:22 2:434 3:31 4:27 5:157 6:11 7:15 8:15 9:3 
-100000 1:32 2:1942 3:68 4:84 5:528 6:45 7:59 8:108 9:29 
-100000 1:22 2:46867 3:275 4:667 5:2280 6:408 7:283 8:75 9:33 
-100000 1:37 2:2587 3:146 4:87 5:960 6:88 7:4 8:84 9:13 
-100000 1:37 2:10652 3:93 4:351 5:1744 6:120 7:674 8:3 9:122 
-100000 1:32 2:2161 3:76 4:74 5:528 6:38 7:53 8:134 9:16 
-100000 1:37 2:10234 3:91 4:150 5:952 6:54 7:280 8:47 9:20 
-100000 1:22 2:244 3:21 4:25 5:130 6:6 7:18 8:25 9:17 
-100000 1:37 2:2378 3:110 4:111 5:636 6:12 7:21 8:56 9:74 
-100000 1:32 2:1766 3:58 4:58 5:380 6:37 7:48 8:102 9:56 
-100000 1:22 2:1031 3:33 4:27 5:464 6:58 7:49 8:75 9:58 
-100000 1:32 2:18215 3:304 4:274 5:1592 6:45 7:28 8:114 9:121 
-100000 1:37 2:7623 3:123 4:93 5:588 6:74 7:115 8:29 9:19 
-100000 1:32 2:4282 3:110 4:36 5:688 6:51 7:28 8:108 9:18 
-100000 1:32 2:7829 3:118 4:193 5:761 6:82 7:21 8:91 9:41 
-100000 1:22 2:1130 3:34 4:108 5:356 6:2 7:57 8:11 9:13 
-100000 1:22 2:375 3:55 4:24 5:184 6:13 7:12 8:37 9:18 
-100000 1:22 2:422 3:23 4:54 5:213 6:17 7:6 8:2 9:12 
-100000 1:37 2:6563 3:75 4:85 5:576 6:78 7:173 8:18 9:166 
-54891.245101678207 1:22 2:198 3:18 4:25 5:140 6:7 7:0 8:0 9:9 
-100000 1:22 2:344 3:32 4:30 5:132 6:12 7:6 8:8 9:12 
-100000 1:32 2:1775 3:43 4:55 5:532 6:87 7:69 8:76 9:48 
-100000 1:22 2:3025 3:69 4:72 5:284 6:36 7:53 8:20 9:5 
-100000 1:37 2:1697 3:79 4:79 5:509 6:77 7:18 8:46 9:67 
-100000 1:22 2:222 3:24 4:20 5:193 6:8 7:7 8:16 9:15 
-100000 1:22 2:150 3:28 4:28 5:128 6:14 7:9 8:14 9:0 
-100000 1:32 2:8056 3:109 4:52 5:573 6:69 7:10 8:302 9:96 
-100000 1:22 2:11338 3:15 4:169 5:943 6:8 7:322 8:4 9:12 
-100000 1:27 2:8722 3:71 4:108 5:380 6:95 7:201 8:50 9:59 
-100000 1:22 2:2541 3:62 4:36 5:284 6:12 7:7 8:56 9:0 
-100000 1:22 2:4387 3:37 4:341 5:948 6:4 7:30 8:38 9:79 
-100000 1:32 2:5991 3:163 4:182 5:1200 6:40 7:21 8:87 9:62 
-57051.121851313044 1:32 2:4122 3:118 4:43 5:447 6:38 7:12 8:123 9:32 
-100000 1:22 2:3727 3:63 4:61 5:320 6:23 7:82 8:72 9:50 
-100000 1:27 2:857 3:45 4:46 5:260 6:18 7:25 8:8 9:31 
-100000 1:22 2:1878 3:128 4:90 5:448 6:2 7:27 8:13 9:31 
-100000 1:22 2:507 3:37 4:30 5:141 6:9 7:13 8:21 9:12 
-100000 1:37 2:2340 3:90 4:60 5:740 6:47 7:112 8:35 9:70 
-100000 1:37 2:2679 3:81 4:96 5:1192 6:22 7:65 8:32 9:29 
-100000 1:27 2:3090 3:120 4:84 5:400 6:37 7:27 8:6 9:57 
-100000 1:32 2:1525 3:64 4:88 5:424 6:29 7:5 8:77 9:56 
-100000 1:32 2:19425 3:357 4:19 5:1664 6:53 7:1 8:10 9:18 
-100000 1:27 2:851 3:52 4:24 5:340 6:3 7:9 8:134 9:29 
-100000 1:37 2:4374 3:50 4:17 5:1840 6:95 7:50 8:122 9:51 
-100000 1:37 2:3720 3:96 4:117 5:784 6:108 7:123 8:9 9:26 
-100000 1:32 2:5990 3:39 4:322 5:880 6:25 7:87 8:52 9:56 
-100000 1:37 2:9309 3:159 4:174 5:635 6:178 7:199 8:207 9:235 
-100000 1:37 2:5299 3:107 4:65 5:688 6:6 7:20 8:133 9:100 
-100000 1:27 2:768 3:55 4:78 5:404 6:17 7:41 8:37 9:3 
-100000 1:27 2:1761 3:56 4:31 5:336 6:50 7:4 8:92 9:26 
-100000 1:32 2:11497 3:272 4:149 5:1480 6:23 7:42 8:18 9:137 
-100000 1:37 2:778 3:34 4:27 5:448 6:67 7:41 8:85 9:60 
-100000 1:22 2:1908 3:145 4:28 5:620 6:99 7:1 8:108 9:2 
-100000 1:22 2:887 3:22 4:32 5:183 6:26 7:46 8:23 9:27 
-100000 1:37 2:2278 3:77 4:100 5:651 6:42 7:59 8:18 9:67 
-100000 1:37 2:8172 3:119 4:89 5:612 6:19 7:136 8:202 9:191 
-100000 1:27 2:29900 3:18 4:217 5:1533 6:9 7:807 8:6 9:6 
-100000 1:22 2:972 3:41 4:42 5:233 6:50 7:47 8:42 9:42 
-15826.123662753531 1:37 2:45257 3:262 4:494 5:2020 6:289 7:1369 8:20 9:20 
-100000 1:27 2:604 3:48 4:35 5:253 6:28 7:30 8:2 9:30 
-100000 1:32 2:2192 3:123 4:99 5:872 6:50 7:55 8:11 9:60 
-100000 1:37 2:4967 3:31 4:82 5:711 6:87 7:283 8:55 9:67 
-100000 1:32 2:820 3:30 4:42 5:628 6:2 7:0 8:47 9:28 
-100000 1:27 2:1206 3:147 4:6 5:432 6:23 7:1 8:14 9:1 
-100000 1:27 2:676 3:32 4:20 5:705 6:48 7:19 8:53 9:7 
-100000 1:37 2:2242 3:84 4:118 5:728 6:75 7:58 8:63 9:81 
-100000 1:37 2:3769 3:59 4:108 5:620 6:72 7:53 8:23 9:66 
-100000 1:22 2:421 3:39 4:23 5:342 6:27 7:2 8:7 9:10 
-100000 1:37 2:2345 3:48 4:145 5:820 6:29 7:402 8:10 9:2 
-100000 1:22 2:375 3:40 4:27 5:168 6:16 7:2 8:18 9:0 
-100000 1:32 2:11635 3:130 4:182 5:691 6:81 7:150 8:184 9:175 
-100000 1:37 2:13792 3:256 4:252 5:1364 6:180 7:69 8:60 9:126 
-100000 1:22 2:3813 3:41 4:67 5:332 6:78 7:138 8:38 9:74 
-100000 1:27 2:4458 3:75 4:107 5:429 6:23 7:14 8:98 9:118 
-100000 1:22 2:1446 3:74 4:58 5:324 6:11 7:41 8:48 9:14 
-100000 1:22 2:352 3:30 4:25 5:192 6:21 7:13 8:43 9:15 
-100000 1:32 2:1153 3:46 4:10 5:417 6:32 7:1 8:138 9:15 
-100000 1:32 2:1540 3:174 4:7 5:460 6:22 7:0 8:21 9:1 
-100000 1:32 2:1043 3:85 4:36 5:536 6:28 7:2 8:199 9:53 
-100000 1:27 2:1031 3:48 4:24 5:437 6:25 7:7 8:101 9:1 
-100000 1:32 2:14854 3:150 4:54 5:664 6:0 7:1 8:320 9:1 
-100000 1:22 2:2522 3:125 4:39 5:480 6:7 7:20 8:87 9:10 
-100000 1:22 2:93 3:19 4:14 5:228 6:18 7:16 8:27 9:19 
-100000 1:32 2:6673 3:176 4:113 5:896 6:100 7:1 8:9 9:21 
-100000 1:22 2:512 3:26 4:34 5:196 6:13 7:14 8:13 9:25 
-100000 1:22 2:203 3:28 4:26 5:144 6:4 7:2 8:11 9:2 
-100000 1:32 2:4775 3:34 4:182 5:545 6:3 7:131 8:17 9:39 
-100000 1:27 2:1389 3:81 4:85 5:692 6:42 7:23 8:23 9:78 
-100000 1:27 2:26799 3:345 4:84 5:1260 6:85 7:57 8:115 9:43 
-100000 1:27 2:875 3:61 4:53 5:336 6:40 7:20 8:3 9:3 
-100000 1:22 2:30706 3:646 4:18 5:2088 6:33 7:2 8:131 9:3 
-100000 1:32 2:3425 3:154 4:146 5:796 6:81 7:30 8:35 9:22 
-100000 1:32 2:4432 3:77 4:66 5:452 6:44 7:31 8:64 9:142 
-100000 1:37 2:5066 3:188 4:184 5:892 6:86 7:39 8:108 9:76 
-100000 1:22 2:709 3:43 4:37 5:188 6:19 7:54 8:9 9:9 
-100000 1:32 2:11936 3:113 4:129 5:912 6:30 7:452 8:50 9:62 
-100000 1:22 2:3942 3:70 4:78 5:520 6:141 7:42 8:125 9:0 
-100000 1:22 2:1666 3:35 4:59 5:200 6:18 7:16 8:20 9:9 
-100000 1:37 2:2373 3:20 4:42 5:1768 6:0 7:38 8:8 9:39 
-100000 1:32 2:29634 3:118 4:209 5:1440 6:56 7:88 8:29 9:46 
-100000 1:27 2:3052 3:85 4:198 5:748 6:25 7:127 8:45 9:50 
-100000 1:27 2:2550 3:28 4:260 5:692 6:0 7:2 8:4 9:43 
-100000 1:37 2:959 3:19 4:104 5:672 6:9 7:151 8:17 9:244 
-100000 1:22 2:5894 3:205 4:121 5:781 6:152 7:4 8:5 9:81 
-100000 1:22 2:174 3:26 4:30 5:159 6:19 7:5 8:11 9:8 
-100000 1:22 2:2938 3:27 4:67 5:314 6:29 7:151 8:3 9:6 
-100000 1:22 2:534 3:36 4:29 5:168 6:14 7:0 8:9 9:4 
