svm_type c_svc
kernel_type rbf
gamma 0.050000000000000003
nr_class 2
total_sv 51
rho -0.14192927234260228
label 1 0
probA -1.5440467328189089
probB -0.19529328134545679
nr_sv 27 24
SV
0.2071293332585584 1:1.3351619 2:4.2331077 3:3.7816263 4:3.3185557 5:3.1570124 6:2.7748735 7:2.4810377 8:2.7837233 
100 1:1.3351619 2:-0.37917513 3:-0.043656129 4:-0.34304902 5:-0.43587767 6:-0.37986863 7:-0.38901932 8:-0.31707823 
100 1:-1.3781268 2:-0.53902334 3:-0.62394608 4:-0.79655304 5:-0.51910037 6:-0.45240526 7:-0.46514743 8:-0.76236023 
100 1:-1.3781268 2:-0.53673884 3:-0.56573778 4:-0.67949185 5:-0.52258382 6:-0.45570001 7:-0.4675857 8:-0.71815548 
100 1:0.43073233 2:-0.48627813 3:-0.51213755 4:0.11705563 5:-0.51194347 6:-0.44456064 7:-0.45604457 8:-0.4766466 
100 1:-0.47369722 2:-0.51134051 3:-0.63148482 4:-0.25633391 5:-0.51010675 6:-0.45632758 7:-0.44569548 8:-0.51977319 
100 1:-0.47369722 2:-0.5346559 3:-0.67047031 4:-0.65224576 5:-0.51606027 6:-0.45219607 7:-0.46016253 8:-0.6750289 
17.521442145507329 1:-0.47369722 2:-0.50992949 3:-0.36579736 4:-0.31909271 5:-0.50567327 6:-0.43049261 7:-0.46487651 8:-0.39901875 
100 1:-1.3781268 2:-0.52840711 3:-0.60225534 4:-0.44418854 5:-0.50903005 6:-0.45214377 7:-0.44818793 8:-0.6534656 
100 1:0.43073233 2:-0.47122727 3:0.048543976 4:-0.52411321 5:-0.45582832 6:-0.37908417 7:-0.43285394 8:-0.45077065 
100 1:-1.3781268 2:-0.50428541 3:-0.52509415 4:-0.49104675 5:-0.50890338 6:-0.44341009 7:-0.45701988 8:-0.65777826 
100 1:1.3351619 2:-0.5028744 3:-0.68978953 4:-0.43583757 5:-0.45272488 6:-0.44612956 7:-0.35808042 8:-0.51977319 
59.312437306203684 1:-0.47369722 2:-0.34410124 3:-0.56502439 4:-0.60867732 5:-0.059792122 6:-0.074032846 7:-0.071286038 8:-0.33756336 
0.03206634508260655 1:-0.47369722 2:3.4074604 3:2.9992944 4:1.6002805 5:4.3686817 6:2.9479782 7:4.3748667 8:2.8311625 
100 1:-0.47369722 2:-0.52511473 3:-0.42046766 4:-0.49932391 5:-0.5229005 6:-0.45559541 7:-0.46834427 8:-0.64591845 
100 1:0.43073233 2:0.048094645 3:0.33134302 4:-0.19345912 5:-0.30844686 6:-0.22590479 7:-0.22950247 8:-0.31923456 
60.138200680035546 1:1.3351619 2:-0.32475014 3:-0.22736224 4:0.27922471 5:0.090312754 6:0.057181583 7:0.049597821 8:0.32119524 
0.91821674676838716 1:1.3351619 2:1.5508291 3:1.1276438 4:3.7065383 5:2.46767 6:-0.44550199 7:4.6380912 8:1.688308 
100 1:0.43073233 2:-0.47169761 3:-0.52536408 4:-0.50509156 5:-0.44442795 6:-0.36433627 7:-0.42862761 8:-0.53271116 
100 1:-1.3781268 2:-0.38596145 3:-0.27283567 4:-0.60963684 5:-0.45215487 6:-0.39017124 7:-0.41508168 8:-0.48850641 
100 1:-1.3781268 2:-0.50663711 3:-0.50549536 4:-0.41054214 5:-0.51498357 6:-0.45570001 7:-0.45468998 8:-0.62651149 
100 1:-1.3781268 2:-0.47082412 3:-0.43652845 4:-0.53357132 5:-0.47634898 6:-0.38865461 7:-0.45804937 8:-0.60710452 
100 1:-1.3781268 2:-0.53337927 3:-0.60491607 4:-0.58037681 5:-0.51929038 6:-0.45099323 7:-0.4669355 8:-0.70953017 
100 1:1.3351619 2:-0.43635496 3:-0.037148907 4:-0.3563452 5:-0.41257025 6:-0.29206113 7:-0.44900069 8:-0.2998276 
0.52040302115744086 1:1.3351619 2:2.6973151 3:1.6927599 4:0.32064214 5:4.2475845 6:6.7505818 7:0.22791641 8:2.3740207 
13.38778378459064 1:-0.47369722 2:0.99972569 3:0.30745429 4:-0.59335667 5:0.039834448 6:0.21219137 7:-0.19737153 8:-0.42705103 
100 1:0.43073233 2:-0.49689437 3:-0.62941215 4:-0.45157999 5:-0.4294808 6:-0.41412349 7:-0.35147001 8:-0.29443678 
-37.201469183435904 1:1.3351619 2:-0.51006387 3:-0.55100735 4:-0.29096091 5:-0.48743268 6:-0.44299171 7:-0.42071679 8:-0.43783267 
-4.2310954800667879 1:1.3351619 2:-0.48869702 3:-0.3077915 4:-0.46271461 5:-0.46532863 6:-0.38766096 7:-0.44022293 8:-0.40548773 
-100 1:-1.3781268 2:-0.53922492 3:-0.63638211 4:-0.67324971 5:-0.5241672 6:-0.45705974 7:-0.46899448 8:-0.73971878 
-28.393124804631224 1:0.43073233 2:-0.51066859 3:-0.3443187 4:-0.41386355 5:-0.51777033 6:-0.45402649 7:-0.46119202 8:-0.59740104 
-72.044781133918505 1:-0.47369722 2:-0.49185502 3:0.79131203 4:-0.45671499 5:-0.51004341 6:-0.44471753 7:-0.45620712 8:-0.3731428 
-100 1:-0.47369722 2:-0.53109476 3:-0.49111199 4:-0.55278277 5:-0.52176046 6:-0.45496784 7:-0.46704386 8:-0.65777826 
-100 1:-0.47369722 2:-0.527668 3:-0.43017547 4:-0.52487239 5:-0.52157045 6:-0.4557523 7:-0.46590601 8:-0.64052763 
-100 1:-1.3781268 2:-0.50777936 3:-0.65006173 4:-0.71505728 5:-0.4931962 6:-0.42871449 7:-0.44537038 8:-0.76990739 
-100 1:-1.3781268 2:-0.53505905 3:-0.64474027 4:-0.72121507 5:-0.51720031 6:-0.45088863 7:-0.46346774 8:-0.75696941 
-100 1:-0.47369722 2:-0.12458712 3:-0.32485488 4:-0.51642653 5:-0.38413266 6:-0.23286036 7:-0.23670891 8:-0.67718523 
-100 1:0.43073233 2:-0.44663524 3:-0.29790052 4:-0.23791327 5:-0.43334425 6:-0.36062315 7:-0.41351036 8:-0.20494911 
-28.209525494702564 1:-1.3781268 2:-0.54157661 3:-0.61656159 4:-0.7513608 5:-0.52378719 6:-0.45664136 7:-0.46856101 8:-0.7267808 
-100 1:1.3351619 2:-0.48641252 3:0.14969031 4:-0.084928158 5:-0.49180282 6:-0.4286099 7:-0.44309466 8:-0.32139089 
-100 1:0.43073233 2:-0.48453116 3:-0.4932425 4:-0.44018176 5:-0.46659533 6:-0.41265916 7:-0.41649046 8:-0.42058204 
-100 1:-0.47369722 2:-0.51570794 3:-0.60761537 4:-0.44709872 5:-0.49712299 6:-0.45345121 7:-0.42646026 8:-0.49820989 
-100 1:-1.3781268 2:-0.46215644 3:-0.51774822 4:-0.66905314 5:-0.43543432 6:-0.37662618 7:-0.40050627 8:-0.71492099 
-100 1:-0.47369722 2:-0.46336588 3:-0.046239737 4:-0.496361 5:-0.49674298 6:-0.44628645 7:-0.43323323 8:-0.51977319 
-81.957683265849127 1:1.3351619 2:-0.50475575 3:-0.44228373 4:-0.6597532 5:-0.42371728 6:-0.36271505 7:-0.39487116 8:-0.37529912 
-100 1:-1.3781268 2:-0.50489014 3:-0.4715614 4:-0.66421337 5:-0.49997309 6:-0.42468759 7:-0.46113784 8:-0.69874852 
-100 1:1.3351619 2:-0.29108727 3:-0.59843777 4:0.29714977 5:-0.18057271 6:-0.34127307 7:-0.0010639484 8:0.023621797 
-100 1:0.43073233 2:-0.47445246 3:-0.41836607 4:-0.49192192 5:-0.4890794 6:-0.43007423 7:-0.43691772 8:-0.32354722 
-100 1:-1.3781268 2:-0.3972496 3:-0.62685746 4:-0.55268787 5:-0.48971275 6:-0.42374623 7:-0.43447945 8:-0.74942226 
-100 1:1.3351619 2:-0.14555082 3:-0.32122048 4:0.1326188 5:-0.011403883 6:0.13301296 7:-0.20300664 8:-0.36020482 
-100 1:-1.3781268 2:-0.41290518 3:-0.66033832 4:-0.52815163 5:-0.49617296 6:-0.44801227 7:-0.43046986 8:-0.71599915 
