svm_type c_svc
kernel_type rbf
gamma 5.0000000000000003e-10
nr_class 2
total_sv 49
rho -3755.0218816197375
label 0 1
probA -0.13427014753498256
probB 0.11802819716146393
nr_sv 25 24
SV
50000000 1:27 2:22 3:35 4:166 5:2 6:26 7:3 8:12 
32944676.737719186 1:32 2:234 3:34 4:930 5:8 6:42 7:115 8:1 
32492686.671043046 1:22 2:44 3:66 4:348 5:24 6:17 7:17 8:21 
50000000 1:27 2:22 3:19 4:112 5:13 6:0 7:6 8:1 
50000000 1:27 2:17 3:30 4:168 5:3 6:6 7:1 8:12 
50000000 1:27 2:19 3:44 4:304 5:9 6:81 7:4 8:47 
50000000 1:32 2:100 3:84 4:710 5:45 6:49 7:27 8:64 
50000000 1:27 2:55 3:142 4:988 5:5 6:10 7:38 8:88 
4279824.7916136822 1:37 2:40 3:21 4:265 5:26 6:22 7:7 8:2 
50000000 1:22 2:8 3:23 4:96 5:3 6:7 7:8 8:10 
25967680.885567173 1:22 2:16 3:213 4:784 5:0 6:321 7:2 8:20 
50000000 1:22 2:19 3:22 4:132 5:2 6:1 7:13 8:3 
50000000 1:22 2:23 3:25 4:141 5:4 6:6 7:0 8:0 
50000000 1:27 2:5 3:5 4:35 5:4 6:4 7:2 8:3 
50000000 1:32 2:51 3:29 4:428 5:1 6:29 7:144 8:12 
50000000 1:22 2:28 3:49 4:256 5:1 6:1 7:21 8:8 
50000000 1:27 2:17 3:47 4:296 5:1 6:92 7:11 8:38 
50000000 1:37 2:79 3:34 4:480 5:5 6:18 7:39 8:9 
50000000 1:32 2:46 3:170 4:671 5:33 6:177 7:20 8:27 
50000000 1:22 2:19 3:25 4:345 5:17 6:21 7:24 8:31 
50000000 1:27 2:25 3:24 4:125 5:10 6:3 7:14 8:5 
18400119.900538225 1:37 2:19 3:86 4:572 5:6 6:263 7:4 8:65 
26289709.955959991 1:27 2:16 3:23 4:96 5:4 6:5 7:1 8:3 
50000000 1:37 2:37 3:128 4:516 5:28 6:279 7:3 8:101 
45446369.611513153 1:37 2:42 3:218 4:836 5:6 6:170 7:11 8:289 
-50000000 1:22 2:7 3:53 4:176 5:1 6:2 7:4 8:3 
-3297893.0512868459 1:32 2:61 3:76 4:580 5:5 6:33 7:133 8:7 
-50000000 1:27 2:53 3:61 4:474 5:4 6:98 7:21 8:32 
-31966928.726779737 1:32 2:157 3:118 4:896 5:54 6:35 7:158 8:46 
-50000000 1:37 2:17 3:29 4:312 5:22 6:41 7:40 8:40 
-50000000 1:22 2:20 3:49 4:208 5:0 6:41 7:9 8:57 
-50000000 1:22 2:24 3:20 4:118 5:11 6:9 7:4 8:9 
-50000000 1:37 2:19 3:148 4:576 5:3 6:119 7:6 8:95 
-43962388.955454879 1:22 2:160 3:146 4:1052 5:42 6:72 7:6 8:24 
-50000000 1:32 2:50 3:45 4:339 5:17 6:13 7:88 8:1 
-50000000 1:22 2:22 3:24 4:132 5:6 6:1 7:16 8:7 
-50000000 1:27 2:21 3:33 4:146 5:0 6:2 7:5 8:15 
-50000000 1:22 2:29 3:36 4:212 5:0 6:29 7:2 8:26 
-50000000 1:32 2:60 3:73 4:356 5:18 6:19 7:6 8:71 
-50000000 1:22 2:21 3:22 4:152 5:10 6:13 7:13 8:8 
-6593857.8204337619 1:27 2:106 3:128 4:858 5:0 6:17 7:165 8:193 
-50000000 1:27 2:26 3:12 4:220 5:6 6:7 7:6 8:14 
-50000000 1:22 2:24 3:24 4:144 5:0 6:7 7:12 8:16 
-50000000 1:32 2:54 3:80 4:412 5:21 6:69 7:51 8:104 
-50000000 1:22 2:21 3:30 4:392 5:9 6:15 7:25 8:9 
-50000000 1:32 2:15 3:42 4:184 5:4 6:33 7:5 8:7 
-50000000 1:32 2:23 3:170 4:1040 5:6 6:456 7:8 8:90 
-50000000 1:32 2:20 3:132 4:568 5:3 6:200 7:21 8:39 
-50000000 1:27 2:54 3:45 4:449 5:9 6:7 7:0 8:65 
