svm_type c_svc
kernel_type rbf
gamma 2.0000000000000001e-10
nr_class 2
total_sv 57
rho 8465.7799661798217
label 1 0
probA -0.038236084228305219
probB -0.048142468661240868
nr_sv 29 28
SV
90000000 1:32 2:109 3:95 4:980 5:109 6:43 7:247 8:130 
90000000 1:22 2:26 3:52 4:448 5:22 6:96 7:10 8:54 
90000000 1:37 2:149 3:134 4:1156 5:85 6:118 7:71 8:1 
88588057.729945451 1:37 2:400 3:437 4:3068 5:228 6:31 7:557 8:386 
90000000 1:32 2:124 3:190 4:1032 5:15 6:63 7:64 8:22 
90000000 1:22 2:34 3:35 4:204 5:22 6:5 7:32 8:32 
90000000 1:22 2:110 3:169 4:968 5:50 6:59 7:21 8:232 
90000000 1:22 2:112 3:70 4:764 5:15 6:6 7:67 8:25 
40982663.283975556 1:22 2:136 3:77 4:570 5:53 6:33 7:122 8:45 
90000000 1:22 2:17 3:77 4:292 5:5 6:116 7:3 8:20 
90000000 1:32 2:71 3:91 4:404 5:1 6:19 7:16 8:2 
84788961.596225545 1:37 2:192 3:71 4:1168 5:65 6:3 7:607 8:186 
90000000 1:22 2:32 3:33 4:220 5:5 6:42 7:4 8:14 
90000000 1:27 2:31 3:82 4:336 5:15 6:10 7:11 8:35 
90000000 1:22 2:77 3:264 4:956 5:42 6:204 7:7 8:31 
90000000 1:37 2:44 3:24 4:336 5:1 6:11 7:90 8:18 
90000000 1:27 2:47 3:42 4:264 5:19 6:12 7:39 8:12 
54024610.689217873 1:27 2:74 3:417 4:1724 5:67 6:635 7:179 8:10 
90000000 1:22 2:16 3:28 4:263 5:9 6:46 7:13 8:18 
90000000 1:32 2:88 3:45 4:568 5:41 6:37 7:187 8:6 
90000000 1:32 2:82 3:356 4:1404 5:194 6:544 7:10 8:32 
90000000 1:22 2:31 3:22 4:280 5:18 6:6 7:23 8:11 
90000000 1:22 2:125 3:219 4:1280 5:3 6:105 7:141 8:190 
90000000 1:22 2:18 3:30 4:296 5:12 6:24 7:33 8:16 
42309590.632941909 1:27 2:737 3:135 4:2508 5:266 6:184 7:242 8:281 
90000000 1:27 2:442 3:166 4:1756 5:25 6:220 7:29 8:226 
90000000 1:32 2:136 3:83 4:980 5:154 6:65 7:410 8:238 
90000000 1:22 2:60 3:45 4:223 5:7 6:24 7:99 8:58 
4488900.3310034778 1:37 2:519 3:200 4:2664 5:1101 6:34 7:31 8:13 
-90000000 1:27 2:425 3:110 4:1404 5:50 6:116 7:258 8:46 
-90000000 1:27 2:356 3:707 4:2192 5:204 6:374 7:126 8:304 
-90000000 1:32 2:112 3:98 4:604 5:82 6:5 7:111 8:2 
-90000000 1:37 2:74 3:228 4:1044 5:44 6:402 7:57 8:5 
-90000000 1:27 2:37 3:299 4:968 5:15 6:27 7:28 8:201 
-90000000 1:32 2:78 3:69 4:448 5:49 6:53 7:77 8:62 
-90000000 1:22 2:26 3:26 4:136 5:5 6:5 7:19 8:3 
-90000000 1:27 2:18 3:39 4:176 5:4 6:23 7:6 8:2 
-90000000 1:32 2:87 3:100 4:676 5:49 6:74 7:41 8:51 
-90000000 1:27 2:171 3:19 4:1156 5:9 6:6 7:602 8:43 
-90000000 1:32 2:36 3:28 4:166 5:13 6:18 7:1 8:35 
-90000000 1:22 2:24 3:22 4:111 5:3 6:0 7:6 8:18 
-90000000 1:27 2:229 3:132 4:1264 5:72 6:38 7:31 8:60 
-90000000 1:27 2:32 3:31 4:188 5:11 6:9 7:34 8:15 
-90000000 1:22 2:19 3:22 4:140 5:5 6:9 7:39 8:10 
-34240494.776025929 1:32 2:114 3:296 4:1208 5:36 6:229 7:27 8:407 
-90000000 1:37 2:152 3:206 4:1544 5:75 6:81 7:244 8:385 
-90000000 1:27 2:47 3:55 4:312 5:27 6:18 7:60 8:65 
-90000000 1:22 2:105 3:68 4:872 5:1 6:8 7:380 8:211 
-90000000 1:27 2:44 3:30 4:339 5:4 6:52 7:64 8:4 
-90000000 1:22 2:25 3:100 4:388 5:16 6:141 7:13 8:68 
-90000000 1:32 2:42 3:205 4:908 5:25 6:452 7:11 8:86 
-90000000 1:22 2:83 3:86 4:408 5:52 6:20 7:87 8:4 
-57249897.578907743 1:32 2:679 3:178 4:2712 5:582 6:142 7:335 8:139 
-90000000 1:37 2:109 3:29 4:2580 5:120 6:27 7:411 8:81 
-90000000 1:22 2:175 3:124 4:952 5:5 6:38 7:71 8:33 
-90000000 1:27 2:36 3:95 4:400 5:39 6:29 7:11 8:94 
-43692391.908377081 1:32 2:35 3:112 4:1184 5:74 6:392 7:28 8:13 
