svm_type c_svc
kernel_type rbf
gamma 0.10000000000000001
nr_class 2
total_sv 123
rho -0.21255173497110161
label 0 1
probA -1.2474659428466484
probB 0.2240457399102033
nr_sv 57 66
SV
10 1:-0.12256993 2:-0.51359933 3:-0.70266342 4:0.051939165 5:-0.57519124 6:-0.56900926 7:-0.41201217 8:-0.3402976 
1.3830967108437371 1:1.742939 2:1.3376775 3:0.39437518 4:-0.38233722 5:1.7798523 6:2.6386211 7:-0.39098363 8:0.98140698 
10 1:-0.12256993 2:-0.54684684 3:-0.78578375 4:-0.38531852 5:-0.2691877 6:-0.30580705 7:-0.13704123 8:-0.3402976 
10 1:-1.0553244 2:-0.53355934 3:-0.093114326 4:-0.68146123 5:-0.52498672 6:-0.46591522 7:-0.46744064 8:-0.49163782 
10 1:-1.0553244 2:-0.6575185 3:-0.88650163 4:-0.56071848 5:-0.64320356 6:-0.56442967 7:-0.5533262 8:-0.85989901 
10 1:-1.0553244 2:-0.50520116 3:0.27905508 4:-0.90307137 5:-0.4497059 6:-0.36615825 7:-0.46229779 8:-0.027527811 
8.3023593171818959 1:1.742939 2:-0.13993868 3:0.13078638 4:-0.86431444 5:-0.12537538 6:0.14178579 7:-0.56595475 8:-0.27976151 
1.3172372715073044 1:-1.0553244 2:-0.65855389 3:-0.8411973 4:-0.52146466 5:-0.65524849 6:-0.57071329 7:-0.56344047 8:-0.88007771 
10 1:-1.0553244 2:-0.66160254 3:-0.73299111 4:-0.57562499 5:-0.66090753 6:-0.57536388 7:-0.57092617 8:-0.80945228 
10 1:-1.0553244 2:-0.68581915 3:-0.95277324 4:-0.8136323 5:-0.68042863 6:-0.59694831 7:-0.59869755 8:-0.99610521 
3.9073155292586965 1:-0.12256993 2:0.87704413 3:2.3125079 4:2.2645624 5:0.096157897 6:-0.44763236 7:0.8704427 8:0.77457535 
10 1:-0.12256993 2:-0.4200116 3:-0.0092451636 4:0.063864375 5:-0.49627617 6:-0.3437218 7:-0.60092611 8:-0.40083368 
10 1:1.742939 2:-0.16933224 3:0.21802529 4:-0.51401141 5:0.1014016 6:0.43693863 7:-0.54184051 8:1.0469877 
10 1:-0.12256993 2:-0.49824104 3:0.15999083 4:-0.35749303 5:-0.53640864 6:-0.43854418 7:-0.35069799 8:-0.43110173 
2.0200292681507737 1:1.742939 2:-0.68788993 3:-0.77305361 4:-0.90505891 5:-0.67985753 6:-0.59421475 7:-0.60126897 8:-1.046552 
10 1:-1.0553244 2:-0.29012771 3:-0.15826269 4:-0.02731379 5:0.14745269 6:0.15126448 7:0.019358496 8:-0.16625634 
10 1:1.742939 2:-0.14028381 3:0.67668477 4:-0.21140921 5:0.12891803 6:0.32983301 7:-0.30886949 8:0.40631415 
10 1:-0.12256993 2:-0.63594788 3:-0.69554952 4:-0.85189235 5:-0.59310288 6:-0.47798546 7:-0.59795469 8:-0.73378217 
7.9366807837273843 1:-0.12256993 2:-0.23571223 3:-0.76668854 4:1.3761343 5:-0.55130905 6:-0.57461837 7:-0.35041227 8:-0.017438463 
10 1:-1.0553244 2:-0.69208901 3:-0.91832698 4:-0.98952914 5:-0.68048054 6:-0.58910265 7:-0.61144038 8:-1.107088 
10 1:-0.12256993 2:-0.54897514 3:-0.052677408 4:-0.68444253 5:-0.48854042 6:-0.47141783 7:-0.37835508 8:-0.39578901 
10 1:0.81018454 2:0.10832477 3:-0.14852788 4:0.74956393 5:-0.42338358 6:-0.39878339 7:-0.35184084 8:-0.17382336 
10 1:-0.12256993 2:-0.51854619 3:-0.15713945 4:-0.80319774 5:-0.44513714 6:-0.28713368 7:-0.57944044 8:-0.52190586 
10 1:1.742939 2:0.65178934 3:1.5430832 4:0.60745518 5:-0.31715975 6:-0.27978504 7:-0.3095552 8:0.58792241 
10 1:1.742939 2:-0.43358671 3:-0.4267189 4:-0.10358544 5:0.07409283 6:-0.055030097 7:0.18992962 8:0.053186973 
10 1:-1.0553244 2:-0.67857142 3:-0.93742219 4:-0.79773202 5:-0.66189397 6:-0.59527978 7:-0.56058333 8:-1.0011499 
4.4722699941400821 1:0.81018454 2:0.050285426 3:-0.25074342 4:1.7199779 5:-0.096249487 6:0.11753881 7:-0.46281207 8:-0.047706507 
10 1:-0.12256993 2:-0.52953282 3:-0.56525278 4:-0.30059984 5:-0.53708357 6:-0.48725114 7:-0.42909785 8:-0.56478559 
10 1:0.81018454 2:-0.32797696 3:-0.4173585 4:0.15230968 5:-0.31160454 6:-0.36072664 7:-0.16704117 8:-0.037617159 
10 1:-0.12256993 2:-0.54287785 3:-0.20731118 4:-0.45438536 5:-0.5211448 6:-0.47855347 7:-0.41509787 8:-0.43110173 
10 1:-0.12256993 2:-0.58377574 3:-0.019354393 4:-0.62928843 5:-0.64948562 6:-0.57316284 7:-0.56886903 8:-0.59253129 
2.9863270479229711 1:-0.12256993 2:-0.60022693 3:-0.61317802 4:-0.19699959 5:-0.58650932 6:-0.53712963 7:-0.4882406 8:-0.48154847 
10 1:-1.0553244 2:-0.63381958 3:-0.74497242 4:-0.67102667 5:-0.55099754 6:-0.49786585 7:-0.4732692 8:-0.66315673 
10 1:-0.12256993 2:-0.48782963 3:0.32997565 4:-0.68643006 5:-0.20159071 6:-0.19419285 7:-0.19292684 8:0.20452719 
10 1:-0.12256993 2:1.4979328 3:0.32042804 4:0.78707865 5:0.5105139 6:0.44432277 7:1.0703852 8:0.33316638 
2.7661253041795986 1:1.742939 2:0.83637632 3:0.057775283 4:3.1669033 5:0.34858226 6:-0.046935937 7:0.78112857 8:1.2235513 
0.76245742852229836 1:-0.12256993 2:-0.46620148 3:-0.6764543 4:0.25764903 5:-0.46730604 6:-0.555803 7:-0.19578398 8:-0.37056564 
10 1:-1.0553244 2:-0.32222479 3:-0.65810793 4:0.28895271 5:-0.27733879 6:-0.53230153 7:0.1845582 8:-0.32516357 
10 1:-0.12256993 2:-0.13545199 3:0.093532002 4:0.21615924 5:-0.1726725 6:-0.19057178 7:-0.13509837 8:-0.071668708 
9.0805791458127914 1:1.742939 2:0.57954214 3:0.41908663 4:-0.39426243 5:0.92886757 6:1.2543778 7:-0.03612712 8:0.77962002 
10 1:-1.0553244 2:-0.59850128 3:0.022205772 4:-0.54332755 5:-0.55681233 6:-0.47546491 7:-0.52212625 8:-0.63288869 
10 1:-1.0553244 2:-0.69001823 3:-0.90157187 4:-0.92257406 5:-0.6838552 6:-0.59499577 7:-0.60938324 8:-1.1600571 
10 1:-1.0553244 2:-0.32044162 3:0.33858721 4:-0.037003023 5:-0.34192454 6:-0.26476824 7:-0.070984201 8:-0.07797455 
10 1:-1.0553244 2:-0.6880625 3:-0.86403667 4:-0.97810081 5:-0.67591178 6:-0.59048718 7:-0.59915469 8:-1.0869093 
10 1:-1.0553244 2:-0.44336539 3:0.45503056 4:-0.13389535 5:-0.58749576 6:-0.52761544 7:-0.49406916 8:-0.28985086 
10 1:-1.0553244 2:-0.68800497 3:-0.84915364 4:-0.92331938 5:-0.68842397 6:-0.60049838 7:-0.61058324 8:-1.107088 
10 1:0.81018454 2:-0.34471576 3:0.68342426 4:0.040013956 5:-0.46969426 6:-0.43694665 7:-0.39235506 8:-0.35543162 
0.43053439684172606 1:0.81018454 2:-0.28086672 3:-0.77904426 4:0.99701203 5:-0.42156645 6:-0.38209806 7:-0.37469795 8:0.058231647 
10 1:-1.0553244 2:-0.65170881 3:-0.87377149 4:-0.62233206 5:-0.64268438 6:-0.57291433 7:-0.55429763 8:-0.88007771 
10 1:-1.0553244 2:-0.68863771 3:-0.86515992 4:-0.960213 5:-0.67746931 6:-0.59492477 7:-0.59544041 8:-1.1575348 
2.3721237119577547 1:-1.0553244 2:-0.69082353 3:-0.96812429 4:-0.87375523 5:-0.67980561 6:-0.5915167 7:-0.59692612 8:-1.107088 
10 1:-0.12256993 2:-0.45205116 3:0.19893008 4:-0.12793275 5:-0.52825754 6:-0.45391598 7:-0.49395488 8:-0.48659314 
10 1:-1.0553244 2:-0.500772 3:-0.6880612 4:0.10510572 5:-0.40593919 6:-0.54525929 7:-0.077669903 8:-0.65306738 
10 1:-1.0553244 2:-0.42863985 3:-0.54887209 4:-0.35041244 5:-0.51117658 6:-0.36661976 7:-0.59686898 8:-0.54712923 
10 1:-1.0553244 2:-0.65728841 3:-0.69685997 4:-0.60966153 5:-0.62165767 6:-0.55157841 7:-0.54235479 8:-0.81701929 
10 1:-1.0553244 2:-0.58412087 3:-0.24962017 4:-0.54134001 5:-0.60436904 6:-0.53730713 7:-0.5272691 8:-0.72369282 
8.8925861994721966 1:1.742939 2:-0.53367438 3:-0.79776506 4:-0.42705675 5:-0.14230058 6:-0.22564647 7:-0.011784306 8:-0.027527811 
-0.40249461521057323 1:-1.0553244 2:2.0382337 3:0.33465584 4:1.6042039 5:0.3524761 6:0.50517098 7:-0.098984151 8:0.84267845 
-0.97967040698754126 1:0.81018454 2:1.5870339 3:1.0389322 4:1.6511595 5:1.687854 6:1.5548202 7:1.1510136 8:0.70268875 
-10 1:-1.0553244 2:-0.31796819 3:0.27531092 4:-0.25811628 5:-0.37613837 6:-0.30179547 7:-0.40395504 8:-0.35038694 
-10 1:-0.12256993 2:-0.65211146 3:-0.56188304 4:-0.63177285 5:-0.66272466 6:-0.57582539 7:-0.57166902 8:-0.89521173 
-10 1:-1.0553244 2:-0.69162884 3:-0.92955946 4:-0.91996542 5:-0.6797537 6:-0.5916587 7:-0.60572611 8:-1.1171774 
-10 1:-1.0553244 2:-0.66022202 3:-0.70116575 4:-0.73611844 5:-0.66303616 6:-0.58590759 7:-0.5781833 8:-0.94565847 
-8.5575246772106048 1:0.81018454 2:0.40369845 3:0.16073966 4:-0.48568903 5:0.62078732 6:1.0943406 7:-0.4566978 8:0.79979872 
-10 1:-1.0553244 2:-0.65550524 3:-0.64537778 4:-0.66506406 5:-0.63266425 6:-0.57337584 7:-0.53149767 8:-0.92547978 
-10 1:-1.0553244 2:-0.60753218 3:-0.49973 4:-0.3584868 5:-0.59320672 6:-0.53357956 7:-0.50869771 8:-0.66315673 
-10 1:-1.0553244 2:-0.63531514 3:-0.6764543 4:-0.6884176 5:-0.64777233 6:-0.57703242 7:-0.55886905 8:-1.0263733 
-10 1:1.742939 2:-0.46062188 3:-0.24362952 4:-0.4012188 5:-0.22105989 6:-0.24957394 7:-0.14664121 8:-0.10824259 
-0.039998200226731367 1:-0.12256993 2:1.0832017 3:0.4819885 4:-0.43301936 5:3.1708861 6:3.3187436 7:1.5763272 8:2.8882937 
-10 1:-0.12256993 2:-0.17312867 3:-0.31533017 4:-0.66183432 5:-0.1403277 6:0.071174898 7:-0.48521203 8:-0.30498488 
-6.2261082981095033 1:1.742939 2:0.99617147 3:1.4232701 4:0.97813044 5:0.52380486 6:0.21988734 7:0.73735722 8:0.68881589 
-0.66950103289150986 1:-1.0553244 2:5.0019218 3:4.5294244 4:0.49217815 5:1.0901243 6:0.92773583 7:1.8484981 8:2.6965961 
-10 1:-0.12256993 2:-0.52872752 3:-0.22453431 4:-0.67997057 5:-0.5864574 6:-0.49630382 7:-0.55384048 8:-0.71360347 
-10 1:-1.0553244 2:-0.54937779 3:-0.1489023 4:-0.81711048 5:-0.41829563 6:-0.24801191 7:-0.58332615 8:-0.15868933 
-10 1:0.81018454 2:-0.58929782 3:-0.57910617 4:-0.52444597 5:-0.51886042 6:-0.4750034 7:-0.4393264 8:-0.58244195 
-10 1:-0.12256993 2:-0.19107542 3:0.41983546 4:-0.30879843 5:-0.37499618 6:-0.32174687 7:-0.36932653 8:-0.21922542 
-5.9463193008170236 1:-1.0553244 2:-0.0043601428 3:0.48236292 4:0.73316676 5:-0.17262058 6:-0.23597717 7:-0.024641426 8:0.17930382 
-0.2422193517799564 1:-0.12256993 2:2.3720319 3:1.510509 4:1.1644618 5:3.7104159 6:5.1247708 7:-0.14304122 8:1.9298057 
-10 1:-1.0553244 2:-0.45417946 3:-0.36681235 4:-0.57463122 5:-0.54320987 6:-0.55548349 7:-0.36338368 8:-0.44119108 
-10 1:0.81018454 2:-0.41121079 3:0.17047447 4:-0.37836215 5:-0.51642028 6:-0.44433079 7:-0.48332632 8:-0.12842129 
-10 1:-1.0553244 2:-0.6888678 3:-0.89735969 4:-0.85437676 5:-0.68193424 6:-0.59311423 7:-0.60818324 8:-1.046552 
-2.0673961791771602 1:-1.0553244 2:0.69510314 3:-0.52294378 4:2.0017109 5:1.0386737 6:-0.37439441 7:2.8272964 8:0.92591557 
-1.2828334151166596 1:-0.12256993 2:2.735051 3:2.7999974 4:1.3016018 5:0.48221869 6:0.12566848 7:0.7974714 8:2.404005 
-5.6533062153190645 1:-0.12256993 2:-0.39056051 3:-0.47352088 4:-0.0066931152 5:0.020565573 6:-0.039338786 7:0.046844161 8:0.1843485 
-10 1:-1.0553244 2:-0.62323559 3:-0.54129016 4:-0.66407029 5:-0.63598699 6:-0.56247713 7:-0.55635477 8:-0.88512238 
-10 1:-1.0553244 2:-0.63169128 3:-0.51957404 4:-0.73860285 5:-0.57358178 6:-0.55985008 7:-0.42321215 8:-0.71360347 
-10 1:0.81018454 2:-0.3846933 3:-0.16575101 4:0.059889305 5:0.061995982 6:-0.085631701 7:0.21255815 8:0.43658219 
-10 1:0.81018454 2:-0.24583604 3:0.63212928 4:-0.37090889 5:-0.44679851 6:-0.42026132 7:-0.32126947 8:-0.14859999 
-10 1:-0.12256993 2:-0.062572054 3:0.42208196 4:0.12647173 5:-0.099520309 6:-0.16213571 7:-0.019841434 8:-0.18895738 
-10 1:-1.0553244 2:-0.66557153 3:-0.81161845 4:-0.69587085 5:-0.63661 6:-0.53649061 7:-0.59955469 8:-0.90530108 
-10 1:-1.0553244 2:-0.57946162 3:-0.66971482 4:-0.82158244 5:-0.62830315 6:-0.52410087 7:-0.60121183 8:-1.0263733 
-0.23459295955555484 1:0.81018454 2:1.040003 3:0.20267424 4:2.3843114 5:1.0537818 6:-0.41191865 7:2.9209533 8:1.4152489 
-10 1:-1.0553244 2:-0.55248396 3:-0.4761418 4:-0.54978704 5:-0.27666386 6:-0.32103685 7:-0.15401262 8:-0.35038694 
-0.97327117128963847 1:0.81018454 2:2.8687313 3:3.9558193 4:1.6499173 5:2.6900233 6:0.32759647 7:5.3324348 8:2.4948092 
-10 1:-1.0553244 2:-0.68530146 3:-0.91570607 4:-0.82009179 5:-0.6692663 6:-0.58395505 7:-0.59504041 8:-1.0667306 
-10 1:-1.0553244 2:-0.49576761 3:-0.10294274 4:-0.28954418 5:-0.51263028 6:-0.4954518 7:-0.39269791 8:-0.41344537 
-10 1:-0.12256993 2:-0.45113081 3:-0.15414412 4:-0.14532368 5:-0.25833687 6:-0.23853322 7:-0.2464696 8:0.23479524 
-10 1:-0.12256993 2:-0.63002315 3:-0.53679717 4:-0.66730004 5:-0.64076342 6:-0.56932876 7:-0.55584048 8:-0.75143852 
-10 1:-1.0553244 2:-0.58630669 3:-0.74310034 4:-0.73611844 5:-0.59751589 6:-0.54497528 7:-0.49984058 8:-0.84476499 
-10 1:-1.0553244 2:-0.65815124 3:-0.83670431 4:-0.48270773 5:-0.65831164 6:-0.57710342 7:-0.58195472 8:-0.9204351 
-10 1:-1.0553244 2:-0.6046561 3:-0.76144672 4:-0.60444425 5:-0.54616918 6:-0.46140663 7:-0.52132626 8:-0.67324608 
-1.0427134427188451 1:-0.12256993 2:3.3813643 3:0.87924378 4:0.076286468 5:2.556958 6:2.0846327 7:2.2113546 8:1.4959637 
-10 1:-1.0553244 2:-0.6824829 3:-0.84606471 4:-0.83002946 5:-0.66911055 6:-0.57955296 7:-0.57766901 8:-1.0869093 
-10 1:-1.0553244 2:-0.39447199 3:-0.43533046 4:-0.69636774 5:-0.24447482 6:-0.18027657 7:-0.30972663 8:-0.3402976 
-10 1:1.742939 2:-0.014311389 3:0.66657554 4:0.36646657 5:0.46617609 6:0.34183225 7:0.41421494 8:0.78970937 
-10 1:-1.0553244 2:-0.19630989 3:-0.57873175 4:1.501349 5:-0.42795234 6:-0.38206256 7:-0.25978386 8:-0.027527811 
-0.76562142521607168 1:-1.0553244 2:2.5963663 3:4.4215926 4:0.52497248 5:3.5765199 6:5.0273569 7:-0.28098383 8:2.3232903 
-10 1:1.742939 2:-0.32872474 3:-0.29941749 4:0.10212442 5:-0.56210795 6:-0.49932138 7:-0.44852639 8:-0.17886803 
-0.074929071173711059 1:-0.12256993 2:1.7455635 3:1.9358455 4:0.13988759 5:3.9068209 6:3.8668034 7:2.3141544 8:2.7268642 
-10 1:-0.12256993 2:-0.527347 3:-0.077014442 4:-0.52792415 5:-0.29634071 6:-0.33591165 7:-0.17338402 8:-0.13851064 
-2.5193928501777045 1:1.742939 2:1.0007732 3:1.8774366 4:-0.64021988 5:2.0536668 6:3.1264718 7:-0.57349759 8:2.3636476 
-10 1:0.81018454 2:-0.28299502 3:0.097088953 4:-0.51848336 5:-0.45183453 6:-0.36782678 7:-0.46429779 8:-0.24949347 
-0.11295732011653972 1:-1.0553244 2:0.65391764 3:1.096405 4:0.81564946 5:1.2866332 6:-0.032593653 7:2.8229535 8:1.3446235 
-10 1:-0.12256993 2:-0.37710045 3:-0.83857639 4:0.860369 5:-0.32499934 6:-0.50897757 7:0.042101313 8:-0.13346596 
-10 1:-1.0553244 2:-0.47546247 3:-0.29979191 4:-0.16967098 5:-0.54279453 6:-0.44564432 7:-0.53926908 8:-0.50677184 
-2.0050966352566379 1:0.81018454 2:-0.039851002 3:1.2536597 4:-0.64916378 5:-0.0088718218 6:0.30196496 7:-0.56732617 8:1.4505617 
-0.20337792893305051 1:-1.0553244 2:2.5536277 3:0.76354926 4:0.41665183 5:2.7936513 6:4.0617733 7:-0.45006924 8:1.4858744 
-10 1:1.742939 2:0.024860856 3:-0.090118999 4:-0.21538428 5:-0.4555207 6:-0.41227366 7:-0.40086933 8:0.22470589 
-3.877073777680677 1:0.81018454 2:0.10291774 3:0.077619326 4:1.5276839 5:0.30003912 6:0.02424297 7:0.55970039 8:0.52738633 
-10 1:-0.12256993 2:-0.613687 3:-0.31551737 4:-0.43500689 5:-0.66153055 6:-0.56521068 7:-0.55458334 8:-0.6682014 
-10 1:-0.12256993 2:-0.040886392 3:0.6372775 4:0.79490457 5:-0.49586083 6:-0.43385808 7:-0.45492637 8:0.35208391 
-2.7533238345544548 1:1.742939 2:2.4208677 3:1.2555318 4:-0.55127769 5:0.15892652 6:0.30991712 7:-0.21075538 8:0.74935198 
-10 1:0.81018454 2:0.39202156 3:0.024452268 4:0.57962969 5:0.10145351 6:0.21470424 7:-0.18401257 8:-0.43110173 
