svm_type c_svc
kernel_type rbf
gamma 1.0000000000000001e-09
nr_class 2
total_sv 627
rho 356.8785801440801
label 1 0
probA -0.36267088345092441
probB 0.028270976439293084
nr_sv 320 307
SV
200000 1:32 2:36289 3:63 4:381 5:2440 6:23 7:1350 8:18 9:443 
200000 1:22 2:1243 3:90 4:68 5:328 6:2 7:2 8:43 9:13 
200000 1:27 2:641 3:42 4:42 5:340 6:6 7:48 8:3 9:49 
200000 1:22 2:454 3:31 4:26 5:153 6:5 7:13 8:19 9:6 
200000 1:37 2:6928 3:125 4:141 5:960 6:15 7:132 8:13 9:239 
200000 1:37 2:7746 3:131 4:136 5:782 6:57 7:244 8:72 9:62 
200000 1:27 2:12616 3:113 4:111 5:924 6:48 7:123 8:170 9:46 
200000 1:22 2:4418 3:120 4:80 5:1012 6:37 7:19 8:0 9:15 
25838.659848327352 1:32 2:34079 3:244 4:220 5:1268 6:57 7:108 8:28 9:173 
200000 1:32 2:3115 3:62 4:83 5:736 6:9 7:177 8:94 9:66 
200000 1:22 2:1109 3:46 4:59 5:284 6:8 7:20 8:7 9:52 
200000 1:37 2:3647 3:72 4:186 5:644 6:19 7:80 8:13 9:69 
200000 1:22 2:279 3:21 4:27 5:212 6:7 7:54 8:7 9:57 
200000 1:22 2:6665 3:239 4:118 5:908 6:34 7:69 8:158 9:96 
200000 1:22 2:9123 3:177 4:162 5:1060 6:74 7:85 8:174 9:79 
59577.528292399948 1:22 2:18929 3:248 4:204 5:1036 6:88 7:68 8:10 9:44 
200000 1:32 2:1751 3:44 4:79 5:600 6:69 7:144 8:81 9:182 
53111.870258234427 1:22 2:7975 3:71 4:160 5:1660 6:68 7:16 8:66 9:5 
200000 1:22 2:1114 3:83 4:42 5:532 6:43 7:26 8:52 9:25 
200000 1:32 2:10035 3:111 4:204 5:1656 6:135 7:344 8:51 9:50 
200000 1:32 2:2773 3:60 4:84 5:567 6:21 7:216 8:148 9:55 
200000 1:27 2:369 3:38 4:31 5:188 6:10 7:38 8:25 9:25 
200000 1:32 2:10709 3:164 4:204 5:1892 6:49 7:104 8:6 9:84 
200000 1:27 2:1057 3:53 4:95 5:436 6:13 7:10 8:69 9:43 
92009.569140015112 1:32 2:9708 3:144 4:165 5:1076 6:140 7:188 8:128 9:397 
200000 1:27 2:12441 3:96 4:310 5:1280 6:86 7:482 8:3 9:172 
200000 1:27 2:807 3:50 4:43 5:269 6:27 7:0 8:35 9:34 
200000 1:27 2:5096 3:55 4:138 5:516 6:37 7:178 8:15 9:87 
200000 1:27 2:16244 3:140 4:160 5:836 6:70 7:79 8:180 9:324 
200000 1:32 2:10932 3:148 4:25 5:659 6:9 7:12 8:443 9:5 
200000 1:32 2:506 3:44 4:36 5:412 6:66 7:61 8:9 9:8 
200000 1:22 2:1701 3:32 4:112 5:435 6:39 7:88 8:46 9:39 
200000 1:27 2:4996 3:107 4:103 5:1176 6:169 7:77 8:99 9:76 
105005.85411470078 1:27 2:56179 3:155 4:434 5:2352 6:123 7:383 8:18 9:184 
200000 1:22 2:381 3:22 4:52 5:276 6:1 7:19 8:12 9:56 
200000 1:22 2:4416 3:131 4:134 5:856 6:11 7:88 8:194 9:24 
200000 1:22 2:2031 3:85 4:57 5:628 6:51 7:46 8:10 9:3 
200000 1:27 2:8072 3:126 4:217 5:745 6:11 7:50 8:17 9:53 
200000 1:22 2:1555 3:31 4:96 5:676 6:2 7:192 8:37 9:23 
200000 1:27 2:5993 3:82 4:53 5:384 6:18 7:0 8:34 9:53 
200000 1:27 2:1745 3:96 4:75 5:520 6:40 7:60 8:131 9:125 
200000 1:32 2:4590 3:168 4:155 5:800 6:73 7:40 8:56 9:88 
200000 1:37 2:1508 3:56 4:73 5:540 6:16 7:60 8:148 9:13 
200000 1:32 2:5429 3:192 4:36 5:1088 6:4 7:4 8:535 9:20 
200000 1:22 2:3973 3:116 4:74 5:640 6:9 7:72 8:292 9:38 
200000 1:32 2:6463 3:93 4:97 5:1336 6:33 7:147 8:131 9:108 
200000 1:32 2:2451 3:55 4:164 5:640 6:25 7:48 8:11 9:57 
164148.77767746599 1:32 2:1848 3:84 4:45 5:1080 6:111 7:19 8:50 9:17 
200000 1:22 2:2048 3:27 4:131 5:412 6:16 7:4 8:34 9:42 
200000 1:22 2:355 3:30 4:37 5:150 6:12 7:5 8:9 9:9 
200000 1:37 2:9381 3:178 4:183 5:1296 6:20 7:86 8:380 9:405 
200000 1:22 2:186 3:15 4:37 5:140 6:11 7:8 8:2 9:8 
200000 1:32 2:793 3:51 4:33 5:272 6:2 7:17 8:22 9:21 
200000 1:27 2:2833 3:68 4:80 5:428 6:26 7:75 8:15 9:90 
200000 1:32 2:6733 3:72 4:64 5:732 6:43 7:138 8:108 9:62 
200000 1:22 2:569 3:26 4:52 5:332 6:1 7:0 8:2 9:27 
200000 1:27 2:1488 3:89 4:53 5:636 6:12 7:42 8:162 9:81 
200000 1:37 2:6046 3:105 4:54 5:484 6:19 7:22 8:127 9:90 
200000 1:27 2:913 3:45 4:62 5:364 6:27 7:70 8:60 9:14 
200000 1:27 2:1352 3:48 4:104 5:468 6:11 7:87 8:18 9:21 
200000 1:22 2:149 3:22 4:23 5:128 6:4 7:2 8:5 9:8 
200000 1:22 2:1736 3:20 4:37 5:212 6:2 7:5 8:22 9:60 
4772.8529249476951 1:27 2:57781 3:217 4:40 5:1604 6:6 7:27 8:663 9:36 
200000 1:27 2:3263 3:118 4:102 5:564 6:56 7:62 8:4 9:140 
200000 1:22 2:1013 3:23 4:93 5:436 6:4 7:71 8:8 9:38 
200000 1:22 2:492 3:30 4:42 5:324 6:19 7:23 8:7 9:6 
200000 1:22 2:969 3:37 4:80 5:335 6:32 7:43 8:62 9:43 
140268.93070798507 1:27 2:71162 3:153 4:568 5:2644 6:9 7:11 8:2 9:24 
200000 1:27 2:10245 3:86 4:261 5:1260 6:65 7:393 8:61 9:39 
200000 1:22 2:795 3:48 4:43 5:316 6:17 7:7 8:20 9:22 
200000 1:22 2:615 3:22 4:76 5:376 6:13 7:70 8:1 9:28 
200000 1:22 2:2007 3:157 4:27 5:523 6:19 7:24 8:228 9:16 
200000 1:22 2:300 3:14 4:47 5:204 6:4 7:6 8:23 9:41 
200000 1:22 2:3546 3:106 4:100 5:852 6:125 7:20 8:26 9:27 
200000 1:22 2:6651 3:73 4:243 5:984 6:19 7:224 8:73 9:80 
200000 1:22 2:2097 3:57 4:124 5:608 6:36 7:84 8:19 9:28 
200000 1:22 2:420 3:49 4:15 5:344 6:1 7:12 8:36 9:9 
94973.119090059394 1:27 2:64771 3:468 4:141 5:2552 6:16 7:72 8:59 9:109 
200000 1:22 2:7541 3:36 4:184 5:1172 6:46 7:168 8:61 9:111 
200000 1:22 2:5429 3:169 4:111 5:956 6:48 7:6 8:50 9:12 
200000 1:32 2:11870 3:140 4:112 5:1160 6:48 7:35 8:83 9:200 
200000 1:37 2:21849 3:314 4:258 5:1744 6:221 7:38 8:36 9:50 
200000 1:22 2:780 3:41 4:43 5:268 6:13 7:3 8:5 9:9 
200000 1:37 2:6225 3:154 4:93 5:1240 6:17 7:14 8:136 9:159 
200000 1:37 2:5317 3:50 4:230 5:1204 6:67 7:348 8:14 9:57 
200000 1:22 2:1337 3:50 4:33 5:480 6:23 7:16 8:117 9:2 
200000 1:27 2:5992 3:187 4:139 5:964 6:149 7:77 8:104 9:177 
200000 1:32 2:4187 3:107 4:132 5:548 6:30 7:100 8:61 9:50 
200000 1:37 2:7992 3:167 4:157 5:1056 6:61 7:156 8:357 9:82 
200000 1:32 2:11876 3:181 4:242 5:1408 6:28 7:173 8:272 9:422 
20074.448493141685 1:27 2:66295 3:102 4:632 5:3088 6:36 7:1340 8:8 9:371 
200000 1:37 2:5429 3:75 4:176 5:1244 6:25 7:93 8:126 9:532 
200000 1:37 2:51613 3:220 4:517 5:2372 6:48 7:298 8:96 9:85 
200000 1:32 2:28750 3:474 4:279 5:2068 6:573 7:756 8:53 9:175 
200000 1:32 2:10841 3:131 4:189 5:962 6:1 7:18 8:128 9:36 
200000 1:22 2:2387 3:52 4:100 5:812 6:2 7:49 8:63 9:111 
200000 1:27 2:1442 3:45 4:39 5:396 6:17 7:56 8:59 9:67 
200000 1:22 2:282 3:20 4:45 5:244 6:4 7:18 8:9 9:7 
200000 1:27 2:4125 3:51 4:70 5:904 6:54 7:3 8:143 9:200 
151160.2784363442 1:32 2:24242 3:195 4:94 5:1300 6:31 7:29 8:128 9:259 
200000 1:27 2:772 3:58 4:48 5:332 6:26 7:17 8:96 9:36 
65303.472287121891 1:32 2:30071 3:162 4:352 5:2136 6:330 7:823 8:73 9:10 
16991.166985398329 1:37 2:35387 3:611 4:173 5:2816 6:529 7:37 8:18 9:43 
170171.37189112647 1:22 2:67295 3:582 4:518 5:2556 6:348 7:60 8:367 9:21 
200000 1:27 2:1819 3:71 4:30 5:604 6:56 7:22 8:114 9:49 
200000 1:22 2:2218 3:41 4:81 5:492 6:84 7:170 8:66 9:183 
200000 1:32 2:514 3:29 4:39 5:188 6:3 7:33 8:23 9:33 
200000 1:37 2:7765 3:87 4:110 5:1068 6:113 7:74 8:166 9:205 
200000 1:32 2:5538 3:90 4:70 5:564 6:39 7:31 8:15 9:0 
200000 1:32 2:1988 3:58 4:56 5:644 6:26 7:73 8:98 9:140 
200000 1:22 2:843 3:54 4:74 5:312 6:15 7:8 8:30 9:26 
200000 1:32 2:6149 3:151 4:174 5:980 6:141 7:8 8:83 9:221 
200000 1:22 2:2254 3:58 4:72 5:300 6:43 7:45 8:49 9:14 
200000 1:27 2:3266 3:141 4:101 5:710 6:85 7:46 8:34 9:15 
200000 1:27 2:10053 3:57 4:285 5:1132 6:30 7:281 8:54 9:120 
200000 1:22 2:975 3:45 4:39 5:264 6:15 7:0 8:14 9:68 
200000 1:32 2:7916 3:99 4:92 5:722 6:16 7:119 8:185 9:246 
200000 1:22 2:558 3:49 4:47 5:348 6:36 7:26 8:27 9:27 
200000 1:37 2:5380 3:164 4:140 5:1028 6:6 7:58 8:312 9:12 
200000 1:27 2:770 3:30 4:38 5:568 6:23 7:60 8:2 9:79 
200000 1:27 2:415 3:37 4:40 5:212 6:33 7:33 8:25 9:31 
120865.14274582244 1:37 2:9306 3:131 4:177 5:1844 6:348 7:388 8:92 9:19 
200000 1:32 2:3044 3:109 4:115 5:732 6:45 7:29 8:4 9:68 
200000 1:32 2:1990 3:56 4:65 5:944 6:24 7:118 8:141 9:189 
200000 1:37 2:10623 3:101 4:42 5:774 6:26 7:91 8:252 9:63 
200000 1:22 2:1231 3:16 4:63 5:440 6:8 7:180 8:0 9:81 
200000 1:32 2:4804 3:103 4:132 5:1064 6:83 7:19 8:168 9:17 
200000 1:32 2:7183 3:149 4:170 5:1192 6:106 7:9 8:148 9:264 
200000 1:27 2:2534 3:104 4:41 5:548 6:8 7:4 8:60 9:49 
200000 1:22 2:5784 3:137 4:157 5:772 6:29 7:14 8:39 9:23 
200000 1:22 2:389 3:20 4:43 5:296 6:11 7:49 8:14 9:0 
200000 1:37 2:6397 3:203 4:87 5:892 6:2 7:6 8:21 9:109 
200000 1:37 2:3964 3:106 4:64 5:740 6:18 7:0 8:91 9:1 
20361.797471464208 1:32 2:38479 3:183 4:194 5:1020 6:128 7:197 8:558 9:599 
200000 1:22 2:1473 3:23 4:93 5:373 6:11 7:60 8:23 9:99 
200000 1:22 2:3194 3:26 4:107 5:448 6:10 7:3 8:35 9:8 
200000 1:32 2:9583 3:104 4:190 5:992 6:20 7:445 8:159 9:177 
200000 1:32 2:12220 3:142 4:182 5:952 6:75 7:179 8:56 9:301 
200000 1:22 2:2353 3:67 4:82 5:484 6:8 7:3 8:49 9:54 
200000 1:27 2:1373 3:74 4:97 5:436 6:5 7:33 8:65 9:90 
200000 1:32 2:6548 3:185 4:143 5:1072 6:14 7:251 8:200 9:201 
200000 1:27 2:1085 3:45 4:61 5:324 6:19 7:54 8:21 9:89 
200000 1:22 2:267 3:21 4:29 5:212 6:14 7:42 8:2 9:32 
200000 1:27 2:879 3:34 4:49 5:280 6:7 7:67 8:21 9:21 
139889.5454741515 1:27 2:19084 3:56 4:317 5:888 6:61 7:190 8:5 9:37 
200000 1:27 2:170 3:10 4:33 5:140 6:3 7:26 8:8 9:7 
200000 1:22 2:963 3:36 4:36 5:212 6:4 7:58 8:51 9:35 
200000 1:27 2:5868 3:236 4:104 5:1028 6:24 7:59 8:160 9:49 
200000 1:32 2:5781 3:185 4:155 5:1336 6:38 7:152 8:340 9:191 
200000 1:37 2:6961 3:177 4:107 5:1440 6:27 7:80 8:402 9:108 
200000 1:22 2:262 3:25 4:33 5:212 6:3 7:3 8:60 9:2 
200000 1:22 2:3064 3:24 4:112 5:780 6:15 7:163 8:7 9:163 
200000 1:27 2:7241 3:126 4:203 5:900 6:69 7:64 8:49 9:252 
200000 1:27 2:12002 3:171 4:81 5:809 6:63 7:122 8:317 9:12 
200000 1:22 2:1344 3:61 4:82 5:412 6:10 7:12 8:45 9:35 
200000 1:37 2:27017 3:214 4:198 5:1648 6:90 7:371 8:128 9:151 
200000 1:37 2:13953 3:345 4:136 5:1456 6:19 7:80 8:24 9:195 
200000 1:37 2:20302 3:322 4:224 5:1676 6:6 7:29 8:66 9:36 
200000 1:22 2:1248 3:59 4:45 5:360 6:36 7:29 8:54 9:9 
200000 1:27 2:1888 3:44 4:64 5:548 6:25 7:44 8:2 9:23 
200000 1:22 2:309 3:20 4:46 5:244 6:2 7:9 8:15 9:2 
200000 1:27 2:1961 3:51 4:102 5:532 6:72 7:166 8:113 9:36 
200000 1:32 2:10032 3:212 4:174 5:1200 6:50 7:80 8:73 9:38 
200000 1:32 2:14282 3:311 4:237 5:1428 6:147 7:85 8:149 9:181 
200000 1:22 2:948 3:36 4:56 5:388 6:5 7:9 8:13 9:32 
200000 1:27 2:1549 3:40 4:69 5:744 6:23 7:126 8:41 9:126 
200000 1:37 2:6515 3:128 4:127 5:1348 6:167 7:47 8:114 9:61 
155429.34119522996 1:22 2:43139 3:141 4:540 5:2840 6:22 7:1159 8:63 9:196 
200000 1:22 2:1270 3:71 4:46 5:315 6:17 7:16 8:47 9:18 
200000 1:22 2:5807 3:125 4:91 5:606 6:70 7:152 8:13 9:1 
200000 1:27 2:2862 3:104 4:69 5:528 6:28 7:58 8:27 9:154 
200000 1:27 2:8533 3:110 4:135 5:630 6:12 7:75 8:183 9:233 
200000 1:37 2:17387 3:121 4:446 5:1664 6:60 7:256 8:16 9:63 
200000 1:22 2:4337 3:140 4:116 5:688 6:18 7:38 8:86 9:26 
200000 1:27 2:5372 3:94 4:138 5:1024 6:137 7:263 8:69 9:27 
200000 1:27 2:403 3:48 4:29 5:216 6:11 7:8 8:8 9:4 
200000 1:22 2:259 3:17 4:40 5:160 6:4 7:15 8:19 9:35 
200000 1:37 2:4168 3:106 4:117 5:1252 6:17 7:74 8:119 9:9 
200000 1:22 2:5826 3:58 4:262 5:788 6:10 7:51 8:13 9:37 
200000 1:22 2:395 3:21 4:34 5:399 6:19 7:68 8:20 9:50 
200000 1:27 2:1992 3:27 4:102 5:672 6:18 7:129 8:8 9:96 
200000 1:22 2:598 3:31 4:25 5:350 6:9 7:5 8:37 9:3 
200000 1:22 2:1486 3:32 4:50 5:484 6:41 7:61 8:73 9:134 
200000 1:22 2:6447 3:29 4:212 5:872 6:29 7:641 8:16 9:36 
200000 1:32 2:19934 3:294 4:237 5:1424 6:57 7:32 8:248 9:228 
200000 1:37 2:7573 3:67 4:71 5:1668 6:58 7:2 8:63 9:14 
200000 1:22 2:6474 3:132 4:197 5:956 6:88 7:48 8:175 9:144 
200000 1:37 2:10220 3:132 4:312 5:1012 6:16 7:158 8:10 9:106 
200000 1:27 2:10365 3:268 4:70 5:1400 6:52 7:9 8:185 9:64 
200000 1:32 2:1416 3:59 4:92 5:492 6:8 7:132 8:40 9:21 
200000 1:22 2:3240 3:99 4:41 5:892 6:22 7:1 8:23 9:17 
200000 1:37 2:9168 3:87 4:193 5:888 6:5 7:23 8:64 9:101 
200000 1:32 2:50360 3:248 4:629 5:2408 6:172 7:200 8:525 9:640 
200000 1:32 2:5350 3:123 4:200 5:984 6:14 7:42 8:139 9:0 
200000 1:22 2:4024 3:39 4:130 5:504 6:0 7:40 8:55 9:97 
200000 1:27 2:1042 3:44 4:38 5:212 6:2 7:15 8:12 9:23 
49022.362915895726 1:22 2:75795 3:164 4:549 5:3140 6:256 7:1078 8:77 9:241 
200000 1:27 2:4444 3:44 4:209 5:672 6:12 7:62 8:58 9:147 
187077.75405181511 1:27 2:6067 3:178 4:127 5:1484 6:2 7:56 8:177 9:119 
200000 1:32 2:26649 3:406 4:220 5:2340 6:139 7:151 8:239 9:172 
200000 1:22 2:2333 3:87 4:102 5:508 6:5 7:54 8:18 9:60 
200000 1:27 2:1015 3:47 4:83 5:356 6:34 7:74 8:19 9:43 
200000 1:22 2:1291 3:44 4:82 5:492 6:15 7:28 8:71 9:19 
200000 1:32 2:5598 3:164 4:74 5:1092 6:74 7:9 8:497 9:52 
200000 1:27 2:6365 3:100 4:104 5:850 6:52 7:230 8:68 9:83 
200000 1:22 2:992 3:19 4:22 5:792 6:52 7:29 8:52 9:13 
200000 1:37 2:8326 3:131 4:161 5:1640 6:42 7:243 8:263 9:60 
200000 1:27 2:2694 3:36 4:171 5:600 6:25 7:45 8:2 9:50 
200000 1:37 2:15299 3:312 4:177 5:1468 6:264 7:208 8:227 9:203 
200000 1:37 2:5358 3:104 4:67 5:1188 6:10 7:93 8:197 9:0 
200000 1:22 2:292 3:27 4:33 5:223 6:18 7:6 8:44 9:77 
200000 1:32 2:3133 3:72 4:150 5:668 6:100 7:98 8:59 9:40 
200000 1:37 2:3658 3:88 4:96 5:636 6:71 7:114 8:140 9:196 
200000 1:27 2:22139 3:418 4:68 5:2232 6:109 7:58 8:157 9:122 
200000 1:27 2:555 3:33 4:51 5:206 6:46 7:43 8:5 9:31 
200000 1:22 2:826 3:30 4:47 5:424 6:23 7:83 8:43 9:80 
200000 1:22 2:1732 3:17 4:42 5:592 6:29 7:19 8:26 9:19 
200000 1:22 2:515 3:41 4:37 5:188 6:18 7:35 8:21 9:63 
200000 1:22 2:160 3:10 4:26 5:148 6:4 7:55 8:7 9:0 
200000 1:27 2:536 3:26 4:28 5:316 6:15 7:1 8:76 9:84 
200000 1:22 2:1476 3:113 4:23 5:680 6:4 7:11 8:67 9:21 
200000 1:27 2:4501 3:70 4:66 5:548 6:31 7:105 8:67 9:115 
200000 1:22 2:4000 3:58 4:118 5:728 6:82 7:272 8:42 9:72 
200000 1:22 2:5177 3:144 4:84 5:832 6:167 7:15 8:223 9:29 
200000 1:37 2:7097 3:149 4:141 5:896 6:40 7:85 8:73 9:132 
171353.32851782106 1:27 2:2921 3:37 4:51 5:1045 6:68 7:105 8:63 9:106 
200000 1:27 2:2526 3:61 4:72 5:572 6:34 7:150 8:0 9:96 
200000 1:27 2:1921 3:83 4:143 5:580 6:28 7:44 8:17 9:53 
200000 1:22 2:3285 3:56 4:130 5:688 6:12 7:47 8:17 9:4 
200000 1:32 2:4608 3:52 4:210 5:700 6:43 7:153 8:65 9:54 
200000 1:27 2:4328 3:100 4:93 5:900 6:104 7:116 8:80 9:37 
195752.26767055196 1:37 2:57107 3:61 4:484 5:2024 6:77 7:1095 8:76 9:68 
387.26816194348987 1:37 2:68380 3:407 4:134 5:2860 6:189 7:173 8:1059 9:85 
200000 1:32 2:6465 3:135 4:111 5:636 6:2 7:17 8:37 9:28 
200000 1:22 2:284 3:19 4:36 5:220 6:7 7:14 8:0 9:7 
200000 1:22 2:8790 3:42 4:308 5:1304 6:56 7:53 8:39 9:278 
200000 1:27 2:2317 3:49 4:107 5:716 6:10 7:64 8:36 9:104 
200000 1:22 2:182 3:28 4:28 5:140 6:3 7:24 8:24 9:7 
200000 1:37 2:9205 3:143 4:223 5:1060 6:10 7:15 8:128 9:24 
200000 1:27 2:2111 3:57 4:80 5:768 6:53 7:51 8:72 9:25 
200000 1:32 2:15073 3:270 4:164 5:1868 6:67 7:29 8:119 9:147 
198401.53618876101 1:37 2:14983 3:35 4:107 5:2876 6:70 7:323 8:54 9:313 
200000 1:27 2:1370 3:86 4:55 5:384 6:6 7:10 8:39 9:1 
200000 1:22 2:29075 3:42 4:687 5:2388 6:2 7:1014 8:45 9:535 
200000 1:22 2:1769 3:41 4:66 5:354 6:31 7:60 8:51 9:13 
200000 1:27 2:5518 3:71 4:116 5:798 6:26 7:98 8:73 9:224 
200000 1:27 2:2463 3:112 4:82 5:868 6:66 7:33 8:142 9:21 
200000 1:22 2:111 3:9 4:29 5:128 6:9 7:2 8:8 9:8 
200000 1:22 2:212 3:12 4:39 5:168 6:10 7:1 8:10 9:27 
200000 1:27 2:593 3:53 4:50 5:280 6:12 7:29 8:57 9:10 
200000 1:22 2:2486 3:62 4:62 5:412 6:4 7:23 8:47 9:54 
200000 1:37 2:2219 3:99 4:35 5:476 6:10 7:11 8:49 9:59 
25325.338976176499 1:22 2:27580 3:138 4:404 5:2164 6:48 7:753 8:82 9:2 
200000 1:22 2:544 3:43 4:53 5:348 6:28 7:8 8:129 9:24 
200000 1:22 2:756 3:32 4:56 5:627 6:5 7:29 8:13 9:77 
200000 1:27 2:1237 3:41 4:81 5:372 6:49 7:56 8:23 9:13 
200000 1:27 2:3129 3:73 4:92 5:568 6:78 7:57 8:49 9:25 
200000 1:22 2:583 3:44 4:39 5:244 6:10 7:1 8:23 9:47 
200000 1:32 2:8984 3:179 4:220 5:1320 6:173 7:180 8:76 9:347 
200000 1:32 2:42694 3:137 4:484 5:2068 6:35 7:46 8:45 9:308 
200000 1:27 2:8655 3:122 4:141 5:602 6:131 7:264 8:150 9:62 
200000 1:37 2:23587 3:248 4:193 5:1828 6:67 7:286 8:104 9:200 
52979.02306441516 1:37 2:46430 3:370 4:369 5:2804 6:705 7:736 8:411 9:181 
200000 1:27 2:1735 3:48 4:114 5:648 6:22 7:36 8:95 9:153 
200000 1:27 2:2182 3:92 4:17 5:536 6:5 7:31 8:56 9:32 
200000 1:22 2:6493 3:158 4:198 5:796 6:3 7:59 8:52 9:43 
200000 1:37 2:14560 3:228 4:242 5:1392 6:3 7:408 8:110 9:186 
200000 1:37 2:4558 3:126 4:105 5:856 6:52 7:63 8:57 9:135 
200000 1:27 2:2434 3:39 4:63 5:628 6:28 7:63 8:32 9:108 
200000 1:32 2:2392 3:52 4:112 5:576 6:26 7:21 8:46 9:16 
200000 1:22 2:147 3:18 4:17 5:108 6:11 7:2 8:8 9:7 
200000 1:22 2:1431 3:93 4:86 5:538 6:36 7:28 8:173 9:38 
200000 1:37 2:12371 3:153 4:188 5:1404 6:134 7:192 8:207 9:77 
200000 1:22 2:7076 3:164 4:60 5:1084 6:41 7:16 8:125 9:121 
200000 1:27 2:1092 3:41 4:58 5:328 6:12 7:28 8:45 9:74 
200000 1:37 2:8108 3:117 4:212 5:992 6:62 7:179 8:197 9:303 
200000 1:32 2:12700 3:102 4:170 5:884 6:12 7:166 8:49 9:116 
55578.579365082362 1:22 2:44534 3:432 4:323 5:3164 6:281 7:157 8:1165 9:1 
200000 1:27 2:2369 3:43 4:113 5:700 6:12 7:61 8:17 9:12 
200000 1:27 2:13380 3:154 4:186 5:676 6:32 7:31 8:61 9:1 
200000 1:27 2:2433 3:31 4:116 5:488 6:21 7:174 8:18 9:10 
200000 1:27 2:4946 3:171 4:129 5:1112 6:42 7:1 8:173 9:112 
200000 1:32 2:14114 3:159 4:150 5:1128 6:35 7:132 8:186 9:45 
200000 1:27 2:3554 3:72 4:58 5:416 6:0 7:34 8:81 9:30 
116810.61431655908 1:32 2:32821 3:152 4:385 5:1221 6:28 7:154 8:7 9:199 
200000 1:37 2:29215 3:207 4:423 5:2024 6:37 7:405 8:121 9:228 
200000 1:37 2:15312 3:161 4:152 5:1016 6:1 7:69 8:212 9:203 
200000 1:22 2:3882 3:67 4:145 5:700 6:62 7:92 8:96 9:140 
200000 1:27 2:1290 3:59 4:39 5:696 6:37 7:70 8:163 9:99 
200000 1:37 2:19152 3:70 4:231 5:2112 6:91 7:693 8:107 9:385 
200000 1:37 2:7273 3:186 4:185 5:836 6:87 7:20 8:31 9:40 
200000 1:37 2:9849 3:85 4:147 5:2352 6:71 7:247 8:26 9:198 
1496.0892866483161 1:27 2:11499 3:166 4:155 5:1272 6:27 7:235 8:185 9:110 
200000 1:32 2:3005 3:79 4:80 5:968 6:20 7:83 8:38 9:131 
200000 1:22 2:2851 3:97 4:115 5:528 6:74 7:89 8:26 9:65 
200000 1:32 2:27116 3:242 4:342 5:2052 6:248 7:371 8:108 9:578 
200000 1:32 2:7370 3:146 4:122 5:856 6:161 7:127 8:16 9:12 
200000 1:32 2:10564 3:146 4:131 5:660 6:14 7:34 8:122 9:64 
200000 1:27 2:3759 3:67 4:165 5:704 6:2 7:99 8:3 9:3 
200000 1:22 2:16081 3:22 4:267 5:776 6:7 7:446 8:9 9:38 
200000 1:37 2:6921 3:83 4:66 5:984 6:41 7:205 8:119 9:7 
200000 1:27 2:2694 3:81 4:32 5:464 6:29 7:13 8:73 9:13 
200000 1:22 2:8268 3:117 4:146 5:764 6:41 7:12 8:9 9:2 
99303.012355234358 1:27 2:48991 3:377 4:493 5:3088 6:626 7:650 8:150 9:937 
200000 1:22 2:3682 3:151 4:34 5:824 6:11 7:9 8:251 9:16 
17648.933167758652 1:22 2:23663 3:400 4:188 5:2720 6:38 7:298 8:1247 9:220 
200000 1:22 2:182 3:20 4:30 5:192 6:5 7:2 8:13 9:15 
200000 1:37 2:13123 3:199 4:257 5:2224 6:16 7:51 8:272 9:493 
200000 1:32 2:2617 3:65 4:177 5:532 6:27 7:44 8:44 9:71 
200000 1:27 2:1089 3:41 4:43 5:324 6:3 7:0 8:55 9:63 
200000 1:27 2:3967 3:89 4:115 5:612 6:14 7:216 8:73 9:28 
200000 1:22 2:5601 3:36 4:120 5:1104 6:5 7:386 8:6 9:54 
200000 1:27 2:17543 3:253 4:146 5:1100 6:7 7:28 8:211 9:170 
200000 1:27 2:1042 3:77 4:68 5:423 6:80 7:77 8:1 9:121 
200000 1:32 2:3168 3:143 4:94 5:828 6:2 7:18 8:221 9:24 
200000 1:22 2:1792 3:104 4:85 5:608 6:26 7:66 8:4 9:50 
39691.065828559935 1:32 2:26556 3:147 4:201 5:2524 6:225 7:312 8:517 9:742 
200000 1:22 2:564 3:36 4:26 5:384 6:30 7:5 8:78 9:36 
200000 1:27 2:982 3:46 4:54 5:544 6:6 7:92 8:84 9:105 
200000 1:32 2:3792 3:78 4:116 5:1064 6:69 7:76 8:36 9:77 
-200000 1:27 2:11738 3:231 4:163 5:1080 6:162 7:23 8:4 9:13 
-200000 1:32 2:2217 3:17 4:36 5:1172 6:32 7:92 8:30 9:92 
-200000 1:22 2:1027 3:35 4:33 5:604 6:26 7:23 8:88 9:79 
-200000 1:37 2:2153 3:81 4:73 5:968 6:13 7:62 8:212 9:81 
-200000 1:22 2:183 3:20 4:21 5:160 6:6 7:9 8:21 9:24 
-200000 1:32 2:6697 3:178 4:23 5:1396 6:20 7:10 8:610 9:14 
-200000 1:22 2:8086 3:90 4:127 5:500 6:22 7:15 8:210 9:62 
-200000 1:32 2:919 3:56 4:85 5:436 6:39 7:67 8:6 9:12 
-200000 1:22 2:1208 3:50 4:8 5:640 6:10 7:2 8:151 9:1 
-200000 1:22 2:384 3:33 4:57 5:272 6:18 7:35 8:28 9:88 
-200000 1:32 2:6191 3:93 4:33 5:1596 6:69 7:18 8:207 9:43 
-200000 1:37 2:9514 3:94 4:152 5:840 6:59 7:253 8:128 9:72 
-200000 1:27 2:29262 3:155 4:374 5:1524 6:70 7:506 8:58 9:368 
-200000 1:32 2:966 3:78 4:57 5:384 6:23 7:9 8:58 9:4 
-200000 1:22 2:1677 3:37 4:57 5:444 6:16 7:21 8:72 9:133 
-200000 1:22 2:3447 3:132 4:110 5:676 6:53 7:21 8:27 9:47 
-200000 1:32 2:15344 3:176 4:240 5:964 6:208 7:258 8:243 9:204 
-200000 1:27 2:13053 3:113 4:121 5:476 6:26 7:73 8:42 9:172 
-200000 1:22 2:317 3:25 4:47 5:308 6:1 7:13 8:14 9:22 
-200000 1:27 2:8957 3:64 4:193 5:1228 6:6 7:356 8:69 9:90 
-176867.88717870961 1:22 2:252 3:18 4:40 5:180 6:6 7:29 8:7 9:13 
-200000 1:37 2:2501 3:53 4:38 5:656 6:62 7:23 8:111 9:77 
-200000 1:27 2:2044 3:76 4:82 5:532 6:1 7:46 8:11 9:103 
-200000 1:27 2:623 3:40 4:47 5:292 6:23 7:66 8:25 9:58 
-200000 1:32 2:9475 3:236 4:182 5:1724 6:164 7:161 8:59 9:58 
-200000 1:37 2:15842 3:171 4:98 5:1076 6:42 7:19 8:149 9:41 
-200000 1:32 2:3488 3:27 4:165 5:788 6:10 7:88 8:12 9:20 
-200000 1:32 2:15433 3:90 4:162 5:2272 6:196 7:243 8:124 9:381 
-200000 1:22 2:430 3:30 4:47 5:256 6:16 7:28 8:9 9:24 
-200000 1:27 2:70691 3:34 4:571 5:2736 6:10 7:692 8:6 9:24 
-200000 1:22 2:1219 3:55 4:56 5:428 6:19 7:58 8:45 9:34 
-200000 1:37 2:10346 3:191 4:120 5:1084 6:113 7:54 8:301 9:249 
-200000 1:22 2:1714 3:76 4:94 5:588 6:21 7:54 8:43 9:118 
-200000 1:32 2:1345 3:46 4:48 5:496 6:55 7:41 8:100 9:22 
-200000 1:27 2:443 3:21 4:17 5:268 6:28 7:12 8:37 9:32 
-200000 1:37 2:32041 3:540 4:107 5:2056 6:176 7:158 8:96 9:200 
-180163.54174146263 1:32 2:49646 3:284 4:330 5:1364 6:40 7:117 8:49 9:81 
-200000 1:32 2:5928 3:185 4:26 5:736 6:20 7:3 8:204 9:1 
-200000 1:22 2:179 3:21 4:21 5:142 6:18 7:14 8:23 9:29 
-200000 1:37 2:27996 3:18 4:349 5:1972 6:19 7:1302 8:2 9:30 
-200000 1:32 2:3408 3:77 4:151 5:968 6:75 7:198 8:82 9:133 
-200000 1:37 2:6795 3:66 4:159 5:1148 6:72 7:377 8:79 9:190 
-200000 1:22 2:187 3:23 4:27 5:142 6:12 7:10 8:8 9:26 
-200000 1:27 2:4628 3:101 4:97 5:608 6:41 7:16 8:146 9:129 
-200000 1:37 2:18328 3:143 4:246 5:1656 6:78 7:569 8:28 9:275 
-200000 1:32 2:3640 3:115 4:142 5:884 6:31 7:86 8:61 9:17 
-200000 1:37 2:7378 3:70 4:126 5:1040 6:63 7:231 8:134 9:126 
-200000 1:22 2:289 3:27 4:32 5:186 6:7 7:4 8:30 9:7 
-200000 1:22 2:815 3:34 4:48 5:316 6:9 7:65 8:13 9:49 
-200000 1:32 2:2860 3:133 4:80 5:760 6:66 7:31 8:35 9:56 
-200000 1:32 2:20769 3:371 4:301 5:1804 6:40 7:51 8:40 9:124 
-200000 1:22 2:405 3:45 4:45 5:224 6:11 7:9 8:20 9:9 
-200000 1:32 2:9632 3:178 4:103 5:569 6:0 7:13 8:101 9:14 
-200000 1:37 2:1971 3:55 4:38 5:659 6:0 7:64 8:118 9:26 
-200000 1:32 2:22069 3:313 4:259 5:1740 6:211 7:23 8:14 9:63 
-200000 1:22 2:678 3:50 4:76 5:348 6:27 7:62 8:0 9:7 
-200000 1:22 2:729 3:35 4:53 5:276 6:28 7:56 8:14 9:24 
-200000 1:27 2:7537 3:32 4:173 5:668 6:29 7:116 8:18 9:6 
-200000 1:32 2:2276 3:85 4:93 5:564 6:48 7:31 8:43 9:60 
-200000 1:32 2:53670 3:99 4:732 5:2636 6:132 7:329 8:21 9:93 
-200000 1:27 2:755 3:40 4:27 5:304 6:17 7:5 8:59 9:34 
-200000 1:22 2:1109 3:36 4:51 5:258 6:12 7:9 8:41 9:101 
-200000 1:27 2:3736 3:120 4:128 5:720 6:91 7:49 8:77 9:52 
-200000 1:22 2:15002 3:210 4:95 5:1856 6:175 7:108 8:303 9:168 
-96542.683214203207 1:27 2:3796 3:67 4:76 5:292 6:58 7:28 8:44 9:7 
-200000 1:32 2:39482 3:218 4:851 5:2300 6:248 7:622 8:27 9:48 
-200000 1:27 2:15570 3:116 4:67 5:472 6:34 7:6 8:178 9:73 
-200000 1:27 2:3330 3:43 4:102 5:446 6:33 7:136 8:16 9:117 
-200000 1:32 2:944 3:49 4:55 5:404 6:50 7:32 8:18 9:55 
-200000 1:27 2:1049 3:88 4:71 5:420 6:41 7:10 8:19 9:14 
-200000 1:27 2:1902 3:35 4:51 5:612 6:43 7:96 8:30 9:105 
-200000 1:22 2:1256 3:44 4:47 5:284 6:41 7:47 8:64 9:29 
-200000 1:27 2:3792 3:21 4:190 5:784 6:0 7:63 8:21 9:4 
-200000 1:37 2:7229 3:233 4:130 5:1120 6:36 7:16 8:158 9:13 
-200000 1:27 2:1378 3:48 4:55 5:308 6:16 7:1 8:35 9:66 
-200000 1:22 2:6477 3:71 4:234 5:836 6:7 7:155 8:173 9:198 
-200000 1:27 2:14744 3:243 4:39 5:1352 6:55 7:5 8:378 9:19 
-200000 1:27 2:6654 3:139 4:90 5:1176 6:167 7:12 8:151 9:80 
-200000 1:27 2:10734 3:183 4:277 5:1300 6:39 7:406 8:42 9:142 
-200000 1:32 2:1899 3:56 4:101 5:404 6:61 7:19 8:49 9:25 
-200000 1:22 2:169 3:23 4:24 5:148 6:22 7:10 8:2 9:11 
-200000 1:32 2:1212 3:63 4:63 5:420 6:67 7:76 8:2 9:63 
-200000 1:37 2:3076 3:66 4:136 5:640 6:84 7:149 8:53 9:30 
-200000 1:27 2:7681 3:98 4:55 5:504 6:32 7:36 8:166 9:30 
-145086.74985985065 1:37 2:63385 3:239 4:13 5:1912 6:5 7:5 8:70 9:14 
-200000 1:32 2:581 3:54 4:66 5:424 6:9 7:16 8:29 9:11 
-200000 1:32 2:9403 3:281 4:57 5:1180 6:1 7:31 8:47 9:9 
-200000 1:37 2:5224 3:123 4:165 5:776 6:58 7:26 8:2 9:111 
-200000 1:22 2:136 3:17 4:33 5:160 6:5 7:22 8:16 9:5 
-200000 1:32 2:2171 3:99 4:87 5:620 6:14 7:20 8:138 9:124 
-200000 1:32 2:3859 3:88 4:104 5:475 6:95 7:75 8:22 9:168 
-200000 1:37 2:11108 3:153 4:87 5:995 6:51 7:46 8:356 9:77 
-51466.856264920687 1:37 2:3303 3:84 4:74 5:592 6:7 7:14 8:162 9:104 
-200000 1:37 2:3355 3:75 4:155 5:712 6:24 7:135 8:104 9:137 
-200000 1:37 2:1442 3:35 4:73 5:736 6:17 7:101 8:59 9:85 
-200000 1:27 2:7194 3:226 4:134 5:916 6:89 7:135 8:203 9:98 
-200000 1:27 2:1550 3:104 4:41 5:648 6:20 7:12 8:73 9:33 
-200000 1:27 2:5642 3:65 4:94 5:374 6:61 7:92 8:142 9:201 
-200000 1:32 2:727 3:64 4:37 5:584 6:99 7:24 8:26 9:19 
-200000 1:27 2:6833 3:167 4:198 5:936 6:3 7:87 8:26 9:125 
-200000 1:32 2:3123 3:7 4:176 5:684 6:3 7:264 8:5 9:2 
-200000 1:27 2:7972 3:184 4:188 5:1268 6:122 7:120 8:245 9:130 
-200000 1:37 2:8302 3:110 4:194 5:808 6:26 7:241 8:91 9:144 
-200000 1:22 2:1347 3:12 4:81 5:208 6:2 7:66 8:2 9:16 
-200000 1:27 2:4920 3:116 4:121 5:589 6:26 7:77 8:34 9:125 
-200000 1:22 2:370 3:27 4:56 5:248 6:11 7:0 8:2 9:0 
-200000 1:32 2:23787 3:263 4:22 5:1740 6:5 7:18 8:169 9:21 
-200000 1:32 2:4882 3:162 4:140 5:728 6:40 7:47 8:95 9:16 
-200000 1:22 2:7254 3:203 4:172 5:1048 6:115 7:30 8:93 9:97 
-200000 1:27 2:1899 3:57 4:84 5:376 6:0 7:0 8:15 9:108 
-200000 1:27 2:3401 3:68 4:170 5:688 6:5 7:26 8:84 9:63 
-200000 1:32 2:1413 3:45 4:115 5:552 6:4 7:62 8:43 9:52 
-200000 1:22 2:530 3:41 4:35 5:178 6:14 7:18 8:41 9:25 
-200000 1:27 2:5860 3:222 4:101 5:1232 6:17 7:22 8:63 9:44 
-200000 1:32 2:3095 3:91 4:183 5:852 6:82 7:95 8:207 9:46 
-200000 1:22 2:12868 3:272 4:147 5:1300 6:12 7:15 8:465 9:197 
-200000 1:22 2:1312 3:24 4:65 5:334 6:13 7:89 8:6 9:72 
-200000 1:32 2:5720 3:171 4:153 5:952 6:100 7:111 8:18 9:86 
-200000 1:37 2:9897 3:119 4:11 5:1740 6:7 7:0 8:375 9:5 
-200000 1:22 2:1255 3:24 4:79 5:404 6:7 7:202 8:23 9:6 
-200000 1:32 2:4722 3:101 4:106 5:596 6:3 7:227 8:51 9:17 
-200000 1:22 2:1427 3:61 4:25 5:506 6:9 7:3 8:104 9:31 
-200000 1:27 2:1757 3:75 4:82 5:804 6:37 7:75 8:98 9:29 
-200000 1:32 2:1907 3:36 4:52 5:792 6:12 7:113 8:65 9:83 
-200000 1:22 2:379 3:21 4:35 5:230 6:1 7:40 8:6 9:24 
-200000 1:22 2:710 3:47 4:38 5:239 6:2 7:4 8:27 9:23 
-200000 1:32 2:3724 3:19 4:38 5:1260 6:45 7:46 8:41 9:39 
-200000 1:22 2:172 3:24 4:22 5:124 6:5 7:0 8:15 9:16 
-200000 1:27 2:6223 3:48 4:185 5:1340 6:18 7:272 8:36 9:123 
-130231.35484395018 1:32 2:53563 3:71 4:939 5:3128 6:21 7:246 8:115 9:782 
-200000 1:37 2:4330 3:135 4:122 5:872 6:103 7:13 8:219 9:251 
-200000 1:37 2:5581 3:29 4:129 5:1051 6:16 7:193 8:32 9:35 
-200000 1:32 2:7289 3:36 4:184 5:920 6:22 7:618 8:8 9:54 
-200000 1:37 2:5384 3:209 4:158 5:952 6:21 7:42 8:67 9:78 
-200000 1:37 2:6736 3:179 4:193 5:1076 6:106 7:28 8:211 9:210 
-200000 1:32 2:8698 3:26 4:409 5:1348 6:2 7:140 8:1 9:18 
-200000 1:22 2:4884 3:108 4:159 5:1204 6:33 7:191 8:193 9:226 
-200000 1:32 2:8551 3:182 4:180 5:1016 6:56 7:81 8:47 9:110 
-200000 1:22 2:230 3:19 4:38 5:188 6:9 7:4 8:13 9:42 
-200000 1:37 2:5285 3:164 4:157 5:800 6:43 7:68 8:95 9:101 
-200000 1:37 2:3931 3:75 4:163 5:860 6:35 7:142 8:86 9:237 
-200000 1:22 2:5846 3:133 4:146 5:1324 6:3 7:20 8:77 9:71 
-200000 1:22 2:5580 3:176 4:116 5:940 6:31 7:17 8:24 9:109 
-200000 1:27 2:839 3:115 4:7 5:396 6:9 7:0 8:44 9:6 
-200000 1:22 2:20389 3:134 4:326 5:1284 6:2 7:629 8:261 9:31 
-200000 1:22 2:1777 3:43 4:61 5:320 6:10 7:0 8:41 9:63 
-200000 1:22 2:780 3:36 4:35 5:180 6:6 7:11 8:6 9:38 
-200000 1:32 2:21685 3:379 4:268 5:1572 6:133 7:138 8:49 9:127 
-200000 1:22 2:433 3:18 4:37 5:244 6:18 7:49 8:20 9:49 
-200000 1:22 2:5972 3:21 4:241 5:814 6:5 7:228 8:8 9:42 
-200000 1:22 2:267 3:19 4:41 5:208 6:7 7:27 8:1 9:6 
-200000 1:37 2:11058 3:347 4:47 5:1164 6:8 7:14 8:56 9:3 
-200000 1:27 2:834 3:43 4:18 5:424 6:1 7:1 8:119 9:22 
-200000 1:37 2:10387 3:195 4:284 5:1252 6:1 7:31 8:7 9:220 
-200000 1:27 2:6491 3:132 4:117 5:628 6:31 7:9 8:185 9:19 
-200000 1:32 2:2489 3:135 4:86 5:496 6:15 7:129 8:45 9:1 
-200000 1:22 2:4144 3:23 4:106 5:871 6:24 7:346 8:17 9:181 
-200000 1:22 2:4711 3:22 4:165 5:756 6:28 7:46 8:0 9:95 
-200000 1:27 2:14311 3:142 4:194 5:1860 6:180 7:558 8:289 9:278 
-200000 1:37 2:4523 3:86 4:120 5:1112 6:65 7:149 8:39 9:150 
-200000 1:32 2:5692 3:69 4:105 5:552 6:68 7:105 8:7 9:144 
-200000 1:32 2:6923 3:145 4:162 5:1292 6:71 7:8 8:6 9:45 
-200000 1:37 2:5204 3:59 4:154 5:638 6:52 7:115 8:5 9:275 
-200000 1:22 2:642 3:15 4:56 5:392 6:2 7:93 8:6 9:4 
-200000 1:27 2:6230 3:99 4:236 5:796 6:27 7:147 8:75 9:1 
-200000 1:37 2:26099 3:206 4:279 5:1308 6:113 7:118 8:52 9:275 
-200000 1:27 2:2091 3:59 4:82 5:403 6:8 7:86 8:1 9:48 
-200000 1:32 2:7694 3:137 4:179 5:952 6:91 7:184 8:110 9:49 
-200000 1:22 2:2536 3:32 4:108 5:420 6:24 7:80 8:1 9:22 
-200000 1:22 2:6343 3:23 4:209 5:632 6:1 7:257 8:13 9:17 
-200000 1:22 2:421 3:39 4:51 5:207 6:24 7:23 8:20 9:17 
-200000 1:27 2:3266 3:34 4:42 5:1468 6:33 7:114 8:27 9:111 
-200000 1:22 2:4407 3:120 4:37 5:1376 6:148 7:13 8:299 9:88 
-200000 1:37 2:1307 3:35 4:55 5:616 6:33 7:42 8:0 9:45 
-200000 1:32 2:5634 3:136 4:61 5:1120 6:8 7:1 8:49 9:94 
-200000 1:27 2:4923 3:118 4:12 5:896 6:4 7:0 8:296 9:5 
-200000 1:37 2:9902 3:279 4:56 5:1064 6:23 7:28 8:18 9:13 
-200000 1:22 2:963 3:51 4:71 5:375 6:16 7:20 8:20 9:0 
-200000 1:22 2:1925 3:17 4:105 5:304 6:9 7:109 8:0 9:13 
-200000 1:37 2:1996 3:85 4:41 5:664 6:54 7:1 8:122 9:12 
-200000 1:22 2:1646 3:46 4:17 5:192 6:0 7:4 8:105 9:22 
-200000 1:22 2:523 3:31 4:35 5:144 6:31 7:10 8:14 9:24 
-200000 1:37 2:3600 3:46 4:50 5:1100 6:73 7:113 8:107 9:55 
-200000 1:22 2:8053 3:39 4:364 5:948 6:12 7:51 8:17 9:58 
-200000 1:27 2:47819 3:51 4:434 5:2080 6:126 7:1396 8:27 9:213 
-200000 1:27 2:10950 3:234 4:97 5:1408 6:45 7:62 8:64 9:69 
-200000 1:32 2:4270 3:25 4:161 5:736 6:12 7:262 8:8 9:42 
-200000 1:22 2:529 3:25 4:62 5:296 6:1 7:2 8:2 9:76 
-200000 1:22 2:195 3:25 4:20 5:168 6:11 7:14 8:24 9:23 
-200000 1:32 2:3214 3:18 4:129 5:1028 6:16 7:330 8:10 9:149 
-200000 1:22 2:1056 3:18 4:68 5:232 6:15 7:93 8:11 9:9 
-200000 1:27 2:22154 3:281 4:375 5:2392 6:22 7:200 8:12 9:549 
-200000 1:22 2:3175 3:142 4:105 5:880 6:57 7:12 8:93 9:18 
-200000 1:32 2:7756 3:155 4:236 5:1348 6:30 7:97 8:47 9:235 
-200000 1:22 2:1239 3:33 4:49 5:236 6:33 7:1 8:28 9:8 
-200000 1:27 2:21602 3:132 4:154 5:752 6:45 7:183 8:56 9:165 
-200000 1:37 2:45016 3:443 4:287 5:2956 6:452 7:219 8:1200 9:699 
-200000 1:27 2:1936 3:91 4:83 5:396 6:21 7:36 8:30 9:21 
-200000 1:32 2:5844 3:128 4:158 5:1060 6:45 7:99 8:40 9:14 
-200000 1:37 2:5348 3:147 4:111 5:700 6:19 7:78 8:28 9:110 
-200000 1:22 2:256 3:20 4:33 5:288 6:18 7:47 8:19 9:54 
-200000 1:32 2:9114 3:99 4:112 5:856 6:57 7:72 8:136 9:106 
-200000 1:37 2:6798 3:154 4:159 5:1628 6:83 7:153 8:18 9:8 
-200000 1:27 2:1110 3:31 4:70 5:364 6:44 7:35 8:22 9:14 
-200000 1:32 2:18939 3:149 4:256 5:1628 6:70 7:605 8:5 9:294 
-200000 1:32 2:3833 3:72 4:83 5:896 6:57 7:25 8:230 9:269 
-200000 1:32 2:6762 3:212 4:91 5:784 6:22 7:14 8:102 9:55 
-200000 1:37 2:4677 3:143 4:150 5:1096 6:153 7:42 8:35 9:107 
-200000 1:22 2:374 3:25 4:56 5:264 6:4 7:48 8:10 9:64 
-200000 1:22 2:223 3:28 4:23 5:156 6:16 7:11 8:8 9:4 
-200000 1:32 2:6236 3:119 4:77 5:813 6:7 7:14 8:323 9:181 
-200000 1:37 2:19296 3:253 4:81 5:1150 6:30 7:24 8:415 9:88 
-200000 1:27 2:2480 3:15 4:180 5:592 6:18 7:302 8:14 9:11 
-200000 1:37 2:14439 3:265 4:68 5:1404 6:15 7:48 8:49 9:55 
-200000 1:22 2:488 3:32 4:47 5:356 6:17 7:43 8:39 9:62 
-200000 1:27 2:19453 3:150 4:259 5:1408 6:42 7:300 8:74 9:281 
-200000 1:22 2:321 3:26 4:35 5:179 6:4 7:33 8:5 9:2 
-200000 1:32 2:6931 3:115 4:106 5:669 6:61 7:191 8:78 9:38 
-200000 1:27 2:3023 3:79 4:153 5:620 6:11 7:42 8:58 9:91 
-200000 1:22 2:7072 3:95 4:113 5:464 6:12 7:104 8:65 9:42 
-200000 1:27 2:328 3:23 4:48 5:328 6:2 7:40 8:3 9:62 
-200000 1:37 2:2203 3:75 4:31 5:820 6:14 7:57 8:192 9:17 
-200000 1:37 2:11428 3:116 4:345 5:1544 6:85 7:15 8:6 9:496 
-200000 1:27 2:47840 3:115 4:422 5:2540 6:209 7:931 8:84 9:427 
-200000 1:22 2:561 3:34 4:33 5:164 6:14 7:32 8:40 9:12 
-200000 1:27 2:3329 3:96 4:139 5:564 6:43 7:21 8:15 9:22 
-200000 1:22 2:6035 3:45 4:150 5:672 6:14 7:193 8:13 9:0 
-200000 1:22 2:948 3:42 4:79 5:311 6:14 7:5 8:6 9:56 
-200000 1:22 2:227 3:16 4:39 5:196 6:12 7:14 8:7 9:15 
-200000 1:32 2:2588 3:102 4:102 5:648 6:18 7:25 8:36 9:35 
-200000 1:27 2:4562 3:157 4:167 5:896 6:136 7:76 8:161 9:26 
-200000 1:37 2:5254 3:173 4:179 5:1024 6:29 7:9 8:180 9:316 
-200000 1:22 2:744 3:8 4:60 5:239 6:3 7:28 8:3 9:2 
-200000 1:32 2:559 3:29 4:38 5:488 6:5 7:46 8:4 9:28 
-200000 1:22 2:1199 3:42 4:70 5:316 6:9 7:57 8:28 9:1 
-200000 1:32 2:3304 3:111 4:113 5:884 6:122 7:124 8:37 9:123 
-200000 1:27 2:350 3:38 4:35 5:256 6:12 7:4 8:65 9:49 
-200000 1:37 2:5906 3:85 4:120 5:808 6:35 7:163 8:93 9:248 
-200000 1:22 2:169 3:28 4:21 5:159 6:16 7:8 8:17 9:5 
-200000 1:22 2:10354 3:145 4:215 5:1280 6:68 7:285 8:54 9:262 
-200000 1:27 2:505 3:17 4:72 5:432 6:2 7:35 8:16 9:178 
-200000 1:22 2:215 3:21 4:25 5:160 6:1 7:12 8:3 9:30 
-200000 1:32 2:4252 3:118 4:123 5:1176 6:92 7:14 8:287 9:327 
-200000 1:22 2:765 3:56 4:49 5:284 6:8 7:1 8:56 9:31 
-200000 1:27 2:2646 3:145 4:125 5:796 6:23 7:40 8:131 9:43 
-200000 1:32 2:9685 3:44 4:125 5:1330 6:99 7:400 8:84 9:375 
-200000 1:37 2:3875 3:133 4:130 5:820 6:77 7:96 8:64 9:79 
-200000 1:27 2:505 3:31 4:44 5:360 6:11 7:31 8:50 9:39 
-21940.823656223525 1:32 2:1385 3:30 4:74 5:471 6:5 7:37 8:18 9:57 
-200000 1:27 2:2331 3:53 4:97 5:380 6:24 7:101 8:12 9:7 
-200000 1:27 2:2689 3:56 4:60 5:481 6:26 7:0 8:158 9:84 
-200000 1:22 2:11765 3:190 4:296 5:1248 6:165 7:134 8:22 9:19 
-200000 1:32 2:3914 3:92 4:29 5:808 6:6 7:8 8:286 9:51 
-200000 1:32 2:1302 3:38 4:75 5:540 6:5 7:196 8:14 9:34 
-200000 1:32 2:7523 3:175 4:168 5:1176 6:43 7:24 8:29 9:40 
-200000 1:22 2:322 3:23 4:58 5:233 6:1 7:19 8:10 9:31 
-200000 1:32 2:1006 3:35 4:65 5:464 6:13 7:99 8:42 9:50 
-200000 1:27 2:865 3:27 4:64 5:544 6:1 7:19 8:8 9:100 
-6444.4628642756588 1:27 2:78091 3:252 4:179 5:1984 6:5 7:20 8:870 9:610 
-200000 1:22 2:177 3:22 4:17 5:156 6:0 7:1 8:23 9:17 
-200000 1:32 2:9262 3:40 4:255 5:731 6:16 7:91 8:5 9:75 
-2036.5412775577943 1:37 2:92469 3:266 4:70 5:2584 6:13 7:13 8:530 9:113 
-200000 1:32 2:2039 3:93 4:65 5:560 6:117 7:44 8:28 9:75 
-200000 1:37 2:1653 3:156 4:45 5:568 6:35 7:28 8:42 9:38 
-200000 1:27 2:1378 3:38 4:46 5:318 6:17 7:46 8:44 9:70 
-200000 1:27 2:8274 3:91 4:173 5:1028 6:6 7:328 8:26 9:350 
-200000 1:37 2:7878 3:182 4:187 5:1252 6:44 7:31 8:77 9:52 
-200000 1:32 2:11765 3:190 4:296 5:1248 6:165 7:134 8:22 9:19 
-200000 1:32 2:3740 3:57 4:130 5:872 6:26 7:74 8:19 9:65 
-200000 1:27 2:28949 3:63 4:278 5:3180 6:120 7:868 8:117 9:636 
-200000 1:27 2:426 3:47 4:1 5:304 6:2 7:2 8:81 9:4 
-200000 1:22 2:349 3:25 4:26 5:167 6:10 7:3 8:2 9:22 
-200000 1:32 2:3584 3:69 4:108 5:680 6:6 7:145 8:108 9:174 
-200000 1:22 2:9062 3:46 4:421 5:1152 6:15 7:27 8:0 9:58 
-200000 1:22 2:19867 3:204 4:280 5:1605 6:145 7:84 8:139 9:529 
-200000 1:32 2:9196 3:65 4:177 5:808 6:51 7:276 8:186 9:24 
-200000 1:27 2:1185 3:27 4:30 5:639 6:35 7:18 8:47 9:29 
-200000 1:27 2:3585 3:23 4:171 5:792 6:3 7:432 8:47 9:64 
-200000 1:27 2:1598 3:49 4:40 5:300 6:5 7:18 8:82 9:36 
-200000 1:37 2:4034 3:105 4:108 5:852 6:78 7:2 8:62 9:12 
-200000 1:27 2:3173 3:57 4:70 5:284 6:24 7:52 8:128 9:29 
-200000 1:32 2:6815 3:115 4:38 5:1308 6:2 7:31 8:412 9:101 
-200000 1:22 2:4764 3:98 4:131 5:540 6:13 7:3 8:45 9:29 
-200000 1:22 2:388 3:20 4:53 5:288 6:19 7:13 8:22 9:25 
-200000 1:37 2:5916 3:83 4:38 5:876 6:68 7:24 8:299 9:127 
-200000 1:37 2:2802 3:48 4:93 5:1016 6:49 7:222 8:56 9:201 
-200000 1:32 2:3544 3:70 4:37 5:1064 6:90 7:4 8:278 9:104 
-200000 1:37 2:15873 3:104 4:157 5:2128 6:294 7:354 8:365 9:524 
-200000 1:22 2:12761 3:24 4:398 5:1336 6:15 7:120 8:0 9:9 
-200000 1:37 2:6693 3:157 4:170 5:868 6:150 7:5 8:115 9:122 
-200000 1:27 2:3653 3:87 4:92 5:484 6:12 7:7 8:15 9:159 
-200000 1:37 2:12493 3:251 4:186 5:1548 6:54 7:211 8:360 9:321 
-200000 1:27 2:613 3:118 4:1 5:288 6:2 7:0 8:10 9:5 
-200000 1:22 2:29821 3:39 4:717 5:2620 6:32 7:724 8:3 9:264 
-200000 1:22 2:5267 3:146 4:49 5:764 6:7 7:30 8:267 9:8 
-200000 1:32 2:3959 3:183 4:76 5:848 6:85 7:68 8:347 9:75 
-200000 1:32 2:6204 3:107 4:39 5:1316 6:29 7:18 8:311 9:103 
-200000 1:27 2:67869 3:764 4:499 5:2812 6:399 7:109 8:352 9:106 
-200000 1:27 2:543 3:42 4:52 5:268 6:24 7:22 8:13 9:46 
-200000 1:22 2:1156 3:115 4:59 5:484 6:24 7:14 8:18 9:5 
-200000 1:27 2:3195 3:142 4:36 5:832 6:2 7:3 8:206 9:32 
-200000 1:32 2:2313 3:45 4:64 5:429 6:29 7:126 8:79 9:112 
-200000 1:27 2:8081 3:233 4:197 5:1120 6:62 7:1 8:246 9:37 
-200000 1:22 2:3247 3:55 4:77 5:340 6:17 7:79 8:72 9:78 
-200000 1:22 2:2771 3:69 4:38 5:328 6:14 7:7 8:157 9:41 
-200000 1:37 2:30652 3:518 4:126 5:2452 6:184 7:177 8:71 9:276 
-200000 1:27 2:820 3:27 4:60 5:448 6:16 7:118 8:4 9:33 
