svm_type c_svc
kernel_type rbf
gamma 5.0000000000000001e-09
nr_class 2
total_sv 48
rho 482.33682099127901
label 1 0
probA -0.42501762168352331
probB -0.087473742817101949
nr_sv 24 24
SV
6000000 1:27 2:8 3:41 4:291 5:21 6:104 7:1 8:10 
6000000 1:22 2:31 3:28 4:136 5:6 6:9 7:2 8:3 
6000000 1:22 2:31 3:33 4:149 5:11 6:4 7:15 8:13 
1052144.1251361459 1:37 2:177 3:209 4:1184 5:41 6:36 7:107 8:69 
6000000 1:32 2:25 3:43 4:292 5:4 6:26 7:66 8:13 
5056512.3685822478 1:27 2:43 3:118 4:576 5:39 6:33 7:7 8:23 
6000000 1:22 2:18 3:32 4:240 5:5 6:61 7:13 8:18 
6000000 1:37 2:155 3:175 4:928 5:14 6:176 7:85 8:21 
629522.8763695911 1:32 2:38 3:193 4:798 5:15 6:510 7:7 8:154 
6000000 1:32 2:95 3:21 4:288 5:0 6:2 7:2 8:11 
6000000 1:37 2:99 3:97 4:809 5:6 6:38 7:32 8:117 
6000000 1:27 2:40 3:39 4:185 5:15 6:4 7:3 8:4 
6000000 1:32 2:49 3:117 4:484 5:35 6:171 7:50 8:94 
6000000 1:22 2:25 3:20 4:135 5:5 6:8 7:40 8:7 
6000000 1:37 2:129 3:91 4:488 5:34 6:35 7:214 8:124 
6000000 1:37 2:42 3:35 4:366 5:27 6:24 7:14 8:13 
6000000 1:27 2:44 3:64 4:308 5:2 6:0 7:23 8:10 
6000000 1:37 2:103 3:110 4:704 5:11 6:135 7:32 8:45 
1803514.7360492188 1:32 2:87 3:148 4:732 5:31 6:51 7:37 8:178 
6000000 1:32 2:44 3:60 4:347 5:13 6:40 7:9 8:59 
6000000 1:27 2:58 3:52 4:207 5:17 6:4 7:18 8:15 
6000000 1:22 2:21 3:54 4:300 5:5 6:10 7:7 8:18 
5306873.6931907209 1:22 2:22 3:40 4:228 5:0 6:19 7:0 8:28 
6000000 1:22 2:43 3:92 4:396 5:35 6:28 7:13 8:4 
-6000000 1:27 2:31 3:25 4:159 5:10 6:5 7:28 8:24 
-6000000 1:22 2:30 3:38 4:110 5:10 6:17 7:26 8:26 
-6000000 1:22 2:64 3:56 4:268 5:42 6:29 7:42 8:25 
-6000000 1:22 2:90 3:88 4:484 5:18 6:17 7:36 8:22 
-1689441.7903377716 1:37 2:32 3:27 4:344 5:22 6:22 7:13 8:9 
-2691683.4093646039 1:32 2:67 3:120 4:404 5:11 6:179 7:32 8:6 
-6000000 1:37 2:40 3:54 4:492 5:32 6:8 7:25 8:88 
-6000000 1:32 2:31 3:140 4:727 5:4 6:355 7:4 8:25 
-6000000 1:27 2:37 3:52 4:232 5:1 6:28 7:13 8:12 
-6000000 1:27 2:71 3:35 4:265 5:10 6:7 7:51 8:19 
-6000000 1:32 2:101 3:107 4:748 5:80 6:68 7:143 8:153 
-6000000 1:22 2:22 3:33 4:128 5:11 6:60 7:6 8:8 
-242011.90269436128 1:22 2:24 3:21 4:123 5:7 6:4 7:2 8:2 
-6000000 1:37 2:46 3:39 4:302 5:28 6:39 7:83 8:38 
-6000000 1:27 2:26 3:27 4:332 5:0 6:19 7:7 8:9 
-6000000 1:27 2:27 3:30 4:148 5:2 6:0 7:24 8:6 
-6000000 1:32 2:32 3:53 4:338 5:9 6:60 7:3 8:25 
-6000000 1:37 2:132 3:180 4:767 5:6 6:102 7:21 8:81 
-4941886.6087198667 1:37 2:39 3:55 4:349 5:8 6:32 7:7 8:23 
-4283544.088211407 1:27 2:123 3:109 4:600 5:5 6:15 7:16 8:5 
-6000000 1:22 2:32 3:47 4:233 5:9 6:19 7:12 8:31 
-6000000 1:37 2:46 3:68 4:463 5:1 6:3 7:15 8:22 
-6000000 1:22 2:25 3:30 4:140 5:4 6:12 7:6 8:4 
-6000000 1:32 2:134 3:153 4:916 5:18 6:27 7:95 8:79 
