svm_type c_svc
kernel_type rbf
gamma 2.0000000000000001e-09
nr_class 2
total_sv 32
rho 1160.4716482660401
label 1 0
probA -0.07192305893672564
probB 0.009903655695010994
nr_sv 18 14
SV
10000000 1:27 2:66 3:130 4:612 5:0 6:45 7:0 8:0 
4584052.9152724463 1:37 2:27 3:376 4:1760 5:9 6:260 7:2 8:38 
1436310.9178324435 1:27 2:229 3:202 4:1552 5:62 6:27 7:27 8:69 
5572822.7576642493 1:27 2:65 3:49 4:408 5:20 6:21 7:182 8:114 
10000000 1:37 2:41 3:65 4:744 5:24 6:61 7:6 8:68 
10000000 1:32 2:22 3:84 4:328 5:3 6:124 7:3 8:34 
10000000 1:37 2:101 3:97 4:541 5:74 6:14 7:7 8:110 
10000000 1:22 2:34 3:74 4:310 5:1 6:100 7:20 8:37 
1968482.0809589492 1:22 2:65 3:214 4:844 5:5 6:30 7:69 8:289 
10000000 1:27 2:25 3:70 4:576 5:16 6:31 7:23 8:110 
10000000 1:22 2:22 3:65 4:300 5:6 6:75 7:1 8:37 
10000000 1:32 2:31 3:77 4:448 5:17 6:53 7:36 8:103 
4305015.2351695504 1:32 2:113 3:258 4:1624 5:160 6:316 7:66 8:54 
2997386.4929308002 1:22 2:167 3:268 4:1944 5:16 6:278 7:92 8:574 
10000000 1:27 2:19 3:81 4:415 5:16 6:56 7:16 8:90 
9574606.2322507501 1:22 2:24 3:281 4:596 5:16 6:237 7:10 8:82 
4395538.662973078 1:32 2:52 3:53 4:404 5:14 6:63 7:79 8:20 
10000000 1:32 2:17 3:38 4:180 5:7 6:12 7:9 8:25 
-10000000 1:37 2:45 3:79 4:1300 5:44 6:156 7:54 8:180 
-10000000 1:27 2:23 3:66 4:336 5:4 6:57 7:11 8:20 
-7881691.7422107356 1:37 2:29 3:49 4:344 5:8 6:12 7:4 8:106 
-10000000 1:27 2:210 3:235 4:1248 5:132 6:49 7:43 8:10 
-10000000 1:37 2:38 3:130 4:684 5:24 6:22 7:26 8:229 
-10000000 1:32 2:19 3:37 4:188 5:1 6:13 7:8 8:15 
-10000000 1:22 2:29 3:170 4:508 5:17 6:247 7:8 8:17 
-10000000 1:27 2:26 3:320 4:808 5:7 6:95 7:15 8:2 
-10000000 1:22 2:19 3:64 4:184 5:1 6:83 7:1 8:25 
-10000000 1:32 2:26 3:81 4:340 5:4 6:12 7:7 8:39 
-10000000 1:22 2:85 3:56 4:338 5:2 6:0 7:124 8:81 
-10000000 1:32 2:24 3:190 4:1297 5:24 6:397 7:9 8:257 
-10000000 1:27 2:27 3:49 4:294 5:17 6:42 7:21 8:75 
-6952523.5528415833 1:27 2:33 3:28 4:156 5:1 6:4 7:15 8:15 
