svm_type c_svc
kernel_type rbf
gamma 8.0000000000000003e-10
nr_class 2
total_sv 40
rho 3028.5878571819876
label 1 0
probA -0.0061118133418119275
probB -0.0063175418843233952
nr_sv 21 19
SV
41299303.6053802 1:32 2:68 3:205 4:1236 5:84 6:389 
80000000 1:32 2:33 3:47 4:368 5:38 6:31 
2209374.059242493 1:37 2:73 3:139 4:1008 5:29 6:129 
80000000 1:27 2:24 3:127 4:696 5:17 6:129 
80000000 1:37 2:86 3:92 4:704 5:25 6:1 
80000000 1:32 2:10 3:42 4:336 5:14 6:78 
16660381.824183283 1:32 2:31 3:142 4:1340 5:66 6:286 
80000000 1:37 2:33 3:389 4:1392 5:45 6:209 
80000000 1:37 2:53 3:166 4:693 5:48 6:112 
80000000 1:32 2:25 3:45 4:696 5:1 6:13 
80000000 1:22 2:13 3:16 4:140 5:12 6:6 
80000000 1:22 2:39 3:22 4:220 5:22 6:13 
5430507.1548396042 1:22 2:15 3:1268 4:3440 5:2 6:152 
80000000 1:32 2:55 3:161 4:1068 5:121 6:451 
80000000 1:37 2:66 3:109 4:600 5:8 6:24 
80000000 1:22 2:20 3:30 4:268 5:10 6:14 
80000000 1:27 2:12 3:32 4:197 5:20 6:41 
79368360.265228674 1:22 2:102 3:111 4:976 5:137 6:22 
80000000 1:22 2:11 3:10 4:128 5:18 6:7 
37027739.363715701 1:32 2:39 3:57 4:468 5:3 6:38 
80000000 1:27 2:21 3:72 4:340 5:8 6:74 
-80000000 1:27 2:99 3:99 4:832 5:107 6:114 
-80000000 1:37 2:77 3:173 4:1276 5:231 6:519 
-80000000 1:27 2:17 3:471 4:1340 5:21 6:238 
-80000000 1:27 2:52 3:63 4:488 5:24 6:13 
-80000000 1:32 2:53 3:21 4:548 5:22 6:25 
-80000000 1:32 2:29 3:12 4:276 5:4 6:4 
-4264324.3004254578 1:37 2:214 3:377 4:2536 5:18 6:926 
-80000000 1:22 2:15 3:76 4:396 5:1 6:124 
-80000000 1:27 2:7 3:14 4:80 5:3 6:9 
-80000000 1:27 2:88 3:99 4:756 5:44 6:76 
-80000000 1:22 2:18 3:118 4:600 5:17 6:146 
-80000000 1:37 2:15 3:16 4:108 5:6 6:23 
-80000000 1:37 2:25 3:25 4:412 5:15 6:5 
-80000000 1:37 2:36 3:223 4:1228 5:67 6:33 
-80000000 1:32 2:16 3:26 4:212 5:0 6:33 
-80000000 1:22 2:73 3:92 4:688 5:27 6:87 
-37099578.451808959 1:32 2:19 3:240 4:1052 5:7 6:3 
-80000000 1:22 2:14 3:39 4:224 5:5 6:5 
-60631763.520356894 1:37 2:12 3:31 4:160 5:5 6:16 
