svm_type c_svc
kernel_type rbf
gamma 1.9999999999999999e-07
nr_class 2
total_sv 657
rho 7.6165745949469228
label 1 0
probA -1.044027647701234
probB 0.058375114956676667
nr_sv 340 317
SV
100000 1:27 2:31 3:32 4:308 5:8 6:62 7:23 8:29 
100000 1:37 2:36 3:96 4:875 5:6 6:61 7:5 8:0 
100000 1:27 2:63 3:5 4:224 5:9 6:0 7:36 8:7 
100000 1:27 2:24 3:34 4:204 5:3 6:11 7:16 8:1 
100000 1:32 2:61 3:62 4:848 5:41 6:4 7:78 8:13 
100000 1:32 2:34 3:71 4:516 5:5 6:37 7:36 8:44 
8863.8230324362412 1:32 2:36 3:110 4:766 5:32 6:29 7:3 8:0 
100000 1:22 2:33 3:32 4:234 5:5 6:26 7:2 8:13 
62741.329024731909 1:37 2:29 3:86 4:884 5:0 6:176 7:24 8:137 
100000 1:22 2:28 3:31 4:141 5:2 6:3 7:2 8:3 
100000 1:32 2:34 3:44 4:241 5:5 6:24 7:6 8:7 
100000 1:22 2:140 3:9 4:452 5:7 6:1 7:73 8:3 
100000 1:27 2:20 3:14 4:100 5:2 6:2 7:4 8:4 
18686.671744421383 1:32 2:81 3:453 4:2360 5:150 6:241 7:53 8:2 
100000 1:27 2:24 3:21 4:140 5:5 6:2 7:20 8:4 
100000 1:22 2:80 3:28 4:241 5:10 6:8 7:105 8:0 
100000 1:27 2:23 3:53 4:384 5:6 6:82 7:3 8:28 
100000 1:32 2:58 3:13 4:1744 5:73 6:3 7:167 8:2 
100000 1:37 2:116 3:17 4:776 5:4 6:8 7:285 8:2 
75948.676683284837 1:37 2:74 3:45 4:1324 5:47 6:35 7:187 8:107 
100000 1:22 2:35 3:38 4:331 5:18 6:33 7:5 8:8 
100000 1:32 2:21 3:32 4:224 5:5 6:34 7:0 8:5 
100000 1:37 2:61 3:115 4:1244 5:55 6:260 7:4 8:6 
100000 1:22 2:29 3:19 4:152 5:16 6:10 7:20 8:10 
100000 1:27 2:25 3:11 4:368 5:15 6:5 7:40 8:4 
100000 1:22 2:32 3:32 4:158 5:3 6:3 7:5 8:7 
100000 1:37 2:181 3:7 4:476 5:9 6:0 7:2 8:0 
100000 1:32 2:93 3:209 4:700 5:23 6:121 7:4 8:61 
100000 1:37 2:46 3:62 4:508 5:20 6:34 7:15 8:12 
100000 1:37 2:85 3:42 4:520 5:18 6:27 7:141 8:41 
100000 1:32 2:44 3:63 4:370 5:17 6:50 7:25 8:41 
5889.1396562420596 1:27 2:84 3:37 4:339 5:6 6:32 7:138 8:35 
4062.7568591368581 1:37 2:117 3:79 4:1140 5:65 6:70 7:37 8:6 
100000 1:32 2:28 3:31 4:512 5:4 6:50 7:36 8:20 
100000 1:32 2:32 3:39 4:352 5:1 6:45 7:12 8:2 
100000 1:32 2:17 3:18 4:116 5:25 6:3 7:21 8:3 
100000 1:32 2:81 3:31 4:387 5:11 6:9 7:186 8:7 
100000 1:32 2:43 3:43 4:240 5:24 6:5 7:0 8:1 
100000 1:22 2:11 3:17 4:108 5:1 6:7 7:1 8:0 
100000 1:32 2:24 3:44 4:296 5:0 6:50 7:6 8:6 
100000 1:37 2:157 3:60 4:626 5:39 6:21 7:225 8:40 
100000 1:32 2:52 3:84 4:459 5:34 6:37 7:69 8:13 
100000 1:27 2:53 3:25 4:260 5:14 6:11 7:4 8:28 
100000 1:32 2:85 3:204 4:744 5:35 6:29 7:13 8:4 
100000 1:37 2:22 3:63 4:648 5:3 6:63 7:17 8:13 
100000 1:27 2:30 3:37 4:210 5:0 6:4 7:7 8:21 
100000 1:37 2:110 3:67 4:660 5:153 6:27 7:55 8:67 
100000 1:27 2:59 3:101 4:398 5:9 6:15 7:7 8:44 
100000 1:27 2:33 3:92 4:305 5:4 6:5 7:11 8:29 
100000 1:22 2:20 3:47 4:252 5:1 6:10 7:1 8:21 
100000 1:27 2:38 3:33 4:272 5:43 6:15 7:40 8:38 
100000 1:32 2:20 3:47 4:256 5:4 6:2 7:2 8:8 
100000 1:27 2:63 3:99 4:484 5:18 6:47 7:13 8:25 
100000 1:22 2:27 3:61 4:260 5:2 6:16 7:14 8:11 
100000 1:32 2:173 3:160 4:864 5:52 6:122 7:0 8:5 
100000 1:22 2:19 3:47 4:256 5:0 6:16 7:1 8:4 
8704.599967029837 1:27 2:40 3:89 4:460 5:17 6:49 7:18 8:24 
100000 1:27 2:62 3:66 4:393 5:2 6:2 7:16 8:51 
100000 1:32 2:42 3:38 4:304 5:7 6:37 7:47 8:18 
100000 1:27 2:23 3:56 4:420 5:4 6:11 7:3 8:15 
100000 1:22 2:33 3:50 4:258 5:8 6:73 7:0 8:0 
100000 1:27 2:63 3:33 4:606 5:15 6:7 7:91 8:13 
100000 1:32 2:38 3:47 4:316 5:3 6:6 7:20 8:8 
100000 1:32 2:35 3:77 4:832 5:20 6:126 7:19 8:4 
34695.025102385815 1:32 2:51 3:99 4:1748 5:36 6:129 7:20 8:10 
539.59736639638197 1:37 2:274 3:270 4:2168 5:67 6:134 7:46 8:7 
100000 1:27 2:34 3:36 4:219 5:2 6:13 7:0 8:2 
100000 1:32 2:20 3:42 4:236 5:0 6:7 7:5 8:5 
40603.738805054643 1:32 2:105 3:210 4:2692 5:34 6:163 7:15 8:10 
100000 1:37 2:28 3:38 4:741 5:29 6:64 7:11 8:62 
100000 1:32 2:77 3:46 4:467 5:8 6:21 7:33 8:38 
100000 1:27 2:54 3:36 4:292 5:6 6:10 7:3 8:2 
100000 1:32 2:43 3:92 4:520 5:24 6:43 7:6 8:70 
100000 1:32 2:63 3:57 4:462 5:18 6:3 7:9 8:8 
26669.490279506314 1:22 2:44 3:50 4:2788 5:78 6:82 7:82 8:62 
100000 1:22 2:46 3:17 4:194 5:6 6:5 7:35 8:11 
9922.5918311886544 1:32 2:284 3:180 4:2032 5:198 6:42 7:240 8:212 
100000 1:22 2:35 3:33 4:192 5:37 6:19 7:0 8:28 
100000 1:27 2:176 3:8 4:480 5:4 6:0 7:15 8:0 
100000 1:27 2:26 3:47 4:212 5:5 6:6 7:0 8:13 
100000 1:32 2:94 3:200 4:992 5:4 6:107 7:5 8:9 
100000 1:27 2:25 3:26 4:128 5:2 6:1 7:1 8:2 
100000 1:32 2:20 3:87 4:556 5:2 6:109 7:3 8:10 
517.78116563069784 1:27 2:38 3:21 4:740 5:63 6:8 7:73 8:11 
100000 1:27 2:25 3:32 4:164 5:12 6:31 7:1 8:10 
100000 1:22 2:129 3:33 4:628 5:5 6:6 7:101 8:10 
100000 1:27 2:17 3:13 4:149 5:1 6:1 7:27 8:9 
100000 1:32 2:29 3:37 4:188 5:3 6:12 7:0 8:2 
100000 1:27 2:40 3:34 4:261 5:6 6:8 7:33 8:12 
100000 1:37 2:130 3:32 4:1008 5:46 6:0 7:29 8:3 
100000 1:37 2:46 3:74 4:670 5:11 6:76 7:7 8:11 
100000 1:27 2:131 3:68 4:536 5:96 6:20 7:4 8:20 
100000 1:22 2:23 3:21 4:200 5:25 6:26 7:35 8:19 
100000 1:37 2:68 3:53 4:300 5:5 6:13 7:12 8:15 
100000 1:27 2:57 3:14 4:456 5:1 6:0 7:173 8:11 
100000 1:37 2:58 3:58 4:634 5:8 6:1 7:3 8:3 
24225.336237225125 1:37 2:78 3:374 4:1176 5:63 6:277 7:27 8:35 
92153.747684475326 1:32 2:22 3:143 4:904 5:9 6:469 7:0 8:4 
47742.780150626182 1:27 2:172 3:325 4:2480 5:271 6:281 7:12 8:119 
6019.5412850170414 1:27 2:389 3:147 4:2264 5:309 6:20 7:134 8:239 
100000 1:22 2:81 3:38 4:479 5:11 6:7 7:13 8:19 
100000 1:22 2:28 3:25 4:156 5:52 6:20 7:11 8:20 
100000 1:22 2:32 3:30 4:195 5:4 6:1 7:3 8:0 
100000 1:32 2:214 3:153 4:1037 5:169 6:15 7:115 8:165 
100000 1:37 2:77 3:41 4:390 5:4 6:16 7:160 8:41 
100000 1:32 2:99 3:59 4:526 5:44 6:0 7:164 8:20 
12533.041034262273 1:37 2:121 3:174 4:2384 5:221 6:128 7:184 8:58 
80007.400275689695 1:32 2:110 3:220 4:972 5:80 6:43 7:37 8:34 
100000 1:37 2:46 3:36 4:532 5:32 6:31 7:47 8:36 
493.22628112176375 1:37 2:205 3:217 4:2432 5:228 6:307 7:164 8:24 
100000 1:32 2:33 3:59 4:320 5:36 6:26 7:52 8:12 
100000 1:22 2:168 3:9 4:460 5:19 6:1 7:29 8:2 
100000 1:37 2:143 3:42 4:724 5:25 6:11 7:309 8:13 
100000 1:32 2:30 3:41 4:232 5:7 6:18 7:7 8:16 
5495.8593256739705 1:37 2:158 3:110 4:2612 5:313 6:114 7:1 8:70 
100000 1:37 2:80 3:283 4:988 5:5 6:36 7:35 8:210 
100000 1:27 2:38 3:78 4:2124 5:61 6:181 7:2 8:8 
100000 1:37 2:36 3:49 4:278 5:16 6:60 7:0 8:1 
100000 1:37 2:29 3:22 4:440 5:37 6:22 7:54 8:42 
100000 1:37 2:315 3:253 4:2036 5:100 6:73 7:62 8:144 
100000 1:37 2:18 3:75 4:1140 5:3 6:53 7:1 8:42 
100000 1:22 2:24 3:36 4:196 5:1 6:13 7:0 8:11 
100000 1:37 2:70 3:190 4:796 5:33 6:136 7:50 8:14 
100000 1:32 2:40 3:50 4:916 5:2 6:3 7:60 8:5 
100000 1:22 2:122 3:119 4:684 5:7 6:0 7:8 8:42 
100000 1:22 2:20 3:29 4:136 5:0 6:2 7:4 8:3 
100000 1:32 2:85 3:31 4:440 5:45 6:11 7:68 8:9 
100000 1:37 2:85 3:113 4:692 5:39 6:178 7:19 8:10 
100000 1:22 2:43 3:43 4:188 5:40 6:25 7:24 8:30 
100000 1:32 2:71 3:67 4:632 5:26 6:4 7:34 8:10 
100000 1:22 2:36 3:51 4:264 5:2 6:0 7:7 8:1 
100000 1:22 2:34 3:39 4:186 5:6 6:23 7:9 8:20 
100000 1:32 2:24 3:29 4:144 5:3 6:19 7:3 8:9 
100000 1:22 2:21 3:25 4:104 5:2 6:0 7:4 8:3 
100000 1:22 2:11 3:7 4:220 5:0 6:0 7:12 8:0 
100000 1:32 2:49 3:32 4:400 5:10 6:4 7:58 8:3 
100000 1:27 2:31 3:15 4:288 5:1 6:3 7:62 8:1 
100000 1:22 2:33 3:21 4:184 5:7 6:9 7:10 8:17 
100000 1:32 2:38 3:25 4:472 5:13 6:10 7:53 8:14 
64821.049467421704 1:22 2:266 3:270 4:1648 5:25 6:67 7:69 8:113 
100000 1:27 2:44 3:40 4:217 5:11 6:18 7:0 8:7 
100000 1:22 2:32 3:30 4:176 5:0 6:2 7:0 8:6 
5487.99077842935 1:32 2:194 3:263 4:2004 5:486 6:322 7:57 8:402 
100000 1:27 2:109 3:48 4:405 5:37 6:29 7:19 8:44 
100000 1:27 2:239 3:253 4:1512 5:40 6:111 7:10 8:110 
100000 1:32 2:75 3:49 4:500 5:22 6:17 7:27 8:8 
100000 1:32 2:54 3:48 4:474 5:51 6:12 7:40 8:58 
100000 1:22 2:26 3:33 4:231 5:6 6:17 7:3 8:9 
100000 1:32 2:21 3:104 4:844 5:12 6:213 7:1 8:21 
100000 1:32 2:22 3:81 4:396 5:3 6:48 7:3 8:2 
100000 1:32 2:22 3:51 4:244 5:0 6:6 7:0 8:7 
100000 1:32 2:38 3:31 4:420 5:69 6:46 7:54 8:44 
100000 1:22 2:43 3:51 4:332 5:20 6:42 7:6 8:17 
100000 1:37 2:293 3:255 4:1864 5:184 6:70 7:49 8:82 
100000 1:22 2:35 3:58 4:284 5:14 6:35 7:14 8:16 
100000 1:22 2:21 3:20 4:186 5:35 6:18 7:49 8:14 
100000 1:27 2:78 3:78 4:404 5:29 6:83 7:40 8:5 
100000 1:22 2:34 3:86 4:313 5:6 6:55 7:2 8:4 
100000 1:22 2:37 3:46 4:288 5:10 6:10 7:2 8:4 
91430.332062375761 1:27 2:84 3:72 4:380 5:44 6:46 7:57 8:65 
100000 1:37 2:35 3:50 4:2396 5:37 6:93 7:30 8:80 
10673.295611260917 1:32 2:24 3:233 4:2260 5:2 6:196 7:0 8:18 
100000 1:32 2:62 3:38 4:632 5:27 6:6 7:150 8:7 
100000 1:32 2:229 3:227 4:1404 5:54 6:27 7:26 8:82 
100000 1:32 2:21 3:56 4:288 5:0 6:10 7:1 8:4 
100000 1:32 2:172 3:137 4:976 5:59 6:28 7:42 8:49 
100000 1:22 2:14 3:17 4:111 5:2 6:13 7:0 8:4 
100000 1:27 2:22 3:62 4:256 5:3 6:27 7:4 8:17 
100000 1:32 2:177 3:8 4:480 5:5 6:0 7:1 8:1 
27711.693841054221 1:32 2:418 3:149 4:1980 5:129 6:24 7:287 8:56 
100000 1:32 2:20 3:64 4:304 5:4 6:22 7:3 8:26 
100000 1:32 2:123 3:59 4:504 5:90 6:43 7:71 8:19 
100000 1:22 2:29 3:29 4:139 5:3 6:2 7:6 8:1 
100000 1:32 2:91 3:78 4:460 5:1 6:109 7:47 8:4 
100000 1:22 2:14 3:13 4:90 5:1 6:2 7:6 8:4 
100000 1:32 2:129 3:9 4:424 5:4 6:0 7:1 8:0 
100000 1:27 2:43 3:43 4:270 5:24 6:25 7:29 8:36 
1710.4326967343836 1:37 2:155 3:135 4:2360 5:165 6:81 7:189 8:143 
100000 1:37 2:49 3:130 4:1680 5:52 6:314 7:59 8:16 
100000 1:27 2:69 3:93 4:447 5:7 6:5 7:26 8:32 
100000 1:32 2:26 3:45 4:508 5:67 6:146 7:8 8:4 
100000 1:27 2:27 3:26 4:124 5:0 6:0 7:2 8:2 
100000 1:27 2:34 3:43 4:296 5:4 6:4 7:60 8:20 
100000 1:32 2:34 3:33 4:240 5:8 6:12 7:7 8:9 
8658.4901741708018 1:32 2:26 3:287 4:1860 5:15 6:701 7:6 8:7 
100000 1:32 2:19 3:19 4:124 5:10 6:10 7:1 8:1 
100000 1:22 2:31 3:31 4:194 5:7 6:5 7:1 8:8 
100000 1:32 2:31 3:29 4:163 5:5 6:4 7:12 8:12 
100000 1:27 2:165 3:34 4:464 5:39 6:3 7:24 8:0 
100000 1:32 2:95 3:85 4:412 5:87 6:0 7:6 8:11 
100000 1:27 2:131 3:9 4:428 5:1 6:1 7:48 8:2 
91300.903681452895 1:37 2:94 3:50 4:708 5:92 6:57 7:154 8:5 
100000 1:37 2:53 3:34 4:459 5:38 6:7 7:105 8:33 
100000 1:27 2:121 3:111 4:648 5:95 6:27 7:7 8:92 
3931.94241810831 1:32 2:114 3:211 4:2420 5:134 6:205 7:29 8:208 
100000 1:37 2:41 3:133 4:884 5:25 6:17 7:30 8:31 
100000 1:32 2:21 3:60 4:380 5:5 6:68 7:1 8:11 
100000 1:27 2:144 3:38 4:480 5:31 6:1 7:37 8:7 
100000 1:27 2:58 3:493 4:1060 5:6 6:38 7:83 8:128 
100000 1:32 2:79 3:54 4:804 5:51 6:18 7:45 8:17 
100000 1:22 2:51 3:23 4:200 5:7 6:5 7:21 8:8 
87602.383415816133 1:37 2:108 3:84 4:808 5:182 6:2 7:30 8:69 
100000 1:32 2:37 3:29 4:768 5:33 6:36 7:88 8:28 
100000 1:27 2:46 3:23 4:300 5:2 6:2 7:76 8:16 
9456.3026621733534 1:22 2:92 3:62 4:3116 5:251 6:110 7:100 8:19 
100000 1:32 2:51 3:45 4:316 5:4 6:39 7:28 8:35 
100000 1:27 2:38 3:37 4:228 5:13 6:17 7:9 8:20 
100000 1:27 2:115 3:243 4:948 5:2 6:12 7:58 8:36 
100000 1:37 2:163 3:8 4:436 5:25 6:2 7:9 8:2 
100000 1:37 2:203 3:162 4:1744 5:75 6:144 7:90 8:1 
100000 1:37 2:30 3:63 4:622 5:8 6:126 7:2 8:9 
100000 1:37 2:114 3:19 4:936 5:13 6:16 7:353 8:5 
79649.561503244156 1:22 2:78 3:88 4:456 5:3 6:9 7:64 8:28 
100000 1:27 2:262 3:236 4:1078 5:132 6:119 7:62 8:82 
100000 1:32 2:56 3:87 4:478 5:36 6:155 7:4 8:50 
100000 1:22 2:31 3:37 4:190 5:3 6:15 7:9 8:5 
100000 1:27 2:100 3:29 4:1000 5:10 6:1 7:264 8:18 
100000 1:22 2:23 3:22 4:117 5:0 6:0 7:0 8:3 
100000 1:27 2:37 3:72 4:412 5:12 6:3 7:6 8:25 
100000 1:32 2:121 3:74 4:672 5:25 6:34 7:15 8:18 
100000 1:22 2:33 3:35 4:204 5:2 6:27 7:46 8:28 
100000 1:32 2:36 3:58 4:425 5:23 6:109 7:7 8:11 
100000 1:37 2:78 3:32 4:450 5:25 6:14 7:108 8:1 
100000 1:32 2:60 3:50 4:339 5:21 6:19 7:30 8:15 
47055.441230979326 1:27 2:190 3:194 4:1184 5:14 6:21 7:33 8:46 
100000 1:32 2:192 3:5 4:356 5:16 6:1 7:0 8:0 
100000 1:37 2:144 3:216 4:884 5:13 6:0 7:90 8:104 
5256.9365564756499 1:32 2:145 3:270 4:2136 5:190 6:643 7:14 8:5 
100000 1:22 2:28 3:27 4:156 5:4 6:2 7:0 8:8 
100000 1:37 2:35 3:72 4:584 5:27 6:139 7:53 8:55 
100000 1:22 2:32 3:35 4:170 5:15 6:14 7:2 8:3 
100000 1:37 2:39 3:30 4:436 5:23 6:67 7:50 8:22 
100000 1:37 2:91 3:88 4:608 5:24 6:9 7:29 8:21 
100000 1:27 2:22 3:26 4:329 5:37 6:60 7:13 8:36 
100000 1:27 2:211 3:54 4:728 5:56 6:40 7:89 8:36 
100000 1:32 2:51 3:44 4:301 5:0 6:24 7:19 8:27 
100000 1:22 2:46 3:23 4:176 5:1 6:4 7:31 8:6 
100000 1:32 2:46 3:69 4:724 5:9 6:81 7:12 8:20 
100000 1:37 2:23 3:64 4:440 5:4 6:23 7:3 8:17 
100000 1:32 2:41 3:50 4:540 5:43 6:34 7:11 8:25 
100000 1:22 2:207 3:235 4:970 5:153 6:132 7:23 8:33 
100000 1:37 2:25 3:21 4:120 5:2 6:6 7:0 8:5 
100000 1:22 2:34 3:30 4:153 5:8 6:0 7:2 8:8 
100000 1:32 2:75 3:20 4:432 5:15 6:16 7:35 8:16 
100000 1:27 2:23 3:35 4:240 5:0 6:67 7:5 8:4 
100000 1:27 2:66 3:23 4:701 5:30 6:2 7:70 8:4 
100000 1:27 2:180 3:8 4:480 5:9 6:0 7:17 8:0 
100000 1:37 2:55 3:51 4:483 5:33 6:20 7:85 8:84 
100000 1:27 2:22 3:49 4:224 5:3 6:7 7:0 8:37 
36156.678249166034 1:37 2:71 3:209 4:2648 5:66 6:588 7:47 8:38 
100000 1:37 2:30 3:76 4:460 5:2 6:33 7:36 8:87 
100000 1:22 2:173 3:8 4:468 5:19 6:1 7:20 8:2 
100000 1:37 2:286 3:247 4:1540 5:42 6:36 7:169 8:88 
100000 1:37 2:16 3:137 4:1204 5:6 6:384 7:1 8:6 
100000 1:27 2:53 3:26 4:212 5:4 6:6 7:5 8:10 
100000 1:27 2:32 3:57 4:260 5:4 6:10 7:10 8:4 
100000 1:32 2:41 3:34 4:432 5:30 6:14 7:8 8:10 
100000 1:32 2:38 3:12 4:216 5:7 6:2 7:41 8:2 
72869.553744125777 1:37 2:155 3:154 4:1132 5:108 6:30 7:21 8:55 
100000 1:32 2:211 3:203 4:1152 5:81 6:20 7:29 8:84 
100000 1:32 2:61 3:33 4:289 5:7 6:6 7:99 8:12 
100000 1:22 2:21 3:49 4:272 5:3 6:23 7:5 8:7 
100000 1:37 2:72 3:67 4:574 5:46 6:107 7:8 8:0 
100000 1:37 2:39 3:30 4:280 5:19 6:17 7:24 8:2 
100000 1:37 2:11 3:13 4:235 5:18 6:20 7:20 8:26 
100000 1:27 2:23 3:24 4:156 5:9 6:2 7:2 8:6 
100000 1:37 2:24 3:71 4:688 5:5 6:145 7:8 8:30 
100000 1:32 2:85 3:149 4:2164 5:79 6:287 7:40 8:19 
100000 1:32 2:23 3:143 4:964 5:10 6:198 7:2 8:5 
77602.17567669593 1:22 2:35 3:51 4:340 5:25 6:36 7:2 8:2 
100000 1:32 2:37 3:24 4:155 5:16 6:36 7:19 8:11 
100000 1:22 2:44 3:43 4:191 5:17 6:21 7:5 8:8 
61669.327060592528 1:37 2:30 3:72 4:1572 5:49 6:221 7:32 8:130 
622.81672944620539 1:32 2:155 3:121 4:800 5:69 6:142 7:15 8:265 
9351.6135715338114 1:27 2:84 3:29 4:612 5:13 6:2 7:251 8:41 
100000 1:37 2:227 3:40 4:1144 5:74 6:9 7:29 8:39 
76174.619728573234 1:37 2:74 3:32 4:2868 5:238 6:54 7:256 8:93 
100000 1:22 2:33 3:50 4:291 5:7 6:51 7:7 8:9 
100000 1:22 2:30 3:41 4:273 5:8 6:48 7:9 8:8 
100000 1:27 2:22 3:65 4:516 5:4 6:117 7:4 8:1 
83865.169278848349 1:37 2:246 3:143 4:1740 5:65 6:48 7:84 8:125 
100000 1:37 2:29 3:176 4:1060 5:15 6:239 7:2 8:31 
100000 1:22 2:21 3:23 4:112 5:2 6:5 7:3 8:1 
100000 1:27 2:67 3:102 4:544 5:2 6:12 7:12 8:5 
100000 1:37 2:12 3:15 4:84 5:1 6:1 7:11 8:3 
100000 1:27 2:17 3:17 4:164 5:9 6:16 7:3 8:5 
100000 1:27 2:178 3:8 4:448 5:6 6:4 7:3 8:2 
100000 1:27 2:23 3:47 4:256 5:12 6:40 7:0 8:12 
34770.42859114179 1:27 2:177 3:248 4:1712 5:110 6:156 7:25 8:285 
100000 1:37 2:123 3:85 4:723 5:4 6:13 7:121 8:80 
100000 1:32 2:32 3:34 4:908 5:12 6:39 7:16 8:43 
100000 1:22 2:21 3:21 4:168 5:14 6:6 7:21 8:5 
100000 1:32 2:88 3:25 4:1000 5:0 6:1 7:248 8:7 
100000 1:27 2:46 3:31 4:224 5:13 6:9 7:39 8:3 
100000 1:27 2:56 3:59 4:351 5:27 6:1 7:8 8:0 
100000 1:32 2:26 3:54 4:296 5:2 6:56 7:7 8:18 
100000 1:37 2:23 3:74 4:636 5:5 6:51 7:1 8:63 
25459.224251878084 1:37 2:32 3:339 4:2720 5:6 6:34 7:2 8:19 
51266.290338275096 1:32 2:270 3:202 4:2180 5:154 6:413 7:28 8:45 
100000 1:32 2:38 3:24 4:187 5:13 6:5 7:37 8:11 
100000 1:32 2:55 3:63 4:504 5:12 6:32 7:7 8:18 
36084.054162998669 1:37 2:34 3:81 4:1092 5:31 6:5 7:44 8:68 
11444.062434712334 1:32 2:169 3:736 4:1900 5:130 6:471 7:160 8:665 
100000 1:22 2:26 3:48 4:308 5:4 6:45 7:1 8:0 
6420.342512828016 1:22 2:304 3:277 4:2096 5:312 6:330 7:56 8:203 
100000 1:27 2:37 3:44 4:372 5:8 6:12 7:0 8:18 
100000 1:22 2:18 3:27 4:208 5:4 6:4 7:1 8:2 
100000 1:22 2:40 3:48 4:300 5:9 6:9 7:67 8:11 
100000 1:32 2:25 3:70 4:560 5:10 6:61 7:3 8:48 
100000 1:32 2:21 3:111 4:1512 5:3 6:359 7:0 8:4 
100000 1:32 2:34 3:46 4:324 5:6 6:54 7:3 8:10 
100000 1:32 2:62 3:38 4:400 5:2 6:66 7:15 8:4 
100000 1:22 2:72 3:54 4:404 5:7 6:51 7:4 8:13 
100000 1:32 2:171 3:175 4:949 5:66 6:3 7:9 8:154 
100000 1:32 2:22 3:45 4:248 5:0 6:25 7:1 8:1 
100000 1:37 2:53 3:58 4:868 5:32 6:1 7:43 8:36 
100000 1:32 2:77 3:62 4:708 5:27 6:40 7:58 8:19 
100000 1:37 2:191 3:183 4:974 5:47 6:112 7:78 8:244 
100000 1:27 2:35 3:47 4:236 5:12 6:8 7:36 8:4 
39812.655011072573 1:37 2:56 3:102 4:828 5:40 6:124 7:19 8:87 
100000 1:37 2:87 3:48 4:503 5:1 6:2 7:98 8:9 
100000 1:22 2:59 3:36 4:304 5:11 6:9 7:52 8:28 
13588.060417037024 1:37 2:51 3:64 4:2292 5:9 6:108 7:85 8:41 
100000 1:27 2:48 3:63 4:369 5:13 6:34 7:9 8:20 
99009.221963439864 1:32 2:24 3:137 4:1372 5:20 6:465 7:1 8:18 
100000 1:37 2:73 3:225 4:888 5:14 6:13 7:0 8:50 
100000 1:37 2:186 3:32 4:1088 5:51 6:14 7:297 8:14 
100000 1:37 2:53 3:53 4:472 5:1 6:94 7:4 8:32 
100000 1:27 2:21 3:55 4:320 5:2 6:50 7:7 8:19 
100000 1:37 2:44 3:70 4:544 5:22 6:68 7:18 8:4 
100000 1:32 2:44 3:33 4:397 5:47 6:17 7:12 8:26 
100000 1:27 2:19 3:37 4:172 5:9 6:24 7:6 8:25 
100000 1:27 2:104 3:26 4:508 5:9 6:1 7:55 8:9 
100000 1:22 2:20 3:24 4:144 5:1 6:2 7:0 8:3 
5740.4375567331617 1:22 2:81 3:220 4:3120 5:129 6:661 7:68 8:7 
100000 1:32 2:49 3:105 4:661 5:7 6:6 7:1 8:22 
100000 1:27 2:108 3:106 4:612 5:87 6:32 7:1 8:9 
100000 1:32 2:21 3:19 4:180 5:32 6:13 7:26 8:0 
100000 1:22 2:28 3:36 4:172 5:6 6:1 7:0 8:5 
100000 1:32 2:64 3:57 4:332 5:9 6:5 7:5 8:5 
-100000 1:32 2:27 3:43 4:268 5:15 6:43 7:3 8:11 
-100000 1:32 2:22 3:35 4:224 5:1 6:3 7:20 8:15 
-100000 1:27 2:73 3:36 4:312 5:1 6:0 7:13 8:31 
-100000 1:32 2:51 3:56 4:276 5:2 6:38 7:0 8:46 
-100000 1:22 2:13 3:13 4:238 5:3 6:0 7:11 8:0 
-100000 1:32 2:32 3:66 4:289 5:14 6:26 7:0 8:5 
-100000 1:27 2:27 3:27 4:208 5:13 6:21 7:2 8:8 
-100000 1:22 2:121 3:74 4:672 5:25 6:34 7:15 8:18 
-100000 1:27 2:47 3:50 4:269 5:11 6:23 7:14 8:5 
-100000 1:37 2:20 3:84 4:885 5:30 6:268 7:7 8:0 
-100000 1:32 2:32 3:100 4:492 5:11 6:45 7:6 8:18 
-100000 1:27 2:42 3:35 4:211 5:0 6:19 7:38 8:9 
-100000 1:32 2:73 3:30 4:408 5:52 6:10 7:76 8:13 
-100000 1:37 2:113 3:214 4:1060 5:36 6:15 7:44 8:66 
-100000 1:32 2:108 3:43 4:584 5:60 6:21 7:2 8:6 
-100000 1:37 2:24 3:127 4:1419 5:37 6:449 7:1 8:8 
-100000 1:32 2:48 3:58 4:1200 5:34 6:50 7:25 8:12 
-100000 1:27 2:38 3:38 4:239 5:1 6:0 7:4 8:1 
-100000 1:37 2:35 3:23 4:885 5:14 6:0 7:19 8:7 
-100000 1:22 2:134 3:10 4:432 5:13 6:0 7:53 8:0 
-100000 1:22 2:281 3:257 4:1692 5:129 6:75 7:89 8:175 
-100000 1:22 2:25 3:26 4:132 5:5 6:9 7:3 8:15 
-100000 1:27 2:32 3:58 4:240 5:2 6:33 7:3 8:10 
-100000 1:37 2:42 3:50 4:475 5:9 6:14 7:25 8:32 
-100000 1:22 2:29 3:28 4:150 5:1 6:2 7:2 8:3 
-100000 1:32 2:31 3:54 4:284 5:3 6:1 7:0 8:6 
-100000 1:32 2:196 3:169 4:1652 5:140 6:109 7:6 8:152 
-100000 1:32 2:36 3:45 4:372 5:10 6:6 7:0 8:15 
-100000 1:37 2:50 3:50 4:328 5:31 6:32 7:103 8:14 
-100000 1:22 2:72 3:154 4:812 5:9 6:17 7:15 8:169 
-100000 1:37 2:48 3:19 4:763 5:90 6:25 7:133 8:21 
-100000 1:27 2:31 3:34 4:187 5:1 6:6 7:2 8:6 
-100000 1:37 2:110 3:101 4:469 5:45 6:36 7:90 8:18 
-100000 1:22 2:19 3:18 4:152 5:11 6:16 7:15 8:17 
-100000 1:37 2:24 3:23 4:268 5:55 6:51 7:60 8:53 
-66654.975677525654 1:37 2:112 3:273 4:2700 5:70 6:213 7:15 8:25 
-100000 1:27 2:16 3:15 4:176 5:13 6:5 7:14 8:8 
-100000 1:37 2:91 3:31 4:676 5:15 6:6 7:202 8:1 
-100000 1:37 2:101 3:15 4:756 5:11 6:9 7:245 8:4 
-100000 1:27 2:33 3:38 4:216 5:9 6:3 7:8 8:10 
-100000 1:22 2:11 3:14 4:80 5:5 6:8 7:0 8:0 
-100000 1:22 2:124 3:103 4:948 5:122 6:24 7:96 8:16 
-100000 1:27 2:27 3:53 4:312 5:1 6:5 7:12 8:1 
-100000 1:37 2:206 3:156 4:1068 5:93 6:96 7:44 8:31 
-100000 1:32 2:131 3:68 4:536 5:96 6:20 7:4 8:20 
-100000 1:32 2:49 3:19 4:478 5:15 6:1 7:112 8:11 
-83404.420258164915 1:22 2:190 3:6 4:492 5:1 6:0 7:41 8:2 
-100000 1:22 2:18 3:12 4:116 5:3 6:0 7:8 8:0 
-100000 1:32 2:38 3:48 4:320 5:1 6:10 7:55 8:7 
-100000 1:27 2:34 3:65 4:323 5:12 6:124 7:3 8:3 
-100000 1:32 2:45 3:41 4:409 5:4 6:32 7:5 8:21 
-100000 1:32 2:53 3:389 4:1020 5:21 6:72 7:13 8:38 
-100000 1:27 2:34 3:264 4:792 5:5 6:144 7:3 8:109 
-100000 1:32 2:42 3:242 4:928 5:15 6:42 7:3 8:56 
-100000 1:22 2:29 3:61 4:472 5:1 6:81 7:7 8:4 
-100000 1:22 2:21 3:14 4:116 5:3 6:5 7:7 8:2 
-100000 1:27 2:80 3:40 4:340 5:70 6:19 7:6 8:17 
-100000 1:27 2:174 3:33 4:624 5:34 6:4 7:28 8:3 
-100000 1:32 2:34 3:35 4:300 5:2 6:15 7:11 8:17 
-100000 1:32 2:288 3:204 4:1696 5:20 6:165 7:108 8:17 
-100000 1:22 2:166 3:8 4:464 5:5 6:1 7:42 8:2 
-100000 1:27 2:281 3:201 4:1720 5:16 6:163 7:124 8:9 
-100000 1:37 2:17 3:29 4:1016 5:13 6:63 7:12 8:34 
-100000 1:27 2:40 3:35 4:256 5:2 6:3 7:22 8:15 
-100000 1:37 2:83 3:18 4:579 5:10 6:6 7:104 8:23 
-100000 1:32 2:50 3:73 4:252 5:8 6:87 7:7 8:54 
-100000 1:32 2:78 3:48 4:224 5:38 6:6 7:119 8:48 
-100000 1:32 2:27 3:57 4:304 5:2 6:17 7:5 8:17 
-100000 1:27 2:22 3:32 4:176 5:3 6:12 7:1 8:10 
-100000 1:27 2:106 3:72 4:417 5:20 6:20 7:27 8:15 
-100000 1:37 2:197 3:17 4:704 5:8 6:61 7:16 8:11 
-100000 1:37 2:27 3:22 4:592 5:53 6:38 7:60 8:39 
-100000 1:27 2:42 3:43 4:233 5:7 6:2 7:2 8:22 
-100000 1:32 2:29 3:54 4:358 5:1 6:88 7:6 8:0 
-100000 1:22 2:30 3:28 4:129 5:1 6:0 7:0 8:0 
-46330.854759930589 1:22 2:79 3:374 4:1092 5:22 6:89 7:0 8:268 
-100000 1:37 2:124 3:20 4:856 5:17 6:11 7:405 8:7 
-100000 1:32 2:195 3:68 4:655 5:2 6:31 7:47 8:26 
-100000 1:37 2:32 3:96 4:535 5:1 6:88 7:2 8:9 
-100000 1:22 2:186 3:8 4:496 5:26 6:0 7:30 8:2 
-100000 1:32 2:32 3:53 4:310 5:13 6:79 7:7 8:1 
-100000 1:27 2:119 3:120 4:577 5:34 6:4 7:15 8:2 
-100000 1:32 2:100 3:95 4:552 5:49 6:69 7:20 8:68 
-100000 1:27 2:72 3:49 4:364 5:25 6:82 7:42 8:3 
-100000 1:27 2:104 3:101 4:592 5:0 6:23 7:50 8:7 
-100000 1:32 2:31 3:49 4:398 5:13 6:69 7:5 8:33 
-100000 1:27 2:286 3:264 4:1696 5:133 6:79 7:99 8:171 
-100000 1:27 2:51 3:31 4:283 5:5 6:1 7:76 8:6 
-100000 1:27 2:89 3:30 4:389 5:14 6:6 7:12 8:4 
-100000 1:27 2:22 3:29 4:184 5:0 6:2 7:4 8:6 
-100000 1:37 2:16 3:81 4:873 5:25 6:265 7:2 8:5 
-100000 1:37 2:27 3:143 4:952 5:0 6:27 7:2 8:1 
-100000 1:27 2:23 3:47 4:256 5:5 6:10 7:13 8:12 
-100000 1:22 2:20 3:13 4:156 5:0 6:1 7:6 8:4 
-100000 1:27 2:14 3:153 4:1617 5:22 6:445 7:3 8:2 
-100000 1:37 2:44 3:54 4:440 5:8 6:17 7:51 8:45 
-100000 1:22 2:38 3:29 4:168 5:1 6:7 7:32 8:1 
-100000 1:32 2:34 3:51 4:317 5:0 6:75 7:2 8:15 
-100000 1:37 2:150 3:90 4:1352 5:92 6:191 7:10 8:16 
-100000 1:37 2:49 3:60 4:524 5:5 6:4 7:19 8:20 
-100000 1:27 2:36 3:43 4:236 5:15 6:24 7:3 8:10 
-100000 1:32 2:159 3:147 4:872 5:31 6:36 7:7 8:1 
-100000 1:22 2:136 3:10 4:432 5:3 6:1 7:10 8:0 
-100000 1:27 2:32 3:94 4:338 5:2 6:89 7:2 8:1 
-100000 1:22 2:160 3:34 4:476 5:60 6:8 7:8 8:6 
-100000 1:22 2:11 3:13 4:82 5:2 6:0 7:4 8:3 
-100000 1:27 2:6 3:6 4:200 5:0 6:2 7:1 8:1 
-100000 1:37 2:94 3:83 4:644 5:43 6:10 7:220 8:72 
-100000 1:27 2:144 3:154 4:668 5:44 6:33 7:33 8:4 
-100000 1:27 2:27 3:57 4:304 5:2 6:17 7:5 8:17 
-100000 1:27 2:32 3:27 4:204 5:5 6:6 7:30 8:0 
-100000 1:32 2:11 3:17 4:284 5:1 6:13 7:8 8:4 
-100000 1:32 2:38 3:60 4:328 5:12 6:16 7:8 8:1 
-100000 1:27 2:74 3:32 4:322 5:2 6:1 7:68 8:3 
-100000 1:27 2:8 3:45 4:639 5:10 6:162 7:0 8:1 
-100000 1:32 2:108 3:96 4:501 5:12 6:20 7:27 8:41 
-100000 1:37 2:35 3:35 4:465 5:29 6:39 7:13 8:8 
-100000 1:32 2:41 3:59 4:288 5:4 6:7 7:19 8:19 
-100000 1:22 2:13 3:17 4:92 5:2 6:6 7:8 8:15 
-100000 1:37 2:22 3:137 4:1076 5:0 6:319 7:2 8:11 
-100000 1:32 2:41 3:46 4:304 5:18 6:27 7:33 8:24 
-100000 1:22 2:21 3:17 4:116 5:0 6:0 7:4 8:4 
-100000 1:27 2:40 3:52 4:277 5:6 6:33 7:0 8:13 
-100000 1:22 2:75 3:94 4:572 5:47 6:15 7:18 8:0 
-100000 1:37 2:111 3:90 4:672 5:84 6:27 7:46 8:50 
-89171.531011181767 1:22 2:272 3:216 4:1244 5:88 6:13 7:21 8:83 
-100000 1:37 2:277 3:206 4:1956 5:205 6:116 7:85 8:102 
-100000 1:27 2:30 3:42 4:184 5:5 6:12 7:0 8:0 
-51402.272742182526 1:37 2:43 3:55 4:329 5:1 6:46 7:13 8:36 
-100000 1:37 2:39 3:47 4:336 5:8 6:35 7:41 8:27 
-100000 1:27 2:47 3:28 4:324 5:1 6:3 7:10 8:10 
-100000 1:22 2:245 3:200 4:1260 5:12 6:40 7:74 8:91 
-100000 1:27 2:34 3:56 4:344 5:8 6:100 7:6 8:1 
-100000 1:32 2:55 3:65 4:439 5:1 6:1 7:26 8:34 
-100000 1:37 2:68 3:38 4:412 5:0 6:18 7:125 8:30 
-100000 1:37 2:105 3:96 4:722 5:47 6:40 7:73 8:114 
-100000 1:22 2:15 3:17 4:135 5:0 6:4 7:9 8:0 
-100000 1:22 2:29 3:29 4:150 5:14 6:0 7:2 8:4 
-100000 1:37 2:20 3:51 4:472 5:5 6:68 7:3 8:4 
-100000 1:22 2:120 3:30 4:408 5:49 6:0 7:49 8:4 
-100000 1:27 2:58 3:65 4:437 5:22 6:21 7:24 8:20 
-3793.41332459471 1:37 2:17 3:57 4:844 5:10 6:174 7:3 8:2 
-13698.185973718646 1:37 2:196 3:704 4:2064 5:61 6:491 7:68 8:664 
-100000 1:32 2:41 3:54 4:308 5:12 6:22 7:26 8:14 
-100000 1:22 2:12 3:15 4:82 5:0 6:5 7:1 8:2 
-100000 1:32 2:99 3:100 4:668 5:95 6:82 7:136 8:20 
-100000 1:22 2:18 3:19 4:90 5:0 6:4 7:5 8:1 
-100000 1:22 2:49 3:52 4:264 5:2 6:9 7:4 8:4 
-100000 1:22 2:26 3:47 4:212 5:5 6:6 7:0 8:13 
-100000 1:22 2:162 3:8 4:464 5:1 6:0 7:47 8:2 
-100000 1:22 2:13 3:12 4:81 5:5 6:3 7:3 8:6 
-100000 1:37 2:93 3:52 4:529 5:27 6:38 7:48 8:25 
-100000 1:22 2:53 3:85 4:368 5:24 6:16 7:5 8:5 
-92287.041935087647 1:37 2:281 3:257 4:1692 5:129 6:75 7:89 8:175 
-62359.055081649291 1:22 2:179 3:7 4:476 5:4 6:2 7:9 8:0 
-100000 1:27 2:28 3:28 4:238 5:7 6:0 7:1 8:2 
-100000 1:37 2:83 3:36 4:555 5:27 6:3 7:173 8:25 
-28240.868072014553 1:27 2:214 3:171 4:900 5:64 6:44 7:42 8:22 
-100000 1:37 2:28 3:61 4:400 5:29 6:146 7:11 8:48 
-100000 1:32 2:29 3:72 4:378 5:6 6:160 7:1 8:2 
-100000 1:27 2:215 3:152 4:893 5:80 6:0 7:76 8:55 
-100000 1:22 2:15 3:17 4:100 5:9 6:5 7:15 8:0 
-100000 1:27 2:138 3:103 4:557 5:2 6:18 7:56 8:54 
-100000 1:22 2:13 3:12 4:87 5:2 6:2 7:5 8:3 
-100000 1:22 2:18 3:15 4:112 5:4 6:3 7:1 8:3 
-100000 1:22 2:21 3:23 4:172 5:12 6:41 7:2 8:4 
-100000 1:27 2:84 3:64 4:394 5:12 6:8 7:6 8:10 
-100000 1:37 2:142 3:109 4:713 5:43 6:12 7:136 8:42 
-100000 1:27 2:23 3:23 4:212 5:5 6:5 7:2 8:1 
-100000 1:22 2:12 3:12 4:488 5:7 6:13 7:7 8:16 
-100000 1:37 2:81 3:45 4:985 5:17 6:2 7:231 8:117 
-100000 1:27 2:51 3:57 4:388 5:10 6:6 7:34 8:6 
-100000 1:22 2:49 3:280 4:784 5:10 6:1 7:62 8:72 
-100000 1:27 2:100 3:95 4:552 5:49 6:69 7:20 8:68 
-100000 1:37 2:85 3:67 4:576 5:14 6:4 7:30 8:8 
-100000 1:22 2:21 3:23 4:124 5:0 6:4 7:6 8:9 
-100000 1:27 2:225 3:207 4:1106 5:56 6:42 7:13 8:115 
-100000 1:22 2:55 3:28 4:184 5:5 6:24 7:4 8:6 
-100000 1:27 2:31 3:33 4:195 5:1 6:3 7:11 8:11 
-100000 1:37 2:19 3:56 4:812 5:8 6:172 7:4 8:2 
-100000 1:27 2:167 3:84 4:846 5:28 6:1 7:41 8:41 
-100000 1:22 2:82 3:48 4:324 5:21 6:4 7:6 8:3 
-100000 1:37 2:32 3:87 4:647 5:30 6:228 7:2 8:1 
-100000 1:22 2:36 3:24 4:289 5:22 6:1 7:55 8:4 
-100000 1:27 2:30 3:30 4:189 5:10 6:7 7:5 8:5 
-100000 1:32 2:32 3:50 4:277 5:12 6:62 7:3 8:3 
-100000 1:32 2:61 3:57 4:1376 5:47 6:29 7:50 8:34 
-100000 1:37 2:173 3:104 4:672 5:71 6:47 7:10 8:154 
-100000 1:32 2:266 3:208 4:2116 5:232 6:122 7:105 8:92 
-100000 1:37 2:23 3:28 4:272 5:18 6:47 7:23 8:40 
-100000 1:37 2:38 3:33 4:440 5:38 6:39 7:47 8:35 
-100000 1:27 2:29 3:16 4:152 5:3 6:4 7:25 8:30 
-83187.839245465701 1:32 2:96 3:24 4:388 5:63 6:8 7:25 8:2 
-100000 1:37 2:35 3:43 4:2104 5:15 6:47 7:19 8:53 
-100000 1:32 2:222 3:234 4:1224 5:123 6:72 7:57 8:180 
-100000 1:37 2:133 3:102 4:960 5:131 6:11 7:98 8:18 
-100000 1:37 2:23 3:56 4:388 5:2 6:78 7:1 8:31 
-100000 1:22 2:17 3:15 4:100 5:8 6:10 7:1 8:8 
-100000 1:27 2:38 3:32 4:235 5:4 6:2 7:42 8:14 
-100000 1:22 2:49 3:47 4:276 5:4 6:5 7:1 8:11 
-100000 1:22 2:58 3:27 4:260 5:12 6:6 7:3 8:11 
-100000 1:37 2:40 3:47 4:1000 5:30 6:21 7:34 8:25 
-100000 1:37 2:113 3:34 4:1412 5:3 6:14 7:239 8:63 
-100000 1:37 2:26 3:75 4:500 5:1 6:30 7:5 8:1 
-100000 1:32 2:56 3:340 4:1292 5:26 6:253 7:65 8:46 
-100000 1:32 2:34 3:19 4:288 5:3 6:17 7:74 8:0 
-92196.891348111953 1:37 2:77 3:142 4:559 5:16 6:33 7:23 8:25 
-100000 1:37 2:40 3:47 4:928 5:68 6:48 7:69 8:42 
-100000 1:32 2:37 3:58 4:360 5:27 6:62 7:6 8:9 
-100000 1:22 2:62 3:29 4:284 5:30 6:0 7:19 8:4 
-100000 1:27 2:40 3:35 4:215 5:19 6:9 7:3 8:12 
-100000 1:27 2:25 3:25 4:152 5:19 6:14 7:5 8:9 
-100000 1:22 2:46 3:32 4:208 5:1 6:1 7:35 8:20 
-100000 1:37 2:189 3:16 4:1172 5:7 6:4 7:174 8:2 
-100000 1:32 2:26 3:37 4:240 5:7 6:9 7:19 8:11 
-100000 1:22 2:11 3:13 4:77 5:4 6:0 7:1 8:8 
-100000 1:27 2:30 3:29 4:194 5:2 6:13 7:4 8:14 
-36185.077933707842 1:32 2:31 3:13 4:268 5:3 6:0 7:44 8:10 
-100000 1:37 2:57 3:65 4:2480 5:99 6:67 7:88 8:74 
-100000 1:27 2:43 3:34 4:212 5:10 6:1 7:18 8:10 
-14942.712266954362 1:22 2:16 3:12 4:92 5:6 6:1 7:2 8:2 
-100000 1:22 2:169 3:4 4:444 5:56 6:5 7:21 8:0 
-100000 1:27 2:96 3:33 4:344 5:4 6:0 7:23 8:14 
-100000 1:27 2:35 3:52 4:368 5:25 6:33 7:4 8:5 
-100000 1:27 2:84 3:165 4:768 5:36 6:18 7:27 8:86 
-100000 1:37 2:69 3:57 4:448 5:17 6:27 7:14 8:12 
-100000 1:22 2:11 3:13 4:92 5:2 6:0 7:3 8:0 
-70034.91116881436 1:37 2:72 3:158 4:2620 5:189 6:512 7:16 8:58 
-100000 1:32 2:20 3:53 4:284 5:0 6:25 7:5 8:1 
-100000 1:22 2:10 3:15 4:230 5:14 6:27 7:11 8:31 
-100000 1:22 2:19 3:13 4:112 5:6 6:2 7:4 8:2 
-100000 1:37 2:103 3:96 4:796 5:31 6:3 7:27 8:3 
-100000 1:27 2:16 3:20 4:140 5:8 6:2 7:4 8:12 
-100000 1:22 2:18 3:14 4:92 5:4 6:4 7:7 8:1 
-100000 1:22 2:24 3:15 4:103 5:6 6:2 7:6 8:7 
-100000 1:32 2:62 3:15 4:484 5:2 6:0 7:187 8:6 
-100000 1:32 2:40 3:45 4:532 5:0 6:8 7:1 8:11 
-100000 1:37 2:28 3:44 4:508 5:76 6:145 7:43 8:82 
-100000 1:32 2:49 3:95 4:522 5:13 6:61 7:2 8:72 
-15032.207387035331 1:37 2:63 3:512 4:1152 5:17 6:127 7:75 8:60 
-100000 1:32 2:44 3:84 4:464 5:19 6:98 7:21 8:42 
-34255.004073644508 1:37 2:42 3:302 4:952 5:8 6:49 7:10 8:224 
-100000 1:27 2:38 3:34 4:524 5:36 6:35 7:34 8:31 
-100000 1:32 2:52 3:18 4:316 5:20 6:2 7:51 8:7 
-100000 1:27 2:41 3:50 4:236 5:3 6:2 7:29 8:11 
-100000 1:22 2:41 3:42 4:248 5:5 6:3 7:30 8:26 
-100000 1:27 2:30 3:48 4:267 5:2 6:75 7:8 8:6 
-100000 1:37 2:28 3:57 4:613 5:6 6:119 7:2 8:6 
-100000 1:37 2:43 3:66 4:412 5:0 6:48 7:4 8:7 
-100000 1:37 2:47 3:59 4:461 5:45 6:51 7:8 8:12 
-100000 1:22 2:81 3:48 4:380 5:13 6:4 7:16 8:8 
-100000 1:32 2:54 3:50 4:372 5:3 6:22 7:2 8:56 
-100000 1:22 2:133 3:10 4:432 5:0 6:1 7:29 8:1 
-100000 1:37 2:116 3:29 4:672 5:30 6:12 7:252 8:28 
-100000 1:32 2:35 3:49 4:272 5:8 6:9 7:41 8:7 
-100000 1:32 2:45 3:28 4:330 5:2 6:0 7:71 8:2 
-100000 1:37 2:21 3:67 4:452 5:1 6:35 7:3 8:24 
-15420.010006260534 1:37 2:36 3:62 4:304 5:9 6:26 7:60 8:17 
-100000 1:37 2:45 3:92 4:710 5:63 6:270 7:50 8:84 
-100000 1:32 2:32 3:39 4:2036 5:26 6:64 7:16 8:39 
-100000 1:32 2:64 3:34 4:339 5:64 6:22 7:3 8:13 
-100000 1:22 2:77 3:42 4:352 5:74 6:2 7:10 8:25 
-100000 1:37 2:33 3:87 4:949 5:2 6:217 7:2 8:5 
-100000 1:27 2:77 3:16 4:317 5:10 6:0 7:125 8:4 
-100000 1:32 2:34 3:53 4:416 5:12 6:98 7:3 8:2 
-100000 1:37 2:74 3:48 4:465 5:65 6:39 7:30 8:19 
-100000 1:32 2:124 3:36 4:444 5:70 6:16 7:106 8:26 
-100000 1:32 2:21 3:112 4:992 5:1 6:216 7:0 8:3 
-100000 1:22 2:20 3:23 4:120 5:1 6:4 7:0 8:0 
-93260.902798651892 1:37 2:112 3:99 4:528 5:181 6:7 7:0 8:10 
-100000 1:22 2:74 3:44 4:296 5:7 6:7 7:8 8:11 
-100000 1:37 2:23 3:68 4:484 5:0 6:37 7:8 8:37 
-100000 1:37 2:14 3:51 4:828 5:15 6:144 7:5 8:59 
-100000 1:32 2:56 3:14 4:444 5:14 6:0 7:165 8:3 
-100000 1:27 2:15 3:18 4:156 5:1 6:15 7:1 8:4 
-100000 1:32 2:58 3:58 4:387 5:26 6:30 7:21 8:12 
-100000 1:27 2:30 3:39 4:196 5:1 6:5 7:1 8:1 
-100000 1:37 2:21 3:146 4:1863 5:51 6:535 7:3 8:1 
-100000 1:37 2:70 3:153 4:540 5:39 6:75 7:13 8:92 
-100000 1:37 2:66 3:192 4:1340 5:12 6:162 7:19 8:36 
-100000 1:27 2:32 3:68 4:352 5:1 6:102 7:5 8:1 
-100000 1:32 2:43 3:58 4:320 5:4 6:54 7:5 8:12 
-100000 1:32 2:71 3:53 4:2876 5:191 6:85 7:230 8:83 
-100000 1:37 2:103 3:20 4:1232 5:2 6:2 7:328 8:4 
-100000 1:27 2:37 3:33 4:492 5:31 6:29 7:30 8:22 
-100000 1:37 2:115 3:273 4:2512 5:60 6:180 7:1 8:6 
-100000 1:27 2:102 3:61 4:583 5:7 6:30 7:1 8:7 
-100000 1:37 2:95 3:97 4:684 5:7 6:1 7:15 8:89 
-100000 1:32 2:22 3:26 4:524 5:20 6:51 7:0 8:36 
-100000 1:22 2:20 3:21 4:118 5:0 6:0 7:6 8:2 
-100000 1:32 2:21 3:126 4:1036 5:1 6:64 7:0 8:2 
-100000 1:37 2:37 3:24 4:597 5:0 6:13 7:105 8:53 
-100000 1:37 2:82 3:69 4:520 5:47 6:29 7:38 8:12 
-20915.011293188953 1:37 2:98 3:15 4:932 5:15 6:3 7:274 8:0 
-100000 1:27 2:104 3:26 4:564 5:0 6:0 7:146 8:1 
-100000 1:27 2:21 3:40 4:284 5:0 6:30 7:2 8:12 
-100000 1:27 2:58 3:66 4:447 5:43 6:32 7:12 8:80 
-100000 1:32 2:33 3:65 4:255 5:12 6:55 7:1 8:21 
-50821.146590858247 1:32 2:265 3:259 4:1424 5:14 6:226 7:46 8:38 
-100000 1:37 2:66 3:26 4:508 5:21 6:12 7:122 8:30 
-100000 1:27 2:27 3:21 4:212 5:8 6:0 7:21 8:10 
-100000 1:27 2:83 3:69 4:488 5:20 6:2 7:22 8:0 
-100000 1:32 2:84 3:85 4:636 5:51 6:27 7:33 8:33 
-65344.368431991694 1:37 2:76 3:278 4:804 5:68 6:7 7:119 8:36 
-100000 1:32 2:30 3:39 4:261 5:8 6:34 7:7 8:2 
-100000 1:32 2:45 3:31 4:236 5:29 6:12 7:52 8:16 
-100000 1:37 2:97 3:103 4:836 5:33 6:21 7:10 8:25 
-100000 1:22 2:37 3:78 4:348 5:2 6:30 7:13 8:49 
-100000 1:37 2:35 3:19 4:508 5:5 6:4 7:122 8:51 
-14230.939789599235 1:32 2:27 3:37 4:216 5:0 6:43 7:18 8:10 
-100000 1:32 2:22 3:58 4:376 5:5 6:15 7:0 8:5 
-100000 1:27 2:119 3:41 4:392 5:57 6:1 7:33 8:18 
-100000 1:27 2:66 3:42 4:313 5:0 6:2 7:30 8:4 
-100000 1:22 2:31 3:30 4:175 5:5 6:8 7:0 8:0 
-100000 1:22 2:40 3:60 4:276 5:1 6:5 7:40 8:8 
-100000 1:32 2:14 3:58 4:580 5:7 6:78 7:0 8:10 
-100000 1:32 2:36 3:46 4:766 5:14 6:41 7:18 8:54 
