svm_type c_svc
kernel_type rbf
gamma 2.0000000000000001e-09
nr_class 2
total_sv 667
rho 146.19137793082365
label 1 0
probA -0.76136549664486686
probB 0.042815444941778809
nr_sv 342 325
SV
100000 1:22 2:2482 3:36 4:78 5:664 6:30 7:81 
100000 1:22 2:200 3:16 4:14 5:160 6:27 7:2 
100000 1:32 2:11480 3:211 4:190 5:1172 6:141 7:192 
61207.03288525399 1:27 2:12154 3:101 4:39 5:840 6:155 7:38 
100000 1:22 2:2898 3:74 4:71 5:436 6:66 7:53 
100000 1:22 2:5319 3:57 4:100 5:670 6:83 7:20 
100000 1:22 2:5241 3:91 4:127 5:900 6:107 7:104 
100000 1:32 2:13894 3:197 4:88 5:2292 6:698 7:272 
100000 1:22 2:182 3:11 4:8 5:172 6:23 7:9 
100000 1:22 2:270 3:19 4:22 5:172 6:8 7:30 
100000 1:22 2:627 3:36 4:24 5:216 6:16 7:4 
34589.538545544565 1:22 2:48050 3:348 4:265 5:2444 6:141 7:148 
100000 1:37 2:15932 3:108 4:125 5:1212 6:168 7:165 
100000 1:32 2:24133 3:106 4:58 5:716 6:272 7:90 
100000 1:37 2:17508 3:190 4:74 5:1948 6:276 7:3 
100000 1:32 2:1704 3:36 4:94 5:500 6:9 7:138 
100000 1:32 2:2852 3:50 4:67 5:364 6:46 7:31 
21688.324932653286 1:32 2:75049 3:473 4:104 5:2764 6:85 7:157 
11606.644655825508 1:27 2:40175 3:181 4:340 5:1924 6:543 7:784 
100000 1:27 2:2756 3:44 4:30 5:404 6:82 7:39 
100000 1:27 2:382 3:11 4:26 5:264 6:11 7:60 
100000 1:27 2:2182 3:76 4:64 5:452 6:28 7:38 
100000 1:32 2:2181 3:41 4:51 5:604 6:114 7:16 
100000 1:32 2:8137 3:108 4:168 5:1120 6:131 7:80 
90960.201212154134 1:32 2:19213 3:64 4:186 5:2596 6:163 7:575 
100000 1:22 2:110 3:14 4:16 5:92 6:12 7:9 
100000 1:22 2:1894 3:60 4:14 5:330 6:0 7:3 
100000 1:37 2:9938 3:102 4:209 5:1384 6:170 7:358 
85588.69034871638 1:32 2:24784 3:318 4:105 5:1628 6:314 7:254 
100000 1:22 2:3756 3:52 4:145 5:660 6:57 7:290 
100000 1:22 2:154 3:20 4:9 5:144 6:29 7:1 
100000 1:22 2:970 3:50 4:32 5:496 6:75 7:15 
100000 1:32 2:14224 3:170 4:132 5:1828 6:522 7:68 
100000 1:22 2:3536 3:80 4:59 5:460 6:53 7:115 
100000 1:27 2:2689 3:58 4:74 5:496 6:94 7:44 
100000 1:37 2:9111 3:95 4:139 5:984 6:178 7:152 
283.81445934004813 1:27 2:81752 3:344 4:168 5:3388 6:439 7:128 
100000 1:22 2:218 3:16 4:30 5:192 6:1 7:50 
100000 1:22 2:3657 3:45 4:37 5:296 6:100 7:78 
100000 1:22 2:893 3:23 4:27 5:232 6:51 7:57 
100000 1:32 2:8802 3:106 4:49 5:884 6:18 7:18 
100000 1:27 2:8193 3:124 4:162 5:792 6:76 7:165 
100000 1:22 2:199 3:10 4:22 5:180 6:27 7:38 
23726.940742099901 1:32 2:52631 3:246 4:422 5:2688 6:321 7:151 
100000 1:32 2:15144 3:116 4:277 5:1568 6:106 7:170 
77422.164148637385 1:22 2:37338 3:121 4:113 5:1492 6:250 7:199 
100000 1:22 2:13506 3:154 4:67 5:916 6:12 7:74 
100000 1:22 2:5037 3:78 4:108 5:820 6:68 7:203 
53246.286685465078 1:37 2:7093 3:122 4:86 5:940 6:327 7:225 
100000 1:27 2:5725 3:82 4:62 5:756 6:92 7:143 
96255.958618648539 1:32 2:21171 3:115 4:235 5:1864 6:5 7:716 
100000 1:32 2:26845 3:164 4:48 5:3096 6:426 7:94 
100000 1:27 2:4773 3:69 4:96 5:680 6:72 7:33 
100000 1:27 2:9192 3:61 4:138 5:976 6:122 7:24 
100000 1:37 2:6525 3:105 4:128 5:940 6:140 7:182 
100000 1:32 2:6868 3:107 4:77 5:760 6:139 7:30 
100000 1:27 2:10405 3:105 4:108 5:1112 6:204 7:69 
100000 1:22 2:5672 3:118 4:54 5:756 6:144 7:62 
83279.218596879844 1:37 2:39797 3:240 4:381 5:2268 6:216 7:497 
100000 1:22 2:250 3:11 4:17 5:152 6:25 7:46 
100000 1:22 2:326 3:20 4:16 5:152 6:4 7:11 
39973.497870708256 1:37 2:37367 3:189 4:319 5:2624 6:433 7:793 
100000 1:22 2:15038 3:111 4:194 5:1148 6:113 7:139 
100000 1:27 2:1103 3:55 4:21 5:588 6:140 7:10 
100000 1:27 2:2779 3:62 4:68 5:520 6:35 7:104 
100000 1:22 2:1976 3:49 4:55 5:518 6:126 7:139 
100000 1:22 2:3134 3:58 4:81 5:900 6:4 7:194 
10165.154672457922 1:27 2:19109 3:115 4:179 5:1276 6:48 7:99 
100000 1:22 2:13033 3:143 4:75 5:948 6:9 7:33 
100000 1:22 2:282 3:10 4:36 5:160 6:0 7:29 
100000 1:22 2:2472 3:46 4:91 5:704 6:1 7:230 
100000 1:22 2:1404 3:44 4:61 5:408 6:2 7:43 
100000 1:22 2:161 3:9 4:18 5:156 6:3 7:2 
100000 1:32 2:3110 3:49 4:102 5:552 6:14 7:46 
100000 1:37 2:14538 3:141 4:61 5:2344 6:117 7:51 
100000 1:22 2:14862 3:28 4:409 5:1220 6:70 7:23 
100000 1:32 2:21132 3:150 4:130 5:1312 6:17 7:62 
100000 1:22 2:576 3:21 4:30 5:244 6:43 7:43 
100000 1:32 2:2907 3:45 4:103 5:648 6:2 7:63 
100000 1:22 2:2439 3:65 4:66 5:408 6:26 7:77 
100000 1:22 2:2766 3:85 4:49 5:616 6:140 7:107 
100000 1:32 2:8249 3:107 4:181 5:992 6:77 7:254 
100000 1:32 2:11358 3:70 4:83 5:564 6:83 7:150 
100000 1:22 2:182 3:12 4:18 5:128 6:2 7:10 
100000 1:32 2:3023 3:42 4:94 5:672 6:90 7:272 
100000 1:22 2:2859 3:90 4:38 5:584 6:18 7:17 
100000 1:37 2:5714 3:58 4:81 5:1084 6:82 7:186 
100000 1:22 2:1369 3:42 4:52 5:340 6:107 7:96 
100000 1:22 2:2200 3:27 4:131 5:512 6:4 7:47 
100000 1:32 2:4998 3:46 4:95 5:616 6:8 7:86 
57249.745362388428 1:27 2:29856 3:268 4:168 5:2752 6:50 7:59 
100000 1:32 2:35219 3:104 4:472 5:1836 6:211 7:172 
100000 1:22 2:315 3:19 4:25 5:236 6:48 7:12 
100000 1:27 2:3025 3:69 4:87 5:552 6:178 7:21 
100000 1:27 2:2160 3:26 4:55 5:644 6:76 7:175 
100000 1:22 2:1727 3:17 4:65 5:596 6:14 7:215 
100000 1:32 2:27034 3:221 4:235 5:1932 6:32 7:108 
100000 1:22 2:427 3:21 4:15 5:256 6:52 7:43 
100000 1:32 2:3970 3:33 4:99 5:1008 6:14 7:10 
100000 1:37 2:4803 3:91 4:85 5:644 6:5 7:18 
100000 1:22 2:1215 3:30 4:19 5:168 6:26 7:38 
62442.322192574589 1:22 2:44872 3:139 4:367 5:2476 6:296 7:536 
53071.932020523651 1:27 2:12912 3:115 4:112 5:1484 6:153 7:108 
100000 1:27 2:701 3:30 4:21 5:180 6:2 7:20 
100000 1:22 2:2529 3:46 4:99 5:780 6:32 7:154 
100000 1:27 2:11348 3:62 4:298 5:1272 6:42 7:405 
100000 1:22 2:671 3:10 4:57 5:361 6:9 7:46 
100000 1:22 2:333 3:22 4:31 5:172 6:8 7:19 
100000 1:22 2:1102 3:30 4:52 5:332 6:13 7:31 
100000 1:22 2:3404 3:51 4:94 5:620 6:57 7:34 
100000 1:32 2:6628 3:141 4:19 5:1392 6:162 7:16 
91912.507566702523 1:37 2:44638 3:124 4:258 5:2188 6:239 7:615 
100000 1:22 2:14201 3:131 4:104 5:2416 6:228 7:204 
6952.3292237994883 1:37 2:43414 3:274 4:239 5:2368 6:14 7:799 
100000 1:27 2:37184 3:143 4:212 5:2696 6:135 7:621 
100000 1:22 2:2324 3:54 4:79 5:612 6:50 7:89 
100000 1:27 2:232 3:10 4:24 5:168 6:21 7:51 
100000 1:32 2:9766 3:58 4:213 5:1132 6:89 7:295 
100000 1:22 2:27237 3:230 4:123 5:1324 6:95 7:246 
100000 1:22 2:4311 3:47 4:54 5:436 6:113 7:3 
100000 1:27 2:41342 3:177 4:193 5:1304 6:62 7:27 
9566.3445340211256 1:22 2:23390 3:91 4:132 5:968 6:199 7:344 
100000 1:32 2:25000 3:199 4:240 5:1524 6:132 7:67 
100000 1:27 2:1216 3:52 4:44 5:496 6:104 7:89 
83960.168865029817 1:22 2:6203 3:115 4:83 5:1364 6:303 7:36 
100000 1:22 2:272 3:13 4:26 5:200 6:31 7:17 
100000 1:37 2:2123 3:33 4:46 5:496 6:4 7:41 
100000 1:32 2:1059 3:51 4:52 5:476 6:152 7:40 
46311.753913840781 1:22 2:5325 3:82 4:64 5:552 6:93 7:163 
100000 1:27 2:3164 3:73 4:40 5:616 6:111 7:16 
100000 1:22 2:970 3:38 4:24 5:396 6:63 7:37 
100000 1:27 2:5781 3:157 4:84 5:780 6:103 7:89 
100000 1:27 2:5320 3:69 4:33 5:888 6:55 7:74 
100000 1:22 2:2055 3:40 4:65 5:348 6:7 7:30 
100000 1:22 2:505 3:35 4:41 5:244 6:10 7:51 
100000 1:27 2:1042 3:41 4:29 5:300 6:53 7:15 
100000 1:22 2:252 3:12 4:23 5:160 6:8 7:62 
100000 1:22 2:1564 3:60 4:59 5:360 6:10 7:29 
100000 1:22 2:255 3:13 4:20 5:224 6:24 7:46 
100000 1:27 2:5829 3:62 4:69 5:692 6:44 7:140 
100000 1:32 2:3596 3:68 4:62 5:416 6:148 7:152 
53961.724990169598 1:22 2:5815 3:56 4:34 5:356 6:162 7:56 
100000 1:37 2:8992 3:74 4:44 5:1576 6:196 7:52 
100000 1:22 2:462 3:30 4:34 5:240 6:11 7:17 
100000 1:27 2:5003 3:66 4:99 5:504 6:4 7:154 
100000 1:22 2:1212 3:31 4:40 5:488 6:91 7:96 
100000 1:22 2:4139 3:45 4:15 5:300 6:94 7:34 
100000 1:27 2:553 3:36 4:24 5:244 6:60 7:30 
100000 1:27 2:44441 3:233 4:478 5:2264 6:69 7:82 
100000 1:32 2:794 3:29 4:59 5:328 6:21 7:45 
100000 1:37 2:11547 3:96 4:58 5:1004 6:225 7:119 
100000 1:27 2:10637 3:69 4:161 5:884 6:92 7:239 
100000 1:32 2:7362 3:115 4:163 5:980 6:166 7:371 
100000 1:27 2:541 3:21 4:21 5:368 6:35 7:28 
100000 1:27 2:2787 3:78 4:43 5:608 6:34 7:20 
100000 1:32 2:9577 3:110 4:120 5:1024 6:193 7:68 
100000 1:22 2:6128 3:72 4:70 5:630 6:102 7:1 
100000 1:32 2:2877 3:59 4:103 5:744 6:9 7:192 
100000 1:27 2:33194 3:126 4:104 5:1768 6:258 7:61 
100000 1:27 2:6239 3:57 4:180 5:880 6:73 7:272 
100000 1:22 2:635 3:25 4:27 5:156 6:7 7:26 
100000 1:22 2:18456 3:119 4:173 5:880 6:155 7:41 
100000 1:22 2:10166 3:137 4:114 5:960 6:158 7:5 
100000 1:27 2:32332 3:160 4:320 5:2048 6:190 7:729 
100000 1:27 2:11151 3:161 4:156 5:1100 6:227 7:174 
100000 1:22 2:1864 3:14 4:90 5:320 6:13 7:13 
100000 1:37 2:25120 3:148 4:125 5:1136 6:171 7:165 
100000 1:22 2:245 3:19 4:20 5:144 6:15 7:28 
100000 1:22 2:34010 3:151 4:453 5:2236 6:213 7:860 
100000 1:27 2:7396 3:53 4:132 5:1724 6:145 7:463 
100000 1:27 2:2732 3:40 4:76 5:608 6:57 7:187 
100000 1:22 2:6121 3:43 4:86 5:1000 6:66 7:70 
100000 1:27 2:11689 3:136 4:106 5:616 6:76 7:189 
100000 1:22 2:3637 3:46 4:24 5:228 6:11 7:6 
100000 1:27 2:1163 3:35 4:55 5:332 6:39 7:39 
100000 1:27 2:5588 3:99 4:34 5:508 6:107 7:47 
100000 1:22 2:6017 3:97 4:85 5:636 6:54 7:93 
100000 1:22 2:203 3:23 4:8 5:184 6:21 7:1 
100000 1:22 2:3046 3:45 4:33 5:448 6:8 7:26 
100000 1:22 2:9383 3:99 4:167 5:948 6:30 7:49 
100000 1:22 2:4961 3:101 4:115 5:756 6:66 7:0 
100000 1:32 2:27625 3:117 4:316 5:1660 6:198 7:295 
100000 1:22 2:952 3:28 4:81 5:303 6:25 7:35 
100000 1:37 2:30702 3:150 4:275 5:1824 6:167 7:493 
100000 1:32 2:30418 3:207 4:313 5:1540 6:249 7:194 
100000 1:22 2:14291 3:145 4:119 5:1036 6:48 7:158 
100000 1:27 2:3843 3:100 4:103 5:720 6:113 7:22 
100000 1:27 2:7640 3:192 4:57 5:1184 6:223 7:65 
100000 1:27 2:16516 3:46 4:386 5:1252 6:4 7:112 
100000 1:22 2:2123 3:48 4:28 5:420 6:46 7:36 
100000 1:22 2:1530 3:32 4:48 5:335 6:46 7:74 
100000 1:27 2:3002 3:70 4:75 5:560 6:29 7:6 
100000 1:27 2:3470 3:62 4:67 5:500 6:97 7:122 
100000 1:27 2:4700 3:64 4:60 5:556 6:151 7:97 
100000 1:22 2:2295 3:59 4:67 5:444 6:34 7:51 
100000 1:22 2:16241 3:94 4:150 5:1036 6:4 7:281 
100000 1:37 2:7735 3:60 4:142 5:792 6:46 7:118 
70108.974371030796 1:27 2:29846 3:127 4:73 5:2880 6:348 7:90 
2295.9071671918064 1:37 2:85647 3:253 4:480 5:3088 6:467 7:1337 
100000 1:22 2:1461 3:31 4:71 5:358 6:23 7:6 
89743.658815512259 1:32 2:17819 3:130 4:158 5:1400 6:115 7:194 
100000 1:37 2:4542 3:43 4:66 5:640 6:44 7:39 
18817.393093684284 1:22 2:29020 3:389 4:158 5:2268 6:1027 7:393 
100000 1:22 2:25711 3:406 4:28 5:1704 6:63 7:4 
100000 1:22 2:3339 3:86 4:104 5:601 6:31 7:32 
100000 1:37 2:2571 3:39 4:63 5:684 6:8 7:96 
100000 1:27 2:2586 3:53 4:30 5:504 6:134 7:63 
100000 1:32 2:14004 3:149 4:129 5:1680 6:457 7:233 
100000 1:27 2:2442 3:46 4:40 5:580 6:64 7:83 
100000 1:37 2:30247 3:283 4:122 5:2024 6:256 7:64 
36662.514965766066 1:32 2:22289 3:157 4:314 5:1500 6:452 7:0 
100000 1:27 2:1539 3:18 4:60 5:540 6:20 7:108 
100000 1:22 2:11298 3:137 4:96 5:840 6:147 7:102 
100000 1:32 2:9819 3:158 4:148 5:1068 6:18 7:75 
3979.4332040083345 1:27 2:15196 3:140 4:154 5:1852 6:229 7:134 
100000 1:27 2:186 3:12 4:21 5:136 6:9 7:10 
100000 1:32 2:7021 3:104 4:120 5:1152 6:2 7:118 
100000 1:27 2:530 3:23 4:33 5:184 6:19 7:19 
100000 1:27 2:1550 3:76 4:42 5:460 6:54 7:45 
100000 1:27 2:10710 3:159 4:95 5:1384 6:137 7:71 
100000 1:22 2:735 3:46 4:34 5:368 6:98 7:3 
100000 1:32 2:1333 3:59 4:66 5:416 6:65 7:109 
100000 1:32 2:2156 3:79 4:71 5:532 6:44 7:108 
100000 1:32 2:19105 3:101 4:187 5:1156 6:53 7:42 
100000 1:27 2:9478 3:75 4:100 5:704 6:147 7:189 
100000 1:22 2:4174 3:44 4:136 5:828 6:42 7:194 
100000 1:22 2:8502 3:61 4:198 5:1076 6:65 7:184 
100000 1:27 2:39522 3:57 4:571 5:2508 6:53 7:38 
100000 1:32 2:7699 3:33 4:153 5:1496 6:54 7:207 
100000 1:32 2:16232 3:134 4:202 5:1464 6:64 7:29 
74478.830305662501 1:22 2:12182 3:89 4:142 5:780 6:163 7:276 
100000 1:22 2:1102 3:32 4:44 5:308 6:2 7:6 
100000 1:27 2:2705 3:38 4:74 5:444 6:2 7:65 
100000 1:22 2:1725 3:24 4:81 5:416 6:45 7:34 
100000 1:22 2:512 3:16 4:56 5:236 6:5 7:10 
66899.130448302836 1:37 2:29222 3:132 4:51 5:792 6:286 7:107 
100000 1:22 2:532 3:20 4:35 5:240 6:58 7:36 
100000 1:22 2:7730 3:62 4:80 5:1364 6:94 7:71 
100000 1:32 2:18356 3:105 4:78 5:936 6:171 7:224 
100000 1:32 2:29540 3:296 4:228 5:1748 6:237 7:33 
100000 1:22 2:4776 3:16 4:207 5:840 6:1 7:58 
100000 1:27 2:6279 3:95 4:77 5:1288 6:297 7:56 
100000 1:27 2:2582 3:65 4:74 5:620 6:117 7:7 
100000 1:32 2:32015 3:129 4:313 5:1880 6:221 7:721 
100000 1:27 2:4399 3:42 4:117 5:780 6:4 7:145 
100000 1:27 2:6785 3:102 4:124 5:944 6:149 7:210 
100000 1:22 2:121 3:6 4:14 5:140 6:9 7:15 
100000 1:27 2:659 3:32 4:23 5:244 6:69 7:39 
100000 1:27 2:2658 3:47 4:65 5:460 6:74 7:91 
100000 1:27 2:1055 3:64 4:38 5:388 6:39 7:100 
100000 1:27 2:10294 3:172 4:82 5:1212 6:224 7:134 
100000 1:22 2:183 3:20 4:18 5:148 6:42 7:2 
100000 1:32 2:36883 3:166 4:470 5:2352 6:113 7:580 
100000 1:22 2:2117 3:54 4:55 5:360 6:30 7:25 
2046.1986357630412 1:32 2:22921 3:173 4:155 5:2836 6:506 7:120 
100000 1:22 2:1425 3:23 4:71 5:388 6:35 7:37 
100000 1:37 2:5606 3:74 4:123 5:1088 6:70 7:251 
100000 1:32 2:1728 3:39 4:45 5:536 6:90 7:83 
13227.04531949999 1:27 2:47727 3:236 4:421 5:2420 6:270 7:657 
100000 1:32 2:2031 3:47 4:74 5:504 6:4 7:104 
100000 1:37 2:5417 3:60 4:134 5:900 6:85 7:59 
100000 1:22 2:2611 3:29 4:27 5:348 6:50 7:27 
100000 1:27 2:1552 3:45 4:74 5:464 6:14 7:206 
100000 1:22 2:727 3:24 4:22 5:356 6:51 7:13 
100000 1:32 2:14794 3:79 4:257 5:1188 6:66 7:186 
100000 1:37 2:2650 3:63 4:63 5:764 6:121 7:37 
100000 1:27 2:169 3:25 4:5 5:196 6:52 7:4 
3383.6459961621363 1:37 2:30331 3:189 4:167 5:2476 6:619 7:5 
24003.751448576644 1:27 2:51142 3:347 4:93 5:3268 6:1150 7:83 
100000 1:37 2:21640 3:138 4:329 5:1812 6:93 7:549 
100000 1:22 2:6097 3:116 4:52 5:731 6:139 7:9 
100000 1:27 2:4136 3:52 4:81 5:548 6:30 7:236 
100000 1:22 2:1443 3:44 4:56 5:476 6:79 7:69 
100000 1:22 2:4394 3:25 4:115 5:604 6:53 7:73 
100000 1:22 2:7366 3:75 4:102 5:980 6:66 7:47 
100000 1:27 2:3616 3:33 4:63 5:1116 6:26 7:206 
85888.103951638055 1:37 2:24984 3:97 4:111 5:1572 6:198 7:0 
100000 1:32 2:2108 3:50 4:92 5:576 6:117 7:90 
100000 1:22 2:2000 3:65 4:63 5:604 6:57 7:48 
100000 1:27 2:4726 3:59 4:68 5:536 6:100 7:0 
100000 1:27 2:4938 3:65 4:100 5:1304 6:215 7:173 
100000 1:27 2:7955 3:35 4:174 5:1108 6:25 7:335 
100000 1:27 2:498 3:33 4:24 5:204 6:10 7:15 
100000 1:22 2:3135 3:69 4:61 5:604 6:91 7:88 
100000 1:32 2:8398 3:148 4:44 5:1104 6:10 7:123 
100000 1:22 2:4022 3:49 4:22 5:448 6:107 7:21 
100000 1:22 2:7335 3:146 4:41 5:1424 6:178 7:56 
100000 1:22 2:94 3:10 4:12 5:96 6:9 7:3 
100000 1:22 2:1148 3:53 4:35 5:320 6:50 7:71 
100000 1:27 2:14097 3:73 4:263 5:1264 6:63 7:214 
100000 1:22 2:2577 3:16 4:75 5:840 6:24 7:228 
100000 1:32 2:1958 3:37 4:55 5:520 6:38 7:32 
100000 1:22 2:654 3:22 4:53 5:268 6:20 7:30 
100000 1:27 2:2523 3:85 4:38 5:580 6:3 7:11 
100000 1:32 2:6836 3:107 4:147 5:1036 6:100 7:164 
100000 1:22 2:6983 3:65 4:192 5:896 6:93 7:181 
100000 1:27 2:846 3:45 4:48 5:298 6:59 7:15 
100000 1:27 2:168 3:9 4:20 5:176 6:6 7:24 
100000 1:32 2:7443 3:144 4:95 5:860 6:32 7:31 
100000 1:22 2:32827 3:56 4:564 5:1860 6:49 7:99 
100000 1:32 2:4574 3:90 4:93 5:676 6:119 7:70 
100000 1:22 2:1123 3:23 4:44 5:248 6:40 7:37 
100000 1:27 2:6341 3:64 4:80 5:676 6:97 7:138 
100000 1:37 2:5024 3:130 4:93 5:840 6:110 7:161 
100000 1:32 2:4368 3:108 4:113 5:804 6:72 7:49 
100000 1:27 2:2049 3:76 4:50 5:716 6:108 7:54 
100000 1:37 2:32828 3:227 4:256 5:1592 6:266 7:59 
100000 1:27 2:3794 3:49 4:95 5:892 6:58 7:137 
100000 1:22 2:3414 3:94 4:58 5:472 6:61 7:41 
100000 1:32 2:15033 3:183 4:129 5:1980 6:343 7:164 
100000 1:37 2:19284 3:144 4:320 5:1612 6:18 7:74 
100000 1:32 2:9781 3:105 4:99 5:1416 6:152 7:258 
100000 1:32 2:4233 3:66 4:82 5:828 6:82 7:141 
100000 1:22 2:2825 3:68 4:90 5:716 6:61 7:52 
100000 1:32 2:30478 3:180 4:231 5:2304 6:113 7:377 
100000 1:22 2:8979 3:91 4:83 5:699 6:60 7:20 
100000 1:37 2:19634 3:139 4:203 5:1640 6:247 7:473 
100000 1:27 2:7033 3:90 4:60 5:884 6:43 7:110 
100000 1:27 2:14531 3:212 4:160 5:1168 6:42 7:189 
95453.201974320807 1:37 2:42972 3:204 4:414 5:2684 6:312 7:478 
100000 1:27 2:2922 3:29 4:83 5:624 6:32 7:181 
100000 1:32 2:13328 3:96 4:190 5:1136 6:43 7:4 
100000 1:22 2:9376 3:84 4:89 5:524 6:55 7:86 
100000 1:37 2:23066 3:191 4:131 5:1488 6:148 7:202 
42428.608029648691 1:22 2:24028 3:88 4:23 5:954 6:165 7:8 
100000 1:22 2:2840 3:52 4:65 5:372 6:86 7:60 
100000 1:27 2:1686 3:52 4:57 5:480 6:19 7:44 
100000 1:27 2:4102 3:24 4:181 5:848 6:15 7:147 
100000 1:37 2:6309 3:93 4:137 5:788 6:175 7:13 
100000 1:32 2:3238 3:59 4:56 5:928 6:97 7:181 
100000 1:22 2:148 3:10 4:16 5:136 6:24 7:2 
68220.883977608508 1:22 2:48981 3:231 4:330 5:2804 6:105 7:581 
100000 1:32 2:5449 3:63 4:112 5:812 6:14 7:159 
100000 1:22 2:1377 3:21 4:64 5:384 6:19 7:18 
100000 1:27 2:1085 3:31 4:11 5:300 6:81 7:9 
100000 1:27 2:38904 3:139 4:349 5:2172 6:292 7:807 
100000 1:22 2:6478 3:45 4:138 5:645 6:33 7:60 
100000 1:32 2:16398 3:87 4:270 5:1624 6:118 7:152 
50644.018644617499 1:27 2:52684 3:484 4:261 5:2788 6:444 7:112 
100000 1:32 2:7490 3:80 4:22 5:652 6:33 7:29 
100000 1:22 2:864 3:34 4:16 5:232 6:10 7:11 
50570.124650514903 1:22 2:76076 3:231 4:349 5:2844 6:169 7:78 
-100000 1:27 2:3690 3:42 4:25 5:764 6:140 7:78 
-100000 1:22 2:915 3:16 4:46 5:428 6:1 7:61 
-100000 1:22 2:6212 3:165 4:34 5:992 6:48 7:0 
-100000 1:27 2:1201 3:29 4:69 5:368 6:23 7:105 
-60752.612731036068 1:27 2:664 3:12 4:44 5:324 6:8 7:41 
-100000 1:27 2:1379 3:27 4:60 5:444 6:40 7:32 
-100000 1:37 2:14950 3:102 4:58 5:1568 6:332 7:178 
-100000 1:32 2:12389 3:63 4:177 5:1780 6:144 7:514 
-100000 1:22 2:1691 3:62 4:12 5:628 6:218 7:7 
-100000 1:27 2:4928 3:66 4:73 5:504 6:169 7:71 
-100000 1:27 2:6359 3:83 4:98 5:576 6:24 7:61 
-100000 1:22 2:2024 3:93 4:61 5:460 6:11 7:97 
-100000 1:27 2:35165 3:208 4:392 5:2080 6:194 7:238 
-100000 1:22 2:955 3:24 4:65 5:532 6:40 7:63 
-81002.343028755844 1:22 2:4308 3:41 4:176 5:600 6:40 7:62 
-100000 1:22 2:109 3:13 4:14 5:96 6:6 7:13 
-100000 1:22 2:7877 3:78 4:188 5:808 6:7 7:188 
-100000 1:27 2:19125 3:54 4:71 5:2172 6:186 7:230 
-100000 1:22 2:11612 3:174 4:173 5:1448 6:68 7:155 
-100000 1:27 2:1805 3:33 4:19 5:304 6:88 7:17 
-100000 1:37 2:25745 3:122 4:159 5:2232 6:174 7:202 
-100000 1:32 2:21703 3:298 4:211 5:1676 6:63 7:69 
-100000 1:37 2:2945 3:100 4:18 5:576 6:76 7:44 
-100000 1:27 2:6959 3:90 4:148 5:996 6:46 7:107 
-100000 1:32 2:48545 3:60 4:459 5:3364 6:50 7:327 
-100000 1:27 2:3658 3:42 4:69 5:312 6:24 7:90 
-100000 1:22 2:4875 3:39 4:157 5:566 6:53 7:158 
-100000 1:37 2:14854 3:196 4:141 5:1044 6:271 7:76 
-100000 1:27 2:456 3:19 4:15 5:125 6:30 7:28 
-100000 1:27 2:29458 3:13 4:572 5:1696 6:4 7:33 
-100000 1:37 2:35930 3:105 4:299 5:1644 6:196 7:658 
-100000 1:27 2:35121 3:223 4:226 5:2336 6:495 7:171 
-100000 1:22 2:470 3:16 4:23 5:292 6:8 7:39 
-100000 1:22 2:1352 3:21 4:71 5:260 6:16 7:64 
-100000 1:27 2:3966 3:43 4:50 5:240 6:39 7:2 
-100000 1:27 2:3823 3:84 4:95 5:616 6:38 7:170 
-100000 1:27 2:1485 3:49 4:49 5:384 6:1 7:67 
-100000 1:27 2:10317 3:141 4:121 5:1264 6:159 7:78 
-100000 1:27 2:830 3:44 4:27 5:476 6:80 7:26 
-100000 1:27 2:302 3:15 4:24 5:200 6:31 7:61 
-100000 1:27 2:2478 3:50 4:111 5:696 6:27 7:133 
-100000 1:22 2:2744 3:32 4:79 5:440 6:68 7:170 
-100000 1:32 2:2247 3:50 4:39 5:300 6:14 7:83 
-100000 1:27 2:25810 3:106 4:380 5:1424 6:77 7:14 
-100000 1:32 2:3299 3:76 4:55 5:412 6:59 7:50 
-100000 1:27 2:2091 3:53 4:24 5:324 6:88 7:13 
-100000 1:37 2:16543 3:164 4:128 5:1340 6:492 7:145 
-100000 1:27 2:2305 3:64 4:78 5:444 6:128 7:57 
-100000 1:22 2:157 3:18 4:17 5:160 6:10 7:2 
-100000 1:32 2:924 3:56 4:38 5:364 6:72 7:74 
-100000 1:27 2:8372 3:99 4:138 5:1128 6:82 7:4 
-100000 1:22 2:1421 3:64 4:40 5:404 6:80 7:53 
-100000 1:27 2:14365 3:152 4:176 5:1040 6:136 7:251 
-100000 1:22 2:4012 3:40 4:153 5:608 6:48 7:221 
-100000 1:27 2:426 3:17 4:28 5:352 6:43 7:52 
-100000 1:27 2:3203 3:58 4:69 5:532 6:9 7:36 
-100000 1:32 2:3037 3:57 4:65 5:509 6:36 7:34 
-100000 1:32 2:1305 3:13 4:20 5:416 6:31 7:57 
-100000 1:27 2:4728 3:16 4:154 5:744 6:26 7:54 
-100000 1:22 2:4564 3:113 4:94 5:1012 6:72 7:187 
-100000 1:32 2:29265 3:171 4:45 5:2868 6:574 7:94 
-100000 1:32 2:11979 3:205 4:23 5:1412 6:241 7:33 
-100000 1:32 2:12971 3:82 4:298 5:1736 6:150 7:435 
-100000 1:27 2:1933 3:49 4:82 5:388 6:9 7:166 
-100000 1:37 2:3398 3:67 4:78 5:500 6:20 7:186 
-100000 1:27 2:32568 3:257 4:193 5:1980 6:11 7:91 
-100000 1:27 2:6745 3:119 4:138 5:804 6:130 7:145 
-100000 1:22 2:942 3:20 4:21 5:128 6:26 7:37 
-100000 1:27 2:1146 3:32 4:37 5:408 6:78 7:59 
-100000 1:32 2:2947 3:31 4:127 5:576 6:38 7:197 
-100000 1:37 2:32015 3:129 4:313 5:1880 6:221 7:721 
-100000 1:27 2:10814 3:157 4:186 5:1224 6:124 7:270 
-100000 1:22 2:11851 3:91 4:172 5:1864 6:2 7:241 
-100000 1:37 2:7428 3:139 4:47 5:1668 6:426 7:59 
-100000 1:22 2:3369 3:92 4:97 5:680 6:91 7:48 
-100000 1:27 2:109 3:13 4:11 5:164 6:32 7:12 
-100000 1:27 2:1825 3:29 4:35 5:140 6:21 7:12 
-100000 1:22 2:2917 3:27 4:159 5:722 6:33 7:119 
-100000 1:22 2:160 3:14 4:24 5:132 6:15 7:16 
-100000 1:32 2:26549 3:252 4:12 5:2048 6:495 7:3 
-100000 1:32 2:15490 3:134 4:108 5:900 6:122 7:240 
-100000 1:27 2:1151 3:34 4:65 5:572 6:13 7:23 
-100000 1:37 2:32960 3:226 4:178 5:1456 6:22 7:100 
-100000 1:37 2:8250 3:82 4:138 5:732 6:127 7:54 
-100000 1:27 2:23035 3:59 4:385 5:1464 6:54 7:460 
-100000 1:37 2:29790 3:152 4:94 5:2456 6:585 7:353 
-100000 1:37 2:10333 3:227 4:97 5:1612 6:470 7:187 
-100000 1:22 2:2599 3:55 4:17 5:404 6:33 7:15 
-100000 1:22 2:1133 3:20 4:55 5:352 6:26 7:52 
-100000 1:37 2:15319 3:62 4:329 5:1168 6:109 7:129 
-100000 1:27 2:16076 3:85 4:172 5:1256 6:109 7:409 
-100000 1:22 2:392 3:20 4:37 5:288 6:2 7:6 
-100000 1:22 2:260 3:13 4:18 5:144 6:1 7:7 
-100000 1:32 2:41608 3:36 4:529 5:2332 6:19 7:381 
-100000 1:32 2:19456 3:22 4:458 5:1520 6:7 7:21 
-100000 1:27 2:11852 3:36 4:243 5:1276 6:43 7:148 
-100000 1:22 2:258 3:21 4:17 5:200 6:28 7:6 
-100000 1:32 2:1897 3:36 4:24 5:276 6:6 7:12 
-100000 1:22 2:307 3:34 4:7 5:196 6:76 7:12 
-100000 1:32 2:1658 3:69 4:45 5:508 6:69 7:10 
-100000 1:27 2:450 3:25 4:15 5:236 6:60 7:32 
-100000 1:37 2:3199 3:96 4:27 5:556 6:84 7:33 
-100000 1:22 2:5122 3:44 4:150 5:760 6:31 7:159 
-100000 1:37 2:44224 3:154 4:77 5:2144 6:601 7:303 
-47807.471939800867 1:27 2:75579 3:332 4:136 5:2524 6:20 7:5 
-100000 1:22 2:169 3:12 4:20 5:152 6:17 7:41 
-100000 1:27 2:634 3:22 4:45 5:348 6:30 7:105 
-100000 1:32 2:12490 3:92 4:156 5:1076 6:101 7:267 
-100000 1:27 2:700 3:16 4:40 5:180 6:33 7:71 
-100000 1:37 2:7153 3:63 4:136 5:1024 6:10 7:176 
-100000 1:27 2:18655 3:290 4:37 5:1492 6:2 7:23 
-100000 1:37 2:4971 3:56 4:17 5:400 6:51 7:5 
-100000 1:27 2:4659 3:69 4:19 5:548 6:208 7:10 
-100000 1:22 2:13987 3:178 4:102 5:1508 6:212 7:166 
-100000 1:27 2:730 3:24 4:22 5:168 6:44 7:11 
-100000 1:22 2:1306 3:43 4:66 5:468 6:13 7:9 
-100000 1:22 2:5478 3:74 4:94 5:560 6:163 7:40 
-100000 1:22 2:8429 3:72 4:32 5:852 6:246 7:105 
-100000 1:22 2:2356 3:55 4:50 5:266 6:12 7:52 
-100000 1:27 2:8582 3:148 4:129 5:1020 6:3 7:266 
-100000 1:22 2:3460 3:98 4:104 5:828 6:80 7:13 
-100000 1:32 2:42912 3:274 4:251 5:1772 6:254 7:281 
-100000 1:27 2:21897 3:168 4:72 5:1068 6:93 7:44 
-100000 1:22 2:32015 3:221 4:325 5:2864 6:263 7:780 
-100000 1:22 2:2047 3:60 4:56 5:460 6:73 7:127 
-100000 1:22 2:9113 3:19 4:270 5:957 6:24 7:63 
-100000 1:22 2:69 3:7 4:13 5:96 6:9 7:9 
-100000 1:27 2:2706 3:65 4:119 5:532 6:17 7:162 
-100000 1:22 2:967 3:22 4:46 5:296 6:36 7:31 
-100000 1:22 2:6454 3:90 4:124 5:864 6:105 7:5 
-100000 1:27 2:2688 3:63 4:71 5:416 6:11 7:75 
-100000 1:27 2:2717 3:50 4:20 5:395 6:123 7:10 
-100000 1:32 2:1159 3:33 4:15 5:513 6:80 7:4 
-36020.871372185495 1:27 2:649 3:71 4:8 5:300 6:4 7:5 
-100000 1:32 2:3986 3:129 4:66 5:840 6:57 7:86 
-100000 1:22 2:3949 3:82 4:100 5:748 6:47 7:66 
-100000 1:37 2:5453 3:69 4:137 5:1124 6:83 7:141 
-100000 1:22 2:9399 3:127 4:145 5:876 6:100 7:48 
-100000 1:37 2:39353 3:120 4:254 5:2492 6:311 7:928 
-100000 1:27 2:15480 3:145 4:229 5:1444 6:31 7:450 
-100000 1:22 2:5068 3:133 4:81 5:780 6:69 7:74 
-100000 1:22 2:20074 3:34 4:362 5:1572 6:6 7:158 
-100000 1:22 2:1096 3:28 4:84 5:428 6:29 7:55 
-100000 1:22 2:2995 3:77 4:101 5:716 6:62 7:98 
-100000 1:37 2:6218 3:46 4:61 5:1072 6:159 7:222 
-100000 1:22 2:3363 3:24 4:146 5:519 6:21 7:97 
-100000 1:22 2:2864 3:27 4:100 5:432 6:44 7:142 
-100000 1:22 2:232 3:20 4:17 5:138 6:13 7:13 
-100000 1:27 2:3384 3:66 4:90 5:724 6:23 7:118 
-100000 1:22 2:714 3:21 4:31 5:170 6:21 7:57 
-100000 1:27 2:1743 3:64 4:57 5:484 6:35 7:60 
-100000 1:32 2:2983 3:53 4:103 5:884 6:77 7:180 
-100000 1:22 2:3138 3:49 4:61 5:311 6:76 7:1 
-100000 1:22 2:369 3:17 4:38 5:192 6:14 7:50 
-100000 1:27 2:941 3:23 4:20 5:164 6:31 7:5 
-100000 1:27 2:4404 3:65 4:45 5:1176 6:203 7:137 
-100000 1:22 2:18668 3:94 4:95 5:376 6:68 7:106 
-100000 1:37 2:35187 3:88 4:342 5:2260 6:93 7:741 
-100000 1:32 2:6600 3:104 4:89 5:652 6:45 7:53 
-100000 1:37 2:22881 3:219 4:121 5:2460 6:685 7:333 
-100000 1:32 2:6973 3:119 4:172 5:1400 6:219 7:115 
-100000 1:27 2:816 3:16 4:58 5:336 6:6 7:96 
-25965.208183952422 1:32 2:77275 3:194 4:497 5:3204 6:463 7:460 
-100000 1:27 2:7155 3:140 4:115 5:796 6:78 7:102 
-100000 1:22 2:2547 3:26 4:119 5:740 6:1 7:138 
-100000 1:22 2:1379 3:59 4:36 5:408 6:12 7:38 
-100000 1:27 2:4575 3:45 4:15 5:339 6:88 7:6 
-100000 1:22 2:4319 3:116 4:94 5:600 6:13 7:16 
-100000 1:22 2:2732 3:40 4:52 5:196 6:41 7:23 
-100000 1:27 2:5627 3:70 4:57 5:504 6:34 7:79 
-100000 1:22 2:2300 3:63 4:89 5:672 6:90 7:147 
-100000 1:32 2:1817 3:63 4:56 5:488 6:112 7:77 
-100000 1:27 2:7279 3:105 4:148 5:868 6:152 7:15 
-100000 1:27 2:5567 3:61 4:46 5:418 6:167 7:85 
-100000 1:22 2:2623 3:51 4:116 5:708 6:75 7:181 
-100000 1:27 2:4645 3:21 4:179 5:880 6:35 7:204 
-100000 1:27 2:10990 3:139 4:69 5:1572 6:175 7:50 
-100000 1:22 2:396 3:25 4:13 5:156 6:5 7:23 
-100000 1:27 2:12012 3:81 4:160 5:888 6:18 7:59 
-100000 1:22 2:991 3:12 4:37 5:476 6:10 7:78 
-100000 1:22 2:1019 3:36 4:40 5:436 6:21 7:64 
-100000 1:22 2:2673 3:75 4:16 5:540 6:141 7:0 
-100000 1:22 2:193 3:16 4:14 5:113 6:22 7:0 
-100000 1:32 2:11128 3:142 4:184 5:1360 6:128 7:37 
-100000 1:27 2:12183 3:168 4:187 5:1284 6:24 7:65 
-100000 1:27 2:9466 3:14 4:278 5:940 6:26 7:53 
-100000 1:27 2:1686 3:30 4:51 5:636 6:81 7:164 
-100000 1:22 2:10569 3:114 4:36 5:1172 6:319 7:69 
-100000 1:32 2:1130 3:50 4:35 5:548 6:66 7:62 
-100000 1:27 2:25204 3:126 4:152 5:900 6:319 7:169 
-100000 1:32 2:2622 3:46 4:46 5:660 6:89 7:51 
-100000 1:27 2:30051 3:38 4:531 5:1584 6:19 7:5 
-100000 1:32 2:15854 3:109 4:246 5:1840 6:28 7:448 
-100000 1:22 2:390 3:14 4:20 5:212 6:22 7:8 
-100000 1:37 2:5440 3:62 4:139 5:1032 6:44 7:200 
-100000 1:37 2:17696 3:148 4:153 5:1260 6:93 7:131 
-100000 1:22 2:14592 3:225 4:92 5:1672 6:50 7:0 
-100000 1:27 2:1963 3:40 4:47 5:576 6:43 7:57 
-100000 1:27 2:7122 3:107 4:107 5:1008 6:91 7:258 
-100000 1:32 2:4123 3:90 4:72 5:832 6:85 7:70 
-100000 1:37 2:9944 3:40 4:116 5:1588 6:96 7:369 
-100000 1:22 2:209 3:16 4:18 5:136 6:29 7:9 
-100000 1:22 2:7689 3:21 4:168 5:1176 6:28 7:187 
-100000 1:22 2:9896 3:65 4:104 5:428 6:111 7:172 
-100000 1:27 2:8670 3:131 4:145 5:1172 6:155 7:11 
-100000 1:37 2:5893 3:138 4:21 5:1408 6:213 7:31 
-100000 1:27 2:6233 3:89 4:166 5:988 6:16 7:74 
-100000 1:22 2:2415 3:35 4:76 5:604 6:49 7:192 
-100000 1:32 2:4221 3:139 4:43 5:708 6:85 7:42 
-31460.123999863259 1:22 2:111 3:8 4:12 5:75 6:2 7:15 
-100000 1:37 2:13504 3:63 4:125 5:1528 6:216 7:424 
-100000 1:22 2:81 3:8 4:10 5:140 6:5 7:11 
-100000 1:32 2:5682 3:103 4:106 5:1156 6:102 7:177 
-100000 1:22 2:4707 3:20 4:196 5:775 6:31 7:160 
-100000 1:27 2:4148 3:85 4:138 5:748 6:61 7:88 
-100000 1:27 2:645 3:12 4:32 5:404 6:5 7:76 
-100000 1:27 2:7075 3:36 4:196 5:940 6:5 7:114 
-100000 1:37 2:2839 3:57 4:19 5:352 6:33 7:27 
-100000 1:32 2:3575 3:83 4:59 5:592 6:70 7:54 
-100000 1:37 2:1158 3:31 4:33 5:404 6:55 7:52 
-100000 1:32 2:1777 3:26 4:13 5:592 6:64 7:25 
-100000 1:27 2:13990 3:73 4:170 5:764 6:142 7:286 
-100000 1:22 2:122 3:14 4:12 5:85 6:11 7:9 
-100000 1:22 2:3383 3:43 4:25 5:268 6:48 7:51 
-100000 1:27 2:38160 3:176 4:526 5:2016 6:397 7:355 
-100000 1:27 2:767 3:26 4:54 5:352 6:9 7:109 
-100000 1:32 2:969 3:63 4:34 5:364 6:75 7:48 
-100000 1:22 2:2166 3:33 4:79 5:596 6:64 7:180 
-44243.647136242289 1:22 2:6974 3:82 4:177 5:1500 6:54 7:19 
-100000 1:37 2:7913 3:66 4:80 5:1604 6:178 7:78 
-100000 1:22 2:198 3:6 4:31 5:184 6:8 7:51 
-100000 1:32 2:5462 3:103 4:94 5:1112 6:186 7:213 
-100000 1:37 2:5454 3:86 4:83 5:1032 6:36 7:93 
-100000 1:32 2:29381 3:111 4:66 5:664 6:26 7:34 
-100000 1:22 2:2672 3:35 4:101 5:358 6:69 7:60 
-100000 1:22 2:29341 3:466 4:39 5:1800 6:47 7:26 
-100000 1:22 2:988 3:44 4:31 5:392 6:29 7:50 
-100000 1:32 2:12936 3:95 4:88 5:932 6:282 7:205 
-100000 1:22 2:3460 3:16 4:150 5:740 6:2 7:24 
-100000 1:32 2:43647 3:220 4:266 5:1960 6:246 7:283 
-100000 1:22 2:21103 3:86 4:214 5:1087 6:174 7:469 
-100000 1:37 2:24443 3:218 4:150 5:1400 6:146 7:3 
-100000 1:27 2:2213 3:54 4:81 5:460 6:14 7:89 
-100000 1:37 2:45793 3:44 4:583 5:2412 6:22 7:38 
-100000 1:22 2:152 3:13 4:11 5:72 6:2 7:15 
-100000 1:37 2:6011 3:150 4:66 5:760 6:64 7:20 
-100000 1:22 2:6862 3:60 4:29 5:324 6:53 7:31 
-100000 1:37 2:12403 3:168 4:103 5:1048 6:47 7:100 
-100000 1:27 2:2829 3:24 4:95 5:696 6:10 7:239 
-100000 1:32 2:23042 3:235 4:31 5:1712 6:550 7:4 
-100000 1:27 2:9457 3:66 4:116 5:777 6:200 7:230 
-100000 1:27 2:30723 3:189 4:408 5:1836 6:63 7:539 
-100000 1:37 2:5151 3:96 4:35 5:912 6:316 7:64 
-100000 1:32 2:2831 3:76 4:43 5:768 6:34 7:40 
-100000 1:27 2:1922 3:30 4:89 5:446 6:39 7:173 
-100000 1:22 2:4329 3:88 4:98 5:500 6:5 7:83 
-100000 1:27 2:2741 3:81 4:76 5:652 6:145 7:82 
-100000 1:32 2:2353 3:55 4:76 5:584 6:74 7:97 
-100000 1:22 2:2244 3:16 4:87 5:600 6:16 7:233 
-100000 1:27 2:2554 3:48 4:90 5:584 6:7 7:25 
-100000 1:32 2:31165 3:256 4:162 5:1688 6:84 7:22 
-100000 1:22 2:2987 3:116 4:77 5:640 6:53 7:73 
-100000 1:27 2:673 3:26 4:25 5:336 6:71 7:67 
-100000 1:22 2:5793 3:93 4:131 5:772 6:121 7:53 
-100000 1:22 2:1442 3:53 4:37 5:366 6:73 7:60 
-100000 1:37 2:10211 3:65 4:35 5:1848 6:232 7:116 
-100000 1:22 2:350 3:16 4:24 5:273 6:7 7:33 
-100000 1:22 2:11048 3:78 4:52 5:320 6:27 7:11 
-100000 1:27 2:15187 3:173 4:123 5:1212 6:136 7:253 
-100000 1:37 2:919 3:21 4:16 5:476 6:48 7:10 
-100000 1:27 2:3845 3:84 4:83 5:776 6:28 7:103 
-100000 1:27 2:5647 3:118 4:104 5:1072 6:89 7:150 
-100000 1:22 2:508 3:21 4:31 5:201 6:14 7:39 
-100000 1:22 2:166 3:15 4:11 5:106 6:10 7:6 
-100000 1:37 2:15530 3:57 4:138 5:2296 6:139 7:452 
-100000 1:37 2:7183 3:66 4:6 5:768 6:116 7:8 
-100000 1:22 2:13983 3:22 4:367 5:1288 6:4 7:193 
-100000 1:37 2:4427 3:48 4:107 5:592 6:72 7:54 
-100000 1:37 2:5979 3:99 4:119 5:872 6:74 7:102 
-100000 1:27 2:6803 3:60 4:12 5:348 6:129 7:2 
-100000 1:32 2:52515 3:661 4:260 5:2704 6:495 7:306 
-100000 1:22 2:1001 3:21 4:26 5:188 6:48 7:42 
-100000 1:27 2:4976 3:44 4:126 5:912 6:2 7:81 
-100000 1:22 2:445 3:33 4:26 5:248 6:40 7:14 
-27021.443651100668 1:32 2:3590 3:30 4:132 5:1092 6:2 7:147 
-100000 1:27 2:39645 3:108 4:372 5:2136 6:60 7:831 
-100000 1:27 2:611 3:41 4:25 5:360 6:81 7:23 
-100000 1:27 2:9565 3:80 4:107 5:564 6:138 7:75 
-100000 1:37 2:6299 3:69 4:120 5:852 6:66 7:59 
-100000 1:27 2:26083 3:24 4:323 5:1884 6:16 7:230 
-100000 1:37 2:19473 3:319 4:22 5:1504 6:166 7:1 
-100000 1:22 2:316 3:14 4:32 5:188 6:16 7:54 
-100000 1:27 2:7056 3:123 4:9 5:1128 6:305 7:8 
-100000 1:22 2:2195 3:24 4:84 5:632 6:65 7:205 
-100000 1:22 2:179 3:17 4:11 5:158 6:3 7:5 
-100000 1:22 2:185 3:18 4:11 5:124 6:20 7:4 
-100000 1:32 2:273 3:23 4:12 5:244 6:50 7:37 
-100000 1:22 2:5403 3:51 4:38 5:356 6:12 7:25 
-100000 1:37 2:5880 3:62 4:87 5:940 6:170 7:180 
-100000 1:32 2:3689 3:114 4:61 5:868 6:67 7:34 
-100000 1:37 2:7506 3:184 4:47 5:1304 6:293 7:9 
-100000 1:27 2:36457 3:203 4:352 5:2044 6:231 7:385 
-100000 1:32 2:2053 3:71 4:62 5:472 6:98 7:62 
-100000 1:22 2:11898 3:81 4:45 5:380 6:30 7:64 
-100000 1:37 2:19527 3:192 4:13 5:1408 6:14 7:1 
-100000 1:27 2:1598 3:24 4:64 5:672 6:14 7:135 
-100000 1:32 2:9121 3:131 4:218 5:1160 6:124 7:241 
-100000 1:37 2:9646 3:94 4:37 5:1456 6:303 7:106 
-100000 1:22 2:350 3:8 4:38 5:236 6:3 7:62 
-100000 1:32 2:7237 3:112 4:119 5:828 6:27 7:74 
-100000 1:22 2:4443 3:91 4:146 5:708 6:80 7:169 
-100000 1:22 2:438 3:16 4:39 5:239 6:20 7:58 
-100000 1:32 2:1833 3:39 4:72 5:536 6:54 7:29 
-100000 1:32 2:27715 3:393 4:75 5:1912 6:201 7:80 
-100000 1:27 2:6561 3:35 4:153 5:764 6:11 7:22 
-100000 1:22 2:1632 3:40 4:62 5:316 6:0 7:30 
-100000 1:22 2:20113 3:163 4:217 5:1664 6:161 7:441 
-100000 1:22 2:3819 3:73 4:79 5:628 6:0 7:11 
-100000 1:22 2:35091 3:193 4:292 5:2284 6:27 7:480 
-100000 1:27 2:4569 3:124 4:59 5:529 6:35 7:95 
-100000 1:22 2:3569 3:42 4:7 5:168 6:18 7:3 
-100000 1:27 2:9217 3:30 4:65 5:1692 6:86 7:134 
-100000 1:37 2:1059 3:62 4:22 5:464 6:186 7:28 
-100000 1:27 2:1195 3:20 4:41 5:528 6:36 7:124 
-100000 1:27 2:8193 3:56 4:210 5:1064 6:115 7:103 
