svm_type c_svc
kernel_type rbf
gamma 0.00050000000000000001
nr_class 2
total_sv 145
rho 105.97304386027356
label 1 0
probA -0.70104768757906444
probB -0.10363225461118596
nr_sv 74 71
SV
10000 1:-0.25193432 2:-0.16540138 3:-0.046921662 4:-0.52753188 5:-0.25168351 6:-0.15843603 7:-0.27813744 8:-0.53761772 
10000 1:-1.1612124 2:-0.4897525 3:-0.52161777 4:-0.67368862 5:-0.46060852 6:-0.39394233 7:-0.38041723 8:-0.83024627 
7467.5398503722126 1:0.6573438 2:0.71050972 3:0.22689588 4:1.2064033 5:0.26985091 6:-0.22175381 7:0.61981663 8:0.45528958 
7506.3917699909634 1:0.6573438 2:0.079645782 3:2.1978461 4:0.62287094 5:-0.035463625 6:0.08725654 7:-0.16641044 8:0.80881194 
9455.5583395292651 1:1.5666219 2:0.36271399 3:1.9591836 4:-0.55307207 5:0.20380804 6:0.53814111 7:-0.21427113 8:0.62443903 
5753.0239605630049 1:0.6573438 2:0.090552623 3:-0.064447634 4:1.5493715 5:0.35923736 6:-0.36183525 7:0.89753358 8:0.99149335 
10000 1:-1.1612124 2:-0.49342209 3:-0.59600006 4:-0.70132675 5:-0.46868151 6:-0.40388412 7:-0.39134789 8:-0.87591662 
10000 1:-0.25193432 2:-0.48261718 3:-0.57981431 4:-0.57958521 5:-0.45603707 6:-0.39361637 7:-0.38010492 8:-0.74228856 
10000 1:-1.1612124 2:-0.39485279 3:-0.61868073 4:-0.3469263 5:-0.39641369 6:-0.36973978 7:-0.30804061 8:-0.47672391 
10000 1:0.6573438 2:0.20125197 3:0.11983281 4:-0.39955732 5:0.61095893 6:0.58059743 7:0.39870491 8:0.32673599 
10000 1:-1.1612124 2:-0.48618484 3:-0.61167034 4:-0.64805723 5:-0.46128938 6:-0.39524618 7:-0.38166644 8:-0.8217888 
10000 1:-1.1612124 2:-0.44867346 3:-0.7522905 4:-0.15355063 5:-0.40390308 6:-0.36696912 7:-0.32271893 8:-0.49025587 
10000 1:-0.25193432 2:-0.46844848 3:-0.64857798 4:-0.4732894 5:-0.45778784 6:-0.3958981 7:-0.38151029 8:-0.6661713 
10000 1:-1.1612124 2:-0.37018498 3:-0.27120256 4:-0.30974101 5:-0.36412174 6:-0.31302269 7:-0.31053905 8:-0.59851152 
10000 1:-1.1612124 2:-0.43725696 3:-0.49527727 4:-0.42354685 5:-0.4601222 6:-0.39426829 7:-0.38681947 8:-0.73044809 
10000 1:-0.25193432 2:-0.45652231 3:-0.63641289 4:-0.44957352 5:-0.45895502 6:-0.40086899 7:-0.37862147 8:-0.71353315 
4779.7256218453858 1:-0.25193432 2:-0.22197425 3:-0.3403786 4:-0.30609241 5:0.23639178 6:0.18414823 7:0.1772028 8:0.34534243 
10000 1:-1.1612124 2:-0.35846267 3:-0.40254426 4:-0.22399897 5:-0.33163526 6:-0.37462919 7:-0.19935858 8:-0.42767057 
10000 1:0.6573438 2:-0.41228335 3:-0.58816492 4:-0.29730538 5:-0.38503369 6:-0.36476889 7:-0.29453344 8:-0.54438369 
10000 1:0.6573438 2:-0.25000586 3:1.0848438 4:0.057338312 5:-0.28339187 6:-0.21816825 7:-0.27181327 8:0.071320318 
10000 1:0.6573438 2:-0.43532023 3:0.0023572485 4:-0.29998101 5:-0.39446839 6:-0.33127647 7:-0.34176952 8:-0.41583011 
10000 1:-1.1612124 2:-0.34765776 3:-0.66074307 4:0.42754935 5:-0.25207257 6:-0.36256866 7:-0.083181235 8:-0.23991468 
10000 1:-0.25193432 2:-0.34633263 3:-0.31847114 4:-0.37295297 5:-0.37929506 6:-0.31563037 7:-0.30538602 8:-0.40229815 
10000 1:-1.1612124 2:-0.066322414 3:0.20081311 4:-0.20213779 5:-0.17503876 6:-0.19942553 7:-0.11581708 8:-0.31772343 
10000 1:-1.1612124 2:-0.48292298 3:-0.48419467 4:-0.65343891 5:-0.46304015 6:-0.39793535 7:-0.38799061 8:-0.7896504 
10000 1:-1.1612124 2:-0.44775607 3:-0.47847295 4:-0.44835732 5:-0.3736537 6:-0.30577008 7:-0.29593881 8:-0.54438369 
10000 1:-1.1612124 2:-0.47232194 3:-0.5186796 4:-0.60828751 5:-0.40254138 6:-0.35107856 7:-0.33575765 8:-0.2940425 
10000 1:-0.25193432 2:-0.45815324 3:-0.71661999 4:-0.25826538 5:-0.40341676 6:-0.3030809 7:-0.29336229 8:-0.53085174 
10000 1:-1.1612124 2:-0.13135573 3:-0.29661522 4:-0.34643982 5:-0.25878385 6:-0.16878527 7:-0.27962089 8:-0.62557543 
10000 1:-0.25193432 2:-0.15918347 3:-0.19826359 4:0.4473734 5:-0.22299036 6:-0.15973987 7:-0.1560263 8:0.24046977 
5225.5364932542307 1:1.5666219 2:0.64598607 3:2.0898036 4:-0.2248199 5:-0.1583092 6:-0.09389589 7:-0.092940756 8:0.68025835 
6253.5149314213495 1:1.5666219 2:0.12052095 3:2.3683635 4:0.56777712 5:0.23862888 6:0.71195943 7:-0.32490507 8:1.0253232 
10000 1:-0.25193432 2:0.20645055 3:-0.063004319 4:0.28002439 5:0.25166237 6:0.23483506 7:0.15315534 8:0.030724449 
10000 1:-1.1612124 2:-0.49046603 3:-0.64218615 4:-0.64854371 5:-0.46751433 6:-0.40298773 7:-0.3903329 8:-0.89621456 
10000 1:-1.1612124 2:-0.48954864 3:-0.69414551 4:-0.58749051 5:-0.45885776 6:-0.39940217 7:-0.37987069 8:-0.7270651 
10000 1:-0.25193432 2:-0.35122542 3:-0.014447066 4:-0.28410961 5:-0.13914801 6:-0.076294034 7:-0.076076303 8:0.24046977 
10000 1:-1.1612124 2:-0.4888351 3:-0.52898899 4:-0.6497599 5:-0.46265109 6:-0.40062452 7:-0.38478949 8:-0.80825684 
4408.4571496830613 1:1.5666219 2:1.6013031 3:3.1135266 4:2.4365888 5:0.80792036 6:0.82686043 7:0.78924192 8:3.8535021 
10000 1:-0.25193432 2:-0.48159785 3:-0.65084605 4:-0.53884254 5:-0.45224374 6:-0.39842429 7:-0.37018925 8:-0.74736304 
10000 1:-0.25193432 2:-0.25235032 3:-0.27290361 4:-0.23491436 5:-0.41158701 6:-0.33258031 7:-0.32162587 8:-0.26697859 
10000 1:-1.1612124 2:-0.42726751 3:-0.65311411 4:-0.27748133 5:-0.41664479 6:-0.3605314 7:-0.34934291 8:-0.49025587 
10000 1:-0.25193432 2:-0.46865235 3:-0.26032615 4:-0.44470872 5:-0.45963587 6:-0.39117167 7:-0.37776264 8:-0.63234141 
10000 1:-0.25193432 2:-0.33155233 3:-0.74259967 4:0.30069977 5:-0.31976894 6:-0.27895984 7:-0.27025175 8:-0.11812707 
10000 1:1.5666219 2:1.0313951 3:0.40504223 4:-0.3871825 5:1.0238485 6:1.8420637 7:-0.14704754 8:-0.25344663 
10000 1:-1.1612124 2:-0.48812157 3:-0.77022885 4:-0.57180154 5:-0.45827417 6:-0.39467574 7:-0.38111991 8:-0.8217888 
10000 1:-1.1612124 2:-0.48435005 3:-0.64940273 4:-0.5703421 5:-0.45584254 6:-0.39972813 7:-0.37471767 8:-0.56468163 
10000 1:-1.1612124 2:-0.49281049 3:-0.63373245 4:-0.70801585 5:-0.46615262 6:-0.40176538 7:-0.38931791 8:-0.87591662 
5479.5591348940716 1:0.6573438 2:1.6114964 3:3.0407423 4:2.1358227 5:0.39114025 6:0.53863005 7:0.5130865 8:1.9116664 
10000 1:-0.25193432 2:-0.46223057 3:-0.64239234 4:-0.48666759 5:-0.41859008 6:-0.392557 7:-0.32178202 8:-0.48348989 
10000 1:-0.25193432 2:-0.48006886 3:-0.67785666 4:-0.3151835 5:-0.45516169 6:-0.39565363 7:-0.37752841 8:-0.67293728 
10000 1:-1.1612124 2:-0.48536938 3:-0.48986484 4:-0.64827006 5:-0.46615262 6:-0.40184687 7:-0.38923983 8:-0.83193777 
10000 1:-1.1612124 2:-0.48598098 3:-0.48450395 4:-0.64206744 5:-0.46965416 6:-0.40616584 7:-0.39072328 8:-0.80149086 
10000 1:-1.1612124 2:-0.46121123 3:-0.78156918 4:-0.2357657 5:-0.40808547 6:-0.30772584 7:-0.29781263 8:-0.56975611 
568.67651986600094 1:0.6573438 2:3.3287633 3:-0.37414187 4:2.2124433 5:6.3580503 6:2.3277446 7:7.9513254 8:3.4069476 
10000 1:-1.1612124 2:-0.46579822 3:-0.56321619 4:-0.38304742 5:-0.43483332 6:-0.3818818 7:-0.35808744 8:-0.67293728 
10000 1:1.5666219 2:-0.21422734 3:0.07344053 4:-0.32111248 5:-0.21024866 6:-0.15957689 7:-0.21052347 8:-0.21285076 
10000 1:0.6573438 2:0.24284067 3:2.0522774 4:0.58370933 5:-0.085555051 6:0.1491075 7:0.13988239 8:0.77498205 
10000 1:1.5666219 2:-0.28384764 3:-0.57950503 4:0.29644308 5:-0.1308805 6:-0.30438475 7:0.055638201 8:0.16604401 
10000 1:1.5666219 2:-0.053274978 3:0.41401141 4:0.30477404 5:-0.17503876 6:-0.32296448 7:0.0025464035 8:0.067937329 
10000 1:-1.1612124 2:-0.48771384 3:-0.60651565 4:-0.60074708 5:-0.46313741 6:-0.40233581 7:-0.38393065 8:-0.73383108 
10000 1:-0.25193432 2:-0.42003026 3:0.11411109 4:-0.26884631 5:-0.39310668 6:-0.31603783 7:-0.35418363 8:-0.31434044 
10000 1:-1.1612124 2:-0.41595294 3:-0.49909175 4:-0.24427909 5:-0.35439525 6:-0.38245223 7:-0.22840292 8:-0.49025587 
10000 1:0.6573438 2:-0.42420952 3:-0.24790333 4:-0.3645916 5:-0.38347745 6:-0.32883177 7:-0.31803436 8:-0.54438369 
10000 1:-1.1612124 2:-0.4170742 3:0.83679971 4:-0.55185587 5:-0.46226203 6:-0.3933719 7:-0.39111366 8:-0.37523424 
10000 1:0.6573438 2:0.29839421 3:0.54669333 4:-0.46556654 5:-0.16793843 6:-0.14352334 7:-0.15797821 8:-0.40229815 
240.69044383708501 1:1.5666219 2:3.02908 3:0.53308493 4:3.6468286 5:6.639535 6:5.5834359 7:5.3465482 8:3.4475434 
10000 1:1.5666219 2:0.12123449 3:2.7592958 4:0.48775121 5:-0.19770149 6:-0.074664233 7:-0.074514779 8:0.84264183 
10000 1:0.6573438 2:-0.38832907 3:-0.249192 4:-0.40773626 5:-0.33406688 6:-0.30348835 7:-0.27142289 8:-0.36846826 
10000 1:0.6573438 2:-0.22370712 3:-0.17089214 4:-0.057866158 5:-0.30196946 6:-0.23886673 7:-0.28180702 8:-0.12151006 
10000 1:-1.1612124 2:-0.46712335 3:-0.62156736 4:-0.44178984 5:-0.42783025 6:-0.38571184 7:-0.34317489 8:-0.5105538 
10000 1:-1.1612124 2:0.84557108 3:0.18261703 4:-0.65386458 5:-0.28008486 6:-0.14841275 7:-0.33333729 8:-0.69323521 
10000 1:-1.1612124 2:-0.4749722 3:-0.43481266 4:-0.63294595 5:-0.43220717 6:-0.36982127 7:-0.3654266 8:-0.43951103 
3284.7861564766622 1:-0.25193432 2:0.44191601 3:-0.55125729 4:0.95793382 5:-0.16823022 6:-0.27382597 7:-0.033602865 8:0.24723575 
10000 1:-0.25193432 2:-0.46651176 3:-0.64115521 4:-0.49445127 5:-0.44212819 6:-0.38693419 7:-0.36495814 8:-0.68646924 
-10000 1:1.5666219 2:0.26822201 3:1.5374262 4:-0.46805974 5:-0.072035229 6:-0.052580423 7:-0.091145004 8:0.48742798 
-10000 1:0.6573438 2:-0.068870742 3:-0.60362902 4:1.1858496 5:0.29796047 6:-0.0013231684 7:0.45374861 8:0.59906661 
-10000 1:-0.25193432 2:0.29401109 3:3.0568249 4:0.59562808 5:0.064232902 6:0.29122619 7:-0.20177894 8:1.2756644 
-10000 1:-1.1612124 2:-0.49056797 3:-0.65352649 4:-0.64647617 5:-0.46663895 6:-0.40046154 7:-0.38666332 8:-0.88944858 
-10000 1:1.5666219 2:0.73996839 3:-0.071664211 4:1.2342543 5:0.68954897 6:-0.23055474 7:1.3020462 8:1.9522622 
-10000 1:-1.1612124 2:-0.49515496 3:-0.81332212 4:-0.65657062 5:-0.45136836 6:-0.38774909 7:-0.37448344 8:-0.75412902 
-10000 1:-1.1612124 2:-0.37201977 3:-0.53538082 4:-0.44008716 5:-0.42043812 6:-0.36403548 7:-0.35176327 8:-0.49702185 
-10000 1:-0.25193432 2:-0.47344321 3:-0.42120426 4:-0.57864266 5:-0.45749605 6:-0.38831952 7:-0.37502997 8:-0.7270651 
-10000 1:1.5666219 2:0.066394479 3:-0.49455561 4:0.42827907 5:0.12249458 6:-0.18296454 7:0.34608157 8:0.30812955 
-10000 1:-0.25193432 2:-0.45917257 3:-0.64115521 4:-0.40226337 5:-0.43308256 6:-0.39198657 7:-0.34559525 8:-0.61880945 
-10000 1:-1.1612124 2:-0.49566462 3:-0.65249555 4:-0.71032663 5:-0.4676116 6:-0.40266177 7:-0.39080136 8:-0.91651249 
-10000 1:-1.1612124 2:-0.45805131 3:-0.36450259 4:-0.62023667 5:-0.45837143 6:-0.40095048 7:-0.37760648 8:-0.74567154 
-10000 1:-0.25193432 2:-0.46569629 3:-0.6124951 4:-0.65170582 5:-0.46391553 6:-0.39777237 7:-0.38408681 8:-0.77442695 
-10000 1:-0.25193432 2:-0.4324661 3:-0.60589708 4:-0.48095146 5:-0.41625573 6:-0.36322058 7:-0.34614179 8:-0.64587337 
-10000 1:-0.25193432 2:-0.42206892 3:-0.68692893 4:-0.23102252 5:-0.44650511 6:-0.39451276 7:-0.36472392 8:-0.55114967 
-10000 1:-0.25193432 2:-0.45764358 3:-0.65517599 4:-0.49639719 5:-0.44874221 6:-0.38489694 7:-0.37175077 8:-0.63910739 
-10000 1:1.5666219 2:-0.11688123 3:1.8295945 4:-0.43765476 5:0.10323613 6:0.50505614 7:-0.34403373 8:1.397452 
-10000 1:-1.1612124 2:-0.46375956 3:-0.62466018 4:-0.45261401 5:-0.4584687 6:-0.3950017 7:-0.3834622 8:-0.64587337 
-10000 1:-1.1612124 2:-0.48598098 3:-0.67476384 4:-0.56340976 5:-0.46449912 6:-0.40119495 7:-0.38720985 8:-0.74059706 
-10000 1:0.6573438 2:-0.20107797 3:-0.45146234 4:0.49480517 5:-0.12115401 6:-0.04834294 7:-0.1740619 8:0.16604401 
-10000 1:0.6573438 2:0.011350606 3:1.8803167 4:0.5615745 5:-0.17114817 6:-0.16495523 7:-0.1425972 8:0.72085422 
-10000 1:1.5666219 2:0.043459532 3:-0.54053552 4:1.2841184 5:-0.022430128 6:-0.0025455195 7:-0.0054173662 8:0.2945976 
-10000 1:0.6573438 2:0.0054384866 3:-0.23022271 4:-0.35106138 5:-0.23719104 6:-0.18459434 7:-0.17983954 8:-0.42936207 
-1485.2971105699157 1:1.5666219 2:1.541978 3:4.8756085 4:2.0274594 5:1.6718272 6:0.63307704 7:2.0515775 8:3.0821806 
-10000 1:-0.25193432 2:-0.48180172 3:-0.65538218 4:-0.56778808 5:-0.46498544 6:-0.40119495 7:-0.38799061 8:-0.78795891 
-10000 1:-1.1612124 2:-0.47884566 3:-0.63393864 4:-0.60403081 5:-0.45321639 6:-0.39687598 7:-0.37323422 8:-0.760895 
-10000 1:-1.1612124 2:-0.47578767 3:-0.51847341 4:-0.53178858 5:-0.45603707 6:-0.39377935 7:-0.38072953 8:-0.61880945 
-10000 1:-1.1612124 2:-0.49046603 3:-0.64899036 4:-0.61874683 5:-0.46479091 6:-0.40005409 7:-0.38627294 8:-0.80825684 
-39.472949049154018 1:0.6573438 2:5.8330556 3:3.3436323 4:-0.70193485 5:7.4048153 6:12.668835 7:-0.27602938 8:2.642392 
-10000 1:-1.1612124 2:-0.45825517 3:-0.68074329 4:-0.46714759 5:-0.45973314 6:-0.3958981 7:-0.38229105 8:-0.70507568 
-10000 1:-1.1612124 2:-0.49933421 3:-0.85033285 4:-0.75648138 5:-0.4676116 6:-0.40249879 7:-0.38861522 8:-0.96725733 
-10000 1:-0.25193432 2:-0.46895815 3:-0.66940296 4:-0.60111194 5:-0.42987281 6:-0.37389578 7:-0.35777514 8:-0.67970326 
-10000 1:-0.25193432 2:-0.48057852 3:-0.43697764 4:-0.63647293 5:-0.46624989 6:-0.40363965 7:-0.38767831 8:-0.6966182 
-10000 1:-1.1612124 2:-0.48516551 3:-0.6448666 4:-0.61290907 5:-0.45992767 6:-0.39850578 7:-0.38244721 8:-0.8217888 
-10000 1:-0.25193432 2:-0.45794937 3:-0.41898774 4:-0.61941573 5:-0.42598222 6:-0.35042664 7:-0.37401498 8:-0.68646924 
-10000 1:-0.25193432 2:1.1618695 3:0.7917992 4:-0.16580384 5:0.37022829 6:0.62117949 7:-0.026654085 8:0.091618253 
-10000 1:-1.1612124 2:-0.46008997 3:-0.19413983 4:-0.41150648 5:-0.45924681 6:-0.40315071 7:-0.3769038 8:-0.61204348 
-10000 1:-1.1612124 2:0.15956133 3:1.8924818 4:0.52934522 5:0.13231834 6:0.38053931 7:0.36161872 8:0.86970574 
-10000 1:-1.1612124 2:-0.36294773 3:-0.59929907 4:-0.41442536 5:-0.36042567 6:-0.26103203 7:-0.35441786 8:-0.68139475 
-10000 1:-1.1612124 2:-0.46691949 3:-0.45465825 4:-0.54443705 5:-0.45496716 6:-0.40005409 7:-0.37299999 8:-0.72537361 
-10000 1:-1.1612124 2:-0.48108819 3:-0.44197769 4:-0.66301648 5:-0.44203093 6:-0.36427995 7:-0.38650717 8:-0.73383108 
-10000 1:-0.25193432 2:-0.47925339 3:-0.6294025 4:-0.32235908 5:-0.44845041 6:-0.38432651 7:-0.37760648 8:-0.64587337 
-10000 1:-1.1612124 2:1.3724633 3:0.38999052 4:0.58224989 5:0.32762626 6:0.72116781 7:0.68797713 8:0.52464086 
-10000 1:-1.1612124 2:-0.46437116 3:-0.41249282 4:-0.57338259 5:-0.46586083 6:-0.40127644 7:-0.38931791 8:-0.7896504 
-10000 1:-0.25193432 2:-0.059085164 3:2.0788757 4:0.17105294 5:-0.12154307 6:-0.10522301 7:-0.12018934 8:0.59906661 
-10000 1:0.6573438 2:-0.11871603 3:-0.39517304 4:0.012095701 5:-0.39417659 6:-0.33714375 7:-0.33567958 8:-0.43612804 
-10000 1:-1.1612124 2:-0.49077183 3:-0.66775345 4:-0.5313021 5:-0.46440185 6:-0.40575839 7:-0.38268143 8:-0.83532076 
-10000 1:0.6573438 2:-0.2874153 3:-0.4623903 4:0.23295748 5:-0.40808547 6:-0.34195167 7:-0.35340287 8:-0.34817033 
-10000 1:-1.1612124 2:-0.48536938 3:-0.61455697 4:-0.68138108 5:-0.46508271 6:-0.40103197 7:-0.38720985 8:-0.88944858 
-10000 1:1.5666219 2:0.48717431 3:0.19596769 4:-0.49372155 5:0.091467075 6:0.49381051 7:-0.35215365 8:-0.46319196 
-10000 1:-0.25193432 2:-0.39587212 3:-0.81146643 4:-0.2565627 5:-0.40633471 6:-0.35058962 7:-0.3388807 8:-0.44289402 
-10000 1:-0.25193432 2:-0.46702142 3:-0.50445263 4:-0.4811947 5:-0.44815862 6:-0.38367458 7:-0.37057963 8:-0.69323521 
-5233.8278617711867 1:0.6573438 2:-0.3742623 3:-0.22135663 4:-0.37210163 5:-0.18661329 6:-0.19225441 7:-0.14126991 8:-0.61204348 
-10000 1:-1.1612124 2:-0.48312685 3:-0.58569067 4:-0.50357276 5:-0.45905228 6:-0.39133465 7:-0.38791254 8:-0.75412902 
-10000 1:-1.1612124 2:0.74251672 3:4.1459095 4:1.3114829 5:-0.063086858 6:-0.25565368 7:0.11778684 8:1.5666015 
-10000 1:0.6573438 2:-0.025854974 3:-0.011199607 4:-0.71418806 5:0.23444648 6:0.73159854 7:-0.35043598 8:-0.39891516 
-10000 1:1.5666219 2:-0.11891989 3:0.62009622 4:-0.096875747 5:0.64159738 6:0.67219227 7:0.36013528 8:1.2621325 
-10000 1:-0.25193432 2:-0.46793882 3:-0.55373154 4:-0.60828751 5:-0.44553246 6:-0.37634048 7:-0.38057338 8:-0.86238467 
-10000 1:-0.25193432 2:0.41898106 3:2.5790875 4:1.0408786 5:-0.12027862 6:-0.20203321 7:-0.025404867 8:0.97119541 
-10000 1:-1.1612124 2:-0.45662424 3:-0.49775152 4:-0.63273312 5:-0.45273007 6:-0.38432651 7:-0.38447719 8:-0.85561869 
-10000 1:-1.1612124 2:-0.47303547 3:-0.61187653 4:-0.47547856 5:-0.45749605 6:-0.39540916 7:-0.38151029 8:-0.74059706 
-10000 1:1.5666219 2:-0.068972675 3:0.042203062 4:0.47586286 5:0.041375649 6:0.032250741 7:0.0096513352 8:-0.12151006 
-10000 1:-0.25193432 2:-0.48954864 3:-0.65146461 4:-0.56474758 5:-0.45856596 6:-0.39003081 7:-0.37666957 8:-0.73383108 
-10000 1:-0.25193432 2:-0.47864179 3:-0.65765025 4:-0.50150522 5:-0.44455981 6:-0.39426829 7:-0.3618351 8:-0.6661713 
-10000 1:-0.25193432 2:-0.24470533 3:-0.7267232 4:0.086283853 5:-0.29409101 6:-0.37707389 7:-0.13674149 8:-0.2331487 
-10000 1:-1.1612124 2:-0.48577711 3:-0.46687488 4:-0.63288514 5:-0.4653745 6:-0.39956515 7:-0.38580448 8:-0.81502282 
-10000 1:-1.1612124 2:-0.475278 3:-0.53084468 4:-0.63686819 5:-0.46488818 6:-0.39809833 7:-0.38439911 8:-0.85561869 
-10000 1:-0.25193432 2:-0.46722529 3:-0.62981488 4:-0.49019457 5:-0.449034 6:-0.37813326 7:-0.38447719 8:-0.67293728 
-10000 1:-0.25193432 2:-0.15286361 3:0.55937388 4:0.14666814 5:-0.16599313 6:-0.087295194 7:-0.086616586 8:0.054405373 
-10000 1:-0.25193432 2:-0.33379486 3:-0.38445127 4:-0.41187134 5:-0.27930674 6:-0.21963507 7:-0.2638495 8:-0.61204348 
-3664.8624503430483 1:-0.25193432 2:-0.48119012 3:-0.71022816 4:-0.58335543 5:-0.4526328 6:-0.4007875 7:-0.36854965 8:-0.80149086 
