svm_type c_svc
kernel_type rbf
gamma 5.0000000000000001e-09
nr_class 2
total_sv 1096
rho 93.462501694392571
label 1 0
probA -0.94655807465345609
probB -0.0071102982992242748
nr_sv 559 537
SV
100000 1:32 2:713 3:31 4:52 5:316 6:13 7:13 8:5 9:23 
100000 1:27 2:2893 3:29 4:113 5:508 6:0 7:84 8:15 9:14 
100000 1:22 2:747 3:57 4:35 5:269 6:21 7:16 8:53 9:3 
100000 1:22 2:211 3:28 4:28 5:173 6:1 7:0 8:5 9:2 
100000 1:37 2:4507 3:49 4:172 5:574 6:42 7:257 8:21 9:121 
100000 1:37 2:7353 3:232 4:223 5:1836 6:174 7:117 8:88 9:57 
100000 1:37 2:1395 3:179 4:2 5:396 6:0 7:2 8:52 9:3 
100000 1:37 2:3967 3:84 4:108 5:830 6:1 7:7 8:51 9:195 
100000 1:37 2:7117 3:144 4:85 5:1148 6:7 7:64 8:50 9:40 
100000 1:27 2:1724 3:36 4:43 5:252 6:13 7:30 8:18 9:0 
100000 1:32 2:10641 3:82 4:82 5:528 6:9 7:3 8:152 9:127 
100000 1:27 2:132 3:22 4:26 5:120 6:5 7:8 8:7 9:2 
100000 1:37 2:5735 3:40 4:155 5:756 6:9 7:293 8:4 9:24 
100000 1:27 2:947 3:37 4:50 5:268 6:25 7:42 8:46 9:3 
100000 1:27 2:219 3:18 4:38 5:188 6:2 7:11 8:1 9:5 
100000 1:37 2:5466 3:160 4:201 5:1308 6:30 7:5 8:78 9:139 
100000 1:22 2:13683 3:85 4:65 5:392 6:55 7:68 8:111 9:39 
100000 1:32 2:1065 3:57 4:43 5:352 6:6 7:9 8:29 9:20 
100000 1:27 2:149 3:20 4:37 5:192 6:2 7:1 8:0 9:10 
100000 1:22 2:312 3:20 4:32 5:164 6:1 7:33 8:2 9:5 
100000 1:22 2:458 3:37 4:45 5:469 6:21 7:1 8:4 9:10 
100000 1:37 2:3921 3:53 4:93 5:540 6:22 7:36 8:92 9:31 
100000 1:37 2:8004 3:40 4:152 5:607 6:8 7:240 8:11 9:99 
100000 1:22 2:182 3:28 4:32 5:171 6:5 7:2 8:7 9:7 
100000 1:32 2:6131 3:179 4:167 5:808 6:94 7:22 8:16 9:12 
100000 1:32 2:640 3:23 4:77 5:360 6:8 7:19 8:4 9:14 
100000 1:27 2:237 3:22 4:47 5:288 6:3 7:38 8:2 9:38 
100000 1:32 2:1801 3:26 4:78 5:564 6:4 7:156 8:14 9:39 
100000 1:27 2:602 3:57 4:66 5:488 6:9 7:16 8:19 9:22 
100000 1:27 2:1022 3:52 4:49 5:352 6:20 7:37 8:40 9:62 
100000 1:37 2:501 3:30 4:52 5:408 6:9 7:63 8:20 9:107 
59522.06134850395 1:32 2:15184 3:202 4:46 5:656 6:13 7:19 8:186 9:50 
100000 1:27 2:2125 3:45 4:76 5:532 6:4 7:18 8:21 9:81 
100000 1:27 2:852 3:27 4:66 5:296 6:17 7:24 8:15 9:44 
100000 1:22 2:119 3:27 4:18 5:184 6:9 7:4 8:39 9:22 
100000 1:32 2:547 3:33 4:36 5:296 6:15 7:30 8:21 9:17 
37694.883875199732 1:32 2:5150 3:66 4:48 5:2876 6:113 7:36 8:217 9:43 
100000 1:37 2:651 3:21 4:63 5:440 6:3 7:55 8:9 9:90 
23664.357082646809 1:22 2:9963 3:174 4:158 5:816 6:1 7:76 8:133 9:46 
2444.3858577028195 1:22 2:45808 3:292 4:700 5:2312 6:194 7:795 8:43 9:88 
100000 1:32 2:326 3:20 4:44 5:244 6:5 7:17 8:1 9:27 
100000 1:27 2:581 3:20 4:44 5:432 6:20 7:3 8:22 9:26 
100000 1:37 2:1260 3:69 4:71 5:668 6:8 7:81 8:145 9:24 
100000 1:22 2:208 3:22 4:31 5:176 6:2 7:2 8:7 9:1 
100000 1:32 2:7274 3:49 4:125 5:793 6:8 7:131 8:31 9:23 
100000 1:22 2:220 3:18 4:25 5:152 6:2 7:5 8:11 9:0 
100000 1:32 2:1311 3:179 4:5 5:460 6:16 7:0 8:31 9:0 
100000 1:22 2:144 3:18 4:34 5:184 6:0 7:11 8:1 9:5 
100000 1:22 2:1287 3:59 4:50 5:370 6:24 7:7 8:7 9:25 
100000 1:37 2:702 3:30 4:24 5:180 6:0 7:0 8:11 9:8 
100000 1:37 2:1721 3:70 4:39 5:713 6:7 7:21 8:152 9:10 
100000 1:22 2:164 3:23 4:18 5:316 6:11 7:5 8:12 9:3 
100000 1:37 2:9246 3:133 4:121 5:785 6:80 7:11 8:143 9:174 
100000 1:22 2:169 3:20 4:18 5:276 6:4 7:23 8:12 9:29 
100000 1:22 2:5445 3:48 4:27 5:156 6:5 7:6 8:35 9:18 
100000 1:27 2:816 3:40 4:24 5:219 6:3 7:5 8:29 9:1 
100000 1:37 2:1348 3:44 4:108 5:762 6:13 7:172 8:10 9:58 
100000 1:27 2:4260 3:60 4:55 5:268 6:4 7:6 8:102 9:10 
100000 1:32 2:3623 3:57 4:77 5:472 6:6 7:83 8:23 9:31 
100000 1:37 2:1289 3:187 4:34 5:548 6:45 7:15 8:9 9:6 
100000 1:22 2:134 3:28 4:28 5:117 6:15 7:2 8:2 9:6 
100000 1:22 2:892 3:23 4:63 5:348 6:1 7:29 8:9 9:18 
100000 1:27 2:1634 3:25 4:100 5:628 6:4 7:48 8:10 9:24 
100000 1:22 2:1548 3:73 4:28 5:437 6:2 7:10 8:51 9:2 
100000 1:22 2:208 3:29 4:33 5:149 6:12 7:1 8:4 9:1 
100000 1:27 2:223 3:20 4:33 5:164 6:3 7:3 8:6 9:6 
100000 1:27 2:2366 3:104 4:57 5:568 6:10 7:7 8:134 9:35 
100000 1:32 2:439 3:17 4:24 5:203 6:13 7:31 8:27 9:44 
100000 1:32 2:946 3:36 4:68 5:288 6:0 7:2 8:11 9:9 
100000 1:32 2:4857 3:50 4:94 5:660 6:24 7:62 8:42 9:100 
100000 1:37 2:4337 3:85 4:109 5:736 6:16 7:72 8:35 9:139 
100000 1:32 2:2150 3:27 4:65 5:892 6:5 7:138 8:7 9:59 
100000 1:37 2:1018 3:121 4:42 5:472 6:69 7:124 8:40 9:81 
100000 1:37 2:2784 3:48 4:69 5:476 6:2 7:36 8:46 9:135 
100000 1:27 2:6834 3:64 4:35 5:264 6:13 7:34 8:11 9:26 
100000 1:22 2:109 3:20 4:23 5:120 6:3 7:7 8:3 9:2 
22927.692522532026 1:37 2:26752 3:123 4:57 5:876 6:5 7:5 8:370 9:66 
100000 1:32 2:1235 3:85 4:103 5:592 6:113 7:58 8:19 9:1 
100000 1:27 2:388 3:25 4:24 5:132 6:3 7:2 8:1 9:2 
100000 1:22 2:281 3:29 4:29 5:141 6:7 7:7 8:12 9:14 
100000 1:22 2:275 3:17 4:44 5:260 6:1 7:20 8:1 9:0 
100000 1:32 2:2003 3:39 4:61 5:288 6:20 7:16 8:13 9:67 
100000 1:27 2:1676 3:45 4:43 5:216 6:14 7:16 8:4 9:4 
59064.896471767963 1:27 2:6396 3:19 4:246 5:816 6:1 7:18 8:1 9:2 
100000 1:27 2:265 3:20 4:50 5:324 6:5 7:99 8:1 9:8 
100000 1:22 2:229 3:21 4:45 5:244 6:0 7:35 8:0 9:12 
100000 1:22 2:152 3:20 4:23 5:116 6:2 7:6 8:5 9:0 
100000 1:22 2:270 3:20 4:22 5:100 6:4 7:0 8:4 9:8 
100000 1:22 2:184 3:20 4:37 5:188 6:0 7:31 8:0 9:37 
100000 1:27 2:558 3:67 4:58 5:360 6:51 7:71 8:25 9:26 
100000 1:32 2:1042 3:31 4:63 5:492 6:9 7:91 8:6 9:78 
100000 1:37 2:2576 3:81 4:98 5:764 6:43 7:25 8:30 9:141 
100000 1:27 2:2191 3:51 4:158 5:624 6:14 7:18 8:7 9:11 
100000 1:22 2:448 3:19 4:60 5:280 6:1 7:17 8:8 9:42 
100000 1:22 2:272 3:23 4:28 5:120 6:6 7:14 8:5 9:17 
100000 1:22 2:1242 3:40 4:73 5:397 6:7 7:13 8:0 9:27 
100000 1:32 2:4417 3:207 4:159 5:1280 6:6 7:52 8:11 9:82 
100000 1:22 2:164 3:29 4:28 5:156 6:7 7:1 8:4 9:1 
100000 1:22 2:668 3:30 4:60 5:263 6:4 7:22 8:4 9:5 
100000 1:32 2:3694 3:80 4:172 5:732 6:15 7:6 8:13 9:67 
44120.102147821854 1:37 2:10704 3:44 4:344 5:2524 6:11 7:505 8:29 9:496 
100000 1:27 2:2133 3:36 4:124 5:436 6:28 7:98 8:3 9:27 
100000 1:22 2:2092 3:32 4:33 5:208 6:0 7:8 8:0 9:39 
100000 1:37 2:4009 3:70 4:35 5:212 6:3 7:17 8:6 9:3 
100000 1:22 2:295 3:20 4:38 5:156 6:1 7:10 8:2 9:12 
100000 1:22 2:166 3:28 4:29 5:134 6:4 7:2 8:2 9:21 
100000 1:32 2:6500 3:239 4:208 5:1292 6:44 7:126 8:81 9:33 
100000 1:32 2:589 3:20 4:77 5:340 6:0 7:177 8:0 9:16 
100000 1:22 2:217 3:21 4:27 5:156 6:7 7:16 8:3 9:2 
100000 1:22 2:1801 3:50 4:61 5:344 6:24 7:6 8:26 9:43 
100000 1:22 2:86 3:19 4:22 5:92 6:8 7:1 8:1 9:2 
100000 1:32 2:577 3:120 4:31 5:364 6:0 7:8 8:7 9:0 
100000 1:22 2:766 3:31 4:19 5:140 6:5 7:3 8:6 9:13 
100000 1:32 2:15092 3:130 4:61 5:504 6:39 7:28 8:19 9:46 
100000 1:37 2:2464 3:29 4:88 5:648 6:52 7:169 8:21 9:9 
100000 1:32 2:1623 3:40 4:120 5:460 6:8 7:2 8:1 9:167 
100000 1:27 2:313 3:20 4:43 5:272 6:4 7:20 8:8 9:35 
100000 1:37 2:5993 3:150 4:199 5:1256 6:52 7:54 8:129 9:152 
17290.854288036517 1:22 2:38056 3:20 4:227 5:1356 6:5 7:693 8:17 9:2 
100000 1:22 2:163 3:27 4:29 5:156 6:5 7:3 8:5 9:5 
100000 1:32 2:8759 3:107 4:240 5:596 6:11 7:52 8:8 9:2 
100000 1:32 2:6047 3:202 4:204 5:1756 6:35 7:46 8:43 9:31 
100000 1:22 2:709 3:40 4:56 5:333 6:12 7:34 8:2 9:5 
100000 1:22 2:267 3:35 4:38 5:176 6:0 7:11 8:8 9:6 
100000 1:32 2:254 3:17 4:24 5:116 6:8 7:4 8:17 9:1 
100000 1:32 2:1006 3:112 4:65 5:464 6:19 7:81 8:10 9:1 
100000 1:27 2:2265 3:115 4:51 5:832 6:17 7:9 8:38 9:11 
53980.443021324558 1:37 2:8572 3:76 4:80 5:864 6:9 7:29 8:141 9:189 
100000 1:27 2:305 3:25 4:46 5:220 6:0 7:2 8:0 9:24 
100000 1:22 2:432 3:25 4:25 5:128 6:5 7:4 8:7 9:0 
100000 1:37 2:5266 3:72 4:217 5:960 6:119 7:218 8:13 9:215 
100000 1:27 2:196 3:28 4:33 5:168 6:6 7:6 8:8 9:7 
100000 1:22 2:324 3:17 4:14 5:81 6:2 7:11 8:7 9:8 
100000 1:27 2:126 3:20 4:25 5:108 6:5 7:2 8:0 9:14 
100000 1:37 2:6268 3:223 4:196 5:1348 6:95 7:160 8:85 9:118 
100000 1:22 2:173 3:27 4:31 5:151 6:7 7:8 8:10 9:9 
100000 1:32 2:4035 3:42 4:78 5:420 6:16 7:50 8:49 9:45 
100000 1:27 2:174 3:24 4:30 5:172 6:4 7:5 8:30 9:7 
100000 1:22 2:1458 3:67 4:45 5:336 6:3 7:36 8:60 9:5 
100000 1:22 2:276 3:28 4:31 5:170 6:0 7:9 8:9 9:6 
100000 1:22 2:352 3:28 4:20 5:175 6:2 7:2 8:29 9:6 
100000 1:22 2:230 3:21 4:46 5:304 6:8 7:55 8:5 9:9 
100000 1:22 2:302 3:33 4:35 5:167 6:8 7:15 8:12 9:4 
100000 1:37 2:1674 3:65 4:68 5:662 6:60 7:21 8:50 9:40 
100000 1:22 2:403 3:22 4:53 5:268 6:4 7:25 8:8 9:13 
100000 1:37 2:1529 3:45 4:56 5:678 6:30 7:82 8:37 9:93 
100000 1:22 2:99 3:19 4:21 5:120 6:3 7:7 8:0 9:9 
100000 1:27 2:701 3:44 4:32 5:263 6:0 7:4 8:58 9:1 
100000 1:27 2:816 3:62 4:89 5:372 6:6 7:19 8:7 9:16 
100000 1:32 2:1013 3:125 4:31 5:504 6:46 7:83 8:16 9:61 
100000 1:32 2:13327 3:59 4:122 5:579 6:25 7:55 8:15 9:44 
100000 1:27 2:508 3:18 4:46 5:296 6:5 7:1 8:4 9:14 
100000 1:22 2:121 3:20 4:25 5:124 6:2 7:21 8:2 9:2 
100000 1:27 2:1931 3:16 4:59 5:408 6:15 7:175 8:3 9:14 
100000 1:37 2:7254 3:34 4:157 5:1040 6:58 7:555 8:10 9:68 
100000 1:37 2:7874 3:65 4:135 5:2496 6:109 7:303 8:83 9:255 
100000 1:32 2:1873 3:43 4:27 5:720 6:1 7:4 8:28 9:4 
100000 1:22 2:86 3:19 4:21 5:112 6:2 7:4 8:7 9:2 
100000 1:32 2:4812 3:82 4:59 5:700 6:2 7:28 8:22 9:51 
39615.773825711789 1:27 2:25622 3:36 4:211 5:1345 6:36 7:481 8:4 9:17 
100000 1:32 2:6149 3:105 4:247 5:920 6:64 7:32 8:12 9:205 
100000 1:32 2:10194 3:54 4:126 5:519 6:55 7:95 8:52 9:77 
100000 1:22 2:146 3:24 4:24 5:135 6:0 7:3 8:3 9:4 
100000 1:32 2:797 3:42 4:40 5:336 6:31 7:43 8:21 9:38 
100000 1:32 2:4789 3:183 4:171 5:936 6:62 7:60 8:43 9:48 
100000 1:32 2:1422 3:79 4:82 5:656 6:47 7:88 8:13 9:59 
100000 1:32 2:5193 3:91 4:50 5:664 6:26 7:43 8:99 9:78 
100000 1:32 2:9819 3:210 4:169 5:1084 6:63 7:0 8:166 9:112 
100000 1:32 2:6604 3:71 4:76 5:574 6:4 7:6 8:157 9:159 
38676.492610269772 1:32 2:4332 3:18 4:86 5:692 6:16 7:284 8:0 9:3 
100000 1:27 2:2998 3:95 4:125 5:503 6:11 7:40 8:18 9:57 
10275.508144304775 1:37 2:17955 3:72 4:48 5:2764 6:222 7:136 8:235 9:157 
100000 1:37 2:4678 3:177 4:173 5:1448 6:1 7:132 8:4 9:25 
100000 1:22 2:1565 3:41 4:39 5:208 6:5 7:24 8:52 9:9 
100000 1:22 2:762 3:37 4:56 5:300 6:6 7:11 8:16 9:2 
100000 1:27 2:5826 3:47 4:68 5:436 6:19 7:115 8:3 9:40 
100000 1:22 2:361 3:20 4:60 5:296 6:2 7:14 8:1 9:9 
66029.4774305623 1:22 2:11761 3:24 4:176 5:768 6:2 7:276 8:1 9:40 
100000 1:32 2:1424 3:53 4:51 5:264 6:17 7:16 8:43 9:21 
100000 1:22 2:374 3:35 4:18 5:221 6:14 7:0 8:14 9:12 
100000 1:32 2:927 3:21 4:68 5:512 6:0 7:100 8:0 9:13 
100000 1:32 2:4494 3:19 4:85 5:708 6:13 7:283 8:2 9:3 
100000 1:22 2:1154 3:46 4:28 5:201 6:4 7:5 8:60 9:0 
100000 1:32 2:1136 3:41 4:43 5:356 6:21 7:20 8:48 9:11 
100000 1:37 2:1645 3:50 4:42 5:416 6:5 7:35 8:27 9:73 
100000 1:22 2:540 3:22 4:17 5:136 6:10 7:12 8:39 9:9 
100000 1:22 2:1108 3:38 4:33 5:192 6:4 7:18 8:64 9:13 
100000 1:22 2:515 3:38 4:32 5:228 6:1 7:22 8:20 9:48 
100000 1:22 2:364 3:23 4:45 5:252 6:0 7:8 8:12 9:23 
100000 1:22 2:507 3:22 4:36 5:180 6:2 7:33 8:6 9:4 
100000 1:37 2:7630 3:127 4:281 5:1304 6:170 7:90 8:179 9:82 
100000 1:22 2:169 3:26 4:27 5:137 6:1 7:6 8:1 9:7 
100000 1:32 2:9261 3:72 4:27 5:614 6:3 7:11 8:85 9:14 
76197.8067977092 1:37 2:19306 3:18 4:219 5:1900 6:4 7:804 8:1 9:2 
100000 1:22 2:409 3:20 4:43 5:200 6:6 7:3 8:0 9:10 
100000 1:27 2:265 3:35 4:37 5:200 6:5 7:8 8:2 9:14 
100000 1:22 2:356 3:22 4:33 5:140 6:0 7:14 8:6 9:11 
100000 1:22 2:334 3:20 4:46 5:300 6:4 7:26 8:5 9:9 
100000 1:22 2:686 3:33 4:59 5:286 6:3 7:67 8:3 9:23 
100000 1:37 2:11735 3:130 4:67 5:930 6:82 7:84 8:198 9:41 
100000 1:22 2:2390 3:47 4:38 5:249 6:3 7:1 8:56 9:1 
100000 1:27 2:803 3:23 4:79 5:412 6:2 7:65 8:1 9:45 
100000 1:37 2:2568 3:85 4:85 5:429 6:20 7:10 8:44 9:28 
100000 1:32 2:147 3:19 4:34 5:160 6:1 7:14 8:5 9:12 
100000 1:22 2:539 3:18 4:69 5:312 6:1 7:25 8:0 9:10 
100000 1:32 2:2974 3:152 4:122 5:884 6:55 7:4 8:3 9:13 
100000 1:37 2:6291 3:235 4:89 5:1008 6:6 7:30 8:152 9:41 
100000 1:37 2:2807 3:52 4:88 5:564 6:53 7:63 8:74 9:134 
100000 1:27 2:1070 3:42 4:37 5:233 6:5 7:18 8:13 9:29 
22309.135571960695 1:37 2:40561 3:158 4:60 5:1920 6:48 7:69 8:132 9:27 
100000 1:22 2:1117 3:32 4:37 5:224 6:4 7:4 8:8 9:18 
79408.252117485565 1:32 2:4125 3:163 4:168 5:1032 6:67 7:15 8:29 9:47 
100000 1:27 2:407 3:32 4:38 5:198 6:7 7:11 8:4 9:39 
100000 1:37 2:1862 3:79 4:80 5:516 6:94 7:57 8:16 9:19 
100000 1:32 2:7176 3:20 4:281 5:1040 6:5 7:158 8:9 9:9 
502.51331220907309 1:32 2:72707 3:178 4:192 5:1748 6:82 7:78 8:443 9:533 
100000 1:37 2:3720 3:143 4:44 5:628 6:19 7:8 8:54 9:55 
100000 1:32 2:6241 3:201 4:194 5:1752 6:64 7:30 8:12 9:54 
100000 1:32 2:751 3:86 4:69 5:384 6:78 7:66 8:12 9:14 
100000 1:37 2:2640 3:58 4:92 5:556 6:31 7:1 8:3 9:47 
100000 1:27 2:1062 3:142 4:37 5:520 6:8 7:1 8:63 9:14 
100000 1:22 2:310 3:23 4:35 5:212 6:0 7:32 8:6 9:16 
100000 1:37 2:414 3:21 4:64 5:336 6:0 7:109 8:3 9:8 
100000 1:32 2:772 3:46 4:59 5:334 6:16 7:13 8:14 9:44 
100000 1:22 2:280 3:21 4:35 5:164 6:7 7:11 8:1 9:3 
100000 1:27 2:2670 3:52 4:69 5:312 6:10 7:45 8:49 9:109 
100000 1:32 2:941 3:41 4:39 5:279 6:20 7:13 8:33 9:19 
100000 1:37 2:2177 3:109 4:96 5:680 6:57 7:10 8:31 9:83 
100000 1:22 2:219 3:20 4:41 5:180 6:5 7:18 8:8 9:18 
93512.491899086832 1:37 2:3126 3:39 4:108 5:2388 6:70 7:312 8:60 9:73 
100000 1:27 2:277 3:20 4:51 5:256 6:5 7:57 8:3 9:35 
100000 1:32 2:4527 3:61 4:41 5:531 6:1 7:44 8:83 9:74 
100000 1:32 2:1066 3:58 4:68 5:406 6:23 7:29 8:39 9:86 
100000 1:37 2:5049 3:33 4:119 5:752 6:64 7:138 8:34 9:1 
100000 1:22 2:684 3:23 4:31 5:128 6:0 7:8 8:6 9:23 
100000 1:27 2:313 3:35 4:37 5:208 6:0 7:3 8:12 9:3 
100000 1:22 2:1061 3:61 4:53 5:385 6:1 7:75 8:37 9:23 
100000 1:32 2:4054 3:65 4:124 5:768 6:22 7:29 8:37 9:75 
1486.2780073338834 1:32 2:64223 3:152 4:161 5:2208 6:13 7:25 8:259 9:327 
100000 1:32 2:1509 3:63 4:44 5:616 6:16 7:0 8:26 9:41 
100000 1:32 2:1714 3:66 4:23 5:396 6:17 7:14 8:139 9:21 
100000 1:32 2:4291 3:81 4:120 5:628 6:37 7:14 8:37 9:58 
100000 1:22 2:154 3:19 4:31 5:144 6:8 7:18 8:3 9:16 
100000 1:27 2:195 3:20 4:31 5:140 6:4 7:5 8:0 9:20 
100000 1:27 2:670 3:24 4:52 5:212 6:4 7:10 8:10 9:9 
100000 1:27 2:451 3:19 4:56 5:300 6:8 7:146 8:6 9:9 
100000 1:37 2:10222 3:28 4:115 5:1020 6:55 7:397 8:24 9:13 
100000 1:32 2:900 3:28 4:78 5:452 6:4 7:173 8:9 9:3 
100000 1:27 2:238 3:20 4:41 5:260 6:1 7:55 8:3 9:25 
100000 1:37 2:1196 3:155 4:31 5:404 6:17 7:2 8:72 9:5 
100000 1:37 2:14048 3:96 4:143 5:776 6:7 7:27 8:33 9:25 
100000 1:37 2:3673 3:21 4:197 5:876 6:13 7:585 8:3 9:14 
100000 1:22 2:98 3:19 4:20 5:84 6:2 7:7 8:0 9:4 
100000 1:37 2:13756 3:99 4:74 5:541 6:23 7:25 8:127 9:77 
100000 1:22 2:233 3:22 4:45 5:160 6:2 7:0 8:11 9:9 
100000 1:27 2:376 3:23 4:47 5:204 6:6 7:2 8:6 9:21 
100000 1:32 2:2130 3:56 4:104 5:568 6:11 7:39 8:8 9:58 
100000 1:32 2:1831 3:60 4:52 5:440 6:44 7:18 8:56 9:4 
100000 1:37 2:5397 3:206 4:197 5:1180 6:53 7:22 8:134 9:79 
100000 1:27 2:927 3:39 4:31 5:252 6:13 7:6 8:22 9:5 
100000 1:32 2:1233 3:31 4:24 5:208 6:30 7:6 8:50 9:20 
100000 1:32 2:272 3:30 4:33 5:176 6:2 7:4 8:17 9:8 
100000 1:27 2:1611 3:36 4:34 5:188 6:7 7:33 8:59 9:4 
15964.49487680011 1:32 2:22357 3:93 4:59 5:684 6:102 7:87 8:305 9:163 
8568.7574875595928 1:37 2:45702 3:162 4:167 5:1276 6:28 7:42 8:190 9:266 
100000 1:27 2:12812 3:254 4:322 5:2304 6:1 7:60 8:41 9:63 
100000 1:37 2:2475 3:72 4:67 5:863 6:44 7:7 8:55 9:30 
100000 1:37 2:3422 3:130 4:122 5:956 6:68 7:65 8:88 9:22 
100000 1:27 2:206 3:18 4:50 5:228 6:3 7:3 8:5 9:9 
100000 1:22 2:382 3:28 4:29 5:135 6:14 7:9 8:2 9:1 
100000 1:22 2:252 3:31 4:30 5:168 6:1 7:9 8:9 9:5 
100000 1:27 2:455 3:21 4:42 5:240 6:6 7:9 8:0 9:18 
100000 1:22 2:2350 3:32 4:64 5:236 6:4 7:1 8:3 9:0 
100000 1:22 2:933 3:38 4:44 5:240 6:8 7:6 8:23 9:22 
100000 1:27 2:363 3:31 4:31 5:182 6:5 7:21 8:13 9:4 
100000 1:27 2:445 3:24 4:42 5:220 6:4 7:7 8:1 9:25 
7117.1748628189634 1:37 2:47696 3:107 4:264 5:1540 6:3 7:446 8:208 9:113 
100000 1:27 2:10882 3:49 4:117 5:484 6:35 7:171 8:50 9:94 
100000 1:22 2:148 3:21 4:28 5:112 6:11 7:1 8:1 9:1 
100000 1:27 2:891 3:22 4:78 5:368 6:3 7:88 8:1 9:16 
100000 1:37 2:4249 3:182 4:183 5:1240 6:15 7:54 8:79 9:57 
100000 1:22 2:176 3:29 4:26 5:136 6:2 7:4 8:2 9:1 
100000 1:27 2:10329 3:100 4:179 5:886 6:14 7:8 8:25 9:59 
100000 1:37 2:3864 3:26 4:210 5:1164 6:7 7:65 8:8 9:8 
100000 1:32 2:5465 3:202 4:199 5:1276 6:12 7:84 8:1 9:9 
100000 1:32 2:2683 3:44 4:83 5:476 6:8 7:46 8:43 9:43 
100000 1:22 2:397 3:37 4:37 5:181 6:8 7:13 8:1 9:23 
100000 1:32 2:4933 3:156 4:36 5:728 6:22 7:5 8:167 9:4 
100000 1:37 2:10740 3:81 4:200 5:1276 6:21 7:263 8:2 9:82 
75681.5299963055 1:37 2:1283 3:40 4:37 5:1720 6:4 7:6 8:98 9:1 
100000 1:27 2:8855 3:56 4:94 5:524 6:30 7:19 8:16 9:160 
100000 1:37 2:2824 3:103 4:145 5:780 6:3 7:39 8:17 9:33 
100000 1:37 2:5275 3:78 4:183 5:1088 6:40 7:197 8:72 9:81 
100000 1:37 2:3943 3:153 4:161 5:1500 6:100 7:72 8:12 9:0 
100000 1:22 2:264 3:20 4:32 5:144 6:9 7:26 8:0 9:6 
100000 1:22 2:256 3:26 4:34 5:148 6:6 7:12 8:3 9:3 
100000 1:27 2:447 3:21 4:51 5:268 6:1 7:32 8:0 9:12 
100000 1:22 2:165 3:28 4:29 5:126 6:1 7:8 8:1 9:11 
100000 1:22 2:1322 3:180 4:6 5:464 6:5 7:0 8:7 9:0 
100000 1:37 2:3443 3:104 4:45 5:736 6:11 7:5 8:303 9:36 
100000 1:37 2:1698 3:66 4:77 5:512 6:11 7:18 8:117 9:58 
100000 1:27 2:252 3:22 4:39 5:196 6:4 7:10 8:7 9:16 
100000 1:37 2:10631 3:58 4:171 5:867 6:34 7:64 8:62 9:179 
100000 1:27 2:169 3:20 4:40 5:184 6:4 7:12 8:3 9:4 
100000 1:37 2:6050 3:91 4:248 5:1012 6:72 7:240 8:1 9:42 
100000 1:22 2:771 3:34 4:58 5:324 6:2 7:79 8:8 9:11 
42247.309452069589 1:32 2:1984 3:43 4:146 5:524 6:2 7:7 8:38 9:159 
100000 1:22 2:166 3:28 4:30 5:136 6:7 7:0 8:3 9:1 
100000 1:22 2:227 3:22 4:28 5:180 6:1 7:8 8:3 9:9 
100000 1:22 2:352 3:21 4:59 5:256 6:0 7:15 8:7 9:5 
100000 1:27 2:762 3:143 4:35 5:408 6:7 7:9 8:10 9:2 
100000 1:22 2:177 3:28 4:30 5:146 6:9 7:7 8:4 9:12 
100000 1:22 2:931 3:28 4:30 5:152 6:15 7:5 8:7 9:4 
100000 1:32 2:300 3:20 4:47 5:204 6:6 7:2 8:0 9:18 
100000 1:32 2:549 3:21 4:70 5:332 6:4 7:162 8:0 9:0 
6006.616892354451 1:32 2:16190 3:27 4:540 5:2284 6:11 7:191 8:10 9:91 
100000 1:22 2:167 3:29 4:28 5:157 6:0 7:11 8:5 9:4 
100000 1:32 2:10283 3:23 4:191 5:936 6:4 7:427 8:0 9:12 
100000 1:22 2:233 3:18 4:33 5:144 6:1 7:12 8:1 9:4 
100000 1:22 2:1149 3:130 4:10 5:464 6:9 7:2 8:48 9:0 
100000 1:22 2:198 3:27 4:33 5:152 6:2 7:5 8:4 9:6 
100000 1:37 2:9070 3:246 4:159 5:2328 6:83 7:131 8:171 9:263 
7924.5500893396766 1:37 2:14671 3:102 4:144 5:976 6:9 7:34 8:7 9:50 
100000 1:22 2:206 3:26 4:27 5:163 6:0 7:0 8:1 9:0 
100000 1:32 2:465 3:18 4:60 5:272 6:3 7:20 8:1 9:22 
100000 1:22 2:105 3:22 4:29 5:102 6:3 7:4 8:0 9:21 
100000 1:32 2:1590 3:45 4:73 5:559 6:20 7:71 8:37 9:104 
100000 1:22 2:158 3:28 4:29 5:143 6:0 7:9 8:7 9:12 
100000 1:22 2:199 3:22 4:34 5:176 6:0 7:10 8:1 9:18 
7687.6294921814269 1:32 2:5645 3:160 4:187 5:1644 6:8 7:185 8:57 9:164 
100000 1:32 2:2025 3:45 4:53 5:274 6:3 7:35 8:29 9:63 
100000 1:22 2:954 3:147 4:44 5:424 6:1 7:6 8:55 9:1 
100000 1:32 2:1788 3:28 4:69 5:408 6:2 7:37 8:19 9:31 
100000 1:27 2:9390 3:48 4:203 5:813 6:36 7:162 8:8 9:9 
100000 1:32 2:1765 3:101 4:51 5:393 6:12 7:18 8:13 9:66 
100000 1:27 2:5376 3:49 4:73 5:412 6:29 7:116 8:37 9:32 
100000 1:37 2:2952 3:160 4:72 5:1028 6:32 7:29 8:34 9:94 
100000 1:22 2:274 3:19 4:44 5:176 6:1 7:0 8:0 9:7 
100000 1:37 2:8304 3:140 4:86 5:1140 6:16 7:122 8:4 9:82 
100000 1:27 2:4378 3:62 4:51 5:248 6:18 7:19 8:98 9:24 
100000 1:32 2:973 3:34 4:35 5:216 6:3 7:3 8:54 9:3 
100000 1:32 2:6736 3:26 4:123 5:742 6:3 7:312 8:1 9:34 
100000 1:32 2:607 3:24 4:53 5:248 6:14 7:19 8:14 9:5 
100000 1:32 2:1889 3:67 4:136 5:664 6:20 7:81 8:16 9:57 
100000 1:22 2:70 3:8 4:16 5:88 6:3 7:0 8:2 9:5 
97829.016941982336 1:27 2:2061 3:66 4:90 5:720 6:32 7:61 8:5 9:9 
100000 1:32 2:3742 3:201 4:69 5:1088 6:6 7:97 8:24 9:103 
53365.337365183819 1:37 2:7720 3:156 4:136 5:1200 6:88 7:213 8:66 9:65 
100000 1:27 2:389 3:20 4:53 5:312 6:5 7:56 8:0 9:8 
100000 1:22 2:2212 3:53 4:36 5:253 6:21 7:5 8:39 9:7 
100000 1:27 2:1549 3:58 4:73 5:401 6:25 7:47 8:11 9:12 
100000 1:32 2:9242 3:100 4:101 5:681 6:34 7:79 8:96 9:86 
100000 1:22 2:378 3:19 4:60 5:256 6:1 7:13 8:3 9:26 
100000 1:22 2:343 3:20 4:45 5:184 6:2 7:12 8:6 9:21 
100000 1:37 2:1314 3:30 4:83 5:688 6:11 7:185 8:38 9:5 
53618.629870445489 1:32 2:13263 3:28 4:304 5:1212 6:0 7:13 8:13 9:31 
100000 1:27 2:332 3:35 4:44 5:316 6:1 7:10 8:52 9:9 
100000 1:32 2:843 3:17 4:60 5:336 6:0 7:16 8:2 9:6 
100000 1:32 2:2055 3:48 4:41 5:272 6:11 7:36 8:25 9:4 
100000 1:22 2:4922 3:85 4:54 5:340 6:0 7:20 8:18 9:27 
100000 1:27 2:4893 3:38 4:108 5:408 6:26 7:188 8:14 9:2 
100000 1:32 2:1683 3:150 4:94 5:572 6:61 7:107 8:124 9:10 
100000 1:32 2:1834 3:72 4:87 5:508 6:45 7:87 8:53 9:34 
100000 1:27 2:529 3:44 4:46 5:208 6:4 7:26 8:4 9:24 
100000 1:27 2:978 3:32 4:57 5:384 6:10 7:77 8:5 9:87 
100000 1:32 2:662 3:20 4:52 5:788 6:1 7:89 8:4 9:32 
100000 1:32 2:8097 3:81 4:64 5:564 6:8 7:5 8:88 9:52 
100000 1:37 2:1001 3:53 4:33 5:968 6:62 7:57 8:2 9:59 
100000 1:22 2:685 3:34 4:49 5:196 6:0 7:19 8:3 9:6 
100000 1:27 2:549 3:18 4:55 5:368 6:9 7:80 8:3 9:8 
100000 1:27 2:199 3:22 4:15 5:148 6:6 7:9 8:35 9:14 
100000 1:27 2:351 3:30 4:20 5:292 6:16 7:9 8:0 9:2 
100000 1:22 2:192 3:31 4:32 5:170 6:13 7:1 8:3 9:6 
100000 1:22 2:336 3:20 4:35 5:160 6:5 7:20 8:2 9:14 
100000 1:32 2:8195 3:56 4:93 5:500 6:52 7:16 8:146 9:168 
100000 1:37 2:33617 3:58 4:199 5:1366 6:101 7:294 8:19 9:100 
100000 1:37 2:6043 3:110 4:88 5:696 6:52 7:27 8:17 9:88 
100000 1:37 2:1922 3:36 4:113 5:684 6:16 7:103 8:32 9:39 
100000 1:27 2:1205 3:31 4:58 5:372 6:28 7:54 8:39 9:79 
100000 1:32 2:1930 3:75 4:148 5:567 6:25 7:72 8:13 9:10 
100000 1:22 2:271 3:12 4:13 5:100 6:7 7:10 8:18 9:10 
100000 1:22 2:332 3:24 4:24 5:108 6:4 7:4 8:3 9:9 
100000 1:32 2:1051 3:110 4:42 5:532 6:11 7:15 8:52 9:16 
5410.2112875775356 1:37 2:44797 3:252 4:643 5:2548 6:4 7:1040 8:55 9:194 
100000 1:32 2:6782 3:53 4:74 5:372 6:2 7:76 8:40 9:46 
100000 1:32 2:1111 3:44 4:59 5:407 6:52 7:78 8:13 9:33 
100000 1:22 2:123 3:19 4:27 5:148 6:1 7:3 8:21 9:1 
35868.226427557784 1:32 2:14286 3:23 4:153 5:980 6:8 7:478 8:6 9:25 
100000 1:27 2:1313 3:178 4:7 5:460 6:7 7:1 8:28 9:1 
100000 1:27 2:929 3:22 4:47 5:304 6:0 7:108 8:0 9:21 
100000 1:27 2:182 3:18 4:34 5:168 6:6 7:0 8:1 9:12 
100000 1:32 2:6739 3:42 4:114 5:640 6:16 7:72 8:0 9:13 
100000 1:22 2:155 3:27 4:29 5:137 6:12 7:3 8:0 9:3 
100000 1:37 2:5111 3:96 4:111 5:506 6:17 7:12 8:21 9:50 
100000 1:37 2:1828 3:146 4:34 5:612 6:43 7:2 8:2 9:9 
9268.2352132489996 1:22 2:10795 3:34 4:429 5:1952 6:2 7:1372 8:3 9:136 
100000 1:32 2:2247 3:56 4:38 5:588 6:35 7:11 8:154 9:98 
100000 1:27 2:673 3:31 4:36 5:411 6:17 7:19 8:2 9:23 
12344.388893130705 1:37 2:41396 3:28 4:296 5:2696 6:40 7:1060 8:4 9:53 
100000 1:27 2:684 3:23 4:71 5:416 6:10 7:12 8:9 9:50 
100000 1:37 2:4221 3:38 4:84 5:404 6:39 7:117 8:22 9:63 
100000 1:37 2:5322 3:189 4:179 5:1596 6:77 7:102 8:37 9:6 
100000 1:22 2:301 3:19 4:27 5:376 6:4 7:33 8:1 9:9 
100000 1:22 2:212 3:32 4:32 5:165 6:7 7:9 8:8 9:1 
100000 1:37 2:3207 3:34 4:60 5:548 6:55 7:129 8:1 9:96 
100000 1:37 2:4627 3:83 4:131 5:738 6:95 7:5 8:46 9:82 
100000 1:32 2:2005 3:74 4:154 5:482 6:1 7:4 8:37 9:35 
71812.821396549596 1:32 2:3891 3:46 4:238 5:834 6:53 7:211 8:1 9:5 
100000 1:22 2:3924 3:53 4:56 5:217 6:5 7:86 8:36 9:13 
100000 1:37 2:8009 3:79 4:212 5:976 6:21 7:14 8:21 9:227 
100000 1:22 2:183 3:18 4:29 5:124 6:2 7:0 8:4 9:2 
100000 1:32 2:8974 3:121 4:170 5:920 6:77 7:96 8:16 9:17 
100000 1:27 2:482 3:31 4:53 5:354 6:11 7:66 8:5 9:21 
100000 1:27 2:8417 3:224 4:257 5:2380 6:50 7:132 8:15 9:195 
100000 1:22 2:1183 3:42 4:43 5:233 6:12 7:9 8:19 9:23 
100000 1:27 2:890 3:22 4:66 5:448 6:5 7:2 8:7 9:79 
100000 1:32 2:1844 3:17 4:58 5:392 6:17 7:179 8:2 9:12 
100000 1:27 2:446 3:28 4:42 5:329 6:5 7:35 8:0 9:21 
100000 1:32 2:3909 3:182 4:165 5:1228 6:6 7:78 8:28 9:34 
100000 1:27 2:1051 3:25 4:24 5:160 6:8 7:18 8:40 9:27 
100000 1:32 2:1063 3:43 4:41 5:201 6:10 7:11 8:25 9:18 
100000 1:22 2:111 3:20 4:24 5:124 6:0 7:3 8:16 9:8 
100000 1:32 2:1711 3:32 4:46 5:288 6:13 7:13 8:17 9:79 
100000 1:27 2:157 3:13 4:33 5:252 6:0 7:80 8:1 9:27 
100000 1:32 2:416 3:35 4:26 5:212 6:8 7:21 8:6 9:7 
100000 1:32 2:6212 3:49 4:419 5:936 6:11 7:31 8:35 9:8 
100000 1:27 2:433 3:32 4:32 5:250 6:24 7:32 8:6 9:29 
100000 1:37 2:4633 3:42 4:109 5:472 6:33 7:167 8:9 9:22 
100000 1:37 2:3481 3:115 4:81 5:672 6:42 7:156 8:24 9:41 
100000 1:22 2:756 3:20 4:68 5:328 6:6 7:36 8:0 9:31 
100000 1:32 2:1706 3:74 4:51 5:515 6:69 7:8 8:158 9:10 
100000 1:27 2:185 3:53 4:22 5:224 6:15 7:5 8:34 9:12 
100000 1:32 2:451 3:27 4:56 5:318 6:8 7:96 8:1 9:37 
100000 1:22 2:505 3:21 4:38 5:172 6:5 7:33 8:2 9:3 
100000 1:27 2:429 3:21 4:47 5:240 6:5 7:40 8:9 9:18 
100000 1:22 2:487 3:36 4:43 5:242 6:0 7:12 8:8 9:9 
100000 1:32 2:1040 3:47 4:37 5:584 6:37 7:28 8:26 9:25 
100000 1:37 2:5122 3:105 4:204 5:956 6:7 7:312 8:267 9:78 
100000 1:32 2:1020 3:43 4:57 5:511 6:2 7:11 8:71 9:127 
59234.891900911163 1:32 2:8099 3:249 4:204 5:1732 6:87 7:10 8:202 9:22 
100000 1:27 2:668 3:44 4:22 5:296 6:16 7:8 8:50 9:7 
100000 1:27 2:2266 3:31 4:89 5:318 6:2 7:63 8:12 9:18 
19723.312803752757 1:37 2:2733 3:57 4:69 5:856 6:84 7:149 8:56 9:79 
3481.4258976901961 1:37 2:46894 3:120 4:210 5:1512 6:64 7:328 8:151 9:250 
100000 1:37 2:2596 3:136 4:141 5:760 6:21 7:42 8:68 9:51 
38891.980088560638 1:32 2:26821 3:247 4:367 5:1940 6:382 7:773 8:89 9:73 
100000 1:37 2:5953 3:113 4:219 5:1012 6:106 7:222 8:88 9:147 
100000 1:22 2:903 3:30 4:46 5:190 6:3 7:1 8:2 9:24 
100000 1:37 2:5110 3:168 4:164 5:1056 6:104 7:39 8:81 9:53 
100000 1:27 2:334 3:23 4:30 5:268 6:10 7:21 8:4 9:21 
100000 1:32 2:2681 3:93 4:98 5:524 6:0 7:180 8:4 9:123 
100000 1:27 2:281 3:33 4:42 5:252 6:1 7:4 8:53 9:12 
100000 1:22 2:246 3:33 4:32 5:186 6:14 7:1 8:11 9:6 
100000 1:37 2:2437 3:55 4:73 5:476 6:78 7:25 8:14 9:4 
100000 1:22 2:508 3:21 4:43 5:204 6:0 7:12 8:4 9:4 
100000 1:22 2:265 3:19 4:14 5:180 6:26 7:11 8:31 9:14 
100000 1:32 2:4450 3:49 4:114 5:584 6:13 7:105 8:32 9:94 
100000 1:32 2:5581 3:60 4:24 5:348 6:5 7:2 8:141 9:5 
100000 1:27 2:600 3:107 4:44 5:468 6:40 7:7 8:42 9:12 
100000 1:22 2:152 3:28 4:31 5:153 6:0 7:8 8:2 9:5 
100000 1:22 2:188 3:27 4:27 5:183 6:0 7:2 8:3 9:0 
100000 1:22 2:1011 3:73 4:66 5:464 6:8 7:8 8:7 9:13 
100000 1:22 2:203 3:19 4:45 5:192 6:1 7:33 8:2 9:14 
100000 1:22 2:1385 3:174 4:7 5:480 6:1 7:0 8:1 9:2 
100000 1:27 2:374 3:45 4:40 5:336 6:2 7:16 8:112 9:66 
3360.5658019817897 1:32 2:59448 3:89 4:361 5:1625 6:6 7:379 8:207 9:168 
100000 1:37 2:9131 3:145 4:143 5:948 6:82 7:29 8:101 9:62 
100000 1:22 2:484 3:22 4:52 5:292 6:2 7:14 8:12 9:39 
100000 1:22 2:522 3:22 4:51 5:252 6:3 7:41 8:1 9:27 
100000 1:22 2:2543 3:44 4:38 5:190 6:10 7:1 8:37 9:40 
100000 1:32 2:7202 3:28 4:251 5:1372 6:8 7:730 8:2 9:53 
4214.417364518019 1:32 2:23312 3:31 4:652 5:2580 6:3 7:688 8:5 9:73 
100000 1:27 2:3917 3:31 4:93 5:367 6:8 7:110 8:8 9:27 
41167.964755414447 1:22 2:486 3:19 4:56 5:332 6:2 7:111 8:1 9:4 
21224.741370420565 1:37 2:22177 3:204 4:183 5:2356 6:141 7:158 8:405 9:62 
100000 1:22 2:211 3:28 4:30 5:144 6:5 7:3 8:10 9:6 
100000 1:37 2:11571 3:76 4:134 5:872 6:17 7:63 8:92 9:84 
100000 1:22 2:171 3:30 4:29 5:163 6:2 7:3 8:3 9:10 
100000 1:27 2:3048 3:44 4:80 5:444 6:20 7:33 8:20 9:54 
100000 1:27 2:2770 3:35 4:79 5:472 6:11 7:77 8:17 9:51 
100000 1:27 2:3281 3:34 4:82 5:424 6:21 7:96 8:19 9:49 
100000 1:37 2:7736 3:179 4:101 5:1024 6:31 7:19 8:247 9:74 
100000 1:27 2:15636 3:83 4:70 5:674 6:17 7:29 8:40 9:16 
100000 1:22 2:250 3:18 4:48 5:256 6:6 7:14 8:3 9:8 
100000 1:32 2:10020 3:45 4:137 5:772 6:3 7:341 8:37 9:82 
100000 1:22 2:119 3:20 4:20 5:160 6:9 7:4 8:10 9:5 
100000 1:37 2:556 3:34 4:55 5:636 6:1 7:38 8:5 9:39 
100000 1:32 2:1591 3:47 4:39 5:609 6:68 7:13 8:90 9:19 
100000 1:32 2:383 3:21 4:56 5:228 6:3 7:0 8:3 9:1 
100000 1:27 2:788 3:25 4:60 5:312 6:4 7:14 8:13 9:42 
100000 1:37 2:5117 3:20 4:137 5:960 6:3 7:361 8:12 9:24 
100000 1:37 2:2305 3:34 4:45 5:1376 6:9 7:36 8:29 9:59 
100000 1:22 2:174 3:29 4:31 5:136 6:7 7:9 8:7 9:3 
100000 1:37 2:4031 3:129 4:62 5:968 6:0 7:0 8:251 9:69 
100000 1:37 2:922 3:41 4:30 5:744 6:0 7:43 8:33 9:46 
100000 1:22 2:120 3:19 4:30 5:136 6:4 7:0 8:4 9:17 
100000 1:37 2:4227 3:174 4:160 5:1236 6:39 7:11 8:72 9:100 
100000 1:22 2:446 3:25 4:51 5:240 6:6 7:37 8:1 9:11 
100000 1:32 2:603 3:25 4:65 5:368 6:0 7:46 8:7 9:13 
100000 1:27 2:2425 3:36 4:66 5:360 6:3 7:15 8:56 9:36 
100000 1:22 2:226 3:31 4:30 5:167 6:4 7:6 8:3 9:6 
100000 1:37 2:2513 3:68 4:78 5:733 6:63 7:168 8:76 9:46 
100000 1:27 2:23379 3:21 4:221 5:1748 6:0 7:750 8:1 9:22 
100000 1:32 2:6006 3:63 4:216 5:701 6:30 7:95 8:60 9:42 
100000 1:32 2:313 3:20 4:47 5:228 6:5 7:28 8:5 9:3 
12257.486501081426 1:32 2:40458 3:89 4:214 5:1472 6:23 7:363 8:70 9:166 
100000 1:32 2:635 3:26 4:43 5:475 6:19 7:53 8:35 9:90 
100000 1:32 2:2440 3:141 4:129 5:648 6:4 7:9 8:45 9:31 
100000 1:22 2:149 3:27 4:29 5:126 6:8 7:2 8:3 9:6 
100000 1:32 2:468 3:22 4:68 5:328 6:7 7:51 8:8 9:11 
100000 1:37 2:1660 3:61 4:67 5:764 6:91 7:123 8:61 9:37 
100000 1:37 2:1832 3:97 4:126 5:704 6:35 7:145 8:12 9:66 
100000 1:22 2:554 3:30 4:25 5:129 6:3 7:0 8:0 9:5 
100000 1:37 2:1106 3:33 4:60 5:612 6:19 7:116 8:9 9:31 
100000 1:22 2:167 3:14 4:21 5:276 6:3 7:15 8:12 9:39 
100000 1:27 2:644 3:28 4:52 5:268 6:17 7:23 8:42 9:13 
100000 1:37 2:3869 3:106 4:169 5:1026 6:35 7:134 8:5 9:179 
100000 1:32 2:791 3:39 4:43 5:368 6:26 7:61 8:29 9:8 
100000 1:22 2:2410 3:60 4:53 5:276 6:22 7:22 8:46 9:47 
100000 1:22 2:339 3:31 4:38 5:195 6:7 7:8 8:2 9:7 
100000 1:22 2:173 3:28 4:26 5:143 6:2 7:1 8:1 9:1 
100000 1:27 2:1332 3:178 4:7 5:480 6:9 7:3 8:2 9:1 
100000 1:22 2:74 3:13 4:18 5:99 6:8 7:21 8:1 9:4 
100000 1:32 2:629 3:33 4:34 5:782 6:17 7:2 8:26 9:19 
100000 1:22 2:222 3:32 4:31 5:158 6:7 7:17 8:3 9:3 
100000 1:22 2:330 3:24 4:20 5:140 6:11 7:5 8:18 9:10 
80856.297885926106 1:27 2:33953 3:133 4:67 5:856 6:20 7:73 8:451 9:213 
100000 1:22 2:224 3:19 4:37 5:260 6:8 7:18 8:0 9:3 
100000 1:22 2:281 3:20 4:43 5:208 6:3 7:3 8:1 9:28 
100000 1:37 2:7451 3:176 4:61 5:1000 6:0 7:15 8:79 9:100 
100000 1:22 2:174 3:27 4:29 5:129 6:12 7:13 8:8 9:8 
100000 1:37 2:11527 3:104 4:125 5:836 6:30 7:108 8:35 9:160 
100000 1:37 2:11577 3:160 4:160 5:856 6:28 7:7 8:73 9:27 
100000 1:27 2:857 3:74 4:21 5:480 6:23 7:9 8:100 9:0 
100000 1:22 2:148 3:7 4:18 5:94 6:0 7:4 8:3 9:7 
100000 1:37 2:4696 3:49 4:80 5:582 6:30 7:142 8:23 9:132 
100000 1:32 2:1065 3:42 4:112 5:556 6:11 7:97 8:5 9:1 
20310.323340434283 1:37 2:11670 3:180 4:65 5:1412 6:11 7:15 8:483 9:84 
100000 1:22 2:366 3:34 4:31 5:196 6:5 7:9 8:3 9:1 
100000 1:27 2:8848 3:53 4:92 5:520 6:2 7:130 8:66 9:69 
100000 1:32 2:420 3:24 4:24 5:640 6:3 7:12 8:6 9:5 
100000 1:32 2:321 3:22 4:43 5:176 6:0 7:20 8:4 9:2 
100000 1:27 2:1106 3:47 4:56 5:452 6:8 7:62 8:55 9:24 
100000 1:32 2:5223 3:176 4:178 5:1084 6:21 7:34 8:7 9:24 
100000 1:27 2:4308 3:25 4:133 5:616 6:16 7:44 8:2 9:6 
100000 1:27 2:315 3:32 4:33 5:177 6:7 7:5 8:8 9:14 
100000 1:27 2:3874 3:34 4:121 5:432 6:14 7:45 8:3 9:107 
100000 1:37 2:13277 3:139 4:95 5:964 6:78 7:44 8:286 9:86 
100000 1:27 2:301 3:31 4:17 5:172 6:8 7:5 8:35 9:9 
42518.334508312997 1:37 2:45619 3:238 4:542 5:2360 6:322 7:1161 8:43 9:5 
100000 1:22 2:496 3:25 4:67 5:260 6:3 7:20 8:5 9:19 
100000 1:32 2:3110 3:66 4:74 5:760 6:65 7:6 8:18 9:47 
100000 1:37 2:4007 3:56 4:91 5:790 6:101 7:245 8:7 9:8 
100000 1:37 2:2216 3:77 4:49 5:488 6:4 7:33 8:140 9:36 
100000 1:32 2:2970 3:16 4:126 5:836 6:19 7:95 8:5 9:76 
100000 1:27 2:903 3:151 4:36 5:488 6:60 7:13 8:35 9:12 
68091.563681540836 1:37 2:11021 3:102 4:246 5:921 6:53 7:7 8:80 9:223 
100000 1:37 2:5758 3:162 4:181 5:1400 6:30 7:216 8:4 9:133 
13419.211798760245 1:32 2:27920 3:131 4:206 5:3028 6:350 7:590 8:433 9:724 
-100000 1:22 2:26 3:9 4:12 5:75 6:5 7:2 8:6 9:8 
-52723.672895230171 1:32 2:167 3:12 4:24 5:268 6:3 7:24 8:10 9:25 
-100000 1:27 2:288 3:21 4:33 5:140 6:1 7:6 8:7 9:10 
-100000 1:27 2:412 3:19 4:46 5:236 6:5 7:19 8:2 9:28 
-100000 1:27 2:565 3:16 4:32 5:300 6:9 7:48 8:6 9:3 
-100000 1:27 2:748 3:32 4:36 5:196 6:7 7:19 8:5 9:22 
-92429.550273454879 1:27 2:1597 3:30 4:7 5:205 6:2 7:1 8:67 9:8 
-100000 1:37 2:5681 3:200 4:210 5:1296 6:111 7:84 8:21 9:133 
-100000 1:37 2:8212 3:75 4:113 5:488 6:116 7:38 8:28 9:100 
-100000 1:37 2:2701 3:138 4:133 5:748 6:2 7:28 8:23 9:4 
-100000 1:27 2:1051 3:32 4:44 5:670 6:10 7:59 8:6 9:59 
-100000 1:27 2:1328 3:161 4:9 5:476 6:11 7:1 8:40 9:2 
-1070.6101460519851 1:37 2:69860 3:133 4:11 5:1964 6:0 7:1 8:477 9:15 
-100000 1:27 2:239 3:31 4:40 5:248 6:0 7:6 8:31 9:11 
-100000 1:37 2:515 3:25 4:68 5:524 6:2 7:116 8:0 9:20 
-100000 1:32 2:2653 3:177 4:83 5:568 6:53 7:30 8:103 9:8 
-100000 1:22 2:112 3:18 4:26 5:152 6:0 7:11 8:2 9:4 
-100000 1:37 2:17065 3:100 4:125 5:901 6:8 7:72 8:104 9:187 
-100000 1:22 2:297 3:27 4:49 5:224 6:3 7:0 8:5 9:31 
-100000 1:37 2:2860 3:31 4:132 5:924 6:32 7:114 8:16 9:104 
-100000 1:22 2:213 3:19 4:27 5:128 6:3 7:35 8:3 9:13 
-100000 1:32 2:3313 3:68 4:206 5:708 6:11 7:55 8:68 9:13 
-100000 1:37 2:5518 3:53 4:40 5:328 6:44 7:3 8:173 9:89 
-59408.661011146563 1:32 2:708 3:85 4:53 5:436 6:0 7:4 8:39 9:4 
-100000 1:37 2:1305 3:35 4:93 5:475 6:21 7:182 8:14 9:6 
-100000 1:27 2:448 3:32 4:40 5:168 6:3 7:0 8:6 9:8 
-100000 1:27 2:580 3:33 4:40 5:278 6:4 7:6 8:13 9:13 
-100000 1:37 2:8298 3:41 4:120 5:691 6:35 7:312 8:10 9:5 
-100000 1:27 2:385 3:33 4:45 5:212 6:3 7:13 8:26 9:0 
-100000 1:32 2:660 3:31 4:77 5:324 6:7 7:9 8:3 9:14 
-64859.556342578464 1:37 2:887 3:73 4:62 5:417 6:46 7:7 8:55 9:8 
-100000 1:37 2:1850 3:43 4:94 5:488 6:1 7:20 8:22 9:74 
-100000 1:32 2:5477 3:48 4:80 5:746 6:44 7:124 8:38 9:115 
-100000 1:22 2:82 3:19 4:18 5:88 6:1 7:1 8:3 9:6 
-100000 1:27 2:891 3:22 4:84 5:376 6:2 7:65 8:5 9:19 
-100000 1:37 2:2011 3:47 4:91 5:448 6:6 7:8 8:26 9:101 
-100000 1:27 2:394 3:27 4:57 5:264 6:6 7:46 8:4 9:31 
-100000 1:22 2:47 3:7 4:5 5:166 6:4 7:1 8:11 9:4 
-100000 1:37 2:1041 3:82 4:92 5:464 6:44 7:36 8:18 9:11 
-80148.781952545192 1:27 2:32544 3:116 4:50 5:584 6:4 7:63 8:257 9:24 
-100000 1:32 2:267 3:31 4:44 5:276 6:0 7:26 8:46 9:24 
-100000 1:22 2:441 3:40 4:39 5:220 6:0 7:5 8:5 9:4 
-100000 1:27 2:1138 3:139 4:7 5:448 6:12 7:0 8:66 9:2 
-100000 1:27 2:1506 3:36 4:41 5:276 6:16 7:25 8:15 9:45 
-100000 1:22 2:51 3:7 4:12 5:112 6:1 7:1 8:7 9:4 
-100000 1:22 2:3769 3:59 4:101 5:384 6:25 7:45 8:76 9:26 
-100000 1:37 2:686 3:44 4:56 5:480 6:2 7:5 8:30 9:43 
-100000 1:22 2:1183 3:35 4:25 5:224 6:4 7:8 8:56 9:4 
-100000 1:22 2:268 3:26 4:24 5:426 6:22 7:8 8:22 9:21 
-100000 1:22 2:1213 3:169 4:6 5:452 6:7 7:0 8:10 9:1 
-100000 1:27 2:221 3:21 4:37 5:296 6:2 7:44 8:0 9:8 
-100000 1:37 2:1821 3:99 4:17 5:936 6:19 7:2 8:118 9:0 
-100000 1:27 2:1804 3:52 4:38 5:400 6:33 7:11 8:100 9:30 
-100000 1:27 2:6790 3:215 4:97 5:621 6:37 7:87 8:10 9:17 
-100000 1:32 2:550 3:43 4:25 5:364 6:13 7:17 8:106 9:40 
-100000 1:32 2:2006 3:79 4:61 5:1284 6:125 7:75 8:6 9:13 
-100000 1:22 2:57 3:15 4:13 5:92 6:2 7:0 8:1 9:3 
-100000 1:27 2:2494 3:6 4:72 5:557 6:13 7:273 8:1 9:8 
-100000 1:22 2:1246 3:29 4:25 5:148 6:5 7:6 8:22 9:8 
-100000 1:37 2:1061 3:54 4:86 5:520 6:5 7:43 8:75 9:156 
-100000 1:22 2:86 3:21 4:19 5:108 6:3 7:3 8:4 9:1 
-100000 1:37 2:6986 3:204 4:230 5:1344 6:36 7:73 8:61 9:126 
-100000 1:37 2:8622 3:43 4:208 5:1084 6:34 7:526 8:2 9:172 
-100000 1:37 2:1077 3:58 4:35 5:676 6:75 7:12 8:121 9:54 
-100000 1:27 2:1462 3:30 4:68 5:264 6:23 7:27 8:7 9:12 
-100000 1:37 2:857 3:28 4:69 5:524 6:20 7:5 8:16 9:25 
-100000 1:27 2:7423 3:59 4:61 5:230 6:5 7:0 8:3 9:3 
-100000 1:22 2:188 3:27 4:27 5:135 6:4 7:1 8:2 9:9 
-100000 1:22 2:5363 3:49 4:24 5:204 6:4 7:6 8:13 9:2 
-100000 1:32 2:8544 3:83 4:112 5:440 6:44 7:4 8:42 9:146 
-100000 1:32 2:1218 3:44 4:41 5:224 6:14 7:57 8:51 9:21 
-100000 1:37 2:8836 3:50 4:101 5:522 6:28 7:74 8:11 9:31 
-17505.949052049771 1:27 2:30231 3:19 4:246 5:1738 6:4 7:901 8:0 9:6 
-100000 1:37 2:2920 3:112 4:76 5:705 6:42 7:2 8:155 9:108 
-100000 1:22 2:46 3:15 4:12 5:76 6:0 7:3 8:5 9:3 
-100000 1:22 2:102 3:24 4:26 5:160 6:2 7:3 8:2 9:5 
-100000 1:22 2:123 3:6 4:14 5:88 6:4 7:27 8:3 9:18 
-100000 1:37 2:1406 3:43 4:48 5:456 6:28 7:54 8:32 9:32 
-100000 1:32 2:324 3:22 4:41 5:292 6:2 7:47 8:0 9:15 
-100000 1:32 2:3496 3:59 4:87 5:544 6:51 7:44 8:94 9:103 
-100000 1:27 2:538 3:50 4:48 5:352 6:0 7:9 8:5 9:20 
-100000 1:32 2:4890 3:29 4:97 5:370 6:3 7:107 8:2 9:2 
-100000 1:22 2:50 3:15 4:12 5:76 6:6 7:3 8:4 9:0 
-100000 1:22 2:898 3:175 4:3 5:364 6:7 7:4 8:0 9:5 
-100000 1:37 2:11868 3:123 4:65 5:768 6:25 7:39 8:97 9:65 
-100000 1:37 2:796 3:52 4:62 5:408 6:0 7:70 8:58 9:27 
-100000 1:27 2:172 3:20 4:35 5:172 6:6 7:13 8:6 9:14 
-100000 1:37 2:715 3:28 4:77 5:412 6:7 7:163 8:6 9:53 
-100000 1:32 2:2100 3:25 4:99 5:532 6:7 7:42 8:15 9:128 
-100000 1:27 2:458 3:31 4:28 5:224 6:2 7:9 8:36 9:28 
-100000 1:27 2:6990 3:52 4:90 5:356 6:27 7:62 8:22 9:95 
-100000 1:27 2:1952 3:41 4:22 5:176 6:7 7:2 8:78 9:7 
-100000 1:27 2:227 3:18 4:47 5:228 6:5 7:1 8:0 9:7 
-100000 1:22 2:90 3:21 4:21 5:100 6:0 7:0 8:3 9:5 
-100000 1:32 2:926 3:46 4:82 5:500 6:3 7:3 8:9 9:52 
-100000 1:32 2:825 3:38 4:68 5:404 6:3 7:4 8:15 9:58 
-100000 1:22 2:62 3:18 4:17 5:72 6:3 7:3 8:1 9:2 
-100000 1:27 2:8017 3:213 4:245 5:1344 6:10 7:77 8:80 9:134 
-100000 1:37 2:5359 3:64 4:49 5:467 6:42 7:87 8:137 9:106 
-100000 1:22 2:98 3:20 4:21 5:108 6:10 7:1 8:2 9:11 
-100000 1:27 2:3084 3:99 4:106 5:471 6:8 7:13 8:20 9:7 
-100000 1:27 2:3150 3:67 4:165 5:612 6:11 7:4 8:4 9:41 
-100000 1:22 2:326 3:26 4:60 5:360 6:6 7:9 8:1 9:4 
-100000 1:32 2:5357 3:14 4:100 5:935 6:15 7:364 8:3 9:81 
-100000 1:22 2:189 3:27 4:27 5:161 6:5 7:19 8:0 9:8 
-100000 1:37 2:3859 3:24 4:167 5:716 6:0 7:60 8:3 9:9 
-100000 1:22 2:465 3:24 4:35 5:132 6:12 7:7 8:8 9:27 
-100000 1:37 2:4666 3:63 4:93 5:486 6:13 7:14 8:90 9:213 
-100000 1:22 2:8489 3:238 4:223 5:1524 6:67 7:57 8:21 9:3 
-100000 1:27 2:4120 3:167 4:168 5:1024 6:19 7:15 8:0 9:37 
-100000 1:22 2:66 3:18 4:29 5:140 6:5 7:18 8:1 9:26 
-100000 1:22 2:409 3:19 4:33 5:616 6:1 7:52 8:2 9:46 
-100000 1:32 2:1971 3:32 4:76 5:328 6:2 7:55 8:1 9:27 
-100000 1:37 2:8915 3:229 4:271 5:1852 6:29 7:43 8:119 9:47 
-100000 1:37 2:3991 3:51 4:147 5:700 6:35 7:51 8:73 9:93 
-100000 1:22 2:195 3:20 4:26 5:108 6:0 7:3 8:0 9:1 
-100000 1:27 2:420 3:33 4:57 5:268 6:9 7:14 8:2 9:5 
-100000 1:27 2:710 3:21 4:72 5:488 6:5 7:67 8:7 9:12 
-100000 1:27 2:324 3:21 4:11 5:306 6:16 7:7 8:56 9:16 
-100000 1:27 2:409 3:20 4:50 5:272 6:6 7:57 8:11 9:25 
-77021.37412134507 1:37 2:13122 3:44 4:132 5:404 6:36 7:83 8:3 9:16 
-100000 1:37 2:5161 3:85 4:72 5:642 6:139 7:2 8:37 9:26 
-100000 1:22 2:694 3:71 4:66 5:540 6:63 7:21 8:36 9:1 
-100000 1:27 2:1459 3:31 4:59 5:391 6:2 7:104 8:2 9:23 
-100000 1:37 2:11849 3:109 4:156 5:2312 6:39 7:420 8:0 9:204 
-100000 1:27 2:213 3:19 4:37 5:224 6:1 7:10 8:1 9:19 
-100000 1:37 2:3164 3:52 4:72 5:372 6:12 7:13 8:71 9:102 
-100000 1:22 2:433 3:13 4:12 5:64 6:2 7:2 8:8 9:2 
-100000 1:27 2:1523 3:33 4:43 5:224 6:4 7:51 8:36 9:3 
-100000 1:22 2:568 3:35 4:38 5:220 6:25 7:13 8:29 9:2 
-100000 1:32 2:5677 3:27 4:286 5:1428 6:19 7:732 8:6 9:10 
-100000 1:27 2:6181 3:197 4:206 5:1404 6:73 7:97 8:0 9:29 
-100000 1:32 2:14683 3:75 4:35 5:248 6:15 7:30 8:87 9:10 
-100000 1:27 2:1791 3:46 4:46 5:715 6:56 7:49 8:52 9:50 
-100000 1:32 2:3281 3:172 4:150 5:944 6:9 7:29 8:27 9:60 
-100000 1:22 2:7415 3:56 4:26 5:184 6:2 7:18 8:77 9:9 
-100000 1:32 2:8917 3:25 4:296 5:1184 6:8 7:331 8:7 9:2 
-100000 1:27 2:5094 3:90 4:33 5:272 6:1 7:16 8:10 9:14 
-100000 1:27 2:176 3:39 4:34 5:200 6:4 7:4 8:21 9:11 
-100000 1:37 2:2262 3:50 4:90 5:543 6:35 7:23 8:31 9:0 
-100000 1:37 2:3663 3:78 4:68 5:1220 6:57 7:20 8:93 9:71 
-100000 1:32 2:2101 3:77 4:79 5:595 6:6 7:9 8:64 9:35 
-100000 1:37 2:11199 3:27 4:127 5:715 6:9 7:316 8:0 9:6 
-100000 1:37 2:2222 3:38 4:94 5:521 6:21 7:84 8:53 9:77 
-100000 1:32 2:1207 3:29 4:62 5:324 6:0 7:130 8:24 9:9 
-100000 1:27 2:141 3:22 4:30 5:188 6:2 7:1 8:24 9:5 
-100000 1:27 2:260 3:37 4:34 5:205 6:4 7:6 8:3 9:13 
-100000 1:32 2:977 3:22 4:72 5:412 6:8 7:70 8:0 9:38 
-100000 1:27 2:2483 3:30 4:84 5:305 6:3 7:66 8:11 9:54 
-100000 1:27 2:147 3:18 4:38 5:192 6:2 7:7 8:4 9:16 
-100000 1:27 2:430 3:19 4:44 5:260 6:1 7:22 8:3 9:27 
-100000 1:22 2:185 3:28 4:29 5:151 6:0 7:1 8:0 9:3 
-100000 1:37 2:7258 3:67 4:88 5:722 6:21 7:37 8:98 9:151 
-100000 1:27 2:162 3:28 4:31 5:164 6:2 7:3 8:5 9:8 
-100000 1:27 2:293 3:33 4:19 5:208 6:2 7:2 8:44 9:3 
-100000 1:27 2:217 3:46 4:32 5:208 6:41 7:10 8:7 9:0 
-100000 1:22 2:1179 3:29 4:25 5:196 6:2 7:16 8:11 9:6 
-100000 1:22 2:2207 3:29 4:59 5:178 6:11 7:28 8:2 9:14 
-100000 1:32 2:4094 3:43 4:142 5:740 6:0 7:181 8:6 9:1 
-100000 1:22 2:1318 3:24 4:19 5:160 6:6 7:1 8:37 9:2 
-100000 1:27 2:229 3:28 4:42 5:190 6:2 7:36 8:3 9:5 
-100000 1:22 2:1333 3:179 4:6 5:464 6:10 7:0 8:8 9:1 
-100000 1:32 2:2782 3:51 4:50 5:288 6:0 7:2 8:84 9:58 
-100000 1:37 2:7994 3:194 4:151 5:1071 6:68 7:19 8:92 9:11 
-100000 1:32 2:654 3:20 4:70 5:328 6:12 7:2 8:8 9:12 
-100000 1:27 2:2965 3:23 4:101 5:764 6:0 7:137 8:2 9:32 
-100000 1:22 2:85 3:13 4:19 5:120 6:8 7:0 8:10 9:4 
-100000 1:27 2:684 3:39 4:61 5:268 6:9 7:6 8:12 9:13 
-100000 1:37 2:9663 3:269 4:222 5:1432 6:17 7:86 8:1 9:71 
-100000 1:27 2:1813 3:109 4:134 5:648 6:60 7:2 8:3 9:47 
-100000 1:27 2:178 3:45 4:29 5:180 6:16 7:4 8:6 9:2 
-100000 1:22 2:263 3:33 4:37 5:225 6:8 7:19 8:15 9:7 
-100000 1:32 2:450 3:18 4:45 5:384 6:7 7:3 8:10 9:17 
-100000 1:22 2:232 3:14 4:15 5:84 6:5 7:0 8:10 9:1 
-100000 1:37 2:9781 3:86 4:56 5:536 6:27 7:50 8:231 9:72 
-100000 1:37 2:7403 3:51 4:69 5:2572 6:92 7:134 8:56 9:127 
-100000 1:22 2:4367 3:143 4:186 5:1328 6:14 7:120 8:123 9:158 
-100000 1:32 2:1479 3:31 4:59 5:402 6:1 7:143 8:15 9:26 
-100000 1:32 2:6548 3:54 4:155 5:632 6:6 7:40 8:101 9:76 
-100000 1:27 2:2547 3:46 4:35 5:256 6:4 7:11 8:25 9:7 
-100000 1:27 2:392 3:23 4:48 5:264 6:8 7:10 8:9 9:23 
-100000 1:22 2:170 3:28 4:26 5:155 6:4 7:8 8:11 9:10 
-100000 1:37 2:3636 3:146 4:153 5:1096 6:41 7:77 8:41 9:5 
-100000 1:27 2:756 3:20 4:66 5:492 6:3 7:134 8:1 9:1 
-100000 1:37 2:1639 3:66 4:105 5:648 6:25 7:24 8:36 9:12 
-100000 1:27 2:528 3:20 4:53 5:244 6:7 7:28 8:8 9:8 
-100000 1:22 2:4151 3:27 4:224 5:1084 6:0 7:324 8:2 9:64 
-100000 1:22 2:771 3:18 4:49 5:600 6:2 7:122 8:2 9:29 
-100000 1:37 2:9668 3:263 4:245 5:1492 6:3 7:53 8:8 9:81 
-100000 1:27 2:224 3:18 4:35 5:204 6:4 7:22 8:1 9:6 
-100000 1:37 2:886 3:36 4:72 5:520 6:16 7:16 8:33 9:173 
-100000 1:22 2:89 3:21 4:21 5:100 6:3 7:11 8:4 9:0 
-100000 1:22 2:731 3:30 4:33 5:184 6:18 7:27 8:7 9:19 
-100000 1:32 2:1191 3:26 4:79 5:505 6:46 7:190 8:26 9:26 
-100000 1:27 2:2411 3:52 4:19 5:260 6:5 7:1 8:13 9:2 
-100000 1:37 2:556 3:34 4:40 5:473 6:36 7:55 8:21 9:45 
-100000 1:32 2:603 3:22 4:63 5:444 6:11 7:134 8:2 9:2 
-100000 1:22 2:254 3:28 4:18 5:144 6:5 7:8 8:1 9:4 
-100000 1:32 2:2079 3:201 4:91 5:728 6:14 7:18 8:135 9:17 
-100000 1:22 2:89 3:20 4:22 5:108 6:2 7:11 8:5 9:2 
-100000 1:32 2:2105 3:41 4:32 5:506 6:67 7:38 8:77 9:44 
-100000 1:37 2:887 3:39 4:36 5:601 6:36 7:19 8:34 9:19 
-100000 1:27 2:482 3:46 4:47 5:228 6:26 7:12 8:13 9:2 
-100000 1:37 2:3244 3:128 4:85 5:492 6:63 7:69 8:1 9:79 
-100000 1:37 2:1782 3:120 4:25 5:948 6:10 7:20 8:256 9:35 
-100000 1:22 2:5694 3:184 4:221 5:1192 6:88 7:47 8:41 9:31 
-100000 1:32 2:450 3:34 4:54 5:244 6:0 7:10 8:3 9:31 
-100000 1:32 2:1191 3:23 4:87 5:432 6:6 7:30 8:11 9:19 
-100000 1:22 2:371 3:23 4:30 5:200 6:3 7:25 8:0 9:9 
-100000 1:37 2:4470 3:24 4:38 5:840 6:70 7:133 8:66 9:133 
-100000 1:37 2:2027 3:41 4:30 5:480 6:14 7:47 8:97 9:78 
-100000 1:37 2:4404 3:25 4:39 5:816 6:74 7:132 8:64 9:131 
-100000 1:22 2:266 3:19 4:39 5:252 6:7 7:34 8:11 9:26 
-100000 1:27 2:599 3:34 4:33 5:154 6:9 7:12 8:5 9:22 
-100000 1:27 2:649 3:36 4:58 5:264 6:9 7:7 8:24 9:22 
-100000 1:22 2:2376 3:37 4:40 5:164 6:13 7:38 8:33 9:0 
-100000 1:27 2:3769 3:156 4:159 5:872 6:2 7:22 8:5 9:16 
-100000 1:22 2:102 3:11 4:11 5:402 6:17 7:10 8:12 9:13 
-100000 1:37 2:8162 3:61 4:85 5:760 6:77 7:78 8:110 9:136 
-100000 1:37 2:4610 3:49 4:29 5:587 6:0 7:6 8:115 9:41 
-100000 1:32 2:1553 3:107 4:16 5:684 6:8 7:6 8:153 9:0 
-100000 1:22 2:173 3:20 4:22 5:128 6:1 7:10 8:0 9:1 
-100000 1:22 2:103 3:21 4:18 5:104 6:12 7:1 8:2 9:0 
-100000 1:22 2:29 3:11 4:10 5:63 6:2 7:1 8:1 9:7 
-100000 1:32 2:3072 3:85 4:195 5:692 6:55 7:8 8:37 9:53 
-100000 1:37 2:3092 3:164 4:98 5:840 6:48 7:32 8:25 9:17 
-100000 1:22 2:62 3:11 4:17 5:106 6:3 7:21 8:1 9:7 
-100000 1:37 2:802 3:45 4:100 5:496 6:1 7:49 8:80 9:187 
-100000 1:27 2:450 3:59 4:53 5:260 6:33 7:23 8:35 9:6 
-100000 1:37 2:11950 3:70 4:64 5:720 6:11 7:101 8:143 9:132 
-100000 1:37 2:4379 3:27 4:139 5:1297 6:1 7:238 8:1 9:128 
-100000 1:22 2:1547 3:139 4:88 5:592 6:62 7:72 8:25 9:14 
-100000 1:32 2:7351 3:56 4:165 5:641 6:17 7:131 8:38 9:186 
-100000 1:27 2:536 3:118 4:27 5:384 6:15 7:0 8:30 9:14 
-100000 1:22 2:45 3:11 4:10 5:61 6:5 7:7 8:2 9:4 
-100000 1:32 2:1804 3:38 4:129 5:480 6:10 7:14 8:0 9:17 
-100000 1:22 2:334 3:61 4:23 5:204 6:0 7:9 8:8 9:0 
-100000 1:22 2:97 3:46 4:13 5:164 6:6 7:6 8:3 9:9 
-100000 1:37 2:4977 3:51 4:195 5:684 6:7 7:67 8:33 9:104 
-100000 1:37 2:2500 3:56 4:48 5:362 6:47 7:22 8:110 9:102 
-100000 1:22 2:244 3:30 4:28 5:156 6:4 7:0 8:2 9:1 
-100000 1:37 2:2612 3:45 4:36 5:638 6:12 7:36 8:57 9:24 
-100000 1:27 2:534 3:25 4:42 5:232 6:4 7:55 8:2 9:15 
-100000 1:27 2:172 3:14 4:11 5:280 6:16 7:9 8:12 9:6 
-100000 1:27 2:422 3:21 4:45 5:220 6:1 7:8 8:1 9:28 
-100000 1:27 2:14657 3:73 4:152 5:872 6:29 7:85 8:135 9:45 
-100000 1:22 2:85 3:22 4:20 5:112 6:9 7:0 8:2 9:6 
-100000 1:37 2:2586 3:34 4:107 5:558 6:19 7:226 8:15 9:86 
-100000 1:22 2:581 3:29 4:35 5:224 6:4 7:1 8:10 9:16 
-100000 1:27 2:224 3:31 4:40 5:176 6:7 7:14 8:9 9:7 
-5027.3163316572309 1:37 2:58721 3:131 4:11 5:1808 6:7 7:0 8:426 9:2 
-100000 1:37 2:7416 3:28 4:128 5:622 6:8 7:346 8:0 9:15 
-100000 1:32 2:16987 3:101 4:23 5:1235 6:1 7:1 8:300 9:10 
-100000 1:32 2:1439 3:28 4:74 5:476 6:35 7:197 8:14 9:99 
-100000 1:37 2:1664 3:174 4:85 5:692 6:1 7:7 8:130 9:13 
-100000 1:32 2:3632 3:149 4:160 5:1008 6:6 7:70 8:36 9:29 
-100000 1:27 2:1399 3:28 4:56 5:275 6:1 7:20 8:3 9:21 
-100000 1:32 2:7876 3:41 4:110 5:657 6:35 7:243 8:3 9:15 
-100000 1:37 2:2511 3:26 4:76 5:916 6:17 7:190 8:12 9:143 
-100000 1:27 2:9541 3:31 4:124 5:697 6:12 7:372 8:0 9:8 
-100000 1:37 2:768 3:58 4:85 5:572 6:18 7:25 8:3 9:7 
-100000 1:37 2:3890 3:79 4:172 5:672 6:44 7:53 8:6 9:31 
-100000 1:27 2:1145 3:146 4:7 5:444 6:10 7:2 8:28 9:0 
-100000 1:32 2:1612 3:58 4:86 5:542 6:9 7:60 8:18 9:0 
-100000 1:32 2:2687 3:95 4:63 5:436 6:44 7:19 8:9 9:5 
-100000 1:27 2:2840 3:23 4:72 5:200 6:5 7:53 8:0 9:39 
-100000 1:27 2:9006 3:61 4:48 5:336 6:0 7:34 8:74 9:50 
-100000 1:32 2:1868 3:18 4:164 5:852 6:4 7:425 8:7 9:11 
-100000 1:22 2:170 3:30 4:28 5:167 6:7 7:3 8:3 9:1 
-100000 1:32 2:432 3:31 4:67 5:340 6:5 7:5 8:17 9:45 
-100000 1:37 2:9749 3:112 4:73 5:608 6:14 7:0 8:136 9:105 
-100000 1:37 2:8125 3:136 4:65 5:664 6:49 7:6 8:82 9:109 
-100000 1:37 2:3405 3:164 4:144 5:924 6:17 7:3 8:35 9:42 
-100000 1:32 2:270 3:21 4:26 5:224 6:12 7:52 8:5 9:30 
-100000 1:22 2:248 3:21 4:30 5:160 6:0 7:18 8:5 9:12 
-100000 1:37 2:2210 3:22 4:128 5:928 6:7 7:241 8:6 9:60 
-100000 1:32 2:1500 3:73 4:86 5:473 6:58 7:25 8:21 9:10 
-100000 1:37 2:4044 3:31 4:55 5:467 6:45 7:112 8:51 9:124 
-100000 1:27 2:294 3:23 4:27 5:399 6:1 7:21 8:1 9:15 
-100000 1:32 2:3400 3:87 4:200 5:768 6:36 7:97 8:6 9:16 
-100000 1:22 2:225 3:32 4:31 5:160 6:1 7:0 8:12 9:4 
-100000 1:27 2:1229 3:47 4:37 5:412 6:3 7:1 8:35 9:7 
-100000 1:32 2:2332 3:29 4:60 5:296 6:29 7:92 8:0 9:18 
-100000 1:27 2:1293 3:36 4:38 5:279 6:7 7:5 8:22 9:31 
-100000 1:22 2:7024 3:191 4:233 5:1452 6:54 7:8 8:3 9:202 
-100000 1:22 2:125 3:18 4:21 5:104 6:2 7:0 8:0 9:0 
-100000 1:27 2:3416 3:35 4:60 5:236 6:12 7:0 8:5 9:68 
-100000 1:32 2:1098 3:28 4:47 5:480 6:25 7:37 8:37 9:33 
-100000 1:37 2:7981 3:22 4:320 5:1308 6:5 7:303 8:3 9:1 
-100000 1:37 2:2190 3:99 4:152 5:680 6:38 7:82 8:57 9:22 
-100000 1:32 2:5463 3:47 4:97 5:376 6:30 7:69 8:15 9:117 
-100000 1:37 2:3959 3:90 4:115 5:584 6:30 7:9 8:42 9:92 
-100000 1:32 2:852 3:19 4:78 5:376 6:0 7:12 8:5 9:57 
-100000 1:27 2:1020 3:44 4:44 5:248 6:7 7:10 8:16 9:4 
-100000 1:22 2:188 3:20 4:19 5:120 6:0 7:4 8:4 9:2 
-100000 1:27 2:1704 3:38 4:47 5:200 6:3 7:38 8:32 9:18 
-100000 1:37 2:2707 3:26 4:145 5:828 6:12 7:387 8:2 9:12 
-100000 1:27 2:309 3:19 4:47 5:188 6:0 7:3 8:10 9:15 
-34087.931652804509 1:37 2:3974 3:32 4:86 5:403 6:10 7:103 8:2 9:0 
-100000 1:37 2:785 3:51 4:65 5:664 6:48 7:84 8:25 9:49 
-145.70303665874417 1:37 2:60206 3:228 4:22 5:3284 6:17 7:13 8:847 9:37 
-100000 1:22 2:818 3:28 4:56 5:259 6:4 7:89 8:0 9:11 
-100000 1:32 2:877 3:30 4:80 5:364 6:5 7:2 8:11 9:8 
-100000 1:22 2:555 3:28 4:20 5:692 6:32 7:4 8:32 9:1 
-100000 1:32 2:9273 3:39 4:120 5:731 6:25 7:222 8:8 9:6 
-100000 1:32 2:1033 3:21 4:80 5:524 6:3 7:144 8:9 9:5 
-100000 1:22 2:288 3:18 4:50 5:216 6:6 7:5 8:5 9:25 
-100000 1:37 2:2476 3:23 4:72 5:588 6:2 7:208 8:0 9:53 
-100000 1:37 2:11173 3:34 4:170 5:900 6:8 7:298 8:0 9:68 
-100000 1:22 2:193 3:30 4:36 5:196 6:0 7:9 8:1 9:7 
-100000 1:27 2:260 3:20 4:51 5:280 6:8 7:114 8:0 9:1 
-100000 1:32 2:3736 3:168 4:158 5:892 6:91 7:35 8:52 9:8 
-100000 1:32 2:917 3:95 4:53 5:480 6:11 7:31 8:8 9:12 
-100000 1:27 2:1661 3:30 4:70 5:376 6:2 7:0 8:5 9:22 
-100000 1:37 2:5363 3:101 4:96 5:1196 6:83 7:72 8:301 9:306 
-100000 1:27 2:450 3:37 4:60 5:284 6:1 7:2 8:12 9:4 
-100000 1:32 2:783 3:21 4:64 5:440 6:5 7:45 8:1 9:20 
-100000 1:27 2:2782 3:51 4:50 5:288 6:0 7:2 8:84 9:58 
-100000 1:37 2:10999 3:50 4:116 5:432 6:51 7:56 8:64 9:89 
-98885.920664687874 1:37 2:9319 3:230 4:32 5:675 6:11 7:2 8:28 9:2 
-100000 1:37 2:3290 3:23 4:69 5:1428 6:4 7:150 8:5 9:105 
-100000 1:22 2:148 3:21 4:23 5:124 6:3 7:1 8:14 9:9 
-100000 1:37 2:1696 3:90 4:94 5:756 6:1 7:35 8:28 9:8 
-100000 1:22 2:187 3:27 4:29 5:138 6:1 7:11 8:10 9:1 
-100000 1:27 2:6252 3:30 4:98 5:377 6:2 7:52 8:6 9:6 
-100000 1:27 2:1215 3:155 4:7 5:468 6:4 7:2 8:24 9:1 
-100000 1:27 2:1387 3:180 4:7 5:480 6:9 7:2 8:33 9:1 
-100000 1:22 2:73 3:19 4:20 5:92 6:4 7:4 8:3 9:6 
-100000 1:22 2:95 3:20 4:20 5:104 6:5 7:2 8:6 9:2 
-100000 1:27 2:263 3:30 4:43 5:240 6:1 7:18 8:1 9:9 
-100000 1:37 2:735 3:98 4:56 5:444 6:64 7:28 8:16 9:6 
-100000 1:27 2:1293 3:35 4:78 5:320 6:18 7:0 8:33 9:29 
-100000 1:27 2:289 3:20 4:44 5:192 6:1 7:6 8:1 9:10 
-38021.873190684353 1:27 2:1213 3:167 4:7 5:456 6:0 7:1 8:32 9:0 
-100000 1:27 2:294 3:19 4:40 5:212 6:1 7:17 8:4 9:7 
-100000 1:27 2:8081 3:213 4:277 5:1432 6:101 7:96 8:63 9:46 
-100000 1:32 2:771 3:30 4:82 5:412 6:4 7:22 8:2 9:88 
-100000 1:27 2:307 3:20 4:50 5:312 6:1 7:71 8:1 9:16 
-100000 1:32 2:971 3:87 4:54 5:384 6:24 7:22 8:7 9:11 
-100000 1:32 2:11691 3:29 4:143 5:875 6:21 7:401 8:6 9:7 
-100000 1:37 2:23564 3:21 4:229 5:1752 6:6 7:669 8:4 9:13 
-100000 1:32 2:350 3:34 4:55 5:380 6:1 7:26 8:5 9:34 
-39529.878969533209 1:37 2:28233 3:28 4:441 5:2420 6:0 7:1255 8:4 9:124 
-100000 1:22 2:99 3:19 4:25 5:112 6:2 7:5 8:2 9:0 
-100000 1:37 2:5238 3:44 4:80 5:738 6:55 7:187 8:43 9:156 
-100000 1:27 2:835 3:26 4:28 5:344 6:9 7:19 8:26 9:6 
-100000 1:32 2:2410 3:60 4:53 5:276 6:22 7:22 8:46 9:47 
-100000 1:37 2:5497 3:52 4:103 5:376 6:36 7:155 8:52 9:92 
-100000 1:27 2:177 3:21 4:31 5:144 6:7 7:20 8:0 9:5 
-100000 1:32 2:1177 3:46 4:29 5:445 6:19 7:6 8:90 9:4 
-100000 1:32 2:873 3:78 4:79 5:364 6:18 7:40 8:14 9:22 
-100000 1:32 2:297 3:34 4:43 5:396 6:13 7:3 8:18 9:43 
-100000 1:27 2:528 3:32 4:31 5:353 6:25 7:7 8:31 9:21 
-100000 1:22 2:48 3:12 4:14 5:72 6:4 7:2 8:1 9:2 
-100000 1:27 2:255 3:20 4:38 5:168 6:4 7:10 8:1 9:10 
-100000 1:37 2:11014 3:293 4:164 5:946 6:15 7:100 8:133 9:16 
-100000 1:22 2:140 3:26 4:25 5:112 6:2 7:9 8:0 9:5 
-58911.765062115497 1:32 2:45930 3:305 4:500 5:2044 6:215 7:1094 8:82 9:97 
-100000 1:22 2:1692 3:136 4:109 5:596 6:147 7:64 8:20 9:31 
-100000 1:27 2:2392 3:36 4:51 5:181 6:4 7:10 8:1 9:2 
-100000 1:22 2:97 3:21 4:22 5:128 6:1 7:0 8:2 9:0 
-100000 1:37 2:2145 3:128 4:78 5:1160 6:8 7:9 8:29 9:10 
-100000 1:22 2:52 3:11 4:13 5:72 6:4 7:6 8:0 9:0 
-100000 1:32 2:3470 3:40 4:119 5:440 6:3 7:77 8:2 9:34 
-100000 1:37 2:2602 3:103 4:64 5:627 6:71 7:98 8:4 9:29 
-100000 1:27 2:8742 3:140 4:80 5:1492 6:104 7:62 8:364 9:213 
-100000 1:32 2:1278 3:60 4:14 5:532 6:7 7:1 8:67 9:2 
-100000 1:27 2:375 3:20 4:56 5:380 6:1 7:19 8:0 9:22 
-100000 1:27 2:972 3:156 4:3 5:448 6:8 7:6 8:35 9:2 
-100000 1:22 2:52 3:14 4:13 5:76 6:2 7:0 8:3 9:0 
-100000 1:32 2:2055 3:28 4:102 5:403 6:0 7:4 8:1 9:2 
-100000 1:22 2:160 3:18 4:26 5:156 6:0 7:19 8:0 9:3 
-100000 1:32 2:2687 3:87 4:187 5:684 6:68 7:85 8:23 9:19 
-100000 1:37 2:4515 3:218 4:76 5:1168 6:151 7:172 8:135 9:167 
-100000 1:27 2:229 3:39 4:21 5:232 6:2 7:3 8:23 9:3 
-100000 1:22 2:30 3:9 4:12 5:81 6:3 7:0 8:2 9:4 
-100000 1:27 2:160 3:49 4:18 5:232 6:10 7:5 8:16 9:5 
-100000 1:27 2:223 3:28 4:33 5:200 6:7 7:10 8:3 9:11 
-100000 1:22 2:334 3:21 4:47 5:304 6:3 7:4 8:4 9:36 
-100000 1:37 2:3133 3:145 4:58 5:596 6:30 7:67 8:40 9:1 
-75562.126732665318 1:22 2:40943 3:23 4:244 5:1944 6:7 7:335 8:3 9:32 
-100000 1:22 2:48 3:8 4:12 5:54 6:1 7:13 8:4 9:3 
-100000 1:22 2:53 3:7 4:9 5:51 6:3 7:7 8:0 9:6 
-100000 1:22 2:514 3:49 4:50 5:250 6:11 7:7 8:14 9:13 
-100000 1:32 2:1320 3:31 4:74 5:372 6:1 7:179 8:5 9:1 
-100000 1:22 2:712 3:39 4:68 5:348 6:8 7:16 8:4 9:5 
-100000 1:22 2:275 3:22 4:29 5:124 6:5 7:27 8:0 9:0 
-100000 1:32 2:3609 3:33 4:337 5:768 6:2 7:13 8:12 9:110 
-100000 1:37 2:535 3:21 4:58 5:344 6:8 7:48 8:0 9:55 
-100000 1:27 2:958 3:81 4:62 5:750 6:35 7:28 8:34 9:15 
-100000 1:27 2:13323 3:28 4:291 5:1248 6:5 7:8 8:3 9:19 
-100000 1:32 2:1603 3:23 4:131 5:840 6:1 7:210 8:4 9:86 
-100000 1:27 2:1720 3:27 4:77 5:310 6:0 7:146 8:0 9:0 
-100000 1:27 2:948 3:123 4:7 5:428 6:3 7:2 8:37 9:0 
-100000 1:37 2:1902 3:33 4:111 5:756 6:8 7:25 8:12 9:98 
-100000 1:27 2:7088 3:221 4:204 5:1172 6:104 7:16 8:39 9:17 
-100000 1:37 2:1880 3:98 4:56 5:540 6:1 7:93 8:27 9:57 
-100000 1:37 2:3685 3:23 4:87 5:564 6:6 7:262 8:4 9:8 
-100000 1:37 2:2391 3:140 4:126 5:716 6:23 7:6 8:47 9:51 
-100000 1:32 2:3401 3:63 4:87 5:548 6:60 7:47 8:103 9:97 
-100000 1:27 2:10803 3:90 4:45 5:820 6:42 7:5 8:131 9:34 
-100000 1:32 2:11947 3:58 4:183 5:628 6:3 7:6 8:9 9:47 
-100000 1:22 2:106 3:19 4:21 5:112 6:0 7:8 8:1 9:1 
-100000 1:37 2:1484 3:55 4:83 5:440 6:9 7:13 8:12 9:104 
-100000 1:27 2:312 3:47 4:36 5:240 6:42 7:22 8:47 9:15 
-100000 1:27 2:416 3:44 4:53 5:304 6:0 7:10 8:2 9:0 
-100000 1:27 2:1810 3:162 4:83 5:608 6:28 7:79 8:1 9:20 
-100000 1:37 2:1001 3:67 4:96 5:464 6:9 7:101 8:26 9:26 
-100000 1:37 2:6378 3:132 4:227 5:1068 6:19 7:70 8:45 9:142 
-100000 1:22 2:165 3:23 4:28 5:140 6:1 7:11 8:9 9:2 
-100000 1:32 2:958 3:38 4:39 5:269 6:0 7:35 8:8 9:52 
-100000 1:27 2:1412 3:176 4:8 5:500 6:4 7:1 8:7 9:3 
-100000 1:27 2:243 3:21 4:42 5:208 6:18 7:23 8:4 9:13 
-100000 1:22 2:1336 3:162 4:8 5:476 6:2 7:3 8:7 9:0 
-100000 1:27 2:175 3:19 4:38 5:288 6:3 7:10 8:0 9:30 
-100000 1:22 2:298 3:27 4:28 5:137 6:6 7:12 8:13 9:7 
-100000 1:32 2:1672 3:45 4:66 5:443 6:2 7:25 8:14 9:37 
-100000 1:37 2:4427 3:47 4:139 5:1584 6:70 7:354 8:6 9:27 
-100000 1:32 2:2490 3:139 4:113 5:804 6:89 7:0 8:12 9:15 
-100000 1:22 2:92 3:19 4:17 5:92 6:2 7:2 8:7 9:5 
-100000 1:22 2:31 3:8 4:10 5:45 6:2 7:2 8:4 9:0 
-100000 1:22 2:801 3:29 4:56 5:256 6:6 7:68 8:1 9:6 
-100000 1:27 2:5192 3:33 4:98 5:396 6:13 7:52 8:3 9:7 
-100000 1:27 2:199 3:37 4:26 5:164 6:42 7:21 8:6 9:4 
-100000 1:22 2:215 3:31 4:20 5:140 6:6 7:0 8:48 9:1 
-100000 1:22 2:44 3:14 4:13 5:72 6:2 7:1 8:1 9:5 
-100000 1:22 2:179 3:19 4:37 5:172 6:2 7:19 8:0 9:9 
-100000 1:37 2:8063 3:264 4:208 5:1260 6:88 7:82 8:5 9:34 
-44539.907796208667 1:37 2:22945 3:326 4:336 5:1808 6:596 7:94 8:290 9:73 
-100000 1:37 2:4778 3:17 4:87 5:688 6:15 7:273 8:3 9:1 
-100000 1:37 2:2740 3:67 4:155 5:793 6:11 7:218 8:69 9:132 
-100000 1:32 2:446 3:39 4:45 5:544 6:10 7:16 8:3 9:9 
-100000 1:22 2:830 3:47 4:58 5:283 6:27 7:11 8:14 9:41 
-100000 1:32 2:2408 3:33 4:44 5:1412 6:15 7:28 8:29 9:60 
-100000 1:27 2:9423 3:69 4:71 5:492 6:73 7:64 8:154 9:188 
-100000 1:37 2:4857 3:54 4:54 5:364 6:17 7:17 8:108 9:19 
-100000 1:22 2:807 3:48 4:46 5:216 6:3 7:14 8:1 9:14 
-57721.217355828892 1:37 2:12375 3:62 4:38 5:425 6:9 7:6 8:71 9:26 
-100000 1:37 2:897 3:38 4:31 5:288 6:28 7:28 8:88 9:84 
-100000 1:22 2:1341 3:180 4:6 5:480 6:3 7:2 8:20 9:0 
-100000 1:27 2:8223 3:106 4:50 5:886 6:3 7:62 8:146 9:35 
-100000 1:27 2:624 3:24 4:45 5:256 6:6 7:3 8:7 9:12 
-100000 1:32 2:1939 3:21 4:74 5:748 6:4 7:222 8:9 9:15 
-100000 1:27 2:1135 3:36 4:33 5:136 6:17 7:4 8:43 9:16 
-100000 1:22 2:51 3:18 4:15 5:136 6:2 7:2 8:2 9:2 
-100000 1:22 2:823 3:31 4:35 5:204 6:1 7:5 8:40 9:16 
-12248.698425597544 1:37 2:32921 3:112 4:33 5:480 6:11 7:27 8:3 9:34 
-100000 1:32 2:601 3:21 4:66 5:368 6:4 7:21 8:14 9:6 
-100000 1:22 2:232 3:25 4:30 5:196 6:11 7:24 8:41 9:5 
-100000 1:22 2:163 3:27 4:26 5:120 6:14 7:5 8:17 9:12 
-100000 1:37 2:8539 3:36 4:450 5:1416 6:26 7:152 8:32 9:209 
-100000 1:27 2:618 3:35 4:20 5:276 6:0 7:4 8:48 9:2 
-100000 1:22 2:94 3:10 4:15 5:68 6:3 7:1 8:3 9:8 
-100000 1:22 2:27 3:9 4:11 5:57 6:6 7:0 8:8 9:1 
-100000 1:27 2:262 3:37 4:34 5:221 6:1 7:8 8:5 9:8 
-100000 1:37 2:662 3:52 4:59 5:420 6:17 7:9 8:17 9:56 
-100000 1:22 2:185 3:30 4:32 5:148 6:4 7:0 8:3 9:3 
-100000 1:37 2:4666 3:101 4:162 5:809 6:89 7:82 8:34 9:146 
-100000 1:27 2:386 3:33 4:35 5:189 6:6 7:11 8:7 9:18 
-78340.359563740436 1:37 2:2546 3:59 4:83 5:435 6:27 7:64 8:54 9:2 
-100000 1:27 2:206 3:32 4:14 5:252 6:6 7:3 8:11 9:3 
-100000 1:22 2:34 3:5 4:9 5:56 6:2 7:9 8:1 9:2 
-100000 1:22 2:3295 3:47 4:28 5:172 6:1 7:1 8:22 9:0 
-100000 1:32 2:4594 3:93 4:174 5:724 6:36 7:32 8:50 9:146 
-100000 1:22 2:1330 3:60 4:89 5:446 6:6 7:11 8:28 9:20 
-100000 1:22 2:258 3:20 4:19 5:104 6:9 7:6 8:4 9:5 
-100000 1:27 2:746 3:43 4:36 5:276 6:20 7:4 8:39 9:23 
-100000 1:27 2:448 3:24 4:59 5:236 6:2 7:4 8:6 9:21 
-100000 1:22 2:449 3:89 4:53 5:292 6:5 7:7 8:16 9:10 
-100000 1:27 2:177 3:28 4:30 5:149 6:9 7:15 8:1 9:2 
-100000 1:37 2:5770 3:79 4:271 5:952 6:35 7:120 8:7 9:145 
-100000 1:22 2:1094 3:24 4:73 5:304 6:0 7:15 8:27 9:8 
-100000 1:27 2:622 3:22 4:36 5:272 6:3 7:75 8:4 9:10 
-100000 1:37 2:8530 3:166 4:76 5:1656 6:27 7:29 8:581 9:239 
-100000 1:27 2:281 3:24 4:33 5:156 6:3 7:8 8:5 9:5 
-100000 1:27 2:255 3:32 4:42 5:224 6:10 7:11 8:5 9:6 
-100000 1:32 2:7507 3:219 4:263 5:1624 6:64 7:76 8:0 9:158 
-100000 1:37 2:8030 3:174 4:203 5:1244 6:24 7:244 8:17 9:6 
-100000 1:32 2:586 3:20 4:59 5:320 6:9 7:16 8:6 9:38 
-100000 1:27 2:478 3:33 4:35 5:173 6:14 7:7 8:0 9:9 
-100000 1:37 2:340 3:37 4:29 5:404 6:23 7:60 8:11 9:60 
-100000 1:22 2:1540 3:35 4:28 5:153 6:8 7:11 8:6 9:3 
-100000 1:22 2:1065 3:34 4:26 5:136 6:10 7:2 8:10 9:8 
-100000 1:37 2:2133 3:81 4:113 5:503 6:10 7:33 8:91 9:0 
-100000 1:37 2:8886 3:26 4:285 5:1052 6:0 7:153 8:10 9:104 
-100000 1:37 2:20240 3:23 4:224 5:1852 6:7 7:681 8:5 9:50 
-100000 1:37 2:3177 3:41 4:123 5:456 6:36 7:5 8:22 9:5 
-100000 1:32 2:1349 3:17 4:53 5:248 6:4 7:128 8:1 9:13 
-100000 1:37 2:3318 3:174 4:91 5:956 6:26 7:73 8:9 9:2 
-100000 1:27 2:221 3:33 4:33 5:187 6:3 7:1 8:22 9:13 
-100000 1:27 2:1724 3:37 4:86 5:404 6:5 7:5 8:49 9:79 
-100000 1:22 2:222 3:13 4:22 5:108 6:8 7:24 8:3 9:10 
-100000 1:27 2:5731 3:209 4:222 5:1360 6:28 7:93 8:146 9:46 
-100000 1:27 2:212 3:22 4:26 5:144 6:10 7:15 8:4 9:22 
-100000 1:37 2:3612 3:18 4:92 5:872 6:10 7:316 8:3 9:33 
-100000 1:22 2:126 3:18 4:31 5:156 6:0 7:3 8:1 9:35 
-100000 1:37 2:14040 3:192 4:181 5:884 6:42 7:43 8:17 9:194 
-100000 1:22 2:5527 3:198 4:215 5:1044 6:10 7:6 8:119 9:49 
-100000 1:22 2:4490 3:186 4:167 5:1468 6:58 7:52 8:80 9:137 
-100000 1:32 2:13713 3:44 4:131 5:480 6:32 7:160 8:9 9:71 
-100000 1:22 2:1520 3:28 4:32 5:128 6:9 7:13 8:21 9:28 
-100000 1:32 2:301 3:19 4:27 5:376 6:4 7:33 8:1 9:9 
-100000 1:37 2:8665 3:180 4:138 5:2180 6:28 7:235 8:28 9:172 
-100000 1:27 2:6683 3:238 4:205 5:1404 6:103 7:42 8:51 9:41 
-100000 1:22 2:189 3:26 4:30 5:149 6:1 7:2 8:3 9:11 
-100000 1:22 2:177 3:28 4:33 5:178 6:6 7:2 8:10 9:16 
-100000 1:32 2:774 3:22 4:72 5:396 6:2 7:77 8:4 9:94 
-100000 1:32 2:3010 3:81 4:127 5:483 6:25 7:33 8:5 9:24 
-100000 1:27 2:1465 3:27 4:51 5:210 6:5 7:10 8:11 9:1 
-100000 1:22 2:105 3:21 4:20 5:114 6:13 7:4 8:8 9:0 
-100000 1:32 2:3724 3:42 4:27 5:473 6:4 7:1 8:98 9:41 
-100000 1:32 2:3223 3:48 4:129 5:652 6:4 7:78 8:0 9:3 
-100000 1:22 2:3951 3:157 4:182 5:1172 6:38 7:119 8:35 9:21 
-100000 1:32 2:1866 3:52 4:54 5:355 6:2 7:20 8:39 9:68 
-100000 1:22 2:230 3:17 4:43 5:240 6:6 7:31 8:7 9:4 
-100000 1:37 2:1370 3:43 4:65 5:401 6:0 7:110 8:23 9:68 
-100000 1:27 2:1309 3:20 4:91 5:396 6:8 7:67 8:3 9:13 
-100000 1:22 2:600 3:35 4:53 5:308 6:0 7:5 8:5 9:13 
-100000 1:27 2:1120 3:21 4:84 5:368 6:1 7:36 8:3 9:24 
-100000 1:37 2:33439 3:106 4:102 5:1436 6:207 7:204 8:315 9:303 
-100000 1:32 2:413 3:31 4:52 5:258 6:3 7:3 8:2 9:53 
-100000 1:37 2:2286 3:53 4:26 5:756 6:58 7:25 8:143 9:44 
-100000 1:22 2:1087 3:23 4:9 5:195 6:0 7:2 8:33 9:2 
-100000 1:32 2:5079 3:205 4:177 5:1044 6:66 7:10 8:39 9:30 
-100000 1:22 2:73 3:18 4:18 5:96 6:1 7:0 8:9 9:7 
-100000 1:22 2:763 3:145 4:32 5:372 6:9 7:5 8:7 9:3 
-100000 1:37 2:6145 3:66 4:64 5:2608 6:158 7:113 8:167 9:119 
-100000 1:27 2:6934 3:77 4:308 5:1908 6:15 7:20 8:52 9:72 
-100000 1:22 2:64 3:18 4:13 5:108 6:2 7:3 8:1 9:3 
-100000 1:37 2:10341 3:108 4:71 5:732 6:88 7:21 8:204 9:58 
-100000 1:37 2:2911 3:84 4:64 5:511 6:57 7:31 8:90 9:111 
-100000 1:32 2:631 3:47 4:53 5:340 6:0 7:36 8:22 9:28 
-100000 1:22 2:53 3:15 4:13 5:72 6:1 7:1 8:2 9:4 
-100000 1:27 2:3741 3:106 4:72 5:555 6:21 7:103 8:140 9:13 
-100000 1:22 2:3161 3:60 4:46 5:424 6:42 7:6 8:64 9:59 
-100000 1:27 2:393 3:24 4:31 5:156 6:5 7:16 8:3 9:21 
-100000 1:37 2:1463 3:50 4:72 5:484 6:4 7:48 8:6 9:93 
