svm_type c_svc
kernel_type rbf
gamma 3.9999999999999998e-07
nr_class 2
total_sv 346
rho 96.155817847851722
label 1 0
probA -1.1950741740357802
probB 0.1746161275945205
nr_sv 175 171
SV
100000 1:32 2:146 3:9 4:428 5:2 6:0 7:5 8:0 
11233.512454005351 1:27 2:48 3:65 4:1200 5:0 6:15 7:9 8:8 
100000 1:22 2:22 3:38 4:328 5:1 6:9 7:3 8:2 
85372.557511418607 1:32 2:64 3:41 4:380 5:123 6:30 7:8 8:6 
100000 1:37 2:74 3:61 4:534 5:22 6:7 7:25 8:7 
100000 1:37 2:59 3:41 4:574 5:26 6:4 7:200 8:135 
100000 1:22 2:22 3:27 4:172 5:0 6:2 7:4 8:2 
100000 1:27 2:35 3:20 4:704 5:0 6:3 7:71 8:24 
100000 1:27 2:190 3:4 4:384 5:28 6:3 7:42 8:1 
100000 1:37 2:28 3:65 4:444 5:15 6:54 7:2 8:4 
100000 1:37 2:25 3:67 4:488 5:7 6:2 7:9 8:8 
100000 1:37 2:31 3:38 4:404 5:11 6:60 7:3 8:9 
100000 1:37 2:47 3:47 4:428 5:13 6:13 7:11 8:2 
100000 1:27 2:25 3:16 4:292 5:2 6:2 7:33 8:3 
100000 1:37 2:42 3:74 4:480 5:9 6:27 7:10 8:9 
100000 1:37 2:73 3:51 4:321 5:15 6:7 7:27 8:1 
60097.746602022402 1:22 2:34 3:96 4:573 5:0 6:185 7:6 8:7 
100000 1:27 2:30 3:19 4:312 5:17 6:15 7:35 8:9 
100000 1:37 2:15 3:29 4:508 5:25 6:86 7:10 8:7 
100000 1:37 2:32 3:72 4:960 5:0 6:151 7:1 8:1 
100000 1:22 2:35 3:35 4:165 5:1 6:1 7:1 8:0 
100000 1:32 2:32 3:37 4:192 5:0 6:5 7:4 8:2 
100000 1:27 2:24 3:40 4:248 5:1 6:27 7:2 8:4 
12657.205139869864 1:37 2:122 3:94 4:1231 5:145 6:173 7:14 8:52 
100000 1:37 2:182 3:9 4:476 5:4 6:0 7:7 8:1 
100000 1:37 2:180 3:9 4:460 5:6 6:0 7:11 8:0 
100000 1:32 2:203 3:8 4:492 5:5 6:0 7:4 8:1 
100000 1:22 2:34 3:34 4:331 5:0 6:9 7:0 8:6 
100000 1:22 2:24 3:29 4:152 5:0 6:8 7:1 8:6 
7796.1133939535102 1:32 2:66 3:50 4:684 5:11 6:26 7:169 8:140 
34669.594170656266 1:37 2:128 3:51 4:784 5:30 6:7 7:4 8:60 
100000 1:37 2:74 3:64 4:490 5:34 6:41 7:4 8:13 
100000 1:37 2:23 3:91 4:852 5:0 6:92 7:2 8:20 
80411.702548306654 1:37 2:196 3:84 4:1147 5:2 6:11 7:176 8:88 
100000 1:32 2:65 3:73 4:628 5:3 6:34 7:10 8:51 
100000 1:27 2:46 3:36 4:332 5:1 6:2 7:27 8:0 
100000 1:37 2:67 3:51 4:465 5:53 6:28 7:14 8:23 
100000 1:22 2:32 3:34 4:196 5:3 6:3 7:1 8:0 
100000 1:37 2:25 3:106 4:760 5:2 6:140 7:3 8:28 
100000 1:22 2:182 3:9 4:464 5:0 6:0 7:7 8:0 
100000 1:37 2:24 3:59 4:384 5:4 6:20 7:3 8:18 
100000 1:27 2:35 3:53 4:280 5:2 6:0 7:0 8:8 
100000 1:37 2:26 3:22 4:220 5:7 6:8 7:0 8:3 
100000 1:22 2:158 3:9 4:432 5:5 6:0 7:5 8:0 
100000 1:27 2:40 3:34 4:321 5:16 6:7 7:24 8:15 
100000 1:32 2:52 3:51 4:380 5:3 6:3 7:6 8:4 
100000 1:27 2:55 3:47 4:272 5:2 6:6 7:10 8:18 
100000 1:37 2:81 3:77 4:880 5:1 6:2 7:18 8:8 
100000 1:27 2:42 3:18 4:300 5:0 6:12 7:89 8:1 
100000 1:27 2:75 3:115 4:612 5:23 6:5 7:80 8:71 
100000 1:22 2:11 3:33 4:203 5:4 6:24 7:2 8:4 
100000 1:32 2:37 3:36 4:199 5:2 6:4 7:20 8:10 
100000 1:37 2:42 3:48 4:476 5:2 6:19 7:35 8:4 
100000 1:37 2:46 3:91 4:460 5:18 6:71 7:3 8:10 
100000 1:22 2:201 3:7 4:480 5:5 6:1 7:6 8:0 
100000 1:22 2:179 3:9 4:464 5:2 6:0 7:21 8:0 
100000 1:32 2:35 3:47 4:308 5:5 6:2 7:11 8:5 
100000 1:22 2:31 3:38 4:223 5:2 6:25 7:2 8:2 
100000 1:27 2:48 3:39 4:412 5:13 6:4 7:25 8:8 
27802.09677898126 1:32 2:200 3:177 4:1065 5:28 6:7 7:115 8:258 
32.596370630715612 1:22 2:47 3:409 4:3356 5:17 6:855 7:4 8:36 
100000 1:37 2:23 3:28 4:422 5:22 6:40 7:5 8:10 
100000 1:22 2:36 3:39 4:208 5:4 6:10 7:5 8:5 
100000 1:27 2:34 3:84 4:426 5:4 6:23 7:0 8:1 
100000 1:27 2:20 3:16 4:140 5:3 6:4 7:5 8:3 
100000 1:27 2:22 3:16 4:201 5:30 6:15 7:7 8:2 
100000 1:22 2:37 3:32 4:189 5:3 6:7 7:3 8:1 
100000 1:32 2:191 3:9 4:492 5:0 6:0 7:10 8:0 
100000 1:32 2:24 3:16 4:280 5:1 6:3 7:32 8:2 
44472.851082124602 1:22 2:23 3:16 4:209 5:6 6:0 7:45 8:18 
100000 1:32 2:38 3:46 4:201 5:18 6:8 7:7 8:18 
88769.450841576676 1:32 2:48 3:41 4:1134 5:2 6:19 7:77 8:41 
100000 1:32 2:166 3:46 4:520 5:6 6:6 7:66 8:8 
100000 1:27 2:173 3:48 4:580 5:15 6:10 7:110 8:8 
100000 1:32 2:36 3:41 4:251 5:6 6:36 7:2 8:4 
11128.822162276507 1:27 2:134 3:43 4:1031 5:16 6:18 7:487 8:130 
100000 1:27 2:37 3:36 4:199 5:2 6:4 7:20 8:10 
100000 1:22 2:33 3:33 4:187 5:0 6:3 7:2 8:0 
100000 1:27 2:24 3:16 4:316 5:12 6:3 7:11 8:6 
100000 1:27 2:38 3:33 4:367 5:3 6:0 7:25 8:1 
100000 1:37 2:27 3:38 4:228 5:0 6:3 7:1 8:8 
100000 1:32 2:43 3:61 4:416 5:3 6:16 7:0 8:6 
100000 1:37 2:88 3:46 4:614 5:0 6:13 7:105 8:23 
100000 1:27 2:26 3:36 4:212 5:15 6:34 7:3 8:11 
100000 1:32 2:48 3:80 4:751 5:9 6:26 7:3 8:2 
100000 1:22 2:181 3:8 4:468 5:0 6:0 7:24 8:1 
100000 1:37 2:49 3:22 4:568 5:22 6:1 7:102 8:16 
100000 1:22 2:30 3:13 4:302 5:1 6:7 7:66 8:5 
100000 1:22 2:23 3:30 4:196 5:1 6:2 7:2 8:0 
100000 1:27 2:22 3:29 4:396 5:1 6:20 7:3 8:3 
100000 1:37 2:33 3:46 4:468 5:13 6:48 7:2 8:41 
100000 1:27 2:25 3:28 4:288 5:6 6:11 7:1 8:5 
100000 1:27 2:23 3:52 4:448 5:0 6:7 7:1 8:14 
100000 1:27 2:39 3:28 4:204 5:6 6:5 7:62 8:1 
100000 1:32 2:24 3:67 4:504 5:4 6:55 7:1 8:9 
61590.948739978405 1:32 2:67 3:13 4:897 5:2 6:0 7:233 8:19 
1912.7864675284791 1:22 2:70 3:266 4:1016 5:12 6:347 7:15 8:185 
62037.412693567123 1:32 2:101 3:109 4:772 5:62 6:38 7:44 8:134 
100000 1:22 2:31 3:35 4:173 5:0 6:1 7:0 8:6 
100000 1:37 2:45 3:59 4:532 5:3 6:36 7:0 8:40 
100000 1:37 2:69 3:28 4:552 5:6 6:5 7:7 8:35 
85.434635478194863 1:22 2:128 3:320 4:2364 5:332 6:932 7:69 8:45 
100000 1:37 2:24 3:17 4:214 5:0 6:3 7:33 8:25 
100000 1:32 2:38 3:53 4:425 5:1 6:21 7:1 8:1 
100000 1:37 2:41 3:57 4:573 5:6 6:24 7:4 8:23 
100000 1:37 2:66 3:68 4:531 5:20 6:25 7:19 8:21 
100000 1:32 2:145 3:9 4:432 5:5 6:0 7:2 8:0 
100000 1:22 2:26 3:22 4:220 5:7 6:8 7:0 8:3 
70678.110627484435 1:37 2:81 3:155 4:918 5:4 6:38 7:69 8:26 
100000 1:27 2:24 3:27 4:220 5:1 6:5 7:10 8:4 
100000 1:37 2:58 3:49 4:844 5:6 6:62 7:1 8:11 
100000 1:32 2:30 3:39 4:400 5:0 6:6 7:25 8:4 
100000 1:32 2:52 3:41 4:347 5:7 6:21 7:6 8:0 
14747.550133307219 1:27 2:287 3:240 4:1308 5:16 6:23 7:49 8:98 
100000 1:32 2:88 3:46 4:614 5:0 6:13 7:105 8:23 
100000 1:37 2:44 3:81 4:661 5:22 6:131 7:2 8:21 
100000 1:37 2:34 3:41 4:436 5:0 6:19 7:35 8:19 
86252.425907394892 1:32 2:32 3:76 4:718 5:1 6:154 7:0 8:4 
100000 1:32 2:155 3:9 4:456 5:3 6:0 7:3 8:0 
100000 1:37 2:160 3:5 4:444 5:11 6:0 7:1 8:3 
100000 1:22 2:15 3:16 4:154 5:3 6:0 7:4 8:3 
100000 1:32 2:45 3:13 4:374 5:3 6:6 7:97 8:20 
100000 1:32 2:33 3:52 4:440 5:4 6:60 7:2 8:13 
100000 1:22 2:25 3:28 4:152 5:2 6:15 7:0 8:6 
100000 1:32 2:197 3:7 4:476 5:9 6:0 7:0 8:1 
100000 1:27 2:38 3:40 4:380 5:6 6:1 7:27 8:14 
100000 1:22 2:12 3:10 4:64 5:2 6:2 7:6 8:0 
100000 1:22 2:13 3:19 4:218 5:3 6:26 7:1 8:6 
150.0302020675814 1:27 2:180 3:27 4:848 5:41 6:83 7:24 8:68 
100000 1:32 2:196 3:8 4:480 5:1 6:0 7:15 8:0 
100000 1:37 2:164 3:6 4:432 5:19 6:0 7:12 8:1 
100000 1:27 2:23 3:46 4:268 5:1 6:0 7:1 8:6 
22156.874551785117 1:27 2:88 3:42 4:1276 5:92 6:28 7:3 8:14 
100000 1:37 2:23 3:53 4:268 5:0 6:5 7:0 8:9 
100000 1:27 2:33 3:47 4:251 5:3 6:52 7:1 8:2 
100000 1:22 2:25 3:38 4:264 5:2 6:5 7:0 8:0 
100000 1:32 2:34 3:38 4:366 5:2 6:19 7:0 8:12 
100000 1:22 2:13 3:16 4:109 5:0 6:3 7:1 8:4 
95678.439273034164 1:32 2:174 3:144 4:1079 5:11 6:44 7:1 8:104 
100000 1:37 2:34 3:31 4:183 5:16 6:9 7:19 8:9 
100000 1:32 2:36 3:39 4:208 5:4 6:10 7:5 8:5 
33488.131807037083 1:32 2:91 3:95 4:672 5:133 6:104 7:6 8:4 
100000 1:27 2:34 3:15 4:416 5:9 6:1 7:77 8:4 
100000 1:32 2:30 3:91 4:1048 5:0 6:17 7:0 8:4 
100000 1:22 2:197 3:6 4:492 5:7 6:0 7:11 8:1 
100000 1:27 2:23 3:35 4:328 5:0 6:41 7:2 8:4 
100000 1:32 2:15 3:27 4:376 5:16 6:10 7:20 8:20 
100000 1:22 2:36 3:15 4:256 5:12 6:5 7:16 8:12 
100000 1:37 2:12 3:12 4:245 5:16 6:20 7:16 8:18 
28797.120966476894 1:37 2:43 3:88 4:568 5:48 6:200 7:5 8:127 
17120.289038201412 1:27 2:182 3:53 4:645 5:18 6:14 7:10 8:16 
68418.941466139411 1:27 2:24 3:71 4:644 5:1 6:40 7:4 8:3 
100000 1:22 2:29 3:41 4:232 5:7 6:4 7:3 8:0 
100000 1:27 2:32 3:29 4:202 5:6 6:6 7:6 8:1 
100000 1:22 2:33 3:34 4:177 5:4 6:3 7:0 8:0 
100000 1:32 2:20 3:21 4:156 5:11 6:1 7:15 8:1 
100000 1:37 2:14 3:21 4:879 5:18 6:40 7:20 8:41 
874.75899274419987 1:37 2:15 3:79 4:1863 5:23 6:284 7:3 8:0 
58142.238420678019 1:22 2:32 3:26 4:1060 5:1 6:38 7:63 8:25 
100000 1:32 2:33 3:42 4:244 5:0 6:37 7:1 8:3 
100000 1:32 2:25 3:73 4:516 5:4 6:16 7:6 8:10 
100000 1:32 2:79 3:19 4:352 5:48 6:3 7:68 8:3 
100000 1:32 2:44 3:25 4:256 5:17 6:17 7:1 8:11 
100000 1:32 2:36 3:72 4:365 5:11 6:23 7:10 8:18 
41266.188845374571 1:22 2:160 3:42 4:496 5:95 6:26 7:10 8:26 
100000 1:27 2:172 3:42 4:500 5:24 6:3 7:0 8:3 
100000 1:27 2:15 3:12 4:118 5:4 6:9 7:10 8:3 
100000 1:37 2:79 3:38 4:837 5:19 6:13 7:7 8:45 
76231.060099361624 1:37 2:134 3:34 4:444 5:71 6:8 7:105 8:19 
100000 1:37 2:25 3:67 4:736 5:4 6:50 7:2 8:3 
100000 1:32 2:20 3:16 4:280 5:0 6:11 7:8 8:9 
100000 1:32 2:24 3:53 4:392 5:0 6:14 7:7 8:31 
100000 1:27 2:44 3:112 4:791 5:15 6:1 7:0 8:36 
100000 1:37 2:22 3:53 4:360 5:2 6:18 7:1 8:11 
100000 1:37 2:63 3:92 4:695 5:36 6:3 7:9 8:8 
-25812.381479346092 1:37 2:112 3:47 4:788 5:12 6:0 7:325 8:64 
-100000 1:37 2:27 3:78 4:556 5:0 6:56 7:12 8:14 
-100000 1:22 2:8 3:10 4:160 5:0 6:8 7:1 8:1 
-100000 1:22 2:21 3:14 4:168 5:1 6:1 7:1 8:1 
-100000 1:32 2:24 3:53 4:380 5:1 6:31 7:6 8:3 
-100000 1:32 2:23 3:57 4:412 5:2 6:17 7:0 8:16 
-100000 1:32 2:37 3:43 4:348 5:7 6:5 7:6 8:2 
-100000 1:27 2:36 3:46 4:240 5:6 6:2 7:7 8:4 
-100000 1:32 2:23 3:46 4:268 5:0 6:8 7:2 8:3 
-100000 1:27 2:33 3:65 4:538 5:9 6:131 7:3 8:2 
-100000 1:32 2:24 3:48 4:320 5:2 6:2 7:0 8:2 
-100000 1:27 2:183 3:3 4:460 5:2 6:2 7:35 8:2 
-100000 1:37 2:41 3:18 4:462 5:9 6:0 7:53 8:15 
-100000 1:37 2:26 3:72 4:484 5:6 6:2 7:10 8:13 
-100000 1:27 2:33 3:74 4:388 5:5 6:55 7:1 8:4 
-100000 1:27 2:31 3:33 4:207 5:1 6:1 7:4 8:1 
-100000 1:32 2:182 3:8 4:488 5:8 6:3 7:33 8:1 
-100000 1:27 2:30 3:77 4:849 5:8 6:177 7:0 8:21 
-100000 1:32 2:104 3:103 4:756 5:65 6:155 7:2 8:84 
-100000 1:27 2:39 3:17 4:312 5:4 6:13 7:76 8:0 
-100000 1:32 2:38 3:26 4:535 5:2 6:1 7:18 8:7 
-100000 1:37 2:38 3:44 4:544 5:2 6:9 7:9 8:8 
-100000 1:22 2:26 3:22 4:144 5:5 6:1 7:1 8:0 
-100000 1:37 2:24 3:66 4:396 5:1 6:10 7:0 8:22 
-11150.187081228065 1:37 2:46 3:22 4:332 5:11 6:2 7:71 8:1 
-46279.358238801033 1:37 2:118 3:49 4:914 5:2 6:1 7:349 8:73 
-100000 1:27 2:36 3:22 4:280 5:3 6:2 7:28 8:0 
-100000 1:37 2:94 3:24 4:404 5:32 6:7 7:16 8:11 
-12642.345322104449 1:27 2:105 3:3 4:304 5:1 6:1 7:220 8:6 
-100000 1:27 2:38 3:47 4:344 5:5 6:14 7:23 8:29 
-100000 1:22 2:21 3:16 4:196 5:0 6:0 7:5 8:1 
-100000 1:32 2:164 3:9 4:448 5:6 6:0 7:16 8:0 
-100000 1:32 2:27 3:79 4:724 5:5 6:20 7:3 8:0 
-100000 1:32 2:45 3:21 4:324 5:8 6:0 7:55 8:0 
-100000 1:22 2:11 3:12 4:78 5:5 6:6 7:1 8:2 
-100000 1:27 2:32 3:35 4:202 5:0 6:4 7:0 8:5 
-100000 1:37 2:25 3:54 4:340 5:2 6:3 7:2 8:32 
-100000 1:22 2:201 3:7 4:464 5:0 6:2 7:5 8:0 
-100000 1:32 2:23 3:56 4:416 5:0 6:8 7:4 8:17 
-100000 1:37 2:172 3:101 4:950 5:1 6:16 7:71 8:32 
-84770.863019945449 1:32 2:32 3:41 4:237 5:3 6:35 7:0 8:2 
-100000 1:22 2:20 3:14 4:148 5:2 6:1 7:7 8:1 
-100000 1:37 2:34 3:85 4:508 5:2 6:96 7:6 8:5 
-100000 1:32 2:190 3:9 4:496 5:5 6:0 7:11 8:1 
-100000 1:32 2:74 3:44 4:408 5:130 6:29 7:15 8:6 
-100000 1:27 2:33 3:34 4:204 5:3 6:0 7:3 8:5 
-100000 1:32 2:33 3:41 4:278 5:5 6:31 7:0 8:1 
-100000 1:27 2:141 3:10 4:432 5:3 6:0 7:5 8:1 
-100000 1:32 2:72 3:44 4:332 5:130 6:29 7:15 8:8 
-100000 1:37 2:58 3:37 4:343 5:3 6:14 7:52 8:23 
-100000 1:32 2:149 3:9 4:444 5:20 6:0 7:8 8:1 
-100000 1:22 2:20 3:15 4:140 5:5 6:3 7:2 8:1 
-100000 1:27 2:36 3:34 4:219 5:9 6:0 7:15 8:14 
-100000 1:37 2:23 3:58 4:380 5:1 6:27 7:7 8:17 
-100000 1:22 2:13 3:15 4:94 5:3 6:1 7:1 8:3 
-100000 1:37 2:23 3:68 4:636 5:2 6:30 7:0 8:10 
-100000 1:27 2:38 3:65 4:385 5:4 6:36 7:3 8:1 
-100000 1:37 2:34 3:64 4:371 5:6 6:63 7:1 8:0 
-100000 1:22 2:169 3:9 4:448 5:5 6:0 7:2 8:0 
-100000 1:27 2:56 3:43 4:452 5:10 6:6 7:45 8:9 
-100000 1:27 2:76 3:27 4:532 5:16 6:7 7:55 8:29 
-100000 1:27 2:34 3:42 4:267 5:0 6:30 7:1 8:4 
-100000 1:32 2:24 3:59 4:524 5:3 6:11 7:2 8:7 
-14265.545598261004 1:27 2:185 3:5 4:448 5:2 6:1 7:5 8:2 
-100000 1:27 2:34 3:22 4:244 5:13 6:4 7:17 8:2 
-100000 1:32 2:41 3:18 4:324 5:1 6:13 7:84 8:0 
-100000 1:27 2:14 3:12 4:170 5:1 6:4 7:19 8:10 
-100000 1:32 2:23 3:129 4:908 5:4 6:38 7:3 8:16 
-100000 1:32 2:112 3:110 4:699 5:11 6:2 7:6 8:80 
-100000 1:27 2:124 3:118 4:571 5:15 6:2 7:12 8:27 
-100000 1:37 2:101 3:42 4:841 5:12 6:0 7:67 8:32 
-100000 1:32 2:149 3:10 4:448 5:12 6:0 7:4 8:1 
-100000 1:32 2:33 3:66 4:388 5:1 6:64 7:0 8:2 
-100000 1:22 2:21 3:14 4:136 5:2 6:0 7:6 8:2 
-33935.833037955636 1:37 2:198 3:7 4:484 5:18 6:0 7:2 8:0 
-100000 1:37 2:23 3:56 4:300 5:0 6:29 7:2 8:15 
-100000 1:37 2:39 3:33 4:579 5:18 6:3 7:20 8:0 
-100000 1:22 2:183 3:3 4:460 5:2 6:2 7:35 8:2 
-100000 1:37 2:161 3:50 4:456 5:41 6:6 7:34 8:3 
-100000 1:37 2:45 3:36 4:289 5:14 6:14 7:14 8:35 
-1185.9303213586768 1:27 2:13 3:79 4:1704 5:16 6:285 7:2 8:1 
-100000 1:37 2:15 3:22 4:875 5:18 6:39 7:16 8:39 
-100000 1:32 2:23 3:38 4:380 5:3 6:53 7:2 8:3 
-100000 1:22 2:146 3:10 4:452 5:8 6:0 7:4 8:1 
-85081.628638411363 1:27 2:33 3:34 4:181 5:2 6:1 7:3 8:4 
-100000 1:22 2:20 3:14 4:120 5:6 6:2 7:4 8:1 
-100000 1:27 2:26 3:25 4:156 5:0 6:0 7:12 8:9 
-100000 1:32 2:35 3:62 4:375 5:1 6:47 7:0 8:0 
-100000 1:22 2:34 3:21 4:232 5:12 6:2 7:3 8:1 
-100000 1:32 2:34 3:63 4:379 5:5 6:60 7:0 8:3 
-100000 1:37 2:51 3:56 4:745 5:6 6:45 7:7 8:55 
-100000 1:37 2:33 3:38 4:296 5:18 6:7 7:30 8:3 
-100000 1:32 2:23 3:84 4:885 5:15 6:8 7:4 8:9 
-100000 1:27 2:27 3:28 4:184 5:4 6:5 7:3 8:4 
-100000 1:37 2:47 3:52 4:650 5:35 6:55 7:23 8:30 
-100000 1:32 2:85 3:84 4:516 5:20 6:0 7:99 8:135 
-100000 1:32 2:65 3:70 4:508 5:9 6:0 7:3 8:8 
-100000 1:37 2:36 3:56 4:400 5:5 6:73 7:3 8:23 
-100000 1:27 2:162 3:10 4:448 5:0 6:1 7:23 8:0 
-100000 1:27 2:32 3:36 4:206 5:0 6:4 7:4 8:4 
-100000 1:22 2:26 3:21 4:152 5:0 6:1 7:9 8:1 
-35042.016196410106 1:32 2:23 3:46 4:268 5:1 6:0 7:1 8:6 
-100000 1:22 2:29 3:22 4:192 5:5 6:0 7:0 8:3 
-100000 1:27 2:46 3:31 4:335 5:9 6:2 7:64 8:7 
-100000 1:37 2:49 3:34 4:896 5:8 6:26 7:19 8:2 
-100000 1:32 2:68 3:51 4:362 5:46 6:8 7:14 8:16 
-19627.055954383115 1:27 2:30 3:22 4:208 5:9 6:1 7:5 8:3 
-27393.794410987219 1:32 2:17 3:15 4:1408 5:31 6:25 7:29 8:24 
-100000 1:27 2:25 3:42 4:493 5:31 6:37 7:1 8:5 
-5912.3488957915324 1:27 2:105 3:98 4:579 5:7 6:2 7:79 8:120 
-100000 1:37 2:24 3:73 4:668 5:0 6:111 7:0 8:7 
-63458.317485258201 1:37 2:108 3:101 4:577 5:51 6:47 7:61 8:103 
-100000 1:37 2:25 3:44 4:440 5:0 6:51 7:3 8:4 
-100000 1:37 2:34 3:15 4:428 5:12 6:0 7:76 8:5 
-100000 1:32 2:155 3:98 4:1108 5:9 6:9 7:71 8:98 
-100000 1:32 2:40 3:31 4:244 5:2 6:0 7:34 8:50 
-100000 1:22 2:20 3:13 4:168 5:3 6:0 7:1 8:1 
-1314.8652832018358 1:27 2:60 3:511 4:1128 5:16 6:6 7:17 8:48 
-100000 1:27 2:206 3:7 4:492 5:4 6:2 7:8 8:0 
-100000 1:27 2:39 3:40 4:202 5:3 6:2 7:0 8:5 
-100000 1:27 2:43 3:77 4:1000 5:11 6:55 7:52 8:52 
-100000 1:22 2:21 3:15 4:160 5:2 6:2 7:4 8:1 
-100000 1:37 2:13 3:44 4:761 5:27 6:102 7:12 8:43 
-100000 1:32 2:23 3:59 4:364 5:1 6:36 7:1 8:4 
-100000 1:22 2:196 3:6 4:480 5:1 6:0 7:6 8:0 
-100000 1:37 2:24 3:40 4:380 5:2 6:55 7:3 8:2 
-100000 1:37 2:49 3:31 4:329 5:4 6:7 7:76 8:4 
-100000 1:32 2:34 3:44 4:258 5:0 6:40 7:1 8:1 
-100000 1:32 2:97 3:104 4:481 5:48 6:57 7:23 8:29 
-100000 1:22 2:11 3:13 4:133 5:2 6:4 7:1 8:2 
-100000 1:22 2:139 3:10 4:444 5:0 6:0 7:0 8:0 
-100000 1:32 2:42 3:25 4:312 5:18 6:9 7:80 8:36 
-100000 1:37 2:38 3:47 4:344 5:5 6:14 7:23 8:29 
-100000 1:37 2:38 3:45 4:684 5:12 6:6 7:11 8:1 
-42616.745271384287 1:27 2:243 3:207 4:1185 5:36 6:62 7:22 8:86 
-100000 1:32 2:29 3:24 4:470 5:19 6:4 7:19 8:6 
-100000 1:37 2:25 3:92 4:880 5:9 6:11 7:2 8:5 
-100000 1:32 2:33 3:70 4:1081 5:2 6:145 7:1 8:1 
-100000 1:27 2:169 3:9 4:448 5:8 6:0 7:20 8:0 
-100000 1:27 2:192 3:3 4:456 5:19 6:0 7:21 8:1 
-100000 1:27 2:29 3:28 4:188 5:17 6:11 7:0 8:0 
-100000 1:32 2:37 3:18 4:311 5:22 6:3 7:32 8:25 
-100000 1:27 2:24 3:59 4:384 5:4 6:20 7:3 8:18 
-100000 1:27 2:153 3:9 4:448 5:12 6:0 7:23 8:0 
-100000 1:32 2:23 3:52 4:284 5:0 6:7 7:1 8:4 
-44842.759890806454 1:37 2:23 3:56 4:364 5:0 6:32 7:1 8:12 
-100000 1:22 2:19 3:15 4:128 5:1 6:1 7:4 8:3 
-63461.132277419842 1:22 2:194 3:3 4:416 5:20 6:1 7:13 8:0 
-100000 1:32 2:27 3:40 4:260 5:3 6:5 7:8 8:5 
-100000 1:37 2:24 3:39 4:340 5:3 6:38 7:0 8:10 
-100000 1:27 2:33 3:49 4:281 5:5 6:22 7:1 8:0 
-100000 1:27 2:53 3:22 4:352 5:22 6:2 7:2 8:1 
-100000 1:27 2:44 3:12 4:577 5:2 6:2 7:134 8:2 
-100000 1:27 2:32 3:43 4:276 5:1 6:37 7:1 8:0 
-100000 1:32 2:23 3:55 4:440 5:2 6:1 7:5 8:14 
-100000 1:37 2:186 3:100 4:1075 5:11 6:8 7:40 8:45 
-3809.5002050584881 1:22 2:10 3:11 4:84 5:2 6:3 7:2 8:2 
-100000 1:37 2:23 3:47 4:388 5:3 6:36 7:1 8:5 
-29930.01508218404 1:27 2:119 3:125 4:524 5:16 6:8 7:1 8:8 
-100000 1:27 2:34 3:42 4:302 5:4 6:39 7:0 8:1 
-100000 1:37 2:38 3:61 4:601 5:1 6:50 7:8 8:10 
-100000 1:32 2:38 3:42 4:218 5:10 6:2 7:10 8:10 
-100000 1:32 2:49 3:18 4:317 5:6 6:2 7:110 8:6 
-100000 1:27 2:61 3:49 4:408 5:3 6:27 7:47 8:19 
-100000 1:32 2:38 3:44 4:332 5:2 6:3 7:7 8:3 
-51540.368233166984 1:32 2:22 3:31 4:216 5:1 6:11 7:0 8:14 
-100000 1:27 2:31 3:21 4:216 5:8 6:1 7:10 8:4 
-100000 1:22 2:31 3:23 4:236 5:6 6:5 7:22 8:3 
-100000 1:32 2:206 3:7 4:492 5:4 6:2 7:8 8:0 
-100000 1:37 2:87 3:69 4:949 5:23 6:14 7:198 8:131 
-100000 1:32 2:61 3:22 4:739 5:1 6:2 7:80 8:20 
