svm_type c_svc
kernel_type rbf
gamma 5.0000000000000003e-10
nr_class 2
total_sv 702
rho 129.9878409136787
label 1 0
probA -0.82744059107951651
probB -0.0136235114809839
nr_sv 358 344
SV
100000 1:27 2:412 3:20 4:44 5:180 6:11 7:34 8:30 9:14 
100000 1:22 2:147 3:18 4:20 5:104 6:21 7:22 8:1 9:6 
100000 1:32 2:4996 3:164 4:25 5:968 6:1 7:5 8:189 9:0 
100000 1:22 2:29489 3:209 4:284 5:1440 6:206 7:87 8:47 9:51 
100000 1:32 2:25368 3:370 4:122 5:1816 6:134 7:133 8:25 9:146 
100000 1:37 2:12689 3:169 4:197 5:1140 6:337 7:209 8:161 9:1 
100000 1:22 2:5133 3:88 4:123 5:764 6:93 7:49 8:77 9:177 
100000 1:22 2:2131 3:38 4:56 5:532 6:41 7:52 8:40 9:47 
100000 1:27 2:4975 3:105 4:73 5:1028 6:54 7:109 8:277 9:8 
100000 1:22 2:3387 3:150 4:110 5:1060 6:169 7:99 8:242 9:261 
100000 1:27 2:4362 3:138 4:54 5:618 6:37 7:130 8:169 9:7 
100000 1:32 2:42169 3:487 4:169 5:2600 6:119 7:287 8:450 9:193 
100000 1:27 2:22585 3:214 4:437 5:1516 6:15 7:202 8:79 9:71 
100000 1:27 2:8407 3:171 4:52 5:1264 6:32 7:33 8:557 9:54 
100000 1:22 2:156 3:12 4:23 5:144 6:4 7:24 8:0 9:11 
100000 1:32 2:10458 3:140 4:192 5:1336 6:115 7:206 8:59 9:138 
100000 1:37 2:25450 3:80 4:332 5:1840 6:81 7:850 8:73 9:139 
100000 1:22 2:4330 3:95 4:40 5:660 6:48 7:28 8:99 9:48 
32065.163305336147 1:27 2:44054 3:161 4:346 5:1904 6:46 7:154 8:401 9:97 
100000 1:22 2:8258 3:150 4:106 5:575 6:3 7:36 8:168 9:2 
100000 1:27 2:5458 3:177 4:156 5:952 6:232 7:105 8:89 9:186 
59644.466265634655 1:32 2:89994 3:551 4:338 5:3020 6:329 7:682 8:215 9:341 
100000 1:22 2:11679 3:149 4:169 5:1128 6:71 7:259 8:23 9:102 
100000 1:37 2:34564 3:79 4:323 5:1720 6:213 7:643 8:47 9:31 
100000 1:37 2:66135 3:609 4:197 5:3232 6:171 7:55 8:25 9:66 
17833.497884755481 1:22 2:75311 3:620 4:173 5:3372 6:6 7:86 8:1283 9:380 
100000 1:27 2:12367 3:186 4:86 5:1076 6:8 7:198 8:251 9:19 
100000 1:27 2:7219 3:171 4:90 5:680 6:73 7:42 8:104 9:32 
100000 1:32 2:5790 3:148 4:142 5:736 6:105 7:63 8:190 9:138 
100000 1:27 2:11687 3:203 4:52 5:1048 6:48 7:4 8:395 9:56 
100000 1:37 2:22087 3:333 4:43 5:1556 6:9 7:51 8:701 9:113 
100000 1:22 2:558 3:43 4:30 5:260 6:0 7:32 8:32 9:7 
100000 1:27 2:31178 3:92 4:297 5:1584 6:209 7:787 8:73 9:246 
58422.125857543098 1:32 2:13910 3:244 4:176 5:1376 6:255 7:33 8:71 9:38 
100000 1:32 2:7083 3:207 4:47 5:844 6:92 7:63 8:25 9:19 
100000 1:22 2:494 3:25 4:35 5:312 6:24 7:13 8:30 9:13 
11736.170137394723 1:32 2:49360 3:427 4:176 5:3456 6:586 7:187 8:1157 9:81 
100000 1:22 2:10934 3:82 4:275 5:1052 6:13 7:167 8:18 9:70 
100000 1:37 2:8080 3:207 4:164 5:852 6:44 7:103 8:157 9:145 
31948.559579278062 1:22 2:7854 3:33 4:135 5:1528 6:47 7:440 8:47 9:103 
100000 1:32 2:2409 3:161 4:38 5:692 6:83 7:28 8:34 9:40 
100000 1:22 2:235 3:12 4:30 5:184 6:16 7:21 8:8 9:32 
100000 1:22 2:13790 3:185 4:248 5:1024 6:66 7:181 8:80 9:284 
100000 1:27 2:1902 3:41 4:63 5:428 6:40 7:73 8:32 9:77 
47111.893372195009 1:32 2:16649 3:208 4:127 5:1312 6:223 7:114 8:130 9:172 
85693.432017210987 1:27 2:56174 3:443 4:671 5:2976 6:200 7:376 8:3 9:104 
100000 1:22 2:1503 3:76 4:28 5:604 6:54 7:16 8:146 9:47 
100000 1:22 2:2369 3:116 4:98 5:664 6:4 7:14 8:103 9:81 
100000 1:32 2:54564 3:464 4:20 5:2308 6:23 7:8 8:1437 9:6 
100000 1:32 2:10080 3:190 4:151 5:972 6:5 7:22 8:90 9:59 
100000 1:32 2:4880 3:33 4:124 5:700 6:68 7:374 8:9 9:82 
100000 1:27 2:266 3:16 4:32 5:156 6:13 7:38 8:15 9:20 
100000 1:32 2:11358 3:76 4:310 5:1556 6:49 7:439 8:90 9:202 
100000 1:37 2:31540 3:294 4:335 5:2012 6:374 7:219 8:340 9:284 
100000 1:27 2:3746 3:70 4:101 5:636 6:113 7:171 8:80 9:47 
100000 1:22 2:131 3:15 4:21 5:104 6:4 7:1 8:7 9:16 
100000 1:37 2:8876 3:213 4:102 5:972 6:172 7:39 8:57 9:1 
100000 1:27 2:10055 3:161 4:83 5:828 6:124 7:66 8:123 9:137 
100000 1:27 2:8924 3:262 4:92 5:1348 6:120 7:92 8:458 9:122 
100000 1:37 2:21402 3:346 4:133 5:1628 6:30 7:102 8:253 9:114 
100000 1:27 2:5186 3:69 4:124 5:676 6:105 7:32 8:57 9:113 
100000 1:27 2:9503 3:105 4:233 5:1580 6:15 7:268 8:187 9:4 
100000 1:32 2:45947 3:318 4:317 5:2552 6:154 7:31 8:134 9:16 
72179.552633552143 1:37 2:19327 3:252 4:292 5:2004 6:76 7:310 8:75 9:467 
100000 1:22 2:2350 3:116 4:24 5:720 6:27 7:35 8:231 9:52 
212.87771078426968 1:32 2:9871 3:26 4:236 5:1528 6:51 7:95 8:38 9:89 
100000 1:22 2:1173 3:46 4:98 5:392 6:15 7:27 8:12 9:20 
100000 1:27 2:7398 3:55 4:298 5:1200 6:35 7:160 8:12 9:56 
100000 1:22 2:1155 3:64 4:33 5:324 6:28 7:61 8:102 9:8 
36326.866515389389 1:22 2:8120 3:62 4:160 5:1232 6:146 7:422 8:4 9:175 
100000 1:22 2:2521 3:41 4:165 5:656 6:64 7:120 8:19 9:186 
100000 1:27 2:26198 3:453 4:195 5:1516 6:119 7:269 8:129 9:274 
100000 1:27 2:20273 3:199 4:161 5:940 6:153 7:179 8:43 9:192 
100000 1:22 2:1224 3:59 4:40 5:428 6:8 7:9 8:55 9:4 
100000 1:27 2:1292 3:86 4:26 5:372 6:97 7:22 8:57 9:49 
100000 1:22 2:3963 3:37 4:111 5:568 6:29 7:303 8:23 9:5 
100000 1:22 2:287 3:20 4:27 5:216 6:25 7:32 8:42 9:9 
100000 1:22 2:9272 3:75 4:169 5:988 6:15 7:154 8:31 9:6 
100000 1:22 2:527 3:40 4:31 5:168 6:11 7:27 8:38 9:23 
100000 1:32 2:13980 3:201 4:153 5:1328 6:100 7:446 8:235 9:178 
11170.4590775454 1:37 2:15645 3:78 4:247 5:1496 6:191 7:613 8:39 9:47 
100000 1:22 2:398 3:26 4:32 5:184 6:2 7:23 8:10 9:10 
100000 1:32 2:4945 3:99 4:99 5:688 6:74 7:83 8:107 9:29 
100000 1:27 2:10517 3:118 4:169 5:636 6:63 7:113 8:19 9:30 
100000 1:22 2:4366 3:95 4:156 5:808 6:94 7:366 8:165 9:112 
100000 1:27 2:8237 3:88 4:223 5:1052 6:151 7:419 8:34 9:118 
100000 1:27 2:4502 3:41 4:60 5:708 6:92 7:163 8:58 9:57 
100000 1:22 2:1335 3:55 4:32 5:248 6:40 7:28 8:80 9:7 
100000 1:22 2:486 3:34 4:31 5:264 6:13 7:8 8:34 9:2 
100000 1:37 2:21818 3:392 4:204 5:1548 6:12 7:27 8:123 9:107 
100000 1:22 2:3547 3:112 4:41 5:660 6:6 7:10 8:104 9:20 
100000 1:27 2:23704 3:285 4:232 5:1720 6:35 7:276 8:308 9:131 
100000 1:27 2:96 3:16 4:0 5:96 6:0 7:0 8:54 9:0 
100000 1:22 2:4705 3:98 4:90 5:824 6:179 7:2 8:108 9:201 
45453.883416461002 1:22 2:23842 3:148 4:266 5:1444 6:200 7:210 8:78 9:94 
100000 1:27 2:273 3:11 4:17 5:252 6:8 7:36 8:12 9:24 
100000 1:22 2:24737 3:11 4:285 5:1384 6:17 7:578 8:3 9:19 
100000 1:27 2:69138 3:583 4:385 5:2572 6:156 7:126 8:151 9:85 
100000 1:32 2:26789 3:238 4:196 5:1572 6:264 7:283 8:404 9:197 
100000 1:22 2:28650 3:451 4:130 5:1772 6:73 7:38 8:10 9:44 
100000 1:22 2:403 3:20 4:53 5:208 6:16 7:9 8:3 9:1 
100000 1:22 2:7877 3:103 4:106 5:625 6:195 7:147 8:28 9:166 
100000 1:22 2:1737 3:57 4:78 5:436 6:37 7:158 8:59 9:1 
100000 1:32 2:4860 3:221 4:48 5:808 6:17 7:5 8:183 9:65 
100000 1:37 2:24199 3:305 4:169 5:2012 6:159 7:105 8:839 9:1 
100000 1:22 2:2263 3:114 4:71 5:388 6:1 7:49 8:0 9:15 
100000 1:27 2:918 3:53 4:30 5:288 6:25 7:8 8:7 9:29 
100000 1:32 2:3442 3:31 4:201 5:617 6:62 7:179 8:20 9:57 
100000 1:37 2:15508 3:199 4:222 5:1468 6:124 7:222 8:321 9:84 
100000 1:37 2:9940 3:171 4:201 5:1384 6:168 7:120 8:119 9:76 
100000 1:32 2:2464 3:66 4:80 5:480 6:35 7:95 8:52 9:26 
39865.715483017128 1:37 2:92961 3:239 4:524 5:3240 6:470 7:670 8:168 9:217 
100000 1:32 2:6189 3:230 4:70 5:1336 6:226 7:72 8:358 9:29 
100000 1:22 2:179 3:24 4:25 5:127 6:13 7:2 8:8 9:16 
100000 1:22 2:565 3:39 4:25 5:260 6:26 7:23 8:33 9:10 
100000 1:27 2:13200 3:199 4:48 5:1012 6:17 7:98 8:318 9:70 
100000 1:27 2:47891 3:393 4:32 5:2220 6:15 7:45 8:564 9:28 
100000 1:22 2:3631 3:176 4:106 5:936 6:339 7:91 8:14 9:3 
100000 1:32 2:5252 3:150 4:36 5:912 6:26 7:27 8:389 9:71 
100000 1:32 2:347 3:25 4:36 5:184 6:8 7:7 8:14 9:0 
100000 1:32 2:2421 3:65 4:81 5:424 6:30 7:66 8:58 9:4 
67709.545634424663 1:22 2:69396 3:447 4:195 5:2472 6:32 7:209 8:197 9:27 
100000 1:32 2:1003 3:46 4:31 5:572 6:80 7:20 8:73 9:13 
100000 1:27 2:1171 3:39 4:40 5:312 6:80 7:113 8:39 9:8 
100000 1:22 2:2203 3:96 4:69 5:496 6:42 7:55 8:100 9:2 
100000 1:27 2:5257 3:163 4:77 5:888 6:27 7:19 8:209 9:33 
100000 1:22 2:4398 3:142 4:109 5:832 6:70 7:140 8:280 9:81 
100000 1:22 2:8132 3:206 4:89 5:862 6:182 7:22 8:235 9:40 
100000 1:22 2:10551 3:132 4:181 5:948 6:42 7:149 8:22 9:53 
100000 1:22 2:5861 3:83 4:229 5:1016 6:1 7:228 8:82 9:153 
100000 1:27 2:4764 3:46 4:152 5:1080 6:14 7:156 8:43 9:2 
100000 1:32 2:5411 3:126 4:92 5:696 6:48 7:138 8:64 9:5 
100000 1:27 2:891 3:26 4:50 5:208 6:11 7:31 8:8 9:22 
100000 1:37 2:7989 3:188 4:212 5:948 6:215 7:263 8:203 9:110 
100000 1:32 2:4716 3:159 4:126 5:668 6:112 7:63 8:54 9:63 
100000 1:22 2:991 3:76 4:65 5:292 6:53 7:9 8:36 9:38 
100000 1:27 2:616 3:58 4:39 5:276 6:9 7:16 8:68 9:12 
100000 1:22 2:667 3:16 4:33 5:360 6:14 7:6 8:11 9:19 
100000 1:37 2:14209 3:258 4:130 5:1240 6:272 7:18 8:6 9:150 
100000 1:37 2:29096 3:194 4:336 5:1756 6:131 7:86 8:278 9:262 
100000 1:32 2:14489 3:211 4:72 5:1160 6:24 7:32 8:480 9:49 
100000 1:27 2:888 3:32 4:47 5:188 6:14 7:13 8:12 9:0 
100000 1:37 2:28800 3:127 4:264 5:2108 6:180 7:756 8:106 9:180 
100000 1:22 2:6294 3:202 4:111 5:948 6:51 7:7 8:237 9:13 
100000 1:32 2:3438 3:98 4:73 5:612 6:125 7:40 8:133 9:34 
58699.543573449417 1:22 2:15623 3:224 4:66 5:1256 6:0 7:104 8:10 9:82 
100000 1:27 2:1956 3:52 4:81 5:400 6:103 7:17 8:88 9:5 
100000 1:27 2:2170 3:73 4:72 5:472 6:49 7:39 8:18 9:51 
100000 1:22 2:160 3:13 4:31 5:124 6:17 7:13 8:1 9:6 
100000 1:22 2:664 3:42 4:40 5:248 6:28 7:46 8:19 9:32 
86895.105439093662 1:27 2:21249 3:341 4:268 5:1644 6:104 7:21 8:205 9:10 
100000 1:22 2:596 3:30 4:45 5:204 6:4 7:5 8:11 9:4 
100000 1:22 2:5322 3:177 4:94 5:680 6:29 7:10 8:81 9:26 
100000 1:22 2:1243 3:34 4:26 5:396 6:37 7:26 8:38 9:42 
100000 1:32 2:41491 3:294 4:201 5:1472 6:307 7:128 8:537 9:446 
100000 1:27 2:2584 3:33 4:139 5:568 6:42 7:31 8:26 9:89 
100000 1:22 2:3136 3:217 4:20 5:676 6:4 7:4 8:133 9:17 
100000 1:22 2:888 3:51 4:52 5:296 6:80 7:48 8:9 9:5 
100000 1:22 2:3786 3:77 4:81 5:836 6:71 7:147 8:38 9:69 
100000 1:27 2:5421 3:130 4:72 5:632 6:6 7:50 8:96 9:35 
100000 1:37 2:4269 3:162 4:112 5:784 6:79 7:90 8:50 9:17 
100000 1:22 2:11300 3:52 4:335 5:1240 6:19 7:173 8:33 9:25 
100000 1:27 2:2680 3:77 4:38 5:540 6:88 7:27 8:160 9:55 
100000 1:22 2:1849 3:105 4:86 5:624 6:39 7:10 8:41 9:19 
100000 1:22 2:468 3:19 4:36 5:284 6:31 7:17 8:24 9:9 
92963.797205291819 1:27 2:48456 3:219 4:365 5:2008 6:64 7:858 8:284 9:38 
100000 1:32 2:15972 3:263 4:77 5:1080 6:15 7:31 8:569 9:127 
100000 1:37 2:19805 3:439 4:125 5:1548 6:22 7:42 8:86 9:13 
100000 1:37 2:26982 3:275 4:190 5:1848 6:705 7:264 8:270 9:241 
100000 1:22 2:45799 3:559 4:240 5:2380 6:107 7:169 8:162 9:28 
100000 1:27 2:608 3:44 4:46 5:296 6:47 7:7 8:85 9:10 
100000 1:27 2:9634 3:184 4:81 5:908 6:20 7:20 8:112 9:78 
100000 1:22 2:4945 3:48 4:19 5:1108 6:69 7:41 8:139 9:28 
100000 1:27 2:17294 3:456 4:50 5:1556 6:1 7:109 8:854 9:41 
100000 1:22 2:7417 3:63 4:296 5:972 6:10 7:5 8:30 9:22 
100000 1:22 2:16043 3:225 4:27 5:822 6:12 7:6 8:372 9:28 
100000 1:27 2:23806 3:434 4:39 5:1924 6:17 7:35 8:78 9:29 
100000 1:27 2:526 3:23 4:13 5:184 6:6 7:9 8:18 9:3 
100000 1:27 2:1523 3:39 4:67 5:412 6:76 7:141 8:20 9:30 
100000 1:22 2:228 3:24 4:18 5:152 6:7 7:1 8:33 9:12 
100000 1:22 2:7881 3:60 4:199 5:961 6:110 7:417 8:93 9:60 
100000 1:22 2:288 3:18 4:28 5:112 6:3 7:10 8:19 9:1 
100000 1:22 2:362 3:15 4:37 5:196 6:0 7:38 8:13 9:37 
100000 1:27 2:2814 3:42 4:98 5:360 6:26 7:11 8:16 9:46 
100000 1:32 2:23762 3:129 4:258 5:1652 6:233 7:261 8:16 9:185 
27840.858669449171 1:27 2:42054 3:110 4:349 5:2064 6:130 7:575 8:31 9:26 
100000 1:22 2:83820 3:491 4:339 5:2536 6:105 7:851 8:995 9:100 
48271.587604313034 1:27 2:34657 3:509 4:228 5:2544 6:223 7:63 8:775 9:199 
100000 1:32 2:44533 3:555 4:257 5:2208 6:274 7:147 8:614 9:82 
100000 1:32 2:8280 3:147 4:93 5:1212 6:9 7:107 8:310 9:122 
100000 1:27 2:1956 3:73 4:115 5:420 6:42 7:50 8:91 9:12 
100000 1:27 2:5574 3:235 4:96 5:732 6:26 7:117 8:26 9:92 
100000 1:22 2:10263 3:187 4:165 5:1412 6:15 7:180 8:246 9:176 
100000 1:22 2:6236 3:191 4:64 5:669 6:67 7:26 8:152 9:92 
100000 1:22 2:6625 3:227 4:33 5:642 6:10 7:25 8:91 9:7 
100000 1:32 2:409 3:19 4:34 5:156 6:2 7:1 8:35 9:18 
100000 1:22 2:3682 3:200 4:46 5:908 6:11 7:83 8:74 9:67 
100000 1:22 2:7811 3:125 4:141 5:772 6:64 7:282 8:97 9:61 
100000 1:27 2:60871 3:401 4:363 5:2204 6:138 7:111 8:74 9:229 
100000 1:22 2:813 3:49 4:27 5:316 6:8 7:0 8:122 9:4 
100000 1:37 2:7696 3:161 4:103 5:720 6:205 7:92 8:126 9:101 
100000 1:32 2:29228 3:108 4:253 5:1771 6:228 7:821 8:212 9:180 
100000 1:27 2:3939 3:51 4:156 5:816 6:79 7:262 8:19 9:16 
100000 1:22 2:6873 3:96 4:152 5:1036 6:61 7:231 8:35 9:52 
100000 1:37 2:26568 3:298 4:170 5:2064 6:69 7:32 8:808 9:403 
100000 1:37 2:5092 3:148 4:107 5:772 6:142 7:77 8:97 9:90 
100000 1:27 2:15565 3:94 4:215 5:944 6:204 7:48 8:76 9:5 
100000 1:32 2:1650 3:72 4:62 5:476 6:44 7:54 8:90 9:23 
100000 1:22 2:4120 3:96 4:90 5:476 6:16 7:19 8:88 9:57 
100000 1:22 2:235 3:16 4:33 5:168 6:15 7:26 8:1 9:24 
100000 1:22 2:3386 3:84 4:89 5:452 6:161 7:3 8:53 9:15 
100000 1:32 2:46024 3:233 4:372 5:1872 6:57 7:242 8:347 9:40 
92003.043064612037 1:27 2:16318 3:291 4:226 5:1320 6:85 7:210 8:470 9:0 
100000 1:22 2:4071 3:81 4:59 5:648 6:6 7:53 8:210 9:36 
100000 1:22 2:6930 3:61 4:156 5:800 6:67 7:178 8:40 9:168 
26673.511272307464 1:37 2:60980 3:409 4:335 5:2488 6:216 7:203 8:349 9:298 
40358.260020956215 1:32 2:25851 3:86 4:233 5:2204 6:240 7:686 8:25 9:225 
100000 1:22 2:6438 3:79 4:136 5:1060 6:204 7:365 8:45 9:37 
100000 1:27 2:8810 3:214 4:106 5:956 6:11 7:120 8:15 9:106 
100000 1:22 2:356 3:35 4:19 5:148 6:1 7:55 8:85 9:11 
100000 1:27 2:27734 3:305 4:344 5:1612 6:71 7:20 8:529 9:379 
100000 1:22 2:43945 3:434 4:295 5:2120 6:85 7:783 8:576 9:79 
100000 1:22 2:6058 3:38 4:156 5:912 6:51 7:139 8:3 9:21 
100000 1:37 2:10602 3:301 4:104 5:1188 6:29 7:58 8:149 9:72 
100000 1:22 2:2448 3:65 4:25 5:648 6:35 7:40 8:160 9:14 
14848.655911359934 1:37 2:75960 3:467 4:289 5:2600 6:497 7:655 8:255 9:798 
100000 1:22 2:1219 3:42 4:77 5:585 6:32 7:77 8:46 9:101 
100000 1:27 2:3706 3:92 4:103 5:832 6:111 7:40 8:98 9:102 
100000 1:27 2:54119 3:435 4:136 5:2804 6:278 7:17 8:1332 9:338 
43711.305285092894 1:22 2:9206 3:125 4:213 5:1008 6:79 7:64 8:411 9:189 
100000 1:37 2:42258 3:136 4:349 5:1932 6:162 7:576 8:212 9:9 
100000 1:32 2:19453 3:245 4:106 5:884 6:6 7:68 8:97 9:38 
100000 1:27 2:9636 3:170 4:113 5:872 6:65 7:154 8:14 9:7 
100000 1:32 2:19486 3:128 4:329 5:1736 6:17 7:398 8:117 9:323 
100000 1:22 2:3547 3:79 4:76 5:544 6:8 7:40 8:152 9:151 
100000 1:22 2:18487 3:252 4:166 5:985 6:18 7:99 8:220 9:34 
100000 1:22 2:4911 3:161 4:64 5:784 6:37 7:38 8:147 9:40 
100000 1:27 2:1959 3:61 4:116 5:508 6:16 7:151 8:16 9:43 
100000 1:22 2:4954 3:172 4:70 5:840 6:1 7:4 8:261 9:36 
100000 1:27 2:4778 3:91 4:95 5:980 6:108 7:70 8:105 9:236 
100000 1:27 2:458 3:33 4:24 5:132 6:6 7:2 8:13 9:29 
100000 1:27 2:10441 3:61 4:279 5:924 6:58 7:56 8:64 9:15 
100000 1:22 2:3452 3:77 4:117 5:557 6:88 7:72 8:87 9:137 
100000 1:32 2:15568 3:145 4:222 5:1208 6:34 7:286 8:225 9:22 
100000 1:22 2:37538 3:420 4:253 5:1924 6:227 7:233 8:178 9:431 
100000 1:22 2:300 3:17 4:53 5:176 6:19 7:25 8:4 9:4 
100000 1:27 2:7758 3:155 4:153 5:988 6:139 7:172 8:90 9:149 
87270.797306284614 1:22 2:28710 3:481 4:222 5:1868 6:392 7:234 8:149 9:4 
100000 1:37 2:15279 3:300 4:198 5:1360 6:229 7:40 8:54 9:98 
100000 1:32 2:13843 3:268 4:128 5:1556 6:203 7:2 8:122 9:140 
100000 1:27 2:855 3:24 4:57 5:364 6:8 7:113 8:16 9:2 
100000 1:32 2:9862 3:144 4:265 5:1028 6:1 7:165 8:61 9:316 
100000 1:27 2:58855 3:386 4:135 5:2340 6:141 7:85 8:199 9:129 
2739.1973838703379 1:37 2:68425 3:751 4:269 5:2376 6:644 7:6 8:74 9:332 
100000 1:37 2:5057 3:144 4:101 5:804 6:100 7:7 8:39 9:89 
100000 1:22 2:2448 3:73 4:91 5:589 6:32 7:121 8:82 9:82 
100000 1:37 2:11679 3:149 4:169 5:1128 6:71 7:259 8:23 9:102 
77036.587869403927 1:22 2:45304 3:276 4:275 5:1544 6:395 7:464 8:188 9:232 
100000 1:27 2:1315 3:59 4:83 5:480 6:19 7:16 8:13 9:70 
100000 1:27 2:1444 3:69 4:59 5:348 6:52 7:53 8:115 9:52 
100000 1:22 2:168 3:15 4:22 5:148 6:23 7:35 8:6 9:25 
34855.827535340068 1:22 2:47711 3:541 4:244 5:2760 6:859 7:100 8:71 9:111 
100000 1:22 2:1996 3:13 4:33 5:684 6:33 7:31 8:39 9:64 
100000 1:22 2:3936 3:72 4:139 5:672 6:52 7:6 8:36 9:131 
100000 1:37 2:22688 3:163 4:389 5:1776 6:0 7:10 8:259 9:348 
100000 1:32 2:10002 3:207 4:53 5:1168 6:0 7:99 8:708 9:60 
100000 1:22 2:16989 3:153 4:151 5:876 6:76 7:41 8:196 9:84 
100000 1:27 2:3847 3:23 4:185 5:628 6:7 7:80 8:4 9:41 
100000 1:22 2:2639 3:119 4:92 5:564 6:121 7:93 8:114 9:74 
100000 1:22 2:251 3:43 4:17 5:172 6:4 7:12 8:41 9:0 
100000 1:37 2:23534 3:387 4:157 5:2204 6:419 7:78 8:488 9:179 
100000 1:32 2:7317 3:198 4:91 5:1216 6:203 7:123 8:108 9:71 
100000 1:22 2:398 3:47 4:23 5:212 6:14 7:35 8:55 9:9 
100000 1:22 2:625 3:42 4:38 5:300 6:8 7:24 8:24 9:38 
100000 1:37 2:4138 3:83 4:106 5:924 6:46 7:211 8:222 9:36 
100000 1:22 2:3732 3:95 4:48 5:564 6:87 7:72 8:23 9:84 
100000 1:27 2:4160 3:44 4:108 5:788 6:115 7:317 8:10 9:97 
100000 1:27 2:6699 3:189 4:161 5:760 6:10 7:27 8:95 9:40 
100000 1:32 2:1535 3:43 4:84 5:452 6:40 7:123 8:34 9:46 
100000 1:22 2:2066 3:64 4:74 5:435 6:65 7:86 8:45 9:71 
100000 1:27 2:5595 3:69 4:79 5:1248 6:50 7:82 8:120 9:165 
100000 1:32 2:21907 3:240 4:178 5:1548 6:185 7:275 8:182 9:187 
100000 1:37 2:33215 3:155 4:370 5:1196 6:120 7:130 8:61 9:17 
100000 1:22 2:1716 3:107 4:53 5:444 6:78 7:27 8:76 9:28 
100000 1:22 2:161 3:16 4:18 5:156 6:3 7:14 8:31 9:17 
100000 1:22 2:677 3:22 4:26 5:316 6:8 7:24 8:21 9:29 
100000 1:27 2:1052 3:56 4:45 5:384 6:12 7:8 8:14 9:25 
100000 1:22 2:5207 3:86 4:124 5:572 6:85 7:69 8:60 9:27 
100000 1:37 2:7494 3:192 4:126 5:1000 6:51 7:91 8:214 9:99 
100000 1:32 2:2120 3:67 4:47 5:453 6:18 7:64 8:5 9:87 
100000 1:22 2:4761 3:117 4:71 5:700 6:25 7:156 8:241 9:1 
100000 1:27 2:1934 3:40 4:44 5:736 6:98 7:30 8:103 9:36 
100000 1:37 2:24753 3:252 4:181 5:1544 6:257 7:303 8:60 9:207 
100000 1:22 2:5696 3:148 4:53 5:856 6:67 7:20 8:351 9:53 
100000 1:22 2:2919 3:32 4:136 5:582 6:26 7:151 8:6 9:14 
100000 1:27 2:7599 3:151 4:105 5:748 6:18 7:40 8:139 9:97 
100000 1:32 2:1473 3:83 4:39 5:392 6:18 7:36 8:39 9:16 
100000 1:37 2:4403 3:138 4:79 5:680 6:176 7:78 8:142 9:33 
100000 1:27 2:35274 3:360 4:52 5:2736 6:54 7:72 8:1088 9:97 
100000 1:22 2:331 3:51 4:11 5:224 6:3 7:2 8:29 9:6 
100000 1:32 2:9324 3:64 4:175 5:1016 6:21 7:261 8:4 9:30 
100000 1:22 2:5120 3:34 4:59 5:832 6:69 7:171 8:10 9:4 
100000 1:37 2:2390 3:62 4:48 5:601 6:102 7:65 8:174 9:75 
100000 1:27 2:5700 3:59 4:216 5:1092 6:44 7:196 8:71 9:39 
100000 1:22 2:2715 3:97 4:63 5:464 6:8 7:116 8:75 9:9 
100000 1:22 2:1171 3:27 4:57 5:348 6:3 7:118 8:14 9:23 
100000 1:22 2:94 3:12 4:18 5:144 6:0 7:25 8:13 9:29 
100000 1:27 2:39276 3:341 4:315 5:1988 6:269 7:106 8:105 9:281 
100000 1:27 2:2373 3:50 4:112 5:428 6:36 7:35 8:14 9:16 
100000 1:27 2:11614 3:95 4:197 5:1004 6:153 7:120 8:88 9:100 
68684.24489229155 1:27 2:5937 3:125 4:79 5:1456 6:152 7:23 8:264 9:9 
100000 1:27 2:979 3:42 4:47 5:308 6:23 7:4 8:14 9:32 
100000 1:27 2:2916 3:18 4:72 5:772 6:5 7:240 8:11 9:22 
50741.52274458277 1:37 2:53001 3:364 4:567 5:1948 6:233 7:280 8:52 9:196 
100000 1:22 2:43896 3:395 4:11 5:2388 6:9 7:2 8:1322 9:4 
100000 1:32 2:12061 3:123 4:155 5:1164 6:204 7:155 8:85 9:116 
100000 1:32 2:4995 3:159 4:111 5:872 6:219 7:15 8:82 9:101 
100000 1:27 2:9422 3:123 4:171 5:1104 6:206 7:31 8:45 9:50 
100000 1:32 2:61425 3:567 4:572 5:2744 6:66 7:158 8:429 9:416 
100000 1:22 2:9393 3:155 4:151 5:1044 6:69 7:473 8:382 9:18 
100000 1:27 2:2760 3:76 4:103 5:660 6:92 7:116 8:2 9:54 
100000 1:22 2:282 3:35 4:20 5:156 6:1 7:0 8:66 9:13 
100000 1:22 2:4997 3:123 4:62 5:1068 6:88 7:60 8:144 9:54 
100000 1:27 2:11122 3:188 4:120 5:940 6:67 7:9 8:217 9:105 
100000 1:22 2:33497 3:494 4:231 5:1964 6:102 7:26 8:360 9:309 
38203.913936685785 1:37 2:77076 3:535 4:174 5:3328 6:138 7:6 8:1849 9:316 
100000 1:37 2:46837 3:340 4:328 5:1916 6:184 7:83 8:166 9:211 
100000 1:22 2:1282 3:116 4:27 5:448 6:62 7:19 8:113 9:0 
100000 1:27 2:5367 3:78 4:112 5:808 6:102 7:184 8:197 9:23 
100000 1:37 2:21763 3:279 4:170 5:1448 6:45 7:30 8:371 9:6 
100000 1:27 2:10256 3:198 4:71 5:1036 6:25 7:116 8:356 9:140 
100000 1:27 2:3764 3:142 4:36 5:928 6:139 7:28 8:221 9:88 
100000 1:32 2:19343 3:359 4:207 5:1588 6:131 7:43 8:66 9:10 
100000 1:22 2:225 3:35 4:15 5:168 6:12 7:4 8:55 9:4 
100000 1:27 2:2883 3:80 4:69 5:444 6:156 7:104 8:33 9:89 
100000 1:22 2:31881 3:83 4:329 5:1856 6:121 7:869 8:31 9:22 
100000 1:22 2:3173 3:54 4:177 5:620 6:30 7:103 8:13 9:55 
100000 1:32 2:3462 3:106 4:120 5:704 6:3 7:206 8:151 9:30 
100000 1:22 2:11518 3:163 4:188 5:716 6:23 7:28 8:121 9:25 
100000 1:37 2:16177 3:171 4:262 5:1568 6:52 7:262 8:159 9:142 
100000 1:22 2:2366 3:37 4:151 5:612 6:17 7:69 8:12 9:21 
100000 1:27 2:9320 3:153 4:148 5:1232 6:185 7:133 8:68 9:22 
100000 1:22 2:3953 3:162 4:101 5:988 6:406 7:137 8:16 9:1 
100000 1:27 2:70064 3:617 4:493 5:2552 6:140 7:537 8:453 9:270 
100000 1:22 2:229 3:17 4:38 5:240 6:12 7:60 8:4 9:0 
100000 1:27 2:3464 3:34 4:104 5:464 6:42 7:178 8:43 9:42 
71039.836081920395 1:37 2:51763 3:499 4:446 5:2748 6:93 7:460 8:1021 9:302 
100000 1:37 2:12501 3:259 4:180 5:1180 6:132 7:96 8:335 9:155 
100000 1:27 2:1774 3:43 4:53 5:464 6:90 7:131 8:55 9:91 
100000 1:22 2:275 3:26 4:21 5:228 6:33 7:28 8:34 9:29 
100000 1:22 2:5874 3:176 4:112 5:928 6:95 7:108 8:159 9:75 
100000 1:22 2:268 3:18 4:25 5:228 6:3 7:24 8:9 9:9 
100000 1:27 2:8981 3:129 4:118 5:1040 6:31 7:166 8:86 9:77 
100000 1:22 2:7188 3:41 4:104 5:1189 6:115 7:350 8:27 9:243 
100000 1:22 2:9822 3:42 4:154 5:1152 6:18 7:258 8:22 9:50 
100000 1:22 2:6248 3:21 4:38 5:676 6:37 7:8 8:53 9:51 
100000 1:22 2:3986 3:45 4:61 5:928 6:131 7:150 8:119 9:153 
49514.980352869265 1:22 2:80003 3:569 4:374 5:2516 6:309 7:494 8:381 9:64 
-100000 1:22 2:147 3:15 4:24 5:180 6:1 7:14 8:2 9:25 
-100000 1:37 2:7188 3:135 4:120 5:944 6:165 7:324 8:50 9:68 
-95599.382668922452 1:22 2:775 3:42 4:79 5:352 6:7 7:25 8:26 9:56 
-100000 1:32 2:35598 3:563 4:157 5:1720 6:138 7:166 8:197 9:55 
-100000 1:27 2:20045 3:138 4:252 5:1648 6:142 7:362 8:157 9:39 
-100000 1:27 2:3091 3:16 4:32 5:568 6:44 7:38 8:37 9:10 
-100000 1:22 2:22303 3:95 4:355 5:1696 6:51 7:37 8:101 9:23 
-100000 1:22 2:6059 3:141 4:115 5:1032 6:97 7:153 8:88 9:45 
-100000 1:22 2:4165 3:43 4:152 5:736 6:21 7:179 8:12 9:13 
-100000 1:27 2:1168 3:48 4:34 5:472 6:23 7:41 8:62 9:77 
-100000 1:22 2:1351 3:54 4:55 5:252 6:45 7:42 8:31 9:4 
-100000 1:27 2:2026 3:71 4:68 5:396 6:82 7:17 8:38 9:4 
-100000 1:37 2:5620 3:140 4:51 5:756 6:132 7:79 8:95 9:85 
-100000 1:27 2:5260 3:113 4:78 5:540 6:31 7:191 8:37 9:61 
-100000 1:32 2:4263 3:138 4:55 5:952 6:170 7:60 8:278 9:13 
-100000 1:37 2:3786 3:79 4:117 5:724 6:17 7:212 8:33 9:72 
-100000 1:27 2:13836 3:252 4:144 5:1428 6:127 7:148 8:292 9:16 
-100000 1:27 2:55284 3:120 4:560 5:2156 6:90 7:525 8:39 9:191 
-100000 1:22 2:1358 3:52 4:35 5:289 6:58 7:22 8:83 9:29 
-100000 1:32 2:5819 3:168 4:65 5:744 6:75 7:42 8:1 9:27 
-100000 1:37 2:38837 3:379 4:45 5:1400 6:22 7:67 8:57 9:90 
-100000 1:32 2:4648 3:46 4:136 5:860 6:67 7:271 8:2 9:32 
-100000 1:22 2:6820 3:153 4:55 5:908 6:99 7:19 8:388 9:27 
-100000 1:22 2:6609 3:145 4:158 5:1076 6:64 7:125 8:88 9:23 
-100000 1:32 2:5293 3:66 4:144 5:572 6:6 7:207 8:72 9:13 
-100000 1:22 2:2944 3:63 4:90 5:360 6:5 7:8 8:11 9:4 
-100000 1:32 2:10901 3:197 4:166 5:1276 6:68 7:58 8:171 9:38 
-100000 1:37 2:1569 3:41 4:45 5:592 6:72 7:101 8:47 9:43 
-100000 1:22 2:261 3:32 4:21 5:208 6:20 7:18 8:15 9:2 
-100000 1:22 2:3860 3:48 4:205 5:780 6:7 7:32 8:1 9:45 
-100000 1:22 2:692 3:33 4:29 5:264 6:13 7:0 8:7 9:14 
-100000 1:37 2:2993 3:61 4:78 5:544 6:38 7:24 8:35 9:17 
-100000 1:22 2:1103 3:34 4:56 5:452 6:5 7:77 8:1 9:66 
-100000 1:27 2:10399 3:273 4:25 5:1232 6:36 7:3 8:556 9:7 
-100000 1:32 2:4802 3:157 4:109 5:760 6:53 7:89 8:150 9:137 
-100000 1:22 2:3594 3:79 4:75 5:519 6:107 7:63 8:75 9:148 
-100000 1:27 2:2413 3:66 4:114 5:568 6:13 7:223 8:31 9:54 
-100000 1:37 2:23705 3:332 4:231 5:1876 6:187 7:57 8:120 9:27 
-100000 1:22 2:1947 3:41 4:78 5:332 6:68 7:41 8:16 9:98 
-100000 1:22 2:1672 3:29 4:128 5:644 6:19 7:101 8:22 9:62 
-100000 1:32 2:2843 3:26 4:112 5:808 6:0 7:306 8:21 9:22 
-100000 1:22 2:6968 3:143 4:56 5:515 6:45 7:12 8:266 9:51 
-100000 1:22 2:157 3:23 4:22 5:140 6:27 7:3 8:8 9:10 
-100000 1:37 2:22918 3:371 4:57 5:1620 6:106 7:46 8:453 9:19 
-100000 1:27 2:7234 3:153 4:25 5:608 6:34 7:12 8:345 9:37 
-100000 1:22 2:267 3:28 4:21 5:164 6:20 7:2 8:9 9:21 
-100000 1:27 2:816 3:31 4:61 5:356 6:58 7:110 8:6 9:12 
-100000 1:27 2:6857 3:107 4:143 5:928 6:156 7:183 8:62 9:50 
-100000 1:27 2:11707 3:246 4:36 5:1068 6:54 7:56 8:407 9:76 
-100000 1:22 2:3795 3:85 4:169 5:864 6:44 7:87 8:17 9:111 
-100000 1:22 2:1863 3:93 4:40 5:548 6:32 7:50 8:171 9:47 
-100000 1:22 2:9764 3:135 4:215 5:1080 6:122 7:169 8:49 9:73 
-100000 1:27 2:1279 3:70 4:23 5:352 6:23 7:25 8:118 9:10 
-100000 1:27 2:17455 3:157 4:297 5:1864 6:117 7:278 8:41 9:103 
-100000 1:22 2:1883 3:37 4:77 5:696 6:19 7:154 8:15 9:57 
-100000 1:22 2:6466 3:167 4:62 5:892 6:33 7:31 8:343 9:83 
-100000 1:27 2:1166 3:69 4:30 5:636 6:119 7:10 8:113 9:62 
-100000 1:22 2:130 3:18 4:18 5:104 6:17 7:10 8:15 9:31 
-100000 1:22 2:1103 3:90 4:32 5:420 6:22 7:12 8:37 9:38 
-100000 1:32 2:2020 3:30 4:81 5:496 6:53 7:202 8:26 9:27 
-100000 1:22 2:1380 3:39 4:68 5:380 6:2 7:134 8:17 9:22 
-100000 1:27 2:9709 3:191 4:191 5:824 6:47 7:58 8:51 9:23 
-100000 1:22 2:5525 3:39 4:181 5:748 6:32 7:247 8:7 9:60 
-100000 1:22 2:30124 3:299 4:121 5:1280 6:61 7:47 8:403 9:191 
-100000 1:22 2:24781 3:281 4:69 5:1620 6:92 7:187 8:407 9:13 
-100000 1:22 2:2870 3:20 4:163 5:600 6:8 7:112 8:3 9:8 
-100000 1:22 2:1646 3:69 4:34 5:476 6:2 7:51 8:145 9:22 
-14924.230359585112 1:32 2:100500 3:164 4:609 5:3256 6:292 7:1350 8:35 9:39 
-100000 1:32 2:81940 3:505 4:166 5:2448 6:48 7:78 8:1123 9:328 
-100000 1:32 2:14254 3:221 4:86 5:1232 6:49 7:60 8:474 9:72 
-100000 1:32 2:9237 3:31 4:289 5:928 6:2 7:78 8:7 9:29 
-100000 1:37 2:2947 3:73 4:69 5:720 6:89 7:64 8:22 9:48 
-100000 1:22 2:1405 3:54 4:70 5:340 6:38 7:46 8:4 9:45 
-100000 1:27 2:9346 3:207 4:69 5:1184 6:0 7:77 8:21 9:30 
-100000 1:22 2:27158 3:159 4:514 5:1808 6:9 7:27 8:69 9:3 
-100000 1:27 2:3572 3:94 4:122 5:760 6:47 7:63 8:63 9:45 
-100000 1:22 2:3361 3:99 4:82 5:504 6:17 7:112 8:202 9:29 
-100000 1:22 2:9961 3:259 4:34 5:1040 6:29 7:45 8:652 9:36 
-100000 1:37 2:23662 3:267 4:236 5:1652 6:335 7:93 8:277 9:451 
-100000 1:37 2:54966 3:660 4:384 5:2976 6:92 7:121 8:486 9:101 
-100000 1:37 2:3115 3:55 4:124 5:768 6:0 7:109 8:45 9:43 
-100000 1:37 2:24360 3:91 4:298 5:948 6:2 7:71 8:32 9:50 
-100000 1:22 2:4703 3:162 4:104 5:744 6:16 7:147 8:160 9:55 
-100000 1:32 2:5008 3:118 4:31 5:1360 6:145 7:38 8:294 9:65 
-100000 1:27 2:566 3:44 4:21 5:397 6:73 7:14 8:70 9:4 
-100000 1:22 2:1382 3:45 4:61 5:300 6:17 7:21 8:61 9:9 
-100000 1:27 2:2322 3:117 4:28 5:568 6:17 7:13 8:148 9:2 
-100000 1:27 2:324 3:34 4:20 5:232 6:43 7:0 8:7 9:0 
-100000 1:22 2:409 3:28 4:23 5:224 6:34 7:40 8:46 9:8 
-100000 1:27 2:4855 3:81 4:124 5:476 6:30 7:43 8:37 9:125 
-100000 1:27 2:3603 3:21 4:159 5:700 6:2 7:189 8:9 9:53 
-61384.095788748542 1:37 2:86358 3:154 4:492 5:3276 6:434 7:1536 8:41 9:50 
-100000 1:27 2:1546 3:67 4:57 5:392 6:31 7:6 8:103 9:85 
-100000 1:37 2:27949 3:172 4:273 5:1324 6:49 7:107 8:1 9:53 
-100000 1:27 2:8648 3:217 4:119 5:936 6:150 7:55 8:6 9:93 
-100000 1:22 2:803 3:33 4:37 5:256 6:35 7:37 8:29 9:51 
-100000 1:27 2:16142 3:219 4:220 5:1548 6:281 7:168 8:94 9:252 
-100000 1:27 2:12179 3:233 4:102 5:1488 6:0 7:2 8:165 9:16 
-100000 1:37 2:10020 3:73 4:99 5:1260 6:234 7:279 8:50 9:121 
-100000 1:22 2:7435 3:75 4:155 5:881 6:7 7:319 8:85 9:77 
-100000 1:22 2:3464 3:148 4:81 5:620 6:86 7:140 8:12 9:93 
-100000 1:22 2:6606 3:62 4:158 5:840 6:60 7:141 8:11 9:24 
-100000 1:32 2:1280 3:53 4:59 5:468 6:10 7:61 8:95 9:75 
-100000 1:27 2:442 3:11 4:30 5:348 6:3 7:94 8:4 9:29 
-100000 1:22 2:6841 3:111 4:103 5:975 6:16 7:354 8:277 9:114 
-100000 1:22 2:492 3:36 4:24 5:264 6:30 7:1 8:34 9:0 
-100000 1:37 2:7225 3:118 4:130 5:748 6:130 7:36 8:140 9:46 
-100000 1:32 2:3602 3:108 4:85 5:512 6:22 7:20 8:46 9:51 
-100000 1:22 2:2599 3:55 4:93 5:464 6:23 7:75 8:42 9:4 
-100000 1:32 2:7055 3:120 4:142 5:728 6:38 7:56 8:58 9:43 
-100000 1:27 2:19383 3:216 4:215 5:832 6:166 7:181 8:254 9:44 
-100000 1:32 2:36420 3:254 4:339 5:2336 6:191 7:788 8:396 9:493 
-100000 1:27 2:13850 3:127 4:210 5:1056 6:210 7:349 8:67 9:87 
-100000 1:27 2:7567 3:192 4:120 5:832 6:175 7:153 8:38 9:116 
-100000 1:22 2:5069 3:220 4:118 5:796 6:2 7:52 8:40 9:101 
-100000 1:37 2:3469 3:130 4:127 5:824 6:32 7:15 8:144 9:72 
-100000 1:27 2:1653 3:75 4:36 5:395 6:24 7:6 8:81 9:24 
-100000 1:32 2:44797 3:492 4:294 5:2636 6:423 7:116 8:52 9:167 
-100000 1:37 2:13613 3:187 4:234 5:1088 6:26 7:119 8:62 9:90 
-100000 1:22 2:554 3:43 4:33 5:227 6:30 7:9 8:34 9:1 
-100000 1:27 2:31791 3:367 4:54 5:1412 6:73 7:23 8:360 9:88 
-100000 1:22 2:3667 3:168 4:67 5:712 6:101 7:9 8:157 9:27 
-100000 1:22 2:32700 3:617 4:108 5:2004 6:3 7:157 8:687 9:66 
-100000 1:22 2:5414 3:105 4:145 5:796 6:165 7:64 8:31 9:4 
-100000 1:37 2:26445 3:343 4:175 5:1772 6:192 7:123 8:418 9:241 
-100000 1:32 2:4353 3:148 4:75 5:844 6:53 7:116 8:68 9:16 
-100000 1:32 2:1952 3:60 4:35 5:612 6:70 7:23 8:163 9:54 
-100000 1:22 2:588 3:45 4:28 5:320 6:13 7:6 8:56 9:5 
-100000 1:22 2:1822 3:113 4:33 5:480 6:44 7:10 8:105 9:0 
-100000 1:27 2:1974 3:57 4:63 5:324 6:40 7:25 8:89 9:56 
-100000 1:22 2:1830 3:86 4:53 5:388 6:2 7:49 8:77 9:17 
-100000 1:32 2:5019 3:141 4:135 5:736 6:136 7:55 8:20 9:17 
-100000 1:27 2:49626 3:375 4:263 5:2396 6:178 7:551 8:346 9:78 
-100000 1:27 2:980 3:44 4:46 5:392 6:73 7:39 8:42 9:9 
-100000 1:37 2:8358 3:172 4:163 5:757 6:12 7:212 8:213 9:45 
-100000 1:37 2:34351 3:311 4:127 5:1476 6:116 7:69 8:83 9:95 
-100000 1:32 2:4966 3:187 4:85 5:1032 6:205 7:86 8:94 9:3 
-100000 1:22 2:1267 3:128 4:5 5:460 6:4 7:2 8:181 9:14 
-100000 1:27 2:1574 3:78 4:27 5:548 6:10 7:10 8:181 9:17 
-100000 1:32 2:7575 3:178 4:30 5:576 6:10 7:8 8:24 9:7 
-100000 1:37 2:15359 3:122 4:224 5:1396 6:203 7:590 8:8 9:164 
-100000 1:22 2:13001 3:211 4:75 5:800 6:49 7:29 8:144 9:44 
-100000 1:22 2:770 3:43 4:55 5:312 6:21 7:21 8:4 9:31 
-100000 1:27 2:1160 3:29 4:102 5:440 6:41 7:71 8:1 9:8 
-100000 1:22 2:125 3:17 4:10 5:96 6:0 7:3 8:47 9:2 
-100000 1:32 2:1624 3:39 4:76 5:496 6:32 7:64 8:4 9:21 
-100000 1:22 2:278 3:30 4:24 5:197 6:9 7:12 8:59 9:13 
-100000 1:22 2:35962 3:391 4:286 5:1468 6:13 7:27 8:218 9:185 
-100000 1:37 2:24905 3:29 4:603 5:2172 6:11 7:783 8:67 9:50 
-100000 1:37 2:40315 3:295 4:118 5:3128 6:428 7:37 8:1103 9:362 
-100000 1:32 2:53327 3:118 4:479 5:2236 6:77 7:437 8:27 9:68 
-100000 1:32 2:11471 3:198 4:160 5:1240 6:74 7:20 8:203 9:202 
-100000 1:27 2:1754 3:65 4:89 5:448 6:28 7:110 8:42 9:113 
-100000 1:22 2:1887 3:57 4:58 5:356 6:71 7:98 8:61 9:41 
-100000 1:32 2:24093 3:167 4:323 5:1576 6:195 7:249 8:88 9:191 
-55943.748583318877 1:22 2:251 3:27 4:30 5:172 6:17 7:7 8:28 9:21 
-100000 1:37 2:14785 3:229 4:147 5:1372 6:43 7:37 8:191 9:187 
-100000 1:27 2:21175 3:299 4:57 5:1740 6:3 7:33 8:873 9:135 
-100000 1:22 2:10338 3:28 4:170 5:1076 6:31 7:541 8:43 9:41 
-100000 1:22 2:3527 3:104 4:70 5:380 6:55 7:21 8:39 9:49 
-100000 1:32 2:14711 3:259 4:107 5:1200 6:86 7:44 8:11 9:64 
-100000 1:22 2:2658 3:113 4:17 5:708 6:49 7:17 8:222 9:20 
-100000 1:22 2:6121 3:60 4:139 5:624 6:91 7:261 8:95 9:33 
-100000 1:27 2:717 3:36 4:42 5:240 6:69 7:41 8:44 9:41 
-11944.935622785291 1:22 2:172 3:14 4:20 5:107 6:10 7:14 8:7 9:4 
-100000 1:22 2:222 3:28 4:16 5:176 6:23 7:4 8:16 9:1 
-100000 1:27 2:5616 3:155 4:88 5:793 6:99 7:110 8:213 9:133 
-100000 1:32 2:17524 3:403 4:205 5:2328 6:19 7:28 8:383 9:290 
-100000 1:22 2:20864 3:284 4:206 5:1732 6:25 7:125 8:353 9:19 
-100000 1:22 2:6605 3:84 4:82 5:704 6:163 7:139 8:226 9:170 
-100000 1:37 2:7020 3:99 4:134 5:1124 6:84 7:97 8:106 9:105 
-100000 1:37 2:3686 3:76 4:59 5:724 6:139 7:182 8:20 9:4 
-100000 1:37 2:23252 3:95 4:269 5:1108 6:49 7:447 8:81 9:128 
-100000 1:22 2:3957 3:45 4:138 5:888 6:2 7:192 8:46 9:0 
-100000 1:27 2:27790 3:627 4:41 5:1940 6:94 7:23 8:1035 9:20 
-100000 1:22 2:696 3:73 4:6 5:400 6:18 7:0 8:173 9:13 
-100000 1:37 2:31486 3:197 4:329 5:1740 6:270 7:412 8:75 9:106 
-100000 1:37 2:4965 3:87 4:65 5:1128 6:37 7:54 8:88 9:18 
-100000 1:37 2:18215 3:208 4:295 5:1236 6:147 7:171 8:138 9:34 
-100000 1:27 2:44507 3:493 4:129 5:2176 6:4 7:53 8:673 9:323 
-100000 1:27 2:44008 3:195 4:376 5:1128 6:199 7:342 8:73 9:147 
-100000 1:32 2:2703 3:59 4:59 5:648 6:50 7:42 8:74 9:148 
-100000 1:27 2:1238 3:52 4:94 5:456 6:49 7:39 8:2 9:61 
-100000 1:27 2:1943 3:40 4:152 5:536 6:7 7:43 8:36 9:53 
-100000 1:37 2:3810 3:110 4:40 5:560 6:19 7:76 8:60 9:6 
-100000 1:37 2:1841 3:70 4:42 5:636 6:59 7:23 8:178 9:37 
-100000 1:22 2:12473 3:83 4:201 5:644 6:1 7:20 8:10 9:18 
-100000 1:22 2:9457 3:148 4:172 5:1140 6:82 7:47 8:147 9:52 
-100000 1:37 2:12608 3:193 4:223 5:1216 6:24 7:83 8:70 9:237 
-100000 1:22 2:1458 3:57 4:39 5:272 6:39 7:0 8:8 9:5 
-100000 1:27 2:5920 3:86 4:196 5:731 6:46 7:48 8:2 9:4 
-100000 1:22 2:33633 3:246 4:341 5:1764 6:365 7:346 8:17 9:112 
-100000 1:22 2:810 3:77 4:27 5:401 6:18 7:27 8:62 9:23 
-100000 1:22 2:12447 3:99 4:190 5:1228 6:181 7:490 8:80 9:212 
-100000 1:22 2:7772 3:144 4:254 5:1000 6:103 7:4 8:28 9:106 
-100000 1:37 2:13083 3:206 4:184 5:1172 6:194 7:170 8:84 9:8 
-100000 1:22 2:1831 3:16 4:101 5:352 6:10 7:105 8:2 9:11 
-100000 1:27 2:1846 3:33 4:42 5:584 6:60 7:96 8:51 9:113 
-100000 1:37 2:29303 3:177 4:277 5:1132 6:210 7:110 8:69 9:146 
-15696.406849049838 1:27 2:1239 3:40 4:91 5:416 6:26 7:146 8:30 9:1 
-100000 1:22 2:7725 3:107 4:196 5:976 6:134 7:81 8:93 9:123 
-100000 1:32 2:4338 3:106 4:101 5:573 6:61 7:163 8:144 9:104 
-100000 1:32 2:684 3:36 4:23 5:436 6:38 7:11 8:109 9:6 
-100000 1:32 2:1955 3:45 4:70 5:335 6:54 7:61 8:34 9:56 
-100000 1:27 2:4871 3:62 4:144 5:1084 6:29 7:165 8:116 9:168 
-100000 1:27 2:20824 3:14 4:317 5:1560 6:10 7:372 8:6 9:17 
-100000 1:22 2:14868 3:261 4:22 5:1832 6:13 7:5 8:690 9:12 
-100000 1:22 2:4804 3:97 4:79 5:412 6:48 7:12 8:8 9:56 
-100000 1:27 2:12425 3:233 4:252 5:1272 6:95 7:181 8:155 9:219 
-100000 1:32 2:25644 3:224 4:222 5:1144 6:205 7:287 8:397 9:181 
-100000 1:32 2:3417 3:104 4:86 5:532 6:125 7:44 8:81 9:87 
-100000 1:27 2:28061 3:201 4:325 5:1652 6:358 7:498 8:29 9:198 
-100000 1:22 2:737 3:40 4:40 5:196 6:19 7:20 8:33 9:3 
-100000 1:22 2:1627 3:72 4:14 5:428 6:9 7:17 8:170 9:2 
-100000 1:37 2:39280 3:93 4:352 5:2620 6:263 7:1171 8:45 9:559 
-100000 1:37 2:6610 3:90 4:177 5:608 6:71 7:10 8:50 9:94 
-100000 1:27 2:1260 3:34 4:107 5:404 6:20 7:49 8:42 9:74 
-100000 1:22 2:1216 3:87 4:31 5:459 6:5 7:59 8:87 9:19 
-100000 1:32 2:2718 3:83 4:60 5:476 6:57 7:40 8:107 9:64 
-100000 1:22 2:2153 3:37 4:65 5:740 6:52 7:106 8:36 9:89 
-100000 1:27 2:3369 3:68 4:143 5:720 6:53 7:156 8:74 9:42 
-100000 1:37 2:79191 3:507 4:82 5:2084 6:26 7:66 8:955 9:172 
-100000 1:22 2:1348 3:19 4:69 5:436 6:9 7:180 8:0 9:3 
-100000 1:22 2:1144 3:33 4:60 5:308 6:52 7:87 8:4 9:25 
-100000 1:32 2:4372 3:125 4:44 5:476 6:61 7:22 8:43 9:22 
-100000 1:37 2:5387 3:243 4:36 5:1104 6:6 7:0 8:358 9:60 
-100000 1:22 2:449 3:21 4:47 5:174 6:24 7:29 8:1 9:0 
-100000 1:22 2:180 3:14 4:30 5:132 6:13 7:34 8:4 9:18 
-100000 1:37 2:11113 3:296 4:94 5:1216 6:66 7:116 8:198 9:26 
-100000 1:27 2:644 3:46 4:41 5:296 6:60 7:1 8:69 9:7 
-100000 1:22 2:2757 3:12 4:95 5:340 6:1 7:75 8:4 9:9 
-100000 1:27 2:58589 3:603 4:300 5:2888 6:185 7:61 8:410 9:89 
-100000 1:22 2:4237 3:83 4:130 5:423 6:111 7:80 8:11 9:35 
-100000 1:32 2:3921 3:155 4:70 5:664 6:121 7:9 8:206 9:63 
-100000 1:22 2:3065 3:109 4:94 5:632 6:58 7:32 8:28 9:56 
-100000 1:27 2:1953 3:56 4:68 5:356 6:23 7:29 8:45 9:2 
-100000 1:22 2:1515 3:63 4:58 5:420 6:72 7:51 8:34 9:9 
-100000 1:22 2:61564 3:676 4:274 5:2804 6:510 7:230 8:16 9:124 
-100000 1:32 2:15851 3:161 4:123 5:1944 6:386 7:178 8:255 9:161 
-100000 1:32 2:12309 3:376 4:100 5:1616 6:271 7:73 8:207 9:108 
-100000 1:22 2:856 3:10 4:54 5:176 6:9 7:11 8:4 9:8 
-100000 1:22 2:142 3:16 4:16 5:112 6:9 7:4 8:3 9:1 
-100000 1:37 2:2042 3:56 4:42 5:656 6:54 7:36 8:97 9:81 
-100000 1:32 2:14666 3:343 4:60 5:1552 6:98 7:112 8:679 9:102 
-100000 1:22 2:59533 3:515 4:473 5:2580 6:73 7:316 8:639 9:70 
-100000 1:32 2:7583 3:122 4:109 5:440 6:45 7:141 8:96 9:53 
-100000 1:32 2:19554 3:172 4:167 5:904 6:298 7:224 8:244 9:301 
-100000 1:32 2:3289 3:103 4:27 5:680 6:8 7:4 8:308 9:5 
-100000 1:22 2:3663 3:103 4:121 5:920 6:158 7:167 8:143 9:285 
-100000 1:37 2:57838 3:380 4:94 5:3352 6:296 7:26 8:1398 9:206 
-100000 1:27 2:2586 3:104 4:54 5:464 6:40 7:72 8:104 9:12 
-100000 1:37 2:52016 3:552 4:400 5:2876 6:152 7:55 8:633 9:331 
-100000 1:27 2:25025 3:116 4:279 5:1912 6:324 7:816 8:81 9:239 
-100000 1:37 2:64228 3:451 4:137 5:1588 6:1 7:119 8:189 9:77 
-100000 1:22 2:50 3:3 4:14 5:92 6:2 7:1 8:2 9:16 
-100000 1:27 2:2133 3:101 4:17 5:392 6:26 7:12 8:176 9:1 
-100000 1:32 2:17229 3:234 4:111 5:1132 6:60 7:66 8:315 9:181 
-100000 1:22 2:27425 3:488 4:142 5:2228 6:201 7:96 8:239 9:18 
-100000 1:37 2:9799 3:242 4:158 5:1516 6:24 7:158 8:240 9:185 
-100000 1:27 2:5817 3:113 4:196 5:808 6:25 7:21 8:30 9:74 
-100000 1:37 2:3825 3:107 4:69 5:645 6:110 7:37 8:214 9:56 
-100000 1:37 2:25447 3:318 4:173 5:1952 6:142 7:239 8:500 9:207 
-100000 1:22 2:11336 3:260 4:224 5:1200 6:175 7:188 8:76 9:297 
-100000 1:32 2:32317 3:146 4:183 5:2016 6:463 7:485 8:399 9:487 
-100000 1:27 2:46403 3:61 4:401 5:1316 6:66 7:578 8:64 9:35 
-100000 1:22 2:9022 3:177 4:82 5:811 6:58 7:55 8:44 9:156 
-100000 1:32 2:18554 3:134 4:245 5:1532 6:134 7:348 8:116 9:260 
-100000 1:22 2:15482 3:195 4:284 5:1620 6:66 7:41 8:17 9:210 
-100000 1:27 2:1661 3:66 4:22 5:336 6:38 7:22 8:64 9:30 
-100000 1:32 2:4912 3:61 4:123 5:908 6:137 7:312 8:40 9:134 
-100000 1:22 2:64771 3:747 4:380 5:3004 6:627 7:62 8:73 9:174 
-100000 1:27 2:2868 3:43 4:73 5:544 6:86 7:196 8:56 9:111 
-100000 1:37 2:15188 3:119 4:157 5:2184 6:267 7:210 8:226 9:254 
-100000 1:32 2:4700 3:77 4:158 5:591 6:23 7:57 8:60 9:61 
-100000 1:27 2:2480 3:110 4:12 5:404 6:16 7:7 8:119 9:9 
-100000 1:22 2:1537 3:34 4:80 5:500 6:37 7:131 8:15 9:5 
-100000 1:32 2:3562 3:130 4:95 5:480 6:88 7:48 8:16 9:8 
-100000 1:22 2:8826 3:310 4:71 5:1404 6:322 7:3 8:115 9:14 
-100000 1:22 2:383 3:27 4:38 5:172 6:12 7:23 8:26 9:2 
-100000 1:27 2:11169 3:12 4:189 5:1088 6:1 7:575 8:11 9:11 
-100000 1:32 2:7029 3:159 4:26 5:401 6:20 7:20 8:16 9:17 
-100000 1:22 2:49509 3:170 4:721 5:2224 6:46 7:390 8:80 9:110 
-89091.981638155747 1:37 2:84831 3:359 4:920 5:3324 6:190 7:739 8:179 9:474 
-100000 1:27 2:6252 3:124 4:126 5:753 6:25 7:246 8:233 9:12 
-100000 1:27 2:1435 3:48 4:76 5:448 6:72 7:10 8:23 9:50 
-100000 1:27 2:491 3:19 4:32 5:328 6:14 7:36 8:11 9:11 
-100000 1:37 2:3460 3:67 4:76 5:788 6:167 7:141 8:25 9:6 
-100000 1:32 2:14958 3:14 4:243 5:1300 6:0 7:234 8:3 9:10 
-100000 1:27 2:17557 3:89 4:323 5:1328 6:0 7:304 8:56 9:30 
-100000 1:32 2:6364 3:62 4:218 5:1040 6:1 7:87 8:19 9:53 
-100000 1:37 2:6232 3:169 4:103 5:624 6:9 7:73 8:91 9:13 
-100000 1:22 2:530 3:20 4:44 5:344 6:5 7:73 8:17 9:25 
-100000 1:22 2:2983 3:66 4:106 5:560 6:69 7:55 8:27 9:46 
-100000 1:27 2:13781 3:337 4:117 5:1780 6:131 7:47 8:406 9:76 
-100000 1:37 2:23077 3:146 4:354 5:1924 6:324 7:644 8:180 9:326 
-85142.003529127483 1:37 2:3959 3:157 4:82 5:648 6:48 7:30 8:122 9:72 
-100000 1:32 2:26156 3:107 4:270 5:1600 6:281 7:708 8:7 9:79 
-100000 1:22 2:6084 3:168 4:121 5:682 6:137 7:186 8:14 9:128 
-100000 1:32 2:2657 3:58 4:88 5:548 6:29 7:138 8:29 9:50 
-100000 1:37 2:71243 3:929 4:114 5:2736 6:87 7:357 8:539 9:159 
-100000 1:37 2:4415 3:34 4:121 5:884 6:14 7:353 8:5 9:42 
-100000 1:27 2:49724 3:588 4:255 5:2648 6:80 7:116 8:251 9:19 
-100000 1:37 2:3294 3:79 4:55 5:808 6:45 7:125 8:89 9:64 
-100000 1:32 2:48033 3:424 4:19 5:2312 6:6 7:3 8:1544 9:48 
-100000 1:37 2:4981 3:126 4:161 5:868 6:43 7:122 8:84 9:9 
-100000 1:22 2:6146 3:113 4:154 5:688 6:21 7:119 8:83 9:125 
-100000 1:32 2:37792 3:447 4:16 5:1744 6:28 7:7 8:406 9:29 
-100000 1:27 2:9996 3:261 4:142 5:1084 6:307 7:47 8:21 9:122 
-100000 1:22 2:438 3:39 4:16 5:212 6:31 7:5 8:85 9:13 
-100000 1:22 2:13633 3:214 4:125 5:1004 6:113 7:18 8:325 9:132 
-100000 1:27 2:45056 3:330 4:311 5:2456 6:51 7:442 8:664 9:330 
-100000 1:32 2:2759 3:80 4:49 5:412 6:74 7:62 8:127 9:83 
-100000 1:22 2:46497 3:399 4:15 5:2104 6:29 7:5 8:1221 9:13 
-100000 1:32 2:14288 3:124 4:209 5:1180 6:141 7:22 8:133 9:299 
-100000 1:22 2:3839 3:105 4:65 5:634 6:34 7:62 8:201 9:59 
-100000 1:32 2:5393 3:171 4:84 5:892 6:70 7:12 8:178 9:14 
-100000 1:37 2:21472 3:213 4:361 5:1680 6:19 7:439 8:69 9:177 
-100000 1:22 2:622 3:34 4:45 5:240 6:2 7:50 8:17 9:2 
-100000 1:27 2:15034 3:301 4:38 5:1351 6:106 7:22 8:600 9:30 
-100000 1:22 2:369 3:12 4:41 5:266 6:8 7:58 8:13 9:9 
-100000 1:32 2:5545 3:120 4:66 5:600 6:146 7:14 8:267 9:65 
-100000 1:32 2:2701 3:28 4:150 5:796 6:26 7:265 8:13 9:43 
-100000 1:32 2:34456 3:220 4:319 5:1672 6:163 7:374 8:95 9:32 
-100000 1:27 2:14705 3:369 4:44 5:1468 6:24 7:0 8:172 9:9 
-100000 1:37 2:16358 3:361 4:169 5:1376 6:128 7:165 8:38 9:59 
-100000 1:32 2:10609 3:196 4:160 5:1036 6:135 7:29 8:63 9:118 
-100000 1:32 2:10832 3:122 4:129 5:664 6:190 7:195 8:220 9:190 
-100000 1:37 2:6525 3:94 4:109 5:912 6:208 7:139 8:20 9:166 
-100000 1:22 2:11467 3:122 4:264 5:1532 6:58 7:257 8:179 9:153 
-100000 1:32 2:4752 3:85 4:132 5:588 6:53 7:168 8:7 9:52 
-100000 1:22 2:11293 3:194 4:182 5:1240 6:139 7:153 8:30 9:7 
-100000 1:22 2:18013 3:373 4:100 5:1864 6:223 7:57 8:334 9:128 
-100000 1:22 2:5856 3:153 4:132 5:764 6:88 7:32 8:38 9:13 
-100000 1:27 2:240 3:29 4:20 5:188 6:36 7:3 8:31 9:0 
-100000 1:27 2:2618 3:99 4:37 5:552 6:15 7:39 8:126 9:81 
-100000 1:32 2:1791 3:41 4:67 5:416 6:103 7:148 8:6 9:52 
-100000 1:22 2:288 3:26 4:17 5:116 6:10 7:5 8:31 9:12 
-100000 1:32 2:1916 3:52 4:123 5:528 6:58 7:173 8:47 9:65 
-100000 1:37 2:3084 3:101 4:108 5:848 6:79 7:50 8:26 9:152 
-100000 1:37 2:18534 3:418 4:43 5:1416 6:24 7:93 8:887 9:50 
-100000 1:37 2:7210 3:153 4:111 5:900 6:137 7:149 8:263 9:187 
-100000 1:32 2:1827 3:82 4:63 5:432 6:74 7:21 8:24 9:19 
-100000 1:27 2:4850 3:197 4:14 5:884 6:48 7:6 8:414 9:4 
-100000 1:27 2:4957 3:104 4:115 5:916 6:49 7:16 8:151 9:275 
