svm_type c_svc
kernel_type rbf
gamma 5.9999999999999995e-08
nr_class 2
total_sv 37
rho -28.14361655491847
label 1 0
probA -0.76110487054306442
probB 0.029105584826772023
nr_sv 20 17
SV
70000 1:22 2:24 3:23 4:148 5:2 6:1 7:1 8:0 
70000 1:22 2:20 3:20 4:101 5:3 6:0 7:9 8:8 
5356.9056241004182 1:27 2:229 3:290 4:1705 5:39 6:79 7:66 8:18 
63801.266111620993 1:37 2:51 3:28 4:490 5:66 6:11 7:158 8:59 
70000 1:27 2:54 3:30 4:255 5:8 6:0 7:26 8:20 
70000 1:37 2:27 3:80 4:656 5:4 6:55 7:6 8:25 
70000 1:22 2:20 3:23 4:164 5:7 6:17 7:0 8:9 
32777.201585370982 1:22 2:106 3:132 4:666 5:29 6:8 7:12 8:1 
32242.680380749527 1:27 2:138 3:10 4:440 5:5 6:2 7:71 8:0 
8942.2735376466771 1:22 2:169 3:69 4:649 5:15 6:10 7:13 8:36 
70000 1:22 2:86 3:45 4:328 5:11 6:21 7:55 8:29 
70000 1:22 2:31 3:32 4:162 5:9 6:17 7:14 8:23 
70000 1:22 2:25 3:28 4:220 5:9 6:18 7:8 8:14 
23098.694804578736 1:37 2:160 3:42 4:632 5:52 6:16 7:201 8:50 
70000 1:32 2:34 3:46 4:300 5:4 6:8 7:49 8:8 
70000 1:22 2:22 3:24 4:136 5:2 6:0 7:1 8:1 
22018.608084289004 1:32 2:90 3:26 4:468 5:29 6:7 7:134 8:6 
57550.389282146054 1:37 2:31 3:108 4:702 5:10 6:106 7:10 8:1 
2739.4407147120828 1:27 2:205 3:187 4:1536 5:78 6:47 7:65 8:297 
70000 1:27 2:28 3:26 4:217 5:4 6:7 7:10 8:3 
-70000 1:22 2:16 3:15 4:86 5:0 6:0 7:4 8:4 
-70000 1:27 2:137 3:158 4:932 5:17 6:20 7:17 8:20 
-70000 1:27 2:21 3:34 4:336 5:5 6:5 7:34 8:7 
-70000 1:22 2:24 3:20 4:145 5:6 6:4 7:5 8:1 
-51528.260572798099 1:22 2:10 3:10 4:66 5:3 6:5 7:2 8:0 
-70000 1:37 2:70 3:47 4:572 5:72 6:7 7:58 8:17 
-39804.226044113515 1:22 2:30 3:56 4:200 5:15 6:80 7:10 8:32 
-70000 1:32 2:49 3:95 4:522 5:13 6:61 7:2 8:72 
-70000 1:37 2:68 3:26 4:352 5:14 6:8 7:133 8:5 
-70000 1:27 2:1 3:13 4:229 5:6 6:55 7:1 8:12 
-58001.376330137049 1:27 2:40 3:42 4:222 5:16 6:34 7:5 8:7 
-11736.783990802895 1:37 2:90 3:101 4:608 5:2 6:20 7:59 8:32 
-70000 1:37 2:56 3:37 4:520 5:9 6:6 7:108 8:34 
-70000 1:22 2:20 3:17 4:108 5:0 6:6 7:4 8:2 
-70000 1:32 2:103 3:27 4:360 5:4 6:5 7:55 8:14 
-70000 1:27 2:28 3:28 4:171 5:8 6:4 7:7 8:7 
-17456.813187363037 1:32 2:76 3:43 4:254 5:8 6:1 7:147 8:24 
