svm_type c_svc
kernel_type rbf
gamma 8.0000000000000003e-10
nr_class 2
total_sv 30
rho 330.75580765066758
label 1 0
probA -0.59805215503635156
probB 0.31457164678756955
nr_sv 16 14
SV
3000000 1:37 2:98 3:45 4:380 5:1 6:14 7:34 8:24 
3000000 1:22 2:28 3:35 4:200 5:9 6:24 7:4 8:0 
3000000 1:27 2:31 3:30 4:251 5:9 6:37 7:23 8:20 
3000000 1:27 2:4 3:21 4:214 5:8 6:63 7:2 8:14 
3000000 1:32 2:125 3:143 4:784 5:4 6:50 7:18 8:45 
3000000 1:22 2:14 3:16 4:210 5:21 6:26 7:0 8:3 
3000000 1:27 2:23 3:39 4:284 5:11 6:23 7:9 8:19 
2921179.0372755295 1:22 2:84 3:91 4:516 5:20 6:75 7:45 8:24 
3000000 1:27 2:35 3:29 4:281 5:14 6:3 7:36 8:3 
205989.3074530247 1:22 2:119 3:38 4:479 5:33 6:0 7:230 8:8 
115794.51846408525 1:27 2:399 3:509 4:2696 5:493 6:15 7:76 8:138 
1139374.7807234668 1:22 2:64 3:34 4:339 5:64 6:22 7:3 8:13 
2576444.8528103852 1:37 2:70 3:123 4:676 5:9 6:14 7:64 8:147 
3000000 1:37 2:66 3:44 4:481 5:18 6:4 7:59 8:33 
3000000 1:27 2:41 3:34 4:180 5:13 6:6 7:19 8:9 
1801357.1883976813 1:22 2:40 3:89 4:460 5:17 6:49 7:18 8:24 
-3000000 1:27 2:56 3:29 4:252 5:10 6:5 7:67 8:2 
-3000000 1:37 2:63 3:68 4:632 5:97 6:102 7:89 8:80 
-3000000 1:37 2:11 3:39 4:380 5:6 6:24 7:4 8:29 
-381509.8529596653 1:27 2:35 3:16 4:140 5:14 6:0 7:3 8:10 
-3000000 1:22 2:115 3:122 4:676 5:9 6:6 7:15 8:5 
-3000000 1:22 2:53 3:64 4:284 5:10 6:29 7:16 8:15 
-3000000 1:27 2:4 3:2 4:93 5:1 6:0 7:16 8:10 
-2378629.8321645125 1:37 2:139 3:9 4:428 5:7 6:0 7:36 8:0 
-3000000 1:32 2:25 3:76 4:356 5:4 6:65 7:0 8:62 
-3000000 1:27 2:29 3:44 4:237 5:0 6:50 7:1 8:0 
-3000000 1:32 2:29 3:19 4:188 5:13 6:1 7:0 8:2 
-3000000 1:22 2:11 3:11 4:59 5:0 6:2 7:1 8:0 
-3000000 1:37 2:47 3:71 4:412 5:16 6:79 7:8 8:32 
-3000000 1:32 2:126 3:172 4:961 5:17 6:9 7:87 8:105 
