svm_type c_svc
kernel_type rbf
gamma 6e-10
nr_class 2
total_sv 61
rho -151.74596919606577
label 0 1
probA -0.28870702574935031
probB -0.00039328146557297112
nr_sv 31 30
SV
8000000 1:22 2:54 3:87 4:252 5:15 6:22 7:9 8:8 
8000000 1:22 2:157 3:64 4:784 5:140 6:47 7:150 8:44 
8000000 1:37 2:215 3:83 4:840 5:191 6:34 7:209 8:81 
5424892.7170060985 1:27 2:71 3:91 4:424 5:96 6:58 7:28 8:8 
8000000 1:27 2:95 3:75 4:464 5:37 6:7 7:137 8:87 
7824747.635451979 1:37 2:103 3:79 4:536 5:24 6:44 7:74 8:128 
8000000 1:32 2:87 3:132 4:676 5:7 6:128 7:24 8:27 
8000000 1:37 2:76 3:58 4:612 5:28 6:81 7:106 8:140 
8000000 1:22 2:10 3:6 4:68 5:0 6:3 7:0 8:3 
8000000 1:27 2:52 3:55 4:646 5:55 6:117 7:42 8:63 
230894.2820235492 1:22 2:630 3:90 4:3276 5:160 6:15 7:1712 8:104 
8000000 1:22 2:54 3:136 4:652 5:0 6:150 7:12 8:79 
8000000 1:22 2:20 3:31 4:108 5:16 6:20 7:3 8:8 
8000000 1:27 2:336 3:104 4:1676 5:36 6:90 7:453 8:44 
8000000 1:37 2:113 3:80 4:588 5:14 6:19 7:136 8:6 
8000000 1:22 2:62 3:59 4:240 5:31 6:39 7:23 8:22 
8000000 1:22 2:22 3:33 4:142 5:28 6:6 7:5 8:0 
8000000 1:22 2:131 3:63 4:624 5:92 6:41 7:266 8:147 
8000000 1:22 2:60 3:37 4:452 5:56 6:28 7:97 8:58 
8000000 1:37 2:70 3:66 4:792 5:38 6:144 7:84 8:94 
8000000 1:22 2:50 3:23 4:220 5:28 6:5 7:37 8:13 
8000000 1:27 2:221 3:180 4:992 5:126 6:156 7:110 8:19 
8000000 1:22 2:27 3:93 4:412 5:24 6:233 7:29 8:19 
8000000 1:27 2:50 3:73 4:466 5:94 6:132 7:46 8:120 
8000000 1:37 2:63 3:107 4:644 5:139 6:237 7:7 8:26 
6096315.387772711 1:22 2:26 3:22 4:96 5:23 6:12 7:5 8:8 
8000000 1:22 2:29 3:26 4:168 5:15 6:4 7:6 8:0 
8000000 1:27 2:43 3:236 4:1028 5:2 6:46 7:17 8:42 
159858.77518684897 1:32 2:335 3:117 4:1596 5:69 6:57 7:562 8:10 
3372295.6511269491 1:32 2:148 3:84 4:840 5:96 6:91 7:383 8:179 
8000000 1:22 2:115 3:322 4:1480 5:42 6:89 7:24 8:38 
-8000000 1:32 2:261 3:69 4:876 5:98 6:1 7:112 8:129 
-8000000 1:22 2:81 3:89 4:848 5:85 6:68 7:164 8:63 
-8000000 1:22 2:86 3:80 4:456 5:58 6:10 7:8 8:26 
-8000000 1:27 2:31 3:37 4:472 5:59 6:77 7:50 8:41 
-8000000 1:27 2:76 3:93 4:456 5:21 6:184 7:120 8:21 
-4177006.1112915045 1:32 2:225 3:41 4:1236 5:9 6:15 7:727 8:76 
-8000000 1:32 2:52 3:50 4:464 5:98 6:69 7:69 8:72 
-8000000 1:27 2:85 3:120 4:708 5:29 6:158 7:20 8:57 
-8000000 1:22 2:49 3:112 4:600 5:45 6:113 7:80 8:26 
-8000000 1:22 2:71 3:44 4:600 5:69 6:74 7:117 8:45 
-8000000 1:22 2:17 3:19 4:172 5:14 6:14 7:36 8:4 
-8000000 1:32 2:138 3:160 4:848 5:111 6:111 7:68 8:85 
-8000000 1:37 2:124 3:108 4:724 5:112 6:16 7:41 8:93 
-7121405.0127739171 1:37 2:230 3:80 4:1300 5:69 6:25 7:196 8:97 
-5867861.7783784308 1:22 2:126 3:107 4:664 5:5 6:51 7:87 8:99 
-8000000 1:22 2:21 3:17 4:106 5:24 6:17 7:17 8:6 
-8000000 1:22 2:44 3:17 4:176 5:2 6:6 7:18 8:12 
-4367728.8302495386 1:22 2:99 3:587 4:2060 5:68 6:73 7:167 8:60 
-8000000 1:32 2:66 3:35 4:324 5:5 6:27 7:68 8:5 
-8000000 1:22 2:49 3:50 4:234 5:19 6:34 7:19 8:47 
-8000000 1:22 2:46 3:42 4:212 5:21 6:12 7:27 8:58 
-8000000 1:27 2:70 3:35 4:364 5:53 6:2 7:48 8:15 
-8000000 1:22 2:32 3:103 4:448 5:29 6:129 7:20 8:9 
-8000000 1:32 2:150 3:257 4:1328 5:62 6:273 7:188 8:89 
-8000000 1:22 2:34 3:23 4:136 5:5 6:16 7:18 8:1 
-8000000 1:22 2:78 3:50 4:436 5:39 6:43 7:42 8:1 
-8000000 1:22 2:85 3:39 4:504 5:14 6:27 7:135 8:63 
-8000000 1:37 2:178 3:167 4:964 5:168 6:273 7:149 8:117 
-8000000 1:22 2:36 3:56 4:276 5:13 6:80 7:3 8:56 
-1575002.7158747241 1:37 2:197 3:307 4:1248 5:238 6:347 7:15 8:163 
