svm_type c_svc
kernel_type rbf
gamma 8.9999999999999999e-10
nr_class 2
total_sv 35
rho -402.29687468045449
label 0 1
probA -0.68331068261047601
probB -0.10835468467933806
nr_sv 18 17
SV
6000000 1:22 2:26 3:31 4:172 5:21 6:25 7:18 8:4 
6000000 1:22 2:178 3:99 4:624 5:63 6:57 7:148 8:20 
6000000 1:32 2:87 3:89 4:767 5:81 6:131 7:73 8:2 
6000000 1:27 2:94 3:89 4:588 5:2 6:61 7:0 8:24 
177385.9189285952 1:22 2:25 3:27 4:115 5:1 6:6 7:3 8:3 
6000000 1:37 2:143 3:79 4:559 5:41 6:119 7:91 8:90 
396334.12942837452 1:37 2:58 3:43 4:491 5:33 6:44 7:54 8:67 
6000000 1:37 2:62 3:50 4:612 5:46 6:77 7:61 8:3 
2554850.9896802488 1:37 2:128 3:170 4:788 5:226 6:51 7:12 8:194 
1604903.2457093061 1:22 2:5 3:1 4:94 5:3 6:1 7:20 8:5 
6000000 1:22 2:87 3:66 4:380 5:53 6:47 7:61 8:71 
6000000 1:22 2:34 3:30 4:197 5:6 6:7 7:16 8:6 
6000000 1:22 2:14 3:41 4:144 5:6 6:65 7:7 8:0 
6000000 1:22 2:27 3:10 4:122 5:5 6:3 7:48 8:0 
3710139.3522357 1:37 2:125 3:272 4:1008 5:50 6:347 7:43 8:121 
293401.79238583776 1:27 2:94 3:262 4:840 5:5 6:13 7:136 8:200 
6000000 1:27 2:48 3:68 4:424 5:55 6:55 7:58 8:57 
6000000 1:37 2:69 3:45 4:628 5:60 6:1 7:98 8:10 
-6000000 1:22 2:26 3:31 4:164 5:5 6:1 7:2 8:11 
-575841.66753321316 1:37 2:267 3:170 4:1083 5:133 6:88 7:264 8:193 
-6000000 1:32 2:85 3:91 4:440 5:121 6:42 7:18 8:13 
-2976861.0518388711 1:27 2:108 3:75 4:488 5:14 6:132 7:59 8:102 
-6000000 1:27 2:140 3:27 4:544 5:46 6:7 7:50 8:10 
-913074.75078670413 1:32 2:233 3:222 4:1416 5:36 6:179 7:158 8:33 
-6000000 1:27 2:57 3:50 4:560 5:26 6:28 7:63 8:52 
-6000000 1:32 2:44 3:51 4:284 5:7 6:27 7:37 8:25 
-6000000 1:22 2:22 3:72 4:284 5:2 6:90 7:1 8:41 
-6000000 1:27 2:74 3:181 4:916 5:125 6:218 7:115 8:26 
-6000000 1:22 2:48 3:38 4:376 5:17 6:60 7:11 8:49 
-6000000 1:22 2:35 3:36 4:228 5:2 6:4 7:16 8:21 
-6000000 1:37 2:183 3:107 4:664 5:82 6:128 7:67 8:61 
-3728381.9177684346 1:27 2:98 3:161 4:768 5:135 6:254 7:108 8:35 
-542856.04044091143 1:27 2:157 3:132 4:884 5:82 6:153 7:95 8:11 
-6000000 1:22 2:51 3:50 4:260 5:6 6:9 7:2 8:13 
-6000000 1:27 2:56 3:19 4:440 5:14 6:2 7:190 8:42 
