svm_type c_svc
kernel_type rbf
gamma 8.9999999999999999e-10
nr_class 2
total_sv 11
rho 354.57197937342841
label 1 0
probA -0.079492371437961451
probB 0.43387480257951755
nr_sv 4 7
SV
71064388.668504402 1:32 2:60 3:29 4:524 5:64 6:22 
78532237.071012899 1:27 2:97 3:113 4:704 5:82 6:140 
90000000 1:22 2:42 3:23 4:304 5:20 6:1 
76003858.129680827 1:27 2:90 3:111 4:852 5:43 6:144 
-88443311.738161072 1:22 2:34 3:83 4:376 5:0 6:46 
-6086762.6997275101 1:22 2:56 3:81 4:468 5:5 6:48 
-90000000 1:37 2:56 3:66 4:528 5:5 6:77 
-12121341.032205541 1:27 2:38 3:30 4:208 5:0 6:8 
-90000000 1:22 2:127 3:51 4:795 5:116 6:62 
-24174326.984723091 1:22 2:73 3:89 4:988 5:193 6:243 
-4774741.4143807283 1:37 2:66 3:119 4:640 5:97 6:164 
