svm_type c_svc
kernel_type rbf
gamma 3e-10
nr_class 2
total_sv 47
rho 4359.8032751442934
label 1 0
probA -0.11305011885562675
probB -0.089500962847220755
nr_sv 24 23
SV
50000000 1:37 2:156 3:121 4:1232 5:30 6:216 
50000000 1:22 2:123 3:156 4:1324 5:10 6:2 
50000000 1:27 2:20 3:28 4:184 5:28 6:11 
50000000 1:22 2:25 3:39 4:212 5:14 6:23 
50000000 1:37 2:128 3:182 4:1212 5:48 6:86 
50000000 1:32 2:80 3:202 4:1060 5:152 6:13 
50000000 1:27 2:63 3:57 4:784 5:136 6:141 
50000000 1:22 2:6 3:18 4:124 5:12 6:8 
50000000 1:27 2:20 3:173 4:676 5:46 6:211 
50000000 1:27 2:105 3:199 4:776 5:50 6:144 
50000000 1:22 2:53 3:51 4:336 5:40 6:32 
34165353.128665283 1:22 2:114 3:183 4:1128 5:234 6:526 
50000000 1:22 2:56 3:91 4:884 5:188 6:325 
30554515.411985021 1:22 2:60 3:19 4:1284 5:199 6:9 
16793317.625119783 1:22 2:342 3:361 4:2764 5:108 6:326 
50000000 1:27 2:53 3:67 4:568 5:3 6:40 
12009210.740532126 1:27 2:299 3:153 4:2048 5:6 6:43 
50000000 1:22 2:32 3:26 4:228 5:2 6:2 
50000000 1:22 2:43 3:38 4:273 5:14 6:8 
50000000 1:32 2:61 3:74 4:472 5:60 6:45 
50000000 1:27 2:43 3:23 4:252 5:38 6:23 
50000000 1:22 2:23 3:18 4:188 5:0 6:2 
47100821.286606468 1:37 2:127 3:284 4:1112 5:297 6:203 
50000000 1:27 2:54 3:55 4:492 5:80 6:14 
-50000000 1:27 2:134 3:346 4:1832 5:47 6:200 
-50000000 1:37 2:147 3:142 4:1632 5:284 6:318 
-50000000 1:22 2:16 3:32 4:156 5:2 6:50 
-50000000 1:37 2:123 3:353 4:1420 5:153 6:24 
-50000000 1:22 2:80 3:77 4:792 5:20 6:101 
-50000000 1:27 2:5 3:20 4:116 5:1 6:0 
-50000000 1:37 2:161 3:98 4:1520 5:77 6:5 
-50000000 1:27 2:111 3:152 4:812 5:83 6:333 
-17693662.022893757 1:22 2:59 3:226 4:800 5:60 6:201 
-50000000 1:22 2:67 3:128 4:708 5:155 6:348 
-50000000 1:22 2:81 3:30 4:320 5:63 6:61 
-50000000 1:22 2:17 3:37 4:172 5:38 6:18 
-50000000 1:27 2:74 3:99 4:800 5:48 6:48 
-48347593.381339416 1:32 2:27 3:24 4:240 5:35 6:56 
-50000000 1:22 2:120 3:114 4:796 5:87 6:62 
-50000000 1:22 2:19 3:34 4:199 5:12 6:8 
-50000000 1:27 2:52 3:58 4:324 5:17 6:18 
-50000000 1:22 2:76 3:70 4:504 5:249 6:61 
-50000000 1:27 2:5 3:30 4:132 5:7 6:15 
-24581962.788675215 1:22 2:15 3:190 4:1156 5:7 6:199 
-50000000 1:32 2:64 3:66 4:416 5:1 6:39 
-50000000 1:32 2:43 3:67 4:480 5:62 6:63 
-50000000 1:32 2:114 3:31 4:1085 5:85 6:27 
