svm_type c_svc
kernel_type rbf
gamma 0.001
nr_class 2
total_sv 153
rho 15.663571351508198
label 1 0
probA -0.54203406029801848
probB -0.049682711836156218
nr_sv 78 75
SV
1000 1:-1.0956547 2:-0.71456015 3:-0.67992899 4:-0.88309263 5:-0.7113286 6:-0.60850845 7:-0.64051966 8:-0.97249763 
1000 1:-1.0956547 2:-0.50357817 3:-0.31997317 4:0.16630412 5:-0.55534052 6:-0.47261938 7:-0.48059983 8:-0.56025362 
553.93572697468778 1:1.6786 2:0.45624975 3:1.0775208 4:-0.11136186 5:0.84554981 6:1.0630116 7:0.21434364 8:1.2462089 
456.2713204563006 1:0.75384844 2:2.517778 3:3.6345241 4:0.98555622 5:1.4415847 6:1.3553033 7:1.5397882 8:1.9456341 
1000 1:-0.17090312 2:-0.33643399 3:-0.11020797 4:0.30572622 5:-0.32550345 6:-0.51431501 7:-0.074927697 8:-0.27770436 
1000 1:-0.17090312 2:-0.54171106 3:-0.62223572 4:-0.47150289 5:-0.32604119 6:-0.40383037 7:-0.19797885 8:-0.4490867 
1000 1:-1.0956547 2:-0.67667748 3:-0.71818213 4:-0.73228112 5:-0.66306685 6:-0.57603159 7:-0.59264483 8:-0.85669875 
34.481029079793679 1:-1.0956547 2:3.4024911 3:1.6500638 4:2.1107515 5:4.0876462 6:-0.3522826 7:7.406186 8:2.6450593 
1000 1:-0.17090312 2:-0.6208293 3:-0.54290748 4:-0.49545992 5:-0.57205513 6:-0.60020451 7:-0.40795142 8:-0.56025362 
1000 1:-1.0956547 2:-0.22643911 3:0.17292801 4:0.47892381 5:-0.33984306 6:-0.16132714 7:-0.48997256 8:0.097484004 
1000 1:-1.0956547 2:-0.0023958609 3:-0.073836129 4:0.52958705 5:-0.016708898 6:0.16632668 7:0.22562203 8:-0.04147465 
1000 1:-1.0956547 2:-0.66016323 3:-0.66237017 4:-0.62506356 5:-0.71379322 6:-0.61406787 7:-0.63694169 8:-0.89722836 
1000 1:-1.0956547 2:-0.73487768 3:-0.93390479 4:-1.0409734 5:-0.73772244 6:-0.63338509 7:-0.65829286 8:-1.1994634 
1000 1:1.6786 2:-0.6808811 3:-0.58366903 4:-0.81986176 5:-0.70971539 6:-0.60706582 7:-0.63931404 8:-0.94007394 
1000 1:-1.0956547 2:-0.21868242 3:0.92168629 4:0.12703029 5:-0.39222745 6:-0.47582132 7:-0.23329189 8:-0.013682919 
1000 1:-1.0956547 2:-0.59100358 3:-0.55043269 4:-0.80258128 5:-0.51209763 6:-0.29989036 7:-0.63581385 8:-0.56488558 
1000 1:1.6786 2:-0.078861818 3:0.30273786 4:-0.47307384 5:-0.048659343 6:0.39440357 7:-0.59878961 8:0.24570657 
1000 1:-1.0956547 2:-0.72086559 3:-0.94550615 4:-0.73503029 5:-0.72181444 6:-0.62275886 7:-0.6429698 8:-1.0466089 
494.78273949459975 1:0.75384844 2:1.2242622 3:1.389817 4:1.0542854 5:1.0410614 6:0.31632541 7:1.3790127 8:1.0099792 
1000 1:-1.0956547 2:-0.60431506 3:-0.55074624 4:-0.67337038 5:-0.40571565 6:-0.34844731 7:-0.34335345 8:-0.36107955 
1000 1:-1.0956547 2:-0.55677405 3:0.16697055 4:-0.76252197 5:-0.57201032 6:-0.43588499 7:-0.58949466 8:-0.33791978 
1000 1:-1.0956547 2:-0.70390096 3:-0.69717426 4:-0.65883906 5:-0.7121352 6:-0.59932485 7:-0.62064636 8:-0.94007394 
1000 1:0.75384844 2:-0.26362119 3:0.17606351 4:-0.092117684 5:-0.25160964 6:-0.51568728 7:0.054851605 8:-0.06000247 
1000 1:0.75384844 2:-0.39368337 3:-0.47737545 4:0.25506298 5:-0.40853876 6:-0.43767949 7:-0.3037624 8:-0.14337766 
1000 1:0.75384844 2:4.1720549 3:2.6656534 4:0.18908294 5:0.021828806 6:0.16977492 7:-0.22815828 8:2.2698709 
1000 1:0.75384844 2:-0.48941595 3:-0.23813652 4:-0.47189562 5:-0.34051523 6:-0.2511223 7:-0.39188943 8:-0.41203106 
1000 1:-0.17090312 2:-0.7061529 3:-0.8163234 4:-0.83400034 5:-0.72625076 6:-0.62332184 7:-0.65004796 8:-1.0975604 
1000 1:0.75384844 2:0.72873479 3:1.1069946 4:1.370047 5:-0.0021452307 6:-0.27388777 7:0.22060509 8:0.75058967 
1000 1:-1.0956547 2:-0.32132096 3:-0.16225733 4:-0.35407413 5:-0.34454825 6:-0.20330427 7:-0.18292803 8:-0.34718369 
1000 1:0.75384844 2:-0.68803727 3:-0.78779031 4:-0.61367415 5:-0.66369421 6:-0.58781897 7:-0.58070529 8:-0.7686916 
1000 1:-1.0956547 2:-0.48075848 3:-0.55419529 4:-0.35800152 5:-0.20567808 6:-0.20129865 7:-0.212913 8:-0.10632202 
1000 1:-1.0956547 2:-0.43677054 3:-0.22747581 4:-0.077586367 5:-0.43905524 6:-0.50052203 7:-0.28727261 8:0.12527573 
1000 1:0.75384844 2:-0.60871886 3:-0.12557194 4:-0.54533769 5:-0.52244904 6:-0.41962897 7:-0.42202997 8:-0.38887128 
1000 1:-1.0956547 2:-0.34043745 3:0.042491057 4:-0.63095464 5:-0.054664055 6:0.33071656 7:-0.53881967 8:0.078956183 
118.96652946650018 1:-1.0956547 2:3.0653002 3:1.1665691 4:1.3983242 5:0.93848842 6:0.73057244 7:0.84927828 8:2.6450593 
1000 1:0.75384844 2:-0.57624084 3:-0.18357876 4:-0.52687899 5:-0.38371331 6:-0.29024935 7:-0.4236245 8:-0.31476 
757.28252835819694 1:1.6786 2:1.8537552 3:0.07917645 4:2.1288174 5:1.8438556 6:1.444254 7:1.6381046 8:1.3481119 
1000 1:-1.0956547 2:-0.63689316 3:-0.64230294 4:-0.70557492 5:-0.6450079 6:-0.55829775 7:-0.58089975 8:-0.98639349 
1000 1:-1.0956547 2:-0.58389745 3:-0.67773414 4:-0.24882027 5:-0.48283587 6:-0.58071136 7:-0.27463304 8:-0.4907743 
1000 1:1.6786 2:-0.48766444 3:-0.5162557 4:0.20007961 5:-0.48001276 6:-0.47726395 7:-0.38407234 8:-0.27307241 
1000 1:-1.0956547 2:-0.29765054 3:-0.15598633 4:0.32536313 5:-0.11291872 6:-0.2213196 7:-0.029775234 8:0.00021294625 
1000 1:-1.0956547 2:-0.73207526 3:-0.8857748 4:-1.0315477 5:-0.73727433 6:-0.63169615 7:-0.65992628 8:-1.1925155 
1000 1:-0.17090312 2:-0.61182153 3:-0.70250461 4:-0.36467807 5:-0.597732 6:-0.57430747 7:-0.4811443 8:-0.69458032 
1000 1:-1.0956547 2:-0.48991638 3:-0.018337714 4:-0.088190301 5:-0.62909989 6:-0.52029667 7:-0.59528942 8:-0.4490867 
1000 1:-1.0956547 2:-0.36666006 3:0.19895269 4:-0.36035795 5:-0.12766164 6:-0.099751305 7:-0.18973396 8:0.16696333 
1000 1:-1.0956547 2:-0.66892078 3:-0.65892111 4:-0.6203507 5:-0.66481449 6:-0.60766398 7:-0.56071531 8:-0.66215663 
1000 1:0.75384844 2:-0.4842615 3:-0.31464281 4:-0.14749378 5:-0.57317541 6:-0.45428737 7:-0.46033761 8:-0.26844045 
1000 1:-0.17090312 2:-0.45848927 3:0.16446215 4:-0.52609351 5:-0.49341133 6:-0.33637844 7:-0.33001384 8:-0.3564476 
1000 1:-1.0956547 2:-0.71606145 3:-0.83450932 4:-0.81279247 5:-0.71710925 6:-0.60970478 7:-0.64923125 8:-1.0605048 
1000 1:-0.17090312 2:-0.31216306 3:-0.088259446 4:0.20282878 5:-0.025133419 6:0.14729095 7:-0.28482248 8:0.15306746 
1000 1:1.6786 2:-0.40199054 3:-0.35446371 4:-0.23900181 5:-0.18932196 6:-0.20432467 7:-0.18117794 8:-0.1804333 
994.50736458826395 1:-1.0956547 2:-0.02356412 3:1.7535354 4:-0.33050983 5:-0.58451267 6:-0.45573001 7:-0.46193214 8:0.20865093 
1000 1:-1.0956547 2:-0.70945575 3:-0.72774542 4:-0.95594559 5:-0.72454793 6:-0.6162846 7:-0.65487045 8:-0.99334142 
1000 1:1.6786 2:1.979864 3:-0.36731927 4:1.95994 5:0.40415867 6:1.1300765 7:1.2908468 8:1.2091532 
1000 1:-0.17090312 2:-0.70490182 3:-0.70469947 4:-0.94082516 5:-0.68229089 6:-0.58912086 7:-0.61154586 8:-0.94933785 
1000 1:0.75384844 2:-0.05549166 3:-0.15065597 4:0.76719373 5:-0.32707185 6:-0.21470459 7:-0.19552872 8:-0.34255173 
1000 1:1.6786 2:0.50914538 3:0.21964701 4:1.9882171 5:0.27680501 6:0.1871569 7:0.24864551 8:0.43098477 
1000 1:-0.17090312 2:-0.70370078 3:-0.74859652 4:-0.912548 5:-0.69089465 6:-0.60361757 7:-0.61045691 8:-0.89375439 
1000 1:1.6786 2:-0.10858746 3:-0.52033185 4:1.0527145 5:0.35594173 6:-0.36428109 7:0.94207223 8:0.69963817 
1000 1:-0.17090312 2:-0.60991989 3:-0.59088068 4:-0.4644336 5:-0.68148428 6:-0.61325859 7:-0.58346655 8:-0.88449048 
1000 1:0.75384844 2:-0.31981966 3:-0.43943586 4:0.067726806 5:-0.20832194 6:-0.34844731 7:-0.054859936 8:-0.06000247 
1000 1:0.75384844 2:0.48462423 3:1.672953 4:0.040627863 5:0.94028087 6:1.2310256 7:0.19307026 8:0.83859682 
1000 1:-0.17090312 2:-0.51678956 3:-0.15849473 4:-0.37547837 5:-0.36610247 6:-0.3444009 7:-0.3332029 8:-0.45603463 
1000 1:0.75384844 2:0.14147824 3:0.18609712 4:1.5463865 5:0.25386163 6:0.3426095 7:0.420466 8:0.56067951 
1000 1:-0.17090312 2:0.023926844 3:-0.24001782 4:1.7329372 5:-0.19039743 6:-0.40601192 7:0.039878566 8:0.32908176 
1000 1:0.75384844 2:0.072368629 3:0.51940116 4:-0.20876096 5:0.025727387 6:0.3061566 7:-0.3721328 8:0.2734983 
1000 1:-0.17090312 2:-0.68093114 3:-0.72319894 4:-0.47857218 5:-0.66221543 6:-0.56994438 7:-0.59789512 8:-0.79648333 
1000 1:-1.0956547 2:-0.65160585 3:-0.48521421 4:-0.92197372 5:-0.6954654 6:-0.59193575 7:-0.61247925 8:-0.85669875 
1000 1:-1.0956547 2:-0.45053241 3:-0.48991747 4:0.56375529 5:-0.35010484 6:-0.51477243 7:-0.11712444 8:0.0048449014 
1000 1:-1.0956547 2:-0.67442553 3:-0.50590853 4:-0.73031743 5:-0.68058806 6:-0.56463127 7:-0.58229982 8:-0.82890702 
1000 1:0.75384844 2:-0.66832027 3:-0.77807025 4:-0.49467445 5:-0.69725786 6:-0.59802296 7:-0.61920739 8:-0.87522657 
1000 1:1.6786 2:-0.074758278 3:1.3691227 4:-0.45068776 5:0.17862349 6:0.57712546 7:-0.40624022 8:0.45414455 
1000 1:-0.17090312 2:-0.70885523 3:-0.74232551 4:-0.97931351 5:-0.68713051 6:-0.59179501 7:-0.61232368 8:-0.94007394 
1000 1:-1.0956547 2:-0.57068605 3:-0.52409446 4:-0.73110291 5:-0.3554822 6:-0.26977098 7:-0.39725639 8:-0.19896112 
1000 1:-0.17090312 2:4.6043778 3:2.6515437 4:0.66783094 5:3.1031871 6:2.4142317 7:2.7102131 8:2.6265315 
1000 1:-1.0956547 2:-0.72486904 3:-0.86461015 4:-0.97067327 5:-0.73767763 6:-0.63264618 7:-0.65747615 8:-1.1160882 
1000 1:0.75384844 2:-0.30620792 3:-0.24942433 4:0.62227329 5:-0.26577001 6:-0.25196677 7:-0.2367143 8:-0.078530291 
1000 1:-0.17090312 2:-0.6812314 3:-0.67303088 4:-0.85010261 5:-0.59795605 6:-0.5227597 7:-0.53850854 8:-0.81964311 
-1000 1:-1.0956547 2:-0.67547644 3:-0.64598716 4:-0.89399112 5:-0.71621303 6:-0.62096436 7:-0.63523049 8:-0.98407751 
-1000 1:-1.0956547 2:-0.56342979 3:-0.72602089 4:-0.27395552 5:-0.67198429 6:-0.58145027 7:-0.60088972 8:-0.8103792 
-1000 1:-0.17090312 2:1.9829166 3:0.83545993 4:2.7234232 5:1.0094695 6:0.47336138 7:1.1506058 8:1.6167653 
-1000 1:0.75384844 2:-0.15412674 3:-0.38393744 4:-0.078764582 5:0.8820262 6:0.66572429 7:0.71677661 8:0.99608329 
-1000 1:0.75384844 2:-0.49657212 3:-0.18420586 4:-0.25196217 5:-0.27146104 6:-0.2544298 7:-0.26837158 8:0.032636632 
-1000 1:1.6786 2:-0.46004061 3:-0.045930147 4:-0.063055049 5:-0.34064966 6:-0.18483152 7:-0.46539344 8:-0.25454458 
-1000 1:1.6786 2:-0.530051 3:-0.098293058 4:-0.3116584 5:-0.5429278 6:-0.46927669 7:-0.47690518 8:-0.30086414 
-1000 1:1.6786 2:-0.26722429 3:-0.23970427 4:0.2542775 5:0.074885365 6:-0.030610438 7:0.08541994 8:0.67184644 
-1000 1:0.75384844 2:-0.64560067 3:-0.34913335 4:-0.61485237 5:-0.64971308 6:-0.53637676 7:-0.61329596 8:-0.72700401 
-1000 1:-0.17090312 2:-0.57268778 3:-0.29614334 4:-0.85167357 5:-0.50277689 6:-0.43630723 7:-0.44046431 8:-0.46761452 
-1000 1:0.75384844 2:-0.27107762 3:-0.24440753 4:-0.065804217 5:-0.28669688 6:-0.40506189 7:-0.12832505 8:-0.15727353 
-1000 1:0.75384844 2:-0.48776452 3:-0.63477774 4:-0.23900181 5:-0.37994916 6:-0.47061376 7:-0.21773549 8:-0.28233632 
-1000 1:-0.17090312 2:0.35766472 3:-0.38205614 4:0.57239553 5:1.1606179 6:0.52371282 7:1.3573116 8:0.73206185 
-1000 1:0.75384844 2:-0.20597146 3:0.28486549 4:0.40469627 5:-0.041265481 6:0.11995128 7:0.17436368 8:0.10674791 
-1000 1:-1.0956547 2:-0.70315031 3:-0.70219106 4:-0.83321487 5:-0.67857155 6:-0.58306883 7:-0.60267871 8:-0.8613307 
-1000 1:-0.17090312 2:-0.42320884 3:0.24567169 4:-0.31676399 5:-0.49672736 6:-0.43247193 7:-0.43622519 8:-0.27770436 
-1000 1:-0.17090312 2:-0.70009768 3:-0.66080242 4:-0.79786842 5:-0.69492767 6:-0.58637633 7:-0.63651389 8:-0.88449048 
-1000 1:-0.17090312 2:-0.49547117 3:-0.28705038 4:-0.68790169 5:-0.61144425 6:-0.49271069 7:-0.59513386 8:-0.68531641 
-1000 1:-1.0956547 2:0.93531298 3:1.4481374 4:1.0974866 5:0.64403347 6:0.29975271 7:0.70818169 8:1.023875 
-1000 1:0.75384844 2:-0.43476881 3:-0.0020330952 4:-0.46914646 5:-0.29991621 6:-0.27036915 7:-0.30014554 8:-0.078530291 
-1000 1:-0.17090312 2:1.438447 3:0.69655712 4:4.4432243 5:-0.24623229 6:-0.18264997 7:-0.30391797 8:1.0933544 
-1000 1:-1.0956547 2:-0.53810795 3:-0.27513546 4:-0.76802031 5:-0.5612108 6:-0.37321839 7:-0.64001408 8:-0.61583708 
-1000 1:-0.17090312 2:-0.35935376 3:0.13248001 4:-0.76095102 5:-0.099833828 6:0.32315153 7:-0.60886238 8:-0.17116939 
-1000 1:0.75384844 2:1.161408 3:0.61001722 4:1.7953826 5:0.22670599 6:0.32223669 7:0.3979481 8:0.28276221 
-1000 1:-1.0956547 2:0.41881746 3:0.66959179 4:-0.55633436 5:0.94861577 6:1.5912267 7:-0.19058956 8:0.69037426 
-1000 1:-1.0956547 2:0.11555588 3:-0.0039143974 4:0.52762336 5:-0.13021588 6:0.024596696 7:0.068969042 8:-0.12021789 
-1000 1:-1.0956547 2:-0.72767146 3:-0.72633444 4:-1.0668942 5:-0.73422716 6:-0.63109798 7:-0.65529825 8:-1.139248 
-1000 1:0.75384844 2:-0.48896556 3:-0.15849473 4:-0.34229198 5:-0.43914486 6:-0.34014337 7:-0.33417517 8:-0.46298256 
-1000 1:-1.0956547 2:-0.48436159 3:0.13686972 4:-0.33757912 5:-0.3801284 6:-0.39316896 7:-0.30364573 8:-0.21748894 
-1000 1:0.75384844 2:-0.54876714 3:-0.022727419 4:-0.55397793 5:-0.39661896 6:-0.35069922 7:-0.37921096 8:-0.33791978 
-1000 1:-1.0956547 2:-0.72046525 3:-0.64481135 4:-1.1085244 5:-0.7236517 6:-0.61174558 7:-0.65833175 8:-0.97712958 
-1000 1:-1.0956547 2:-0.6757767 3:-0.48521421 4:-0.98873923 5:-0.64057158 6:-0.54957158 7:-0.5828443 8:-0.68068445 
-441.2554148326285 1:-1.0956547 2:-0.7324756 3:-0.94409517 4:-0.98127721 5:-0.73400311 6:-0.62958498 7:-0.65409263 8:-1.1971474 
-1000 1:-0.17090312 2:-0.64459981 3:-0.40180981 4:-0.86541941 5:-0.71097011 6:-0.60601023 7:-0.64265867 8:-0.8103792 
-1000 1:-0.17090312 2:0.09974224 3:0.36388018 4:0.73930931 5:-0.39868028 6:-0.36319032 7:-0.35964879 8:0.81080509 
-1000 1:0.75384844 2:-0.15457713 3:-0.66832762 4:-0.2880941 5:0.96300019 6:0.67557643 7:0.84643924 8:1.0794585 
-1000 1:0.75384844 2:-0.36070493 3:0.24089005 4:-0.25343494 5:-0.34185957 6:-0.21540832 7:-0.43369727 8:-0.14569364 
-1000 1:-1.0956547 2:4.6413597 3:4.0553087 4:-0.062269573 5:1.8924758 6:0.88046562 7:2.2333316 8:2.7284345 
-1000 1:-1.0956547 2:-0.61482412 3:-0.75518108 4:-0.45186597 5:-0.70294889 6:-0.59774147 7:-0.61889626 8:-0.9956574 
-1000 1:-1.0956547 2:-0.70945575 3:-0.66456502 4:-1.0005214 5:-0.69775078 6:-0.59517288 7:-0.63169141 8:-0.9956574 
-1000 1:-1.0956547 2:-0.72091563 3:-0.90317685 4:-0.85245904 5:-0.71536161 6:-0.60931773 7:-0.63169141 8:-1.0697687 
-1000 1:-0.17090312 2:-0.26237011 3:0.13436131 4:0.45182487 5:-0.27580774 6:-0.083987891 7:-0.4643045 8:0.055796408 
-1000 1:-1.0956547 2:-0.63999583 3:-0.93327769 4:-0.20129893 5:-0.66544185 6:-0.61818465 7:-0.55017585 8:-0.8103792 
-1000 1:-1.0956547 2:-0.5432624 3:-0.48615486 4:-0.24685658 5:-0.47096088 6:-0.44179627 7:-0.40756251 8:-0.74089987 
-1000 1:-0.17090312 2:-0.23484637 3:-0.19267172 4:-0.20522632 5:0.42020111 6:0.21702998 7:0.41109326 8:0.79227727 
-1000 1:-1.0956547 2:0.56454316 3:-0.75298622 4:1.355123 5:-0.61794188 6:-0.53437114 7:-0.54885355 8:-0.19896112 
-1000 1:-1.0956547 2:-0.70860501 3:-0.73221351 4:-0.88593998 5:-0.70191823 6:-0.60425092 7:-0.6260911 8:-1.0234491 
-1000 1:-0.17090312 2:-0.66656876 3:-0.75988433 4:-0.47032467 5:-0.68986399 6:-0.57712237 7:-0.59610613 8:-0.82890702 
-1000 1:-0.17090312 2:-0.34814409 3:-0.066546083 4:-0.60159745 5:-0.48368728 6:-0.29802549 7:-0.58856127 8:-0.46529854 
-1000 1:-1.0956547 2:-0.72987336 3:-0.91689468 4:-0.94995633 5:-0.73790169 6:-0.63243506 7:-0.66019852 8:-1.142722 
-1000 1:1.6786 2:-0.57914335 3:-0.62380347 4:-0.42476703 5:-0.45787598 6:-0.4236402 7:-0.40491792 8:-0.31939196 
-1000 1:0.75384844 2:-0.45233396 3:-0.4359868 4:-0.27591921 5:-0.59481926 6:-0.47451943 7:-0.58638338 8:-0.60657317 
-1000 1:-1.0956547 2:-0.33758498 3:-0.44946947 4:0.22639308 5:-0.3380058 6:-0.34936215 7:-0.27894994 8:-0.32865587 
-1000 1:0.75384844 2:1.2151544 3:1.2330418 4:2.4241566 5:-0.084956482 6:0.029839439 7:0.074763803 8:1.334216 
-1000 1:-0.17090312 2:-0.14441837 3:0.58618739 4:-0.29555613 5:-0.23946579 6:0.054610518 7:-0.55441497 8:0.26423439 
-1000 1:-1.0956547 2:-0.59560755 3:0.0086276172 4:-0.87445239 5:-0.60306454 6:-0.52515236 7:-0.54473111 8:-0.49540625 
-1000 1:-0.17090312 2:-0.21327776 3:-0.23061131 4:0.75030598 5:-0.28338084 6:-0.50608145 7:-0.010913094 8:-0.26033453 
-1000 1:-1.0956547 2:-0.68218222 3:-0.59119423 4:-0.93375587 5:-0.67184986 6:-0.54932528 7:-0.63740838 8:-0.81964311 
-1000 1:1.6786 2:0.8838686 3:-0.31401571 4:1.7329372 5:0.11741127 6:-0.073502406 7:0.20664322 8:0.16233138 
-1000 1:0.75384844 2:-0.34233909 3:-0.64590877 4:0.14823816 5:-0.64146781 6:-0.51966332 7:-0.53259711 8:-0.73163596 
-968.97182358571501 1:1.6786 2:-0.59285517 3:-0.28516908 4:-0.17812737 5:-0.61691123 6:-0.54647519 7:-0.5451978 8:-0.61583708 
-1000 1:0.75384844 2:-0.49266875 3:-0.40180981 4:-0.49388897 5:-0.3892251 6:-0.32955232 7:-0.38975043 8:-0.34718369 
-1000 1:-1.0956547 2:-0.71130735 3:-0.8642966 4:-0.8202545 5:-0.72374132 6:-0.62159771 7:-0.64759783 8:-1.0049213 
-1000 1:-1.0956547 2:-0.56418044 3:-0.71222468 4:-0.31853132 5:-0.56179335 6:-0.56466645 7:-0.42941926 8:-0.66447261 
-1000 1:-0.17090312 2:-0.51248585 3:-0.10589665 4:-0.99178296 5:-0.72607151 6:-0.61829021 7:-0.64160861 8:-0.66447261 
-1000 1:0.75384844 2:-0.45153327 3:-0.57833867 4:0.029631191 5:-0.15925359 6:-0.36086803 7:0.044039904 8:-0.10632202 
-1000 1:0.75384844 2:-0.51703978 3:-0.24660238 4:-0.71185873 5:-0.41499158 6:-0.14186918 7:-0.64191974 8:-0.5834134 
-1000 1:-1.0956547 2:-0.72627025 3:-0.95083651 4:-0.84146237 5:-0.73422716 6:-0.6267349 7:-0.65094246 8:-1.1160882 
-1000 1:-1.0956547 2:-0.53730726 3:-0.48427356 4:-0.417305 5:-0.55005279 6:-0.40826383 7:-0.58191091 8:-0.22675285 
-1000 1:-1.0956547 2:-0.64194752 3:-0.303355 4:-0.75879096 5:-0.71338992 6:-0.59886743 7:-0.62014077 8:-0.87522657 
-1000 1:1.6786 2:2.7931655 3:4.1148832 4:0.1937958 5:1.5092945 6:2.1979422 7:2.4711501 8:2.1540721 
-1000 1:-1.0956547 2:-0.73132461 3:-1.0000639 4:-0.91019157 5:-0.73149368 6:-0.62782567 7:-0.65417041 8:-1.1624078 
-1000 1:1.6786 2:0.19822719 3:0.9765576 4:0.55000944 5:0.56700288 6:0.49025076 7:0.36391847 8:0.49583214 
-1000 1:-0.17090312 2:-0.6768276 3:-0.75925723 4:-0.91490443 5:-0.65697251 6:-0.58310402 7:-0.57424938 8:-0.85669875 
-1000 1:-1.0956547 2:-0.71606145 3:-0.59683814 4:-1.0767126 5:-0.70250078 6:-0.59242836 7:-0.6429698 8:-0.94007394 
