svm_type c_svc
kernel_type rbf
gamma 2.0000000000000001e-09
nr_class 2
total_sv 45
rho 1652.61914490601
label 1 0
probA -0.089959608878323966
probB -0.094190164308298005
nr_sv 23 22
SV
40000000 1:27 2:26 3:119 4:529 5:23 6:110 
40000000 1:32 2:14 3:30 4:192 5:14 6:39 
40000000 1:37 2:22 3:44 4:1056 5:56 6:118 
40000000 1:22 2:4 3:53 4:200 5:1 6:53 
4319764.0513057644 1:22 2:28 3:124 4:621 5:49 6:250 
28032953.15533147 1:37 2:38 3:240 4:860 5:79 6:154 
39158460.603299141 1:37 2:54 3:116 4:764 5:47 6:374 
31281716.000679687 1:37 2:84 3:215 4:2176 5:144 6:696 
40000000 1:22 2:31 3:25 4:220 5:14 6:10 
40000000 1:22 2:9 3:27 4:120 5:5 6:29 
40000000 1:27 2:80 3:116 4:972 5:48 6:40 
40000000 1:32 2:29 3:64 4:584 5:25 6:50 
40000000 1:27 2:22 3:64 4:289 5:21 6:95 
40000000 1:27 2:39 3:64 4:497 5:53 6:129 
21316943.035321947 1:37 2:89 3:109 4:836 5:38 6:68 
40000000 1:37 2:25 3:222 4:792 5:30 6:226 
40000000 1:22 2:18 3:23 4:276 5:0 6:4 
40000000 1:32 2:20 3:18 4:328 5:31 6:10 
40000000 1:37 2:78 3:245 4:1552 5:1 6:167 
4067243.3218665905 1:32 2:88 3:188 4:1452 5:45 6:25 
17756245.486436728 1:27 2:20 3:29 4:512 5:8 6:60 
40000000 1:22 2:17 3:18 4:148 5:7 6:13 
40000000 1:22 2:10 3:366 4:1140 5:7 6:6 
-40000000 1:27 2:62 3:107 4:708 5:12 6:43 
-40000000 1:22 2:8 3:18 4:96 5:4 6:1 
-40000000 1:37 2:32 3:99 4:450 5:18 6:191 
-40000000 1:27 2:180 3:180 4:1324 5:116 6:104 
-40000000 1:37 2:60 3:108 4:1372 5:158 6:347 
-27543649.969567142 1:22 2:14 3:24 4:140 5:0 6:23 
-40000000 1:37 2:36 3:210 4:1436 5:41 6:437 
-40000000 1:27 2:10 3:45 4:180 5:11 6:10 
-40000000 1:32 2:26 3:114 4:722 5:25 6:22 
-8210960.7821448781 1:32 2:11 3:22 4:132 5:2 6:9 
-40000000 1:27 2:19 3:202 4:1148 5:33 6:511 
-40000000 1:22 2:14 3:307 4:1024 5:2 6:12 
-40000000 1:27 2:18 3:82 4:340 5:22 6:31 
-40000000 1:22 2:6 3:9 4:68 5:2 6:11 
-40000000 1:37 2:86 3:37 4:1133 5:77 6:7 
-23445204.16836483 1:27 2:17 3:326 4:1768 5:8 6:306 
-40000000 1:32 2:4 3:44 4:160 5:0 6:47 
-40000000 1:22 2:32 3:50 4:328 5:39 6:24 
-40000000 1:37 2:10 3:20 4:328 5:1 6:45 
-40000000 1:32 2:17 3:88 4:370 5:4 6:79 
-6733510.7341648573 1:27 2:15 3:298 4:976 5:11 6:127 
-40000000 1:32 2:12 3:69 4:320 5:11 6:68 
