svm_type c_svc
kernel_type rbf
gamma 1.0000000000000001e-09
nr_class 2
total_sv 714
rho 120.68523431901552
label 1 0
probA -0.36794747810236555
probB 0.006863152814468438
nr_sv 362 352
SV
100000 1:22 2:173 3:26 4:23 5:154 6:2 7:5 8:7 9:13 
100000 1:22 2:455 3:16 4:49 5:300 6:0 7:89 8:4 9:26 
100000 1:22 2:746 3:22 4:71 5:276 6:0 7:0 8:6 9:32 
100000 1:22 2:2028 3:35 4:57 5:419 6:13 7:29 8:9 9:117 
100000 1:22 2:2646 3:114 4:122 5:668 6:79 7:33 8:6 9:24 
100000 1:37 2:2313 3:43 4:149 5:668 6:21 7:0 8:24 9:15 
100000 1:22 2:3029 3:30 4:213 5:726 6:1 7:138 8:17 9:80 
100000 1:22 2:246 3:34 4:31 5:154 6:3 7:4 8:19 9:0 
100000 1:27 2:956 3:31 4:55 5:314 6:7 7:19 8:1 9:49 
100000 1:22 2:357 3:17 4:41 5:212 6:0 7:9 8:10 9:30 
100000 1:32 2:5158 3:151 4:168 5:880 6:29 7:62 8:99 9:85 
100000 1:22 2:226 3:30 4:24 5:158 6:9 7:6 8:11 9:14 
100000 1:37 2:8848 3:110 4:232 5:1052 6:71 7:61 8:79 9:92 
100000 1:32 2:5728 3:169 4:188 5:1552 6:85 7:0 8:10 9:77 
100000 1:27 2:13329 3:21 4:258 5:1084 6:11 7:368 8:11 9:117 
634.87914909475751 1:32 2:69241 3:308 4:479 5:3160 6:109 7:405 8:263 9:603 
100000 1:32 2:175 3:19 4:31 5:164 6:0 7:25 8:7 9:4 
100000 1:32 2:6030 3:53 4:331 5:976 6:21 7:8 8:79 9:1 
100000 1:32 2:1485 3:29 4:71 5:252 6:1 7:78 8:28 9:23 
100000 1:37 2:3104 3:71 4:110 5:576 6:36 7:21 8:73 9:22 
100000 1:27 2:486 3:18 4:51 5:208 6:0 7:22 8:4 9:14 
100000 1:27 2:4161 3:37 4:89 5:480 6:0 7:6 8:16 9:56 
100000 1:32 2:5643 3:48 4:72 5:372 6:1 7:4 8:36 9:36 
100000 1:32 2:214 3:28 4:25 5:163 6:1 7:2 8:2 9:4 
100000 1:22 2:230 3:26 4:28 5:151 6:0 7:9 8:3 9:1 
100000 1:27 2:394 3:19 4:53 5:316 6:10 7:112 8:2 9:25 
100000 1:22 2:390 3:23 4:60 5:256 6:1 7:10 8:7 9:19 
100000 1:32 2:2330 3:68 4:70 5:608 6:30 7:23 8:54 9:77 
100000 1:22 2:230 3:15 4:40 5:224 6:0 7:61 8:0 9:53 
100000 1:37 2:10741 3:213 4:128 5:1468 6:67 7:9 8:76 9:11 
100000 1:27 2:4088 3:27 4:136 5:472 6:14 7:13 8:9 9:89 
12417.919707303652 1:32 2:24505 3:19 4:367 5:1764 6:18 7:1213 8:3 9:74 
100000 1:22 2:5421 3:19 4:221 5:820 6:6 7:16 8:2 9:31 
100000 1:32 2:568 3:18 4:71 5:364 6:10 7:115 8:5 9:22 
100000 1:27 2:3600 3:127 4:135 5:848 6:10 7:61 8:49 9:126 
100000 1:32 2:430 3:28 4:26 5:132 6:8 7:7 8:14 9:2 
100000 1:27 2:1714 3:19 4:94 5:440 6:8 7:130 8:3 9:25 
100000 1:32 2:964 3:45 4:84 5:464 6:16 7:147 8:12 9:13 
100000 1:27 2:8318 3:51 4:70 5:268 6:1 7:10 8:85 9:76 
100000 1:22 2:457 3:32 4:40 5:252 6:3 7:18 8:18 9:17 
100000 1:32 2:550 3:21 4:64 5:284 6:7 7:26 8:5 9:36 
48406.053216414191 1:22 2:7676 3:189 4:219 5:1300 6:37 7:152 8:41 9:120 
100000 1:22 2:102 3:17 4:18 5:80 6:5 7:1 8:0 9:0 
100000 1:22 2:7152 3:29 4:201 5:697 6:2 7:354 8:2 9:0 
100000 1:27 2:648 3:17 4:85 5:396 6:4 7:161 8:11 9:49 
100000 1:27 2:208 3:17 4:28 5:140 6:0 7:4 8:4 9:26 
100000 1:22 2:715 3:55 4:84 5:432 6:20 7:44 8:38 9:58 
100000 1:32 2:7974 3:46 4:225 5:953 6:11 7:378 8:67 9:54 
100000 1:37 2:4835 3:164 4:138 5:872 6:12 7:43 8:2 9:8 
100000 1:22 2:306 3:18 4:33 5:284 6:3 7:44 8:9 9:28 
100000 1:37 2:2112 3:38 4:40 5:236 6:14 7:7 8:27 9:43 
100000 1:27 2:389 3:17 4:55 5:324 6:0 7:108 8:5 9:33 
100000 1:22 2:2443 3:124 4:105 5:600 6:33 7:18 8:19 9:1 
100000 1:27 2:2450 3:62 4:28 5:524 6:2 7:3 8:25 9:44 
100000 1:22 2:899 3:27 4:62 5:308 6:9 7:141 8:0 9:50 
100000 1:22 2:240 3:29 4:32 5:232 6:0 7:4 8:24 9:58 
100000 1:32 2:1947 3:95 4:86 5:728 6:23 7:30 8:9 9:71 
100000 1:27 2:340 3:17 4:42 5:240 6:0 7:92 8:3 9:17 
100000 1:32 2:1303 3:56 4:62 5:423 6:43 7:88 8:31 9:43 
100000 1:32 2:2680 3:59 4:65 5:407 6:27 7:21 8:119 9:2 
100000 1:22 2:3223 3:37 4:82 5:390 6:0 7:58 8:21 9:84 
100000 1:22 2:4745 3:25 4:186 5:788 6:0 7:212 8:18 9:0 
100000 1:32 2:311 3:10 4:53 5:260 6:7 7:70 8:6 9:3 
100000 1:32 2:2568 3:20 4:140 5:556 6:1 7:58 8:6 9:34 
100000 1:32 2:1032 3:36 4:53 5:468 6:8 7:23 8:52 9:121 
100000 1:27 2:943 3:37 4:30 5:420 6:4 7:21 8:78 9:70 
100000 1:27 2:1770 3:75 4:73 5:488 6:13 7:23 8:0 9:28 
100000 1:27 2:6928 3:157 4:222 5:1720 6:9 7:15 8:5 9:167 
100000 1:37 2:6431 3:21 4:177 5:1076 6:6 7:558 8:1 9:107 
100000 1:27 2:115 3:16 4:25 5:160 6:7 7:5 8:3 9:2 
100000 1:22 2:252 3:17 4:37 5:168 6:8 7:26 8:4 9:23 
100000 1:22 2:162 3:24 4:27 5:172 6:3 7:4 8:7 9:12 
100000 1:32 2:1491 3:29 4:112 5:448 6:15 7:13 8:28 9:97 
100000 1:22 2:704 3:17 4:79 5:308 6:3 7:44 8:12 9:21 
100000 1:22 2:175 3:27 4:25 5:132 6:9 7:9 8:11 9:1 
100000 1:32 2:14166 3:108 4:457 5:1528 6:31 7:109 8:37 9:167 
100000 1:32 2:413 3:31 4:19 5:188 6:0 7:7 8:3 9:6 
100000 1:27 2:1394 3:43 4:48 5:404 6:18 7:17 8:50 9:101 
70961.685425472548 1:27 2:1789 3:47 4:27 5:788 6:27 7:31 8:8 9:14 
100000 1:27 2:264 3:27 4:32 5:181 6:5 7:0 8:3 9:8 
100000 1:32 2:670 3:49 4:50 5:416 6:7 7:16 8:46 9:63 
100000 1:22 2:173 3:27 4:23 5:152 6:4 7:0 8:6 9:12 
100000 1:27 2:249 3:20 4:31 5:296 6:1 7:56 8:11 9:61 
100000 1:32 2:7843 3:53 4:144 5:788 6:6 7:37 8:28 9:105 
100000 1:22 2:969 3:19 4:72 5:336 6:2 7:112 8:12 9:16 
100000 1:27 2:5051 3:41 4:12 5:494 6:0 7:5 8:121 9:7 
100000 1:27 2:2530 3:125 4:108 5:668 6:71 7:9 8:78 9:75 
100000 1:27 2:318 3:10 4:32 5:272 6:3 7:50 8:5 9:39 
100000 1:22 2:5435 3:81 4:62 5:607 6:53 7:13 8:29 9:68 
100000 1:22 2:4217 3:63 4:123 5:440 6:39 7:21 8:3 9:23 
100000 1:22 2:2987 3:35 4:83 5:256 6:17 7:38 8:38 9:65 
100000 1:37 2:11435 3:38 4:349 5:1300 6:32 7:93 8:44 9:225 
100000 1:22 2:4007 3:18 4:134 5:700 6:0 7:213 8:0 9:70 
100000 1:32 2:4329 3:19 4:236 5:944 6:0 7:329 8:9 9:53 
100000 1:37 2:3366 3:17 4:139 5:672 6:1 7:326 8:4 9:38 
100000 1:22 2:688 3:29 4:32 5:252 6:5 7:3 8:42 9:18 
59621.227926519634 1:22 2:8947 3:33 4:213 5:801 6:28 7:350 8:4 9:60 
100000 1:22 2:346 3:26 4:35 5:190 6:11 7:46 8:1 9:2 
100000 1:32 2:5647 3:76 4:74 5:436 6:23 7:15 8:121 9:91 
66515.296221024022 1:32 2:25841 3:56 4:309 5:1311 6:51 7:574 8:2 9:351 
100000 1:37 2:5741 3:52 4:130 5:646 6:67 7:57 8:85 9:109 
100000 1:27 2:7701 3:141 4:118 5:936 6:6 7:48 8:58 9:226 
100000 1:27 2:2530 3:117 4:120 5:748 6:89 7:27 8:51 9:80 
100000 1:32 2:235 3:19 4:16 5:464 6:6 7:13 8:4 9:8 
100000 1:27 2:3764 3:149 4:136 5:784 6:37 7:40 8:101 9:99 
100000 1:22 2:10143 3:20 4:289 5:1224 6:16 7:147 8:3 9:28 
100000 1:27 2:12445 3:58 4:425 5:1332 6:67 7:302 8:67 9:293 
45220.395246793218 1:22 2:16860 3:65 4:97 5:392 6:14 7:8 8:19 9:195 
23215.458483035396 1:22 2:45620 3:171 4:339 5:1320 6:39 7:3 8:188 9:600 
100000 1:37 2:9252 3:71 4:261 5:917 6:134 7:387 8:19 9:90 
100000 1:22 2:567 3:41 4:58 5:324 6:5 7:69 8:92 9:40 
100000 1:22 2:244 3:19 4:34 5:188 6:5 7:39 8:1 9:11 
100000 1:22 2:312 3:16 4:37 5:208 6:2 7:31 8:5 9:1 
100000 1:22 2:788 3:23 4:57 5:388 6:1 7:51 8:7 9:52 
100000 1:32 2:6443 3:168 4:173 5:944 6:52 7:88 8:39 9:59 
100000 1:22 2:1196 3:27 4:75 5:432 6:2 7:30 8:4 9:42 
100000 1:37 2:5091 3:57 4:71 5:820 6:16 7:12 8:118 9:92 
98017.905397709168 1:22 2:3737 3:47 4:135 5:772 6:0 7:113 8:12 9:200 
40801.530639278884 1:27 2:30112 3:113 4:110 5:1156 6:6 7:44 8:355 9:319 
100000 1:32 2:5657 3:87 4:142 5:1016 6:43 7:169 8:39 9:169 
100000 1:32 2:1507 3:20 4:68 5:360 6:14 7:98 8:41 9:87 
100000 1:32 2:13932 3:96 4:107 5:600 6:15 7:4 8:19 9:277 
100000 1:37 2:4427 3:105 4:117 5:844 6:36 7:71 8:120 9:66 
100000 1:22 2:348 3:16 4:44 5:244 6:1 7:5 8:6 9:34 
100000 1:32 2:7265 3:189 4:182 5:1136 6:18 7:23 8:60 9:36 
100000 1:22 2:130 3:19 4:28 5:144 6:4 7:8 8:6 9:5 
100000 1:37 2:7036 3:69 4:150 5:652 6:49 7:94 8:44 9:103 
100000 1:22 2:2192 3:22 4:132 5:580 6:3 7:168 8:9 9:10 
100000 1:27 2:2415 3:21 4:108 5:592 6:6 7:326 8:8 9:42 
100000 1:22 2:3577 3:75 4:28 5:628 6:11 7:19 8:33 9:29 
100000 1:27 2:2459 3:105 4:29 5:432 6:7 7:54 8:132 9:11 
100000 1:22 2:315 3:17 4:42 5:276 6:0 7:18 8:10 9:19 
100000 1:22 2:322 3:20 4:26 5:196 6:5 7:7 8:5 9:16 
100000 1:27 2:8641 3:208 4:170 5:960 6:93 7:18 8:86 9:28 
100000 1:22 2:666 3:18 4:60 5:284 6:3 7:141 8:5 9:4 
100000 1:22 2:303 3:25 4:27 5:154 6:13 7:1 8:7 9:19 
100000 1:37 2:2133 3:37 4:133 5:512 6:9 7:120 8:28 9:10 
100000 1:27 2:347 3:13 4:23 5:508 6:2 7:46 8:10 9:41 
100000 1:27 2:751 3:35 4:42 5:352 6:10 7:36 8:48 9:18 
100000 1:32 2:5400 3:152 4:164 5:912 6:1 7:78 8:25 9:33 
100000 1:27 2:304 3:36 4:33 5:184 6:12 7:5 8:28 9:3 
100000 1:27 2:178 3:17 4:30 5:180 6:4 7:18 8:7 9:20 
100000 1:22 2:106 3:16 4:23 5:156 6:5 7:6 8:5 9:4 
100000 1:37 2:15513 3:68 4:100 5:660 6:0 7:15 8:164 9:165 
100000 1:22 2:353 3:21 4:46 5:192 6:2 7:14 8:9 9:0 
6329.9310490232137 1:22 2:4399 3:42 4:125 5:670 6:25 7:283 8:13 9:84 
100000 1:22 2:1076 3:26 4:77 5:345 6:9 7:170 8:17 9:26 
100000 1:22 2:7590 3:24 4:378 5:1212 6:5 7:389 8:6 9:28 
100000 1:22 2:1011 3:18 4:73 5:288 6:3 7:151 8:1 9:10 
100000 1:22 2:196 3:19 4:37 5:168 6:4 7:51 8:3 9:8 
100000 1:22 2:319 3:16 4:48 5:236 6:2 7:102 8:6 9:3 
100000 1:22 2:170 3:19 4:19 5:151 6:0 7:0 8:30 9:1 
100000 1:37 2:1131 3:47 4:35 5:504 6:17 7:46 8:1 9:49 
100000 1:27 2:605 3:34 4:64 5:476 6:13 7:26 8:49 9:61 
100000 1:22 2:223 3:18 4:46 5:200 6:3 7:20 8:2 9:22 
100000 1:22 2:134 3:17 4:24 5:124 6:3 7:7 8:4 9:21 
100000 1:27 2:185 3:41 4:25 5:212 6:2 7:5 8:17 9:6 
100000 1:22 2:143 3:17 4:27 5:124 6:0 7:5 8:3 9:21 
100000 1:22 2:165 3:22 4:24 5:126 6:8 7:3 8:4 9:3 
100000 1:37 2:27315 3:95 4:79 5:965 6:3 7:51 8:302 9:235 
100000 1:27 2:741 3:58 4:43 5:424 6:34 7:8 8:25 9:1 
100000 1:22 2:129 3:15 4:27 5:116 6:3 7:9 8:0 9:24 
100000 1:37 2:3417 3:130 4:141 5:1144 6:61 7:27 8:6 9:127 
100000 1:32 2:731 3:49 4:54 5:396 6:25 7:31 8:64 9:15 
100000 1:37 2:1895 3:34 4:116 5:524 6:21 7:102 8:28 9:177 
4670.6941808981946 1:27 2:34101 3:399 4:127 5:2072 6:14 7:243 8:631 9:268 
100000 1:22 2:100 3:17 4:20 5:96 6:11 7:5 8:8 9:6 
100000 1:22 2:1241 3:51 4:49 5:388 6:6 7:3 8:78 9:67 
100000 1:32 2:4943 3:63 4:74 5:716 6:10 7:180 8:8 9:93 
100000 1:22 2:309 3:18 4:60 5:272 6:3 7:41 8:5 9:55 
100000 1:27 2:11419 3:21 4:240 5:1052 6:16 7:351 8:6 9:37 
100000 1:37 2:7326 3:169 4:175 5:1484 6:15 7:48 8:47 9:40 
100000 1:22 2:801 3:29 4:44 5:280 6:14 7:3 8:59 9:68 
100000 1:22 2:798 3:27 4:42 5:207 6:0 7:2 8:16 9:45 
100000 1:32 2:2048 3:19 4:175 5:608 6:0 7:193 8:3 9:56 
100000 1:22 2:221 3:15 4:31 5:320 6:6 7:33 8:0 9:50 
100000 1:27 2:4783 3:43 4:26 5:459 6:5 7:0 8:31 9:10 
100000 1:27 2:322 3:20 4:47 5:304 6:5 7:67 8:1 9:14 
100000 1:22 2:2727 3:95 4:96 5:648 6:33 7:1 8:15 9:119 
100000 1:37 2:7138 3:188 4:148 5:1192 6:96 7:20 8:35 9:59 
100000 1:32 2:2189 3:87 4:51 5:940 6:4 7:78 8:30 9:53 
100000 1:37 2:16108 3:86 4:206 5:1019 6:112 7:135 8:2 9:345 
100000 1:22 2:4882 3:138 4:179 5:976 6:27 7:9 8:44 9:118 
100000 1:22 2:1926 3:21 4:100 5:378 6:0 7:272 8:2 9:21 
100000 1:32 2:19937 3:20 4:323 5:1476 6:13 7:849 8:12 9:3 
100000 1:37 2:19641 3:67 4:244 5:1208 6:40 7:576 8:134 9:143 
100000 1:22 2:305 3:28 4:32 5:156 6:2 7:20 8:2 9:7 
100000 1:37 2:1317 3:36 4:89 5:368 6:31 7:65 8:38 9:67 
100000 1:27 2:459 3:30 4:52 5:256 6:8 7:4 8:4 9:22 
100000 1:32 2:1497 3:31 4:125 5:544 6:4 7:85 8:6 9:32 
100000 1:22 2:134 3:13 4:24 5:108 6:6 7:21 8:17 9:3 
93412.215204277178 1:37 2:12675 3:379 4:52 5:1284 6:19 7:0 8:20 9:6 
100000 1:22 2:262 3:18 4:38 5:168 6:3 7:2 8:1 9:12 
100000 1:37 2:3321 3:134 4:140 5:988 6:40 7:70 8:37 9:69 
100000 1:27 2:4033 3:163 4:173 5:964 6:8 7:35 8:56 9:105 
100000 1:37 2:18979 3:83 4:59 5:548 6:11 7:48 8:126 9:22 
100000 1:22 2:1570 3:46 4:38 5:269 6:17 7:40 8:38 9:13 
100000 1:22 2:764 3:44 4:47 5:240 6:12 7:2 8:9 9:23 
100000 1:27 2:432 3:21 4:47 5:188 6:2 7:61 8:7 9:18 
100000 1:22 2:3515 3:142 4:121 5:1052 6:57 7:69 8:8 9:42 
100000 1:27 2:7690 3:72 4:193 5:684 6:75 7:111 8:4 9:49 
100000 1:27 2:410 3:25 4:31 5:352 6:6 7:13 8:0 9:19 
100000 1:37 2:7150 3:20 4:344 5:1020 6:6 7:156 8:12 9:39 
100000 1:37 2:3403 3:43 4:155 5:772 6:31 7:49 8:53 9:19 
100000 1:37 2:3486 3:26 4:124 5:764 6:4 7:400 8:7 9:47 
100000 1:22 2:2012 3:29 4:73 5:405 6:23 7:124 8:5 9:155 
100000 1:22 2:243 3:17 4:28 5:111 6:2 7:2 8:10 9:6 
100000 1:37 2:6557 3:165 4:158 5:1052 6:14 7:38 8:77 9:3 
100000 1:22 2:130 3:17 4:26 5:140 6:3 7:8 8:9 9:4 
100000 1:22 2:526 3:34 4:59 5:312 6:0 7:23 8:2 9:7 
12039.735407973825 1:32 2:9148 3:187 4:196 5:1076 6:15 7:106 8:146 9:207 
17768.892765719353 1:37 2:24014 3:247 4:169 5:2932 6:340 7:230 8:482 9:34 
100000 1:22 2:675 3:56 4:62 5:348 6:17 7:1 8:53 9:48 
100000 1:32 2:984 3:127 4:0 5:416 6:0 7:0 8:58 9:2 
100000 1:32 2:1075 3:28 4:46 5:324 6:8 7:63 8:43 9:14 
100000 1:22 2:127 3:24 4:20 5:123 6:4 7:8 8:13 9:17 
100000 1:37 2:1113 3:34 4:59 5:356 6:28 7:17 8:24 9:19 
100000 1:27 2:5536 3:155 4:165 5:1220 6:52 7:89 8:55 9:5 
100000 1:32 2:822 3:34 4:41 5:284 6:5 7:45 8:44 9:48 
100000 1:22 2:156 3:14 4:32 5:180 6:3 7:0 8:0 9:10 
100000 1:32 2:873 3:57 4:30 5:686 6:4 7:20 8:73 9:1 
100000 1:37 2:3267 3:47 4:66 5:736 6:50 7:189 8:73 9:5 
100000 1:22 2:186 3:20 4:28 5:144 6:5 7:11 8:5 9:6 
100000 1:32 2:35386 3:231 4:764 5:2240 6:331 7:147 8:40 9:187 
100000 1:22 2:192 3:24 4:27 5:178 6:18 7:1 8:7 9:6 
45494.758271260544 1:32 2:1183 3:17 4:68 5:788 6:2 7:138 8:0 9:69 
100000 1:32 2:341 3:17 4:47 5:212 6:4 7:47 8:4 9:4 
100000 1:32 2:2076 3:12 4:141 5:452 6:1 7:42 8:2 9:16 
100000 1:27 2:1222 3:28 4:108 5:596 6:14 7:156 8:0 9:62 
100000 1:22 2:882 3:21 4:42 5:224 6:3 7:24 8:1 9:24 
100000 1:37 2:9195 3:51 4:125 5:712 6:29 7:146 8:98 9:123 
2520.2148942850504 1:32 2:25824 3:22 4:445 5:1916 6:4 7:393 8:2 9:40 
3238.9279669479129 1:37 2:69420 3:143 4:73 5:2176 6:66 7:66 8:323 9:34 
100000 1:22 2:150 3:19 4:23 5:108 6:6 7:6 8:16 9:1 
100000 1:22 2:126 3:18 4:34 5:144 6:4 7:3 8:7 9:14 
100000 1:22 2:296 3:18 4:24 5:116 6:3 7:5 8:7 9:6 
100000 1:37 2:13466 3:25 4:449 5:1328 6:0 7:134 8:24 9:306 
100000 1:22 2:241 3:17 4:43 5:160 6:0 7:12 8:0 9:5 
100000 1:22 2:6914 3:193 4:199 5:1096 6:44 7:32 8:19 9:24 
100000 1:32 2:1529 3:15 4:155 5:556 6:1 7:157 8:6 9:12 
100000 1:37 2:1305 3:38 4:56 5:456 6:20 7:2 8:8 9:92 
100000 1:22 2:1082 3:32 4:49 5:279 6:0 7:81 8:26 9:11 
100000 1:22 2:321 3:18 4:48 5:216 6:8 7:0 8:5 9:28 
100000 1:27 2:5321 3:56 4:33 5:392 6:3 7:22 8:151 9:50 
100000 1:37 2:8268 3:242 4:186 5:1612 6:35 7:43 8:118 9:160 
100000 1:27 2:951 3:71 4:60 5:508 6:37 7:15 8:85 9:41 
100000 1:22 2:1828 3:14 4:133 5:500 6:4 7:82 8:6 9:82 
100000 1:32 2:563 3:16 4:36 5:424 6:12 7:72 8:13 9:84 
100000 1:27 2:1347 3:29 4:28 5:208 6:5 7:24 8:6 9:22 
100000 1:37 2:2255 3:34 4:60 5:500 6:2 7:155 8:79 9:35 
100000 1:37 2:4804 3:82 4:183 5:732 6:12 7:164 8:58 9:122 
100000 1:22 2:1529 3:23 4:55 5:308 6:16 7:23 8:2 9:41 
100000 1:27 2:1657 3:55 4:53 5:348 6:24 7:17 8:44 9:40 
100000 1:27 2:2325 3:43 4:41 5:420 6:3 7:15 8:89 9:121 
100000 1:22 2:395 3:18 4:53 5:232 6:4 7:76 8:4 9:6 
100000 1:22 2:739 3:16 4:60 5:468 6:4 7:142 8:13 9:63 
100000 1:22 2:260 3:28 4:31 5:242 6:9 7:4 8:5 9:4 
100000 1:27 2:6621 3:151 4:175 5:1188 6:58 7:70 8:5 9:56 
100000 1:27 2:504 3:42 4:38 5:220 6:4 7:22 8:7 9:10 
100000 1:22 2:423 3:23 4:68 5:234 6:3 7:3 8:4 9:13 
100000 1:32 2:3945 3:43 4:68 5:529 6:8 7:15 8:54 9:160 
100000 1:27 2:398 3:17 4:42 5:220 6:10 7:21 8:6 9:22 
100000 1:22 2:1049 3:36 4:28 5:244 6:3 7:10 8:49 9:13 
100000 1:22 2:168 3:22 4:23 5:119 6:0 7:0 8:0 9:12 
78651.812851062496 1:22 2:1829 3:79 4:46 5:403 6:25 7:8 8:136 9:30 
100000 1:32 2:892 3:53 4:70 5:372 6:18 7:13 8:19 9:4 
100000 1:22 2:205 3:25 4:27 5:126 6:3 7:4 8:9 9:0 
100000 1:27 2:577 3:22 4:35 5:280 6:3 7:45 8:8 9:51 
100000 1:37 2:20776 3:77 4:178 5:876 6:21 7:62 8:133 9:40 
100000 1:27 2:3332 3:117 4:133 5:756 6:64 7:15 8:47 9:35 
100000 1:22 2:6556 3:179 4:211 5:912 6:32 7:38 8:69 9:278 
100000 1:22 2:335 3:17 4:53 5:228 6:1 7:48 8:10 9:14 
100000 1:27 2:6993 3:45 4:120 5:431 6:15 7:22 8:56 9:27 
100000 1:27 2:1867 3:29 4:50 5:464 6:4 7:53 8:58 9:16 
46941.505242918713 1:37 2:31309 3:184 4:137 5:1132 6:124 7:9 8:64 9:3 
100000 1:37 2:1208 3:20 4:17 5:120 6:6 7:20 8:9 9:10 
100000 1:27 2:344 3:17 4:44 5:236 6:5 7:45 8:3 9:44 
100000 1:22 2:269 3:29 4:32 5:168 6:5 7:2 8:0 9:9 
100000 1:37 2:14988 3:79 4:437 5:1672 6:64 7:411 8:9 9:158 
100000 1:37 2:1540 3:43 4:78 5:352 6:20 7:26 8:21 9:10 
100000 1:32 2:1040 3:40 4:72 5:468 6:30 7:30 8:53 9:116 
100000 1:37 2:5674 3:19 4:155 5:716 6:6 7:66 8:1 9:0 
100000 1:22 2:263 3:27 4:37 5:160 6:7 7:26 8:17 9:6 
100000 1:22 2:393 3:30 4:44 5:184 6:12 7:5 8:11 9:5 
100000 1:37 2:3949 3:56 4:59 5:484 6:9 7:67 8:103 9:77 
100000 1:22 2:453 3:29 4:49 5:260 6:4 7:11 8:10 9:48 
100000 1:32 2:1312 3:63 4:53 5:544 6:42 7:55 8:70 9:72 
100000 1:22 2:2565 3:73 4:82 5:477 6:90 7:69 8:27 9:86 
100000 1:27 2:661 3:42 4:79 5:364 6:11 7:29 8:20 9:3 
100000 1:32 2:13335 3:58 4:384 5:1388 6:5 7:494 8:121 9:298 
100000 1:22 2:1293 3:16 4:78 5:368 6:2 7:65 8:3 9:15 
100000 1:22 2:298 3:15 4:47 5:260 6:2 7:23 8:0 9:22 
100000 1:22 2:10360 3:190 4:248 5:1488 6:12 7:132 8:14 9:149 
100000 1:27 2:12409 3:22 4:261 5:980 6:0 7:130 8:9 9:77 
100000 1:27 2:23460 3:36 4:695 5:2424 6:16 7:744 8:10 9:348 
100000 1:27 2:283 3:19 4:29 5:184 6:5 7:4 8:6 9:15 
100000 1:22 2:363 3:17 4:48 5:248 6:3 7:31 8:14 9:5 
100000 1:32 2:614 3:29 4:60 5:249 6:7 7:4 8:3 9:31 
100000 1:32 2:482 3:23 4:78 5:260 6:2 7:25 8:9 9:43 
100000 1:32 2:411 3:15 4:45 5:204 6:3 7:19 8:0 9:36 
100000 1:27 2:746 3:124 4:20 5:356 6:2 7:6 8:20 9:4 
100000 1:22 2:134 3:31 4:13 5:240 6:4 7:0 8:43 9:12 
100000 1:22 2:203 3:27 4:28 5:133 6:4 7:1 8:1 9:3 
4350.9146592110783 1:32 2:37525 3:329 4:329 5:2836 6:53 7:652 8:366 9:38 
100000 1:22 2:596 3:35 4:40 5:408 6:13 7:44 8:66 9:68 
100000 1:22 2:3359 3:34 4:43 5:288 6:13 7:10 8:62 9:4 
100000 1:27 2:214 3:16 4:35 5:192 6:4 7:54 8:2 9:7 
100000 1:22 2:1153 3:36 4:23 5:191 6:16 7:18 8:25 9:2 
100000 1:32 2:1389 3:25 4:74 5:388 6:3 7:54 8:21 9:84 
100000 1:27 2:1563 3:80 4:99 5:808 6:15 7:88 8:25 9:2 
100000 1:32 2:28811 3:134 4:155 5:956 6:61 7:57 8:136 9:62 
100000 1:27 2:969 3:94 4:43 5:428 6:6 7:11 8:6 9:38 
100000 1:27 2:268 3:16 4:40 5:184 6:5 7:65 8:4 9:32 
100000 1:32 2:1234 3:88 4:90 5:532 6:93 7:64 8:29 9:14 
100000 1:32 2:2979 3:31 4:153 5:780 6:8 7:157 8:8 9:84 
100000 1:32 2:1823 3:104 4:149 5:616 6:128 7:120 8:23 9:31 
100000 1:22 2:2046 3:28 4:24 5:152 6:3 7:4 8:17 9:2 
100000 1:32 2:849 3:16 4:83 5:424 6:4 7:199 8:5 9:5 
100000 1:37 2:9560 3:206 4:178 5:1352 6:53 7:75 8:16 9:196 
100000 1:22 2:5496 3:19 4:165 5:624 6:10 7:376 8:4 9:64 
100000 1:37 2:12459 3:126 4:50 5:799 6:35 7:88 8:80 9:16 
100000 1:22 2:429 3:20 4:37 5:220 6:9 7:42 8:4 9:27 
100000 1:22 2:272 3:27 4:46 5:224 6:6 7:8 8:5 9:16 
28.602736447551052 1:37 2:101837 3:137 4:70 5:2080 6:1 7:16 8:443 9:225 
100000 1:22 2:224 3:17 4:33 5:164 6:2 7:38 8:4 9:13 
100000 1:27 2:2457 3:25 4:102 5:424 6:1 7:1 8:0 9:61 
100000 1:27 2:2506 3:113 4:105 5:724 6:19 7:40 8:54 9:134 
100000 1:22 2:292 3:16 4:43 5:204 6:2 7:10 8:1 9:6 
100000 1:22 2:262 3:15 4:39 5:196 6:0 7:6 8:0 9:5 
100000 1:27 2:209 3:19 4:38 5:156 6:3 7:8 8:10 9:8 
100000 1:27 2:224 3:17 4:34 5:268 6:1 7:35 8:1 9:43 
100000 1:22 2:193 3:16 4:32 5:168 6:2 7:3 8:10 9:30 
100000 1:22 2:318 3:27 4:31 5:237 6:6 7:20 8:16 9:21 
100000 1:27 2:6152 3:175 4:197 5:1172 6:95 7:4 8:56 9:74 
100000 1:27 2:1096 3:33 4:36 5:192 6:7 7:24 8:20 9:23 
100000 1:32 2:2225 3:19 4:201 5:720 6:1 7:273 8:15 9:80 
100000 1:32 2:513 3:34 4:48 5:348 6:0 7:50 8:3 9:48 
100000 1:27 2:618 3:19 4:65 5:384 6:1 7:92 8:1 9:13 
65332.980673719409 1:37 2:24976 3:113 4:137 5:935 6:28 7:28 8:213 9:211 
100000 1:22 2:478 3:33 4:53 5:221 6:2 7:8 8:9 9:12 
100000 1:22 2:179 3:21 4:27 5:164 6:9 7:0 8:13 9:32 
100000 1:37 2:1949 3:58 4:84 5:600 6:11 7:29 8:113 9:195 
100000 1:22 2:972 3:36 4:55 5:324 6:5 7:38 8:18 9:13 
100000 1:22 2:192 3:23 4:25 5:135 6:3 7:7 8:17 9:3 
100000 1:22 2:282 3:18 4:55 5:264 6:1 7:37 8:5 9:76 
100000 1:37 2:1645 3:24 4:62 5:752 6:17 7:40 8:48 9:135 
91546.70950633107 1:37 2:8518 3:18 4:152 5:1440 6:10 7:450 8:3 9:144 
100000 1:27 2:133 3:17 4:34 5:132 6:1 7:18 8:9 9:19 
100000 1:22 2:568 3:32 4:55 5:242 6:1 7:26 8:16 9:21 
100000 1:22 2:205 3:24 4:33 5:178 6:3 7:12 8:4 9:15 
100000 1:22 2:408 3:34 4:40 5:296 6:2 7:1 8:77 9:44 
100000 1:22 2:5360 3:168 4:164 5:1084 6:22 7:25 8:40 9:104 
100000 1:22 2:1346 3:135 4:7 5:456 6:1 7:0 8:57 9:3 
100000 1:32 2:13227 3:67 4:29 5:301 6:4 7:6 8:171 9:0 
100000 1:22 2:280 3:25 4:41 5:256 6:9 7:2 8:4 9:28 
100000 1:32 2:3522 3:67 4:108 5:516 6:86 7:69 8:29 9:32 
100000 1:22 2:124 3:19 4:19 5:116 6:1 7:5 8:7 9:5 
100000 1:27 2:5464 3:154 4:166 5:1088 6:22 7:58 8:25 9:96 
100000 1:27 2:339 3:17 4:48 5:216 6:3 7:23 8:1 9:3 
100000 1:32 2:7377 3:98 4:261 5:1244 6:29 7:312 8:64 9:25 
100000 1:27 2:914 3:78 4:70 5:468 6:3 7:13 8:4 9:15 
100000 1:22 2:1039 3:21 4:96 5:392 6:13 7:34 8:1 9:54 
-100000 1:27 2:669 3:31 4:33 5:338 6:28 7:11 8:35 9:30 
-100000 1:27 2:380 3:18 4:46 5:232 6:0 7:26 8:4 9:41 
-100000 1:22 2:6039 3:169 4:168 5:1524 6:1 7:59 8:102 9:90 
-100000 1:27 2:2077 3:23 4:98 5:428 6:5 7:127 8:20 9:72 
-100000 1:32 2:11777 3:90 4:76 5:864 6:7 7:6 8:98 9:55 
-100000 1:37 2:1038 3:24 4:46 5:220 6:2 7:17 8:29 9:98 
-100000 1:37 2:1883 3:50 4:75 5:360 6:28 7:52 8:27 9:50 
-100000 1:32 2:6565 3:39 4:77 5:1352 6:59 7:145 8:114 9:245 
-100000 1:22 2:3077 3:38 4:70 5:300 6:4 7:53 8:46 9:17 
-100000 1:27 2:1200 3:112 4:8 5:440 6:3 7:2 8:48 9:6 
-100000 1:27 2:1589 3:49 4:83 5:676 6:10 7:87 8:43 9:179 
-100000 1:37 2:1618 3:18 4:125 5:548 6:5 7:330 8:0 9:8 
-100000 1:37 2:1870 3:25 4:104 5:504 6:7 7:310 8:2 9:7 
-100000 1:22 2:140 3:18 4:17 5:115 6:3 7:4 8:11 9:3 
-100000 1:32 2:496 3:20 4:50 5:276 6:4 7:50 8:5 9:4 
-100000 1:22 2:345 3:20 4:36 5:156 6:7 7:24 8:3 9:16 
-100000 1:37 2:2800 3:38 4:77 5:771 6:13 7:82 8:35 9:146 
-100000 1:32 2:1220 3:22 4:70 5:344 6:4 7:11 8:14 9:51 
-100000 1:22 2:168 3:20 4:29 5:148 6:0 7:6 8:5 9:7 
-100000 1:27 2:2497 3:36 4:51 5:272 6:9 7:35 8:77 9:128 
-100000 1:27 2:1293 3:145 4:7 5:460 6:11 7:0 8:10 9:2 
-100000 1:27 2:210 3:17 4:43 5:180 6:0 7:3 8:9 9:27 
-100000 1:22 2:88 3:16 4:17 5:108 6:2 7:4 8:16 9:10 
-100000 1:22 2:220 3:27 4:31 5:156 6:7 7:3 8:4 9:18 
-100000 1:22 2:11484 3:60 4:25 5:176 6:2 7:12 8:39 9:4 
-100000 1:37 2:7832 3:71 4:185 5:940 6:63 7:316 8:68 9:136 
-100000 1:22 2:6276 3:27 4:331 5:1248 6:2 7:542 8:19 9:128 
-100000 1:32 2:1651 3:82 4:92 5:584 6:5 7:29 8:40 9:97 
-100000 1:37 2:2931 3:67 4:103 5:742 6:24 7:89 8:1 9:36 
-100000 1:32 2:5756 3:78 4:133 5:624 6:43 7:50 8:76 9:29 
-100000 1:27 2:1774 3:29 4:40 5:312 6:2 7:2 8:28 9:60 
-100000 1:27 2:2927 3:26 4:141 5:480 6:9 7:43 8:1 9:31 
-100000 1:37 2:1876 3:17 4:174 5:508 6:0 7:129 8:6 9:14 
-100000 1:32 2:1597 3:31 4:61 5:675 6:14 7:75 8:21 9:72 
-100000 1:22 2:1949 3:41 4:69 5:537 6:17 7:26 8:14 9:101 
-100000 1:27 2:253 3:30 4:30 5:207 6:5 7:3 8:8 9:8 
-100000 1:32 2:2565 3:9 4:148 5:456 6:0 7:85 8:4 9:16 
-100000 1:37 2:1738 3:78 4:76 5:388 6:28 7:27 8:42 9:57 
-100000 1:22 2:139 3:18 4:28 5:164 6:0 7:39 8:0 9:19 
-100000 1:32 2:711 3:17 4:74 5:428 6:2 7:109 8:2 9:2 
-100000 1:32 2:4982 3:48 4:88 5:488 6:4 7:9 8:47 9:173 
-100000 1:32 2:484 3:26 4:48 5:248 6:11 7:35 8:23 9:75 
-100000 1:37 2:942 3:20 4:55 5:668 6:10 7:99 8:31 9:75 
-100000 1:22 2:260 3:19 4:31 5:132 6:8 7:4 8:8 9:16 
-100000 1:27 2:2017 3:42 4:59 5:324 6:1 7:1 8:30 9:93 
-100000 1:22 2:488 3:18 4:57 5:284 6:0 7:1 8:5 9:23 
-100000 1:37 2:4180 3:55 4:70 5:480 6:43 7:28 8:48 9:92 
-100000 1:27 2:409 3:15 4:47 5:216 6:4 7:101 8:1 9:19 
-100000 1:22 2:6004 3:186 4:176 5:956 6:21 7:12 8:207 9:131 
-100000 1:22 2:473 3:22 4:26 5:232 6:14 7:9 8:4 9:52 
-100000 1:32 2:21162 3:54 4:320 5:1808 6:116 7:795 8:1 9:249 
-100000 1:22 2:1541 3:15 4:157 5:504 6:6 7:282 8:3 9:25 
-100000 1:32 2:7135 3:70 4:254 5:908 6:30 7:24 8:37 9:112 
-100000 1:27 2:1055 3:31 4:43 5:324 6:20 7:14 8:66 9:9 
-100000 1:32 2:2873 3:117 4:145 5:868 6:8 7:53 8:21 9:68 
-100000 1:27 2:1828 3:90 4:98 5:596 6:22 7:45 8:36 9:47 
-100000 1:37 2:11368 3:25 4:257 5:1052 6:3 7:462 8:0 9:101 
-100000 1:32 2:12446 3:69 4:18 5:1220 6:2 7:16 8:226 9:22 
-100000 1:32 2:324 3:31 4:38 5:233 6:7 7:36 8:17 9:0 
-100000 1:27 2:10169 3:191 4:177 5:1400 6:170 7:65 8:237 9:137 
-100000 1:27 2:942 3:103 4:6 5:416 6:2 7:0 8:9 9:1 
-100000 1:37 2:20170 3:67 4:414 5:1876 6:34 7:387 8:158 9:170 
-100000 1:32 2:3491 3:54 4:49 5:284 6:19 7:11 8:47 9:47 
-100000 1:37 2:621 3:35 4:48 5:340 6:20 7:20 8:36 9:67 
-100000 1:22 2:164 3:25 4:25 5:147 6:14 7:3 8:12 9:13 
-100000 1:22 2:896 3:19 4:67 5:304 6:2 7:23 8:6 9:52 
-100000 1:22 2:6725 3:36 4:173 5:918 6:50 7:428 8:19 9:44 
-100000 1:27 2:7722 3:180 4:237 5:1424 6:22 7:34 8:121 9:52 
-100000 1:37 2:5312 3:18 4:263 5:960 6:0 7:118 8:1 9:26 
-100000 1:22 2:3165 3:136 4:122 5:708 6:45 7:29 8:125 9:7 
-100000 1:27 2:1024 3:37 4:39 5:228 6:0 7:6 8:16 9:1 
-100000 1:32 2:3411 3:30 4:209 5:820 6:2 7:84 8:27 9:301 
-100000 1:27 2:309 3:18 4:60 5:272 6:3 7:41 8:5 9:55 
-100000 1:27 2:1692 3:28 4:28 5:136 6:3 7:13 8:29 9:5 
-100000 1:32 2:15096 3:62 4:219 5:816 6:27 7:218 8:30 9:326 
-100000 1:27 2:1342 3:25 4:92 5:714 6:10 7:156 8:3 9:87 
-100000 1:37 2:7954 3:19 4:346 5:1220 6:9 7:193 8:3 9:5 
-100000 1:27 2:942 3:103 4:7 5:416 6:1 7:0 8:8 9:2 
-100000 1:22 2:2237 3:34 4:39 5:192 6:3 7:2 8:33 9:11 
-100000 1:22 2:644 3:19 4:64 5:276 6:8 7:165 8:4 9:1 
-100000 1:27 2:1049 3:49 4:50 5:314 6:2 7:6 8:42 9:51 
-100000 1:22 2:620 3:16 4:62 5:272 6:3 7:78 8:0 9:3 
-100000 1:22 2:68 3:10 4:9 5:90 6:4 7:3 8:14 9:1 
-100000 1:32 2:7180 3:78 4:112 5:564 6:18 7:14 8:51 9:237 
-100000 1:32 2:790 3:58 4:74 5:356 6:11 7:33 8:30 9:32 
-100000 1:22 2:175 3:25 4:27 5:172 6:6 7:4 8:10 9:10 
-100000 1:22 2:449 3:15 4:53 5:208 6:5 7:56 8:2 9:21 
-100000 1:37 2:3017 3:21 4:101 5:816 6:0 7:306 8:6 9:7 
-100000 1:27 2:6058 3:173 4:183 5:1328 6:39 7:9 8:33 9:89 
-100000 1:22 2:447 3:26 4:44 5:212 6:9 7:34 8:4 9:6 
-100000 1:27 2:398 3:16 4:46 5:236 6:4 7:24 8:9 9:27 
-91914.824931258976 1:37 2:1930 3:81 4:45 5:355 6:27 7:8 8:31 9:28 
-100000 1:32 2:208 3:15 4:28 5:212 6:6 7:22 8:6 9:24 
-100000 1:27 2:1391 3:153 4:4 5:476 6:7 7:0 8:11 9:0 
-100000 1:22 2:89 3:19 4:17 5:116 6:0 7:1 8:1 9:6 
-100000 1:22 2:276 3:21 4:49 5:228 6:2 7:12 8:5 9:39 
-100000 1:22 2:258 3:16 4:19 5:100 6:3 7:2 8:10 9:7 
-100000 1:37 2:18301 3:35 4:319 5:1904 6:52 7:635 8:37 9:351 
-100000 1:32 2:483 3:15 4:56 5:256 6:5 7:40 8:8 9:28 
-100000 1:22 2:4345 3:45 4:307 5:828 6:5 7:14 8:13 9:102 
-100000 1:22 2:99 3:17 4:17 5:105 6:5 7:2 8:5 9:6 
-100000 1:32 2:4186 3:24 4:212 5:884 6:5 7:52 8:5 9:117 
-100000 1:37 2:8862 3:81 4:371 5:1316 6:30 7:211 8:49 9:240 
-100000 1:22 2:433 3:16 4:42 5:288 6:2 7:77 8:0 9:12 
-100000 1:27 2:7351 3:173 4:223 5:1448 6:22 7:117 8:5 9:76 
-100000 1:27 2:442 3:17 4:48 5:264 6:8 7:113 8:8 9:18 
-3095.5619948765102 1:37 2:67569 3:249 4:248 5:1660 6:5 7:21 8:319 9:330 
-100000 1:37 2:5208 3:102 4:105 5:1368 6:338 7:291 8:85 9:17 
-100000 1:22 2:203 3:29 4:25 5:141 6:5 7:8 8:4 9:5 
-100000 1:27 2:183 3:16 4:25 5:188 6:9 7:32 8:1 9:8 
-100000 1:27 2:2764 3:97 4:40 5:434 6:9 7:48 8:68 9:2 
-100000 1:27 2:9028 3:88 4:177 5:564 6:3 7:151 8:73 9:101 
-100000 1:22 2:397 3:25 4:39 5:264 6:0 7:3 8:1 9:15 
-100000 1:32 2:661 3:58 4:30 5:321 6:0 7:2 8:85 9:17 
-100000 1:22 2:6279 3:168 4:168 5:1200 6:69 7:12 8:1 9:10 
-100000 1:27 2:6805 3:226 4:152 5:1020 6:35 7:19 8:6 9:55 
-100000 1:32 2:1215 3:119 4:7 5:448 6:1 7:0 8:19 9:0 
-100000 1:22 2:205 3:16 4:33 5:216 6:5 7:8 8:2 9:37 
-100000 1:27 2:614 3:27 4:47 5:220 6:1 7:22 8:16 9:43 
-100000 1:27 2:7385 3:185 4:172 5:1512 6:98 7:139 8:10 9:3 
-100000 1:37 2:12888 3:34 4:252 5:1180 6:43 7:364 8:58 9:90 
-100000 1:22 2:429 3:22 4:52 5:244 6:1 7:9 8:12 9:40 
-100000 1:32 2:2965 3:123 4:115 5:704 6:44 7:13 8:53 9:50 
-100000 1:22 2:4939 3:145 4:170 5:1036 6:9 7:38 8:12 9:3 
-100000 1:27 2:627 3:48 4:63 5:336 6:7 7:39 8:8 9:5 
-100000 1:22 2:141 3:15 4:37 5:188 6:2 7:6 8:2 9:30 
-100000 1:37 2:3085 3:42 4:111 5:772 6:8 7:261 8:10 9:13 
-100000 1:22 2:216 3:28 4:29 5:167 6:18 7:7 8:3 9:2 
-100000 1:27 2:262 3:17 4:46 5:240 6:3 7:25 8:0 9:45 
-100000 1:32 2:2163 3:15 4:80 5:888 6:4 7:246 8:12 9:95 
-100000 1:27 2:10221 3:20 4:400 5:1172 6:3 7:112 8:5 9:154 
-29082.057816040095 1:27 2:30536 3:275 4:688 5:2064 6:425 7:172 8:76 9:36 
-100000 1:37 2:11746 3:230 4:194 5:1396 6:93 7:98 8:26 9:49 
-6842.9882249265092 1:27 2:1307 3:153 4:4 5:480 6:8 7:0 8:1 9:1 
-100000 1:27 2:3233 3:119 4:136 5:800 6:9 7:14 8:69 9:46 
-100000 1:22 2:80 3:14 4:21 5:124 6:5 7:9 8:0 9:1 
-100000 1:22 2:121 3:15 4:20 5:109 6:9 7:2 8:2 9:5 
-5939.0256882809754 1:37 2:57590 3:288 4:204 5:1688 6:7 7:13 8:897 9:589 
-100000 1:37 2:1294 3:38 4:75 5:376 6:2 7:27 8:8 9:45 
-100000 1:22 2:144 3:17 4:21 5:104 6:3 7:21 8:5 9:6 
-100000 1:27 2:619 3:22 4:56 5:220 6:2 7:17 8:2 9:25 
-100000 1:22 2:7228 3:25 4:209 5:741 6:5 7:368 8:16 9:5 
-100000 1:27 2:4197 3:193 4:104 5:1048 6:57 7:14 8:30 9:47 
-100000 1:32 2:179 3:15 4:36 5:248 6:3 7:31 8:11 9:37 
-100000 1:32 2:1719 3:118 4:120 5:512 6:5 7:84 8:78 9:86 
-100000 1:22 2:116 3:14 4:22 5:100 6:2 7:9 8:3 9:11 
-100000 1:37 2:15085 3:183 4:230 5:964 6:26 7:32 8:1 9:219 
-100000 1:37 2:3086 3:144 4:133 5:796 6:115 7:50 8:16 9:2 
-100000 1:32 2:1533 3:133 4:75 5:584 6:20 7:41 8:53 9:20 
-100000 1:37 2:5476 3:174 4:181 5:888 6:75 7:65 8:24 9:72 
-100000 1:27 2:1684 3:29 4:83 5:367 6:3 7:85 8:2 9:7 
-100000 1:37 2:5090 3:41 4:114 5:368 6:22 7:104 8:10 9:96 
-100000 1:37 2:418 3:30 4:21 5:365 6:17 7:1 8:29 9:5 
-100000 1:27 2:109 3:14 4:24 5:172 6:7 7:20 8:2 9:22 
-100000 1:27 2:887 3:30 4:44 5:219 6:2 7:41 8:17 9:45 
-100000 1:32 2:1713 3:100 4:90 5:744 6:45 7:24 8:16 9:8 
-100000 1:22 2:1151 3:86 4:83 5:524 6:4 7:29 8:37 9:19 
-100000 1:22 2:146 3:17 4:27 5:184 6:2 7:0 8:1 9:19 
-100000 1:27 2:6332 3:164 4:205 5:1740 6:8 7:45 8:76 9:105 
-100000 1:37 2:24427 3:71 4:234 5:1124 6:28 7:246 8:4 9:28 
-100000 1:22 2:243 3:15 4:37 5:144 6:1 7:16 8:2 9:18 
-100000 1:22 2:1210 3:133 4:6 5:464 6:11 7:1 8:23 9:0 
-100000 1:37 2:1119 3:32 4:95 5:388 6:9 7:94 8:15 9:15 
-100000 1:27 2:339 3:16 4:60 5:252 6:2 7:47 8:0 9:28 
-100000 1:22 2:2073 3:195 4:67 5:500 6:20 7:60 8:99 9:10 
-42397.248377463628 1:32 2:36982 3:324 4:643 5:2112 6:105 7:195 8:24 9:441 
-100000 1:32 2:13542 3:62 4:266 5:816 6:21 7:176 8:83 9:157 
-100000 1:32 2:105 3:16 4:14 5:180 6:5 7:1 8:19 9:13 
-100000 1:22 2:209 3:15 4:33 5:160 6:1 7:12 8:3 9:4 
-100000 1:37 2:2340 3:58 4:90 5:617 6:19 7:22 8:121 9:142 
-100000 1:22 2:761 3:104 4:43 5:348 6:55 7:13 8:9 9:6 
-100000 1:22 2:151 3:14 4:21 5:96 6:4 7:20 8:1 9:17 
-100000 1:22 2:3768 3:123 4:144 5:900 6:48 7:43 8:14 9:46 
-100000 1:22 2:335 3:19 4:39 5:300 6:5 7:19 8:13 9:37 
-100000 1:27 2:255 3:17 4:34 5:192 6:0 7:12 8:3 9:44 
-100000 1:27 2:1312 3:142 4:7 5:448 6:4 7:3 8:34 9:0 
-100000 1:27 2:624 3:30 4:26 5:204 6:2 7:10 8:38 9:9 
-100000 1:22 2:141 3:18 4:16 5:108 6:8 7:2 8:3 9:11 
-100000 1:32 2:776 3:29 4:49 5:257 6:6 7:32 8:2 9:75 
-100000 1:22 2:1708 3:38 4:31 5:236 6:0 7:3 8:26 9:18 
-100000 1:22 2:128 3:18 4:22 5:120 6:0 7:4 8:2 9:12 
-100000 1:22 2:315 3:18 4:47 5:180 6:9 7:71 8:2 9:2 
-100000 1:37 2:14256 3:66 4:65 5:336 6:1 7:16 8:96 9:154 
-100000 1:22 2:286 3:18 4:39 5:208 6:9 7:20 8:1 9:28 
-100000 1:27 2:319 3:18 4:62 5:236 6:0 7:67 8:5 9:13 
-100000 1:22 2:237 3:30 4:30 5:143 6:12 7:0 8:9 9:11 
-100000 1:22 2:506 3:19 4:41 5:196 6:12 7:30 8:1 9:18 
-100000 1:22 2:1088 3:23 4:52 5:252 6:0 7:4 8:3 9:68 
-100000 1:27 2:10097 3:160 4:210 5:1165 6:48 7:8 8:155 9:18 
-100000 1:32 2:4683 3:26 4:159 5:428 6:1 7:41 8:7 9:28 
-100000 1:22 2:3053 3:33 4:24 5:136 6:1 7:0 8:11 9:10 
-100000 1:32 2:2745 3:19 4:193 5:644 6:12 7:209 8:6 9:65 
-100000 1:22 2:319 3:15 4:47 5:244 6:2 7:38 8:9 9:3 
-100000 1:32 2:1828 3:100 4:121 5:476 6:10 7:61 8:64 9:46 
-100000 1:22 2:145 3:16 4:20 5:120 6:4 7:1 8:0 9:2 
-100000 1:32 2:2421 3:45 4:165 5:556 6:66 7:0 8:37 9:15 
-100000 1:37 2:509 3:16 4:61 5:360 6:4 7:40 8:4 9:74 
-100000 1:27 2:2903 3:24 4:119 5:440 6:4 7:126 8:6 9:43 
-100000 1:37 2:7124 3:23 4:396 5:1000 6:4 7:225 8:8 9:12 
-100000 1:27 2:514 3:29 4:45 5:193 6:4 7:33 8:13 9:0 
-100000 1:32 2:3114 3:56 4:67 5:410 6:17 7:41 8:13 9:20 
-100000 1:27 2:3061 3:45 4:84 5:892 6:24 7:201 8:5 9:11 
-100000 1:27 2:530 3:32 4:38 5:208 6:4 7:31 8:17 9:5 
-100000 1:37 2:7074 3:22 4:172 5:1016 6:13 7:217 8:13 9:67 
-100000 1:22 2:95 3:16 4:21 5:120 6:0 7:9 8:5 9:3 
-100000 1:37 2:1214 3:33 4:72 5:676 6:10 7:4 8:0 9:116 
-100000 1:22 2:290 3:30 4:36 5:158 6:5 7:24 8:1 9:9 
-100000 1:22 2:1434 3:155 4:2 5:480 6:0 7:0 8:17 9:2 
-100000 1:22 2:234 3:16 4:38 5:168 6:3 7:18 8:0 9:4 
-100000 1:37 2:31946 3:127 4:112 5:565 6:25 7:35 8:300 9:267 
-100000 1:22 2:314 3:17 4:42 5:204 6:9 7:26 8:7 9:6 
-100000 1:22 2:193 3:19 4:32 5:152 6:5 7:27 8:0 9:18 
-100000 1:32 2:13351 3:120 4:358 5:1900 6:76 7:21 8:56 9:235 
-100000 1:37 2:10988 3:60 4:381 5:1240 6:65 7:220 8:70 9:274 
-100000 1:27 2:940 3:28 4:46 5:655 6:36 7:59 8:31 9:27 
-100000 1:37 2:1174 3:24 4:51 5:432 6:21 7:86 8:29 9:109 
-100000 1:27 2:6374 3:35 4:375 5:984 6:8 7:26 8:12 9:135 
-100000 1:27 2:239 3:16 4:43 5:228 6:0 7:9 8:1 9:26 
-100000 1:22 2:1719 3:23 4:75 5:228 6:4 7:73 8:1 9:18 
-100000 1:22 2:330 3:17 4:26 5:140 6:1 7:5 8:8 9:15 
-100000 1:27 2:5006 3:61 4:13 5:804 6:1 7:0 8:135 9:4 
-100000 1:27 2:906 3:19 4:68 5:328 6:6 7:83 8:4 9:2 
-100000 1:27 2:422 3:19 4:44 5:244 6:1 7:26 8:14 9:42 
-100000 1:22 2:480 3:18 4:68 5:360 6:5 7:144 8:2 9:25 
-100000 1:27 2:260 3:18 4:37 5:188 6:0 7:14 8:6 9:45 
-100000 1:22 2:188 3:18 4:33 5:156 6:5 7:4 8:6 9:15 
-100000 1:22 2:163 3:24 4:25 5:135 6:8 7:6 8:6 9:2 
-100000 1:32 2:29589 3:83 4:174 5:1060 6:7 7:15 8:91 9:233 
-100000 1:32 2:322 3:18 4:49 5:256 6:8 7:3 8:4 9:1 
-100000 1:27 2:604 3:17 4:53 5:232 6:1 7:9 8:10 9:3 
-100000 1:32 2:425 3:21 4:42 5:228 6:8 7:75 8:11 9:2 
-100000 1:27 2:845 3:24 4:62 5:216 6:8 7:11 8:10 9:11 
-100000 1:27 2:736 3:21 4:57 5:324 6:1 7:5 8:6 9:29 
-100000 1:27 2:2260 3:23 4:124 5:356 6:7 7:63 8:4 9:59 
-100000 1:27 2:1756 3:19 4:95 5:324 6:2 7:135 8:3 9:10 
-100000 1:27 2:3954 3:105 4:83 5:464 6:12 7:52 8:24 9:82 
-100000 1:37 2:1929 3:60 4:104 5:420 6:8 7:50 8:34 9:37 
-100000 1:32 2:207 3:15 4:47 5:204 6:2 7:52 8:5 9:4 
-100000 1:22 2:175 3:16 4:30 5:208 6:1 7:27 8:8 9:7 
-100000 1:27 2:142 3:13 4:18 5:228 6:1 7:19 8:11 9:35 
-100000 1:22 2:186 3:24 4:27 5:152 6:0 7:15 8:1 9:6 
-100000 1:22 2:253 3:18 4:43 5:220 6:8 7:30 8:6 9:11 
-100000 1:32 2:449 3:19 4:56 5:352 6:9 7:0 8:7 9:17 
-100000 1:22 2:3933 3:18 4:142 5:596 6:8 7:228 8:8 9:26 
-100000 1:32 2:260 3:33 4:32 5:284 6:4 7:19 8:24 9:13 
-100000 1:27 2:466 3:16 4:59 5:312 6:4 7:142 8:0 9:18 
-100000 1:22 2:965 3:25 4:62 5:432 6:4 7:5 8:26 9:49 
-100000 1:27 2:607 3:29 4:44 5:560 6:7 7:23 8:25 9:32 
-100000 1:37 2:25412 3:89 4:256 5:1432 6:73 7:348 8:304 9:303 
-100000 1:22 2:86 3:17 4:21 5:108 6:3 7:3 8:10 9:14 
-100000 1:27 2:1731 3:45 4:68 5:268 6:41 7:26 8:28 9:55 
-100000 1:32 2:1109 3:61 4:58 5:492 6:21 7:0 8:44 9:17 
-100000 1:22 2:165 3:17 4:39 5:152 6:1 7:26 8:7 9:9 
-100000 1:27 2:527 3:23 4:46 5:202 6:6 7:11 8:3 9:44 
-100000 1:32 2:9804 3:16 4:245 5:1176 6:8 7:58 8:14 9:40 
-100000 1:37 2:3223 3:57 4:29 5:256 6:13 7:4 8:104 9:2 
-100000 1:32 2:6696 3:92 4:67 5:554 6:6 7:49 8:5 9:35 
-100000 1:32 2:3441 3:124 4:131 5:908 6:0 7:16 8:30 9:85 
-100000 1:22 2:3547 3:149 4:128 5:820 6:2 7:72 8:106 9:48 
-100000 1:37 2:500 3:30 4:38 5:236 6:22 7:25 8:44 9:66 
-100000 1:32 2:1706 3:43 4:33 5:361 6:0 7:3 8:61 9:30 
-100000 1:37 2:1458 3:27 4:64 5:371 6:13 7:111 8:15 9:89 
-100000 1:32 2:4628 3:39 4:67 5:320 6:15 7:0 8:90 9:174 
-100000 1:32 2:1054 3:30 4:52 5:292 6:12 7:90 8:46 9:30 
-100000 1:22 2:3465 3:38 4:268 5:775 6:16 7:64 8:23 9:24 
-100000 1:27 2:1828 3:39 4:137 5:588 6:67 7:244 8:17 9:22 
-100000 1:32 2:7231 3:51 4:120 5:532 6:8 7:48 8:33 9:143 
-100000 1:22 2:190 3:19 4:23 5:140 6:9 7:9 8:10 9:2 
-100000 1:37 2:3385 3:48 4:65 5:1194 6:26 7:34 8:7 9:5 
-100000 1:22 2:215 3:18 4:16 5:104 6:11 7:4 8:8 9:0 
-100000 1:27 2:191 3:18 4:29 5:176 6:0 7:30 8:6 9:14 
-100000 1:27 2:133 3:19 4:21 5:180 6:1 7:11 8:35 9:8 
-100000 1:22 2:6152 3:175 4:197 5:1172 6:95 7:4 8:56 9:74 
-100000 1:27 2:283 3:25 4:50 5:216 6:0 7:20 8:0 9:24 
-100000 1:32 2:1078 3:31 4:47 5:520 6:11 7:52 8:46 9:35 
-100000 1:22 2:4673 3:189 4:163 5:888 6:55 7:38 8:114 9:5 
-100000 1:27 2:2956 3:22 4:184 5:860 6:5 7:305 8:5 9:108 
-100000 1:32 2:4062 3:17 4:138 5:524 6:5 7:108 8:2 9:33 
-100000 1:27 2:1309 3:34 4:40 5:419 6:15 7:40 8:35 9:77 
-100000 1:27 2:520 3:19 4:58 5:296 6:3 7:73 8:7 9:15 
-100000 1:27 2:307 3:17 4:61 5:224 6:6 7:15 8:7 9:70 
-100000 1:22 2:137 3:16 4:19 5:100 6:8 7:4 8:3 9:10 
-100000 1:22 2:5374 3:178 4:167 5:1032 6:98 7:38 8:142 9:176 
-100000 1:37 2:265 3:21 4:26 5:348 6:12 7:5 8:13 9:6 
-100000 1:32 2:8554 3:67 4:61 5:496 6:4 7:20 8:97 9:60 
-100000 1:22 2:154 3:21 4:21 5:116 6:3 7:4 8:11 9:5 
-100000 1:37 2:2765 3:31 4:143 5:764 6:13 7:81 8:6 9:78 
-100000 1:37 2:9407 3:118 4:167 5:894 6:42 7:277 8:63 9:45 
-100000 1:27 2:362 3:13 4:55 5:244 6:0 7:65 8:0 9:22 
-100000 1:37 2:2346 3:81 4:73 5:596 6:17 7:41 8:52 9:82 
-100000 1:37 2:17287 3:18 4:277 5:994 6:10 7:72 8:7 9:4 
-100000 1:27 2:34581 3:279 4:642 5:2256 6:253 7:188 8:115 9:55 
-100000 1:22 2:210 3:17 4:35 5:184 6:4 7:8 8:1 9:17 
-100000 1:22 2:565 3:22 4:50 5:208 6:9 7:4 8:1 9:7 
-100000 1:32 2:440 3:12 4:61 5:332 6:2 7:22 8:8 9:31 
-100000 1:22 2:224 3:28 4:28 5:146 6:3 7:2 8:15 9:0 
-100000 1:37 2:6074 3:158 4:203 5:1684 6:17 7:18 8:15 9:224 
-100000 1:22 2:5301 3:34 4:289 5:844 6:1 7:29 8:38 9:298 
-100000 1:37 2:11583 3:143 4:101 5:744 6:10 7:159 8:118 9:24 
-100000 1:37 2:4771 3:36 4:159 5:412 6:13 7:65 8:1 9:11 
-100000 1:37 2:3985 3:19 4:122 5:756 6:4 7:342 8:7 9:51 
-100000 1:22 2:76 3:17 4:17 5:108 6:0 7:2 8:11 9:6 
-100000 1:22 2:214 3:20 4:35 5:136 6:11 7:14 8:5 9:26 
-100000 1:27 2:550 3:14 4:49 5:428 6:2 7:41 8:21 9:91 
-100000 1:27 2:111 3:14 4:29 5:160 6:2 7:25 8:4 9:18 
-100000 1:27 2:326 3:19 4:45 5:256 6:1 7:42 8:0 9:18 
-100000 1:22 2:1132 3:27 4:42 5:472 6:39 7:68 8:74 9:142 
-100000 1:32 2:4888 3:159 4:148 5:940 6:56 7:65 8:31 9:31 
-100000 1:22 2:408 3:16 4:57 5:316 6:0 7:86 8:1 9:20 
-100000 1:22 2:141 3:17 4:30 5:128 6:4 7:11 8:9 9:20 
-100000 1:22 2:1684 3:26 4:115 5:438 6:26 7:155 8:13 9:12 
-100000 1:27 2:2175 3:84 4:99 5:1120 6:41 7:179 8:66 9:217 
-100000 1:22 2:191 3:22 4:20 5:132 6:1 7:8 8:12 9:1 
-100000 1:32 2:768 3:18 4:56 5:272 6:6 7:53 8:13 9:60 
-100000 1:32 2:15457 3:61 4:15 5:821 6:3 7:5 8:6 9:18 
-100000 1:37 2:16459 3:72 4:108 5:380 6:38 7:23 8:181 9:165 
-100000 1:32 2:4264 3:142 4:148 5:856 6:9 7:28 8:48 9:86 
-100000 1:22 2:6860 3:23 4:260 5:1192 6:8 7:683 8:7 9:97 
-100000 1:22 2:5657 3:18 4:224 5:784 6:1 7:71 8:4 9:26 
-100000 1:27 2:7651 3:196 4:167 5:1300 6:62 7:138 8:119 9:97 
-100000 1:27 2:6236 3:40 4:93 5:272 6:13 7:52 8:50 9:76 
-100000 1:37 2:18482 3:133 4:94 5:1034 6:10 7:75 8:87 9:237 
-100000 1:22 2:183 3:17 4:45 5:188 6:6 7:71 8:8 9:10 
-100000 1:32 2:3401 3:132 4:141 5:788 6:13 7:44 8:68 9:50 
-100000 1:32 2:6425 3:178 4:190 5:1016 6:14 7:82 8:92 9:4 
-100000 1:32 2:5629 3:182 4:156 5:1204 6:28 7:33 8:55 9:92 
-100000 1:27 2:3159 3:121 4:120 5:828 6:26 7:16 8:25 9:100 
-100000 1:22 2:221 3:18 4:34 5:164 6:2 7:27 8:3 9:1 
-100000 1:37 2:1200 3:83 4:118 5:568 6:79 7:68 8:63 9:17 
-100000 1:22 2:554 3:18 4:41 5:184 6:5 7:1 8:4 9:9 
-100000 1:22 2:3199 3:55 4:45 5:344 6:4 7:8 8:49 9:29 
-58868.539789879964 1:27 2:190 3:15 4:41 5:180 6:0 7:0 8:4 9:15 
-100000 1:22 2:17423 3:25 4:312 5:963 6:0 7:572 8:5 9:22 
-100000 1:27 2:1481 3:28 4:77 5:684 6:62 7:164 8:1 9:54 
-100000 1:27 2:4099 3:13 4:131 5:712 6:2 7:339 8:6 9:89 
-100000 1:22 2:93 3:18 4:18 5:96 6:13 7:11 8:3 9:0 
-100000 1:27 2:1451 3:32 4:54 5:302 6:1 7:91 8:24 9:56 
-100000 1:32 2:526 3:21 4:63 5:304 6:2 7:19 8:4 9:72 
-100000 1:22 2:123 3:16 4:24 5:112 6:5 7:6 8:6 9:17 
-100000 1:27 2:493 3:42 4:44 5:272 6:4 7:6 8:12 9:20 
-100000 1:22 2:190 3:23 4:25 5:141 6:4 7:6 8:0 9:0 
-100000 1:27 2:18518 3:29 4:337 5:1204 6:6 7:598 8:0 9:48 
-100000 1:32 2:6725 3:73 4:156 5:816 6:31 7:116 8:36 9:231 
-100000 1:37 2:1042 3:26 4:13 5:384 6:3 7:4 8:54 9:2 
-100000 1:22 2:1008 3:27 4:70 5:237 6:8 7:94 8:1 9:17 
-100000 1:32 2:1298 3:25 4:84 5:360 6:1 7:2 8:4 9:54 
-100000 1:22 2:232 3:16 4:34 5:176 6:1 7:59 8:3 9:31 
-100000 1:37 2:694 3:46 4:21 5:816 6:27 7:1 8:92 9:14 
-100000 1:37 2:763 3:48 4:23 5:396 6:15 7:2 8:105 9:41 
-100000 1:37 2:2289 3:30 4:26 5:260 6:11 7:7 8:101 9:81 
-100000 1:27 2:350 3:21 4:46 5:328 6:14 7:66 8:9 9:39 
-100000 1:37 2:1718 3:40 4:82 5:354 6:44 7:51 8:33 9:66 
