svm_type c_svc
kernel_type rbf
gamma 0.10000000000000001
nr_class 2
total_sv 163
rho 0.34150557726315295
label 0 1
probA -0.96933483865956205
probB 0.05151234713111591
nr_sv 77 86
SV
1 1:-1.0243468 2:1.422733 3:1.1563907 4:-0.51040611 5:0.73215069 6:1.251765 7:-0.40194166 8:0.72075308 
1 1:-0.063115181 2:-0.73748243 3:-0.90269522 4:-0.80158215 5:-0.62864197 6:-0.57804689 7:-0.53488141 8:-0.7136291 
1 1:1.859348 2:-0.59676285 3:-0.3175823 4:-0.62276208 5:-0.59651834 6:-0.57075385 7:-0.48070778 8:-0.60329201 
1 1:0.89811642 2:-0.1370083 3:-0.20247812 4:-0.36481809 5:0.96496942 6:0.46855871 7:1.1791489 8:0.37135229 
1 1:-0.063115181 2:-0.45048333 3:-0.8669916 4:0.64875937 5:-0.55935115 6:-0.62435493 7:-0.32984007 8:-0.16194365 
1 1:-0.063115181 2:-0.75288259 3:-0.79185415 4:-0.80474711 5:-0.78592361 6:-0.68228796 7:-0.70270274 8:-1.0538351 
1 1:1.859348 2:0.60418541 3:0.5899289 4:0.60444997 5:0.31760844 6:0.34274012 7:0.77697787 8:0.38974181 
1 1:-0.063115181 2:-0.69666537 3:-0.66875663 4:-0.34187215 5:-0.65417017 6:-0.60305159 7:-0.55062684 8:-0.65386318 
1 1:1.859348 2:-0.66785073 3:-0.19448477 4:-0.50803239 5:-0.7652062 6:-0.65311582 7:-0.63862976 8:-0.75960289 
1 1:-0.063115181 2:-0.41116657 3:-0.66236195 4:-0.12982004 5:0.31927669 6:0.069415746 7:0.44924689 8:0.077120049 
1 1:-1.0243468 2:-0.79140507 3:-0.90589255 4:-0.90760821 5:-0.79527361 6:-0.69273401 7:-0.7066391 8:-1.1917565 
1 1:-1.0243468 2:-0.69878344 3:-0.62505967 4:-0.48746017 5:-0.66022245 6:-0.58665596 7:-0.54415718 8:-0.65846056 
1 1:1.859348 2:0.46373059 3:0.45777225 4:0.97791489 5:0.56334645 6:0.9446624 7:1.6326094 8:0.71155832 
1 1:-0.063115181 2:-0.53366188 3:-0.61706632 4:0.16372972 5:-0.50123376 6:-0.5566613 7:-0.30930086 8:-0.37342307 
0.80947578245053831 1:-1.0243468 2:-0.79886246 3:-1.0167336 4:-0.996227 5:-0.80617547 6:-0.70408482 7:-0.71108212 8:-1.2837041 
1 1:1.859348 2:0.75814295 3:0.19186028 4:1.8379919 5:0.78914298 6:0.24623076 7:1.1419289 8:0.95981677 
1 1:0.89811642 2:0.1315459 3:0.78336788 4:-0.23030742 5:-0.39043051 6:-0.46256467 7:-0.22044051 8:0.067925291 
1 1:-1.0243468 2:1.5337995 3:1.0940426 4:1.3070704 5:1.5234861 6:1.2390982 7:1.2059629 8:1.2264647 
1 1:1.859348 2:0.38884783 3:0.63042852 4:-1.0144255 5:0.76043345 6:1.3741565 7:-0.51909701 8:0.75753211 
1 1:-1.0243468 2:-0.76894466 3:-0.99488514 4:-0.62988323 5:-0.78390619 6:-0.70487993 7:-0.66653503 8:-1.0216535 
1 1:0.89811642 2:-0.27838977 3:-0.54992222 4:0.1573998 5:-0.11369397 6:-0.21769959 7:-0.012515104 8:0.15527549 
1 1:0.89811642 2:-0.17508951 3:0.030794361 4:-0.30527734 5:-0.24940467 6:-0.17961678 7:-0.33931071 8:-0.31595584 
1 1:-0.063115181 2:-0.79484694 3:-0.85620059 4:-0.98455622 5:-0.80400285 6:-0.70287846 7:-0.70975701 8:-1.2147434 
1 1:-1.0243468 2:0.07126903 3:0.5952578 4:-0.74698664 5:0.41525962 6:0.95505361 7:-0.61684339 8:0.77592162 
1 1:-0.063115181 2:-0.70090151 3:-0.81103818 4:-0.66865396 5:-0.51923541 6:-0.48954342 7:-0.44087652 8:-0.85155046 
1 1:-1.0243468 2:-0.14477457 3:-0.17796519 4:0.7524117 5:-0.058990691 6:0.17949673 7:-0.46722283 8:-0.069996072 
1 1:-1.0243468 2:0.11521908 3:0.19559051 4:0.66933159 5:-0.0026191517 6:-0.097227401 7:0.15156474 8:0.44950773 
1 1:0.89811642 2:-0.43234731 3:-0.43375226 4:-0.73037062 5:0.11198617 6:0.063219406 7:0.041580579 8:0.38974181 
1 1:-0.063115181 2:-0.56265302 3:-0.53406875 4:0.36331981 5:-0.72311183 6:-0.60933018 7:-0.68021484 8:-0.46996803 
1 1:-1.0243468 2:-0.70496116 3:-0.71724959 4:-0.49141637 5:-0.68311248 6:-0.60645135 7:-0.60394305 8:-0.9526928 
1 1:-1.0243468 2:-0.75658922 3:-0.82968932 4:-0.66628024 5:-0.79228626 6:-0.70030122 7:-0.68988035 8:-1.0538351 
1 1:-1.0243468 2:0.66746288 3:1.2714949 4:0.7745664 5:2.3470614 6:1.9893488 7:1.794156 8:1.3919704 
0.18231993709221903 1:1.859348 2:-0.22879153 3:0.040519598 4:-0.12744632 5:-0.65611001 6:-0.56502361 7:-0.60858093 8:-0.79178454 
1 1:1.859348 2:1.0772662 3:0.36398366 4:-0.39092899 5:2.999466 6:3.1999655 7:1.3840343 8:2.0999667 
1 1:-0.063115181 2:-0.23660193 3:0.16255135 4:0.34808846 5:-0.37817077 6:-0.54980694 7:-0.071794306 8:0.040341019 
1 1:-1.0243468 2:-0.7615314 3:-0.77160434 4:-0.74144797 5:-0.73552676 6:-0.64960639 7:-0.64790553 8:-1.0538351 
1 1:0.89811642 2:-0.74299825 3:-0.66342773 4:-0.91631184 5:-0.77831947 6:-0.68215088 7:-0.68761987 8:-0.99866659 
1 1:1.859348 2:0.15908087 3:0.17214336 4:0.27687693 5:0.18414794 6:0.17656307 7:0.54075746 8:0.0035619883 
1 1:-1.0243468 2:-0.78946351 3:-0.99435225 4:-0.81582445 5:-0.79407091 6:-0.68777145 7:-0.68789269 8:-1.1825617 
1 1:-0.063115181 2:1.3959481 3:1.2726939 4:-0.85874918 5:0.12940586 6:0.49375533 7:-0.53542705 8:0.18056107 
0.53727324502587726 1:1.859348 2:0.69389469 3:-0.94266195 4:3.2914984 5:-0.50829475 6:-0.62076325 7:-0.23236651 8:0.72994784 
1 1:0.89811642 2:-0.28867126 3:-0.5040937 4:0.70651983 5:-0.27380777 6:-0.31138496 7:-0.15285988 8:-0.1067751 
1 1:0.89811642 2:-0.61383983 3:-0.68101309 4:-0.29360656 5:-0.39093487 6:-0.3523466 7:-0.37812865 8:-0.42859162 
1 1:0.89811642 2:-0.21268534 3:1.9978868e-05 4:0.55301942 5:-0.41867448 6:-0.47994732 7:-0.252477 8:0.077120049 
1 1:-0.063115181 2:-0.53052889 3:0.0064146556 4:-0.61168473 5:-0.48296053 6:-0.43936952 7:-0.43931757 8:-0.18952792 
1 1:-1.0243468 2:-0.77304843 3:-1.0279243 4:-0.60456358 5:-0.80047236 6:-0.7027962 7:-0.70278069 8:-1.0170561 
1 1:0.89811642 2:-0.61516362 3:-0.31864808 4:-0.63383943 5:-0.65312266 6:-0.58926062 7:-0.5478597 8:-0.43778637 
1 1:-1.0243468 2:-0.74604298 3:-0.69113799 4:-0.66628024 5:-0.78305266 6:-0.6902116 7:-0.68567118 8:-0.98027707 
1 1:-1.0243468 2:-0.29140711 3:-0.18169542 4:0.68673885 5:-0.62449073 6:-0.55811442 7:-0.55487499 8:-0.3458388 
1 1:0.89811642 2:-0.1717359 3:-0.34742412 4:1.05783 5:-0.21406092 6:-0.1647017 7:0.055650134 8:0.13228859 
1 1:-1.0243468 2:-0.70244594 3:-0.85899826 4:-0.4577887 5:-0.66577037 6:-0.60839799 7:-0.5663333 8:-0.64696711 
1 1:-0.063115181 2:-0.66661518 3:-0.33037165 4:-0.4376121 5:-0.73032801 6:-0.62155835 7:-0.67733078 8:-0.70443434 
1 1:0.89811642 2:-0.43283271 3:0.092742791 4:0.21753398 5:-0.59659594 6:-0.58682047 7:-0.45802501 8:-0.40100734 
1 1:1.859348 2:-0.53710375 3:0.03625648 4:-0.68606122 5:-0.35706539 6:-0.21937206 7:-0.49910343 8:-0.41939686 
1 1:-0.063115181 2:-0.70324022 3:-0.57123781 4:-0.44552449 5:-0.74072551 6:-0.63647344 7:-0.61497264 8:-0.79638192 
1 1:-1.0243468 2:-0.67773507 3:-0.81743286 4:-0.70030353 5:-0.45297072 6:-0.44323538 7:-0.37356871 8:-0.49295492 
1 1:-1.0243468 2:-0.58829055 3:-0.68847355 4:0.098848098 5:-0.71802947 6:-0.6765303 7:-0.57447883 8:-0.59409725 
1 1:-1.0243468 2:-0.78518323 3:-0.94745795 4:-1.0595261 5:-0.77758233 6:-0.66794865 7:-0.70632731 8:-1.1457827 
1 1:-0.063115181 2:-0.60016059 3:-0.74176252 4:-0.70663344 5:-0.2351663 6:-0.2987181 7:-0.14140158 8:-0.13435938 
1 1:-1.0243468 2:-0.78593338 3:-0.95971442 4:-0.83877039 5:-0.79577796 6:-0.69750464 7:-0.70087097 8:-1.1457827 
1 1:0.89811642 2:0.39176018 3:1.0801875 4:0.82124952 5:0.069814203 6:0.34227402 7:-0.43982423 8:0.40353394 
1 1:-1.0243468 2:0.87397515 3:-0.045275648 4:2.2597224 5:0.4955299 6:0.4617866 7:0.94620226 8:1.0241801 
1 1:-1.0243468 2:-0.78699242 3:-0.94799084 4:-0.86250757 5:-0.80613667 6:-0.70638789 7:-0.70905548 8:-1.2009513 
1 1:-1.0243468 2:-0.7465725 3:-0.78812392 4:-0.65520289 5:-0.73994958 6:-0.6423956 7:-0.62339099 8:-0.91591377 
1 1:-1.0243468 2:-0.76978306 3:-0.88404408 4:-0.76755886 5:-0.79333377 6:-0.68977292 7:-0.69073778 8:-1.0262509 
1 1:1.859348 2:0.066944628 3:-0.4577323 4:-0.019046547 5:1.3749337 6:0.87162236 7:1.4298675 8:0.98740105 
1 1:-1.0243468 2:-0.48273984 3:-0.087373936 4:-0.37114801 5:-0.59062125 6:-0.53379516 7:-0.52139646 8:-0.46077327 
1 1:0.89811642 2:2.6918567 3:3.0028536 4:-0.79604347 5:3.0738392 6:4.4264568 7:-0.20999552 8:2.6240679 
1 1:-1.0243468 2:-0.79365553 3:-1.0130034 4:-0.90998192 5:-0.79760141 6:-0.69835458 7:-0.70293659 8:-1.2147434 
1 1:-1.0243468 2:-0.62871047 3:-0.30639161 4:-0.18204183 5:-0.50852753 6:-0.48345675 7:-0.42801516 8:-0.51134444 
1 1:-1.0243468 2:-0.5326911 3:0.048512944 4:-0.63937811 5:-0.64850586 6:-0.58956221 7:-0.55842161 8:-0.31825453 
1 1:0.89811642 2:2.8542425 3:3.3769422 4:1.6029939 5:1.3673683 6:0.88459081 7:1.5472178 8:1.9804349 
1 1:-0.063115181 2:-0.62041468 3:-0.46519275 4:-0.54759435 5:-0.73090996 6:-0.67063556 7:-0.60873683 8:-0.89292687 
1 1:-0.063115181 2:2.2748167 3:2.0836188 4:1.8664765 5:2.0118971 6:2.2011759 7:3.4187413 8:1.4655284 
1 1:-1.0243468 2:-0.65708385 3:-0.53180397 4:-0.5262309 5:-0.62507268 6:-0.56494136 7:-0.51328991 8:-0.85155046 
0.82756505511455902 1:-1.0243468 2:-0.43887804 3:-0.88457697 4:1.1084694 5:-0.76609852 6:-0.69059545 7:-0.65106241 8:-0.26308598 
0.80316588770334818 1:1.859348 2:-0.56662441 3:-0.42948914 4:-0.59862929 5:-0.55966152 6:-0.36950991 7:-0.69272544 8:-0.55042215 
-1 1:-1.0243468 2:-0.74202746 3:-0.95491841 4:-0.665489 5:-0.67275377 6:-0.61286703 7:-0.57401114 8:-0.81477143 
-1 1:-1.0243468 2:-0.72552413 3:-0.67674997 4:-0.75569027 5:-0.77087051 6:-0.67740766 7:-0.67316058 8:-0.89752425 
-1 1:-0.063115181 2:-0.63356439 3:0.089012563 4:-0.78971356 5:-0.63376313 6:-0.47262687 7:-0.6950249 8:-0.64007104 
-1 1:-0.063115181 2:-0.78205024 3:-0.96131309 4:-0.95824752 5:-0.74992032 6:-0.66956628 7:-0.64845117 8:-1.1549775 
-1 1:0.89811642 2:-0.54579668 3:-0.40497621 4:-0.22239503 5:-0.42674418 6:-0.5245829 7:-0.20524072 8:-0.40100734 
-1 1:-0.063115181 2:-0.56785996 3:-0.019696941 4:-0.5586717 5:-0.43287405 6:-0.29260402 7:-0.54731406 8:-0.29526763 
-1 1:0.89811642 2:-0.44090787 3:0.44285134 4:-0.40675377 5:-0.3616046 6:-0.23160023 7:-0.039446023 8:-0.20791744 
-1 1:0.89811642 2:-0.30490983 3:0.050644503 4:-0.72008451 5:-0.61665381 6:-0.51334175 7:-0.43994115 8:-0.30905977 
-1 1:-1.0243468 2:-0.63232885 3:-0.90962278 4:-0.70267724 5:-0.2305883 6:-0.29361846 7:-0.13945288 8:-0.79638192 
-1 1:-1.0243468 2:-0.3964283 3:-0.22326082 4:-0.28648541 5:-0.33316665 6:-0.27231512 7:-0.37582919 8:-0.23550171 
-1 1:0.89811642 2:0.35813575 3:0.33254317 4:0.63372582 5:0.30449517 6:0.25346896 7:0.65007906 8:1.3184123 
-1 1:-1.0243468 2:0.38699451 3:0.41620685 4:1.8229584 5:-0.1272728 6:-0.38330088 7:0.19560517 8:0.61961074 
-1 1:-1.0243468 2:-0.76541453 3:-0.85580092 4:-0.629092 5:-0.77234478 6:-0.68489262 7:-0.67171855 8:-1.0446404 
-1 1:-1.0243468 2:-0.76444375 3:-0.95491841 4:-0.5626279 5:-0.78091884 6:-0.6870586 7:-0.68586605 8:-0.92510853 
-0.52774872076898061 1:0.89811642 2:4.691981 3:2.5243186 4:-0.42574351 5:1.3324125 6:1.2986489 7:0.73741943 8:2.5505098 
-1 1:-1.0243468 2:-0.64940583 3:-0.87338628 4:-0.7723063 5:-0.35718178 6:-0.37299192 7:-0.28096688 8:-0.60329201 
-1 1:-0.063115181 2:-0.78699242 3:-0.88137963 4:-0.88228855 5:-0.79601074 6:-0.69624344 7:-0.6999356 8:-1.173367 
-1 1:1.859348 2:1.3482915 3:0.96721483 4:1.3782819 5:1.4608683 6:1.3025695 7:2.1413739 8:0.90464823 
-1 1:-1.0243468 2:-0.2734476 3:-0.37087127 4:0.52611728 5:-0.022948599 6:-0.36923574 7:0.38521288 8:0.31618375 
-1 1:-0.063115181 2:-0.14751042 3:-0.012769375 4:-0.32842109 5:-0.4381892 6:-0.39599515 7:-0.41102256 8:-0.024022284 
-1 1:-0.063115181 2:-0.31907445 3:-0.20887279 4:0.35520961 5:-0.64020338 6:-0.60332576 7:-0.52217594 8:-0.069996072 
-1 1:0.89811642 2:-0.30027654 3:-0.05966367 4:-0.45343689 5:-0.31555297 6:-0.010094805 7:-0.71318671 8:-0.17113841 
-0.23369171281640908 1:0.89811642 2:1.4471791 3:-0.32131253 4:2.0065259 5:3.3180253 6:0.8578314 7:5.3534025 8:1.5988524 
-1 1:-0.063115181 2:-0.76285519 3:-0.88670852 4:-0.76360267 5:-0.71640001 6:-0.63921518 7:-0.61887003 8:-0.83316095 
-1 1:-0.063115181 2:-0.5478265 3:-0.62239522 4:0.26817329 5:-0.6434623 6:-0.6368847 7:-0.48101957 8:-0.24929384 
-1 1:1.859348 2:0.21203273 3:0.30696446 4:1.2050005 5:0.3435246 6:-0.53612564 7:1.3587403 8:0.76672687 
-1 1:1.859348 2:-0.44646781 3:0.01813823 4:-0.10529162 5:-0.1574178 6:-0.17862975 7:0.035851425 8:-0.35503356 
-1 1:-1.0243468 2:-0.64993535 3:-0.44387716 4:-0.30705763 5:-0.6561876 6:-0.51114836 7:-0.43682324 8:-0.62168153 
-1 1:-1.0243468 2:-0.78116771 3:-0.94372772 4:-0.73116186 5:-0.80004559 6:-0.69440647 7:-0.71384926 8:-1.173367 
-1 1:-1.0243468 2:-0.29573151 3:-0.030354735 4:-0.63186133 5:-0.70980458 6:-0.57843074 7:-0.53246503 8:-0.53203264 
-1 1:-1.0243468 2:-0.78765432 3:-0.86805738 4:-0.96695115 5:-0.78669955 6:-0.68376851 7:-0.70215711 8:-1.1503801 
-1 1:-1.0243468 2:-0.50656818 3:-0.84887335 4:0.091726945 5:-0.50084579 6:-0.69956095 7:-0.10538975 8:-0.39640997 
-1 1:0.89811642 2:-0.15289386 3:0.294708 4:-0.074433294 5:-0.30674613 6:-0.20950178 7:-0.0080331126 8:-0.042411799 
-1 1:-1.0243468 2:-0.72662729 3:-0.98689179 4:-0.40912749 5:-0.74375165 6:-0.6584348 7:-0.64619068 8:-0.93890066 
-1 1:-1.0243468 2:-0.65209755 3:-0.38046329 4:-0.50882363 5:-0.68478073 6:-0.67277412 7:-0.51301709 8:-0.83316095 
-1 1:-1.0243468 2:-0.59032037 3:0.16801346 4:-0.29499123 5:-0.73707862 6:-0.65330774 7:-0.64576197 8:-0.47916278 
-0.087105177171240514 1:-1.0243468 2:-0.43689235 3:0.01707245 4:-0.5040762 5:-0.012124332 6:-0.040637823 7:-0.06014113 8:-0.19872268 
-1 1:0.89811642 2:-0.65761337 3:-0.65490149 4:-0.22951618 5:-0.741967 6:-0.6257258 7:-0.69479106 8:-0.75960289 
-1 1:1.859348 2:0.74159549 3:1.0951084 4:1.2342764 5:0.65269514 6:0.99620717 7:1.7058802 8:0.88625871 
-1 1:0.89811642 2:-0.42678737 3:-0.54832355 4:-0.15197474 5:0.26426304 6:0.059079374 7:0.35341023 8:0.0035619883 
-0.73160429764167867 1:1.859348 2:0.24817238 3:0.089545453 4:0.64163821 5:0.7216756 6:-0.45716344 7:2.0062516 8:0.88166134 
-1 1:1.859348 2:0.43743116 3:0.79136122 4:-0.58873879 5:0.70929946 6:1.3881942 7:-0.64178664 8:0.90005085 
-0.38100393348173994 1:1.859348 2:2.7771975 3:0.84358441 4:2.7740279 5:3.479497 6:3.0343368 7:4.6030782 8:2.430978 
-1 1:-1.0243468 2:1.6283627 3:1.0274314 4:1.686074 5:0.98203995 6:0.91321461 7:1.5879064 8:0.70236356 
-0.41821976836946395 1:0.89811642 2:0.44674187 3:1.6407874 4:-0.27540806 5:1.100137 6:1.4912015 7:-0.0029665141 8:0.96901153 
-1 1:-1.0243468 2:-0.47263486 3:-0.28667469 4:-0.038827528 5:-0.51015699 6:-0.4671708 7:-0.37430921 8:-0.4745654 
-0.48575742033681596 1:-1.0243468 2:0.27151533 3:-0.45027184 4:0.069572247 5:2.0199281 6:1.3149074 7:2.0956186 8:1.4287494 
-1 1:0.89811642 2:-0.59773363 3:-0.5456591 4:-0.33791596 5:-0.63446147 6:-0.5340145 7:-0.60916554 8:-0.69523959 
-0.39305717321049544 1:-1.0243468 2:2.5562558 3:1.0455496 4:2.4330038 5:2.8419516 6:2.8306527 7:4.3135416 8:1.8563056 
-1 1:0.89811642 2:0.047926084 3:0.17480781 4:0.80463349 5:0.06857271 6:-0.19576565 7:0.32250398 8:0.61961074 
-1 1:-1.0243468 2:-0.61039795 3:-0.51208705 4:-0.6694452 5:-0.54449203 6:-0.38193001 7:-0.64459276 8:-0.53892871 
-0.43552090962365242 1:1.859348 2:3.195429 3:3.4302311 4:2.0096908 5:2.3180028 6:3.2246686 7:-0.020231923 8:2.5551072 
-1 1:0.89811642 2:-0.52342452 3:-0.68527621 4:-0.28885913 5:-0.18740762 6:-0.27522136 7:-0.07884857 8:0.13228859 
-1 1:-1.0243468 2:-0.64146305 3:-0.70552602 4:-0.40912749 5:-0.62274488 6:-0.53697558 7:-0.58141617 8:-0.67685007 
-1 1:-0.063115181 2:-0.78187374 3:-0.86326138 4:-0.85696889 5:-0.79453647 6:-0.69956095 7:-0.69545361 8:-1.1273932 
-0.82247647684417957 1:-1.0243468 2:0.7623791 3:0.64481655 4:-0.86962872 5:1.3646526 6:2.1763357 7:-0.44543646 8:1.2724385 
-0.81275135393941211 1:-0.063115181 2:1.2717319 3:0.75778917 4:-0.27303434 5:3.2939714 6:3.6136122 7:1.3877368 8:2.3482252 
-0.54327280709724812 1:0.89811642 2:0.38055204 3:0.22330077 4:0.45411451 5:2.7338641 6:1.6201731 7:3.0960769 8:1.9804349 
-0.55492905170001305 1:-0.063115181 2:3.2338191 3:3.7989908 4:0.38448546 5:3.4966839 6:2.6554827 7:3.156993 8:2.6240679 
-1 1:-0.063115181 2:-0.34206439 3:-0.04154542 4:-0.33316852 5:-0.375455 6:-0.17117221 7:-0.60456663 8:-0.14355413 
-1 1:0.89811642 2:-0.20496319 3:0.1598869 4:-0.19232794 5:-0.34123635 6:-0.1629744 7:0.058105485 8:-0.18952792 
-0.70102497996719526 1:-1.0243468 2:1.1649898 3:2.0718952 4:0.97554117 5:1.5990619 6:1.4140488 7:1.1091129 8:1.3184123 
-1 1:-1.0243468 2:-0.6231064 3:-0.16837317 4:-0.2097352 5:-0.66061042 6:-0.58643663 7:-0.5871843 8:-0.60329201 
-0.0071380453295379299 1:-1.0243468 2:0.64341391 3:1.5363411 4:0.90037344 5:-0.037148175 6:-0.0086416809 7:0.2774892 8:0.42652084 
-1 1:-1.0243468 2:-0.65959906 3:-0.83288666 4:-0.68052255 5:-0.41460083 6:-0.42439961 7:-0.32325349 8:-0.32744928 
-0.41126257871047983 1:-1.0243468 2:1.692611 3:1.8848509 4:-0.36877429 5:1.5560365 6:2.3266654 7:-0.27461414 8:1.483918 
-0.45269387643444597 1:-0.063115181 2:0.79481211 3:0.64907966 4:-0.67498387 5:1.5374917 6:2.4955842 7:-0.55199093 8:1.3827756 
-0.36736986807502281 1:-1.0243468 2:2.3898546 3:0.59952092 4:3.5225403 5:1.266303 6:2.1400898 7:3.3319076 8:1.557476 
-1 1:-1.0243468 2:-0.71806674 3:-0.52700796 4:-0.50803239 5:-0.7327722 6:-0.63085286 7:-0.60698301 8:-0.80557668 
-1 1:-0.063115181 2:-0.76995957 3:-0.8877743 4:-0.76993258 5:-0.79399332 6:-0.6942968 7:-0.69716846 8:-1.0446404 
-0.53548481916715374 1:1.859348 2:3.4602765 3:1.6402546 4:4.7418399 5:1.6736679 6:2.2634683 7:0.051557881 8:2.3620173 
-1 1:-1.0243468 2:-0.46548636 3:-0.071387244 4:-0.51040611 5:-0.55853642 6:-0.47794585 7:-0.53632344 8:-0.20791744 
-1 1:0.89811642 2:-0.28911253 3:-0.26749066 4:-0.4154574 5:0.26895743 6:0.093296328 7:0.31420255 8:0.35296278 
-1 1:0.89811642 2:-0.61767884 3:-0.16677451 4:-0.26274823 5:-0.55609223 6:-0.57870491 7:-0.3881839 8:-0.54812347 
-1 1:-0.063115181 2:-0.20174195 3:0.064499636 4:-0.020629026 5:-0.65277349 6:-0.64672756 7:-0.48573541 8:-0.4102021 
-1 1:-0.063115181 2:-0.72261178 3:-0.78972259 4:-0.82373685 5:-0.68609982 6:-0.54643459 7:-0.69525874 8:-0.86074522 
-1 1:-0.063115181 2:-0.59610095 3:-0.54725777 4:-0.1915367 5:-0.4636398 6:-0.63976353 7:-0.11563987 8:-0.47916278 
-1 1:0.89811642 2:-0.42608134 3:0.30962891 4:-0.59823367 5:-0.14430454 6:-0.13810679 7:-0.18715686 8:-0.010230148 
-1 1:1.859348 2:0.08931679 3:0.57287643 4:-0.34661959 5:0.072529969 6:0.029468548 7:0.01028459 8:0.49548152 
-1 1:-1.0243468 2:-0.52929335 3:-0.43535093 4:-0.80395587 5:-0.54092274 6:-0.54753129 7:-0.40201961 8:-0.7779924 
-1 1:-1.0243468 2:-0.675617 3:-0.41510112 4:-0.56025418 5:-0.62414156 6:-0.55150682 7:-0.56356615 8:-0.64007104 
-0.85063426316833091 1:0.89811642 2:2.7347036 3:2.4800888 4:-0.66707148 5:2.5299489 6:3.4236369 7:0.12276308 8:2.5413151 
-0.56396368662162699 1:-1.0243468 2:0.25187901 3:0.40395039 4:0.8995822 5:0.52866224 6:0.21190414 7:0.66738344 8:0.55524744 
-0.84308898691141865 1:-1.0243468 2:3.0517088 3:3.0918462 4:2.3966068 5:1.3188337 6:1.398037 7:2.2770808 8:1.7597607 
-1 1:0.89811642 2:0.24940792 3:0.028263134 4:1.0602038 5:0.4792353 6:0.4617866 7:0.94620226 8:0.38974181 
-1 1:-0.063115181 2:-0.77697569 3:-0.836084 4:-0.85617766 5:-0.75667093 6:-0.66430213 7:-0.66949704 8:-1.0078613 
