svm_type c_svc
kernel_type rbf
gamma 0.050000000000000003
nr_class 2
total_sv 124
rho -0.87580782651283151
label 0 1
probA -1.087954541639776
probB 0.16805544313673737
nr_sv 59 65
SV
7.150679197220053 1:1.6028765 2:-0.37240236 3:0.2767311 4:-0.082645811 5:-0.37330288 6:-0.40233737 7:-0.25695705 8:0.10566209 
10 1:0.69421932 2:-0.41690998 3:0.214824 4:-0.19789557 5:-0.46179307 6:-0.42800259 7:-0.39018485 8:-0.17796243 
10 1:-1.1230951 2:-0.63582536 3:-0.84993403 4:-0.84608672 5:-0.63603542 6:-0.54365014 7:-0.56856358 8:-1.0187065 
10 1:-0.21443788 2:-0.29684292 3:0.1994023 4:-0.29870953 5:-0.35652528 6:-0.26362194 7:-0.2233652 8:-0.53249308 
10 1:-0.21443788 2:-0.43308281 3:-0.85411992 4:0.74398131 5:-0.47245383 6:-0.50041988 7:-0.32077615 8:-0.39574554 
10 1:-1.1230951 2:-0.31741475 3:0.4272028 4:0.27493609 5:-0.36945802 6:-0.29157634 7:-0.38633183 8:-0.28432162 
10 1:-1.1230951 2:-0.11389591 3:0.93457664 4:0.53265064 5:-0.45346252 6:-0.46916378 7:-0.32392369 8:0.065144301 
10 1:-1.1230951 2:-0.43334157 3:-0.52255343 4:-0.33302414 5:-0.5150969 6:-0.44261811 7:-0.47147823 8:-0.643917 
10 1:0.69421932 2:-0.025010052 3:-0.62301478 4:1.8199218 5:0.07497359 6:-0.23337837 7:0.36994622 8:0.37409244 
10 1:-1.1230951 2:-0.59487576 3:-0.84090132 4:-0.6678874 5:-0.63492857 6:-0.54576322 7:-0.56758675 8:-1.0339007 
10 1:-1.1230951 2:-0.26365628 3:0.18992897 4:0.41905745 5:-0.41798489 6:-0.47369812 7:-0.25223574 8:-0.056409065 
10 1:-1.1230951 2:-0.60199181 3:-0.60384781 4:-0.70859163 5:-0.59665467 6:-0.50623087 7:-0.54501129 8:-0.89208845 
6.4777328343087266 1:-0.21443788 2:-0.62010537 3:-0.87593061 4:-0.70409523 5:-0.60440266 6:-0.52608509 7:-0.53497172 8:-0.88702373 
10 1:-0.21443788 2:-0.17755215 3:0.92201897 4:0.67440548 5:-0.60428615 6:-0.51023693 7:-0.52737421 8:-0.015891276 
10 1:-0.21443788 2:0.017750901 3:-0.9243988 4:0.30688417 5:0.34900771 6:-0.5255128 7:1.2406211 8:0.44499857 
10 1:0.69421932 2:-0.33041771 3:-0.39543459 4:-0.22948868 5:-0.29914356 6:-0.28787843 7:-0.25988752 8:-0.10199158 
10 1:-1.1230951 2:-0.63026191 3:-0.78538322 4:-0.85247634 5:-0.6284622 6:-0.53704673 7:-0.56628432 8:-0.87689428 
10 1:-1.1230951 2:-0.63750733 3:-0.80504588 4:-0.90507235 5:-0.63603542 6:-0.54453059 7:-0.57116844 8:-0.99338292 
10 1:1.6028765 2:-0.42861911 3:-0.021348277 4:-0.23812649 5:-0.29809496 6:-0.15572239 7:-0.42084624 8:0.03475596 
10 1:-1.1230951 2:1.5319156 3:0.72858682 4:0.51632162 5:1.3821699 6:1.5487473 7:0.60850809 8:0.36396299 
10 1:-0.21443788 2:0.81785297 3:1.5970487 4:0.93756304 5:0.41833181 6:0.15877555 7:0.52623789 8:1.1388657 
10 1:-1.1230951 2:-0.61163081 3:-0.86050891 4:-0.68516303 5:-0.61308273 6:-0.52916668 7:-0.54734481 8:-0.91741207 
10 1:-1.1230951 2:-0.50074991 3:-0.70899074 4:-0.23818566 5:-0.58098392 6:-0.52216707 7:-0.49617014 8:-0.79712488 
10 1:-1.1230951 2:-0.63155573 3:-0.89663974 4:-0.76657149 5:-0.62502512 6:-0.54536702 7:-0.54962406 8:-1.0187065 
10 1:-1.1230951 2:-0.63097351 3:-0.90567245 4:-0.77816746 5:-0.63090893 6:-0.54052453 7:-0.56471055 8:-1.0187065 
10 1:-1.1230951 2:-0.48295981 3:-0.0039437903 4:-0.17115384 5:-0.5959556 6:-0.49430072 7:-0.50772921 8:-0.49197529 
10 1:-1.1230951 2:-0.13226824 3:-0.45579952 4:1.3527698 5:-0.29710462 6:-0.40819239 7:-0.10777448 8:-0.017157457 
10 1:0.69421932 2:-0.47435586 3:-0.76533501 4:-0.76515157 5:-0.095598666 6:-0.13045337 7:-0.074725301 8:0.2373449 
10 1:-1.1230951 2:-0.61402439 3:-0.57322472 4:-0.72397404 5:-0.62700581 6:-0.54237348 7:-0.5570045 8:-0.88702373 
10 1:-1.1230951 2:-0.6250866 3:-0.82063281 4:-0.86856871 5:-0.63533635 6:-0.54184521 7:-0.57317635 8:-1.0237713 
10 1:-0.21443788 2:-0.60179773 3:-0.77436772 4:-0.32663452 5:-0.55651659 6:-0.48355919 7:-0.49817806 8:-0.7300173 
10 1:-0.21443788 2:-0.067771005 3:0.58164008 4:0.61216588 5:-0.015031238 6:0.15212813 7:-0.27296609 8:0.62226389 
10 1:0.69421932 2:-0.2441842 3:1.2163531 4:-0.047857896 5:-0.3215137 6:-0.29738733 7:-0.26498871 8:0.075273748 
10 1:-1.1230951 2:0.74106439 3:0.2502939 4:-0.13565597 5:0.1411519 6:0.40230895 7:-0.2903861 8:-0.1070563 
10 1:-0.21443788 2:0.22993838 3:1.2283049 4:-0.6929134 5:-0.43202448 6:-0.34546008 7:-0.3242493 8:-0.10452394 
10 1:-0.21443788 2:-0.61033699 3:-0.52453622 4:-0.763495 5:-0.60166465 6:-0.52872645 7:-0.52661446 8:-0.72495257 
10 1:0.69421932 2:-0.4026132 3:0.57723388 4:-0.16405427 5:-0.50117382 6:-0.43526633 7:-0.4546009 8:0.044885407 
10 1:-1.1230951 2:-0.63841301 3:-0.82046758 4:-0.87276929 5:-0.63539461 6:-0.5420213 7:-0.56655566 8:-1.0452963 
10 1:-1.1230951 2:-0.5358126 3:-0.26787512 4:-0.85791934 5:-0.57247861 6:-0.48043358 7:-0.53176991 8:-0.85157066 
10 1:0.69421932 2:-0.37641322 3:-0.38485971 4:0.060055636 5:-0.2942501 6:-0.28977141 7:-0.24843698 8:-0.25393328 
10 1:0.69421932 2:-0.010066361 3:-0.35842251 4:-0.23339344 5:1.1189713 6:0.78134412 7:1.0641417 8:1.0173123 
10 1:0.69421932 2:-0.17108302 3:-0.035888734 4:1.1557566 5:-0.080160945 6:-0.053941977 7:0.035113014 8:0.7539467 
10 1:1.6028765 2:-0.34109177 3:-0.58732456 4:-0.36142244 5:0.23756484 6:0.13350654 7:0.22060084 8:1.4326197 
10 1:0.69421932 2:-0.25440542 3:-0.30797153 4:0.91082131 5:0.009319583 6:-0.31376376 7:0.34671954 8:0.31331576 
10 1:-1.1230951 2:1.4069967 3:-0.85654333 4:2.0353939 5:1.1637699 6:-0.47986129 7:2.7023281 8:1.1540599 
10 1:0.69421932 2:-0.18402128 3:-0.15177177 4:-0.55240099 5:0.2497985 6:0.35392804 7:-0.02832621 8:-0.31470997 
10 1:-0.21443788 2:-0.48625906 3:-0.64724887 4:-0.13802249 5:-0.49995045 6:-0.48043358 7:-0.39664274 8:-0.46158695 
2.483971496738111 1:-0.21443788 2:-0.50113806 3:-0.30995432 4:-0.63996241 5:-0.55587578 6:-0.42857488 7:-0.56476482 8:-0.88702373 
0.41052646128162346 1:1.6028765 2:-0.13828453 3:-0.15044991 4:1.4889633 5:0.23080719 6:-0.34625249 7:0.79942271 8:0.52096942 
10 1:-1.1230951 2:-0.62851524 3:-0.83693575 4:-0.91921234 5:-0.63848215 6:-0.54717195 7:-0.57247087 8:-1.0440302 
2.0360893205247965 1:1.6028765 2:0.2134421 3:0.67659367 4:-0.32663452 5:0.7713022 6:0.67348859 7:0.54935604 8:-0.12731519 
10 1:-1.1230951 2:-0.41619838 3:0.36573632 4:-0.043834804 5:-0.48690121 6:-0.48967834 7:-0.36093443 8:-0.096926853 
10 1:-1.1230951 2:-0.63860709 3:-0.82250544 4:-0.94595407 5:-0.636851 6:-0.54554311 7:-0.57143978 8:-1.0769509 
10 1:-0.21443788 2:-0.58814787 3:-0.63997864 4:-0.65226834 5:-0.58313938 6:-0.49148327 7:-0.53801072 8:-0.84523976 
10 1:-1.1230951 2:-0.63821894 3:-0.8485571 4:-0.955361 5:-0.62135502 6:-0.53075149 7:-0.56080326 8:-0.9553975 
10 1:-0.21443788 2:-0.33501079 3:0.066114777 4:-0.26628814 5:-0.029070826 6:0.095382912 7:-0.22917187 8:0.19429475 
10 1:-0.21443788 2:-0.45960624 3:0.21394276 4:-0.11080746 5:-0.50979564 6:-0.43698321 7:-0.43707235 8:-0.41600444 
4.1931265134921452 1:-0.21443788 2:2.883317 3:0.26285157 4:4.7561875 5:1.0520357 6:0.92410964 7:0.76344307 8:1.7668914 
10 1:-0.21443788 2:-0.11253739 3:-0.16168572 4:-0.47548893 5:-0.0812678 6:0.040970895 7:-0.25934484 8:-0.31977469 
-10 1:-0.21443788 2:-0.51491731 3:-0.60318688 4:-0.4248453 5:-0.43715097 6:-0.49874701 7:-0.25706559 8:-0.50210474 
-10 1:0.69421932 2:-0.40597715 3:0.092111352 4:-0.36994192 5:-0.39852754 6:-0.28580937 7:-0.44760033 8:-0.32990414 
-10 1:-1.1230951 2:-0.63880116 3:-0.8155106 4:-0.90459905 5:-0.63446252 6:-0.54391427 7:-0.56888918 8:-1.0617567 
-10 1:-1.1230951 2:-0.6265745 3:-0.80653297 4:-0.85673608 5:-0.61832573 6:-0.52467637 7:-0.56264837 8:-0.98325348 
-10 1:-0.21443788 2:-0.21617286 3:-0.45403704 4:-0.296343 5:-0.0046617494 6:-0.021453248 7:-0.03966821 8:-0.34003358 
-10 1:-1.1230951 2:-0.62987376 3:-0.83054676 4:-0.72255412 5:-0.62875348 6:-0.53475756 7:-0.55760145 8:-0.93767096 
-0.85584920074706194 1:0.69421932 2:1.6826463 3:2.8931322 4:0.64103748 5:0.4255555 6:0.99406165 7:-0.4899836 8:1.5744319 
-10 1:-1.1230951 2:-0.45740674 3:0.21526462 4:-0.56186709 5:-0.55861379 6:-0.49205557 7:-0.49161163 8:-0.19822132 
-10 1:-0.21443788 2:-0.3430972 3:0.53537499 4:0.068338473 5:-0.30432831 6:-0.24183072 7:-0.19650256 8:0.27786269 
-10 1:1.6028765 2:-0.016729565 3:0.22209423 4:1.2520742 5:-0.071655634 6:-0.21180726 7:0.070170105 8:0.66278168 
-7.3228210515997736 1:0.69421932 2:0.35763902 3:0.20997718 4:0.37480344 5:1.9875616 6:1.0896349 7:2.3023734 8:1.3009368 
-10 1:-0.21443788 2:-0.3103634 3:0.072503765 4:0.14383061 5:-0.24170359 6:-0.080487646 7:-0.40852741 8:0.0043676182 
-10 1:-1.1230951 2:-0.48360672 3:-0.23615049 4:-0.44851055 5:-0.44099583 6:-0.35628966 7:-0.43984002 8:-0.49197529 
-1.7674824611525637 1:-1.1230951 2:0.63322398 3:1.9786255 4:0.51632162 5:1.4871464 6:2.5042593 7:-0.37379593 8:2.3999819 
-3.6420766761776187 1:-1.1230951 2:2.3245782 3:0.89602239 4:0.19494755 5:0.44827517 6:0.60569368 7:0.84826386 8:1.1084774 
-10 1:-0.21443788 2:-0.49990893 3:-0.79155189 4:-0.48850482 5:-0.4128584 6:-0.39172791 7:-0.34373149 8:-0.54515489 
-10 1:-0.21443788 2:-0.47351487 3:-0.42032961 4:-0.39171395 5:-0.49616384 6:-0.45652928 7:-0.4190554 8:-0.4717164 
-10 1:-1.1230951 2:-0.59099429 3:-0.51175825 4:-0.7152179 5:-0.58185776 6:-0.48074174 7:-0.54886431 8:-0.66924061 
-10 1:1.6028765 2:-0.38825173 3:0.021171545 4:-0.56683679 5:-0.17424366 6:0.12892819 7:-0.54099546 8:0.61213445 
-10 1:-0.21443788 2:0.54000381 3:1.6137922 4:0.56885847 5:0.03541807 6:0.24321103 7:0.40142162 8:0.25253907 
-4.0981773774100434 1:1.6028765 2:1.1466789 3:0.4294059 4:3.6141026 5:0.45200352 6:0.55880954 7:0.7904685 8:1.169254 
-10 1:-0.21443788 2:0.20548507 3:-0.62202338 4:0.94797575 5:-0.44373384 6:-0.45261126 7:-0.32620295 8:-0.2792569 
-10 1:0.69421932 2:-0.22762322 3:0.32916487 4:-0.70646175 5:-0.52715579 6:-0.4253172 7:-0.51527246 8:-0.19822132 
-10 1:-1.1230951 2:0.081924676 3:0.87993977 4:0.58897393 5:-0.012351482 6:-0.060985604 7:-0.005262335 8:-0.12731519 
-10 1:-0.21443788 2:-0.6035444 3:-0.51528321 4:-0.70811832 5:-0.6116846 6:-0.52722968 7:-0.54712774 8:-0.80092343 
-10 1:0.69421932 2:0.099197255 3:1.8030385 4:0.55110954 5:-0.19061347 6:-0.11777485 7:-0.043575502 8:0.36396299 
-10 1:1.6028765 2:0.038904958 3:-0.33727276 4:0.26452338 5:0.80369229 6:0.52337129 7:0.79475567 8:1.1439304 
-1.8730842479601364 1:-1.1230951 2:4.9319613 3:1.4362224 4:-0.22156082 5:4.7806823 6:6.2933343 7:1.0914928 8:1.847927 
-10 1:-0.21443788 2:-0.4881998 3:-0.44390278 4:-0.29066334 5:-0.40359577 6:-0.46982412 7:-0.23020296 8:-0.30964524 
-1.5017999199620613 1:-1.1230951 2:4.5442016 3:4.1409678 4:3.891696 5:3.2748345 6:3.2460853 7:4.1031465 8:2.4253055 
-10 1:-1.1230951 2:-0.38495248 3:-0.86094953 4:-0.00029074734 5:-0.56723561 6:-0.49236373 7:-0.50534142 8:-0.56288142 
-10 1:-1.1230951 2:-0.44317465 3:-0.4201093 4:-0.039811712 5:-0.40796494 6:-0.31165068 7:-0.43332786 8:-0.26912745 
-2.7549209589284747 1:-1.1230951 2:0.34774125 3:-0.16234665 4:1.0416901 5:0.48625779 6:-0.48681687 7:1.4486301 8:0.70329947 
-1.3198225884682926 1:-0.21443788 2:0.05190791 3:-0.30576843 4:0.20607022 5:1.1658671 6:0.81524158 7:1.1097268 8:1.0173123 
-0.99563877609297635 1:-0.21443788 2:2.5271913 3:4.2876942 4:2.1537201 5:0.57253426 6:-0.085726344 7:1.1149365 8:2.3189463 
-0.30239192462462011 1:1.6028765 2:3.4498834 3:4.758056 4:1.5244612 5:3.6352616 6:3.7211779 7:2.1282275 8:3.0482665 
-10 1:-0.21443788 2:-0.15730377 3:0.21107873 4:-0.11435724 5:-0.54183619 6:-0.4932882 7:-0.4588338 8:0.055014854 
-10 1:-1.1230951 2:-0.6281271 3:-0.80322832 4:-0.74101302 5:-0.62152979 6:-0.53524181 7:-0.55559354 8:-0.93767096 
-10 1:0.69421932 2:-0.43877564 3:0.027340224 4:-0.67853676 5:-0.26815161 6:-0.18068324 7:-0.33428887 8:-0.1070563 
-8.6024772815407342 1:-1.1230951 2:-0.37725421 3:-0.60979618 4:1.0054823 5:-0.4327818 6:-0.53246838 7:-0.20735615 8:0.019561789 
-10 1:0.69421932 2:-0.20258769 3:0.084620813 4:1.4182042 5:-0.24042197 6:-0.20317882 7:-0.25489487 8:0.33863937 
-10 1:-0.21443788 2:1.0451135 3:0.12229382 4:0.86230755 5:0.23465206 6:0.51786846 7:0.73999932 8:0.065144301 
-10 1:0.69421932 2:-0.33843943 3:-0.094711493 4:-0.14512207 5:-0.2727538 6:-0.37143346 7:-0.10772021 8:0.065144301 
-10 1:-0.21443788 2:-0.6132481 3:-0.80014398 4:-0.6056478 5:-0.60271325 6:-0.52731773 7:-0.53030468 8:-0.85663539 
-10 1:-0.21443788 2:0.14215228 3:0.21350214 4:0.51726823 5:0.16439586 6:0.38549229 7:-0.22634993 8:0.18163294 
-10 1:0.69421932 2:-0.47519685 3:0.12339537 4:-0.36094913 5:-0.40767366 6:-0.3707291 7:-0.3553991 8:-0.41093971 
-3.1511988830590489 1:-1.1230951 2:-0.37777174 3:0.065894467 4:-0.46957262 5:-0.27496751 6:-0.24680529 7:-0.26547712 8:-0.16783298 
-10 1:-1.1230951 2:-0.57831479 3:-0.43487007 4:-0.64114567 5:-0.58954749 6:-0.49011857 7:-0.55163198 8:-0.7097584 
-10 1:-1.1230951 2:-0.37240236 3:0.54947483 4:-0.40212666 5:-0.18979789 6:-0.13511978 7:-0.24447542 8:-0.13744464 
-10 1:0.69421932 2:-0.46969809 3:-0.2451832 4:-0.37301841 5:-0.40371228 6:-0.29478999 7:-0.44618937 8:0.24747435 
-10 1:-1.1230951 2:-0.63711919 3:-0.79705964 4:-0.90004349 5:-0.62403478 6:-0.52674543 7:-0.57073429 8:-0.99844765 
-10 1:-1.1230951 2:-0.60781403 3:-0.77965516 4:-0.79899288 5:-0.50898006 6:-0.44891335 7:-0.45232164 8:-0.38055137 
-10 1:-1.1230951 2:-0.51970447 3:-0.11894559 4:-0.53133892 5:-0.42713101 6:-0.32688252 7:-0.45025946 8:-0.35016303 
-10 1:-0.21443788 2:-0.61493007 3:-0.72369643 4:-0.52542261 5:-0.60743194 6:-0.5150354 7:-0.55423684 8:-0.85157066 
-10 1:-1.1230951 2:-0.63375524 3:-0.73911812 4:-0.86052252 5:-0.62624849 6:-0.53475756 7:-0.56498189 8:-0.94780041 
-10 1:-1.1230951 2:-0.36683891 3:-0.57190286 4:0.68742137 5:-0.43144192 6:-0.33075651 7:-0.45351554 8:-0.17796243 
-10 1:-1.1230951 2:-0.49693313 3:-0.50823329 4:-0.32237478 5:-0.51556294 6:-0.43104015 7:-0.48661898 8:-0.76547036 
-10 1:0.69421932 2:-0.44369218 3:-0.49391314 4:-0.41253937 5:-0.030876748 6:-0.067280846 7:-0.032016431 8:0.29812158 
-10 1:-1.1230951 2:-0.61732365 3:-0.63182717 4:-0.73154692 5:-0.61919957 6:-0.52855036 7:-0.54994967 8:-0.93767096 
-10 1:-1.1230951 2:-0.58361948 3:-0.20574771 4:-0.59570839 5:-0.5660705 6:-0.50733143 7:-0.48667325 8:-0.49197529 
-4.5643844758420435 1:-1.1230951 2:0.75167376 3:-0.20398523 4:2.5441967 5:0.40079689 6:0.3126788 7:0.48705644 8:1.0173123 
-10 1:-1.1230951 2:-0.63731326 3:-0.84288411 4:-0.89531044 5:-0.62799615 6:-0.53510974 7:-0.56780383 8:-0.95286513 
-10 1:-1.1230951 2:-0.61939377 3:-0.85874643 4:-0.61890034 5:-0.59036307 6:-0.53854351 7:-0.49345674 8:-0.76547036 
-10 1:-1.1230951 2:1.2284487 3:-0.57388565 4:1.8988454 5:1.2461432 6:-0.37143346 7:2.7221359 8:1.133801 
-10 1:-0.21443788 2:-0.48677659 3:-0.56000613 4:-0.30935889 5:-0.41309142 6:-0.51657619 7:-0.19026175 8:-0.50716946 
