svm_type c_svc
kernel_type rbf
gamma 2.9999999999999999e-07
nr_class 2
total_sv 28
rho 3.8252607619608585
label 1 0
probA -1.3564420101749295
probB -0.10026757742898373
nr_sv 14 14
SV
700 1:32 2:40 3:48 4:319 5:1 6:7 7:12 8:9 
572.38178464844225 1:27 2:32 3:46 4:364 5:1 6:52 7:0 8:9 
700 1:32 2:62 3:65 4:742 5:3 6:14 7:32 8:9 
385.87353777136951 1:37 2:30 3:10 4:467 5:14 6:0 7:91 8:11 
700 1:32 2:25 3:40 4:356 5:3 6:46 7:3 8:3 
700 1:22 2:29 3:37 4:200 5:9 6:9 7:0 8:5 
700 1:27 2:24 3:26 4:156 5:4 6:1 7:4 8:9 
283.2540955523931 1:37 2:165 3:151 4:1312 5:45 6:54 7:45 8:54 
700 1:32 2:66 3:44 4:429 5:60 6:12 7:20 8:29 
700 1:22 2:51 3:50 4:334 5:27 6:29 7:7 8:16 
700 1:22 2:36 3:46 4:280 5:3 6:8 7:1 8:0 
700 1:22 2:32 3:37 4:233 5:1 6:20 7:3 8:1 
700 1:22 2:21 3:20 4:126 5:0 6:0 7:5 8:1 
560.63786877011557 1:32 2:89 3:88 4:684 5:56 6:44 7:36 8:12 
-700 1:32 2:31 3:33 4:203 5:10 6:17 7:17 8:5 
-561.3988446009273 1:37 2:54 3:26 4:283 5:5 6:0 7:0 8:1 
-700 1:32 2:44 3:31 4:227 5:11 6:12 7:5 8:3 
-700 1:37 2:2 3:6 4:147 5:4 6:21 7:0 8:0 
-700 1:32 2:9 3:11 4:119 5:32 6:40 7:2 8:4 
-700 1:37 2:4 3:14 4:219 5:6 6:40 7:1 8:4 
-700 1:32 2:37 3:47 4:254 5:13 6:6 7:0 8:8 
-700 1:32 2:50 3:50 4:322 5:6 6:5 7:8 8:6 
-700 1:32 2:82 3:128 4:720 5:26 6:8 7:3 8:19 
-700 1:27 2:117 3:136 4:826 5:32 6:24 7:68 8:52 
-700 1:37 2:58 3:49 4:748 5:27 6:2 7:38 8:3 
-270.71656477468656 1:22 2:25 3:22 4:152 5:0 6:4 7:3 8:1 
-700 1:37 2:23 3:51 4:464 5:0 6:6 7:5 8:21 
-270.03187736670623 1:37 2:179 3:45 4:532 5:34 6:1 7:31 8:2 
