svm_type c_svc
kernel_type rbf
gamma 0.01
nr_class 2
total_sv 97
rho -0.81596715202003645
label 0 1
probA -1.256858298650019
probB 0.081092076050958653
nr_sv 47 50
SV
50 1:-1.2101339 2:-0.61753198 3:-0.76766605 4:-0.88034666 5:-0.60839642 6:-0.53287248 7:-0.54441601 8:-0.95627669 
50 1:-0.31488824 2:-0.46048775 3:-0.57705842 4:-0.50325161 5:-0.51445498 6:-0.48623215 7:-0.43406213 8:-0.60913441 
50 1:1.4756031 2:-0.5225352 3:-0.25322556 4:-0.46703776 5:-0.45341521 6:-0.40069415 7:-0.41766454 8:-0.17998116 
50 1:-0.31488824 2:-0.51764476 3:-0.62040524 4:-0.58052111 5:-0.54142991 6:-0.51153407 7:-0.45408792 8:-0.72934225 
50 1:-0.31488824 2:1.1468774 3:1.0016338 4:-0.26149426 5:-0.087564281 6:0.2080728 7:-0.41761742 8:0.088520473 
50 1:1.4756031 2:-0.32178267 3:-0.13857351 4:0.11105747 5:-0.26658475 6:-0.1696125 7:-0.33605355 8:-0.20694367 
50 1:-1.2101339 2:-0.59546388 3:-0.78567556 4:-0.26235649 5:-0.58640659 6:-0.50899927 7:-0.52000811 8:-0.6653063 
50 1:-0.31488824 2:-0.34354513 3:0.45745934 4:0.75627435 5:-0.4728017 6:-0.35474513 7:-0.36229912 8:0.395219 
50 1:0.58035745 2:-0.25105469 3:0.43265752 4:0.80694723 5:-0.13442422 6:-0.058496056 7:-0.059414936 8:0.53003153 
50 1:0.58035745 2:-0.51324337 3:-0.58173695 4:0.010772939 5:-0.53722027 6:-0.47194509 7:-0.48212402 8:-0.57992502 
50 1:-0.31488824 2:-0.53818461 3:-0.38740905 4:-0.507198 5:-0.53949126 6:-0.43867007 7:-0.52528549 8:-0.66193599 
50 1:-0.31488824 2:-0.59460805 3:-0.72942052 4:-0.54768987 5:-0.5780427 6:-0.50208618 7:-0.5260394 8:-0.71473756 
50 1:-1.2101339 2:-0.39654526 3:-0.42187794 4:-0.33756989 5:-0.5326229 6:-0.48415822 7:-0.4670929 8:-0.72372506 
50 1:1.4756031 2:-0.36182314 3:-0.17622718 4:-0.25015256 5:-0.30596704 6:-0.28215765 7:-0.28799166 8:-0.21593117 
50 1:-1.2101339 2:-0.61154119 3:-0.71127009 4:-0.77379434 5:-0.60457451 6:-0.52830984 7:-0.54436889 8:-0.88887042 
50 1:-1.2101339 2:-0.60658962 3:-0.717386 4:-0.75698077 5:-0.6062916 6:-0.52927768 7:-0.54074069 8:-0.9090923 
50 1:-0.31488824 2:-0.55432306 3:-0.69898192 4:-0.52779214 5:-0.53234595 6:-0.47839731 7:-0.47251164 8:-0.64733129 
50 1:-0.31488824 2:-0.61129667 3:-0.80055665 4:-0.80649294 5:-0.58917609 6:-0.51775586 7:-0.52896081 8:-0.62036879 
50 1:-0.31488824 2:-0.48231134 3:-0.001938023 4:0.0010893793 5:-0.54730125 6:-0.48563302 7:-0.49055841 8:-0.36871872 
33.300420421909777 1:1.4756031 2:-0.47491455 3:-0.30643674 4:-0.069348566 5:-0.46338541 6:-0.39838979 7:-0.43698354 8:-0.40017497 
50 1:0.58035745 2:-0.43267338 3:-0.20508748 4:0.0042730152 5:-0.59249949 6:-0.51863151 7:-0.52985608 8:-0.38669372 
50 1:0.58035745 2:-0.34923026 3:0.59950613 4:0.49335909 5:-0.47296787 6:-0.37207395 7:-0.48019212 8:-0.18896867 
5.4380450502805617 1:-1.2101339 2:-0.62370616 3:-0.96469961 4:-1.0818774 5:-0.61077819 6:-0.5357299 7:-0.54733742 8:-1.0787314 
50 1:0.58035745 2:-0.1893129 3:0.03433464 4:0.57689637 5:-0.28425416 6:-0.053242105 7:-0.054043313 8:-0.0080951788 
50 1:-0.31488824 2:0.35114176 3:-0.84959661 4:0.46046151 5:0.26781793 6:-0.50701752 7:0.91812633 8:-0.16649991 
50 1:-0.31488824 2:-0.57253994 3:-0.47041059 4:-0.73506011 5:-0.58402482 6:-0.51365409 7:-0.52439022 8:-0.65182504 
50 1:0.58035745 2:-0.5403853 3:-0.67122079 4:-0.62114563 5:-0.40954633 6:-0.32971973 7:-0.33671323 8:-0.085612388 
50 1:-1.2101339 2:-0.61423094 3:-0.83708297 4:-0.86990035 5:-0.60435295 6:-0.52904724 7:-0.54323802 8:-0.95740013 
47.785672481573691 1:-0.31488824 2:-0.55988593 3:-0.63892206 4:-0.609207 5:-0.57217136 6:-0.50697143 7:-0.5110554 8:-0.82708134 
50 1:-1.2101339 2:-0.55218349 3:-0.34251211 4:-0.3028152 5:-0.59809388 6:-0.5212124 7:-0.54059933 8:-0.59790003 
50 1:-1.2101339 2:-0.060021913 3:-0.632017 4:0.5387259 5:-0.22038949 6:-0.29367947 7:-0.13061251 8:-0.55745627 
50 1:-0.31488824 2:-0.53916269 3:-0.69424703 4:-0.66946394 5:-0.39459103 6:-0.3530399 7:-0.3605557 8:-0.64733129 
30.611017049570755 1:1.4756031 2:1.4461111 3:2.0307966 4:2.091279 5:2.5081771 6:3.933769 7:4.0222651 8:1.7208756 
50 1:0.58035745 2:0.58441571 3:1.4840292 4:1.5529792 5:0.59838543 6:1.2007468 7:1.2280313 8:0.97940666 
50 1:-1.2101339 2:-0.62370616 3:-0.96323404 4:-1.0816785 5:-0.61077819 6:-0.5357299 7:-0.54733742 8:-1.0742377 
50 1:-1.2101339 2:1.9481147 3:2.4489328 4:1.4820107 5:-0.32574126 6:-0.1565698 7:-0.45003564 8:0.85358162 
50 1:1.4756031 2:0.17319091 3:0.084417407 4:-0.32788633 5:0.48832551 6:0.72162343 7:0.037132931 8:0.48958777 
50 1:-1.2101339 2:-0.61514789 3:-0.75391231 4:-0.85680102 5:-0.60695628 6:-0.53236552 7:-0.54427465 8:-0.90684543 
50 1:0.58035745 2:0.062177936 3:0.58369497 4:-0.066994002 5:-0.30713023 6:-0.23952691 7:-0.33355622 8:-0.023823308 
39.37327930938266 1:-1.2101339 2:-0.62370616 3:-0.96469961 4:-1.0818774 5:-0.61077819 6:-0.5357299 7:-0.54733742 8:-1.0787314 
50 1:-0.31488824 2:-0.45089027 3:-0.50279388 4:-0.24176235 5:-0.58330475 6:-0.50715578 7:-0.51812333 8:-0.4990375 
50 1:-1.2101339 2:-0.5584188 3:-0.42083514 4:-0.62306908 5:-0.53334297 6:-0.52443851 7:-0.42713556 8:-0.69900943 
50 1:-1.2101339 2:-0.61514789 3:-0.77065354 4:-0.92823385 5:-0.59200098 6:-0.51849325 7:-0.53301309 8:-0.89448761 
50 1:-1.2101339 2:-0.62174999 3:-0.81600142 4:-0.96395026 5:-0.60989195 6:-0.53457771 7:-0.54615943 8:-0.99784389 
50 1:-1.2101339 2:-0.60206597 3:-0.76436854 4:-0.91990997 5:-0.56906952 6:-0.49936703 7:-0.51355273 8:-0.85404385 
50 1:-1.2101339 2:-0.61306946 3:-0.74182143 4:-0.81252858 5:-0.6051838 6:-0.53001507 7:-0.5436621 8:-0.92145012 
50 1:0.58035745 2:-0.51226528 3:-0.52717294 4:-0.20624491 5:-0.49445919 6:-0.50098008 7:-0.3849636 8:-0.35973121 
-50 1:-1.2101339 2:-0.61258041 3:-0.73268985 4:-0.85318626 5:-0.60119572 6:-0.52761853 7:-0.5393271 8:-0.89898136 
-1.0248187444315313 1:1.4756031 2:1.7443056 3:2.3417213 4:0.46311454 5:2.0309369 6:3.3798459 7:-0.056069451 8:1.6624568 
-50 1:0.58035745 2:-0.36182314 3:-0.10892406 4:-0.68246379 5:-0.44206026 6:-0.36078256 7:-0.36847177 8:-0.090106139 
-50 1:-1.2101339 2:-0.59234622 3:-0.67474378 4:-0.83328854 5:-0.56873718 6:-0.49171654 7:-0.52080914 8:-0.62036879 
-50 1:-1.2101339 2:-0.58843387 3:-0.7217545 4:-0.39514064 5:-0.58435716 6:-0.5052662 7:-0.5335314 8:-0.72372506 
-50 1:1.4756031 2:-0.36102845 3:0.2603976 4:0.41642122 5:-0.3222517 6:-0.13873402 7:-0.14145 8:0.38173774 
-50 1:-1.2101339 2:-0.40406431 3:-0.72891321 4:-0.34705448 5:-0.5160059 6:-0.53102899 7:-0.39090066 8:-0.77315633 
-50 1:-1.2101339 2:-0.58152612 3:-0.67440557 4:-0.80052362 5:-0.5802583 6:-0.50761665 7:-0.52415462 8:-0.77315633 
-50 1:-1.2101339 2:-0.43579104 3:-0.27002316 4:0.039558314 5:-0.52780397 6:-0.44314054 7:-0.50083047 8:-0.41365623 
-50 1:-1.2101339 2:-0.56606011 3:-0.47238347 4:-0.56175092 5:-0.56906952 6:-0.48710781 7:-0.52608652 8:-0.72372506 
-50 1:-1.2101339 2:-0.61282493 3:-0.71101644 4:-0.79100587 5:-0.60834103 6:-0.53384032 7:-0.5451228 8:-0.91246262 
-50 1:1.4756031 2:-0.54882131 3:-0.43695632 4:-0.4739688 5:-0.51412264 6:-0.45982414 7:-0.46049617 8:-0.46982812 
-50 1:-1.2101339 2:-0.59344657 3:-0.39594876 4:-0.72955507 5:-0.59499204 6:-0.51849325 7:-0.538102 8:-0.81360009 
-33.424538665459238 1:-0.31488824 2:-0.019920312 3:0.80716501 4:0.26718828 5:-0.065297503 6:-0.035360238 7:-0.035760944 8:0.17727206 
-50 1:-1.2101339 2:-0.61154119 3:-0.75952091 4:-0.85477808 5:-0.60069721 6:-0.52010631 7:-0.54615943 8:-0.87201886 
-50 1:-0.31488824 2:-0.39984631 3:-0.3129754 4:-0.86817588 5:-0.49861344 6:-0.41322989 7:-0.48174707 8:-0.73271257 
-50 1:0.58035745 2:-0.41250032 3:-0.072735947 4:0.11410846 5:-0.49324061 6:-0.42221691 7:-0.46341758 8:-0.19795617 
-50 1:1.4756031 2:0.32785105 3:0.17584594 4:0.35221789 5:0.24139691 6:-0.14555494 7:0.50361604 8:-0.10808114 
-50 1:-1.2101339 2:-0.6077511 3:-0.81735424 4:-0.72862651 5:-0.59504743 6:-0.52300981 7:-0.53357852 8:-0.76866258 
-50 1:-1.2101339 2:-0.61386415 3:-0.75985911 4:-0.79468695 5:-0.60064182 6:-0.51992196 7:-0.54625367 8:-0.89448761 
-50 1:-0.31488824 2:-0.58018125 3:-0.66941702 4:-0.72547603 5:-0.49174508 6:-0.43419961 7:-0.44862205 8:-0.35523746 
-29.160171858189315 1:-1.2101339 2:-0.19897152 3:-0.24138833 4:-0.1655209 5:-0.19950746 6:-0.19551356 7:-0.19544895 8:-0.26086869 
-50 1:-0.31488824 2:-0.57516855 3:-0.73212617 4:-0.15902098 5:-0.58823446 6:-0.51268625 7:-0.52377767 8:-0.60239378 
-50 1:0.58035745 2:-0.53983513 3:-0.56460114 4:-0.63603576 5:-0.55322798 6:-0.4965557 7:-0.48947467 8:-0.62036879 
-50 1:-1.2101339 2:-0.052074949 3:0.65125174 4:0.51816492 5:-0.45878804 6:-0.34838508 7:-0.48028636 8:-0.10808114 
-50 1:-0.31488824 2:-0.35344827 3:-0.014141646 4:0.66988507 5:-0.4479316 6:-0.40797594 7:-0.40088999 8:-0.282214 
-50 1:-0.31488824 2:-0.41305049 3:-0.3079023 4:-0.38359996 5:-0.26846801 6:-0.19883184 7:-0.30938391 8:-0.20694367 
-50 1:-0.31488824 2:-0.43236773 3:-0.41102714 4:-0.83086765 5:-0.24813988 6:-0.14726017 7:-0.32752492 8:-0.35186715 
-50 1:-1.2101339 2:-0.6129472 3:-0.69233052 4:-0.89404293 5:-0.59820466 6:-0.52734201 7:-0.53452091 8:-0.88100636 
-50 1:-0.31488824 2:-0.42387059 3:-0.53777008 4:-0.25585657 5:-0.44505132 6:-0.39341236 7:-0.40183238 8:-0.23839993 
-50 1:-0.31488824 2:-0.5089031 3:-0.5758747 4:-0.37418171 5:-0.51395647 6:-0.51927674 7:-0.39942929 8:-0.47207499 
-50 1:-1.2101339 2:-0.55970254 3:-0.46311097 4:-0.38688309 5:-0.56729704 6:-0.49079479 7:-0.5013959 8:-0.65070161 
-36.597880944165396 1:1.4756031 2:0.30077024 3:0.37099117 4:0.21014814 5:0.19841427 6:0.21742852 7:0.22268954 8:0.61091906 
-50 1:-1.2101339 2:-0.58647769 3:-0.81194294 4:-0.41928322 5:-0.56940186 6:-0.52748027 7:-0.48537527 8:-0.69226881 
-15.050290418673457 1:0.58035745 2:3.1358801 3:5.1672123 4:2.9759319 5:2.3831619 6:1.6995034 7:2.2611736 8:2.3904445 
-50 1:1.4756031 2:-0.30815057 3:-0.21681198 4:0.2862901 5:-0.22005715 6:-0.34317722 7:-0.079440726 8:-0.1305499 
-50 1:0.58035745 2:-0.38431916 3:-0.36133895 4:0.109333 5:-0.14716392 6:-0.018031419 7:-0.2878503 8:-0.00023111416 
-13.140946701455464 1:-0.31488824 2:3.3230005 3:3.9593637 4:3.691454 5:0.22029332 6:-0.14444884 7:0.46658011 8:2.3185445 
-50 1:0.58035745 2:-0.49777735 3:-0.59148857 4:-0.11524598 5:-0.36844695 6:-0.33806153 7:-0.3371373 8:-0.1305499 
-41.222603025507659 1:0.58035745 2:-0.037525893 3:0.23954152 4:-0.2360915 5:0.12147756 6:0.37693662 7:-0.23460526 8:0.29635647 
-50 1:1.4756031 2:-0.46745663 3:-0.28377689 4:-0.18064317 5:-0.37747552 6:-0.28801074 7:-0.29407008 8:0.022237642 
-50 1:-0.31488824 2:-0.60286066 3:-0.73359173 4:-0.68975962 5:-0.59560133 6:-0.52393155 7:-0.53357852 8:-0.73271257 
-50 1:-1.2101339 2:-0.61392528 3:-0.73987674 4:-0.82204633 5:-0.60878415 6:-0.53439337 7:-0.54531128 8:-0.92145012 
-22.250276839187471 1:0.58035745 2:1.8292159 3:1.0682042 4:1.0768267 5:1.035911 6:1.2849483 7:0.39283808 8:0.82774255 
-50 1:1.4756031 2:0.2421461 3:-0.62649296 4:0.89330335 5:-0.13630748 6:-0.40806812 7:0.12939292 8:0.0076329505 
-23.753639701560985 1:0.58035745 2:3.5349399 3:0.71821666 4:0.96254743 5:2.6715776 6:4.0653482 7:4.1567913 8:1.208588 
-40.883267414086916 1:-0.31488824 2:-0.16119287 3:0.67503894 4:1.2006569 5:-0.45059032 6:-0.37746616 7:-0.38552904 8:0.24243145 
-50 1:-0.31488824 2:-0.27807437 3:0.44336739 4:-0.044277433 5:-0.3343821 6:-0.33207018 7:-0.28530585 8:-0.11706865 
-50 1:-1.2101339 2:-0.49753283 3:-0.060898715 4:-0.69228 5:-0.48410126 6:-0.38391838 7:-0.48702445 8:-0.42264373 
-50 1:-0.31488824 2:-0.60579493 3:-0.82524573 4:-0.84084967 5:-0.6018604 6:-0.52660461 7:-0.53800776 8:-0.97088138 
