svm_type c_svc
kernel_type rbf
gamma 6e-09
nr_class 2
total_sv 25
rho -347.26563811425916
label 1 0
probA -0.14404569061923361
probB 0.020477963935088453
nr_sv 13 12
SV
30000000 1:22 2:25 3:25 4:200 5:4 6:5 7:14 8:8 
13568871.660238739 1:37 2:71 3:61 4:404 5:12 6:1 7:132 8:14 
30000000 1:37 2:136 3:130 4:796 5:31 6:11 7:78 8:11 
3567678.8796019503 1:27 2:20 3:131 4:684 5:11 6:274 7:3 8:1 
505792.41474331706 1:32 2:41 3:166 4:652 5:19 6:10 7:17 8:14 
30000000 1:27 2:30 3:38 4:264 5:7 6:2 7:6 8:7 
30000000 1:27 2:21 3:51 4:276 5:0 6:47 7:1 8:2 
6426582.804308638 1:22 2:201 3:242 4:1328 5:83 6:77 7:7 8:49 
30000000 1:27 2:25 3:53 4:248 5:5 6:10 7:3 8:13 
30000000 1:22 2:27 3:33 4:162 5:3 6:13 7:0 8:22 
20691961.846878804 1:22 2:30 3:61 4:244 5:13 6:25 7:2 8:3 
15948590.673098352 1:27 2:67 3:55 4:496 5:48 6:8 7:35 8:4 
30000000 1:32 2:29 3:25 4:145 5:29 6:21 7:4 8:5 
-30000000 1:22 2:24 3:24 4:143 5:9 6:1 7:1 8:2 
-1824988.010406259 1:27 2:21 3:51 4:296 5:4 6:49 7:0 8:46 
-26344785.419172775 1:37 2:190 3:175 4:1016 5:56 6:11 7:76 8:3 
-22625223.480291951 1:37 2:48 3:51 4:316 5:13 6:0 7:26 8:14 
-1922104.833717668 1:37 2:46 3:71 4:376 5:74 6:81 7:42 8:4 
-30000000 1:22 2:18 3:18 4:118 5:8 6:3 7:6 8:0 
-8227378.6274428898 1:27 2:21 3:21 4:109 5:8 6:6 7:4 8:7 
-30000000 1:22 2:25 3:62 4:272 5:5 6:0 7:4 8:11 
-30000000 1:27 2:56 3:79 4:386 5:25 6:35 7:13 8:46 
-30000000 1:27 2:27 3:26 4:136 5:3 6:6 7:16 8:8 
-30000000 1:27 2:28 3:54 4:400 5:16 6:74 7:3 8:0 
-29764997.90783789 1:32 2:37 3:56 4:428 5:6 6:42 7:55 8:4 
