svm_type c_svc
kernel_type rbf
gamma 1e-10
nr_class 2
total_sv 28
rho 7331.765111272437
label 1 0
probA -0.022872013820246211
probB 0.010402813119960825
nr_sv 14 14
SV
21428961.645763747 1:22 2:111 3:110 4:628 5:32 6:31 7:34 8:219 
20133222.658807259 1:32 2:89 3:96 4:716 5:180 6:200 7:1 8:31 
30898348.487293191 1:22 2:159 3:16 4:608 5:22 6:23 7:16 8:26 
80000000 1:32 2:124 3:103 4:532 5:86 6:61 7:54 8:57 
80000000 1:27 2:82 3:176 4:660 5:35 6:23 7:17 8:133 
80000000 1:27 2:110 3:52 4:1068 5:66 6:18 7:368 8:37 
80000000 1:27 2:32 3:120 4:624 5:0 6:354 7:70 8:2 
80000000 1:22 2:23 3:21 4:141 5:4 6:8 7:0 8:13 
80000000 1:22 2:87 3:35 4:756 5:1 6:4 7:149 8:47 
80000000 1:27 2:21 3:92 4:432 5:1 6:176 7:6 8:47 
80000000 1:32 2:57 3:105 4:560 5:43 6:50 7:2 8:32 
60620162.123921596 1:37 2:272 3:393 4:3256 5:31 6:1050 7:943 8:247 
80000000 1:27 2:34 3:56 4:292 5:13 6:67 7:61 8:45 
80000000 1:27 2:106 3:49 4:704 5:7 6:26 7:274 8:21 
-73553604.33827275 1:32 2:26 3:223 4:1768 5:37 6:789 7:11 8:197 
-80000000 1:22 2:21 3:39 4:244 5:10 6:59 7:6 8:0 
-80000000 1:22 2:12 3:29 4:212 5:3 6:60 7:13 8:32 
-34384701.243720196 1:37 2:258 3:26 4:2552 5:10 6:61 7:994 8:81 
-59918786.217317984 1:22 2:22 3:15 4:88 5:4 6:1 7:36 8:2 
-80000000 1:27 2:48 3:53 4:256 5:45 6:36 7:3 8:5 
-26053993.069790635 1:32 2:36 3:52 4:185 5:29 6:25 7:6 8:41 
-80000000 1:32 2:56 3:71 4:272 5:16 6:36 7:4 8:9 
-80000000 1:32 2:215 3:100 4:1576 5:36 6:252 7:605 8:50 
-19169610.046682619 1:27 2:30 3:896 4:2880 5:11 6:347 7:16 8:157 
-80000000 1:37 2:295 3:270 4:1516 5:129 6:169 7:457 8:284 
-80000000 1:37 2:50 3:23 4:520 5:15 6:14 7:115 8:10 
-80000000 1:37 2:95 3:28 4:392 5:23 6:63 7:56 8:32 
-80000000 1:27 2:29 3:94 4:292 5:11 6:117 7:2 8:6 
