svm_type c_svc
kernel_type rbf
gamma 0.5
nr_class 2
total_sv 216
rho -0.83843228874610942
label 1 0
probA -2.4458362213968705
probB -0.57951435712712762
nr_sv 152 64
SV
10 1:-1.4841484 2:-0.55838237 3:-0.53393511 4:-0.49645128 5:-0.53958429 6:-0.4712571 7:-0.48282629 8:-0.66015318 
10 1:-0.58482218 2:-0.527326 3:-0.52965433 4:-0.62367104 5:-0.4235451 6:-0.38997638 7:-0.3683369 8:-0.55696057 
0.12149082949502656 1:-0.58482218 2:4.1854623 3:-0.035952114 4:0.91349867 5:0.54123964 6:1.0530279 7:1.2377475 8:1.5947965 
0.15767239849455805 1:0.31450401 2:4.5755961 3:0.39261487 4:-0.38936276 5:5.5524732 6:7.5481275 7:1.4303282 8:2.0687182 
0.10609443989601577 1:1.2138302 2:3.7923557 3:0.58201226 4:2.0723457 5:2.9392384 6:-0.016410995 7:5.2642179 8:1.9043744 
0.10788034151767595 1:-1.4841484 2:1.4328939 3:0.17061457 4:-0.049261234 5:1.3888087 6:2.0983691 7:2.4177017 8:-0.24547175 
0.062222767492918031 1:0.31450401 2:0.81303151 3:0.87213836 4:2.1719621 5:1.514941 6:0.12787956 7:2.5370962 8:1.9846353 
0.020634403174327787 1:0.31450401 2:-0.22821078 3:1.6768708 4:1.7727328 5:-0.40273978 6:-0.32084333 7:-0.31304309 8:1.185848 
0.15471214759597898 1:0.31450401 2:2.979324 3:1.4836381 4:-0.49873051 5:4.988005 6:8.1975338 7:-0.31895151 8:2.0687182 
10 1:1.2138302 2:-0.49196854 3:-0.38806262 4:-0.55331452 5:-0.40874608 6:-0.31802862 7:-0.42290609 8:-0.56078252 
0.057398975373916895 1:-1.4841484 2:0.6797611 3:-0.10486834 4:0.61565981 5:0.99945202 6:1.3573615 7:0.22122216 8:0.27622424 
0.064652564274742821 1:1.2138302 2:3.9850823 3:0.7344363 4:1.7776085 5:2.4941532 6:0.033463563 7:4.4066065 8:1.9196622 
10 1:1.2138302 2:-0.40265776 3:-0.51519311 4:0.19609367 5:-0.47778754 6:-0.45436888 7:-0.3933083 8:-0.24738273 
0.039672902826742677 1:-1.4841484 2:-0.13010807 3:-0.24830708 4:-0.4167605 5:0.96669603 6:0.7180783 7:0.883856 8:1.2890406 
10 1:1.2138302 2:-0.54408758 3:-0.4811859 4:-0.5777105 5:-0.49425842 6:-0.43195002 7:-0.44826766 8:-0.58562518 
0.11639350099647969 1:-0.58482218 2:2.4104421 3:0.8849807 4:1.3830199 5:1.4662094 6:2.2118954 7:0.096978314 8:1.9999231 
1.1102842654598197 1:0.31450401 2:-0.49045051 3:0.11476613 4:-0.51033813 5:-0.52980084 6:-0.46340556 7:-0.47675066 8:-0.37350703 
0.029257877454934494 1:1.2138302 2:1.175904 3:1.99957 4:1.3222796 5:-0.034559944 6:0.070597888 7:-0.18790741 8:1.5642209 
0.15525486299840732 1:1.2138302 2:2.087671 3:3.8020502 4:2.7297506 5:3.0898912 6:0.6092925 7:4.8291694 8:2.4929545 
0.078088140902467865 1:-0.58482218 2:0.15800143 3:2.5833641 4:0.68618668 5:0.31033775 6:0.35898148 7:0.10751312 8:2.0763621 
10 1:-0.58482218 2:-0.56293646 3:-0.77727685 4:-0.74422933 5:-0.53704555 6:-0.47481251 7:-0.47691788 8:-0.5846697 
0.18303512762276328 1:-1.4841484 2:0.51884988 3:-0.22285056 4:0.46129491 5:2.0777372 6:2.167749 7:1.2477807 8:0.76543367 
0.0031879066825476927 1:-0.58482218 2:2.5373874 3:3.9291916 4:3.3194835 5:1.7994661 6:1.2126265 7:1.8249098 8:2.5349959 
0.087191158094827165 1:0.31450401 2:1.7241659 3:2.4332543 4:3.4023699 5:0.082408054 6:0.14308883 7:-0.059148652 8:2.2063083 
0.034687994171457306 1:-1.4841484 2:0.28210041 3:2.3850141 4:2.4539521 5:0.10699053 6:-0.19951482 7:0.37183089 8:1.4266308 
10 1:0.31450401 2:-0.55275301 3:-0.53728151 4:-0.35046313 5:-0.5387174 6:-0.47140524 7:-0.48377387 8:-0.50345329 
10 1:-1.4841484 2:-0.43282861 3:-0.52551208 4:-0.55899203 5:-0.42794147 6:-0.36775504 7:-0.40133482 8:-0.60569041 
0.083337939128838148 1:-1.4841484 2:2.7263189 3:1.5178518 4:1.8682725 5:3.9012367 6:3.2763963 7:3.7474286 8:2.0610743 
6.2185035831375215 1:0.31450401 2:-0.44541561 3:-0.51692064 4:-0.14272431 5:-0.43481465 6:-0.44513468 7:-0.32636489 8:-0.24356078 
10 1:-0.58482218 2:-0.55085547 3:-0.61778789 4:-0.70775286 5:-0.53772667 6:-0.46804735 7:-0.4857805 8:-0.72225985 
0.12580452772589815 1:0.31450401 2:1.8313768 3:0.47366722 4:1.9979535 5:3.253052 6:1.3309922 7:4.3082817 8:2.3133229 
0.099190442654095726 1:-1.4841484 2:1.2271375 3:0.69789755 4:0.81933361 5:3.6768984 6:3.4762402 7:3.9730072 8:1.8890866 
1.6109546484373483 1:-0.58482218 2:-0.53554866 3:0.29034333 4:-0.55025989 5:-0.53277303 6:-0.46735602 7:-0.4776425 8:-0.42701431 
0.14963883414152876 1:-1.4841484 2:2.154907 3:0.96221946 4:0.34760367 5:5.4126565 6:5.9342658 7:3.0002933 8:1.6253721 
0.090331136955583424 1:1.2138302 2:2.8900765 3:1.2395059 4:1.419931 5:2.6392951 6:0.50391398 7:4.136882 8:0.92022259 
10 1:1.2138302 2:-0.53118433 3:-0.3496035 4:-0.33458195 5:-0.51865513 6:-0.45609721 7:-0.46493384 8:-0.45472344 
0.061463083589192155 1:0.31450401 2:3.7514954 3:-0.030443596 4:0.77259766 5:1.3638547 6:1.2023553 7:1.0522457 8:1.4648503 
2.352266118687198 1:0.31450401 2:-0.36091193 3:-0.25730324 4:-0.43804897 5:-0.30100425 6:-0.31165851 7:-0.23612228 8:-0.48434354 
0.10242024366865471 1:1.2138302 2:0.33377669 3:-0.14895006 4:-0.4383045 5:2.001451 6:1.5743899 7:1.7802065 8:0.17780906 
10 1:-0.58482218 2:-0.54326532 3:-0.67595598 4:-0.64914788 5:-0.50360843 6:-0.44478901 7:-0.45060873 8:-0.66015318 
0.13273363538033087 1:-0.58482218 2:4.0635139 3:0.59774467 4:1.1817545 5:3.3428368 6:1.8503295 7:3.8837122 8:2.1642669 
0.091355781185098461 1:-0.58482218 2:0.39373889 3:1.2514764 4:1.6596525 5:0.85096644 6:-0.1085061 7:1.6085281 8:2.3553643 
0.10520991305912683 1:-1.4841484 2:2.4303663 3:2.7433828 4:3.6299404 5:1.3996448 6:1.5802662 7:0.69010472 8:1.7247428 
7.4625814199074023 1:-0.58482218 2:-0.54029251 3:-0.50566457 4:-0.19578101 5:-0.52682865 6:-0.46498574 7:-0.46961598 8:-0.43848016 
10 1:-1.4841484 2:-0.5550933 3:-0.42607085 4:-0.43939125 5:-0.54218496 6:-0.47441746 7:-0.48661659 8:-0.64295441 
10 1:-1.4841484 2:-0.46280971 3:-0.54642977 4:-0.57318729 5:-0.45704414 6:-0.38118661 7:-0.38115704 8:-0.599002 
10 1:-0.58482218 2:-0.56040641 3:-0.57468673 4:-0.62066633 5:-0.54094655 6:-0.47323233 7:-0.48572476 8:-0.70601657 
0.034147284793738318 1:1.2138302 2:2.3798918 3:0.6946598 4:1.0750537 5:2.5278999 6:0.52011087 7:3.9180479 8:1.6483038 
0.093223231783708019 1:-1.4841484 2:3.9593391 3:3.0770989 4:2.7667352 5:0.97969935 6:0.7945197 7:0.82098159 8:2.2636375 
10 1:1.2138302 2:-0.54364483 3:-0.61029652 4:-0.67929186 5:-0.51778824 6:-0.44819629 7:-0.47229149 8:-0.7184379 
0.012684893476696581 1:-1.4841484 2:1.1238482 3:2.7097558 4:1.4288277 5:0.17764192 6:0.25942988 7:-0.019016051 8:1.7400306 
0.152542308513266 1:-0.58482218 2:3.8941903 3:1.0860796 4:0.38033528 5:2.8219608 6:4.2812452 7:4.8816762 8:1.636838 
10 1:-0.58482218 2:-0.5247327 3:-0.45565332 4:-0.55471261 5:-0.51388725 6:-0.44236936 7:-0.47184557 8:-0.66206416 
5.9707288097627496 1:-0.58482218 2:0.033080187 3:-0.32086577 4:-0.32082434 5:-0.34992152 6:-0.31560897 7:-0.31973186 8:-0.50058683 
0.10419430623920295 1:-0.58482218 2:1.7011425 3:-0.081840127 4:-0.0024988534 5:4.0648929 6:4.1049559 7:2.6387097 8:0.66415203 
0.12150865955268472 1:0.31450401 2:1.8831164 3:-0.50558852 4:1.4955597 5:-0.34558708 6:-0.41338286 7:-0.20156365 8:1.9769914 
0.17754678349734448 1:-1.4841484 2:0.16748912 3:1.8056093 4:-0.40025371 5:0.89040986 6:1.2047256 7:0.19719834 8:0.32590957 
0.14120253850481218 1:0.31450401 2:2.1325793 3:1.126106 4:3.5487223 5:1.3130798 6:-0.097592951 7:2.4281808 8:1.3960552 
10 1:0.31450401 2:-0.52466945 3:-0.57589274 4:-0.60784273 5:-0.5065187 6:-0.4425175 7:-0.45841229 8:-0.66110867 
0.084732722878151256 1:-0.58482218 2:2.9519995 3:3.9587007 4:2.8745169 5:2.7851181 6:1.2820065 7:3.5211253 8:2.52353 
0.088079890474278125 1:-1.4841484 2:3.0063323 3:3.2230258 4:3.4287103 5:0.057763659 6:0.25068949 7:-0.22497433 8:2.5197081 
0.051860083639328355 1:-0.58482218 2:1.2775488 3:1.4538791 4:1.5290903 5:1.2240999 6:1.5243672 7:1.7697832 8:1.2890406 
0.57977744887894911 1:1.2138302 2:0.76964114 3:0.10747577 4:0.034996816 5:1.0819303 6:1.4533083 7:0.2614105 8:-0.11648099 
10 1:-0.58482218 2:-0.5173323 3:-0.51656753 4:-0.65493407 5:-0.48137894 6:-0.40740778 7:-0.45278258 8:-0.69550621 
10 1:1.2138302 2:-0.52011536 3:-0.44529905 4:-0.61457174 5:-0.48670411 6:-0.42024678 7:-0.44787749 8:-0.51491913 
4.3047804018508371 1:-0.58482218 2:-0.45142448 3:-0.39491839 4:-0.22232111 5:-0.42286398 6:-0.4633068 7:-0.28433714 8:-0.53116241 
0.15803812808766157 1:-0.58482218 2:1.9075946 3:1.0331783 4:0.88786322 5:2.9740378 6:4.8490744 7:-0.16516561 8:2.3591863 
10 1:0.31450401 2:-0.46628853 3:-0.44666803 4:-0.15560078 5:-0.48274119 6:-0.43920899 7:-0.41933875 8:-0.40790457 
10 1:1.2138302 2:-0.41132318 3:-0.2148241 4:-0.089547196 5:-0.41438086 6:-0.36731061 7:-0.36549417 8:-0.3018455 
10 1:-0.58482218 2:-0.49551061 3:-0.49375662 4:-0.53669612 5:-0.46788025 6:-0.38874186 7:-0.44954968 8:-0.66110867 
10 1:-0.58482218 2:-0.3445931 3:-0.41322036 4:-0.56704277 5:-0.39382322 6:-0.34316343 7:-0.36766802 8:-0.66015318 
10 1:1.2138302 2:-0.37020986 3:-0.37688533 4:-0.60659738 5:-0.33598939 6:-0.26445051 7:-0.35239534 8:-0.47096672 
0.14036389874960079 1:1.2138302 2:0.78918578 3:-0.45331736 4:2.1091776 5:2.0546408 6:0.12615123 7:3.510702 8:2.3133229 
0.14710149720188628 1:1.2138302 2:0.54883098 3:-0.050554574 4:-0.18588869 5:3.3319388 6:2.6090648 7:3.007651 8:1.0902993 
0.048212034764060566 1:-0.58482218 2:2.9313795 3:4.111505 4:4.3120056 5:0.70625802 6:0.81244492 7:0.96618357 8:2.5082423 
10 1:-1.4841484 2:-0.53725645 3:-0.3178752 4:-0.42440884 5:-0.53555945 6:-0.4678992 7:-0.48204594 8:-0.599002 
0.030637832279003577 1:-1.4841484 2:1.1447211 3:1.5565852 4:0.44014742 5:0.6331298 6:0.99757335 7:-0.032170626 8:1.0635457 
0.031455933347956294 1:0.31450401 2:1.6695169 3:2.4011376 4:2.2451559 5:0.97747021 6:1.1866029 7:1.3885235 8:1.5451112 
0.086546325812116354 1:1.2138302 2:2.8653452 3:3.8440323 4:4.0876542 5:0.48148627 6:0.53033268 7:0.22222547 8:2.3630082 
10 1:0.31450401 2:-0.36148119 3:-0.3979823 4:-0.42392715 5:-0.43258551 6:-0.41244462 7:-0.35925133 8:-0.61811175 
0.0078542670846471815 1:0.31450401 2:3.0247384 3:3.3255146 4:3.5326032 5:1.3192719 6:1.1857634 7:0.99070905 8:2.5349959 
5.6899811394340949 1:-1.4841484 2:-0.55148798 3:-0.5373467 4:-0.2993567 5:-0.53351607 6:-0.46399813 7:-0.48277055 8:-0.59135811 
10 1:-0.58482218 2:-0.55572582 3:-0.5202453 4:-0.5021611 5:-0.53555945 6:-0.46819549 7:-0.4817115 8:-0.59518005 
0.15510078138425792 1:-0.58482218 2:4.0992509 3:2.9100399 4:1.8630326 5:3.8040833 6:1.1910965 7:5.4582479 8:2.4929545 
0.091175118055776785 1:-1.4841484 2:1.8700234 3:2.5712389 4:2.1975506 5:2.2833136 6:1.6229806 7:2.2328131 8:2.4891325 
10 1:0.31450401 2:-0.036875709 3:-0.47925194 4:-0.42692304 5:-0.33803277 6:-0.25827792 7:-0.36304163 8:-0.63817698 
0.12965725405039799 1:-1.4841484 2:0.17773582 3:-0.2841722 4:1.5268933 5:0.19658963 6:-0.35866898 7:0.71279078 8:0.66224105 
0.067714173838812397 1:0.31450401 2:1.726949 3:2.3022233 4:1.3203528 5:0.035658007 6:0.031340191 7:-0.01717664 8:1.8202915 
0.10151185000200136 1:1.2138302 2:0.41619309 3:2.8079421 4:1.8041133 5:-0.11220837 6:0.016427204 7:-0.26655616 8:1.5718648 
0.016963683890664518 1:-1.4841484 2:3.4312543 3:3.8096014 4:3.6729637 5:0.63535894 6:0.68257354 7:0.32740633 8:2.5349959 
2.2291093138986642 1:-0.58482218 2:-0.0049338215 3:-0.3868539 4:-0.49663632 5:0.0090321528 6:0.13632367 7:-0.18361546 8:-0.64008795 
10 1:1.2138302 2:-0.5449731 3:-0.3289031 4:-0.55078857 5:-0.52168924 6:-0.44493716 7:-0.48299351 8:-0.52638498 
10 1:-0.58482218 2:-0.54060876 3:-0.49200736 4:-0.51246463 5:-0.5281909 6:-0.46266485 7:-0.47312758 8:-0.55696057 
8.6961151420218421 1:1.2138302 2:-0.18248012 3:-0.25822676 4:0.095607863 5:-0.20911409 6:-0.14944274 7:-0.25379177 8:-0.40790457 
0.017407920867213617 1:-1.4841484 2:1.0078454 3:0.50349144 4:0.9511412 5:2.6004089 6:1.3935082 7:3.0627218 8:1.2317114 
0.087227159956721742 1:-1.4841484 2:2.8735679 3:1.7508827 4:1.7470034 5:3.0850614 6:1.7905788 7:3.4870683 8:2.5349959 
0.07099381168365175 1:-1.4841484 2:3.2780597 3:3.7728779 4:3.1608656 5:1.5431767 6:0.83955495 7:1.7846099 8:2.4623789 
10 1:-1.4841484 2:-0.45895138 3:-0.52965705 4:-0.63031193 5:-0.36750697 6:-0.32252227 7:-0.34358846 8:-0.69837267 
0.13069305568828748 1:1.2138302 2:2.7870402 3:-0.10875798 4:0.06853908 5:1.8491883 6:0.12615123 7:3.1408132 8:0.83231777 
0.04103002523396828 1:1.2138302 2:2.6153762 3:2.2529835 4:1.9133049 5:2.0081385 6:1.7278653 7:1.9994866 8:1.858511 
0.83543636346689953 1:-0.58482218 2:0.94370862 3:-0.15539024 4:-0.61080632 5:1.1022402 6:1.9989656 7:-0.31794819 8:-0.35726375 
6.1037423442462151 1:1.2138302 2:-0.46268321 3:-0.17145403 4:-0.1794387 5:-0.42546464 6:-0.378125 7:-0.37770117 8:-0.12794683 
10 1:1.2138302 2:-0.45661109 3:-0.42725241 4:-0.26842263 5:-0.4187153 6:-0.3542741 7:-0.39994132 8:-0.45376795 
10 1:-1.4841484 2:-0.4123352 3:-0.53091466 4:-0.58467155 5:-0.43072789 6:-0.3796558 7:-0.37942911 8:-0.7031501 
0.069136944250470136 1:-1.4841484 2:0.0098037227 3:0.053564008 4:-0.113811 5:1.2678159 6:1.0670521 7:1.0320679 8:1.0444359 
10 1:0.31450401 2:-0.51556126 3:-0.51425873 4:-0.023534729 5:-0.52150348 6:-0.4691831 7:-0.45529087 8:-0.10979258 
0.090040562654697273 1:0.31450401 2:3.1621834 3:4.8592618 4:3.7229893 5:1.2663917 6:0.98779596 7:1.1641153 8:2.5349959 
10 1:-0.58482218 2:-0.55781311 3:-0.6614839 4:-0.68136843 5:-0.53760283 6:-0.47091143 7:-0.48232464 8:-0.63531052 
10 1:0.31450401 2:-0.35819212 3:-0.33644336 4:-0.53431703 5:-0.29642213 6:-0.15033159 7:-0.40997447 8:-0.62766662 
10 1:-0.58482218 2:-0.45306902 3:-0.41832144 4:-0.55274471 5:-0.34855927 6:-0.35639747 7:-0.2712383 8:-0.63817698 
10 1:-1.4841484 2:-0.53548541 3:-0.58424786 4:-0.68967763 5:-0.48137894 6:-0.42691318 7:-0.43076539 8:-0.63339954 
0.10910968917366842 1:-1.4841484 2:2.3516185 3:1.9388893 4:0.94208302 5:4.5172228 6:4.2217414 7:3.3212426 8:1.6559477 
0.1005516060936424 1:1.2138302 2:3.0607916 3:3.7181621 4:3.4041087 5:1.7699919 6:1.0576697 7:1.9467568 8:2.4738447 
0.085448760430035728 1:1.2138302 2:2.2836234 3:1.5359419 4:1.3927947 5:2.4461028 6:1.9644978 7:2.2665913 8:1.8164695 
0.056893595999708682 1:-0.58482218 2:2.4170835 3:1.232202 4:2.0697963 5:1.1307856 6:1.3312885 7:0.48710064 8:2.3209668 
10 1:1.2138302 2:-0.40803412 3:-0.5797851 4:-0.49021277 5:-0.4520905 6:-0.4319994 7:-0.37229442 8:-0.69455072 
0.13700855339678394 1:1.2138302 2:3.9768597 3:-0.13537433 4:-0.019349288 5:2.3153265 6:1.6951258 7:2.2090122 8:-0.0018225257 
0.067720206901155225 1:-0.58482218 2:0.043010636 3:2.4352643 4:2.591916 5:-0.3516553 6:-0.39575393 7:-0.23238771 8:1.4724942 
10 1:1.2138302 2:-0.52087437 3:-0.55465452 4:-0.56676667 5:-0.51685944 6:-0.44044351 7:-0.44804471 8:-0.50727524 
0.10660217766025422 1:0.31450401 2:3.4205648 3:3.937601 4:4.4052895 5:-0.19988792 6:-0.12732016 7:-0.26215273 8:2.5311739 
0.084300156630181824 1:0.31450401 2:2.4459261 3:3.319528 4:2.8917756 5:2.6121119 6:2.3679386 7:1.9838794 8:2.4776667 
10 1:0.31450401 2:-0.010120425 3:-0.53832454 4:-0.37569913 5:-0.068740111 6:-0.2991158 7:0.16787924 8:-0.60951236 
0.15613292651628818 1:0.31450401 2:2.3056981 3:0.1509898 4:-0.70019557 5:3.7947952 6:6.3535084 7:-0.38567195 8:1.1934919 
7.6767368080276777 1:1.2138302 2:-0.45850863 3:-0.5046976 4:0.44187446 5:-0.50069816 6:-0.42227139 7:-0.47078651 8:-0.063929191 
0.09506195228632261 1:-1.4841484 2:3.1503554 3:2.9919288 4:3.1249149 5:3.2174476 6:2.4757368 7:2.9520227 8:2.152801 
0.051831424129915059 1:0.31450401 2:1.9922248 3:2.8644615 4:1.8083898 5:2.3240573 6:1.4538021 7:2.4971308 8:2.0190328 
0.68826529334532138 1:0.31450401 2:0.0086652 3:-0.23301198 4:-0.41592341 5:0.11795047 6:0.23325808 7:0.31241235 8:-0.35248631 
0.080060792870842237 1:-0.58482218 2:1.7118319 3:3.7241487 4:3.475317 5:-0.065891764 6:-0.27091939 7:0.14117992 8:2.305679 
0.037472820223106676 1:-0.58482218 2:1.8778033 3:2.906726 4:2.4474434 5:0.84174027 6:1.2413661 7:1.4503388 8:2.0954718 
0.12664459246251275 1:-1.4841484 2:0.42371999 3:0.28397648 4:0.4436955 5:1.5346317 6:2.1286395 7:2.4518702 8:2.5197081 
0.14394141682996706 1:-0.58482218 2:1.5838746 3:0.9270497 4:1.1812963 5:3.4585045 6:4.6955497 7:5.3493325 8:2.3133229 
0.12932171780909302 1:1.2138302 2:0.40917219 3:-0.075250549 4:3.0098608 5:0.91220591 6:0.66351257 7:0.84734648 8:2.4318033 
0.1127284463887463 1:-1.4841484 2:1.0514888 3:0.2969492 4:0.92026586 5:2.9469166 6:1.5611559 7:3.4973244 8:1.185848 
10 1:-0.58482218 2:-0.55547281 3:-0.56150486 4:-0.586099 5:-0.52800514 6:-0.46543017 7:-0.47123243 8:-0.69455072 
2.3607582813240544 1:-0.58482218 2:0.74396113 3:0.0004942791 4:-0.23284785 5:0.49448959 6:0.12980541 7:0.69774106 8:-0.18909801 
0.064131732178125886 1:-0.58482218 2:-0.1165723 3:0.16758054 4:0.068104381 5:0.61151951 6:0.59704608 7:0.72304689 8:2.454735 
0.063887607328049684 1:1.2138302 2:0.32884309 3:-0.097295483 4:1.6043871 5:0.48501574 6:0.72869516 7:0.0046733314 8:2.4126935 
0.030627354870606791 1:0.31450401 2:3.6840063 3:0.64298622 4:0.83998765 5:1.7063994 6:1.3331649 7:1.553959 8:0.97946279 
0.094864866115097327 1:-1.4841484 2:0.4543336 3:1.9219401 4:1.7332105 5:0.82972768 6:1.2810189 7:0.0018306055 8:2.2674595 
0.13502999170908564 1:0.31450401 2:4.179327 3:3.386695 4:1.8904656 5:1.7619422 6:2.2653748 7:2.6062135 8:2.4585569 
10 1:1.2138302 2:-0.24535187 3:-0.48973388 4:-0.42870002 5:-0.28713404 6:-0.20474918 7:-0.181999 8:-0.67257451 
10 1:-0.58482218 2:-0.3693876 3:-0.57682984 4:-0.53745391 5:-0.47029515 6:-0.4230121 7:-0.41521401 8:-0.70410559 
0.047971075324965591 1:-1.4841484 2:2.6566161 3:3.8655992 4:3.132575 5:2.870135 6:1.7410499 7:3.1560301 8:2.4585569 
0.11246429614582272 1:-1.4841484 2:-0.052056012 3:0.94977912 4:2.1103524 5:-0.46243123 6:-0.37619915 7:-0.45389738 8:1.8202915 
0.072310819538576585 1:-1.4841484 2:1.1258723 3:3.1720475 4:2.177061 5:0.11770279 6:0.33211835 7:0.42400327 8:1.5145356 
0.16080440730855952 1:0.31450401 2:3.5933673 3:2.2652174 4:2.3320016 5:4.1642754 6:5.8161471 7:0.88608559 8:2.4126935 
0.079599227530836564 1:1.2138302 2:0.88627647 3:1.4783795 4:1.912459 5:1.3306653 6:0.79254447 7:1.4550767 8:1.5412892 
10 1:0.31450401 2:-0.46325247 3:0.10763874 4:-0.44421699 5:-0.4653415 6:-0.43397463 7:-0.39392143 8:-0.49963134 
10 1:1.2138302 2:-0.50974215 3:-0.51048045 4:-0.56459612 5:-0.40366859 6:-0.35205196 7:-0.37536011 8:-0.63053308 
0.075373743034705093 1:-0.58482218 2:1.5403578 3:0.34887268 4:-0.016156605 5:3.9214848 6:4.0415016 7:2.4521489 8:1.5871526 
0.15394333375232672 1:-1.4841484 2:3.5711028 3:0.2008924 4:0.34255177 5:1.5655301 6:0.024130601 7:2.7452841 8:-0.14801206 
0.062834688528970839 1:0.31450401 2:2.9183498 3:0.63472887 4:0.8042954 5:2.0768084 6:1.8442557 7:2.1308651 8:0.97181889 
-10 1:0.31450401 2:-0.38520041 3:-0.27043894 4:-0.52937087 5:-0.45246202 6:-0.33146019 7:-0.48644938 8:-0.62193369 
-0.81548062133549304 1:1.2138302 2:-0.0049338215 3:-0.3868539 4:-0.49663632 5:0.0090321528 6:0.13632367 7:-0.18361546 8:-0.64008795 
-0.99032855161567424 1:0.31450401 2:-0.56426474 3:-0.75423777 4:-0.79179356 5:-0.53828396 6:-0.47244223 7:-0.48182298 8:-0.61715626 
-2.1749658455326148 1:-1.4841484 2:0.65635813 3:0.32309293 4:-0.83823285 5:1.3229871 6:2.4722801 7:-0.45478921 8:0.51509603 
-10 1:-0.58482218 2:-0.35914089 3:-0.45207333 4:-0.59228464 5:-0.47549648 6:-0.38340874 7:-0.46928154 8:-0.64868734 
-10 1:-1.4841484 2:-0.43656044 3:-0.55942694 4:-0.65578878 5:-0.4794594 6:-0.39738349 7:-0.46064188 8:-0.72703728 
-10 1:1.2138302 2:-0.47071612 3:-0.38711466 4:-0.38407295 5:-0.50206041 6:-0.46389936 7:-0.42625047 8:-0.41554847 
-0.12447639999699255 1:1.2138302 2:-0.5647075 3:-0.7911242 4:-0.78447418 5:-0.54026542 6:-0.47456561 7:-0.48299351 8:-0.6515538 
-10 1:-0.58482218 2:-0.56325272 3:-0.55313343 4:-0.60425647 5:-0.54249456 6:-0.47456561 7:-0.48700677 8:-0.69455072 
-10 1:1.2138302 2:-0.43415689 3:-0.40412098 4:0.1440826 5:-0.51518758 6:-0.44928266 7:-0.46638308 8:-0.44230211 
-10 1:1.2138302 2:-0.18323913 3:-0.3276645 4:-0.47614382 5:0.1294677 6:0.12876841 7:0.041740248 8:-0.58084775 
-10 1:1.2138302 2:-0.42327767 3:-0.47425407 4:-0.59955703 5:-0.45283354 6:-0.39175409 7:-0.41906005 8:-0.67448549 
-10 1:-1.4841484 2:-0.56205094 3:-0.56384625 4:-0.66536096 5:-0.54249456 6:-0.47451623 7:-0.48706251 8:-0.67544098 
-0.80658662570055029 1:1.2138302 2:-0.52580797 3:-0.36281253 4:0.10124719 5:-0.53153462 6:-0.46903496 7:-0.47351776 8:-0.41172652 
-10 1:1.2138302 2:-0.52270866 3:-0.51946303 4:-0.0044197501 5:-0.50781903 6:-0.44088793 7:-0.46259277 8:-0.29324611 
-10 1:-0.58482218 2:-0.5321331 3:-0.39555942 4:-0.58134669 5:-0.51989354 6:-0.45698606 7:-0.46616012 8:-0.57989226 
-10 1:-1.4841484 2:-0.45578882 3:-0.58761056 4:-0.68874949 5:-0.46620839 6:-0.39002576 7:-0.4450905 8:-0.73468118 
-10 1:1.2138302 2:-0.50607358 3:-0.35533475 4:-0.42805972 5:-0.46329812 6:-0.37565596 7:-0.45607123 8:-0.50058683 
-10 1:-0.58482218 2:-0.13592719 3:-0.65214278 4:-0.45043494 5:-0.33759932 6:-0.42296272 7:-0.17636929 8:-0.68499585 
-5.0144658512695219 1:0.31450401 2:0.68418868 3:-0.2516236 4:-0.39570994 5:-0.12484017 6:-0.13907278 7:-0.11377358 8:-0.60091298 
-3.007925319199106 1:0.31450401 2:-0.53428364 3:-0.48956275 4:0.089945036 5:-0.52769554 6:-0.47105957 7:-0.46432071 8:-0.41937042 
-0.73943199459741471 1:1.2138302 2:-0.55313251 3:-0.54503363 4:-0.7052181 5:-0.53977005 6:-0.47204719 7:-0.48371813 8:-0.67448549 
-10 1:-1.4841484 2:-0.50310077 3:-0.49712746 4:-0.6556478 5:-0.41982987 6:-0.32568264 7:-0.43422125 8:-0.67353 
-0.55215734839671005 1:1.2138302 2:0.49019706 3:-0.33219789 4:-0.43486216 5:-0.10490174 6:-0.087469897 7:-0.04961716 8:-0.67257451 
-2.7653498691327489 1:0.31450401 2:-0.45502981 3:-0.5441753 4:-0.72543744 5:-0.41493814 6:-0.3034613 7:-0.45049725 8:-0.72130436 
-10 1:1.2138302 2:-0.48159534 3:-0.39968537 4:-0.32639318 5:-0.42670305 6:-0.46429441 7:-0.29013407 8:-0.5770258 
-10 1:1.2138302 2:-0.48867948 3:-0.3983001 4:-0.33129822 5:-0.43512425 6:-0.46562769 7:-0.3037903 8:-0.57320385 
-1.0429678681901586 1:1.2138302 2:0.42194895 3:-0.68257272 4:-0.36621213 5:-0.3748136 6:-0.28237572 7:-0.26962185 8:-0.6811739 
-7.4821947048550017 1:1.2138302 2:-0.53877448 3:-0.48263093 4:-0.25027103 5:-0.52162732 6:-0.46750416 7:-0.45740898 8:-0.44612406 
-10 1:-1.4841484 2:-0.5626202 3:-0.55031942 4:-0.68468741 5:-0.54100847 6:-0.47342985 7:-0.48561328 8:-0.65250928 
-3.6132055940517902 1:1.2138302 2:-0.30771762 3:-0.62495059 4:-0.52510612 5:-0.30218074 6:-0.38370502 7:-0.15691613 8:-0.70506108 
-10 1:-1.4841484 2:-0.5601534 3:-0.53205819 4:-0.58566724 5:-0.54175151 6:-0.47362737 7:-0.4855018 8:-0.68404036 
-10 1:-0.58482218 2:-0.5624937 3:-0.54918947 4:-0.67411367 5:-0.54249456 6:-0.47471375 7:-0.48683955 8:-0.69455072 
-10 1:-0.58482218 2:-0.54130453 3:-0.56314003 4:-0.6231306 5:-0.52887203 6:-0.46034395 7:-0.47853433 8:-0.70506108 
-10 1:1.2138302 2:-0.41587727 3:-0.10144588 4:-0.47546827 5:-0.31902314 6:-0.14193687 7:-0.46014023 8:-0.46141185 
-10 1:0.31450401 2:-0.55041271 3:-0.67862604 4:-0.56038424 5:-0.51661175 6:-0.47505941 7:-0.43985097 8:-0.56555995 
-10 1:1.2138302 2:-0.48336637 3:-0.60746349 4:-0.68739546 5:-0.47574416 6:-0.42266644 7:-0.42541438 8:-0.63435503 
-10 1:1.2138302 2:-0.52960304 3:-0.4127586 4:-0.61071233 5:-0.50490876 6:-0.4268638 7:-0.47318332 8:-0.51109718 
-10 1:-0.58482218 2:-0.56217745 3:-0.56580194 4:-0.67433689 5:-0.5423088 6:-0.4743187 7:-0.48695103 8:-0.68690682 
-10 1:-0.58482218 2:-0.53820522 3:-0.41179977 4:-0.38256913 5:-0.50150313 6:-0.44730743 7:-0.44397571 8:-0.53593985 
-10 1:0.31450401 2:-0.51973585 3:-0.52831794 4:-0.17845182 5:-0.49958359 6:-0.42059245 7:-0.47067503 8:-0.41554847 
-10 1:-0.58482218 2:-0.55850887 3:-0.53394326 4:-0.58529128 5:-0.54119423 6:-0.47318295 7:-0.48500014 8:-0.69359523 
-10 1:-0.58482218 2:-0.56211419 3:-0.56181179 4:-0.59881393 5:-0.54181343 6:-0.47461499 7:-0.48572476 8:-0.68786231 
-10 1:1.2138302 2:-0.47912854 3:-0.64662612 4:-0.65914595 5:-0.26527607 6:-0.25363612 7:-0.23718133 8:-0.4728777 
-10 1:-0.58482218 2:-0.13238512 3:-0.54471583 4:-0.38503046 5:0.25659068 6:0.02403184 7:0.38883151 8:-0.636266 
-10 1:0.31450401 2:-0.52093762 3:-0.32743634 4:0.095819338 5:-0.5236707 6:-0.46276361 7:-0.46643881 8:-0.37350703 
-7.4098046615032622 1:-1.4841484 2:-0.56369548 3:-0.60256341 4:-0.63114315 5:-0.54156575 6:-0.4743187 7:-0.48561328 8:-0.7184379 
-10 1:0.31450401 2:-0.51568777 3:-0.36500996 4:-0.37885069 5:-0.50057432 6:-0.42256768 7:-0.47022912 8:-0.48816549 
-10 1:-0.58482218 2:-0.52561822 3:-0.22010174 4:-0.50708377 5:-0.50125545 6:-0.4148149 7:-0.48020653 8:-0.53785082 
-10 1:-1.4841484 2:-0.56274671 3:-0.5556215 4:-0.59180295 5:-0.54249456 6:-0.47461499 7:-0.48661659 8:-0.68212939 
-10 1:0.31450401 2:-0.48039356 3:-0.47301004 4:-0.58119983 5:-0.44230704 6:-0.38202608 7:-0.41108927 8:-0.64582087 
-10 1:-0.58482218 2:-0.45256301 3:-0.51601885 4:-0.15446117 5:-0.38620699 6:-0.46320803 7:-0.21845278 8:-0.27031442 
-10 1:0.31450401 2:-0.0091716561 3:-0.63419664 4:-0.38557383 5:-0.27598833 6:-0.33531189 7:-0.16438525 8:-0.63435503 
-10 1:-0.58482218 2:-0.18880524 3:-0.43487958 4:-0.61541177 5:-0.37939572 6:-0.32005324 7:-0.31215126 8:-0.69263974 
-10 1:1.2138302 2:-0.49974845 3:-0.35150758 4:-0.24810342 5:-0.48280311 6:-0.42340715 7:-0.43728694 8:-0.43656919 
-10 1:-0.58482218 2:-0.55635833 3:-0.53535842 4:-0.67447787 5:-0.53103925 6:-0.45891191 7:-0.48405257 8:-0.67544098 
-10 1:1.2138302 2:-0.49424559 3:-0.19303721 4:0.088511706 5:-0.47401039 6:-0.3901739 7:-0.45896969 8:-0.083038935 
-10 1:0.31450401 2:-0.15869764 3:-0.44632035 4:-0.70218108 5:-0.36540167 6:-0.23348878 7:-0.44029688 8:-0.69741718 
-10 1:0.31450401 2:-0.35117123 3:-0.3934652 4:0.056141366 5:-0.48360808 6:-0.46567707 7:-0.39102297 8:-0.47001124 
-10 1:-0.58482218 2:-0.55787636 3:-0.50583841 4:-0.58691553 5:-0.5408227 6:-0.47402242 7:-0.48460996 8:-0.66779708 
-5.5869529444687123 1:-0.58482218 2:-0.56186119 3:-0.56019564 4:-0.67454837 5:-0.54150383 6:-0.47308418 7:-0.48689529 8:-0.69837267 
-10 1:1.2138302 2:-0.52656698 3:-0.60863419 4:-0.6686535 5:-0.53314455 6:-0.46957815 7:-0.47580309 8:-0.59518005 
-10 1:-0.58482218 2:-0.55117173 3:-0.5094347 4:-0.48304612 5:-0.54113231 6:-0.47338047 7:-0.48589198 8:-0.64486539 
-10 1:-1.4841484 2:-0.38229085 3:-0.34882666 4:-0.20796137 5:-0.4460842 6:-0.37827314 7:-0.37786839 8:-0.58849164 
