svm_type c_svc
kernel_type rbf
gamma 0.5
nr_class 2
total_sv 151
rho 0.47351217840246757
label 0 1
probA -1.340974915768389
probB 0.12991684661322234
nr_sv 66 85
SV
1 1:-0.40899694 2:-0.30066738 3:-0.67874823 4:-0.16068633 5:-0.24255239 6:-0.29703385 7:-0.13671166 8:-0.51612911 
1 1:0.49318604 2:-0.40692549 3:-0.5340549 4:-0.046492847 5:-0.3949203 6:-0.30532354 7:-0.35296006 8:-0.35328907 
1 1:0.49318604 2:-0.28814652 3:-0.42325002 4:-0.18963409 5:-0.31900403 6:-0.27881582 7:-0.26340502 8:-0.4736491 
0.4970051566653782 1:1.395369 2:-0.40658708 3:0.13969404 4:-0.2665725 5:-0.40926837 6:-0.32739723 7:-0.35601575 8:-0.33204906 
1 1:1.395369 2:-0.40816629 3:-0.25754522 4:-0.36148877 5:-0.39856085 6:-0.3729905 7:-0.30328561 8:-0.091328996 
1 1:-1.3111799 2:-0.44866168 3:-0.78967874 4:-0.65814473 5:-0.43464517 6:-0.37154462 7:-0.35726936 8:-0.8400392 
1 1:1.395369 2:4.9100406 3:4.2264091 4:6.4395945 5:3.6681526 6:1.8578987 7:3.8348939 8:3.0451119 
1 1:0.49318604 2:-0.29559135 3:-0.14410213 4:-0.49704693 5:-0.33281672 6:-0.27283954 7:-0.2884773 8:-0.17628902 
1 1:-1.3111799 2:-0.47065779 3:-0.5539043 4:-0.68364176 5:-0.44738711 6:-0.37077349 7:-0.37654368 8:-0.76392918 
1 1:-1.3111799 2:-0.27404645 3:-0.1858424 4:-0.18224271 5:-0.37222037 6:-0.29606993 7:-0.32726098 8:-0.56391913 
1 1:1.395369 2:0.50427726 3:-0.30980693 4:1.0077253 5:1.6729146 6:1.4011949 7:1.2861401 8:2.6981918 
1 1:-1.3111799 2:-0.42136395 3:-0.6281511 4:-0.56150309 5:-0.41933343 6:-0.34908536 7:-0.35311677 8:-0.70905917 
1 1:0.49318604 2:-0.46862738 3:-0.77419495 4:-0.7585353 5:-0.42201031 6:-0.34956732 7:-0.35664255 8:-0.50196911 
1 1:-0.40899694 2:-0.36913731 3:-0.17557222 4:-0.75359352 5:-0.40980374 6:-0.32720445 7:-0.3425394 8:-0.68073916 
1 1:0.49318604 2:-0.26581201 3:-0.52789907 4:-0.66157416 5:0.28961101 6:0.302908 7:0.15444017 8:1.7494715 
1 1:-0.40899694 2:-0.41944634 3:-0.61370376 4:-0.22627143 5:-0.39224342 6:-0.31062508 7:-0.32906305 8:-0.28956905 
1 1:-1.3111799 2:-0.46208495 3:-0.59021111 4:-0.67537706 5:-0.43571592 6:-0.3591101 7:-0.36847354 8:-0.74268918 
1 1:-0.40899694 2:-0.34251638 3:2.5413458 4:-0.62860055 5:-0.43089754 6:-0.34330186 7:-0.37474161 8:-0.077168992 
1 1:-0.40899694 2:0.24991204 3:0.028857751 4:0.050873016 5:-0.039109641 6:0.11494421 7:-0.17384998 8:0.23081109 
1 1:1.395369 2:-0.305405 3:-0.21677857 4:-0.55144913 5:0.095805023 6:0.12101689 7:0.018658109 8:-0.06831899 
1 1:-1.3111799 2:-0.48092264 3:-0.54938165 4:-0.74703288 5:-0.4539187 6:-0.37588225 7:-0.38194989 8:-0.8134892 
1 1:-0.40899694 2:-0.44775928 3:-0.54536152 4:-0.29596758 5:-0.40102358 6:-0.35698948 7:-0.319896 8:-0.44532909 
1 1:0.49318604 2:-0.37308532 3:-0.28179164 4:0.32874168 5:-0.39427785 6:-0.32460187 7:-0.33634968 8:-0.24708904 
1 1:1.395369 2:4.3868718 3:4.1638458 4:4.7766 5:3.5339875 6:-0.24584987 7:5.3485543 8:2.6840318 
1 1:1.395369 2:-0.16959315 3:0.12725675 4:0.56202782 5:0.034343898 6:-0.22792101 7:0.21234146 8:0.87863127 
0.51852664774189627 1:1.395369 2:-0.4109863 3:-0.38141553 4:-0.75683124 5:-0.36815152 6:-0.22445091 7:-0.37952101 8:-0.24000904 
1 1:-0.40899694 2:-0.10631205 3:-0.27315464 4:-0.48053883 5:-0.15881964 6:-0.017787137 7:-0.24115337 8:-0.74622918 
1 1:-0.40899694 2:-0.14883786 3:-0.35591282 4:-0.038739363 5:-0.20486194 6:-0.32440909 7:-0.059301006 8:-0.4718791 
0.38046194966287905 1:1.395369 2:-0.33619955 3:-0.55289926 4:0.076199643 5:-0.29266355 6:-0.35159155 7:-0.16570149 8:0.043191041 
1 1:-1.3111799 2:-0.47708742 3:-0.60823889 4:-0.70234385 5:-0.45177719 6:-0.37308689 7:-0.37983441 8:-0.80640919 
1 1:-1.3111799 2:-0.44911289 3:-0.7101241 4:-0.65671758 5:-0.42950557 6:-0.35930288 7:-0.35969824 8:-0.85065921 
1 1:-1.3111799 2:-0.36947571 3:-0.44184313 4:-0.31709795 5:-0.38025101 6:-0.29240705 7:-0.34199094 8:-0.4524091 
1 1:-1.3111799 2:-0.33777876 3:-0.54284894 4:-0.64308508 5:-0.31953941 6:-0.23524678 7:-0.29960312 8:-0.79224919 
1 1:0.49318604 2:0.20840145 3:1.9031499 4:-0.54833921 5:-0.16149651 6:-0.068007206 7:-0.13185391 8:0.12815106 
1 1:-0.40899694 2:-0.4316288 3:-0.58694475 4:-0.2502135 5:-0.40155896 6:-0.29597354 7:-0.37027561 8:-0.40992908 
1 1:0.49318604 2:3.4513041 3:3.0235103 4:3.9084655 5:3.8518935 6:-0.11572109 7:5.7080281 8:2.5282717 
1 1:-1.3111799 2:-0.38098136 3:-0.51778593 4:-0.81378953 5:-0.3523044 6:-0.23129472 7:-0.35076624 8:-0.80109919 
1 1:-1.3111799 2:0.069431184 3:0.18278482 4:-0.31884461 5:0.25748847 6:0.28893121 7:0.11879052 8:-0.51966911 
1 1:1.395369 2:3.4487097 3:0.53605389 4:1.4011081 5:0.63599905 6:1.082042 7:0.80295031 8:0.043191041 
1 1:0.49318604 2:-0.40478227 3:-0.44385319 4:0.24507222 5:-0.42479426 6:-0.35833896 7:-0.35358687 8:-0.34620907 
1 1:-0.40899694 2:-0.46795058 3:-0.54071324 4:-0.64112541 5:-0.44524561 6:-0.36614669 7:-0.37419315 8:-0.76392918 
1 1:-0.40899694 2:-0.23986789 3:-0.37039157 4:-0.00050446408 5:-0.30048003 6:-0.18454475 7:-0.22658011 8:-0.57630913 
1 1:1.395369 2:0.050931896 3:-0.12010697 4:-0.32348818 5:-0.12519805 6:0.067808679 7:-0.2615246 8:-0.37452907 
1 1:1.395369 2:-0.3473668 3:0.25803666 4:-0.087134734 5:-0.30904604 6:-0.18223135 7:-0.32733933 8:-0.119649 
1 1:0.49318604 2:-0.32751391 3:-0.61408064 4:0.51848903 5:-0.169313 6:-0.24883801 7:-0.06870311 8:0.54587118 
1 1:-0.40899694 2:-0.44178085 3:-0.65779957 4:-0.58540257 5:-0.41579995 6:-0.37106267 7:-0.33008161 8:-0.74976918 
1 1:0.49318604 2:-0.35368363 3:1.2283959 4:-0.5560927 5:-0.34127566 6:-0.19032826 7:-0.36792508 8:-0.38868908 
1 1:0.49318604 2:-0.39417902 3:-0.36916669 4:-0.30299683 5:-0.37446895 6:-0.35496525 7:-0.28267933 8:-0.4647991 
1 1:1.395369 2:-0.071682288 3:-0.57086423 4:0.93871081 5:0.019032155 6:-0.26811635 7:0.22260542 8:0.31223112 
1 1:-1.3111799 2:0.92479766 3:2.0187287 4:1.0935249 5:2.6299521 6:1.3994598 7:2.6881506 8:2.9743119 
1 1:-0.40899694 2:-0.4732522 3:-0.48524799 4:-0.62864315 5:-0.44910031 6:-0.36990597 7:-0.37724883 8:-0.72675917 
1 1:1.395369 2:6.0839558 3:1.4152064 4:-0.79457622 5:3.8533926 6:7.1206919 7:-0.17181285 8:2.2450717 
1 1:0.49318604 2:-0.43783283 3:-0.0706091 4:-0.37682534 5:-0.4383928 6:-0.35698948 7:-0.3745849 8:-0.4736491 
0.55061719374978502 1:-0.40899694 2:-0.44685688 3:-0.59046237 4:-0.61965422 5:-0.40027406 6:-0.32643332 7:-0.34191259 8:-0.77100918 
0.11305185898307483 1:1.395369 2:-0.039646935 3:-0.28455548 4:0.15011335 5:-0.27960038 6:-0.18358084 7:-0.2257966 8:-0.41169908 
1 1:-1.3111799 2:-0.39463023 3:-0.71844703 4:-0.53068087 5:-0.42415181 6:-0.35650752 7:-0.35413533 8:-0.74445918 
1 1:-1.3111799 2:-0.48791627 3:-0.8085231 4:-0.8431633 5:-0.45423992 6:-0.37617143 7:-0.38218494 8:-0.91791923 
1 1:-0.40899694 2:-0.45994174 3:-0.60202025 4:-0.52115942 5:-0.43560885 6:-0.3637369 7:-0.3650261 8:-0.62940915 
1 1:-1.3111799 2:-0.13180497 3:-0.67444543 4:-0.071968579 5:-0.36633124 6:-0.3428199 7:-0.28064221 8:-0.64179915 
1 1:-0.40899694 2:0.010549304 3:-0.4839917 4:0.12391339 5:-0.15089608 6:-0.29703385 7:-0.0025749766 8:-0.41700909 
1 1:-1.3111799 2:-0.48599866 3:-0.70531879 4:-0.79340468 5:-0.45381162 6:-0.37597864 7:-0.38171483 8:-0.8382692 
1 1:0.49318604 2:-0.21053975 3:-0.33172921 4:-0.20045488 5:-0.25358113 6:-0.2767916 7:-0.16930563 8:-0.28425905 
1 1:1.395369 2:-0.23106945 3:0.57732305 4:-0.53649598 5:-0.1680281 6:0.071664347 7:-0.32733933 8:-0.35682907 
1 1:1.395369 2:-0.31521865 3:-0.29234448 4:0.42263552 5:-0.24544342 6:-0.31303487 7:-0.12793637 8:0.23435109 
1 1:-0.40899694 2:-0.4091815 3:-0.78242365 4:-0.18409588 5:-0.43957063 6:-0.36547195 7:-0.36941375 8:-0.55860913 
1 1:-1.3111799 2:1.8008066 3:0.51168184 4:-0.64031598 5:-0.29598288 6:-0.19003908 7:-0.23104611 8:-0.54975912 
-0.85867325906379421 1:-0.40899694 2:1.2283439 3:0.36881013 4:-0.41361178 5:0.43416243 6:0.84260505 7:-0.072699005 8:-0.41523909 
-1 1:0.49318604 2:-0.30123138 3:-0.57588939 4:0.40687294 5:-0.34759309 6:-0.36074876 7:-0.23864615 8:-0.13380901 
-0.76419265648252965 1:1.395369 2:0.25555207 3:0.32788645 4:-0.095058624 5:0.17086469 6:0.73223657 7:-0.36831683 8:0.018411034 
-1 1:-1.3111799 2:-0.43941204 3:-0.53606496 4:-0.29051458 5:-0.42543671 6:-0.35226629 7:-0.35946319 8:-0.4736491 
-1 1:-0.40899694 2:-0.40602308 3:-0.52463271 4:-0.34990115 5:-0.27831548 6:-0.21635401 7:-0.25462972 8:-0.40284908 
-0.52473398762119294 1:1.395369 2:2.8390228 3:-0.20628854 4:4.3637057 5:3.5429818 6:1.3954114 7:4.027637 8:2.9035118 
-1 1:-0.40899694 2:-0.47516981 3:-0.58794979 4:-0.67077609 5:-0.44578099 6:-0.36518277 7:-0.3787375 8:-0.75684918 
-0.53661328381509432 1:-0.40899694 2:0.1991518 3:0.18579992 4:-0.23990392 5:0.9811022 6:1.8182817 7:-0.065334023 8:4.2770322 
-1 1:1.395369 2:-0.30235939 3:-0.15364994 4:-0.62706689 5:-0.24608587 6:-0.20584732 7:-0.21600274 8:0.94235129 
-0.19742980063435339 1:-1.3111799 2:0.22949515 3:3.0020277 4:1.561716 5:-0.16246019 6:-0.077646374 7:-0.139689 8:1.8202715 
-0.47548810135077196 1:1.395369 2:1.3410316 3:-0.27488204 4:3.7481984 5:1.0012323 6:1.0064709 7:0.62399692 8:1.2963514 
-1 1:-1.3111799 2:-0.45870093 3:-0.58392966 4:-0.64129581 5:-0.43593007 6:-0.35959206 7:-0.36886529 8:-0.73560917 
-1 1:1.395369 2:-0.22475262 3:1.0736209 4:-0.15325235 5:-0.10399717 6:0.12728235 7:-0.27884014 8:0.19895108 
-0.6060637717575833 1:-1.3111799 2:0.65125636 3:1.0228667 4:-0.14336879 5:0.41510306 6:1.0110977 7:-0.23754923 8:0.22019109 
-0.36932465622783162 1:0.49318604 2:1.7580552 3:1.2440996 4:0.0058218674 5:-0.043928022 6:0.13884935 7:0.036287054 8:0.27683111 
-0.69860393962419309 1:1.395369 2:2.6298906 3:2.5064209 4:2.6024721 5:3.876842 6:0.13296946 7:5.5423944 8:2.4079117 
-0.43579828481520022 1:-1.3111799 2:1.1567156 3:-0.57199489 4:1.2421191 5:2.0232644 6:-0.35419412 7:3.2257159 8:1.4662714 
-1 1:-1.3111799 2:-0.42508637 3:-0.59862826 4:-0.38219313 5:-0.41076742 6:-0.36209824 7:-0.33000326 8:-0.34620907 
-1 1:-0.40899694 2:-0.34556199 3:-0.21175341 4:-0.38304516 5:-0.10453255 6:-0.066946897 7:-0.12174665 8:-0.28956905 
-0.06861140799651369 1:1.395369 2:0.33146683 3:0.41193232 4:0.13618264 5:1.0700816 6:1.355698 7:0.44089094 8:0.44675115 
-1 1:-0.40899694 2:-0.4726882 3:-0.61571382 4:-0.47659819 5:-0.4379645 6:-0.37366524 7:-0.3604034 8:-0.64356915 
-0.47230519956295608 1:0.49318604 2:1.114077 3:-0.71194572 4:1.1511222 5:1.4649747 6:-0.27621325 7:2.3452872 8:0.64499121 
-1 1:-0.40899694 2:-0.39587103 3:-0.34755848 4:-0.24701838 5:-0.28420461 6:-0.26069419 7:-0.22720692 8:-0.19929903 
-0.30148816729192462 1:1.395369 2:1.0034196 3:1.8596508 4:-0.043233828 5:1.027894 6:1.8124982 7:0.007845689 8:0.085671053 
-0.34772947091133433 1:0.49318604 2:1.119717 3:-0.47136597 4:2.8932703 5:-0.068876527 6:-0.105118 7:-0.038538026 8:1.6220315 
-1 1:0.49318604 2:-0.29874977 3:-0.31860097 4:-0.51093504 5:-0.29469798 6:-0.19967825 7:-0.29215979 8:-0.55860913 
-1 1:-1.3111799 2:-0.46952978 3:-0.40647853 4:-0.62936738 5:-0.44802956 6:-0.36759257 7:-0.37536841 8:-0.73206917 
-0.16732056293050343 1:-1.3111799 2:-0.09931842 3:-0.41948115 4:1.1194266 5:0.26476958 6:-0.26300759 7:0.57808332 8:1.2113914 
-0.012676698482854723 1:0.49318604 2:-0.21414937 3:1.615208 4:0.56049416 5:-0.2963041 6:-0.19543701 7:-0.23543376 8:0.14939107 
-1 1:1.395369 2:-0.46174655 3:-0.59762323 4:-0.34334051 5:-0.43560885 6:-0.36248381 7:-0.36604466 8:-0.64356915 
-1 1:-1.3111799 2:-0.47099619 3:-0.789082 4:-0.56146049 5:-0.43742913 6:-0.35419412 7:-0.36447764 8:-0.61524914 
-0.68483644609729555 1:-1.3111799 2:-0.44099125 3:-0.83814017 4:-0.28766027 5:-0.38003686 6:-0.26088697 7:-0.288634 8:-0.27717905 
-1 1:-1.3111799 2:-0.47156019 3:-0.80767511 4:-0.50999781 5:-0.43004094 6:-0.37501472 7:-0.34771056 8:-0.59400914 
-0.5263693592915818 1:1.395369 2:4.2284998 3:1.5153328 4:1.6944625 5:3.8252318 6:4.0191931 7:3.1903796 8:2.3371117 
-1 1:-0.40899694 2:-0.4721242 3:-0.62981569 4:-0.78318031 5:-0.43946355 6:-0.35997762 7:-0.37372304 8:-0.8329592 
-1 1:-0.40899694 2:-0.35063802 3:-0.56093953 4:0.078926143 5:-0.30187201 6:-0.33973537 7:-0.18881499 8:-0.105489 
-1 1:-1.3111799 2:-0.43591522 3:-0.5914674 4:-0.33950637 5:-0.43271782 6:-0.36701422 7:-0.35813122 8:-0.65772915 
-1 1:0.49318604 2:-0.29638096 3:1.0278605 4:-0.33428768 5:-0.42275983 6:-0.33404826 7:-0.37035396 8:-0.27540905 
-0.52656589308144341 1:-1.3111799 2:3.2863897 3:-0.29259574 4:3.5620296 5:5.6086752 6:0.71893452 7:7.6005934 8:3.604432 
-1 1:0.49318604 2:-0.46569457 3:-0.60817607 4:-0.40792447 5:-0.44256873 6:-0.36007401 7:-0.37818904 8:-0.42408909 
-0.47574299287989541 1:0.49318604 2:0.40004956 3:-0.066965855 4:1.8615458 5:0.4304148 6:-0.087478326 7:0.67782397 8:1.3742314 
-1 1:-1.3111799 2:-0.44121685 3:-0.57500999 4:-0.46432894 5:-0.45231257 6:-0.3741472 7:-0.38069627 8:-0.64356915 
-0.68480712137565192 1:1.395369 2:-0.11736651 3:0.91743247 4:0.30511912 5:-0.19072803 6:-0.31428796 7:-0.046843218 8:0.31577112 
-1 1:-0.40899694 2:-0.42621438 3:-0.59762323 4:-0.26239755 5:-0.33228135 6:-0.25732048 7:-0.30030828 8:-0.32496906 
-1 1:0.49318604 2:-0.4092943 3:-0.50088881 4:-0.006788194 5:-0.330354 6:-0.32344517 7:-0.24373895 8:-0.13380901 
-1 1:1.395369 2:-0.10247683 3:0.22518465 4:0.2498862 5:0.045479712 6:-0.13895149 7:0.15632059 8:0.099831057 
-1 1:1.395369 2:-0.35278123 3:-0.38405374 4:-0.1845219 5:-0.074765659 6:-0.033306199 7:-0.1036476 8:0.36179113 
-1 1:0.49318604 2:-0.10439444 3:-0.29473144 4:-0.35552456 5:0.1191474 6:0.16073026 7:0.054072702 8:-0.14796901 
-0.47250334270850564 1:-1.3111799 2:2.923172 3:-0.23289051 4:1.4726574 5:2.4358249 6:0.31939098 7:3.2819718 8:0.80606125 
-0.21438644881352215 1:0.49318604 2:0.36451739 3:3.389091 4:1.7657775 5:-0.10046369 6:0.19340705 7:-0.32741768 8:2.0468316 
-1 1:-0.40899694 2:-0.34183958 3:-0.49799934 4:-0.67128731 5:-0.11416931 6:-0.06482628 7:-0.13757352 8:-0.61524914 
-0.63251747724902807 1:-1.3111799 2:-0.37601814 3:1.0427161 4:-0.18051735 5:-0.39202927 6:-0.3486034 7:-0.31354958 8:-0.17628902 
-0.4654658713696766 1:1.395369 2:1.8292324 3:2.0345579 4:1.2651239 5:1.103382 6:1.4639459 7:0.40163716 8:1.1618314 
-1 1:-1.3111799 2:-0.45362491 3:-0.56973357 4:-0.40979894 5:-0.40691271 6:-0.34898897 7:-0.33501771 8:-0.60108914 
-0.3171470961675833 1:1.395369 2:0.27427696 3:1.7237515 4:1.4121845 5:0.020317056 6:0.11716122 7:0.018658109 8:2.2096716 
-0.22796766185299883 1:-1.3111799 2:0.35131973 3:2.7169753 4:2.0317816 5:-0.069626053 6:-0.24613904 7:0.074992384 8:1.2751114 
-1 1:0.49318604 2:-0.41651353 3:-0.086909477 4:-0.37535558 5:-0.40402168 6:-0.33906063 7:-0.33885691 8:-0.41169908 
-0.68941215187387228 1:-0.40899694 2:-0.14770985 3:-0.62664355 4:1.1166149 5:-0.057633639 6:-0.34330186 7:0.17152065 8:0.6025112 
-1 1:-0.40899694 2:-0.25351675 3:-0.43926773 4:-0.18413848 5:-0.27456785 6:-0.36132711 7:-0.13130545 8:-0.43293909 
-0.14368679677524299 1:-1.3111799 2:0.069205583 3:2.0797844 4:1.3370354 5:0.01956753 6:0.12728235 7:0.02688495 8:1.3459114 
-0.051983512193612552 1:-0.40899694 2:0.026115778 3:2.5137074 4:0.94101129 5:-0.034719561 6:-0.029836098 7:-0.0497422 8:1.0556313 
-0.52695290999663991 1:-0.40899694 2:2.3273595 3:3.8563057 4:2.714003 5:1.4792157 6:0.27206266 7:1.9204688 8:2.2450717 
-1 1:0.49318604 2:0.17219247 3:-0.15377557 4:0.43243388 5:-0.20903787 6:-0.17133909 7:-0.18983355 8:-0.112569 
-1 1:-1.3111799 2:-0.46840178 3:-0.31429817 4:-0.75587271 5:-0.44192628 6:-0.36286937 7:-0.37497666 8:-0.73206917 
-0.51670083575514902 1:-1.3111799 2:0.96777466 3:0.67795197 4:-0.061573799 5:2.6919486 6:2.7362197 7:1.692311 8:-0.13380901 
-1 1:0.49318604 2:-0.41470872 3:-0.16715507 4:-0.41312186 5:-0.32692759 6:-0.25086223 7:-0.2977227 8:-0.31080906 
-1 1:0.49318604 2:-0.40354147 3:-0.6281511 4:-0.12888426 5:-0.39802548 6:-0.3254694 7:-0.34112908 8:-0.42408909 
-0.52642661793698053 1:-0.40899694 2:2.1563539 3:4.8321927 4:2.0927018 5:4.6068803 6:7.3563696 7:0.7393294 8:4.2345522 
-1 1:-1.3111799 2:-0.43918644 3:-0.39335029 4:-0.36430048 5:-0.40434291 6:-0.357857 7:-0.32404859 8:-0.43116909 
-1 1:-1.3111799 2:-0.46896578 3:-0.38653491 4:-0.60323132 5:-0.44728004 6:-0.36855648 7:-0.37818904 8:-0.66480916 
-0.44403945356173785 1:1.395369 2:1.1026841 3:4.3326913 4:1.3829599 5:-0.20957325 6:-0.10039481 7:-0.2482833 8:1.6786715 
-1 1:1.395369 2:-0.25306555 3:-0.15402683 4:0.061289097 5:-0.32510731 6:-0.24922358 7:-0.29639074 8:-0.15504901 
-0.52053363160044031 1:0.49318604 2:0.95863782 3:-0.41445598 4:4.7156798 5:1.8023684 6:0.05238601 7:2.5719562 8:2.8114718 
-1 1:-1.3111799 2:-0.46388976 3:-0.73251749 4:-0.73197323 5:-0.4379645 6:-0.3521699 7:-0.37787564 8:-0.85950921 
-1 1:-0.40899694 2:-0.37601814 3:-0.039547301 4:-0.32866427 5:-0.28291971 6:-0.16333858 7:-0.30446088 8:-0.35859907 
-1 1:0.49318604 2:-0.3880878 3:0.13680457 4:-0.50284075 5:-0.27296173 6:-0.16266384 7:-0.29043607 8:0.085671053 
-1 1:-1.3111799 2:-0.42113835 3:-0.61144243 4:-0.74345435 5:-0.39588397 6:-0.29356375 7:-0.36392919 8:-0.79932919 
-0.47831037404361726 1:0.49318604 2:-0.065478259 3:2.4001387 4:0.73601259 5:-0.26675137 6:-0.29009365 7:-0.17776752 8:0.80783125 
-0.70925526491817659 1:0.49318604 2:-0.18504683 3:-0.11910194 4:0.37743527 5:0.062290507 6:0.20921528 7:0.093483189 8:0.32462112 
-0.10693769384630494 1:0.49318604 2:0.19418858 3:1.6055345 4:0.98949186 5:0.46842648 6:0.500029 7:0.25590454 8:1.9052316 
-1 1:0.49318604 2:-0.2423495 3:-0.092311529 4:-0.21061535 5:-0.23602081 6:-0.30252818 7:-0.12268686 8:-0.18867902 
-1 1:-1.3111799 2:-0.48103544 3:-0.62488475 4:-0.71525212 5:-0.45295502 6:-0.37433998 7:-0.38179318 8:-0.75684918 
-0.28006060484542511 1:-0.40899694 2:1.6043081 3:1.2286158 4:-0.33296703 5:1.2486829 6:2.064948 7:0.12576375 8:0.65915121 
-1 1:-0.40899694 2:-0.41324232 3:-0.77714723 4:-0.16364713 5:-0.42607916 6:-0.35351938 7:-0.35938483 8:-0.56568913 
-1 1:-0.40899694 2:-0.46028014 3:-0.59234681 4:-0.43553028 5:-0.43261074 6:-0.36296576 7:-0.36126526 8:-0.55152912 
