svm_type c_svc
kernel_type rbf
gamma 6e-09
nr_class 2
total_sv 594
rho 23.611106365206567
label 1 0
probA -0.23878643884552503
probB 0.02591021313355556
nr_sv 306 288
SV
100000 1:22 2:366 3:19 4:22 5:300 6:15 7:26 
100000 1:22 2:949 3:18 4:63 5:280 6:16 7:52 
100000 1:27 2:2474 3:35 4:29 5:325 6:46 7:30 
100000 1:27 2:8432 3:16 4:199 5:1144 6:29 7:521 
100000 1:22 2:1083 3:73 4:48 5:364 6:18 7:23 
100000 1:22 2:237 3:12 4:18 5:165 6:11 7:12 
100000 1:32 2:3361 3:97 4:102 5:1000 6:18 7:58 
100000 1:37 2:4698 3:67 4:108 5:714 6:22 7:69 
23474.321924175296 1:27 2:37558 3:100 4:569 5:1948 6:66 7:615 
100000 1:22 2:1146 3:14 4:97 5:405 6:1 7:17 
100000 1:27 2:476 3:24 4:34 5:308 6:14 7:62 
2514.8159326003993 1:37 2:28573 3:83 4:308 5:1908 6:154 7:348 
100000 1:27 2:1874 3:21 4:52 5:738 6:29 7:140 
100000 1:32 2:4812 3:45 4:135 5:996 6:39 7:75 
100000 1:22 2:245 3:16 4:17 5:128 6:7 7:21 
100000 1:32 2:7380 3:125 4:122 5:880 6:70 7:68 
100000 1:27 2:302 3:14 4:34 5:232 6:11 7:71 
100000 1:32 2:2640 3:62 4:43 5:392 6:20 7:17 
100000 1:32 2:1054 3:14 4:82 5:460 6:5 7:87 
67890.234487473776 1:27 2:2588 3:98 4:75 5:736 6:41 7:53 
100000 1:22 2:239 3:19 4:16 5:113 6:9 7:7 
100000 1:27 2:821 3:29 4:40 5:382 6:16 7:77 
100000 1:32 2:874 3:41 4:41 5:396 6:77 7:37 
100000 1:37 2:3163 3:71 4:88 5:684 6:88 7:25 
84168.781656725623 1:37 2:9944 3:114 4:153 5:1476 6:287 7:172 
100000 1:22 2:15805 3:81 4:101 5:792 6:90 7:1 
100000 1:22 2:692 3:21 4:25 5:323 6:39 7:26 
100000 1:32 2:2890 3:75 4:93 5:712 6:20 7:44 
100000 1:22 2:11614 3:39 4:38 5:260 6:4 7:86 
100000 1:22 2:265 3:16 4:21 5:150 6:0 7:18 
100000 1:37 2:35798 3:38 4:444 5:2556 6:4 7:205 
100000 1:22 2:110 3:11 4:10 5:100 6:13 7:6 
100000 1:22 2:2928 3:22 4:82 5:391 6:25 7:130 
100000 1:37 2:21477 3:80 4:339 5:1752 6:135 7:370 
100000 1:27 2:7658 3:32 4:186 5:916 6:9 7:61 
59831.87045835657 1:22 2:10843 3:168 4:128 5:1636 6:65 7:31 
100000 1:37 2:5895 3:124 4:118 5:1412 6:95 7:160 
100000 1:32 2:5225 3:123 4:125 5:976 6:53 7:40 
100000 1:32 2:2348 3:56 4:47 5:612 6:19 7:32 
100000 1:32 2:4706 3:57 4:44 5:416 6:11 7:56 
100000 1:27 2:12713 3:19 4:372 5:1200 6:4 7:30 
100000 1:22 2:366 3:16 4:22 5:161 6:16 7:0 
100000 1:22 2:933 3:20 4:25 5:560 6:25 7:32 
100000 1:32 2:3148 3:53 4:92 5:720 6:3 7:17 
90831.990259840415 1:37 2:8990 3:84 4:158 5:1040 6:5 7:286 
45163.821699617649 1:27 2:19966 3:130 4:125 5:924 6:116 7:16 
100000 1:27 2:8770 3:41 4:205 5:912 6:61 7:202 
100000 1:27 2:4382 3:94 4:91 5:704 6:8 7:121 
100000 1:37 2:5892 3:59 4:121 5:796 6:118 7:260 
100000 1:22 2:633 3:16 4:17 5:128 6:19 7:22 
100000 1:37 2:4423 3:48 4:68 5:836 6:56 7:135 
100000 1:32 2:1540 3:25 4:20 5:152 6:29 7:4 
44030.573634649132 1:37 2:21802 3:258 4:98 5:1732 6:315 7:55 
100000 1:22 2:555 3:12 4:44 5:204 6:7 7:43 
100000 1:22 2:135 3:13 4:17 5:104 6:2 7:10 
100000 1:22 2:1315 3:20 4:31 5:260 6:20 7:16 
100000 1:27 2:2782 3:25 4:111 5:792 6:27 7:160 
100000 1:22 2:2962 3:79 4:88 5:688 6:6 7:7 
33750.448788378337 1:27 2:29406 3:430 4:44 5:2120 6:35 7:33 
100000 1:27 2:842 3:24 4:46 5:388 6:8 7:63 
100000 1:27 2:2675 3:85 4:65 5:772 6:3 7:110 
100000 1:32 2:2637 3:79 4:83 5:876 6:48 7:62 
100000 1:22 2:10409 3:46 4:57 5:352 6:44 7:72 
100000 1:27 2:38353 3:231 4:513 5:2044 6:81 7:237 
100000 1:22 2:180 3:15 4:24 5:156 6:9 7:25 
100000 1:32 2:1594 3:62 4:69 5:484 6:37 7:211 
100000 1:22 2:2192 3:22 4:46 5:292 6:50 7:132 
75002.291339616626 1:37 2:22651 3:46 4:342 5:2372 6:34 7:631 
100000 1:32 2:4949 3:24 4:194 5:840 6:14 7:146 
100000 1:22 2:181 3:15 4:16 5:143 6:6 7:0 
100000 1:22 2:6552 3:55 4:146 5:666 6:63 7:75 
39452.287573842339 1:32 2:30045 3:160 4:105 5:2120 6:452 7:268 
100000 1:22 2:212 3:16 4:11 5:104 6:6 7:0 
100000 1:32 2:2695 3:94 4:92 5:535 6:60 7:111 
100000 1:27 2:950 3:31 4:54 5:352 6:14 7:32 
100000 1:22 2:534 3:16 4:39 5:200 6:7 7:40 
100000 1:32 2:9162 3:48 4:100 5:1844 6:139 7:321 
100000 1:27 2:5293 3:26 4:105 5:592 6:16 7:93 
100000 1:27 2:1644 3:70 4:42 5:580 6:24 7:138 
33746.521603153109 1:27 2:15669 3:17 4:329 5:1392 6:4 7:257 
100000 1:37 2:5020 3:91 4:113 5:780 6:144 7:291 
100000 1:37 2:13396 3:101 4:74 5:1372 6:220 7:35 
100000 1:37 2:2967 3:81 4:89 5:700 6:95 7:10 
100000 1:22 2:3881 3:99 4:91 5:652 6:2 7:18 
71612.177257280389 1:22 2:41587 3:32 4:679 5:2000 6:4 7:280 
100000 1:27 2:2353 3:25 4:82 5:601 6:4 7:152 
100000 1:27 2:642 3:25 4:26 5:219 6:6 7:3 
100000 1:22 2:758 3:57 4:25 5:396 6:42 7:3 
100000 1:32 2:3097 3:40 4:137 5:624 6:7 7:93 
100000 1:27 2:483 3:20 4:26 5:232 6:36 7:15 
100000 1:27 2:4226 3:38 4:133 5:568 6:72 7:159 
100000 1:27 2:1513 3:12 4:88 5:684 6:4 7:234 
41881.765626946944 1:32 2:12156 3:71 4:96 5:1052 6:253 7:47 
100000 1:22 2:197 3:19 4:26 5:124 6:1 7:31 
100000 1:27 2:7199 3:40 4:160 5:1216 6:31 7:145 
100000 1:22 2:1289 3:17 4:69 5:564 6:20 7:139 
100000 1:32 2:3734 3:21 4:186 5:728 6:24 7:143 
100000 1:22 2:331 3:11 4:26 5:264 6:3 7:68 
100000 1:27 2:381 3:20 4:38 5:248 6:10 7:66 
100000 1:22 2:251 3:22 4:17 5:151 6:22 7:12 
100000 1:27 2:984 3:13 4:87 5:404 6:3 7:21 
100000 1:32 2:7569 3:47 4:161 5:864 6:17 7:94 
100000 1:22 2:3378 3:23 4:139 5:608 6:29 7:256 
100000 1:22 2:209 3:18 4:16 5:101 6:6 7:3 
100000 1:37 2:2411 3:32 4:87 5:964 6:45 7:207 
100000 1:32 2:1696 3:42 4:53 5:472 6:51 7:60 
100000 1:22 2:1936 3:44 4:68 5:465 6:15 7:80 
100000 1:22 2:374 3:11 4:35 5:244 6:3 7:55 
100000 1:32 2:8225 3:38 4:179 5:856 6:84 7:239 
100000 1:32 2:1843 3:32 4:85 5:612 6:14 7:128 
100000 1:27 2:485 3:21 4:43 5:300 6:36 7:31 
100000 1:22 2:174 3:19 4:18 5:142 6:4 7:2 
100000 1:27 2:6106 3:14 4:179 5:944 6:4 7:162 
100000 1:27 2:25021 3:21 4:529 5:1699 6:15 7:173 
100000 1:27 2:278 3:11 4:31 5:160 6:6 7:8 
100000 1:22 2:479 3:26 4:35 5:254 6:18 7:27 
100000 1:32 2:1407 3:45 4:74 5:472 6:74 7:133 
100000 1:22 2:211 3:10 4:24 5:204 6:15 7:39 
59390.484057761976 1:32 2:4743 3:37 4:32 5:464 6:64 7:9 
1080.5247638979852 1:22 2:30109 3:18 4:618 5:1764 6:5 7:39 
100000 1:37 2:4724 3:30 4:213 5:804 6:0 7:77 
6201.0736627917086 1:32 2:39835 3:106 4:186 5:1928 6:319 7:0 
100000 1:27 2:5359 3:48 4:194 5:1100 6:37 7:41 
100000 1:22 2:214 3:17 4:17 5:112 6:5 7:3 
100000 1:32 2:2140 3:32 4:48 5:504 6:47 7:27 
100000 1:22 2:1251 3:37 4:37 5:522 6:37 7:36 
100000 1:22 2:1294 3:23 4:38 5:416 6:9 7:44 
100000 1:27 2:647 3:14 4:40 5:256 6:8 7:2 
100000 1:27 2:4403 3:96 4:93 5:768 6:16 7:97 
29582.788665222135 1:22 2:34862 3:16 4:498 5:2212 6:14 7:93 
100000 1:27 2:7299 3:16 4:221 5:712 6:2 7:57 
45598.946456865298 1:32 2:27056 3:64 4:294 5:1488 6:74 7:324 
100000 1:27 2:1650 3:34 4:64 5:404 6:24 7:106 
100000 1:27 2:4449 3:90 4:114 5:624 6:114 7:24 
40076.859178773608 1:27 2:9895 3:40 4:53 5:400 6:91 7:109 
100000 1:22 2:186 3:7 4:23 5:232 6:1 7:38 
100000 1:27 2:6022 3:120 4:133 5:904 6:84 7:68 
100000 1:32 2:6363 3:111 4:130 5:952 6:95 7:83 
100000 1:27 2:393 3:15 4:23 5:144 6:12 7:38 
100000 1:22 2:517 3:17 4:44 5:356 6:8 7:63 
100000 1:22 2:141 3:14 4:22 5:156 6:14 7:43 
100000 1:32 2:7469 3:30 4:191 5:756 6:17 7:28 
100000 1:22 2:403 3:17 4:20 5:108 6:7 7:18 
100000 1:32 2:5871 3:71 4:116 5:1004 6:62 7:18 
70966.965489747105 1:22 2:15132 3:99 4:128 5:948 6:52 7:208 
100000 1:27 2:1603 3:28 4:67 5:476 6:3 7:5 
100000 1:27 2:9430 3:57 4:45 5:340 6:84 7:6 
100000 1:22 2:503 3:20 4:24 5:172 6:10 7:23 
31272.875310290572 1:37 2:10584 3:30 4:193 5:1648 6:39 7:164 
100000 1:22 2:2111 3:18 4:100 5:662 6:5 7:117 
19698.937282195293 1:22 2:6206 3:105 4:157 5:1160 6:55 7:20 
100000 1:27 2:6192 3:93 4:153 5:1084 6:46 7:36 
100000 1:27 2:7458 3:138 4:142 5:1484 6:214 7:208 
100000 1:22 2:201 3:18 4:18 5:128 6:8 7:0 
100000 1:32 2:2757 3:42 4:28 5:464 6:5 7:42 
100000 1:32 2:3903 3:58 4:95 5:936 6:35 7:148 
100000 1:22 2:1518 3:30 4:85 5:592 6:3 7:145 
100000 1:37 2:8711 3:25 4:248 5:1344 6:9 7:265 
100000 1:22 2:6670 3:17 4:278 5:972 6:1 7:33 
100000 1:27 2:2777 3:33 4:84 5:462 6:67 7:183 
100000 1:22 2:1431 3:90 4:49 5:392 6:35 7:27 
100000 1:22 2:976 3:40 4:63 5:360 6:18 7:5 
100000 1:22 2:1451 3:13 4:55 5:476 6:5 7:174 
100000 1:22 2:392 3:14 4:19 5:128 6:5 7:14 
100000 1:22 2:426 3:17 4:40 5:192 6:11 7:15 
100000 1:22 2:23865 3:73 4:271 5:1624 6:101 7:232 
100000 1:32 2:6205 3:24 4:230 5:980 6:37 7:2 
100000 1:32 2:2159 3:47 4:90 5:744 6:2 7:22 
100000 1:27 2:498 3:16 4:48 5:244 6:10 7:5 
100000 1:32 2:4058 3:100 4:75 5:736 6:20 7:85 
100000 1:22 2:149 3:12 4:23 5:108 6:8 7:1 
100000 1:27 2:610 3:22 4:37 5:208 6:24 7:33 
100000 1:27 2:4518 3:108 4:101 5:892 6:11 7:43 
100000 1:32 2:6273 3:77 4:134 5:1028 6:27 7:129 
100000 1:32 2:1790 3:25 4:85 5:716 6:32 7:18 
100000 1:22 2:223 3:10 4:35 5:176 6:10 7:10 
100000 1:22 2:1815 3:21 4:23 5:181 6:13 7:23 
100000 1:32 2:3707 3:53 4:130 5:824 6:21 7:38 
23.475493593297529 1:37 2:106834 3:69 4:1009 5:3488 6:185 7:1155 
100000 1:32 2:20057 3:67 4:91 5:929 6:145 7:193 
100000 1:32 2:5479 3:117 4:123 5:764 6:21 7:15 
100000 1:32 2:2007 3:34 4:128 5:548 6:49 7:40 
100000 1:22 2:2289 3:24 4:84 5:455 6:10 7:105 
100000 1:32 2:1510 3:39 4:65 5:423 6:7 7:73 
100000 1:22 2:170 3:14 4:16 5:104 6:3 7:21 
9252.3403711387946 1:32 2:38388 3:27 4:664 5:1743 6:15 7:47 
100000 1:22 2:125 3:12 4:14 5:100 6:3 7:2 
100000 1:37 2:3802 3:76 4:84 5:672 6:88 7:98 
100000 1:27 2:4440 3:31 4:143 5:796 6:8 7:89 
100000 1:22 2:642 3:12 4:56 5:380 6:1 7:5 
100000 1:32 2:15829 3:63 4:220 5:1056 6:49 7:80 
100000 1:37 2:7142 3:131 4:120 5:1004 6:122 7:64 
100000 1:27 2:2811 3:86 4:83 5:636 6:35 7:48 
100000 1:32 2:3684 3:55 4:139 5:1124 6:51 7:63 
100000 1:22 2:148 3:10 4:16 5:192 6:12 7:11 
100000 1:37 2:7523 3:49 4:133 5:1700 6:54 7:319 
56421.824983441111 1:37 2:4444 3:48 4:92 5:884 6:114 7:109 
2035.1511936312415 1:27 2:42065 3:92 4:229 5:2368 6:230 7:634 
100000 1:32 2:3246 3:40 4:124 5:708 6:37 7:164 
100000 1:37 2:6271 3:95 4:169 5:1320 6:57 7:194 
100000 1:22 2:1302 3:21 4:25 5:219 6:17 7:35 
100000 1:22 2:1937 3:8 4:75 5:692 6:8 7:221 
100000 1:22 2:332 3:11 4:44 5:236 6:2 7:72 
4846.8184105075024 1:22 2:7087 3:156 4:74 5:1708 6:265 7:15 
100000 1:22 2:948 3:11 4:98 5:304 6:5 7:4 
100000 1:32 2:1928 3:66 4:71 5:480 6:74 7:8 
100000 1:32 2:52 3:7 4:9 5:96 6:4 7:1 
100000 1:37 2:6908 3:145 4:121 5:1092 6:43 7:80 
97736.292324535898 1:27 2:12652 3:37 4:100 5:874 6:92 7:300 
100000 1:22 2:240 3:18 4:21 5:194 6:9 7:17 
100000 1:27 2:3551 3:11 4:133 5:676 6:24 7:91 
96826.729309822447 1:27 2:30255 3:135 4:210 5:1988 6:422 7:652 
100000 1:32 2:30109 3:18 4:618 5:1764 6:5 7:39 
100000 1:32 2:3043 3:56 4:47 5:384 6:6 7:75 
77226.258839974529 1:37 2:25137 3:61 4:201 5:2040 6:143 7:720 
100000 1:32 2:3910 3:17 4:208 5:732 6:6 7:7 
100000 1:22 2:137 3:13 4:16 5:116 6:5 7:8 
50298.790947436646 1:37 2:15377 3:58 4:180 5:828 6:177 7:69 
100000 1:22 2:161 3:17 4:14 5:121 6:13 7:1 
48317.296666675124 1:37 2:14255 3:178 4:55 5:1924 6:93 7:19 
100000 1:22 2:3880 3:26 4:84 5:396 6:25 7:166 
100000 1:27 2:1408 3:19 4:60 5:612 6:24 7:117 
100000 1:32 2:3246 3:41 4:61 5:524 6:37 7:104 
100000 1:32 2:1626 3:22 4:31 5:420 6:36 7:50 
100000 1:37 2:13817 3:203 4:120 5:1652 6:83 7:34 
28259.176606723111 1:27 2:14410 3:151 4:248 5:2028 6:49 7:17 
100000 1:27 2:4188 3:80 4:134 5:804 6:49 7:77 
100000 1:32 2:4018 3:29 4:68 5:532 6:53 7:175 
100000 1:22 2:926 3:35 4:34 5:240 6:11 7:60 
100000 1:22 2:431 3:14 4:17 5:106 6:1 7:13 
100000 1:22 2:2297 3:62 4:90 5:948 6:10 7:102 
100000 1:22 2:111 3:11 4:17 5:92 6:6 7:3 
100000 1:27 2:4684 3:26 4:217 5:856 6:19 7:83 
100000 1:22 2:137 3:12 4:11 5:92 6:6 7:11 
49658.920918361655 1:22 2:10075 3:42 4:94 5:635 6:3 7:197 
100000 1:22 2:2507 3:57 4:71 5:320 6:2 7:0 
100000 1:22 2:499 3:31 4:35 5:336 6:36 7:13 
100000 1:32 2:1944 3:64 4:20 5:352 6:7 7:5 
100000 1:22 2:6704 3:59 4:227 5:943 6:18 7:108 
100000 1:27 2:3859 3:50 4:123 5:840 6:73 7:115 
44288.807551595404 1:22 2:3158 3:80 4:95 5:680 6:51 7:38 
100000 1:37 2:3412 3:37 4:85 5:656 6:10 7:217 
100000 1:22 2:603 3:20 4:32 5:231 6:7 7:9 
100000 1:32 2:313 3:19 4:26 5:232 6:7 7:20 
100000 1:22 2:309 3:13 4:19 5:168 6:11 7:8 
100000 1:37 2:7855 3:74 4:138 5:767 6:51 7:86 
100000 1:32 2:4448 3:40 4:122 5:644 6:29 7:54 
100000 1:27 2:5846 3:42 4:100 5:892 6:14 7:138 
100000 1:22 2:307 3:12 4:22 5:232 6:20 7:52 
100000 1:27 2:877 3:21 4:20 5:148 6:10 7:8 
100000 1:32 2:3885 3:40 4:43 5:277 6:18 7:9 
100000 1:27 2:3707 3:53 4:130 5:824 6:21 7:38 
64113.738974720094 1:32 2:8534 3:59 4:68 5:1724 6:111 7:41 
10391.797471451308 1:27 2:7034 3:43 4:120 5:1348 6:120 7:376 
100000 1:27 2:966 3:18 4:31 5:604 6:32 7:12 
100000 1:37 2:8897 3:97 4:68 5:760 6:97 7:99 
100000 1:37 2:11823 3:138 4:177 5:1024 6:61 7:69 
100000 1:32 2:1066 3:13 4:27 5:552 6:31 7:77 
100000 1:22 2:472 3:15 4:32 5:216 6:14 7:18 
100000 1:32 2:4042 3:109 4:79 5:684 6:26 7:82 
100000 1:22 2:140 3:16 4:13 5:109 6:6 7:5 
100000 1:27 2:4454 3:26 4:27 5:140 6:22 7:39 
100000 1:22 2:281 3:19 4:23 5:173 6:4 7:2 
100000 1:32 2:1774 3:12 4:105 5:420 6:5 7:37 
100000 1:32 2:727 3:20 4:48 5:270 6:7 7:73 
100000 1:27 2:2353 3:34 4:70 5:343 6:29 7:143 
100000 1:22 2:176 3:8 4:25 5:152 6:0 7:28 
5064.1822647588369 1:37 2:45921 3:100 4:657 5:2048 6:57 7:331 
100000 1:37 2:2651 3:45 4:94 5:468 6:5 7:18 
100000 1:32 2:939 3:20 4:42 5:284 6:25 7:15 
100000 1:22 2:118 3:15 4:20 5:96 6:5 7:8 
100000 1:22 2:250 3:13 4:13 5:144 6:7 7:13 
44.488508049054531 1:32 2:82232 3:95 4:81 5:1604 6:288 7:276 
100000 1:22 2:209 3:16 4:16 5:101 6:4 7:6 
100000 1:32 2:360 3:20 4:30 5:272 6:20 7:21 
13991.563862854649 1:27 2:47698 3:65 4:512 5:2248 6:81 7:481 
100000 1:27 2:3737 3:75 4:120 5:1052 6:10 7:35 
100000 1:22 2:2105 3:24 4:46 5:358 6:29 7:141 
100000 1:32 2:7595 3:23 4:254 5:1060 6:38 7:85 
100000 1:32 2:4677 3:42 4:204 5:836 6:1 7:55 
100000 1:27 2:887 3:22 4:45 5:484 6:11 7:3 
100000 1:37 2:8840 3:68 4:152 5:976 6:59 7:132 
100000 1:22 2:167 3:19 4:17 5:156 6:17 7:9 
67640.363790756412 1:37 2:23823 3:140 4:142 5:1472 6:22 7:48 
100000 1:27 2:1657 3:22 4:65 5:435 6:14 7:156 
100000 1:37 2:4590 3:44 4:123 5:1028 6:62 7:172 
100000 1:22 2:1394 3:19 4:130 5:451 6:0 7:11 
100000 1:32 2:1997 3:65 4:73 5:516 6:17 7:12 
75455.676343008206 1:27 2:13092 3:177 4:172 5:1288 6:76 7:82 
100000 1:22 2:175 3:16 4:15 5:118 6:4 7:0 
100000 1:22 2:16047 3:40 4:57 5:693 6:55 7:93 
100000 1:22 2:9432 3:13 4:261 5:1204 6:4 7:301 
100000 1:37 2:8234 3:65 4:72 5:816 6:97 7:135 
100000 1:27 2:2084 3:29 4:66 5:376 6:23 7:63 
100000 1:27 2:1286 3:15 4:37 5:472 6:18 7:70 
100000 1:22 2:221 3:18 4:17 5:136 6:14 7:5 
100000 1:32 2:629 3:22 4:38 5:488 6:33 7:19 
83255.231608245085 1:27 2:5286 3:101 4:116 5:1052 6:40 7:7 
100000 1:22 2:250 3:8 4:15 5:192 6:21 7:29 
100000 1:22 2:796 3:10 4:47 5:388 6:0 7:14 
100000 1:22 2:1955 3:20 4:75 5:616 6:27 7:190 
100000 1:27 2:6778 3:73 4:197 5:1232 6:11 7:71 
100000 1:32 2:2580 3:17 4:130 5:740 6:19 7:63 
100000 1:22 2:3038 3:45 4:113 5:660 6:23 7:97 
38366.52085906818 1:32 2:44528 3:54 4:528 5:3124 6:110 7:988 
100000 1:37 2:2561 3:26 4:67 5:452 6:44 7:130 
-100000 1:32 2:5131 3:26 4:120 5:976 6:41 7:188 
-100000 1:27 2:433 3:13 4:36 5:192 6:12 7:16 
-100000 1:32 2:2991 3:20 4:124 5:728 6:15 7:47 
-100000 1:22 2:46 3:11 4:8 5:76 6:7 7:1 
-100000 1:32 2:1207 3:21 4:38 5:270 6:19 7:44 
-100000 1:32 2:3946 3:123 4:100 5:680 6:39 7:37 
-59138.662847083018 1:32 2:27011 3:312 4:395 5:1608 6:51 7:0 
-100000 1:27 2:8499 3:120 4:190 5:1372 6:68 7:230 
-100000 1:37 2:1197 3:48 4:44 5:312 6:20 7:52 
-100000 1:22 2:132 3:11 4:18 5:116 6:8 7:18 
-100000 1:22 2:1259 3:19 4:70 5:360 6:2 7:17 
-100000 1:22 2:4833 3:127 4:117 5:820 6:31 7:66 
-100000 1:37 2:1879 3:28 4:39 5:425 6:87 7:126 
-100000 1:27 2:569 3:29 4:27 5:220 6:5 7:2 
-100000 1:27 2:4371 3:35 4:20 5:290 6:31 7:28 
-61369.983478940754 1:37 2:45464 3:38 4:564 5:2564 6:20 7:560 
-100000 1:27 2:1232 3:90 4:3 5:464 6:19 7:1 
-100000 1:32 2:547 3:18 4:38 5:403 6:0 7:19 
-100000 1:22 2:74 3:10 4:15 5:92 6:9 7:3 
-100000 1:22 2:107 3:12 4:14 5:100 6:11 7:5 
-100000 1:27 2:35647 3:116 4:543 5:2008 6:79 7:155 
-100000 1:37 2:3696 3:94 4:99 5:1072 6:143 7:1 
-89299.212570646472 1:37 2:29587 3:170 4:445 5:1724 6:217 7:547 
-100000 1:22 2:2817 3:84 4:83 5:712 6:18 7:115 
-100000 1:22 2:4516 3:112 4:116 5:572 6:5 7:52 
-100000 1:37 2:3228 3:75 4:91 5:956 6:20 7:14 
-100000 1:27 2:1834 3:13 4:92 5:508 6:5 7:35 
-100000 1:37 2:1937 3:8 4:75 5:692 6:8 7:221 
-100000 1:27 2:405 3:18 4:15 5:156 6:24 7:10 
-100000 1:27 2:5854 3:37 4:45 5:256 6:62 7:29 
-100000 1:22 2:8718 3:177 4:121 5:1212 6:7 7:39 
-100000 1:22 2:4882 3:13 4:252 5:696 6:1 7:72 
-100000 1:22 2:638 3:21 4:40 5:271 6:7 7:99 
-100000 1:37 2:23792 3:30 4:388 5:1820 6:17 7:225 
-100000 1:22 2:2929 3:69 4:85 5:496 6:11 7:6 
-100000 1:22 2:1736 3:30 4:27 5:208 6:10 7:39 
-100000 1:27 2:14075 3:10 4:366 5:1140 6:7 7:6 
-100000 1:22 2:247 3:19 4:21 5:168 6:1 7:16 
-100000 1:22 2:398 3:17 4:25 5:236 6:8 7:29 
-100000 1:22 2:1208 3:16 4:18 5:120 6:10 7:8 
-100000 1:37 2:5169 3:45 4:126 5:712 6:0 7:198 
-100000 1:32 2:1114 3:59 4:44 5:308 6:0 7:42 
-100000 1:37 2:2185 3:72 4:54 5:452 6:74 7:68 
-100000 1:27 2:427 3:13 4:30 5:216 6:8 7:38 
-100000 1:22 2:337 3:13 4:26 5:236 6:8 7:41 
-100000 1:27 2:15582 3:100 4:124 5:822 6:67 7:190 
-100000 1:22 2:1482 3:12 4:94 5:464 6:6 7:34 
-100000 1:22 2:511 3:17 4:18 5:160 6:6 7:26 
-100000 1:22 2:287 3:13 4:18 5:120 6:4 7:21 
-100000 1:32 2:3104 3:58 4:93 5:644 6:61 7:7 
-100000 1:27 2:16927 3:62 4:73 5:960 6:167 7:238 
-100000 1:22 2:4469 3:89 4:115 5:888 6:64 7:26 
-100000 1:22 2:1367 3:25 4:29 5:188 6:1 7:36 
-100000 1:22 2:3174 3:11 4:155 5:676 6:1 7:16 
-100000 1:32 2:26793 3:62 4:152 5:1692 6:174 7:564 
-100000 1:37 2:18423 3:230 4:256 5:1680 6:215 7:7 
-100000 1:37 2:5187 3:116 4:103 5:876 6:45 7:59 
-100000 1:22 2:5873 3:16 4:229 5:800 6:7 7:201 
-100000 1:37 2:8573 3:26 4:180 5:892 6:55 7:502 
-100000 1:32 2:4028 3:81 4:124 5:984 6:28 7:25 
-100000 1:37 2:3051 3:45 4:19 5:314 6:66 7:15 
-100000 1:27 2:6266 3:33 4:130 5:1044 6:13 7:435 
-100000 1:37 2:12461 3:40 4:119 5:817 6:117 7:92 
-100000 1:27 2:1028 3:84 4:30 5:348 6:6 7:8 
-100000 1:37 2:6594 3:19 4:221 5:1124 6:1 7:164 
-100000 1:22 2:2637 3:79 4:83 5:876 6:48 7:62 
-100000 1:27 2:8391 3:34 4:47 5:260 6:30 7:7 
-100000 1:27 2:1638 3:22 4:95 5:424 6:20 7:85 
-100000 1:27 2:4308 3:15 4:160 5:948 6:9 7:220 
-100000 1:37 2:22136 3:73 4:49 5:1016 6:172 7:119 
-100.24073636587202 1:37 2:66623 3:91 4:518 5:2972 6:28 7:196 
-100000 1:32 2:3409 3:17 4:175 5:546 6:11 7:108 
-100000 1:27 2:292 3:17 4:21 5:236 6:7 7:13 
-100000 1:22 2:3941 3:14 4:182 5:756 6:9 7:46 
-100000 1:32 2:5958 3:45 4:112 5:716 6:14 7:136 
-100000 1:32 2:5752 3:18 4:264 5:860 6:5 7:4 
-100000 1:37 2:5799 3:13 4:78 5:528 6:6 7:40 
-100000 1:22 2:113 3:10 4:18 5:124 6:6 7:3 
-100000 1:27 2:6222 3:12 4:181 5:988 6:9 7:80 
-100000 1:22 2:184 3:13 4:25 5:212 6:4 7:36 
-100000 1:32 2:1018 3:85 4:1 5:400 6:28 7:4 
-100000 1:32 2:1424 3:27 4:83 5:405 6:5 7:14 
-100000 1:32 2:9318 3:20 4:331 5:956 6:3 7:14 
-100000 1:27 2:4192 3:85 4:105 5:836 6:38 7:73 
-34751.645256501419 1:37 2:34748 3:123 4:87 5:2776 6:449 7:305 
-100000 1:27 2:2435 3:19 4:30 5:184 6:6 7:51 
-100000 1:27 2:373 3:13 4:36 5:316 6:6 7:48 
-100000 1:22 2:89 3:10 4:11 5:96 6:12 7:8 
-100000 1:22 2:23258 3:13 4:386 5:1868 6:1 7:163 
-100000 1:22 2:173 3:14 4:19 5:184 6:4 7:27 
-100000 1:27 2:1828 3:15 4:66 5:948 6:16 7:82 
-100000 1:27 2:1076 3:14 4:66 5:560 6:8 7:51 
-100000 1:37 2:4765 3:33 4:69 5:1172 6:108 7:237 
-100000 1:37 2:6238 3:21 4:250 5:924 6:1 7:130 
-100000 1:37 2:3506 3:29 4:155 5:648 6:10 7:32 
-100000 1:27 2:1729 3:22 4:110 5:481 6:1 7:68 
-100000 1:27 2:9790 3:39 4:61 5:691 6:78 7:180 
-100000 1:22 2:1718 3:20 4:121 5:459 6:9 7:4 
-100000 1:32 2:9989 3:62 4:17 5:981 6:178 7:9 
-100000 1:27 2:1067 3:15 4:28 5:192 6:17 7:26 
-100000 1:27 2:2181 3:24 4:81 5:724 6:26 7:91 
-100000 1:37 2:2946 3:23 4:136 5:725 6:34 7:132 
-100000 1:27 2:1531 3:20 4:93 5:428 6:4 7:132 
-100000 1:27 2:1054 3:90 4:3 5:448 6:5 7:4 
-100000 1:22 2:151 3:12 4:13 5:108 6:17 7:4 
-100000 1:27 2:9240 3:130 4:167 5:1516 6:27 7:140 
-100000 1:27 2:2073 3:21 4:101 5:520 6:1 7:257 
-100000 1:22 2:217 3:11 4:31 5:172 6:8 7:38 
-100000 1:27 2:11450 3:70 4:23 5:720 6:99 7:19 
-100000 1:22 2:3308 3:101 4:86 5:724 6:85 7:146 
-100000 1:22 2:337 3:13 4:24 5:176 6:12 7:5 
-100000 1:32 2:301 3:18 4:13 5:152 6:25 7:9 
-100000 1:22 2:2551 3:21 4:117 5:400 6:0 7:91 
-100000 1:22 2:3594 3:100 4:83 5:692 6:72 7:26 
-100000 1:27 2:942 3:19 4:18 5:144 6:5 7:34 
-100000 1:22 2:2635 3:64 4:82 5:612 6:7 7:20 
-100000 1:22 2:4120 3:113 4:72 5:724 6:137 7:88 
-100000 1:27 2:6342 3:117 4:138 5:1256 6:55 7:35 
-100000 1:22 2:562 3:13 4:43 5:304 6:8 7:81 
-100000 1:22 2:460 3:14 4:40 5:212 6:4 7:19 
-18788.819617602632 1:32 2:42730 3:50 4:499 5:2043 6:77 7:1025 
-100000 1:37 2:1088 3:17 4:25 5:492 6:46 7:86 
-71578.25070493111 1:32 2:1311 3:13 4:86 5:439 6:6 7:50 
-100000 1:27 2:4453 3:95 4:104 5:816 6:45 7:81 
-77289.676819945147 1:32 2:3128 3:14 4:183 5:648 6:5 7:67 
-100000 1:32 2:6629 3:145 4:106 5:1232 6:225 7:46 
-61084.120432177784 1:32 2:1459 3:9 4:84 5:548 6:0 7:207 
-100000 1:32 2:12951 3:40 4:174 5:1064 6:63 7:29 
-100000 1:37 2:2786 3:27 4:116 5:764 6:2 7:224 
-100000 1:37 2:9690 3:28 4:254 5:1044 6:19 7:287 
-100000 1:32 2:1375 3:32 4:49 5:480 6:7 7:41 
-100000 1:22 2:251 3:10 4:23 5:268 6:8 7:34 
-100000 1:32 2:7210 3:15 4:263 5:1020 6:18 7:221 
-100000 1:37 2:2450 3:61 4:43 5:716 6:94 7:39 
-100000 1:37 2:2029 3:84 4:60 5:524 6:61 7:14 
-100000 1:22 2:371 3:19 4:37 5:209 6:13 7:36 
-100000 1:27 2:24750 3:27 4:347 5:2076 6:20 7:634 
-100000 1:22 2:1779 3:23 4:75 5:344 6:18 7:62 
-100000 1:27 2:308 3:16 4:30 5:252 6:15 7:25 
-100000 1:32 2:558 3:18 4:15 5:384 6:9 7:9 
-100000 1:37 2:4552 3:16 4:129 5:644 6:4 7:253 
-100000 1:22 2:716 3:20 4:61 5:264 6:6 7:61 
-100000 1:27 2:324 3:14 4:15 5:396 6:13 7:5 
-100000 1:22 2:7062 3:54 4:111 5:1220 6:184 7:413 
-100000 1:27 2:3404 3:96 4:79 5:544 6:73 7:65 
-100000 1:37 2:10448 3:43 4:71 5:1828 6:132 7:114 
-100000 1:37 2:27397 3:94 4:89 5:2032 6:290 7:238 
-100000 1:32 2:7049 3:17 4:298 5:888 6:7 7:17 
-100000 1:22 2:299 3:10 4:38 5:264 6:0 7:43 
-100000 1:22 2:428 3:13 4:42 5:236 6:2 7:90 
-100000 1:32 2:2023 3:54 4:94 5:488 6:10 7:110 
-100000 1:27 2:39800 3:23 4:563 5:2288 6:4 7:436 
-100000 1:32 2:3814 3:69 4:13 5:936 6:225 7:9 
-100000 1:32 2:1076 3:21 4:44 5:472 6:6 7:100 
-100000 1:32 2:1156 3:24 4:18 5:192 6:16 7:6 
-100000 1:32 2:4351 3:34 4:58 5:667 6:73 7:177 
-100000 1:22 2:228 3:10 4:27 5:204 6:9 7:51 
-100000 1:37 2:6423 3:74 4:130 5:828 6:95 7:16 
-100000 1:22 2:1538 3:23 4:87 5:372 6:4 7:100 
-100000 1:32 2:15818 3:205 4:202 5:1940 6:209 7:228 
-100000 1:32 2:1859 3:52 4:76 5:428 6:3 7:78 
-100000 1:22 2:3468 3:115 4:89 5:916 6:78 7:46 
-100000 1:37 2:1633 3:66 4:68 5:496 6:22 7:37 
-100000 1:22 2:374 3:10 4:16 5:104 6:0 7:6 
-100000 1:32 2:11439 3:31 4:172 5:1172 6:9 7:274 
-100000 1:37 2:6983 3:40 4:238 5:918 6:31 7:41 
-100000 1:27 2:1956 3:12 4:73 5:736 6:12 7:183 
-100000 1:27 2:379 3:10 4:34 5:276 6:11 7:58 
-100000 1:22 2:244 3:14 4:20 5:148 6:10 7:31 
-100000 1:37 2:6806 3:125 4:136 5:888 6:14 7:90 
-100000 1:22 2:343 3:12 4:11 5:84 6:3 7:11 
-100000 1:27 2:3924 3:11 4:136 5:520 6:0 7:166 
-100000 1:22 2:4211 3:107 4:99 5:672 6:74 7:16 
-100000 1:22 2:9095 3:25 4:256 5:859 6:25 7:306 
-100000 1:27 2:2920 3:51 4:105 5:880 6:2 7:6 
-100000 1:22 2:155 3:10 4:13 5:92 6:7 7:3 
-100000 1:27 2:1221 3:38 4:35 5:377 6:56 7:27 
-100000 1:22 2:3587 3:11 4:163 5:776 6:5 7:197 
-100000 1:32 2:782 3:33 4:38 5:316 6:25 7:2 
-100000 1:22 2:4115 3:95 4:102 5:740 6:76 7:46 
-100000 1:22 2:4216 3:104 4:95 5:856 6:62 7:30 
-100000 1:27 2:6912 3:128 4:140 5:1228 6:53 7:121 
-100000 1:22 2:1433 3:21 4:67 5:592 6:9 7:89 
-100000 1:32 2:1924 3:14 4:92 5:496 6:0 7:65 
-100000 1:22 2:573 3:13 4:56 5:328 6:1 7:105 
-100000 1:22 2:319 3:17 4:26 5:192 6:8 7:9 
-100000 1:32 2:3345 3:13 4:158 5:696 6:0 7:89 
-100000 1:22 2:733 3:15 4:28 5:220 6:8 7:65 
-100000 1:22 2:181 3:16 4:13 5:105 6:11 7:1 
-100000 1:37 2:5717 3:118 4:47 5:1072 6:206 7:4 
-100000 1:22 2:1089 3:10 4:87 5:468 6:9 7:113 
-100000 1:22 2:902 3:12 4:70 5:436 6:1 7:176 
-100000 1:22 2:3782 3:110 4:94 5:656 6:19 7:10 
-100000 1:37 2:14430 3:298 4:82 5:1176 6:64 7:69 
-100000 1:22 2:15894 3:41 4:36 5:342 6:83 7:72 
-100000 1:32 2:8237 3:36 4:269 5:868 6:15 7:29 
-100000 1:22 2:283 3:16 4:19 5:188 6:5 7:8 
-100000 1:22 2:334 3:10 4:30 5:188 6:11 7:34 
-100000 1:32 2:3505 3:97 4:93 5:848 6:32 7:31 
-100000 1:27 2:4422 3:9 4:196 5:820 6:5 7:121 
-100000 1:27 2:2788 3:91 4:76 5:648 6:26 7:55 
-100000 1:32 2:3458 3:43 4:21 5:360 6:6 7:28 
-100000 1:22 2:301 3:11 4:26 5:164 6:2 7:17 
-100000 1:22 2:5480 3:95 4:113 5:944 6:68 7:185 
-23704.834595204997 1:27 2:22209 3:13 4:469 5:1368 6:10 7:276 
-100000 1:27 2:5399 3:53 4:149 5:1220 6:24 7:306 
-100000 1:32 2:1661 3:39 4:96 5:424 6:19 7:21 
-100000 1:27 2:634 3:22 4:22 5:158 6:1 7:17 
-100000 1:22 2:1237 3:18 4:28 5:144 6:7 7:10 
-100000 1:32 2:1053 3:25 4:68 5:396 6:19 7:5 
-100000 1:37 2:2528 3:11 4:122 5:900 6:0 7:129 
-100000 1:22 2:580 3:11 4:44 5:292 6:2 7:31 
-100000 1:22 2:311 3:14 4:34 5:220 6:10 7:11 
-100000 1:27 2:464 3:18 4:29 5:189 6:20 7:36 
-100000 1:32 2:4388 3:98 4:121 5:804 6:80 7:46 
-100000 1:22 2:660 3:14 4:28 5:128 6:10 7:4 
-100000 1:27 2:2698 3:96 4:73 5:508 6:61 7:12 
-100000 1:22 2:198 3:15 4:17 5:144 6:3 7:7 
-100000 1:37 2:5082 3:28 4:122 5:839 6:24 7:354 
-100000 1:22 2:662 3:14 4:52 5:288 6:3 7:64 
-100000 1:22 2:191 3:16 4:21 5:146 6:3 7:10 
-100000 1:27 2:479 3:23 4:26 5:208 6:45 7:6 
-59450.103202377868 1:27 2:38875 3:250 4:579 5:2004 6:108 7:92 
-100000 1:37 2:1153 3:27 4:55 5:444 6:22 7:151 
-100000 1:27 2:3796 3:92 4:103 5:1068 6:32 7:123 
-100000 1:27 2:386 3:35 4:26 5:188 6:19 7:13 
-100000 1:27 2:2463 3:84 4:66 5:592 6:12 7:44 
-100000 1:27 2:4239 3:39 4:123 5:1044 6:93 7:30 
-100000 1:37 2:4325 3:30 4:173 5:880 6:61 7:297 
-100000 1:22 2:137 3:11 4:13 5:164 6:1 7:6 
-100000 1:22 2:114 3:14 4:19 5:124 6:7 7:6 
-100000 1:22 2:7509 3:117 4:126 5:1028 6:16 7:155 
-100000 1:27 2:470 3:8 4:29 5:392 6:4 7:60 
-100000 1:27 2:5387 3:127 4:87 5:1344 6:4 7:88 
-100000 1:22 2:1643 3:13 4:93 5:424 6:2 7:23 
-100000 1:22 2:292 3:15 4:33 5:216 6:4 7:22 
-100000 1:27 2:2845 3:21 4:29 5:144 6:9 7:19 
-100000 1:22 2:33706 3:77 4:508 5:2240 6:23 7:70 
-100000 1:22 2:140 3:12 4:20 5:152 6:8 7:23 
-100000 1:22 2:2726 3:14 4:116 5:584 6:1 7:78 
-100000 1:37 2:7226 3:29 4:51 5:296 6:44 7:64 
-100000 1:27 2:1066 3:26 4:69 5:540 6:12 7:75 
-100000 1:22 2:326 3:18 4:21 5:136 6:9 7:3 
-100000 1:27 2:199 3:13 4:26 5:248 6:11 7:51 
-100000 1:22 2:250 3:14 4:31 5:224 6:8 7:29 
-100000 1:22 2:367 3:15 4:44 5:256 6:11 7:70 
-100000 1:27 2:5279 3:93 4:112 5:804 6:24 7:82 
-100000 1:22 2:299 3:13 4:32 5:200 6:21 7:32 
-100000 1:32 2:4187 3:50 4:51 5:704 6:82 7:15 
-100000 1:32 2:752 3:23 4:33 5:492 6:11 7:60 
-16538.596683992826 1:22 2:111 3:11 4:12 5:80 6:7 7:3 
-100000 1:32 2:3649 3:30 4:100 5:647 6:40 7:309 
-100000 1:27 2:1796 3:15 4:67 5:600 6:12 7:125 
-100000 1:22 2:235 3:25 4:20 5:202 6:20 7:3 
-100000 1:32 2:12629 3:116 4:19 5:873 6:53 7:17 
-100000 1:27 2:8806 3:141 4:125 5:1076 6:71 7:34 
-100000 1:22 2:418 3:14 4:29 5:184 6:7 7:34 
-100000 1:22 2:223 3:16 4:17 5:135 6:0 7:0 
-53211.50880112782 1:32 2:21342 3:19 4:488 5:1840 6:3 7:237 
-100000 1:32 2:2934 3:30 4:5 5:720 6:106 7:3 
-60561.141791207672 1:37 2:1391 3:32 4:27 5:188 6:3 7:13 
-100000 1:32 2:4156 3:93 4:88 5:1220 6:309 7:275 
-100000 1:22 2:374 3:12 4:39 5:216 6:8 7:9 
-100000 1:32 2:836 3:65 4:30 5:392 6:2 7:10 
-100000 1:22 2:712 3:15 4:16 5:108 6:14 7:8 
-100000 1:37 2:11153 3:41 4:100 5:2012 6:51 7:236 
-100000 1:22 2:8967 3:14 4:257 5:1108 6:10 7:176 
-100000 1:27 2:5708 3:47 4:38 5:284 6:75 7:55 
-100000 1:37 2:3193 3:21 4:139 5:604 6:1 7:38 
-100000 1:27 2:9052 3:39 4:217 5:1224 6:9 7:135 
-100000 1:27 2:8960 3:142 4:147 5:1684 6:109 7:159 
-100000 1:22 2:237 3:11 4:17 5:140 6:6 7:6 
-53870.006872442791 1:22 2:283 3:11 4:39 5:240 6:5 7:51 
-100000 1:27 2:475 3:22 4:21 5:144 6:34 7:30 
-100000 1:37 2:9377 3:85 4:144 5:1108 6:42 7:10 
-100000 1:22 2:697 3:19 4:32 5:204 6:0 7:45 
-100000 1:27 2:838 3:14 4:72 5:380 6:12 7:90 
-100000 1:27 2:7551 3:14 4:251 5:892 6:17 7:10 
-100000 1:32 2:936 3:24 4:17 5:208 6:43 7:15 
-100000 1:22 2:302 3:12 4:13 5:92 6:3 7:8 
-100000 1:27 2:16407 3:49 4:54 5:757 6:175 7:193 
-100000 1:32 2:8297 3:43 4:87 5:560 6:16 7:52 
-100000 1:37 2:1080 3:27 4:41 5:336 6:4 7:44 
-100000 1:37 2:2014 3:31 4:73 5:776 6:50 7:207 
-100000 1:22 2:1090 3:16 4:73 5:328 6:9 7:60 
-100000 1:22 2:3164 3:108 4:78 5:600 6:34 7:14 
-100000 1:22 2:3704 3:12 4:138 5:884 6:7 7:153 
-100000 1:32 2:6189 3:129 4:100 5:892 6:117 7:115 
