svm_type c_svc
kernel_type rbf
gamma 3e-09
nr_class 2
total_sv 61
rho 2229.0804222467905
label 1 0
probA -0.075662711782166395
probB -0.013132279949998184
nr_sv 31 30
SV
9000000 1:22 2:28 3:50 4:284 5:9 6:18 
9000000 1:27 2:48 3:485 4:2112 5:8 6:134 
7444948.2783679208 1:27 2:106 3:90 4:680 5:62 6:109 
9000000 1:22 2:13 3:41 4:228 5:19 6:42 
9000000 1:27 2:88 3:57 4:604 5:81 6:67 
9000000 1:32 2:109 3:97 4:812 5:153 6:165 
9000000 1:22 2:107 3:80 4:691 5:100 6:169 
1782495.3748521034 1:32 2:111 3:274 4:1428 5:90 6:475 
9000000 1:27 2:74 3:297 4:1312 5:143 6:52 
9000000 1:22 2:18 3:28 4:232 5:48 6:29 
3983208.7140462389 1:32 2:127 3:296 4:2468 5:337 6:866 
1205053.1222410377 1:22 2:33 3:73 4:2148 5:90 6:237 
793627.29470834706 1:37 2:401 3:100 4:2784 5:54 6:5 
9000000 1:27 2:6 3:18 4:268 5:16 6:52 
9000000 1:32 2:37 3:78 4:432 5:27 6:84 
9000000 1:22 2:36 3:51 4:432 5:81 6:42 
9000000 1:27 2:156 3:67 4:964 5:25 6:112 
9000000 1:22 2:53 3:14 4:1288 5:191 6:10 
9000000 1:32 2:101 3:111 4:972 5:234 6:10 
9000000 1:22 2:22 3:32 4:192 5:33 6:22 
9000000 1:27 2:27 3:25 4:228 5:7 6:18 
9000000 1:37 2:73 3:206 4:956 5:65 6:166 
9000000 1:32 2:77 3:172 4:1548 5:261 6:493 
8689968.4400589764 1:37 2:187 3:70 4:1308 5:13 6:112 
9000000 1:27 2:54 3:61 4:381 5:47 6:19 
9000000 1:22 2:34 3:167 4:608 5:11 6:16 
9000000 1:37 2:191 3:63 4:1908 5:549 6:101 
9000000 1:27 2:42 3:57 4:600 5:6 6:138 
9000000 1:22 2:76 3:157 4:804 5:40 6:328 
9000000 1:27 2:35 3:29 4:315 5:41 6:55 
6043775.466949705 1:37 2:139 3:393 4:2260 5:158 6:392 
-9000000 1:22 2:14 3:23 4:148 5:2 6:24 
-9000000 1:22 2:85 3:54 4:352 5:121 6:63 
-9000000 1:37 2:92 3:176 4:1852 5:304 6:483 
-9000000 1:22 2:46 3:36 4:288 5:16 6:35 
-9000000 1:22 2:17 3:15 4:118 5:0 6:1 
-9000000 1:22 2:51 3:59 4:476 5:128 6:61 
-9000000 1:37 2:214 3:78 4:1472 5:470 6:170 
-9000000 1:22 2:24 3:207 4:784 5:6 6:86 
-9000000 1:27 2:22 3:71 4:452 5:4 6:94 
-9000000 1:27 2:26 3:17 4:284 5:11 6:36 
-9000000 1:27 2:188 3:38 4:1992 5:257 6:39 
-9000000 1:22 2:107 3:145 4:1387 5:42 6:35 
-451351.56672999298 1:32 2:52 3:15 4:824 5:76 6:9 
-8692613.2616035528 1:32 2:53 3:265 4:1556 5:89 6:671 
-1911146.5188598945 1:32 2:68 3:63 4:472 5:73 6:125 
-9000000 1:32 2:157 3:49 4:1176 5:332 6:76 
-9000000 1:22 2:59 3:66 4:380 5:34 6:16 
-9000000 1:22 2:25 3:36 4:188 5:5 6:29 
-9000000 1:32 2:107 3:131 4:784 5:47 6:3 
-9000000 1:37 2:116 3:68 4:812 5:65 6:72 
-4444750.6642949609 1:22 2:23 3:438 4:1128 5:12 6:40 
-9000000 1:32 2:92 3:34 4:1080 5:28 6:17 
-6442858.2677597618 1:32 2:64 3:630 4:2592 5:70 6:189 
-9000000 1:27 2:87 3:242 4:1412 5:126 6:206 
-9000000 1:22 2:20 3:96 4:384 5:30 6:16 
-9000000 1:32 2:146 3:128 4:1072 5:169 6:217 
-9000000 1:27 2:16 3:70 4:709 5:11 6:184 
-9000000 1:37 2:75 3:189 4:1280 5:148 6:448 
-9000000 1:32 2:67 3:76 4:424 5:30 6:59 
-8000356.4119757982 1:22 2:6 3:13 4:60 5:0 6:12 
