svm_type c_svc
kernel_type rbf
gamma 6e-09
nr_class 2
total_sv 44
rho 1.2102132464406488
label 1 0
probA -0.69206695086622871
probB -0.12224640682441527
nr_sv 23 21
SV
99.328061612000397 1:27 2:407 3:129 4:2480 5:52 6:67 7:985 8:133 
300 1:22 2:45 3:41 4:272 5:22 6:15 7:28 8:18 
300 1:27 2:326 3:273 4:1336 5:20 6:88 7:144 8:233 
300 1:27 2:74 3:80 4:432 5:63 6:3 7:54 8:11 
300 1:22 2:38 3:103 4:1148 5:98 6:238 7:9 8:187 
89.212967070696081 1:22 2:174 3:49 4:1972 5:292 6:4 7:373 8:90 
300 1:32 2:255 3:185 4:1616 5:188 6:190 7:253 8:310 
300 1:22 2:15 3:34 4:116 5:12 6:13 7:5 8:12 
300 1:27 2:149 3:115 4:512 5:40 6:37 7:27 8:37 
300 1:22 2:66 3:64 4:512 5:15 6:43 7:95 8:147 
300 1:32 2:159 3:179 4:1120 5:169 6:38 7:199 8:160 
300 1:27 2:193 3:65 4:1060 5:80 6:127 7:228 8:69 
300 1:22 2:29 3:12 4:168 5:19 6:4 7:14 8:23 
300 1:22 2:32 3:44 4:144 5:16 6:2 7:7 8:0 
300 1:22 2:28 3:171 4:1116 5:35 6:541 7:3 8:83 
56.180212807731579 1:37 2:502 3:283 4:2356 5:125 6:405 7:145 8:20 
300 1:22 2:107 3:37 4:1028 5:142 6:47 7:361 8:115 
300 1:22 2:127 3:71 4:736 5:112 6:16 7:119 8:53 
300 1:32 2:70 3:112 4:928 5:135 6:281 7:40 8:63 
300 1:22 2:289 3:190 4:1196 5:226 6:57 7:80 8:119 
300 1:22 2:137 3:103 4:684 5:56 6:28 7:138 8:86 
300 1:37 2:154 3:205 4:1168 5:210 6:322 7:20 8:23 
99.54879881179086 1:32 2:476 3:248 4:1868 5:188 6:159 7:474 8:305 
-300 1:22 2:22 3:50 4:436 5:11 6:99 7:2 8:68 
-300 1:32 2:54 3:58 4:368 5:11 6:19 7:61 8:4 
-300 1:32 2:58 3:138 4:488 5:94 6:194 7:115 8:119 
-300 1:27 2:363 3:55 4:1222 5:61 6:65 7:10 8:59 
-300 1:22 2:89 3:77 4:604 5:132 6:184 7:28 8:47 
-300 1:32 2:162 3:58 4:1788 5:240 6:86 7:595 8:119 
-300 1:37 2:71 3:115 4:1092 5:22 6:47 7:41 8:34 
-300 1:22 2:67 3:52 4:348 5:99 6:79 7:112 8:88 
-300 1:27 2:51 3:92 4:496 5:16 6:114 7:11 8:24 
-300 1:27 2:125 3:65 4:788 5:47 6:47 7:162 8:81 
-44.270040302218895 1:27 2:27 3:34 4:156 5:28 6:31 7:15 8:11 
-300 1:32 2:51 3:42 4:444 5:81 6:45 7:52 8:46 
-300 1:27 2:25 3:32 4:242 5:15 6:35 7:18 8:12 
-300 1:27 2:185 3:40 4:1092 5:47 6:63 7:299 8:10 
-300 1:27 2:65 3:77 4:400 5:17 6:0 7:5 8:33 
-300 1:22 2:59 3:211 4:1272 5:144 6:540 7:5 8:83 
-300 1:27 2:121 3:38 4:538 5:11 6:90 7:110 8:14 
-300 1:37 2:139 3:199 4:1386 5:86 6:176 7:179 8:411 
-300 1:37 2:647 3:354 4:2348 5:129 6:82 7:382 8:253 
-300 1:32 2:478 3:254 4:1472 5:1 6:12 7:46 8:58 
-300 1:27 2:126 3:58 4:704 5:31 6:61 7:140 8:36 
